%YAML:1.0
mlp: !!opencv-ml-ann-mlp
   layer_sizes: !!opencv-matrix
      rows: 1
      cols: 3
      dt: i
      data: [ 200, 10, 1 ]
   activation_function: SIGMOID_SYM
   f_param1: 6.6666666666666663e-01
   f_param2: 1.7159000000000000e+00
   min_val: -9.4999999999999996e-01
   max_val: 9.4999999999999996e-01
   min_val1: -9.7999999999999998e-01
   max_val1: 9.7999999999999998e-01
   training_params:
      train_method: BACKPROP
      dw_scale: 1.0000000149011612e-01
      moment_scale: 1.0000000149011612e-01
      term_criteria: { epsilon:1.0000000133514320e-10, iterations:1000 }
   input_scale: [ 1.8059411120264286e+02, -9.9275696040604389e-01,
       4.3019393241490860e+02, -1.4870141850869789e+00,
       2.3048628421387403e+02, -1.2560243760289649e+00,
       3.9524680935065078e+02, -1.1655662491719749e+00,
       8.1092904972916344e+01, -5.9688822393755414e-01,
       3.2136660215955220e+02, -1.1824964826326336e+00,
       3.1290992800584013e+02, -1.6291865040760789e+00,
       1.7072105622467441e+02, -1.1161763406238925e+00,
       4.1135116173695661e+02, -1.6187497629822321e+00,
       1.2576176141753220e+02, -1.2093144844691082e+00,
       3.8386119947623149e+02, -1.1974488819054454e+00,
       3.9184330667477138e+02, -1.5473538929875046e+00,
       3.8503758291693282e+02, -1.1410173102643388e+00,
       1.2180577274849659e+02, -1.1700281860778610e+00,
       4.3934371436487436e+02, -1.4578736831492809e+00,
       1.7459381329607825e+02, -1.7590203499515500e+00,
       1.4603005779512671e+02, -1.5439656814611424e+00,
       3.0611818193268215e+02, -1.5102470291611894e+00,
       3.7272919351612876e+02, -1.0189554452189118e+00,
       2.9399463652086956e+02, -1.2360152075425586e+00,
       3.7239648238404590e+02, -1.5140645444546612e+00,
       3.5704118317901231e+02, -1.8260849867869817e+00,
       5.5245777320290017e+02, -1.3476993427099875e+00,
       2.5430535796475695e+02, -1.5677506966839989e+00,
       4.3075259795968452e+02, -1.7107407723522008e+00,
       3.1105651873902173e+02, -1.5771742687240096e+00,
       5.6934054146897472e+02, -1.7098270383199756e+00,
       3.0648299999158422e+02, -1.4803361545024911e+00,
       2.7627440754458951e+02, -1.3974532032220452e+00,
       7.2164151397121350e+02, -1.6979983288340914e+00,
       3.9039774698185050e+02, -1.6652295975555766e+00,
       1.6066935131036743e+02, -1.3438903332333796e+00,
       4.1637365633012649e+02, -1.0897049926874498e+00,
       1.7533132176789292e+02, -1.0970032821007591e+00,
       4.0338125449243870e+02, -1.7358660558372012e+00,
       1.8192114084573728e+02, -1.0305793631269788e+00,
       6.7786816098945235e+02, -1.4296919900408329e+00,
       2.7427551766614943e+02, -1.8593597723722852e+00,
       4.6988670008261744e+02, -1.6042644148926568e+00,
       1.8669660437289266e+02, -1.6521201012057367e+00,
       3.9434663564736911e+02, -1.7195601521293411e+00,
       3.5230642012874767e+02, -1.1887526478199160e+00,
       3.3867108483232460e+02, -1.6685768639123273e+00,
       3.5721359867468021e+02, -1.3689426957193862e+00,
       4.9106930850661377e+02, -1.0532915624190993e+00,
       4.1431473285043177e+02, -1.2579833053749128e+00,
       4.8120526411975442e+02, -1.4364727142277665e+00,
       1.3523591380397085e+02, -8.6086158710306859e-01,
       2.1352454748515419e+02, -1.3017170659040944e+00,
       4.4658359203781771e+02, -1.4324611036497013e+00,
       4.1149436659242451e+02, -1.5368642399266921e+00,
       2.0569770479221370e+02, -1.6608480734380189e+00,
       3.6238946688049685e+02, -1.2216327831909188e+00,
       3.7019460766366274e+02, -1.3445295568142150e+00,
       2.1074839024886319e+02, -1.4030953548269665e+00,
       4.7561048057929241e+02, -1.5453561279819135e+00,
       2.7420107591861591e+02, -1.1609154381897544e+00,
       1.4202179815534313e+02, -8.9452942619244769e-01,
       1.7153868165370824e+02, -1.4457662601705914e+00,
       1.8585046944169528e+02, -1.4872271957724543e+00,
       4.0531364948154425e+02, -1.3717132323572745e+00,
       2.7165997674860307e+02, -1.3078427041891714e+00,
       5.5691953238820599e+02, -1.9471737101467936e+00,
       5.4461598227338936e+02, -1.6912116873295004e+00,
       2.4160240779210045e+02, -1.4918361857605908e+00,
       3.5307777507150166e+02, -1.3443436194786371e+00,
       1.7844885240748471e+02, -1.0666011632895143e+00,
       7.3602518541825248e+01, -1.0295137969086183e+00,
       2.2324290399973296e+02, -2.2242678352953389e+00,
       3.8967907334995590e+02, -8.2939842438557954e-01,
       2.6552912800621112e+02, -1.2536333256696142e+00,
       3.0649471927326783e+02, -1.3017991165974681e+00,
       3.5855898450374292e+02, -1.8695196176278948e+00,
       6.3440191001499966e+02, -1.5396915824382893e+00,
       2.4810239790537551e+02, -1.0446420651147617e+00,
       3.2320660857689523e+02, -1.4186173717160058e+00,
       6.9933896435950956e+01, -1.2890996026071919e+00,
       2.4441878270114890e+02, -1.5126628583728172e+00,
       9.8948649057886186e+01, -9.8486593928678867e-01,
       4.6807658027146658e+02, -1.4490263571984743e+00,
       6.0505616619519721e+01, -7.8284339312352935e-01,
       3.3193266588083583e+02, -1.1212000469332548e+00,
       3.8902283014524767e+02, -1.4808029707909489e+00,
       3.0079351531430075e+02, -1.5539856286929836e+00,
       1.4062161228691943e+02, -1.3511177938769829e+00,
       2.7914053585946027e+02, -1.4059809741712013e+00,
       1.5107937124469149e+02, -1.0616331996601307e+00,
       3.8734688191658768e+02, -1.0780370770062835e+00,
       3.5483012683179629e+02, -1.8191078911786023e+00,
       3.6156819233735524e+02, -1.4737897360470167e+00,
       2.9827647761382275e+02, -1.5115374630081395e+00,
       2.2465608930604469e+02, -1.3206632338291917e+00,
       3.3782948557525680e+02, -1.4608832408588823e+00,
       3.0575853900969599e+02, -1.2430260311474588e+00,
       1.4389088819373831e+02, -1.5942785670044832e+00,
       5.2817386470625615e+02, -1.4596473539891659e+00,
       2.1702339023715109e+02, -1.7046571808444695e+00,
       1.5513361067996769e+02, -1.3028118709898142e+00,
       7.3657254787410665e+01, -1.0629821589498840e+00,
       4.3580902600594681e+02, -1.2610597609034429e+00,
       4.0365277206050962e+02, -1.9543639317846366e+00,
       3.9110565765655599e+02, -1.8112037136573100e+00,
       4.7810274128276700e+02, -1.8090580869849375e+00,
       1.3380136147672027e+02, -8.8390368402850328e-01,
       1.7806094283652314e+02, -1.7477340230925917e+00,
       3.6765928755191783e+02, -8.4593241811919018e-01,
       1.8992620068158820e+02, -1.7168534258960624e+00,
       3.6552508282141594e+02, -1.0707891824463311e+00,
       3.3079971148064641e+02, -2.2702886720691118e+00,
       3.2738921148884242e+02, -1.1883502067139484e+00,
       4.0464083718745366e+02, -1.7877241797458292e+00,
       5.1701650722615113e+02, -2.1061535034820213e+00,
       1.8035360155378569e+02, -1.4777660709182407e+00,
       3.5796530659790938e+02, -8.3900889626278385e-01,
       5.1610105534547938e+02, -1.8042267390276703e+00,
       3.3273739142777049e+02, -1.3860894851911663e+00,
       2.5976826955987963e+02, -1.6328258624899166e+00,
       4.3677439344852297e+02, -1.4846281212890495e+00,
       4.1121297019522814e+02, -1.0751141909079824e+00,
       4.4380754833436993e+02, -1.5060202792956321e+00,
       5.1511853078939828e+02, -1.2040101267437642e+00,
       3.2482667528679377e+02, -1.2880993097073143e+00,
       2.6562773671481148e+02, -1.5170390904935931e+00,
       4.9408861280205247e+02, -1.1216090250697499e+00,
       4.0461356322463359e+02, -1.5053383058878251e+00,
       4.4131030910306077e+02, -1.8439549266929505e+00,
       2.0359390200772057e+02, -1.3626280621022451e+00,
       4.1497341484993018e+02, -1.6875835713209590e+00,
       2.1027678310012467e+02, -1.0019420103453192e+00,
       1.5468012687483014e+02, -9.7552922711564916e-01,
       4.8088159180680572e+02, -1.3967481998080591e+00,
       3.6442003716590244e+02, -1.6759328586674489e+00,
       3.2383162863425264e+02, -1.3909092018645044e+00,
       4.2822422332869610e+02, -1.2034517775238871e+00,
       4.2624217616603761e+02, -1.2542812344184759e+00,
       1.8723205535316094e+02, -1.4342326175939892e+00,
       8.5505740176216349e+01, -8.9560441508769995e-01,
       5.0934504191938350e+02, -1.2362770474753961e+00,
       3.0362869392192817e+02, -1.2224760224426185e+00,
       2.0549804639982952e+02, -1.1712009506900172e+00,
       3.5628433166409638e+02, -1.3457039718193835e+00,
       3.1301382174004272e+02, -1.3691225704231416e+00,
       3.5711464833718583e+02, -1.1109822833239928e+00,
       6.5482844739094503e+02, -1.2804301437849268e+00,
       2.6046451204116380e+02, -1.5387400965578009e+00,
       5.6964710704210393e+02, -1.4489015318299896e+00,
       5.7704451268435253e+02, -2.3087228913469029e+00,
       2.4787818841540175e+02, -1.6625329985200157e+00,
       3.4164156212457976e+02, -9.4428558466092327e-01,
       1.7151291905605876e+02, -1.2165648536235909e+00,
       4.9951163914184519e+02, -1.7800791425281464e+00,
       4.6768102268878135e+02, -1.5711282364074679e+00,
       4.6837085687037427e+02, -1.6093441482729633e+00,
       2.6120968385438874e+02, -9.9900407126110646e-01,
       2.6970535724330574e+02, -1.4141285770123044e+00,
       3.3909267000565757e+02, -1.3897044287210476e+00,
       3.8162955345509727e+02, -1.5007386629958226e+00,
       2.1940301373625616e+02, -1.3632268655637969e+00,
       6.6536682318064982e+02, -1.3986296320791041e+00,
       3.0648189675806475e+02, -1.3737200516438239e+00,
       5.1700988038920002e+02, -1.5334089171811394e+00,
       2.5026780084043739e+02, -1.6132145580197137e+00,
       3.7005898442999842e+02, -1.5397282516025834e+00,
       2.6036601611958139e+02, -1.6998974566135594e+00,
       1.7586850947186863e+02, -1.4217199927188362e+00,
       3.3891831115792667e+02, -1.5750601722911592e+00,
       3.7856541163707931e+02, -1.3944470871903685e+00,
       3.9578364708735415e+02, -1.8186400397507771e+00,
       2.7906786756139820e+02, -1.5325218792913378e+00,
       2.9003666691150369e+02, -1.5939872152758681e+00,
       3.5172982697935333e+02, -1.1316016212784776e+00,
       1.9869798561039082e+02, -9.2152669534076315e-01,
       2.5555609047344259e+02, -1.1659212473325158e+00,
       2.6796537488815210e+02, -1.5492249704451933e+00,
       3.0052912586156469e+02, -1.4823081162492107e+00,
       4.7042486016762928e+02, -1.1248718747407160e+00,
       4.5024002297317128e+02, -1.6892798085211802e+00,
       4.0812364567744191e+02, -1.5251016093570295e+00,
       3.5670549837648582e+02, -1.7590555119530429e+00,
       3.8861281598945692e+02, -1.3049888877572202e+00,
       5.0396471014787778e+02, -1.9881836208875303e+00,
       5.0272558877238913e+02, -1.0043419088030037e+00,
       1.1278461592705203e+02, -9.8178789472465433e-01,
       2.8388128181422212e+02, -1.7392646710893167e+00,
       3.8327416938335904e+02, -8.7174387299410194e-01,
       5.3284744882484438e+02, -1.2887980145110569e+00,
       1.2308612666619946e+02, -1.3521728115630265e+00,
       3.3728627110034347e+02, -1.4225808270250035e+00,
       6.3362298159031980e+02, -1.1135420782943881e+00,
       3.0562390907819679e+02, -1.2503648945123844e+00,
       2.5376274202294394e+02, -1.3580945660578911e+00,
       5.6791367257401373e+02, -1.7263279709161350e+00,
       5.3104335924540726e+02, -1.2880158410749365e+00,
       2.0353985761402751e+02, -1.4306403861212813e+00,
       3.9924039820820360e+02, -1.8788455037664811e+00,
       2.2029158375724413e+02, -1.0457601430086005e+00,
       4.7799784984049393e+02, -1.2632431580997308e+00,
       3.8042639424929536e+02, -1.6637850106025336e+00,
       3.1470233657373632e+02, -1.7023372500839373e+00,
       3.6992790818801956e+02, -1.4420551006720645e+00 ]
   output_scale: [ 1.0526315789473684e+00, 0. ]
   inv_output_scale: [ 9.4999999999999996e-01, 0. ]
   weights:
      - [ 2.7212739561559329e-01, -2.9967438881884495e-02,
          2.1075801141680776e-02, -3.6400944859706470e-02,
          -3.8130951023672706e-02, -5.7679348890513158e-03,
          3.1412468989559648e-02, -8.0240425244241676e-03,
          1.8955633608005305e-02, 1.7802875513722321e-02,
          -1.8564751039343158e-01, -4.9620579579364200e-02,
          -2.0815662306946332e-02, -3.6874682182704427e-02,
          -2.1689193416482126e-02, -1.5246558878160421e-02,
          3.5949574796865724e-02, 4.0979175203639480e-02,
          -3.5503479916302516e-03, 4.9157985740406217e-02,
          -2.3372216413013594e-01, -3.3164914633536874e-03,
          -2.1293862477229180e-02, -9.4998988998669133e-03,
          -2.0755417902416969e-02, 9.8664624520239681e-03,
          1.3096496999756738e-02, 2.7672621235309103e-02,
          -3.0944819781019383e-02, -7.9655777587171305e-03,
          -5.1174957812026071e-02, 1.4732593241931491e-01,
          1.0240562452991434e-03, 1.6260891764943797e-01,
          1.3390622273808278e-01, 7.0543095872825978e-02,
          -1.1011531626437125e-01, -8.5568262049303095e-02,
          -3.0174558458794548e-02, -1.6175236461403938e-01,
          1.8964060557430726e-01, 1.2424179349200782e-03,
          1.6717862634109518e-02, -8.5195698572844494e-03,
          -3.8030373791524074e-03, -5.3369794828630806e-03,
          -4.1105299437470353e-03, -1.9740910657677028e-02,
          2.4674033653851669e-02, 1.2609158221746292e-02,
          -5.1097466469524469e-02, 7.4203521616032178e-02,
          -8.1015418425111393e-03, 8.9065069042604958e-02,
          6.9375545867899180e-02, 3.6040984606654392e-02,
          -6.2450117306050199e-02, -1.6760073152707201e-02,
          -2.5513091930133382e-02, -6.7049424254421799e-02,
          -9.5312131038276210e-02, 2.9660809291583622e-02,
          -8.3712999723679939e-03, 3.1420222210020006e-02,
          2.8893863501547216e-02, 1.4523149142150499e-02,
          -2.4840977251893163e-02, -1.2211556189721791e-02,
          -2.2306712303536123e-02, -3.3107193874918978e-02,
          -2.1425687381934285e-02, 2.8489101711936457e-02,
          3.8821550706110747e-03, 6.9513694020563024e-02,
          5.3284355518234683e-02, 1.4034738210093328e-02,
          -3.4207405858723651e-02, -1.8844650610343502e-02,
          4.9256577562915554e-03, -3.2019583831355294e-02,
          2.9103504587965363e-02, -1.8192759230962259e-02,
          3.0359188018327975e-03, -2.6455462460514539e-02,
          -1.0327443699749930e-02, -1.8082757186461684e-02,
          -1.5114316202118115e-03, 1.1036773624106457e-02,
          4.8707297120540354e-03, -1.1573380948142662e-03,
          9.7130482295436582e-02, -6.9119368240191700e-02,
          4.2741074928419158e-04, -5.5284941770036178e-02,
          -4.6946664409059695e-02, -3.7429449674279233e-02,
          4.4700184869973097e-02, 3.1687467711855585e-02,
          2.0948458675713173e-02, 6.1305015590111950e-02,
          -2.3250089611771380e-01, 7.9018956840826021e-02,
          6.5911071842670015e-03, 4.3491363087948362e-02,
          4.2577821426703383e-02, 4.2171315401649097e-02,
          -4.5800772178604399e-02, -1.5519590295248154e-02,
          -1.4731377303102628e-02, -6.8892687341126496e-02,
          -4.8702336563345570e-02, 1.1541500286013662e-02,
          1.0448883063233811e-03, -6.9129787865368870e-03,
          1.2483748368466475e-02, 1.7664571789634827e-02,
          -2.7222870525407745e-02, -1.6583595001476562e-02,
          -1.3982607668629628e-02, -1.5569962376915016e-02,
          -3.0087861807132887e-01, 9.8499743128506248e-03,
          -1.5312560092794717e-02, -9.9408984268099087e-03,
          -4.6620271713181783e-04, 1.6018003339384435e-03,
          6.2115020200333680e-03, 2.2053721448040936e-02,
          -2.3291804435189092e-02, 5.4824546280288237e-03,
          3.1436643992853161e-02, -3.4053895934768923e-02,
          -9.2686121795182465e-03, -1.9704005335971762e-03,
          4.3007937131628515e-03, -1.4390449674704228e-02,
          2.6392300698078408e-02, 3.9760194995662650e-03,
          1.0156361580107283e-02, 3.0277786608711499e-02,
          -2.7463204857621842e-01, 1.8591907734362100e-02,
          -3.6458638960282837e-03, 3.6032705069199547e-02,
          3.4848089625956022e-02, 3.7376396937927221e-02,
          -3.1652457859544417e-02, 1.6305583682335357e-02,
          -2.5880309536845732e-02, -2.7202263680410871e-02,
          -4.8558766885358384e-01, 4.3618455109697474e-02,
          -2.6450232863085399e-02, 3.2001103246572286e-02,
          2.4223577463247065e-02, 3.6905663474115356e-02,
          -2.7885869585209392e-02, 1.0421266309924340e-02,
          -5.1227259390740319e-02, -3.3879022542816398e-02,
          -3.2699795540035681e-01, -9.6363308529410618e-03,
          -2.3192341890405262e-02, -4.4254826393362069e-02,
          -4.2920120471271479e-02, -7.9263354837750422e-03,
          2.3984375300435342e-02, 4.6465757157551246e-02,
          -1.5171975213668623e-02, 1.7066314232333440e-02,
          1.3333128556780877e-01, -5.9444106754714982e-02,
          2.8748492599916647e-04, -4.8359034495557479e-02,
          -3.5001719885603466e-02, -3.3340279199233977e-02,
          4.8178025057361566e-02, 3.1638370228854899e-02,
          2.1936274409297359e-02, 6.4826084738836345e-02,
          5.7940430053600146e-02, 2.9228208852186771e-02,
          -1.5116227642664277e-03, -2.9986668341549713e-03,
          -3.3284626494757652e-03, 3.2973982619117644e-03,
          -2.7038121758659493e-03, -2.5102898593692170e-02,
          -3.0920348034987502e-03, -1.7491698544220464e-02,
          2.0838269741624013e-01, -7.9540206542739592e-02,
          1.0150813563770827e-02, -9.0670711371371171e-02,
          -9.2533408972471892e-02, -3.2957431238190074e-02,
          4.8884617818790423e-02, 1.6479031163133328e-02,
          2.8975679438165338e-02, 7.0736728264144386e-02,
          2.3924629214283344e-01, -1.2148451466855162e-01,
          2.4202942288914934e-03, -9.4455848147107058e-02,
          -8.9876159590200649e-02, -4.9283352790329034e-02,
          1.0512360802356586e-01, 3.7443292852553198e-02,
          1.9224006607155536e-02, 1.0049642319801858e-01,
          -1.8667250387839918e-01, 1.3270224301302139e-01,
          -4.6440759193798224e-03, 1.6812195465410776e-01,
          1.6094927408944484e-01, 7.4506849002676678e-02,
          -1.1801668914513014e-01, -6.0228839846045608e-02,
          -3.8127312269168982e-02, -1.3920905532040606e-01,
          2.7590834328890645e-01, -9.3717543049167781e-02,
          -5.2216183033663398e-03, -7.0164634274689372e-02,
          -4.9352651333565610e-02, -3.2102062948779653e-02,
          6.5522327655037724e-02, 3.0452516380419473e-02,
          1.6233540155325226e-02, 7.7169594274857520e-02,
          -4.3581884876090521e-01, -2.4006936663231839e-03,
          -2.4291344246139251e-02, 1.3817901081652230e-03,
          -4.4455127963043024e-03, 3.1869708280888856e-03,
          8.2336752477554596e-03, 6.1983572767795772e-02,
          -2.2662585225166614e-02, 4.2562853989388883e-03,
          2.9730780962163716e-01, 5.8968537494419942e-03,
          2.0292806849724093e-02, 2.2529286676746897e-02,
          2.9198803659261894e-02, 2.1822358467557105e-03,
          -1.2527029598177631e-02, -5.5781937094888594e-02,
          5.7677785561525384e-03, -1.4059089340813640e-02,
          -1.8153043347668299e-01, -4.1188785954857268e-02,
          -1.9542273368639514e-02, -2.4434866029489872e-02,
          -2.3957236214220287e-02, -8.2602718659416929e-03,
          3.8978391827897550e-02, 3.4924855214546927e-02,
          -1.5748201774516139e-02, 4.2430260980113509e-02,
          -2.8134564736228718e-01, 3.1578837805521884e-02,
          -6.7744673243064985e-03, 6.1174824574736338e-02,
          5.1514931225166351e-02, 3.0395444502832516e-02,
          -3.5048623653048554e-02, -5.7503687561999048e-04,
          -2.6037658106142690e-02, -2.5272738690739413e-02,
          4.0314823260551258e-01, 1.0047538175641696e-01,
          3.3978314913149232e-02, 6.4826565559771926e-02,
          7.2518090329461202e-02, 3.9252456152493280e-02,
          -1.0613960814330732e-01, -1.1169869669978681e-01,
          1.1358899133372048e-02, -9.9824890189190787e-02,
          -9.9752648648991207e-02, -5.2263015210153696e-02,
          -1.4544385674285848e-02, -9.3376240195278792e-02,
          -8.0981510235368759e-02, -3.5615154731481045e-02,
          5.0884239145097938e-02, 3.9883756804870434e-02,
          -6.5494119377550071e-03, 8.3749807002883897e-02,
          2.9576142650171997e-04, 1.9400330750547846e-02,
          1.5239957807312750e-02, -3.5855690853538479e-03,
          -1.0442990103941277e-02, 1.5568207599920765e-02,
          -1.3525996734023318e-02, -2.3818062665661777e-02,
          3.9756179224888421e-03, -2.5914877465754951e-02,
          -6.3825771365752337e-01, 3.8939665728893576e-02,
          -1.6187312080958454e-02, 6.8381881189814087e-02,
          4.2015749332240927e-02, 2.7141399160787665e-02,
          -2.0671556225274678e-02, 3.8302723466454802e-02,
          -5.3562558527400599e-02, -4.8639757903082836e-02,
          -8.4335458197013269e-02, 3.8950742153681502e-02,
          1.4220360292147237e-02, 3.1917345808986738e-02,
          2.9211946027482387e-02, 3.3147095692281636e-02,
          -3.1630412230619770e-02, -2.0208883097067483e-02,
          -1.6351762496388861e-03, -3.8856255572641343e-02,
          1.3555553339204368e-01, 1.4045196066947824e-01,
          1.4008072496288328e-02, 1.4178286100648893e-01,
          1.2795949178451652e-01, 4.8363267532928307e-02,
          -1.2962818585657804e-01, -1.0544964791087541e-01,
          -1.8813394206538426e-02, -1.3607216176976730e-01,
          -7.1513692500190365e-02, -4.4668517751307903e-02,
          -1.8478858459103607e-02, -4.9068900222691704e-02,
          -5.3942586872416924e-02, -1.0711445918444971e-02,
          3.5528191622611879e-02, 5.1931881520556868e-02,
          -8.4692792013766061e-03, 3.3279370623274768e-02,
          -9.7883654147005186e-02, -6.6430141474614277e-02,
          -1.1254714546534067e-02, -6.2288720937760653e-02,
          -6.3797858582685912e-02, -1.9742863138875858e-02,
          5.7415107261890787e-02, 3.7213000171827423e-02,
          -6.8645475607443133e-03, 5.7229191897046859e-02,
          -1.5551498607372735e-01, 1.9780028977869436e-02,
          -1.2605252148132878e-02, -1.0839276131455878e-02,
          -2.6929681421078697e-02, 7.9960759549955861e-03,
          1.6938976979473660e-02, 2.5801098960495556e-02,
          -3.9444817330240118e-03, -1.6581311059791621e-02,
          2.7848093194814211e-01, 5.1225849872154713e-02,
          1.3866337674521773e-02, 6.2698245558560947e-02,
          5.2086165032981420e-02, 1.2935492308834390e-02,
          -5.0294683062610916e-02, -4.3063209072217022e-02,
          2.8622433043544601e-02, -4.3198581252429737e-02,
          -1.1060998324103329e-01, 8.2191636238778037e-02,
          -1.9953800172411430e-02, 8.0631708637867616e-02,
          6.8799915867731931e-02, 3.7218524078645024e-02,
          -6.4305158435066415e-02, -3.5543992379188476e-02,
          -4.0578311190646837e-02, -6.9393966485944161e-02,
          4.6890729286119440e-02, -5.7103170215111104e-02,
          -1.0842216214971355e-02, -6.3955254634052869e-02,
          -4.6956057241579877e-02, -2.4746799103675002e-02,
          5.1069242182327841e-02, 2.9229981547467771e-02,
          2.0290405464284796e-02, 7.3827987524796149e-02,
          2.0198045518331312e-01, -1.8782630518506819e-02,
          7.8185299890372942e-03, 3.2370856358362878e-02,
          2.0907537073649937e-02, -2.0105047150414949e-02,
          2.6025952432322183e-02, -9.3844827856479562e-04,
          1.8738625817538778e-02, 1.2735126420935553e-02,
          2.8760303747796767e-01, -4.9472656575935074e-02,
          8.0020048993508335e-03, -3.5990366593676694e-02,
          -1.2852370247077465e-02, -1.7633210085042025e-02,
          3.3991847437846556e-02, -2.9446985386563321e-02,
          3.1887252485497931e-02, 4.0821673257427873e-02,
          -7.3973762796194480e-03, -5.0502921885811403e-02,
          5.3947535593814920e-03, -7.5668134667018813e-02,
          -6.2994972567636823e-02, -2.7929382498792996e-02,
          4.3621598711330416e-02, 4.2367649854553657e-02,
          1.6244385928209869e-03, 6.7468757040254054e-02,
          1.2810234518733429e-01, 2.7707350980064136e-03,
          6.9209903581858388e-03, 3.3191760531239921e-02,
          3.6353576655509603e-02, -6.1437127063024479e-03,
          -2.1682383002769669e-02, -1.6926123188926626e-02,
          1.3942940998834724e-02, -2.1345630086500944e-03,
          1.2474931456946933e-01, 7.6644786654335717e-02,
          1.4075930026984082e-02, 6.6990093157365566e-02,
          6.5803426422254674e-02, 3.5512708254958239e-02,
          -7.8077304963780444e-02, -6.0978701473354734e-02,
          -3.6030546261947008e-03, -7.5782621816888232e-02,
          -2.5546008783657126e-01, -7.1552475801833701e-02,
          -2.2477264358972900e-02, -9.2787704369533736e-02,
          -8.2408358244212443e-02, -1.6592881514095936e-02,
          5.3584545296314672e-02, 7.1848898757620100e-02,
          -1.1035567851005935e-02, 8.9166924063763822e-02,
          4.3316936422356574e-02, -8.9029194793130928e-02,
          2.8725955655509319e-04, -1.0049029209854277e-01,
          -8.2233976472373640e-02, -4.9987558161211892e-02,
          5.6921872783542632e-02, 4.6337896619884564e-02,
          9.7682278933959744e-03, 9.3751033260567121e-02,
          3.5481481015045890e-01, 6.9773485613978036e-04,
          5.8997648699329764e-03, -9.2313660702512592e-03,
          -9.0490509852960352e-03, -1.2140633306890320e-02,
          5.2754936524473904e-03, -3.4734990753267969e-02,
          2.0470864802284737e-02, 1.0180950968547054e-02,
          1.5864979924586564e-01, 1.3823939901335594e-01,
          2.1816599927010207e-02, 1.3177785264121525e-01,
          1.2659065316336790e-01, 5.8584448210298005e-02,
          -1.1716317833110031e-01, -9.1088777189500633e-02,
          -1.0570029695850950e-02, -1.1711393014850340e-01,
          1.5667821684733754e-01, -3.3646880683679860e-02,
          7.5028387222649678e-03, -1.0727038316672130e-04,
          1.0430935733917585e-02, -1.7725096871776459e-02,
          4.0210588286800270e-02, 1.8776280389282730e-02,
          1.7967902557379560e-02, 2.4142203727073319e-02,
          -7.7743439644215873e-02, -3.5855579943376986e-02,
          3.6921907195849534e-03, -7.0869477627874947e-02,
          -6.6778108089656785e-02, -2.0404295417385612e-02,
          4.8477226271837537e-02, 4.3536020430387901e-02,
          -3.5251302139655822e-03, 5.6725621774529590e-02,
          -6.5501219824960447e-02, 3.9623964924412863e-02,
          -5.5101037546335316e-03, 1.4377543178295205e-02,
          8.9600609274851604e-03, 2.0583759070983830e-02,
          -2.9043837970294605e-02, -2.6019674471574543e-02,
          -2.1356572260152144e-02, -2.1386418037123066e-02,
          7.1846602754293003e-04, -9.4371202600492379e-02,
          -1.0840646004398458e-02, -7.5233465490337575e-02,
          -6.3459559171269928e-02, -4.5826970432736792e-02,
          7.9742093516339235e-02, 5.1535635983930489e-02,
          7.3186766856847647e-03, 8.3572925729359926e-02,
          -1.1043650353516062e-01, 5.4708928309174697e-02,
          -2.3458704993605663e-03, 4.0540703457139234e-02,
          2.9886255487749883e-02, 4.6298531981090366e-02,
          -5.5702936204570078e-02, -3.1420193929253069e-02,
          -1.9236688937771848e-02, -5.4652048928221085e-02,
          3.0523354580728962e-01, 9.1047711989943506e-02,
          2.3062934146625438e-02, 7.6319116215341667e-02,
          7.9675877560115224e-02, 3.6458634872777736e-02,
          -6.5818037267574708e-02, -7.8845402555951419e-02,
          5.6213035771243008e-03, -8.2186741550223014e-02,
          8.6625083333441474e-02, -3.7312045358282538e-02,
          6.7146595274421485e-03, -2.5174307978963761e-02,
          -2.5087355733573870e-02, -2.5720474156934400e-02,
          3.6264133220725012e-02, 3.0706043258954603e-02,
          1.4751844481084738e-02, 3.5657955506945352e-02,
          2.8300812696061904e-02, -1.5011801772335770e-02,
          1.0986575867925044e-02, -1.5401071770808432e-02,
          -6.1553559232490514e-03, -1.0588960117345307e-02,
          -2.2411609293471850e-03, -3.0994657021653069e-04,
          -5.4054022259900688e-03, 1.3005949283875350e-02,
          -1.1069546841804924e-01, 6.6215380268452653e-02,
          -7.4452577555609552e-03, 7.7666077045035711e-02,
          6.9256124312619266e-02, 2.1468530506818871e-02,
          -4.8535785453397443e-02, -2.1464866452522199e-02,
          -1.2738880158307432e-02, -8.3951787961164384e-02,
          -3.5548227529078866e-02, 4.5416006389775297e-02,
          4.3175767922537210e-03, 4.4446996053680764e-02,
          2.0259592352137808e-02, 2.2342017372007066e-02,
          -2.8118317026821396e-02, -3.4355950188516983e-02,
          -5.4295507150750582e-03, -4.7769975384571860e-02,
          9.1818009702669373e-02, -1.1707373281373104e-01,
          -5.6545519692991607e-03, -1.1457558008453499e-01,
          -9.6685324598061756e-02, -4.2474082845248569e-02,
          1.0410488502247207e-01, 5.0738051059279116e-02,
          1.5324026691469157e-02, 1.1741421793330996e-01,
          5.4577232970203460e-01, -1.1943627059593463e-01,
          2.6849183209477361e-02, -1.1187584399601318e-01,
          -1.0748941856372654e-01, -8.5045888462153954e-02,
          1.0099140633952315e-01, 3.6660336410482289e-02,
          5.6953769725991470e-02, 1.0876237809390911e-01,
          4.4635319302468329e-01, -1.2451481035941221e-01,
          2.2252039567591853e-02, -1.3769646893518761e-01,
          -1.2892261689311213e-01, -7.2891703229117297e-02,
          1.0212928956073423e-01, 4.5940361949260586e-02,
          5.2597952301536591e-02, 1.1685812656013127e-01,
          1.9667520598405611e-02, 3.1925943036677756e-02,
          -1.3242793216237834e-03, 4.5786542593353081e-02,
          3.0400102431709573e-02, -4.2873605693549666e-04,
          -2.6462568394252872e-02, -6.5916734138260109e-03,
          -2.4563989461219632e-03, -2.6035868404622065e-02,
          9.3688097425862898e-03, -1.0992124081702732e-01,
          -4.6991206987100249e-03, -8.6815316466401588e-02,
          -9.0223578320428918e-02, -4.3873898260559083e-02,
          8.7735696408507924e-02, 6.8861588795702630e-02,
          8.6093112937812681e-03, 1.0658602344667552e-01,
          2.8335673085082430e-01, -5.9952636859941566e-02,
          2.4028025024305118e-02, -7.4811391512966410e-02,
          -4.9159376674671379e-02, -4.1881516352709827e-02,
          4.0920070966151988e-02, 1.1005111653543294e-02,
          3.9903556815142793e-02, 6.6090574895456222e-02,
          -1.5100285743611741e-01, 7.5624045952795552e-02,
          1.8614541388181144e-03, 6.0446403563640817e-02,
          3.8118532779818907e-02, 2.9427996813923538e-02,
          -5.2992691665140285e-02, -1.7243071651575213e-02,
          -8.9690174482815552e-03, -5.4426537768473088e-02,
          1.8279120123353304e-01, 2.5393960101751149e-02,
          1.6011339340325167e-02, 9.6265534183935519e-03,
          1.2620246530586309e-02, -1.0373639238799781e-02,
          -1.4391394004345725e-02, -2.6999302181281576e-02,
          8.1872600138675668e-03, -8.2781465990554547e-03,
          -2.0660823999679508e-02, 1.3769169630267619e-01,
          -5.7324041751502372e-03, 1.2087893454281158e-01,
          1.1704587530259108e-01, 4.6344261229914530e-02,
          -1.0985862757517306e-01, -7.5447036718487459e-02,
          -1.5838668276892648e-02, -1.1189620619293598e-01,
          -4.1929004312859196e-03, 2.9966346590051002e-02,
          -6.2057269482048757e-03, 3.3530879885418696e-02,
          1.8571962891026618e-02, 9.4588534232596892e-03,
          -2.3174135767987575e-02, -2.3717642499934154e-02,
          -7.3662689692888597e-03, -3.1945592368667085e-02,
          3.1447125712129126e-01, -3.0043539623268622e-02,
          2.1065966127561866e-02, -2.5733474538697735e-02,
          -2.5358213868723254e-02, -1.1973886476410853e-02,
          2.1645277612254762e-02, -1.2823930892836486e-02,
          2.2997463269540681e-02, 2.5148709789670570e-02,
          -1.1457667405609319e-01, 7.0706855681482175e-02,
          -1.0219527864886998e-02, 6.4333880656411588e-02,
          5.8712386288167981e-02, 5.3982252489257143e-02,
          -7.0530857051275403e-02, -5.1853561290762483e-02,
          -2.8934586798182126e-02, -7.2649558409693255e-02,
          6.5631804530137644e-02, 3.9873790720159050e-02,
          -7.5479133985409484e-04, 2.9939668983981298e-02,
          3.7797839830191013e-02, 2.2201662248677468e-02,
          -4.6554749223327668e-02, -4.2791778488917298e-02,
          -1.1930694129991643e-03, -3.4743164434060711e-02,
          -8.6895182857334941e-02, 3.5258084990036583e-02,
          -8.8693651719476841e-03, 2.2153633280623624e-02,
          1.8404108890264736e-02, 1.9035953546013479e-02,
          -2.3333189644456315e-02, 7.2176952497545318e-03,
          -1.8020272429547759e-02, -1.5877119050044162e-02,
          -5.5310054202813708e-02, 1.1295912886191446e-01,
          1.4258428915597197e-02, 9.3395867321797985e-02,
          9.1729233424463374e-02, 5.5164876553962981e-02,
          -9.8728951849880120e-02, -8.3868648826755432e-02,
          -2.6138655993686359e-02, -1.0819346863158502e-01,
          -1.9138339893837675e-01, -1.1746502578402188e-01,
          -2.8906111975330755e-02, -1.2215759154056691e-01,
          -9.9115949894815411e-02, -3.8684006660610670e-02,
          9.9061786641742117e-02, 1.0398407311049764e-01,
          3.9544124667597194e-03, 1.1244641890096539e-01,
          -1.3383331836812254e-01, 1.2725091306225389e-01,
          1.1413508407828834e-02, 1.2051321016184338e-01,
          9.0189343471983083e-02, 6.5361729710721669e-02,
          -1.0214085048041162e-01, -5.4771551559547910e-02,
          -1.4105330680124725e-02, -1.1439499366717211e-01,
          2.2767059225765839e-02, -2.3746691728284492e-02,
          -1.7237231629906031e-03, -3.0514348880184363e-02,
          -2.6527966584310780e-02, -7.7039967684291149e-03,
          2.1845153310577969e-02, 2.1046005281861561e-02,
          -4.1141633256786868e-03, 2.7437439666165374e-02,
          -6.3035855022649440e-02, 3.5836169383540006e-02,
          1.6361805146631295e-03, 1.8922697097428113e-02,
          2.4961089966893595e-02, 3.3216983277347775e-02,
          -1.8636725161593721e-02, -2.0280911828604482e-02,
          -1.6006749631038420e-02, -3.1474211706438750e-02,
          -3.0143460619488066e-01, 6.7995227211025702e-02,
          -1.1632670217196023e-02, 7.1617078957848440e-02,
          6.8133004718619966e-02, 5.9183754703856714e-02,
          -7.2334762460320265e-02, -3.1011092609331447e-02,
          -4.7081582664973184e-02, -7.8501130594944277e-02,
          -6.8568093437424454e-02, -5.2206599547995794e-02,
          -1.4731348334923872e-02, -2.7381186591965393e-03,
          -1.6135646380046234e-02, -1.4942624377510138e-02,
          5.3222230137484873e-02, 4.1186742927940265e-02,
          6.9425771830885080e-03, 3.7738670263000228e-02,
          1.6982393152416433e-01, -1.3760299822605754e-01,
          2.6838092245184400e-03, -1.3270536129438318e-01,
          -1.2395453850057446e-01, -7.2230521267888481e-02,
          9.8138869126153605e-02, 6.4493301967338101e-02,
          2.8921856374453696e-02, 1.3012242023317086e-01,
          1.7949505577577012e-02, -7.1804040392216301e-02,
          -2.7148694544729150e-03, -6.3031951912809386e-02,
          -5.6040609698904134e-02, -3.5903323545609676e-02,
          4.0288628896488141e-02, 4.1838477981688570e-02,
          2.1754048722835428e-02, 6.4293791874391340e-02,
          9.5158287974801067e-02, 1.3710569878560502e-01,
          1.5755099453603327e-02, 1.3839159471655271e-01,
          1.1380408168238881e-01, 6.8034164106659231e-02,
          -1.2973020251803044e-01, -1.0973037624708737e-01,
          -2.2270145775222280e-02, -1.5080064174719973e-01,
          -4.1597381183907561e-01, -4.5976087945290393e-02,
          -2.6283965581497822e-02, -5.8698098739125647e-02,
          -4.9366586679157783e-02, -2.5829472034268115e-02,
          3.9739277432478862e-02, 8.3581063472364728e-02,
          -1.0234124496078592e-02, 5.3512175774186668e-02,
          7.2770376668289352e-02, 1.4049267033034980e-02,
          1.1840110283969453e-02, 1.0401149411267939e-03,
          -1.0939725572916420e-03, -6.8784749037223269e-03,
          -9.1875643731025025e-03, -4.2901724408698095e-03,
          1.2134192116468536e-04, -1.7102255092106569e-02,
          -3.9771972665213767e-01, 1.9316255637084560e-02,
          -1.6296733932631931e-02, -1.4948326839903960e-03,
          -1.4316158394541690e-02, 1.3200214455457555e-02,
          1.0459200099850770e-02, 3.8170060228290344e-02,
          -3.1623959431348166e-02, -4.9500041879996046e-03,
          1.5763527638754241e-01, -9.5542660370535770e-02,
          9.6860924096285050e-03, -1.1710970335538841e-01,
          -1.0552398417130428e-01, -6.2428410748453338e-02,
          8.7800832807349294e-02, 5.7843193090634494e-02,
          2.8323642535508436e-02, 1.0398014053306616e-01,
          1.8112998158061747e-01, -7.4951466971015027e-02,
          -4.1680926735519251e-03, -7.7896558586674117e-02,
          -6.6242239408031783e-02, -5.2031137041482933e-02,
          5.8535134238306155e-02, 3.2340091583853245e-02,
          3.0040566780014908e-02, 6.9359790295567811e-02,
          -4.3034105601981280e-02, 4.5893505428729747e-03,
          -9.8701212425236166e-03, -2.0074197368865048e-02,
          -1.4466975230798007e-02, -8.1550703098756845e-03,
          5.0387205889855062e-03, 1.6268340732115479e-02,
          -1.1412486935811405e-02, -1.1966554786146963e-02,
          -6.3180231530396661e-02, -5.2648709312179506e-02,
          -1.2046490739974819e-02, -3.1647349042558962e-02,
          -2.7571059923500733e-02, -1.1673455032763581e-02,
          3.8188703206878220e-02, 2.5784949074256727e-02,
          4.1493156573094587e-04, 4.1892286026448060e-02,
          9.7590104635416453e-02, -1.1028800264470606e-01,
          1.8295485498053083e-03, -1.2570251382162986e-01,
          -1.0617239236288420e-01, -5.2387952517339860e-02,
          9.0870363468882109e-02, 6.4406190556469400e-02,
          3.3625664413522396e-02, 9.3757035619384463e-02,
          -1.4951831971630850e-01, 2.1747531463100093e-02,
          -1.0847969393460076e-02, 2.5816388645424709e-02,
          2.4689538328912068e-02, 6.6246261054448956e-03,
          -1.8882483033353933e-02, 1.5902191622058488e-02,
          -8.6988905960700500e-03, -2.6875617575466221e-02,
          -1.1147034045929658e-02, -6.5399050949155463e-02,
          -6.0887696500379739e-03, -3.6287733881383379e-02,
          -4.6369347178127469e-02, -3.4137393331895291e-02,
          3.8718696020853399e-02, 3.7576176405829838e-02,
          7.4993572442777065e-03, 5.7304770762768083e-02,
          5.4799109762428438e-02, -7.1673994251864159e-02,
          7.1310539894973704e-03, -8.5685423899027349e-02,
          -7.6009108645602314e-02, -4.3783652142843785e-02,
          5.7576407596388400e-02, 4.9129443811226088e-02,
          2.1107553432592054e-02, 8.5117396317912083e-02,
          2.2976534930179318e-01, 3.1307899593723972e-03,
          4.1519222023547334e-03, 4.6733237678996711e-06,
          2.5692417816992438e-03, -1.6352490466521458e-02,
          -1.2866046631356496e-02, -3.0255049873769084e-02,
          2.2491677794333861e-02, 7.5651721991429116e-03,
          -1.0195700744962882e-01, -7.1491096974203361e-02,
          -1.6199533703839135e-02, -6.5212795482198632e-02,
          -4.8123594926943979e-02, -1.3002184543173497e-02,
          5.3243036144532616e-02, 4.1078687885361731e-02,
          -8.9227291178900112e-04, 7.5063653093389970e-02,
          -6.7008052744176330e-02, -3.4003262024710580e-02,
          -7.6651046690866826e-03, -4.0016431100773506e-02,
          -3.0619453131354550e-02, -2.8960896461628872e-03,
          1.8658132376249845e-02, 9.7598872739995228e-03,
          -6.2730890251057247e-03, 4.5789528230319593e-02,
          1.6448230154874349e-01, -5.5498497780953643e-02,
          -5.3497964440875102e-03, -6.3005630747578228e-02,
          -7.5066750530009260e-02, -3.1689758108541834e-02,
          4.9003542744208067e-02, 2.2371698019390013e-02,
          1.7304214213062715e-02, 4.4313832869836867e-02,
          2.1676116769603698e-01, -4.2536550729110174e-02,
          2.2114434171656146e-03, -2.5448173754435973e-02,
          -2.4260412591698834e-02, -3.2048006715018597e-02,
          4.1792663112695305e-02, 8.7037197280442978e-04,
          2.6545851603303035e-02, 4.0447147419679225e-02,
          1.6987653643002470e-01, 9.2626213964608038e-03,
          9.9986262564528590e-03, 8.4077565302630893e-03,
          7.2632119897848421e-03, -1.3466998244714095e-02,
          -1.2710240003826706e-02, -2.6322253088411001e-02,
          1.3203748386857631e-02, -2.0401813683826507e-02,
          2.0337719638573967e-01, -5.8502342325511381e-02,
          2.3014138313290256e-03, -6.3846980182489368e-02,
          -5.7938552104212795e-02, -4.8705961532267521e-02,
          5.7162079557325496e-02, 2.5039036245195646e-02,
          2.9752000370290445e-02, 6.0406124672819868e-02,
          -2.3937324213771316e-01, -1.6806898229831696e-02,
          -1.9788346772763536e-02, 6.0292664845075505e-03,
          -1.0267366422918683e-02, -2.9687368104262661e-03,
          1.0355201844811956e-02, 4.5245470376721976e-02,
          -1.6604401320781323e-02, 1.2103726918180530e-02,
          -4.0409445977707681e-02, -8.5523061459294378e-02,
          -1.7875556563366174e-02, -1.3518508178745303e-01,
          -1.1645374567370677e-01, -3.4935268497066914e-02,
          7.2134841427766522e-02, 5.7606963960329119e-02,
          8.9572259704515222e-03, 1.0404960758458853e-01,
          2.8218263081772854e-01, 3.2680517171739649e-02,
          1.7068751163886706e-02, 2.7498993700154725e-02,
          2.2039843076970985e-02, -7.1281216180190026e-03,
          -1.8204814869696388e-02, -3.0689920181399984e-02,
          2.5371822244583581e-02, -2.1656739306077970e-02,
          -1.3639804193666849e-01, 1.3110680698940350e-01,
          -6.3240631386225973e-03, 1.4354857682190755e-01,
          1.1139922163912087e-01, 7.1168910735126559e-02,
          -9.8588490738977769e-02, -7.0952073017185563e-02,
          -3.6863544538897508e-02, -1.2529939536919335e-01,
          1.5470695795805180e-02, -2.8347193596360124e-02,
          1.1130615388222028e-03, -3.8203475479804211e-02,
          -2.0242165164768042e-02, -2.8117672277760818e-02,
          1.2488090072532885e-02, 2.9517140158975080e-02,
          3.3203889123241633e-03, 1.9812288117597558e-02,
          -1.0736384746783770e-01, -9.8372903756248242e-02,
          -1.1391342146553076e-02, -1.4949172649864625e-01,
          -1.2561307419267254e-01, -4.5808755018261711e-02,
          8.2141797752637857e-02, 7.2243619982039695e-02,
          1.6956771954967156e-02, 1.1248667504307237e-01,
          1.2801373938091601e-01, -3.6314363209578711e-02,
          1.3815329798315117e-02, -2.7047988085986421e-02,
          -5.7400745702156026e-03, -1.2232108352998304e-02,
          2.0026247312944515e-02, -3.5673367111185290e-03,
          3.7932850707907127e-03, 2.5847722027310654e-02,
          -5.6972005310050555e-01, 1.2644294253049623e-01,
          -2.3378134598289517e-02, 1.4276949749049198e-01,
          1.1805077697444580e-01, 8.3075565618221853e-02,
          -1.0132810515448276e-01, -2.0096008500991851e-02,
          -6.0137852214406318e-02, -1.1759710457203119e-01,
          1.1519214012220013e-02, 9.1524266023630146e-02,
          -3.9552570417285505e-03, 7.7032886891810190e-02,
          8.2801938941886449e-02, 3.2776253980904300e-02,
          -6.5536115407442086e-02, -5.9938999850218243e-02,
          -8.2396686426490940e-03, -8.1161474109701842e-02,
          2.5139635927662843e-02, 9.3408145996522168e-02,
          9.8175166920927738e-03, 6.9478651934829730e-02,
          5.0863435224604341e-02, 3.2379974774717345e-02,
          -7.1644005800067065e-02, -5.2767484146255927e-02,
          -1.2238715832026108e-02, -8.9069903529359742e-02,
          5.1973311358562896e-02, -1.1402357810400968e-05,
          1.7009516570277499e-03, 1.5941164726467144e-02,
          1.0585344116085568e-02, 9.3494241791527155e-03,
          -1.4488224553590506e-02, -1.3281576644807939e-02,
          -3.3534031756429707e-03, -4.4125168288821503e-04,
          1.5235025403336686e-02, -5.2151262411723374e-02,
          -7.8388416199746784e-03, -6.9584976538019358e-02,
          -5.7272031462889623e-02, -3.7618594619053349e-02,
          6.0039161749731187e-02, 3.2466499444598555e-02,
          7.1771302005830279e-03, 6.9076916723868870e-02,
          2.1708283132165529e-01, 5.4190797355489026e-02,
          1.8433221377399646e-02, 4.2929968103148815e-02,
          3.9539282745956889e-02, 2.9881189864141799e-02,
          -5.0435969115104735e-02, -6.1692064825770158e-02,
          1.7258047789850055e-02, -5.9102793680625966e-02,
          -6.9592137466102003e-02, -7.6842674423331897e-02,
          -9.0805933638840076e-03, -7.8179846359802227e-02,
          -6.7874989519602566e-02, -3.1335847363774781e-02,
          5.9156831771331152e-02, 4.0586369048230778e-02,
          8.9553099583256860e-03, 7.2876780728794388e-02,
          1.9776142282129522e-01, -1.7510908343728154e-01,
          -3.2835585558863962e-03, -1.9544322160668212e-01,
          -1.6448202105499066e-01, -1.0793686485262502e-01,
          1.5765718346726254e-01, 1.1601312710102853e-01,
          4.0551749346976501e-02, 1.7218158781203088e-01,
          2.3148831046749485e-01, -1.3735348832230193e-01,
          6.7768220218721300e-03, -1.4201865972085156e-01,
          -1.2210278679298342e-01, -7.3016397151630719e-02,
          1.1178320925123617e-01, 6.9824858354215855e-02,
          4.8685721827568876e-02, 1.3133147268799794e-01,
          -4.5734357338747150e-01, -3.7830312020212628e-02,
          -2.4469948210196709e-02, 5.7246907280518490e-03,
          -8.0654582213038912e-03, 8.2339159857425150e-03,
          3.3505619024245800e-02, 5.9153595314256124e-02,
          -1.6252652944891997e-02, 2.1430956459597184e-02,
          -1.8161929997322512e-01, 3.6486010032488414e-02,
          1.3933409358678794e-03, 3.8574475398930934e-02,
          4.8794017878605225e-02, 2.9615566552646293e-02,
          -5.1914960804616224e-02, -1.5575613695546853e-02,
          -3.3372708754467260e-02, -4.6399317699510216e-02,
          4.8712897057342337e-02, -2.1127414380170399e-02,
          8.0026293655480439e-03, -2.4872427391349188e-02,
          -1.1787852868506940e-02, -2.2450863167938196e-02,
          1.3703584619637256e-02, 2.3339857211559133e-02,
          1.0206386643903744e-02, 2.6466969491595865e-02,
          2.8485113761840941e-01, 6.6828023188989810e-02,
          1.0892711696010606e-02, 8.8618295397641031e-02,
          8.5298939094531637e-02, 2.8538970094662119e-02,
          -6.1310328099100433e-02, -7.3401518178639810e-02,
          2.0809864108874937e-03, -8.6618358717684363e-02,
          1.2204947583770735e-01, -5.1861191545296434e-02,
          3.8399983445587473e-03, -5.9415277768933142e-02,
          -3.7111569524159012e-02, -3.6394737777513904e-02,
          4.2777030728502113e-02, 2.2912844353000776e-02,
          1.4682283316802453e-02, 4.8360302155431772e-02,
          -2.5243565331407654e-02, -1.1805884538576285e-01,
          -1.4657323878002497e-02, -1.3162739402653867e-01,
          -1.0823944467787418e-01, -5.4145104773571873e-02,
          9.7682972607614077e-02, 7.6125639477142279e-02,
          1.0265884871056787e-02, 1.1199321224175289e-01,
          3.0470489512248888e-01, 2.4935773004380806e-02,
          2.1650527798706635e-02, 4.6739355045054623e-02,
          4.7710521349222379e-02, -2.0148328953210590e-02,
          -3.6288192510477240e-03, -3.9379770515309220e-02,
          3.4080341497204160e-02, -3.1577255773435405e-02,
          -2.5924548143641177e-02, 6.2735786941275256e-03,
          -8.9512446586163027e-03, -2.0042486893449771e-02,
          -1.8463343535602396e-02, -1.3891283907795247e-03,
          3.9931789117106029e-03, -1.0366585444959881e-02,
          -1.2319078030301345e-03, -2.4630667228967731e-03,
          9.3978437121134614e-02, -5.3878785045817466e-02,
          5.2381746986710481e-03, -7.2696484106999359e-02,
          -5.9401607236593545e-02, -1.9622745676330752e-02,
          5.2104441059770031e-02, 1.4922642227919686e-02,
          1.6789909735061337e-02, 5.4172303252970073e-02,
          -1.7542773278554941e-02, -4.4334433907488577e-02,
          6.7693505231950283e-04, -4.8761677390816105e-02,
          -3.6501134920427461e-02, -2.7221867720019565e-02,
          4.5630391688037959e-02, 3.5774213088955738e-02,
          -6.7598167490808946e-03, 6.3640669785491211e-02,
          -1.7101372517427965e-01, 5.1926629617266074e-02,
          -1.2769485664460874e-02, 9.1674451033333729e-02,
          7.1151915853464850e-02, 2.1883225849579978e-02,
          -4.1790402033319844e-02, -8.9328502990519681e-03,
          -3.9971995899750054e-03, -6.0941308503328455e-02,
          9.9518486848520035e-02, 1.5266136683125806e-01,
          1.4917495477265447e-02, 1.5964885249150862e-01,
          1.3458106970506381e-01, 5.6340552692049697e-02,
          -1.2535232761499449e-01, -8.5428256301075103e-02,
          -7.7686638020437607e-03, -1.5575035434988910e-01,
          -5.7481472254058426e-02, 4.7835889667133195e-02,
          -1.0422998384097238e-02, 2.8525052908560375e-02,
          2.4050609156850734e-02, 2.5396881462844998e-02,
          -3.4695943769210993e-02, -3.1687229099827657e-02,
          -1.7085890996516050e-02, -3.8345772966629423e-02,
          -1.8410486056953285e-01, -2.9256247429016034e-02,
          -1.1003281145360250e-02, -5.6991700154094924e-02,
          -4.6370486553681742e-02, -6.3644108400128007e-03,
          4.4344451572865928e-02, 3.3083611510341053e-02,
          8.5209706273027693e-04, 2.6528273707866045e-02,
          -1.8426995753440306e-01, -9.4315821085361046e-02,
          -7.7629106968012639e-03, -9.3240460171909220e-02,
          -7.2650965145750590e-02, -4.7815598213183180e-02,
          8.3675309816476445e-02, 8.2692278598738192e-02,
          1.3620244000252298e-02, 9.2926014537285134e-02,
          -1.6842586472872789e-01, -4.3341668189779605e-03,
          -4.6924267765519967e-03, 3.5800968197975997e-03,
          -7.7019000272155790e-03, 8.5198034717877298e-03,
          -4.5573868319148470e-03, 2.9104682724743477e-02,
          -1.5106463392769921e-02, 5.9419040892122136e-03,
          -1.0792916195970853e-01, 1.2565928869260701e-01,
          -1.3005371034469578e-02, 1.3124751852993974e-01,
          1.2288732479645778e-01, 4.6214402704746693e-02,
          -9.3909529190948401e-02, -5.1746511957251870e-02,
          -2.8655024727789743e-02, -1.2592451913015615e-01,
          1.3212249195936640e-01, -8.8932026958303934e-02,
          2.0364476687418274e-03, -1.2354532883516092e-01,
          -1.1010544128020613e-01, -6.0065577198813537e-02,
          8.5002652515373298e-02, 4.6232415677430978e-02,
          2.1839874705021373e-02, 1.0089056754670332e-01,
          7.2245794345151687e-02, -4.8306389420013189e-02,
          -4.1066992082251490e-03, -6.9202938202673620e-02,
          -6.9031039682154266e-02, -5.0335157408288499e-02,
          3.8544303993879377e-02, 2.9235881847379984e-02,
          1.3869053900322104e-02, 6.6372788801614249e-02,
          -4.7988110228121716e-02, -3.4573658072225878e-02,
          -1.2713412364880088e-04, -4.2690445131903045e-02,
          -4.2923547220901526e-02, -1.5713661769079925e-02,
          3.6770488979335741e-02, 3.7980097007629637e-02,
          1.1350245304680994e-02, 2.9451819476727249e-02,
          -1.5720564718070945e-01, -5.8558178930959721e-02,
          -2.1878302223147288e-02, -5.7070115166891894e-02,
          -4.8834831624613391e-02, -2.1317244933177687e-02,
          5.2361347395126344e-02, 6.2316303212042366e-02,
          -4.0623409140924232e-04, 3.6623481014953066e-02,
          -1.9385939551090137e-02, -7.6036453270166532e-02,
          -7.8455011462176521e-03, -9.4480558867763617e-02,
          -7.5342774461352083e-02, -2.6360482791728406e-02,
          4.8518050729029483e-02, 3.3571550773828104e-02,
          2.1773766245491172e-03, 8.4444834024377677e-02,
          4.4559498621624567e-02, -3.4305975230325150e-02,
          8.4466934106690074e-03, -4.3101696482290890e-02,
          -4.3296394318529635e-02, -2.2136152254933730e-02,
          1.6792692423006513e-02, 1.8132945168339572e-02,
          9.8286869687253097e-03, 3.2284805534783315e-02,
          1.0697954619779997e-01, 7.9606138654527855e-02,
          1.2198360448531500e-02, 6.6429028634318682e-02,
          6.6973159772790183e-02, 2.8797104264503860e-02,
          -6.2732455917370700e-02, -4.7979052117422892e-02,
          -7.6868519581282276e-03, -7.1194732630983540e-02,
          6.1736635161458074e-02, -7.6107707553418849e-02,
          -7.8976841830356425e-03, -7.0990462762932027e-02,
          -7.2992547285424064e-02, -4.5693376534733925e-02,
          5.8147248511800670e-02, 4.2213249266530459e-02,
          3.1626754366732089e-02, 7.2820451258458110e-02,
          8.1092863552209460e-02, 4.1513681365495979e-03,
          1.4120552174365617e-02, -1.1702286330156752e-02,
          -7.7321884231460556e-03, 8.0568241899930133e-03,
          6.3904355849724427e-03, -1.0385615615555325e-02,
          9.3462872928147967e-03, -1.0905627292714427e-02,
          -1.0439487736539331e-01, 1.0676954894732177e-01,
          1.3901868203287452e-02, 5.7672994527780436e-02,
          6.6416711738590428e-02, 4.2431930850492447e-02,
          -6.7595018646645091e-02, -6.8137416893537861e-02,
          -2.0371181731993600e-02, -9.4516792668803487e-02,
          1.1096221168323951e-01, 1.3293442110482340e-01,
          1.4619988137556477e-02, 1.0181039794066898e-01,
          1.0138028701052902e-01, 3.7553607313467262e-02,
          -8.9603096823358888e-02, -8.5627221807109841e-02,
          -3.1741604189083921e-04, -1.1888208068813910e-01,
          -1.4774379059760870e-01, -5.7774100750088125e-02,
          -1.0916207270995437e-02, -8.9450005941314192e-02,
          -6.3048033076289270e-02, -2.1126878686208148e-02,
          5.5513752649490503e-02, 5.1045019092820013e-02,
          -4.5701287602263165e-03, 6.0387962383196943e-02,
          -1.8996355603736171e-03, 4.8938233391971037e-02,
          4.3066544098786727e-03, 2.9509716352396895e-02,
          2.3565857392472377e-02, 1.6967083383105663e-02,
          -2.3981897022117095e-02, -2.0938598629477508e-02,
          -7.9019994309448525e-03, -3.4524709360166356e-02,
          5.1462036854508238e-02, -4.1426737386350436e-02,
          -9.1448841483667443e-04, -1.9749843915688448e-02,
          -9.6706860714030254e-03, -2.5136559815518655e-02,
          4.0636806980466428e-02, 2.6578939400873469e-02,
          1.0051021295720804e-02, 3.5491320896863500e-02,
          1.6118783631670008e-01, -2.4659396040134014e-02,
          9.2003226760708403e-03, -2.2605005207917864e-02,
          -1.3797703853291196e-02, -1.3872842665592444e-03,
          1.1913615962833232e-03, -2.2980860783919865e-02,
          7.7083703199562559e-03, 1.0642078630960151e-02,
          -5.8797358585414052e-02, -6.4408098643705711e-02,
          -1.5074854587067881e-02, -7.0691902562194778e-02,
          -5.0304155690789026e-02, -3.8855343221439985e-02,
          5.4571040230806257e-02, 4.8457414080350106e-02,
          1.7223672998316647e-02, 7.7983552969178277e-02,
          -3.1721955450278144e-01, -7.3117889649430261e-03,
          -5.3399139326364038e-03, 2.0137102076278529e-02,
          3.5170033040657178e-03, 2.0025654488019361e-03,
          5.4991119747341026e-03, 3.4543964445532420e-02,
          -1.0047225585803714e-02, 2.3881010476014841e-03,
          -1.9471865752099399e-01, 1.4367669866588523e-01,
          7.9185892077694095e-03, 1.3167192265222721e-01,
          1.2189917627988942e-01, 8.1007798464666311e-02,
          -1.2177021712683631e-01, -1.0010830944519948e-01,
          -4.1479644307841110e-02, -1.4439223834600207e-01,
          1.9686936192664972e-01, -4.5637273204241526e-02,
          1.4249748374411219e-02, -4.9331438034098986e-02,
          -4.7598151304690701e-02, -4.4779776815361973e-02,
          5.4326512736257819e-02, 1.3051456185403473e-02,
          3.1190473026166409e-02, 4.8684930671179044e-02,
          2.7804400014490444e-01, -5.9801262529005132e-02,
          4.9744041719385701e-03, -7.3833828125650522e-02,
          -7.1377974359106172e-02, -3.4966470259524263e-02,
          4.7758076701693630e-02, 7.8844265685320911e-03,
          2.2347961160499349e-02, 6.8170529242839284e-02,
          8.6097264874699236e-02, -3.0334009140036040e-02,
          1.2784747146638391e-02, -5.9393968008981300e-02,
          -4.8782853861679826e-02, -1.9836049398177173e-02,
          2.6240744611660469e-02, 1.9386205777225989e-02,
          3.6331766140385315e-03, 4.6636119965363702e-02,
          -2.1443798518578497e-01, -1.3634503871760301e-01,
          -2.2926162605489027e-02, -1.3272682930439353e-01,
          -1.1781087020962563e-01, -6.5540467321074991e-02,
          1.1129114548187662e-01, 1.1038878515773912e-01,
          -9.6246761121731271e-04, 1.2720007171417491e-01,
          3.4524677778393270e-01, 9.1009917447279598e-02,
          1.7446992226465490e-02, 8.7333268802687353e-02,
          8.4914311676254628e-02, 2.4420102258066342e-02,
          -6.5618291954911867e-02, -7.8319470199506275e-02,
          2.3821036631901930e-02, -8.9056336374484485e-02,
          -1.8202558390981916e-01, 5.4384970013357944e-02,
          -1.8407512317860461e-02, 8.6692392885497765e-02,
          6.9459887006218593e-02, 2.6788054257330596e-02,
          -4.2105398313091583e-02, -2.4977209957219764e-03,
          -2.4340640829728012e-02, -7.4843988113866292e-02,
          6.5962054476105175e-02, -3.7243040322368520e-03,
          1.2165079259049161e-02, 2.9846861328061650e-02,
          3.2253591735223186e-02, 5.7461101514827617e-03,
          -1.1864545490300079e-02, -1.7929149290468481e-02,
          9.0944006268521061e-04, -1.2940539564018411e-02,
          2.2285230481659504e-01, 8.7713951624225461e-02,
          7.6661572888653455e-03, 9.2830430406245265e-02,
          7.4594341161971514e-02, 2.9189787415636877e-02,
          -6.1824365010852159e-02, -6.7128907420831330e-02,
          -1.6847771885991875e-02, -7.4944902542334296e-02,
          1.1064600869155576e-01, 5.9348856419414807e-02,
          2.0242434716606496e-02, 7.3995883811023039e-02,
          6.3010350247543243e-02, 1.9633088646824906e-02,
          -5.6175907009213939e-02, -5.9055668758483976e-02,
          -2.3174713769885278e-03, -6.7109430774208056e-02,
          2.1376800386076162e-02, 3.7550006383887308e-02,
          9.8771240606027842e-03, 2.3282497604173006e-02,
          3.3233865248000476e-02, 2.6272765524411199e-02,
          -4.0066002609939588e-02, -5.1677792391230715e-02,
          -1.0912848493693245e-02, -3.4816022957815773e-02,
          -2.4874024383138060e-01, -2.7723982482903298e-02,
          -2.2796572853902325e-02, -4.4321772204537584e-02,
          -3.6544547140002534e-02, -2.4373766896989813e-03,
          3.6465974462536931e-02, 3.6901704742084207e-02,
          -1.1301706489260233e-02, 3.8407683547299488e-02,
          -5.5103269969453017e-01, -6.4215138828917023e-02,
          -4.0203033835825498e-02, -5.4329432502255567e-02,
          -4.1472605361820514e-02, -1.0456508161886587e-03,
          5.2645402937729270e-02, 8.8906263898193297e-02,
          -3.6594408488161125e-02, 6.2190785209433129e-02,
          2.2083631456212405e-01, -1.9052943960234162e-02,
          1.7866382456864212e-03, -1.1975310170772349e-02,
          -9.5053358677951016e-03, -1.7265835574668202e-02,
          8.2044247047904483e-03, -6.2744469042938684e-03,
          1.4740452811737251e-02, 2.7563202134898331e-02,
          -5.9758095286048758e-02, 1.2552593301902662e-01,
          1.3977974385348322e-02, 1.2386438703522760e-01,
          1.1284924425560890e-01, 5.6318342947873842e-02,
          -1.1632699785558265e-01, -8.4269669599674885e-02,
          -2.0609775051960422e-02, -1.2808616124338920e-01,
          -1.3800411343068120e-01, 1.1710179904036168e-02,
          -3.0475731844558378e-03, 3.7269925568959056e-02,
          3.1772573840098850e-02, -9.6267240608575288e-03,
          2.3924491281329834e-03, 2.1998655947136500e-02,
          -8.5280567281436953e-04, -1.5966889668400437e-02,
          2.3805069417851302e-01, -2.0747561850929061e-02,
          1.1072848420418405e-02, -1.4565693231352313e-02,
          -7.1767207457571272e-03, -2.7926163584034061e-02,
          6.0196279802185327e-03, 2.5010576017602685e-03,
          2.1530544904929578e-02, 2.0255611195083709e-02,
          2.5017728963520180e-01, -6.0438950223796351e-03,
          5.8080280286960983e-03, 1.0332412510899478e-02,
          -6.8892364546493414e-04, -1.6524350076949180e-02,
          1.7599372945682094e-02, -2.0770000308023742e-02,
          2.8086145969123920e-02, 5.0605739805798531e-03,
          1.0815949338091661e-01, 2.6145098623762365e-03,
          1.4693873397747390e-02, -7.5141139657700492e-03,
          1.5858806428161271e-05, -2.5749852195523852e-04,
          -5.9923782201761258e-04, -1.8855403095712517e-03,
          6.9560292277444776e-03, 9.2094393275298243e-03,
          -2.4323611066591186e-02, -6.8029337704755985e-02,
          5.3186117497583431e-03, -9.3096865361764591e-02,
          -8.5326211537729291e-02, -3.5069012187912356e-02,
          8.5652811645566734e-02, 4.8897432536265842e-02,
          2.0364641616063665e-02, 8.3036898083301489e-02,
          -9.5661163856247691e-02, 4.2158401486691907e-02,
          1.3325062272213804e-03, 3.7154700244293702e-02,
          4.4121805419595116e-02, 1.6554946831845344e-02,
          -3.9712725209033156e-02, -1.7546222994616490e-02,
          -5.7188457355990584e-03, -2.7377064409766196e-02,
          -1.0917078205503626e-01, 1.7310599615507785e-01,
          2.0699693189049472e-03, 1.7500080049755140e-01,
          1.4536697660396872e-01, 7.9096017873931210e-02,
          -1.3742643972141694e-01, -9.8746525547311545e-02,
          -4.5287162140215262e-02, -1.7088449670680608e-01,
          -7.3520551209917004e-02, 7.9665546307454510e-02,
          1.8902454304380718e-02, 6.2249791514002853e-02,
          6.0664310141985318e-02, 1.8764578968631106e-02,
          -4.0308549908805030e-02, -2.0058061415587140e-02,
          2.6769487737478229e-03, -7.1610744064306467e-02,
          1.1072142640521491e-01, -1.2719661723728796e-02,
          1.2774220807177167e-04, 2.2234146311047760e-03,
          -2.0968361467963545e-03, -2.8816251448410664e-02,
          2.1766505000164700e-02, 7.5955521713757957e-03,
          3.7478897707434399e-03, 2.7162262783367103e-02,
          -4.4192648005844637e-01, 6.0275321101081948e-02,
          -3.4466046286744143e-02, 5.7667411093265883e-02,
          5.1670833680577871e-02, 2.5093474141781376e-02,
          -3.2043436958414294e-02, 3.7477517306863342e-02,
          -3.3079035123457348e-02, -4.0341825492566027e-02,
          -3.8168147793260593e-01, -7.0510376215978804e-02,
          -2.6992239721879304e-02, -5.2737002449227674e-02,
          -3.2875982137914289e-02, -2.3797000334248718e-02,
          5.5130116205898451e-02, 8.9551848028397510e-02,
          -1.1647740713361644e-02, 8.4408429268916813e-02,
          2.7366046211664735e-01, 8.6015475574061154e-02,
          1.3287280619619422e-02, 7.2399713936422513e-02,
          6.6598536586458673e-02, 3.0332018497464048e-02,
          -6.8011406641640404e-02, -5.9599075572306114e-02,
          -2.7223341333867937e-03, -7.1778176684603234e-02,
          1.4338801005850219e-01, 7.5015158716417438e-02,
          2.0902723082745826e-02, 5.9262435921430011e-02,
          4.8746063705937349e-02, 1.9966423688665285e-02,
          -6.1077022975878290e-02, -6.6809720742141601e-02,
          2.7781328541111789e-03, -5.7446845483253281e-02,
          8.5718807638080832e-02, 2.0735476454314741e-02,
          1.6457805973695772e-02, 2.0542325915746493e-02,
          2.0062294280254214e-02, -1.0802294453766677e-02,
          -1.4211768338623740e-02, -1.9086411171049551e-02,
          9.9497505239951271e-03, -3.5866006400249062e-02,
          -1.0036962202455546e-01, 1.4051870218860771e-01,
          8.7459178492164044e-03, 1.5238484543658823e-01,
          1.3606531657468002e-01, 6.2558170849707759e-02,
          -9.6676215114545688e-02, -6.7192239800535278e-02,
          -1.2530495438050640e-02, -1.3499258638611386e-01,
          3.3182114499644810e-01, 8.4237258533016585e-02,
          1.8490167325055953e-02, 8.6504885571392631e-02,
          6.9578505676337624e-02, 1.6752237991620227e-02,
          -5.4338381200341318e-02, -7.4027651075472406e-02,
          8.1647209130687546e-03, -6.5092247932981837e-02,
          1.6066594975410328e-01, 2.3282695348646026e-01,
          2.5827324673725092e-02, 2.4319759160124360e-01,
          2.1624131144087369e-01, 1.0273182841834948e-01,
          -1.9777623749981399e-01, -1.6860912682830506e-01,
          -2.7081433745818440e-02, -2.3289643122195758e-01,
          -1.6786595955030759e-01, 3.6801343249290804e-02,
          1.7985584776900175e-03, -4.0104377596363915e-03,
          -8.5584571295299686e-03, 3.5761545690733226e-02,
          -7.2679624419538348e-03, -5.1629216716364262e-03,
          -1.2274542851252328e-02, -2.3575073229130838e-02,
          1.4773422989704419e-02, -6.1732802027206581e-02,
          -1.3669338521145737e-02, -6.7606759515123266e-02,
          -6.1595513344413169e-02, -2.6235502004232046e-02,
          3.1247703242881210e-02, 3.3318221847219068e-02,
          1.7442971082263451e-02, 5.2927074692710234e-02,
          2.5769747483841626e-02, -2.6189561795170232e-02,
          -3.7014296257886050e-03, -2.6495205947915035e-02,
          -2.3488125983543679e-02, -2.7191138696434879e-02,
          1.8027808571656857e-02, 1.4157632134289461e-02,
          1.6516313926268098e-02, 3.8497245910349219e-02,
          -1.1163656319399444e-01, -1.9538405097537119e-02,
          -2.3807708856694219e-02, -1.8127922178238297e-02,
          -3.2146727844454596e-02, -1.2290818179675421e-02,
          1.4547965677961442e-02, 3.0146055310099701e-02,
          -1.9077938384546907e-02, 1.9587005009191416e-02,
          2.8006471245949144e-01, -7.4696518301342690e-02,
          4.8234107018781305e-03, -5.9423957871677160e-02,
          -5.0009485869355372e-02, -4.1877464255079273e-02,
          6.7285940617896153e-02, 8.3397753416413443e-03,
          2.4299085710936971e-02, 7.6956719395356907e-02,
          -6.9209764600039511e-02, 6.1808016464168581e-03,
          -6.0876053986453531e-03, -3.5618058685311861e-03,
          -1.3687211648782214e-03, -1.5146250822920689e-03,
          -9.0735654705676964e-03, 5.4046394581230726e-03,
          -1.4255170683265801e-03, 5.0988450489074773e-03,
          -7.3066978411920183e-02, 1.1090438465819434e-01,
          -1.0670294392097556e-02, 1.2938683654028693e-01,
          1.0079964493733082e-01, 4.9466006377107435e-02,
          -8.3009971485354911e-02, -3.6568942588618605e-02,
          -2.4144516410767265e-02, -1.1165542347794483e-01,
          -2.0505412072600265e-01, 8.9947021871485386e-02,
          7.3304330640232172e-03, 8.5932664821301311e-02,
          7.8964103649384915e-02, 4.6483969827879577e-02,
          -7.7826415230381932e-02, -2.9977137097212312e-02,
          -6.8675930641611217e-03, -8.9470648940183570e-02,
          8.2977756612437031e-02, -9.4400406644355467e-03,
          4.6204299302889515e-03, 6.1247139937977138e-03,
          5.1439909733590463e-03, 1.2841550573795600e-03,
          -1.7128847180222437e-02, -4.1103942804016054e-03,
          4.2751600223245173e-03, -9.6580173571851474e-03,
          -2.2292871790149843e-01, 3.4105111040572483e-02,
          -2.6675779805360785e-02, 4.1418396382061316e-02,
          2.7971783586506774e-02, 6.1678163804005266e-03,
          -3.2119536116558225e-02, 2.0972585598617161e-02,
          -1.2018065128090682e-02, -2.9598283927660913e-02,
          1.4164294982807124e-01, 9.8207989191391412e-02,
          2.3368815238858875e-02, 8.5056737622902834e-02,
          7.5227086782042804e-02, 3.9946199229858877e-02,
          -8.6767059671812807e-02, -7.6765915575135069e-02,
          4.9981033942430066e-03, -9.0980589391227107e-02,
          2.0478140506900133e-01, -3.7594891182981253e-02,
          1.1795390998164929e-02, -2.3108400221721209e-02,
          -2.4911171637682802e-02, -2.0897653000814240e-02,
          3.5279147911278182e-02, -1.2848470368358662e-03,
          2.7581425190244334e-02, 2.9544613745720767e-02,
          1.1798735143548028e-01, 5.4645503329311958e-02,
          4.7395396466248761e-03, 7.0874244044624626e-02,
          5.4432920913876671e-02, 1.1641109444013439e-02,
          -3.5620759186352442e-02, -2.6556867470507055e-02,
          1.1697327467733956e-02, -4.3036806992160781e-02,
          3.9121480883469548e-02, 1.1442345571559363e-01,
          1.4751943906086600e-02, 9.8337845796781773e-02,
          8.1264123593193571e-02, 5.0981286435119288e-02,
          -9.1500042400784853e-02, -7.8202618053654707e-02,
          -2.6567343179292425e-02, -8.7217445394398865e-02,
          -6.6685340545968724e-02, -4.6334116288207806e-03,
          1.0265765720644990e-03, -2.4831607592417707e-02,
          -1.6358001112470065e-02, 6.9418065487827450e-03,
          -9.2765918129117698e-03, -2.3547075642548643e-03,
          -7.9043965190293865e-03, 8.6437777914768164e-03,
          1.0466069938461382e-01, 3.8112660937122990e-03,
          1.5290966406952294e-02, -2.5438905974827706e-02,
          -1.0557016863506777e-02, 1.4987206921675100e-02,
          -8.3091030052728741e-03, -1.3604442437806553e-02,
          -3.5559130362406864e-04, -2.6180680546643764e-04,
          -6.3933499379628042e-02, -1.6372960273616708e-02,
          -1.6487429251115664e-02, -3.4986211876237003e-02,
          -4.8059845577952592e-02, -8.0152138068555669e-03,
          2.7262773499016651e-02, 2.5381665215966728e-02,
          -4.9563828150222646e-03, 2.3862849141057088e-02,
          1.1736016810366967e-01, -7.5029761580372445e-02,
          -1.3780184494645463e-03, -3.8861638360609553e-02,
          -3.9148189006955915e-02, -1.9810400806185926e-02,
          4.0293601847513467e-02, 3.3587551625179559e-03,
          2.1770957470974805e-02, 6.1378017776754862e-02,
          -9.1116636411327417e-02, 1.3670535374705059e-01,
          2.4492893886577253e-03, 1.6101303009176193e-01,
          1.3428800582858824e-01, 5.5355298930281564e-02,
          -1.0119245278449975e-01, -7.9729979596294576e-02,
          -1.9588432285687303e-02, -1.4154988060512289e-01 ]
      - [ 4.7234366516923343e-01, 2.5515093248755505e-01,
          1.5720125022328804e-01, 3.3061908016204650e-01,
          2.5726415680066222e-01, -4.8013799408078761e-02,
          -1.6164376852859708e-01, -2.8322444129936930e-01,
          1.8183282079906191e-01, -2.5155469652084134e-01,
          -1.6726419246511290e-01 ]
