%YAML:1.0
mlp: !!opencv-ml-ann-mlp
   layer_sizes: !!opencv-matrix
      rows: 1
      cols: 3
      dt: i
      data: [ 130, 32, 3 ]
   activation_function: SIGMOID_SYM
   f_param1: 6.6666666666666663e-01
   f_param2: 1.7159000000000000e+00
   min_val: -9.4999999999999996e-01
   max_val: 9.4999999999999996e-01
   min_val1: -9.7999999999999998e-01
   max_val1: 9.7999999999999998e-01
   training_params:
      train_method: BACKPROP
      dw_scale: 1.0000000000000001e-01
      moment_scale: 1.0000000000000001e-01
      term_criteria: { epsilon:1.0000000000000000e-10, iterations:10000 }
   input_scale: [ 1.1864931048307444e-04, -2.8019347772925141e+00,
       5.0890727617863086e-03, -9.4543662863407862e-01,
       2.1834531808589356e-03, -9.9865689859535567e-01,
       1.2942934998891459e-03, -9.4803403607158010e-01,
       1.1684324828145282e-03, -1.2971061099844781e+00,
       9.4426356034015718e-04, -1.0408800832432952e+00,
       1.0810507647243809e-03, -9.8246494081909919e-01,
       1.4389550988451658e-04, -7.8720237085948030e-01,
       1.1746991153271466e-04, -7.1251374840168080e-01,
       6.4491885659435130e-05, -9.9205359692133421e-01,
       1.4640870573926626e-04, -9.5119092628280999e-01,
       2.0257275095828778e-04, -7.5830295810805060e-01,
       2.0263666312356199e-04, -7.6168025830238117e-01,
       6.8794354409985219e-04, -6.7650648267919211e-01,
       4.4999921637802349e-04, -7.9989235707928585e-01,
       1.6037090745464144e-03, -4.4790258027852570e-01,
       3.5391523654303148e-03, -4.4077193417796712e-01,
       1.3691342132324334e-03, -7.8959111022292128e-01,
       4.5801420331368541e-03, -4.5356128744813567e-01,
       8.5176036581412467e-03, -3.6590205714765106e-01,
       1.9170244970757120e-02, -3.6796220207758801e-01,
       5.9446783284724906e-04, -9.9307502776668644e-01,
       1.8193642624740550e-02, -4.3690011247467236e-01,
       4.2597145023508011e-02, -3.9461521848166453e-01,
       5.0876529576079303e-03, -7.0767839403393640e-01,
       3.7898747025158662e-03, -8.6077529180891610e-01,
       1.1189206378610476e-01, -4.8952777906420836e-01,
       2.2083516690389306e-02, -5.5883565847068495e-01,
       2.5198558967115127e-02, -6.6321207281504391e-01,
       4.2172013053803246e-03, -7.7508645658469211e-01,
       1.0965815923806738e-02, -7.4308633183684825e-01,
       2.1253923782097392e-01, -4.6935748352131745e-01,
       3.0035981295986204e-02, -5.9404496340950497e-01,
       5.0218437038242469e-01, -3.7663827778681852e-01,
       1.9878178472290692e-02, -6.7116460925192600e-01,
       1.1306519843212223e-03, -8.4286964731190672e-01,
       1.0118055933590929e-02, -7.6236740888514998e-01,
       2.0265696160434016e-01, -5.8545344463476046e-01,
       8.4089716695922245e-02, -5.8045262774824102e-01,
       4.0105636316010076e-03, -7.6729880590699839e-01,
       4.8289836179825539e-02, -6.5996109445761564e-01,
       1.2216944435630522e-01, -5.2940092554398932e-01,
       6.5480306469930796e-03, -7.9722273127140741e-01,
       9.9578299827223848e-01, -3.5958830493164168e-01,
       1.4809443669344795e-02, -5.9237774677379185e-01,
       6.7939646494845252e-01, -3.4913429448739919e-01,
       1.7201176508979069e-03, -8.3315809663074447e-01,
       3.5296870021364876e-02, -5.5641593714234905e-01,
       1.6591757496552867e-02, -6.8118382166403157e-01,
       3.4376887990662558e-03, -8.3492866707321689e-01,
       4.5701556914632367e-02, -5.6428727912650234e-01,
       5.8778867917350167e-03, -7.7408503554488106e-01,
       6.1838114699266852e-03, -6.8417003013105515e-01,
       3.9474191454278996e-04, -9.6153647856032776e-01,
       1.7315751406695088e-02, -5.4472467966894966e-01,
       4.1627538788157614e-01, -3.1220654091118211e-01,
       9.3668139163771117e-04, -7.0630980714992520e-01,
       1.0085022785329380e-01, -5.1545672013905719e-01,
       2.0261843976747623e-01, -4.9528951943160859e-01,
       1.0492836664600384e-03, -9.0563381784480790e-01,
       8.4921139054844226e-03, -5.0174239658237130e-01,
       1.3727387366124055e-03, -5.5033477267107056e-01,
       3.1116431439459774e-02, -4.4643435662447145e-01,
       8.6763929290035929e-02, -4.0369328211336158e-01,
       8.2526269037992283e-04, -1.1508975936256673e+00,
       2.1734759885360899e-02, -4.0631926119021899e-01,
       3.7006591509842323e-03, -4.9398659861263133e-01,
       3.4033442344774509e-03, -4.6914154898873195e-01,
       4.6391693943106244e-04, -8.2521158588547860e-01,
       1.9060731900012587e-03, -5.6446239662787279e-01,
       4.0482364915693694e-02, -2.8337655440985587e-01,
       7.6182916740261076e-04, -6.6980655255677046e-01,
       9.7810288964330486e-02, -2.4316724617521052e-01,
       3.1442082873680503e-04, -7.9116141030898568e-01,
       2.3977700451248363e-02, -3.5633527059494091e-01,
       1.5804250074632040e-03, -6.2734092657358853e-01,
       2.1371765534645926e-02, -3.8617593000797706e-01,
       5.9616882541831107e-04, -6.3089565949892767e-01,
       2.0986468167874463e-04, -9.9427182168724471e-01,
       2.1442996209087111e-02, -5.0629296604789009e-01,
       3.6051441188468796e-03, -4.8258859746453092e-01,
       2.3460044053002967e-04, -8.0387144283395395e-01,
       1.3712074299817701e-02, -4.5916404356750667e-01,
       1.7053043148009270e-01, -3.1974455902517379e-01,
       3.3789785817368673e-01, -2.9096760009400802e-01,
       1.6363596279340560e-04, -8.3072296505948362e-01,
       4.5412899281096639e-02, -2.9644531475160307e-01,
       1.3353337108175958e-01, -1.9473616616089939e-01,
       1.0797231988929504e-03, -5.3693734911614011e-01,
       4.9462841469808901e-04, -7.6212620930245278e-01,
       1.0329241511723929e-01, -2.7401182343600977e-01,
       1.4787343982909300e-02, -3.4770796337590898e-01,
       1.3380296575111980e-02, -4.4842577271868339e-01,
       1.8464755330054768e-03, -6.5639640648993303e-01,
       4.4871208502388132e-03, -5.2761062664058045e-01,
       9.7945133595349787e-02, -2.6390772107635918e-01,
       1.5597683467594721e-02, -3.1910260760787529e-01,
       1.3813904553318246e-01, -2.2255735113679398e-01,
       1.0853200806728715e-02, -3.4066991421120690e-01,
       6.2164783460768886e-04, -8.2367474685748487e-01,
       5.5810074150613558e-03, -3.9710418037999062e-01,
       4.9647014680409315e-02, -2.4754553153148531e-01,
       2.8684997161979961e-02, -2.8645156888143875e-01,
       2.6948528495155978e-03, -4.1163877276350758e-01,
       1.7857652548771089e-02, -2.7877779812248199e-01,
       2.1158672574942312e-02, -2.4214925280211758e-01,
       4.2531884487581216e-03, -3.4043229208601467e-01,
       7.9282846289612519e-02, -2.2023012858225699e-01,
       6.9081610575804668e-03, -2.8083593632691706e-01,
       7.8589320928029407e-02, -2.1612063255208086e-01,
       1.8066860258068142e-03, -4.7024022393916248e-01,
       1.6066691811417167e-02, -2.8161340369456200e-01,
       1.1191952921910379e-02, -2.8881456290152063e-01,
       3.0002436572853885e-03, -3.6323783278551014e-01,
       2.7100553658910172e-02, -3.2859421311428583e-01,
       5.4448775677446506e-03, -3.3712866940285630e-01,
       6.4499774617493193e-03, -3.2151345986414315e-01,
       3.7223788802393144e-04, -6.0935859266584280e-01,
       1.3011121355727859e-02, -3.7840677942908524e-01,
       9.5384487958020431e-02, -3.5106790706771407e-01,
       2.1078754684467492e-03, -4.6279576951675289e-01,
       8.0264615778892962e-02, -4.3922581412338652e-01,
       6.0131116036526343e-02, -4.0337957007836422e-01,
       2.5203975616907483e-03, -7.9903603809934753e-01,
       2.1130764420361374e-02, -4.9393161832594712e-01,
       4.7331391512581379e-03, -6.9787507263550552e-01,
       3.2143680348337131e-02, -4.2277868458160089e-01,
       3.1770512226694685e-02, -3.1682260803842754e-01,
       3.9015004459240103e-02, -1.2967612107139930e+01,
       3.8611815415821926e-02, -1.2888302220672895e+01 ]
   output_scale: [ 1.0526315789473684e+00, 0., 1.0526315789473684e+00,
       0., 1.0526315789473684e+00, 0. ]
   inv_output_scale: [ 9.4999999999999996e-01, 0.,
       9.4999999999999996e-01, 0., 9.4999999999999996e-01, 0. ]
   weights:
      - [ -3.2004041565476454e-01, 1.1938193337324013e-01,
          -1.4981196711427966e-02, 2.8656800707599633e-01,
          -2.3313801112601645e-01, -1.4557676433510255e-01,
          1.7224080624208327e-01, 1.5287061395530027e-01,
          1.7780782880177129e-01, 2.4692840700361737e-01,
          1.5743568437254862e-01, 6.2095907949313238e-02,
          2.0261592161477654e-01, -2.6051654695370563e-01,
          4.4599699960074603e-02, -3.2731867765267646e-02,
          4.2234602842755259e-01, -2.0419588627293081e-01,
          1.0250632170191828e-01, 8.6963039124431124e-02,
          7.8864757654986614e-02, -3.7813031503143513e-01,
          -5.2753368433427295e-01, 1.1837453952098713e-01,
          1.7685544057471636e-01, 1.1358637587665427e-01,
          1.3751357156744420e-01, -9.8786560234556287e-02,
          -4.8604335896299769e-02, -2.9777637202721163e-03,
          1.1037547108653474e-01, 2.2147490364053268e-01,
          6.4152927094865475e-01, -2.4213391979125531e-01,
          -2.3865382996231845e-02, -3.3262384475249646e-01,
          2.1962725687148943e-01, 2.5794858027267514e-01,
          -2.4699957697040179e-01, -2.2834868227103117e-01,
          -2.3173932585642745e-01, -4.1288988229447832e-01,
          -2.7364338024312790e-01, -8.0958957827820380e-02,
          -2.7191480495953096e-01, 3.4018940614530840e-01,
          4.8036356165658135e-02, 6.6800390926803510e-02,
          -6.0067512126549105e-01, 3.3261721047467663e-01,
          -1.4340598946888336e-01, -2.1581237147910731e-01,
          -2.6321328432862995e-01, 4.6530453128597771e-01,
          6.9161327951240503e-01, -2.9336299354926409e-01,
          -3.8592869302453958e-01, -8.3645145149084763e-02,
          -2.0114536223887464e-01, -1.2499622200411528e-02,
          1.7609535563574291e-01, -2.5494105806173135e-02,
          -2.5465278779021466e-01, -2.4193499569606675e-01,
          3.1663578990226526e-01, -2.2958527003262008e-01,
          -7.2615472680199382e-04, -3.1154084644955038e-01,
          2.4054236715603880e-01, 2.4789254715929013e-01,
          -2.5114662668272780e-01, -2.3252221224681530e-01,
          -2.8000738383464913e-01, -3.4544536087246969e-01,
          -2.3868816645961952e-01, -7.5100703386619311e-02,
          -2.1892856704188302e-01, 3.9209040899117004e-01,
          -5.6590278240450577e-02, 1.0914448171124698e-01,
          -5.6616089399927694e-01, 3.0415266766572230e-01,
          -1.8946907514377609e-01, -1.7757315250895189e-01,
          -2.7280601934967164e-01, 4.6335612855447933e-01,
          7.0360418215605480e-01, -2.6343743947404508e-01,
          -3.1310687627289363e-01, -2.0952323154002288e-02,
          -1.2963108792921793e-01, 2.3379300397412324e-02,
          1.7653762073220661e-01, -6.1745502584766521e-02,
          -2.4583477611480514e-01, -2.9284370025159723e-01,
          5.2479754280223934e-01, -6.9478073700985910e-02,
          7.1458252442798090e-02, -6.3583214477599154e-02,
          1.7109214932813469e-01, 1.5127684874029798e-01,
          -1.3143885248971104e-01, -1.1317017800548615e-01,
          -3.0759400874647794e-03, -9.5458789075794095e-02,
          -7.1798826665090146e-02, -8.4434041340180510e-02,
          -4.6080845498185960e-02, 1.3290875920343267e-01,
          7.4887254704457271e-02, 3.8308035139577999e-02,
          -9.0623784719188250e-02, 1.0241918310665245e-01,
          -3.6250646307781569e-02, -3.8109050652252195e-02,
          -1.1463839513426011e-01, 1.6393601414573825e-01,
          1.4169529832377981e-01, -7.2634107062657716e-02,
          -5.2237502487721944e-02, -3.5213777266379101e-02,
          -6.9883579007801858e-02, 1.2759961041499768e-01,
          3.2455869441159649e-02, -1.0694516892954008e-01,
          -1.2527288657436331e-01, -1.2337533357311960e-01,
          -1.6799186001187219e-01, 3.1011680126192400e-02,
          2.6405352935441245e-01, -1.0185899901343642e-01,
          2.3114094048650996e-01, 1.5147425325347011e-01,
          -1.7593049998784022e-01, -1.0872869775975882e-01,
          -6.4547469950314495e-03, -1.8519650976236000e-02,
          1.0757150808300092e-01, -2.1574267905510802e-01,
          1.1336842298519655e-01, 2.2192641877165828e-01,
          -1.7738587623792182e-01, 1.8437292579795578e-01,
          1.0429414513000920e-01, 7.8265607118832584e-02,
          -1.5257295651694799e-01, 1.4015015938223710e-01,
          -1.0752379003980669e-01, 6.3868260384526698e-02,
          -6.8328376601187596e-02, 6.4006235092606584e-02,
          1.9163535673254128e-01, 3.1214991104887803e-03,
          6.5713996411726205e-02, 3.7292410966552653e-01,
          -4.7622424007890324e-02, -2.8269478593966757e-01,
          -1.5784497658159116e-01, -1.9849047857153801e-01,
          3.1584265082280261e-01, 1.3758176341265679e-02,
          2.2604005100729641e-01, -8.5719501936091916e-02,
          2.2611911059720918e-01, 1.6283339938731084e-01,
          -1.4968505960442094e-01, -1.0676936425961506e-01,
          -9.4667420506900340e-03, 7.2107619686580240e-03,
          1.8568405522676929e-02, -1.7901219686185357e-01,
          1.1443240658180070e-02, 1.4280604416973333e-01,
          -3.1723270794015573e-02, 1.3695914404688969e-01,
          1.0869502051763134e-01, 5.6175747243688658e-02,
          -9.6362180997170199e-02, 6.3117127241271775e-02,
          -9.5517161355843760e-02, 8.6370357724951149e-02,
          -4.0814015867410243e-02, 1.1200488010908284e-02,
          9.7671798590251296e-02, -2.3169599249937264e-02,
          -2.2711596664911321e-02, 3.5405573953624564e-01,
          -4.2868639915976205e-02, -2.6008152500178200e-01,
          -1.2423754151924489e-01, -1.7077357833523968e-01,
          3.5760073406489690e-01, -8.2657565607945779e-02,
          1.1891811234914333e-01, -1.6105424135265262e-01,
          2.2669965325440422e-01, 1.9739500536292248e-01,
          -1.8840843765129975e-01, -1.4800163664460464e-01,
          -1.3012134138822565e-01, -1.1829090747648655e-01,
          -1.2578787462535201e-01, -1.4227879498997292e-01,
          -9.9176848835847070e-02, 2.4404774376268953e-01,
          5.5558279983209278e-03, 1.1790765310960812e-01,
          -1.3951259068762856e-01, 1.4213711663854059e-01,
          -1.2323339855984947e-01, -7.0558953583627140e-02,
          -2.0688192158161745e-01, 2.8221437835588470e-01,
          2.7075935241774790e-01, -1.2077744641395780e-01,
          -9.2650203593150710e-02, -3.1403959413370139e-02,
          -5.7368781525049636e-02, 2.1556579509708598e-01,
          3.9875256882653490e-02, -1.3890453301130709e-01,
          -1.4988192504486053e-01, -1.9691443660263730e-01,
          2.4737328216228521e-01, -2.9727250562612374e-02,
          5.9227231963169126e-02, -1.7757732150874900e-01,
          2.0310122745682288e-01, 1.4208224724009139e-01,
          -1.4850048339956876e-01, -1.1840240813444515e-01,
          -4.5105968779365235e-02, -8.1554844194028892e-02,
          -1.1850617211236751e-02, -9.0873951870943201e-02,
          -2.8801256295378393e-02, 2.2914837618915782e-01,
          -1.2120125106944239e-01, 1.2710866641348087e-01,
          -5.8878075530936151e-02, 1.2338442682678676e-01,
          -1.0577714644134516e-01, -2.5745459418622489e-02,
          -1.0343143183601985e-01, 1.9754029263914022e-01,
          1.6145313286418433e-01, -3.3063896444622681e-02,
          1.8941219308860707e-02, -4.6938712674291852e-02,
          -6.9991586953707552e-02, 1.8521748711165092e-01,
          1.6490984089837769e-02, -1.0037851640174619e-01,
          -9.0685320753739140e-02, -1.9074993405448668e-01,
          1.3363650168913399e-01, -1.5365196296863348e-01,
          7.1734656094115792e-02, -1.4030873736278265e-01,
          2.2691001541134903e-01, 1.8128013709068494e-01,
          -1.8729391801904108e-01, -1.7149385588035168e-01,
          -1.7877303272714595e-01, -1.9703156421548973e-01,
          -9.2831473491248109e-02, -8.6643796680178312e-02,
          -6.4928721433898592e-02, 1.6604372215305724e-01,
          -1.1992392517861826e-01, 9.0472695858584598e-02,
          -3.0659037256377658e-01, 1.7053772820872842e-01,
          -1.2532081852386928e-01, -6.8694302387596953e-02,
          -1.2117438355998350e-01, 2.7129792192913854e-01,
          4.2251017827895110e-01, -1.6240741401488973e-01,
          -1.0209827689568432e-01, -1.7213123906162954e-02,
          -7.9508653305170082e-02, 1.8696726427647756e-01,
          1.5056617025959521e-01, -1.2083908709469823e-01,
          -1.2081703395817724e-01, -2.2323781882022770e-01,
          -4.7638590240510936e-01, -9.6837150357521773e-02,
          4.2162176159145293e-01, -1.6659778945741510e-01,
          3.5109130611968770e-01, 2.2294868907619378e-01,
          -2.5868259917128728e-01, -1.9041342048909429e-01,
          -1.3275810191009402e-01, -1.1008930422319629e-02,
          1.4722500134085270e-02, -3.0840228451175195e-01,
          5.8346697492349595e-02, 1.6818697358686463e-01,
          -2.4913234924004654e-01, 2.0825649419780387e-01,
          -1.5237978221703852e-01, 1.0634476669410180e-01,
          -1.6984118913675145e-01, 7.8644131791668626e-02,
          -1.1065893562459267e-01, 1.4573207927100396e-01,
          3.3960474721912765e-01, 7.4470089336886439e-02,
          6.2462255819133596e-02, 2.6007970964484622e-02,
          1.0729192384797576e-01, 6.6617182229278327e-01,
          8.7348498288668489e-02, -5.0678874018519537e-01,
          -1.5273740168418970e-01, -2.7779249797474065e-01,
          3.7710348162007294e-02, -7.3503620409112500e-02,
          1.7639229441638377e-01, -1.9106738156548170e-01,
          3.2929685633944389e-01, 2.3913505245200462e-01,
          -2.8390396883953989e-01, -1.9993250313883271e-01,
          -9.1830503706986158e-02, -1.2386726148098534e-01,
          3.8934275868689652e-02, -2.2526114630504426e-01,
          2.7602720046625066e-02, 2.6269844301724005e-01,
          -9.2197397453580632e-02, 1.3885593554806411e-01,
          -9.0281396294966093e-02, 1.3274423640895699e-01,
          -1.5250716320478769e-01, 5.7734959582901573e-03,
          -9.1990043597801330e-02, 1.6074918222674056e-01,
          7.5345957903089913e-02, -5.4392873516797814e-02,
          9.5890074031436554e-02, -1.5083389850990232e-02,
          8.5060678981350151e-03, 3.9916518429459003e-01,
          3.6106421891121204e-02, -2.3523119835637590e-01,
          -1.8134995620903011e-01, -2.9503478302399744e-01,
          3.1576873908687458e-01, -8.9637021663905470e-02,
          5.1952432120396443e-02, -2.5739914629752597e-01,
          2.8998549576793936e-01, 1.9600435502097391e-01,
          -2.3856027553206416e-01, -1.7148681934854754e-01,
          -4.8841164073334956e-02, -1.8089665677619352e-01,
          -4.0517076845819296e-02, -1.4927921000674327e-01,
          -3.6098035712658870e-02, 3.7409191039483392e-01,
          -6.3323829156047440e-03, 1.1791860823133647e-01,
          -2.0390901674214038e-01, 1.5461779147712179e-01,
          -1.6429533536297258e-01, -1.1220287004280058e-01,
          -1.2522679555260885e-01, 2.3502188514585440e-01,
          7.9005856290158549e-02, -6.3835119137539489e-02,
          9.8214211023349204e-03, -5.7469621264360400e-02,
          -3.1373574538828136e-02, 1.8086932279400358e-01,
          2.8213425797455227e-02, -9.4951595134879510e-02,
          -2.2290514914601747e-01, -2.4555842575636991e-01,
          6.6229982468559878e-02, -2.0364158088145720e-02,
          2.0206162365847924e-01, -2.3322323214738486e-01,
          2.9600793430268058e-01, 1.5455317601227994e-01,
          -1.6376954818788747e-01, -1.1291483694165946e-01,
          -1.3927977700695202e-01, 3.0416214051766900e-02,
          4.8849400848146693e-02, -1.8726227808645624e-01,
          8.3936290582641168e-02, 2.6503671768060705e-01,
          -1.0943255546910818e-02, 1.3941034053648571e-01,
          -7.2024509665012837e-02, 6.3895543849512140e-02,
          -1.2222636163044578e-01, 8.4862533377400556e-03,
          -3.3392536547799806e-02, 1.4510719316335741e-01,
          -4.8364885728797151e-02, 1.7145890294622278e-02,
          1.4604833382362589e-01, 1.0323729303134752e-01,
          -4.7613500711387292e-02, 3.7305310549709181e-01,
          -1.5504678379900804e-02, -2.0758335637109168e-01,
          -1.1781501308100471e-01, -2.5920437078152797e-01,
          -2.4045353647569606e-01, 9.7717982838599601e-02,
          1.3633029719840056e-01, -6.6745461587546143e-02,
          1.7257634300429098e-01, 8.4202888052755040e-02,
          -8.1760694348295429e-02, -3.6429104114733470e-02,
          -4.0804136571082755e-02, 9.9547042204515032e-02,
          4.7376761766664659e-02, -1.5434966788051419e-01,
          9.6144289630473001e-02, 1.6115537212752171e-01,
          -6.5470679515941030e-02, 1.3252292388384498e-01,
          1.1129211419500948e-01, 3.3510111571327966e-02,
          -1.0669672748513419e-01, 3.1378474903461413e-02,
          -7.2841353253646990e-02, 1.9480964667482534e-02,
          -1.2882773329203950e-01, 1.2109736293469420e-01,
          9.2865071592862419e-02, 1.0786820681067329e-01,
          3.9833192464133256e-02, 2.8437154481649229e-01,
          -1.1920868900958627e-01, -1.9191365509892272e-01,
          -1.0342916793770646e-01, -1.2070537199740888e-01,
          -4.2688697192888669e-01, 1.6019006196580771e-01,
          8.7529435529339950e-02, 3.9349246597610098e-02,
          8.2827682716338905e-02, 9.7853117417045395e-03,
          -2.3265340538454728e-02, 3.3657822673766061e-02,
          4.0472698332131525e-02, 1.8805306480788561e-01,
          1.1544481228255429e-01, -9.7882334854720379e-02,
          1.2448667528205985e-01, 4.3395844711824477e-02,
          -3.8633413891566243e-02, 1.0151452667469192e-01,
          3.4586294422664021e-01, -3.1434503065771474e-02,
          -2.3533390775317017e-02, 8.6737546584952654e-02,
          -7.7680272385578425e-02, -1.2859500693785264e-01,
          -3.4107046272035202e-01, 1.4414392978933613e-01,
          1.4547857595039890e-01, 9.1329391178449043e-02,
          8.5449894238205426e-02, 1.2905277260451914e-01,
          -1.5031847632909298e-01, -1.3691245387722589e-01,
          -5.1564539476268059e-02, -2.6544420439491779e-02,
          -2.6113390513446855e-01, 4.6997800321049506e-02,
          2.4536068168265125e-02, -9.3062059593753965e-02,
          1.4447502729041781e-01, 7.7431260268805299e-02,
          -5.8296823637511666e-02, -3.6934991673298091e-02,
          -6.5687911593626233e-02, 1.2648006578930227e-02,
          -5.4888956515763265e-03, -9.1110752071312140e-02,
          3.7352339717803495e-02, 1.1009108816635720e-01,
          -8.3531154023022164e-02, 8.3510645994513327e-02,
          -1.5557986470406449e-02, 6.1783704315202227e-02,
          -1.0022633984814838e-01, 7.2484943869792215e-03,
          -1.1139746018716520e-01, 2.5002135080967582e-02,
          5.1920040928737150e-02, 1.4460258267900006e-02,
          -4.1556390658667799e-02, 9.1958376854364879e-02,
          -1.3249702520937823e-02, 1.1153022017726105e-01,
          -3.7631083421411249e-02, -7.1650482005995580e-02,
          -8.9943782034514294e-02, -8.0341172308247541e-02,
          -3.8379301265863885e-01, 3.7364115720754924e-02,
          6.8168649377064988e-02, -1.2901864397412030e-01,
          1.8430098934612418e-01, 8.5196958068301951e-02,
          -6.3708662667419272e-02, -2.0247608227510112e-02,
          -1.0846969005520983e-01, 1.0300115913866367e-02,
          3.9905552477280691e-02, -1.4461571175122623e-01,
          7.1554105866249676e-02, 1.1169140304233177e-01,
          -9.0496184545364608e-02, 9.2127845410980166e-02,
          9.8041536557295431e-03, 5.3351600422680272e-02,
          -7.8027968594181457e-02, 5.1510673380794458e-02,
          -6.3676403914330146e-02, -5.5828791729194338e-03,
          -1.4625472851992388e-03, 2.4415071799424353e-02,
          3.4766428246662165e-02, 1.1996569945318440e-01,
          -5.6796158112544133e-03, 2.2544997339370867e-01,
          -5.7012982216290010e-02, -1.3647583195108196e-01,
          -8.7518767599750372e-02, -1.0205082807930106e-01,
          -5.7731015818972853e-01, 1.6761430679094114e-01,
          2.6200128460551936e-01, 4.1161556246805717e-02,
          1.5113393379348611e-01, 1.8832619818676032e-02,
          -3.1577480786898690e-02, 2.7359344140708761e-02,
          -3.2694716397347445e-02, 2.0836619168471893e-01,
          2.2971112350521647e-01, -1.8599296620625017e-01,
          2.7215060085802639e-01, 5.0693969640628632e-02,
          -5.5952616204972237e-02, 1.5047258285044476e-01,
          4.0978359381922597e-01, -7.6277715592553863e-02,
          -5.8771136920624654e-02, 2.2683091398785771e-01,
          -1.6759650559558349e-02, -1.5068266798451924e-01,
          -4.0538606429501672e-01, 1.7392925618742547e-01,
          3.6395713446196626e-01, 1.4300893402712347e-01,
          1.1963182090537949e-01, 3.9197353511900934e-01,
          -1.5566127704409047e-01, -3.0382239293295094e-01,
          -5.9953632491180735e-02, -6.0358689840246407e-02,
          -2.8820108435020869e-01, 6.4087154539868879e-02,
          6.5250912723675891e-02, -1.0641727914286679e-01,
          1.2396659458205968e-01, 5.6421389581377428e-02,
          -5.6710612069427194e-02, -3.0966926163681040e-02,
          -1.2235916447027538e-01, 1.1875593476535995e-02,
          5.3719318328411411e-02, -9.7877518133167737e-02,
          6.0278966757386115e-02, 1.3401950789532083e-01,
          -6.3423808665456952e-02, 1.0477936760971378e-01,
          5.1291109662820508e-02, 7.2131850220417459e-02,
          -9.1569592156187374e-02, 8.4555861550507427e-02,
          -1.0569371671303486e-01, 3.9965420139026285e-02,
          3.2899049215182566e-02, 3.7718019958173053e-02,
          4.9690865398739757e-02, 6.0121304518049354e-02,
          -3.8780219750090658e-03, 1.8927157990318452e-01,
          -7.8375871574043326e-02, -1.2467220669255522e-01,
          -1.0809393967242248e-01, -8.5557660847588729e-02,
          -3.4529642425032558e-01, 1.0784186105782978e-03,
          -3.0174749902424448e-02, -1.0093676313185031e-01,
          1.4192355577066756e-01, 7.3152619453414489e-02,
          -4.0745198441143937e-02, -1.1711688611025438e-02,
          -1.0180397236418955e-01, -2.8497585907366601e-02,
          -2.4852725920524461e-02, -6.2504786268099327e-02,
          2.2648282896963738e-02, 1.3804840408408289e-01,
          -8.1205859915187931e-02, 9.4689080203705062e-02,
          -3.5100604545505516e-02, 6.5613496878788050e-02,
          -1.0442979123326347e-01, -1.2360504700510073e-02,
          -1.3642058787681993e-01, 6.6465931335286443e-02,
          9.9198694490769998e-02, 1.4355830773685366e-02,
          -5.6044619203422186e-02, 7.5706233064002051e-02,
          2.5738204051301912e-03, 9.1638914379096201e-02,
          -4.3450279676038393e-02, -4.1489586569401632e-02,
          -1.0126419815258145e-01, -7.2419358235112419e-02,
          -2.6671791635384207e-01, 2.5159148673265668e-02,
          -5.0992758929542714e-06, -9.7296868655002575e-02,
          1.6006909237097661e-01, 7.2295857076020639e-02,
          -6.4583748160310622e-02, -3.1385993955028280e-02,
          -6.3597957214999556e-02, -1.4207701162185060e-02,
          -4.9063736454632439e-03, -7.3736724352593777e-02,
          2.4907873010033218e-02, 1.4119852375824030e-01,
          -9.2193522641036252e-02, 8.4237663737746882e-02,
          -4.0082290946330888e-02, 8.5613196365948011e-02,
          -1.0850780827725293e-01, 2.3496273690848547e-02,
          -1.3181506896648762e-01, 8.5869860651751513e-03,
          6.1451603051610189e-02, 1.4017613346593101e-02,
          -2.6032188707970968e-02, 4.3633823457407649e-02,
          -3.1295035433411666e-02, 9.7452152319144572e-02,
          -4.3316813364700155e-02, -6.2019967616796512e-02,
          -9.4453915731113974e-02, -9.4192988237001257e-02,
          -1.4600869043869277e-01, 7.8315183657481580e-02,
          -1.2722557806526727e-01, 8.2579296198565619e-02,
          -9.7415272039810555e-02, -6.1141480829823486e-02,
          4.8221180922075696e-02, 5.0227399511411919e-02,
          1.3154089292718993e-01, 1.2223544863553619e-02,
          7.7125958627541819e-02, 9.9867329661329732e-02,
          3.8131591421548601e-02, -3.8161621853691247e-03,
          3.7694528281284514e-02, -2.4644326674519802e-02,
          1.8338158885163919e-01, -4.6047753140148286e-02,
          3.3612400344393965e-02, -4.7481767222780330e-02,
          -4.7380458004468419e-02, -8.3429721652299546e-02,
          -2.6456568008388009e-01, -2.3860089151867873e-02,
          1.0171688269404164e-01, 4.4548503205339179e-02,
          6.1591825365821751e-02, -2.5515357166001579e-01,
          -2.9749346821238645e-05, 1.1737646967996397e-01,
          1.9453286852851859e-02, 1.0631449315601510e-01,
          -4.5352508710691231e-01, 7.6738774464001652e-02,
          9.8722746513522391e-02, -1.2278581567883817e-01,
          1.3724979045744842e-01, 4.8257121358212897e-02,
          -1.8306460523771429e-02, -3.0693195295887938e-04,
          -6.0595606983973198e-02, 4.7792391168173770e-02,
          2.4851106779129824e-02, -1.0634405595566228e-01,
          6.5359360803663724e-02, 1.4836538997428897e-01,
          -1.0781938699806141e-01, 9.9368985773459220e-02,
          7.5704722777936856e-02, 2.6593935447642998e-02,
          -1.1263742857133503e-01, 4.9557011986051204e-02,
          -1.1919956187750079e-01, 1.1512116789096433e-02,
          -9.2290305004015402e-02, 6.5369890641688383e-02,
          8.6112704756493519e-02, 6.5252312835807361e-02,
          2.4322679488352695e-02, 2.7355143442511576e-01,
          -4.9962850466473176e-02, -1.5578639706201319e-01,
          -9.0575929751839077e-02, -9.3425953200673442e-02,
          -2.9254268424520141e-01, 9.6239177401134260e-02,
          6.3906342480058193e-02, -5.4360326432273967e-02,
          1.3039411436880230e-01, 2.2987283057641191e-02,
          -2.8123008250270049e-02, 2.3845722743748618e-02,
          -5.0016843959365856e-02, 8.5393714042147614e-02,
          6.2591114292861807e-02, -1.0320573307833558e-01,
          7.5011594149477279e-02, 6.7056846131188882e-02,
          -6.4749175292282357e-02, 7.3765901804193346e-02,
          9.4211904369886842e-02, 1.3542208064098468e-02,
          -5.8633595330566869e-02, 9.4748764155294971e-02,
          -2.7841851540246411e-02, -7.2268081513988308e-02,
          -9.4239020201975471e-02, 5.5890692054575919e-02,
          6.9468282172692061e-02, 2.9889975057816667e-02,
          1.7845091802762506e-02, 1.4536022340555643e-01,
          -1.1566602028535376e-01, -9.3310580284724706e-02,
          -4.3012809201463935e-02, -4.6540305067442278e-02,
          -5.9861390744112597e-01, 1.5688584970500422e-01,
          2.5384313646027251e-01, -3.4226560903891617e-02,
          9.4743350148129457e-02, -2.3010859287443942e-02,
          2.7833860774897051e-02, 4.0589022108637268e-02,
          -4.7817038552872525e-02, 2.1660639389017336e-01,
          2.4646364881274385e-01, -1.2740297879421458e-01,
          2.6691098074083236e-01, 5.3074684134420735e-02,
          -7.5637528143391183e-02, 1.1418174126746899e-01,
          3.3197368501240210e-01, -7.9732859648489834e-02,
          -5.5640925629062393e-02, 2.3336557439099201e-01,
          4.7732278346821186e-02, -1.3700983252810017e-01,
          -3.4484673980184732e-01, 1.9761956064373551e-01,
          4.2459998595933085e-01, 1.4873822481991722e-01,
          1.2660813525437331e-01, 4.5621420162244075e-01,
          -1.1680501351588085e-01, -2.6092106674370219e-01,
          4.9742102758722258e-03, -4.8204983250503347e-02,
          -7.1333591280020436e-01, -2.0544888703367304e-03,
          -2.7492557448326318e-02, 7.6552678529762289e-02,
          -3.7665167699013791e-02, -4.3949269892369490e-02,
          6.9007680175259933e-02, 1.9448205791049444e-02,
          6.6449074085225025e-03, 8.4605309555548402e-02,
          1.4185599601785207e-01, 1.0401395358178828e-01,
          2.3084551260021186e-01, 2.3008314532583136e-02,
          -6.3656035002412695e-02, -8.0780521855196869e-03,
          1.8705232953844836e-01, -2.3730424878253820e-02,
          -3.2421704864988714e-04, 4.9261724417813041e-02,
          -9.1991457729192802e-02, -2.7566563433448380e-02,
          -1.9488491364005098e-01, 2.4444117493068247e-02,
          2.1734116675499371e-01, 2.0767683063235906e-01,
          9.9362491611917278e-02, -1.8226808320336314e-02,
          1.0646055847259824e-01, 3.4689958692743404e-02,
          4.7052035200949235e-02, -3.6449559588980179e-03,
          -3.7380821050390522e-01, 1.2094412513442636e-01,
          1.0183105672115665e-01, -1.2291522976681887e-01,
          6.0253503689772572e-02, 2.0148311799160410e-02,
          1.9011243057024004e-02, 1.8623884297791500e-02,
          -6.0472014730839296e-02, 1.4569743800452109e-01,
          1.2998984260933577e-01, -8.4262938648646701e-02,
          1.3320418081644980e-01, 1.4826631541168436e-01,
          -9.4059868138180819e-02, 9.3275937426493427e-02,
          1.8741304373012047e-01, -6.5601842237176123e-03,
          -5.2633018340275249e-02, 1.4959922430551745e-01,
          -6.2446861067983368e-02, -3.1394735746407582e-02,
          -1.4131843416963905e-01, 1.2841647168930290e-01,
          2.2082807905638421e-01, 7.9831394064341907e-02,
          5.1054794827440624e-02, 2.2322231862080238e-01,
          -1.7927075515976404e-01, -1.4377235554682896e-01,
          -3.8316183550134844e-02, -4.9164136830328067e-02,
          -5.1750951088014996e-01, 1.1176947832251756e-01,
          1.1611796052498270e-01, -9.2740171258163390e-02,
          9.8660017499185973e-02, 2.6702147882194518e-02,
          1.1614432776304997e-02, -2.1090541017810818e-03,
          -3.4235709316481691e-02, 1.2166029501275188e-01,
          1.5852686323309600e-01, -8.8305695603385026e-02,
          1.9166539131208316e-01, 1.3901637301548445e-01,
          -1.0589276289565697e-01, 8.7317073396187384e-02,
          1.4426181535361277e-01, -6.0314003563033628e-03,
          -6.7311464787294925e-02, 1.6371939052148052e-01,
          -3.8940079879267731e-02, -4.0090673394944237e-03,
          -1.4682429971922359e-01, 1.3055653808362094e-01,
          2.9414149396005307e-01, 1.0415564518049027e-01,
          9.0171678834294611e-02, 3.1602075370337801e-01,
          -8.2515938483315843e-02, -1.7550112323380099e-01,
          -5.2375103604492990e-02, -4.7543170498015069e-02,
          -5.1013221305931844e-01, 1.1220985068663229e-01,
          2.0104458960758220e-01, -3.3385547516583375e-02,
          9.0883156813631918e-02, -4.1398539981583868e-02,
          2.1311118230379074e-02, 3.3535342215942440e-02,
          -4.3774521520794786e-02, 2.0442522177848085e-01,
          2.7767952109109983e-01, -9.3807966422231298e-02,
          2.6042136768511570e-01, -3.6128319342035267e-02,
          -3.0710839605095606e-02, 5.0286510362502958e-02,
          2.7201744010500117e-01, -1.1095126387521768e-01,
          6.3672464571676553e-03, 2.3799576342014186e-01,
          9.6539658117904215e-02, -1.4859715285329519e-01,
          -2.5272982142302203e-01, 1.5107624370673592e-01,
          3.9698755133769181e-01, 1.4838321156864828e-01,
          1.0562315057033851e-01, 4.0916610585765967e-01,
          -1.1654286817465204e-01, -2.1432642669301705e-01,
          2.7573482454332384e-02, -1.8707411045531839e-02,
          -3.6476427513354709e-01, -7.9405700043293378e-02,
          -1.9994591878632434e-01, 5.1894710442024997e-02,
          -6.9293465970541368e-02, -2.0501256854856435e-02,
          6.2198859519247238e-02, 2.4406667836097462e-02,
          -3.5727387456447150e-02, -9.3995028543913700e-02,
          4.1792238558440539e-02, 1.9371751017705227e-01,
          1.1222261782442634e-01, 3.3395707715576470e-02,
          -1.8313719292777891e-02, -6.0786076692430961e-02,
          -1.1456156495233460e-01, 1.3655268331696273e-02,
          1.9420298669253117e-02, -5.3100063997481142e-02,
          -8.3033316905645249e-02, 9.1494592794794383e-02,
          7.1421793361706107e-02, -9.9623351925134385e-02,
          2.5554767615109053e-02, 1.7395527763132601e-01,
          4.8681425489038144e-02, -2.3659604394870257e-01,
          1.4211361677139658e-01, 1.7811820056237204e-01,
          1.0467775764466116e-02, 2.3720324880795361e-02,
          -5.1659555387613276e-01, 5.8413488075508627e-02,
          8.6898772276329625e-02, 4.8487051484308034e-02,
          5.2515485908536094e-02, -3.3172465970091727e-02,
          4.1481238290271956e-02, 4.0184931910326842e-02,
          -5.2452769035193622e-02, 1.4761905172784801e-01,
          2.2106491163454656e-01, -1.5398411212445633e-02,
          2.5191194114580273e-01, -3.1153435591762577e-02,
          -2.8890269511277638e-02, 2.2730826688217527e-02,
          1.8291859921118536e-01, -7.4922923958941567e-02,
          -1.9119120244592523e-03, 2.1553394089755756e-01,
          4.1994305455624777e-02, -1.0203730574352665e-01,
          -2.0005308510481873e-01, 8.8519790179083707e-02,
          3.4182811126746676e-01, 1.8264563341903212e-01,
          7.8058577078843921e-02, 2.2188993783389646e-01,
          -3.0028616563137350e-02, -1.0517214796662788e-01,
          3.3114057065809381e-02, -4.0693688776125191e-02,
          -4.0628703176029968e-01, 1.4391954430805698e-01,
          1.1273307584637496e-01, 2.2175507591107400e-02,
          -9.5579439596966367e-02, -1.8597243456415244e-01,
          2.3143345179700128e-01, 1.5063156799713015e-01,
          8.4256339518225896e-03, 1.6555311116177465e-01,
          1.7400576681756347e-01, 6.7797589376919737e-02,
          1.0339059524553681e-01, 2.6581463570881841e-02,
          -1.5405786666136588e-02, -1.6338313188875807e-02,
          1.0237620221708743e-01, -1.0683261805823703e-01,
          5.3498802344547763e-02, 2.3476731169927240e-01,
          7.3934340470719643e-03, -1.5513854666965041e-01,
          -1.3333777009760078e-01, 1.2915166336618270e-01,
          2.6998327067711886e-01, 2.6220591643906228e-02,
          9.1626712816206643e-02, 6.8058506863740958e-02,
          -1.0998753141887398e-01, 8.2412091930706310e-02,
          1.3880269809070839e-01, 9.4929507605670677e-02,
          -4.6136028371173693e-01, 1.1996996184330552e-02,
          5.6446947703545835e-03, 2.6371768492795936e-02,
          6.0178429813338069e-02, -9.7437429001679399e-03,
          2.6630861651197695e-02, 1.3367371452830994e-02,
          -5.9307232426402248e-02, 5.0472961676181871e-02,
          1.1169848204513622e-01, 2.3146993818772520e-02,
          1.4724863777866845e-01, 3.2660614785350386e-02,
          -5.2150409297822428e-02, 3.6168080890396784e-03,
          -3.7176753768071814e-02, -9.5745764921259576e-03,
          -2.8286280142384542e-02, 8.0919935659685430e-02,
          -3.4561428998068897e-02, 1.6267200803689066e-02,
          1.7479275526748508e-02, 3.3340407034809762e-02,
          1.1621252835486645e-01, 1.3067395811971436e-01,
          2.4748346326942876e-02, 6.2140846119041859e-02,
          2.0859511481877722e-02, 7.2710412683630260e-03,
          -6.5963268842439589e-03, -1.3298874029133196e-02,
          -3.5647817005498955e-01, 5.8628270192230929e-03,
          -4.7780037083482989e-02, -8.2488146262283263e-02,
          -7.8496267915709961e-02, -5.0532537434379209e-02,
          7.7004866385966056e-02, 3.8952336699135080e-02,
          -5.8664191531454576e-03, -1.1928998019548156e-02,
          -1.1517942895071276e-02, 7.2295850043747834e-02,
          -1.5090963123623921e-02, 5.0357194585836616e-02,
          -1.0846496573849621e-01, -3.1326243421779400e-02,
          -1.3507562935292278e-01, 5.9214493159714492e-02,
          1.7584746389038512e-02, 5.9962878854117586e-02,
          -4.9074912564022667e-02, 7.1183475452290687e-02,
          2.6583721416593886e-01, 4.7079572835049668e-02,
          -1.0998685433674580e-02, 6.7326694088890554e-02,
          1.5612556848001752e-02, -1.5371777990204244e-01,
          5.5014020432681164e-03, 1.4606372945549226e-01,
          2.3889017376960475e-02, 4.0676568927812955e-02,
          -3.4602354603925228e-01, -1.6424143462306733e-02,
          -6.6215487413671503e-02, 9.2578517802586274e-02,
          -4.1566139996577399e-02, -4.2457119927260416e-02,
          5.7717054382810141e-02, 2.2968027192097114e-02,
          -5.4257990327579554e-03, 7.8170409782022266e-03,
          9.4189825068210109e-02, 1.1934055822066784e-01,
          1.1420863953354400e-01, -5.1494488008103897e-02,
          2.4032349167799876e-02, -7.7633278479512374e-02,
          1.1060553289925227e-02, -3.6786247570018013e-02,
          3.4078521049881759e-02, 9.9226780488305966e-02,
          -2.6232716615727184e-02, -4.5132325820744570e-02,
          -6.2053151314337682e-02, -1.8134850539100043e-02,
          9.4005902751831516e-02, 1.1320190899309038e-01,
          6.2831150304936453e-02, -1.6086739356850766e-01,
          3.5007491653716666e-02, 1.4114399468080333e-01,
          5.0935902807723581e-02, 5.8412916610577272e-02,
          -2.1359701589629118e-01, -2.8388668441493795e-03,
          -2.3955064152208227e-01, 1.1584262265540013e-01,
          -1.6972217216335694e-01, -8.8591456115480666e-02,
          1.1667726171413853e-01, 8.5084476326745470e-02,
          7.7632246211782815e-02, -5.4214444306505342e-02,
          2.5879534969489571e-02, 2.1340233117628732e-01,
          5.8165338349206223e-02, -2.2186968421923015e-02,
          9.5029175422242634e-03, -8.6303975791982374e-02,
          -6.1920337369415268e-02, -3.1574286108932391e-02,
          4.5723098480672915e-02, -9.3028998081192388e-02,
          -3.3181784052645491e-02, 1.4773746087699475e-02,
          -5.6422096369006386e-02, -8.8636467245750861e-02,
          -7.8986163627978636e-03, 1.2644293798253989e-01,
          7.5971201271162095e-02, -3.3754743761880407e-01,
          1.1612361218156908e-01, 2.1756987935758068e-01,
          5.5431146390441791e-02, 1.0796639303497252e-01,
          -3.4228416283268065e-01, 1.7527944317503555e-03,
          -1.3686100206599475e-01, 1.0499110364127084e-01,
          -3.9096946572957113e-02, -6.9837377739941739e-02,
          5.5639938130128130e-02, 4.2773960636144540e-02,
          -7.7517671400519918e-04, 1.3670803262913190e-02,
          8.9849280374048726e-02, 1.2534778325816043e-01,
          1.2081024387164042e-01, -7.9007599645632545e-02,
          3.4440684751016470e-02, -7.1600073622802851e-02,
          -2.2810044018377364e-02, -7.2910932496792216e-02,
          5.4545788334971264e-02, 2.4979560002792840e-02,
          2.7619794168718119e-02, -8.8149720302122092e-02,
          -8.4314008088305609e-02, -2.8888321087315660e-02,
          8.4213230525188781e-02, 1.4370982005040628e-01,
          4.1996199308245899e-02, -1.5363714317068708e-01,
          3.6741144085647645e-02, 1.2741457577998000e-01,
          7.4577485098497820e-02, 4.9481947248451910e-02,
          -1.0894313842194536e-02, -2.8460912560365727e-02,
          -1.6524122843329128e-01, -1.2936383719855638e-02,
          -7.6520037694960755e-02, -1.4952370983375199e-02,
          2.6088512229778201e-02, 1.5375703488076181e-02,
          -4.4539302867662618e-02, -1.3376646154091559e-01,
          5.2080296502655311e-02, 1.6226235058543592e-01,
          5.6496882247590814e-02, 1.6335209579504816e-02,
          6.5570247187442185e-02, -8.5526879379845322e-02,
          -2.3750289998975480e-01, 3.0539082515838475e-02,
          5.0656712609929509e-02, -2.0584576811411598e-02,
          3.0977122599143970e-02, 3.3111228424197413e-02,
          1.1879999041881428e-01, -1.2151227466298378e-01,
          -5.0355292209367915e-02, 5.5291893947935010e-02,
          -4.5751957467033777e-03, -2.8720074132267032e-01,
          -1.0330983008970938e-03, 1.8093071552301893e-01,
          7.8740073086484182e-03, 2.9354592085526075e-02,
          -2.1307237458452359e-02, 3.9637475017753609e-03,
          -9.0262992916600726e-02, 4.8036315118697513e-02,
          3.9329815805208695e-02, 2.4102707256635072e-02,
          -4.8242457506055540e-02, -3.9655427289043553e-02,
          -1.7239772406183105e-02, -5.0302533409848589e-02,
          1.1854433514740291e-01, 2.0894967278018085e-02,
          9.3620960258509869e-02, 3.5623844289628822e-03,
          1.4839545371840145e-02, 1.0714796306481100e-02,
          -1.7032660107557193e-01, -1.9501989355135295e-03,
          2.6347129041394458e-02, 5.2628765322316633e-02,
          3.7413140507614406e-02, 1.4329786635963498e-02,
          3.6281769051172294e-02, -6.0549283989875399e-02,
          3.7123601840713477e-02, 3.8896224503836431e-02,
          3.2120362508172136e-02, -1.7442877727339051e-01,
          -8.3322869053372439e-03, 8.7943185534267984e-02,
          -1.0669800544971846e-02, -1.3251330083885826e-02,
          -2.2603634389751873e-01, -7.0926628608713682e-02,
          -2.4641395292507703e-01, 8.2611186948417445e-02,
          -9.6970610497584708e-02, -3.2004517637197548e-02,
          6.6014080455030974e-02, 2.3642859158856878e-02,
          -2.6504429372549494e-02, -1.2652973629522241e-01,
          3.5919656310149504e-02, 2.1638155168044243e-01,
          8.5546835042479619e-02, -3.8848832582681750e-02,
          6.9319121872801065e-02, -1.0004790132411412e-01,
          -1.7495281859455078e-01, -2.9249467498874356e-02,
          4.9584033076494075e-02, -8.7162033162253225e-02,
          2.0484141116974660e-02, 3.0726376630033907e-02,
          6.9639334318432278e-02, -1.5826286553165522e-01,
          -3.2983015024503064e-02, 1.4322594348244611e-01,
          3.1537446782081494e-02, -2.9596563924828179e-01,
          1.3235944220669774e-01, 2.1315147196134906e-01,
          4.9919369863057457e-02, 4.1931029694647202e-02,
          -2.7566535830763243e-02, -7.0558628784695293e-02,
          -1.2283436150235454e-01, 7.9887001509090907e-02,
          -1.3774032685385402e-02, 9.9634587648344940e-03,
          -1.6441904440235484e-02, -1.0741322652852518e-02,
          -7.5693340086219196e-02, -1.3964055299185102e-01,
          7.4913673892765986e-02, 1.2295353913029991e-01,
          1.3280980431188180e-01, -4.4471545378065788e-02,
          7.5443596656543252e-02, -9.2470553727858437e-02,
          -2.7560476527741645e-01, -2.0171044439045611e-02,
          5.2352332088656507e-02, 1.7351224906772302e-02,
          1.3257903144286551e-01, -2.1673120694141554e-02,
          8.3535180397254896e-02, -1.7356229885217722e-01,
          1.1926751742228077e-02, 1.2061205134386592e-01,
          -2.0524287327629141e-02, -1.9737779663607002e-01,
          1.0396519406216999e-01, 1.2602930089969624e-01,
          2.6111723918628635e-03, 3.7447483806958650e-03,
          9.5711040050040247e-02, 4.1754452664761285e-02,
          -1.9947012941536005e-01, -2.1005252854253953e-03,
          -1.3840024687539432e-01, -8.3713941165876896e-02,
          9.4658479496092948e-02, 6.7293207746916633e-02,
          1.0841962373507501e-01, -5.9206814569793279e-02,
          1.1000357785713544e-01, 1.3627996879371965e-01,
          1.4703807863213668e-02, -8.5646348023347807e-02,
          1.0004549242358150e-01, -9.2308777994399627e-02,
          -9.0609151904235158e-02, -7.2274088599559930e-02,
          8.8312813619054645e-02, -2.2217975123742212e-02,
          9.6639844265424421e-02, -1.1560507072135473e-01,
          -9.0971756051508729e-02, -1.1042716201516579e-01,
          -3.1103810977161493e-02, -6.7279517916990564e-03,
          7.7616545894650391e-03, -1.9185428311550468e-01,
          5.4675723574136727e-02, 2.6246740495841053e-01,
          6.2521022825587969e-02, 8.8754928437805733e-02,
          -1.3254861315038874e-01, -1.2240427065940241e-02,
          -9.1013628128730789e-02, 4.7231240660110980e-02,
          -2.6534964124624087e-02, -3.8373266549539868e-02,
          2.5025421908536048e-02, 5.2109257777812570e-02,
          -1.7511139317376589e-02, -3.4603597662962310e-02,
          1.3122759797210029e-01, 1.1484777297608083e-01,
          1.5490792948754809e-01, -1.1100879558830222e-01,
          6.2483377872093508e-02, -8.3911365922743480e-02,
          -9.1211694242568808e-02, -1.0371160217533436e-01,
          9.2262144206697719e-02, 4.9319335097708070e-02,
          1.6905518720259871e-01, -1.0694681187455865e-01,
          -1.0666732527358981e-01, -1.0277645546037678e-01,
          1.1111579750642521e-01, 1.3591438478713372e-01,
          2.6146295259014535e-02, -4.3524022774648521e-02,
          5.7950745643624402e-02, 6.8088568326325705e-02,
          5.9387655052662025e-02, 5.1133543924611384e-02,
          2.6094202370495417e-01, -2.8804164927741002e-02,
          -1.6126017587642325e-01, -4.7856052619724372e-02,
          -4.8179866716146554e-02, -1.1654998923720947e-02,
          9.7803004426473845e-03, 1.1895997649762418e-02,
          5.3337162870634176e-02, -9.5463476747035120e-02,
          -2.0187176167671846e-02, 1.0353721658571553e-01,
          -5.7341912292256977e-02, 2.8677871284339684e-02,
          5.9711558213172936e-02, -7.4651423527567609e-02,
          -1.8282643578603411e-01, 2.6578978151397016e-02,
          3.7695097450133074e-02, -1.3156694561471094e-04,
          -1.9364146949733807e-03, 4.4070311947771043e-02,
          7.4332691111405766e-02, -7.3661251356486934e-02,
          -1.2004285936601575e-01, -3.3552707841192242e-02,
          -4.4576417396868240e-02, -2.8108446720834862e-01,
          5.4326905692316789e-02, 2.0325443984537375e-01,
          -2.0411253824401407e-03, 3.3223600728491377e-02,
          -4.6808660076854101e-02, -5.4261896657354078e-02,
          -2.1862368515896496e-01, 6.2689479129967557e-02,
          -6.8667101779839104e-02, -3.1573974113526228e-02,
          4.3206001694400295e-02, 5.4859704047348183e-02,
          1.8538358341277431e-02, -7.6356858464224062e-02,
          7.2230293978824633e-02, 1.9301935033679699e-01,
          8.3324962526479210e-02, -1.0834768128365138e-01,
          8.8773116585418144e-02, -1.4130037910265031e-01,
          -1.7571142584965060e-01, -5.5423424651183696e-02,
          9.9804805105465189e-02, -5.5747080949304084e-02,
          1.0925696542727208e-01, -7.1881327145154369e-02,
          1.5158370860833414e-02, -1.4055890707696961e-01,
          -4.8101492880231994e-02, 8.6134334618290620e-02,
          1.9348952973125510e-02, -2.8280465862687149e-01,
          1.2361315609666250e-01, 2.3215825897276166e-01,
          8.5811147038347246e-02, 6.4823862824980233e-02,
          -1.0091064098894720e-01, -4.0760756899011338e-03,
          -1.4833796159773527e-01, -4.9104225918665700e-02,
          -8.1016553761144514e-02, -4.7388272281383582e-03,
          1.4895835740511133e-02, 2.2171642902490043e-03,
          6.5541242046196907e-02, -5.8997026556321705e-02,
          -4.5077802841518293e-02, 8.4078966158325927e-02,
          -7.0754001340494393e-02, 2.4467978010374598e-02,
          -5.3256343712335591e-02, -4.7151487618952936e-02,
          -1.3662484014310558e-01, 2.7286618611599502e-02,
          2.4417563391679428e-02, -5.1411980129111308e-02,
          2.4797429626033679e-02, 1.7861287715813797e-02,
          1.0888103793656666e-01, -4.0986892408637343e-02,
          -1.2102259215239032e-01, -5.1886994275634579e-04,
          1.8493242067324597e-02, -1.8055715226933683e-01,
          4.8708916330978437e-02, 1.3653832183207834e-01,
          -9.7650346982184923e-03, 6.0993796144763066e-02,
          -7.5064161196237475e-02, -1.1680012389645111e-02,
          -1.4999430339924549e-01, 5.1277570230842270e-02,
          -4.1393003354383735e-02, -5.6641039540565451e-02,
          2.0896057047583468e-02, 3.2592268264920170e-02,
          9.1615651011295856e-03, -4.2658426418425023e-02,
          8.9494851659046665e-02, 1.4287017169621816e-01,
          1.2198378381977514e-01, -9.3129387814994274e-02,
          8.1670377705551009e-02, -7.3549949597307304e-02,
          -3.8797674473723121e-02, -6.5132891090618719e-02,
          7.4514971983835832e-02, -2.3350325986085673e-02,
          9.2817355945771812e-02, -4.5384063486213204e-02,
          -7.1004334060389904e-02, -6.6979914849509992e-02,
          4.7273568236446316e-02, 1.2784613208324033e-01,
          3.1806620705434614e-02, -1.3689819670173489e-01,
          9.0885869895589014e-02, 1.3382317740685676e-01,
          5.6464694619584629e-02, 3.2611081697742031e-02,
          -5.0572319611053469e-02, 9.6673376372350503e-02,
          -1.9133613907556332e-01, 3.5893080930074699e-02,
          -1.1531957552887118e-01, -5.3363080228672796e-02,
          7.2535260615146993e-02, 7.9033774320885153e-02,
          1.0212363943234819e-01, 2.5823790104322362e-02,
          1.0164905721156536e-01, 1.2766331328876651e-01,
          4.9841801110291746e-02, -4.9473442482343914e-02,
          2.8882422080540687e-02, -5.5003204134506406e-02,
          7.2662584960314514e-03, -7.1664934612828621e-02,
          4.2715124035009960e-02, -1.0369380341719480e-02,
          9.0662630117695570e-02, -1.3596741420147887e-01,
          -1.3400372977581329e-01, -3.3601923636756105e-02,
          2.2924585416928576e-02, 3.1962890283349608e-03,
          3.5998049531355283e-02, -1.9841206682360804e-01,
          1.9671767250517749e-02, 1.8362917954057917e-01,
          2.4540859571604855e-02, 9.1698791608141136e-02,
          -2.6022876295870240e-01, 1.0351444906971204e-01,
          -5.2281831496340588e-02, 3.1227998190174126e-02,
          -5.5845524226690105e-03, -6.1401472326481889e-02,
          4.6714329917315646e-02, 6.6846278381886434e-02,
          2.2620636989353887e-02, 1.0452330608310710e-01,
          1.3965548612703657e-01, 7.2612233775569066e-02,
          1.3142637736635740e-01, -3.2262947069396114e-02,
          -6.9920498635592623e-04, -9.7117395310765738e-03,
          7.0411671155042002e-02, -1.2232923383724650e-01,
          4.1021276672939554e-02, 3.2308589345834880e-02,
          1.2797924273595485e-01, -1.4098428173613176e-01,
          -1.8465105280632121e-01, 4.9631700875548350e-02,
          1.5648856249231144e-01, 1.2063359449122868e-01,
          8.0114211361530560e-02, 2.2012798690589256e-02,
          1.3173078088470368e-02, 3.8164667640598178e-02,
          5.6502989702758799e-02, 3.2190888655025625e-02,
          -1.2293513902862134e-01, 5.5341413816402771e-02,
          -1.1924065650142189e-01, 2.8019361833255863e-02,
          -4.5804285857616388e-02, -6.5424205090663518e-02,
          4.3354684041334891e-02, 4.8931790704422447e-02,
          1.1919891548215289e-02, 4.9628238975178721e-02,
          7.3394654392742592e-02, 1.1734113152289652e-01,
          1.1212139924540036e-01, -9.1563834174649278e-02,
          6.3450745245001341e-02, -6.0088516576030017e-02,
          5.5919878421335556e-02, -9.0508622657302792e-02,
          5.2837458594154528e-02, 4.6656193607699957e-03,
          1.0119706978443002e-01, -9.7353352555940950e-02,
          -1.5241242463131444e-01, -9.6594347442536810e-03,
          8.2588121098363054e-02, 1.0968338928421700e-01,
          3.6310027754933624e-02, -8.4529593164953440e-02,
          2.0515012022162687e-02, 8.7477393760013206e-02,
          4.6792914305935927e-02, 3.9603629429163130e-02,
          -1.2835934299940557e-01, 6.1749676859984143e-02,
          -1.2343740346190131e-01, 4.0247398060007183e-02,
          -2.6501681151648603e-02, -4.9318125018433696e-02,
          3.4549219608452947e-02, 5.8859935659238062e-02,
          3.5380900830071997e-02, 7.4208200284534814e-02,
          1.4795316008034129e-01, 7.3333971972879469e-02,
          9.6018122868216607e-02, -9.4756858484325759e-02,
          2.2013025542227355e-02, -1.9296681354251898e-02,
          5.9070630133945957e-02, -7.6007980383687862e-02,
          3.4530989163642264e-02, 2.6969401457912743e-02,
          1.3556566162654254e-01, -1.3270371483205537e-01,
          -1.4773205905587969e-01, 1.6114889283854811e-02,
          7.7482031274222818e-02, 5.3278045118645138e-02,
          6.2261196253481609e-02, -6.7553712971658256e-02,
          -5.7300241599226491e-03, 1.1545289403266232e-01,
          3.9701117860235197e-02, 3.9130486713736083e-02,
          -1.2870816853451741e-01, 7.1395467015423902e-02,
          -1.0738757060260279e-01, 7.2603210049092926e-02,
          -6.5195831794752357e-02, -4.8910952895471246e-02,
          2.1869510032412418e-02, 5.2307781948773911e-02,
          3.3892111034213015e-03, 8.1270969873997789e-02,
          1.2468329040115943e-01, 8.0022762453915611e-02,
          1.0942390829721112e-01, -1.4064875597068005e-01,
          7.1245933563010275e-02, -8.2440152036645370e-02,
          1.1124627523118631e-01, -1.0442724912162170e-01,
          7.3621973731088183e-02, 4.3936682439714485e-02,
          1.2432563842662708e-01, -1.2922428648727138e-01,
          -1.5716564188900600e-01, -2.2122142353630833e-03,
          1.0514446444205804e-01, 9.7041469790287840e-02,
          6.1823529638393861e-02, -3.6097300096389548e-02,
          -1.4107550442378713e-02, 5.2652886736342171e-02,
          4.1983706082867701e-02, 4.9014749245230992e-02,
          -1.7514957619882768e-01, 1.1726135878789112e-01,
          -1.2008221874441401e-01, 5.5748276072734998e-02,
          -8.1118121029854814e-02, -5.1205511733318908e-02,
          3.2816588272807493e-02, 6.1757042498032585e-02,
          1.0539819005200457e-02, 9.6315208183848977e-02,
          1.0812220599350363e-01, 6.3928987427918069e-02,
          9.6395038294020616e-02, -5.6537325672796103e-02,
          8.2366777722490889e-03, -3.3504391008156893e-02,
          1.5099252190634729e-01, -8.6305788435641531e-02,
          3.4084049614202173e-02, 4.3686341640333894e-02,
          7.7206454417645953e-02, -1.3665788206360560e-01,
          -1.6861661406016509e-01, 7.3005720116354200e-02,
          8.6351661039118635e-02, 6.1874687053224915e-02,
          8.2506864799314975e-02, -1.1326076000272328e-01,
          -8.5669228278275403e-02, 6.2914305410132806e-02,
          2.1911209062242334e-02, 4.9846229864066068e-02,
          7.7167134048732467e-04, 1.6001405964200993e-01,
          -1.8104176374062070e-01, 2.4905137829632731e-01,
          -3.4485562984602280e-01, -2.5412433868851370e-01,
          2.4363441439920297e-01, 2.3510642300874088e-01,
          2.1274929970208814e-01, 1.9361260038203140e-01,
          9.1089544924534416e-02, 2.0899755257655067e-01,
          7.9873125457139954e-02, -2.9502812365465697e-01,
          1.5257881771815421e-01, -1.3770229096072800e-01,
          4.0198704874376373e-01, -2.3954080815744500e-01,
          1.8792838818190494e-01, -8.1524314286683056e-03,
          1.5769940815605277e-01, -3.6161162237170280e-01,
          -5.4193200317724233e-01, 6.1551407009956274e-02,
          8.2500497523414554e-02, -6.7216768726463729e-03,
          7.8340104514013145e-02, -2.4689878923273342e-01,
          -9.1824905441543231e-02, 1.9423005868806342e-01,
          1.9831802226601175e-01, 2.9763007610398601e-01,
          -4.3494016711370087e-01, 1.4487981879919173e-01,
          -3.0736448898186573e-02, -7.0797388725074755e-03,
          -1.7854761819605075e-03, -6.1084222078009877e-02,
          4.9799502579898326e-02, 7.6126709559241973e-02,
          -5.5216359254343607e-03, 1.9492177129868427e-01,
          1.8519998961793369e-01, 3.0354130815068728e-02,
          1.4153808025391684e-01, 2.0135588281766866e-02,
          -5.7992543143029221e-02, 2.6936810169800700e-02,
          2.2674791879375625e-01, -1.6917934751337102e-01,
          -2.0420431513603420e-02, 8.9039808180588348e-02,
          1.0736932196555037e-01, -2.2275386782376339e-01,
          -2.8704296654265510e-01, 1.5495282624916681e-01,
          2.0552519776946790e-01, 8.3460091917565468e-02,
          1.1006984552353624e-01, 1.8076332793951651e-02,
          -7.4274671058712244e-02, -2.9241417895252954e-02,
          3.8973014914747153e-02, 3.4423255842137845e-03,
          -3.2973370324134227e-01, -2.0408040517553914e-03,
          -4.8184282550203281e-02, -1.7871267867264473e-01,
          1.5136242805947916e-01, 8.9968042940805265e-02,
          -3.9054419035260496e-02, -5.6930510124043418e-02,
          -3.9168648424386152e-02, -4.6373193762359086e-02,
          -7.3938138231364803e-02, -2.0545944109237633e-02,
          -3.6909893781820934e-02, 1.3869081963455687e-01,
          -1.2852887077940064e-01, 4.9534128274801158e-02,
          -6.0767415727880678e-02, 6.4322412026367237e-02,
          -8.3852422467116383e-02, -5.2227972361105865e-02,
          -1.3204432703750699e-01, 1.3083875906077578e-02,
          -7.8085437245109579e-02, 4.1225764107026379e-03,
          -1.1178165349420044e-01, 7.0942694715401379e-03,
          2.4087884353739625e-02, -4.6542227494355777e-02,
          -6.3996838835175235e-02, 6.9212167598582310e-03,
          -6.8147115991928200e-02, -1.1746188789334289e-01,
          -1.9920415958855710e-02, 9.2785877797335117e-02,
          -1.0783980557666682e-01, 3.0870850688681152e-02,
          -8.5963124383371965e-03, -2.2890498064023844e-02,
          -5.8382928138544132e-04, 1.1392338798177904e-02,
          -2.7933874714578453e-02, 3.1510119263595461e-02,
          6.3632164661553700e-03, 5.4900128120174099e-02,
          1.4999258819872857e-02, -1.6393403372693172e-02,
          8.2885548415039013e-03, -4.2221197059010604e-02,
          1.1600503108076853e-01, -2.1161531837003339e-02,
          5.7455784305420789e-03, -3.8009725526995325e-03,
          2.0933283472326512e-02, -4.4523122696099982e-02,
          -1.3756603135084766e-01, 2.0266458921303330e-02,
          6.0236805385516234e-03, 3.6142544954768832e-02,
          -9.3687473686583801e-03, -9.6306059367756755e-02,
          -8.1055304125506447e-02, 4.3788291650538387e-02,
          -1.2769810649479419e-02, 2.8748211457984587e-02,
          -5.6070856016034343e-01, 1.1924959444206808e-01,
          6.7700359889240130e-04, -7.1473682037155845e-02,
          6.3989108998047965e-03, -1.0834815652286138e-02,
          3.9304419921776232e-02, 4.7885689812568029e-02,
          8.3462118034831193e-04, 1.5481481990905166e-01,
          1.7115939754783308e-01, 2.5809572105791535e-02,
          1.3848109411644083e-01, 1.0625291842930450e-01,
          -8.5689730388117669e-02, 6.6370218824164870e-02,
          1.7541283546293224e-01, -1.0287863056280583e-01,
          -4.8754655711278891e-02, 5.6284786540553675e-02,
          3.2378149415162774e-02, -1.4022717049518524e-01,
          -1.8986233051849086e-01, 1.4373284267914280e-01,
          2.4519478162613198e-01, 7.8946908704336002e-02,
          1.2168968036616440e-01, 6.7021819163669449e-02,
          -1.2207710148604671e-01, -6.8275544087300175e-02,
          5.9064335952987349e-05, -1.6170657000102114e-02,
          -1.0611027593324820e-01, 9.9556792738123914e-02,
          -6.8648512598508654e-02, 1.1653603280285741e-02,
          3.9923828236408179e-03, 5.3380926508657450e-03,
          5.1091148080423150e-03, 1.1792203306628288e-02,
          -8.2176728164393906e-03, 2.8715956636780740e-02,
          -2.0557692715696674e-02, 2.9285988516128028e-02,
          -7.9215850460010052e-03, 2.4663247966730889e-02,
          -2.7908555566312398e-02, 1.5575661044472269e-02,
          1.2319067607718634e-01, -1.3491891428083618e-02,
          -3.8779500434855667e-02, -2.0414887676839778e-02,
          -5.2532200796102976e-02, -4.0778028456112309e-02,
          -1.6337140464334227e-01, 9.1755753512574270e-02,
          2.6462531500404275e-03, -1.2484965402941649e-03,
          -6.0890572833675050e-03, -8.2557218713093711e-02,
          -1.1307812415696115e-01, 3.5475472370265766e-03,
          -3.2405754798045118e-02, 4.3949612134823648e-03,
          -4.9585550759105292e-02, 8.3745297874146654e-02,
          -2.0047370516929350e-01, 6.0279457898632732e-02,
          -1.1681278253411974e-01, -7.2734052753546330e-02,
          6.2869437981879842e-02, 8.2674025298533779e-02,
          4.1824071246137656e-02, 3.2700354382127733e-02,
          -5.2961914162240810e-02, 1.4186774776825734e-01,
          1.0406151247316867e-02, -6.8006040941981358e-02,
          4.9440802517557079e-02, -8.9432835053193049e-02,
          9.3801311099034765e-02, -5.8943015963478826e-02,
          3.4473341389833184e-02, -7.9000398773843086e-02,
          9.1381196228392473e-03, -6.1607047450500621e-02,
          -1.8707178260691171e-01, 1.8813765330274033e-02,
          -6.4050223907434117e-02, 6.2650952921486078e-02,
          1.7129229535740045e-02, -2.0668060395672350e-01,
          -1.8443963243771167e-02, 1.5199828074536748e-01,
          5.8789476448243304e-02, 9.0595507924039698e-02,
          -1.8325494981551901e-01, 8.0116919535963352e-02,
          -1.5430055342266252e-02, -3.6032418320236459e-02,
          7.8206386598395974e-02, 5.0295545079281113e-02,
          -5.1189692807307077e-02, -2.0978603850614824e-02,
          -9.5839665995781836e-02, 4.5740007126888277e-02,
          4.7642779480470708e-02, -4.5830244344255448e-03,
          5.7527078959179544e-02, 6.3503926383251946e-02,
          -2.6938596000208141e-02, 4.4351923051743389e-02,
          1.1437484894281107e-01, 4.2145341179336088e-04,
          -5.0858307130592112e-02, 5.5809926801280066e-02,
          4.4616813915278476e-02, -4.9767512235647730e-02,
          -1.0046583337756054e-01, 6.2544160949928873e-02,
          1.1215338352634591e-01, 5.8022176171269188e-02,
          1.4261600259145298e-02, -2.9297370222794026e-02,
          -1.3407077915238921e-01, -4.7357259983034951e-02,
          -7.4655416826067814e-02, -5.8248034979284491e-02,
          -2.4763416229881133e-03, 4.5542493230377998e-02,
          -7.6147275230884617e-02, -7.0904562684622266e-03,
          4.5825458562147203e-02, 3.7111694538228261e-02,
          -6.0728539077902974e-02, -1.6347320272733126e-02,
          -6.6901007850924163e-02, 1.7243401059618427e-02,
          -3.9281190752547459e-03, 1.0191691754889888e-02,
          -3.3507833510454978e-03, 1.3913314831917859e-02,
          -9.8890612616724539e-04, 1.4857700561374022e-03,
          5.5636862338212086e-02, 3.0971790513157342e-02,
          -1.4198123692317575e-03, 5.0570181805822140e-03,
          1.1246039389865957e-02, 8.8347118159766286e-03,
          -7.8164054671690908e-02, 9.6091921354779977e-03,
          -9.6464889677233875e-03, 2.2035950777014547e-03,
          -4.5498315064342848e-02, -1.0670639477782805e-01,
          -7.2098043369977272e-02, 2.1720613828687042e-02,
          -4.2039908144346182e-02, -5.4920735053900119e-02,
          -2.3781488790847660e-01, 7.0395265271306240e-02,
          7.0788757705152763e-02, 7.3752138010613364e-03,
          8.6721825653555712e-02, -8.9655098648700748e-03,
          -2.7400494794794329e-02, 3.5825837333478362e-02,
          -6.0304525251576507e-02, 1.8489475632208657e-01,
          6.8720075546876272e-02, -5.3931645640564886e-02,
          7.5229977558800634e-02, -3.5062027296665537e-03,
          -6.5338570610692467e-02, 4.8622615567296884e-02,
          1.7895520846944771e-01, -8.9817092919568464e-02,
          -1.0659758758006326e-02, 7.6789133033524748e-02,
          9.3467798085454259e-02, -1.6094665303741409e-01,
          -1.6193028783845295e-01, 1.4454914019151763e-01,
          1.4356184576806783e-01, 3.8355419886130331e-02,
          3.0821727007482938e-02, 9.7011592344797865e-02,
          -1.5637013573718669e-01, -1.2499999901155977e-01,
          -1.4003311483016721e-02, -5.3728523134349296e-02,
          3.5350346978865093e-04, 1.5676539614487908e-03,
          -7.5281479320997893e-02, 5.5341479592063416e-03,
          6.3268509502486414e-02, 3.4489189259728922e-02,
          -4.2929694115316691e-02, -1.2535583097682089e-02,
          -7.2312308928519337e-02, -5.0135079087357023e-02,
          -6.4967235884056229e-02, 1.8824579223238477e-02,
          -4.5914909265841422e-02, 7.0755943566858256e-02,
          -3.9851990346278572e-02, 1.6178771667541687e-02,
          -1.0487958480639654e-01, 4.8290489959042483e-02,
          -2.8432331169490413e-02, -3.3538757246767914e-02,
          -3.6518400116705027e-02, 4.7191470716812518e-02,
          3.8442245978720091e-02, -3.2049638407807895e-03,
          -5.3333061912413819e-02, -1.0101426310874110e-02,
          -2.6344055047092071e-02, -1.8182136710423674e-01,
          -5.2939733521380587e-02, 4.5618197848292255e-02,
          -2.9337658025321098e-02, -6.0836712645740747e-02,
          -2.2844040185181780e-01, 1.6981193368369302e-02,
          -7.9319264858087019e-02, -2.7617441488975211e-02,
          3.1924165794333478e-02, 3.0398238281292941e-02,
          -3.1598332132254679e-02, -2.9829412086697555e-02,
          8.9500466666737073e-03, 5.8695524886257712e-02,
          -8.5318917028311403e-02, 2.2740432154748330e-02,
          -3.1075472369405249e-02, 7.3430996060138948e-02,
          -1.2119393092387373e-01, -1.0162104151402816e-02,
          -5.0754486212941069e-04, 3.2238242086381506e-02,
          -4.9834962309677551e-02, -6.0614480183473166e-02,
          -3.3779068027127185e-02, 3.9608288053673217e-02,
          -8.4781719368480692e-03, 5.9841249283438168e-02,
          -6.9066417007619202e-02, 5.4930291784027176e-02,
          5.0867980997460413e-03, -1.1984041730632783e-01,
          -1.1032895566081297e-02, 3.2840444644251551e-02,
          -1.3610025078943299e-02, -7.2683838458459063e-02,
          -1.2721945045613612e-02, 4.4515673788747413e-02,
          -7.0090393100271153e-02, 5.1705515182979167e-02,
          5.8939899142888816e-02, -2.0663524039601314e-02,
          7.9227470361157796e-03, 3.1331962057386323e-02,
          -4.6162971120402518e-02, 3.6765503654490946e-02,
          -1.1318892813576594e-02, 5.7035898384388141e-05,
          -3.1842163794460712e-02, 1.6036867009457265e-02,
          -4.7632795650607608e-02, 2.4230197591741585e-02,
          6.5686020627100938e-03, -1.1541063886113126e-02,
          -2.7821886047749714e-02, -2.5202857670859138e-02,
          -2.1997098527904609e-03, -9.4117014325929782e-02,
          -7.3151035150353830e-02, 1.8766363570932535e-02,
          -6.2188715458172901e-02, -3.8382679277479306e-02,
          -3.0093753409760331e-02, -1.5417569242002838e-01,
          -7.7321612679671498e-02, 3.6559657116638042e-02,
          5.5636892239106766e-03, -2.2160794843310107e-02,
          8.9958894855353036e-02, 3.7187540607782274e-02,
          -7.4323916829041756e-02, -6.3117260390497688e-03,
          3.8973073870840903e-02, 1.9364159115170625e-02,
          -2.4280325008015167e-02, -1.2167118829184323e-02,
          -4.1392396430215188e-02, 2.8764883526046958e-02,
          -1.6256705110000751e-02, -9.3770796409959663e-03,
          -2.7486380081231561e-02, 1.8382563063100186e-02,
          8.4126348328719350e-03, 9.5604468026587946e-05,
          3.2693273740504139e-02, 3.0055084847685480e-02,
          -1.7012233562119266e-02, -1.7116394120560959e-03,
          1.7086297193594450e-02, -1.4330967740586686e-02,
          -6.5575623657970150e-02, -2.1482354216297806e-03,
          -3.3701616745760894e-02, -1.4583104781083579e-02,
          -5.0333301258363820e-02, -1.2691049446848915e-01,
          -9.9700403266656717e-02, 3.8944371052828587e-02,
          -2.8860862523765789e-02, -2.7955710218209893e-02,
          1.0790815757384241e-01, 2.7179673154471316e-02,
          -1.1222732256057884e-01, 3.7253284689229192e-02,
          -9.3670738706347241e-03, -2.3970019808932132e-02,
          3.3661331371675554e-02, 2.6947625501458312e-02,
          2.2969214901078765e-02, 5.8021501063637716e-02,
          -3.6904481804668543e-02, 3.2433261110434881e-02,
          -3.1473937965182212e-02, -1.9182618496255185e-02,
          1.4121205622476716e-02, -9.1504767005869871e-03,
          4.1172072422054222e-02, -1.2284907612341727e-02,
          1.7711032170570233e-02, -5.1912406664412533e-02,
          3.4984541809036505e-02, -3.8173325236499675e-02,
          -1.0383245933685664e-01, 3.4012696223333944e-02,
          -8.0471133606146356e-02, -3.1802970779378492e-02,
          -4.4520178670257475e-02, -1.8758511066170577e-01,
          -1.0296309910368588e-01, 8.5800530206811665e-02,
          1.8119766687126022e-02, 2.6972623863839015e-02,
          -5.7802920673828639e-02, 6.7504140971265558e-02,
          -1.2754339956939315e-01, 4.6240350488824661e-02,
          -4.1807193841734966e-02, -6.4459090071865524e-02,
          3.5780802120240408e-02, 6.2670611656306580e-02,
          2.4456940973956693e-02, 1.1691433510182468e-01,
          -8.4650838032973436e-02, 6.7628282039752255e-02,
          -3.0161438600583228e-02, -2.9860576727580137e-03,
          1.5852107120305648e-02, -3.4542230149052659e-02,
          1.6039570210472057e-01, -2.7115123197630049e-02,
          5.7031032330725519e-03, -7.8697792170423109e-02,
          -7.3689473013274940e-03, -2.2016457678454084e-02,
          -2.0474536594245824e-01, 6.1022815348555158e-02,
          -6.7687264021863688e-02, 1.6130939042494904e-02,
          -9.8331573608878391e-03, -1.1617402513889223e-01,
          -6.0627334745373768e-02, 6.4595280530361815e-02,
          5.2235019559619178e-02, 4.0268415483290812e-02,
          2.5122236621283317e-01, 4.6899549036163231e-02,
          -2.1279761626956245e-01, 4.1421136966444755e-02,
          -1.2263422015889801e-01, -5.9546576264165270e-02,
          5.7503991358439914e-02, 4.7484394194769124e-02,
          8.3424605393126752e-02, -4.2629580519043260e-02,
          -8.6765753839955495e-02, 9.3531575246314447e-02,
          -1.1030410464038287e-01, -6.9298850824473165e-03,
          4.3509849411558846e-02, -5.1455972653648908e-02,
          -1.8004642931408573e-02, -5.0094699943902922e-03,
          2.2547110501596704e-02, -1.2728549053710761e-01,
          2.1117421651561996e-02, 2.8728231031475884e-02,
          -9.4882484102139317e-03, -2.1249385209082903e-02,
          -1.4047401739814541e-01, -3.0605242122154742e-02,
          -3.3178912255973955e-02, -3.4866798894444190e-01,
          -7.3645766965222084e-02, 1.8947038755358658e-01,
          3.8406528923364837e-03, 8.2586504517655826e-02,
          1.4576659019473767e-01, 7.0227390670182669e-03,
          -1.3513593457158707e-01, 9.6525472024105413e-02,
          1.3586525805392054e-03, -3.3220836608750602e-02,
          1.7369440883349602e-02, 1.7191221957464912e-02,
          1.7867923584597659e-02, 4.3258303828266842e-02,
          -6.7280937930748089e-02, 9.0119648919431222e-02,
          -5.2444440249902552e-02, -1.6452236472762428e-02,
          8.9688912928599304e-04, -5.2190844626354538e-02,
          8.3298801651612918e-04, -2.6669873400447859e-02,
          2.4479060446389141e-02, -7.3389501885550670e-02,
          3.6251733906575385e-02, -5.9133207114671991e-03,
          -2.7451535801449031e-02, 3.3035735631170522e-02,
          -1.2793552048104101e-01, 3.6682779901827294e-03,
          -5.4344577533288960e-02, -2.6768374539911860e-01,
          -2.2551228965737226e-02, 1.3865426236876841e-01,
          3.5548024951082627e-02, 5.6389498584504738e-03,
          1.0669884942775203e-01, 4.9394617401657695e-02,
          -1.0103076522206196e-01, 2.2247738018483381e-02,
          -5.0160042423517699e-03, -4.2857157736149662e-02,
          3.0590369068334834e-02, 4.7560825244562691e-02,
          3.6331189211337507e-03, 4.0177069094108321e-02,
          -8.9751103467190105e-02, 3.8907065444655997e-02,
          -3.5432195428814851e-02, -4.0733808978758924e-02,
          3.1399612737318512e-02, -3.0888786535785733e-02,
          2.4527790391139913e-02, -1.7032701370700100e-02,
          3.9754356722690683e-02, -7.2998930742248225e-02,
          5.4468478539893658e-02, -1.8543249857769950e-02,
          -9.7512991652871084e-02, 9.9440991341165942e-03,
          -8.7162885361513939e-02, 1.9673059901962791e-03,
          -5.2614207668993287e-02, -1.2562132851235730e-01,
          -5.9198305595557013e-02, 6.4128338263585230e-02,
          3.4718184961656413e-02, 8.1809215719682599e-03,
          1.1261853311601641e-01, 6.6484378989565855e-03,
          -9.6772697284695314e-02, 1.9350798576823364e-01,
          3.3485272002543279e-03, -5.4815371717141584e-02,
          2.6506836013421492e-02, 4.6713262045370747e-02,
          -1.9046906223516515e-04, 1.2554933750658817e-01,
          -3.4103664061656540e-02, 6.8734875871309872e-02,
          -2.1450777612506862e-02, -6.9448193003811470e-02,
          1.1116183531327740e-02, -4.5759097541246345e-02,
          4.8616619376289916e-02, -5.0695974457502437e-02,
          1.9374468918017231e-02, -7.6280107284064952e-02,
          4.8068188342433225e-02, -9.2478549424884482e-02,
          -1.9843079294759907e-02, 9.1348613196116230e-02,
          -9.3282855599805564e-02, 1.9793355606474487e-02,
          -5.5610804470295469e-02, -2.2036739388947399e-01,
          -1.8707273322925856e-02, 1.0475603579255591e-01,
          3.5817683915428195e-02, 2.9207562038461886e-02,
          1.8646802345397182e-01, 3.5774209753455612e-02,
          -9.1974848567240600e-02, 1.0222018827427461e-01,
          -6.0989398241566642e-02, -6.4213603569303085e-02,
          5.8551156085410450e-02, 6.0921689944438452e-02,
          1.3252346358179618e-05, 6.2854806411330594e-02,
          -6.0687934396549209e-02, 6.2718614153328828e-02,
          -2.5940009975013986e-02, -1.5387075213702198e-01,
          1.0362969511924357e-01, -9.9093273340529864e-02,
          9.3266009232594510e-02, -4.6447081770406767e-02,
          7.7168278257640679e-02, -3.6673605345882002e-02,
          1.0911089120386259e-01, -6.1086461948781576e-02,
          -1.6430252485641514e-01, -2.4120727473935732e-03,
          -9.2629691191089117e-02, 3.0322152087216468e-02,
          -7.1483368323531096e-02, -1.7570729026232104e-01,
          -6.0718113312694943e-02, 8.1802386318556020e-02,
          6.1712752536925132e-02, 8.5253095422148609e-02,
          1.4884143046707707e-01, 5.4635080774000130e-02,
          -1.2581985199807785e-01, 8.5774757454890257e-02,
          -7.8981845476047322e-02, -5.4670001513070998e-02,
          7.0622367897203109e-02, 5.1223568492625819e-02,
          5.4823854691696365e-02, 5.4453900187497503e-02,
          -5.6506979463696427e-02, 6.3007248256358658e-02,
          -3.4175556220565041e-02, -2.8338001259345009e-02,
          5.5469069529169952e-03, -4.2178359085121152e-02,
          6.6217178132809099e-02, -1.6293222603431461e-02,
          3.9158673705738410e-02, -6.1427590826176076e-02,
          2.0995899024870503e-02, -3.2365826071025894e-02,
          -9.0898008399279015e-02, 6.2163682247619020e-02,
          -7.7003718960413955e-02, -1.7288871296076546e-02,
          -5.6251297375429825e-02, -2.3974769100725690e-01,
          -5.3192206001544562e-02, 1.0981577998780201e-01,
          2.7232191121261313e-02, 7.7650596181173440e-02,
          1.8836226556413549e-01, 6.1070284211364588e-02,
          -1.7592742255878580e-01, 6.3663022658471236e-02,
          -1.8842835192462273e-01, -8.6074402284526008e-02,
          1.1719271332993161e-01, 7.8004331580337150e-02,
          2.7803940769326033e-02, 7.6347631991227294e-02,
          -7.1080508062971726e-02, 1.0748453782879445e-01,
          -8.4773186569996647e-02, -6.9387494198301411e-02,
          4.9923267963208340e-02, -6.0725134367912180e-02,
          8.4265838379479222e-02, -9.6377554692206879e-03,
          3.0366102705470195e-02, -8.7864542054025926e-02,
          3.9302112720278476e-02, -1.8006198871711829e-02,
          -1.1388234577639279e-01, 5.6160101255061150e-02,
          -1.6241168151348639e-01, -2.9158878981043967e-02,
          -4.9748937136144006e-02, -3.2750038683128208e-01,
          -8.3940883981349093e-02, 1.7739096474477420e-01,
          5.8161050729377994e-02, 1.4711615091878907e-01,
          6.3783700713250013e-02, 3.2918918209101110e-02,
          -6.4206899602542139e-02, -1.0436789915557694e-02,
          -7.1634304887819827e-02, -5.7795165756791368e-02,
          6.5134402729482163e-02, 4.0705357686589110e-02,
          3.2715493187932092e-02, 8.6856269073752143e-02,
          -3.9700926431875290e-02, 2.5543346693831286e-02,
          -1.2335757599495775e-02, -2.1993678636658829e-02,
          -2.4232180691890811e-02, -3.6533485902409235e-02,
          8.4649848661482896e-02, -2.4433626540439155e-02,
          2.8629278319369917e-02, -3.3107170559630424e-02,
          3.3021785352594382e-02, -1.2986401097658215e-02,
          -8.6075968799854061e-02, 4.3233177714668510e-02,
          -6.7822580865631713e-02, 2.9877350023785661e-03,
          -4.8508832643121683e-02, -1.2580502352268239e-01,
          -4.4746515458864024e-02, 6.8897911228467709e-02,
          5.5677189929044940e-02, 2.5129668429093050e-02,
          6.4844823837293203e-02, 6.1530269123547435e-02,
          -1.9928505076180564e-01, 2.1308103730051642e-01,
          -3.2445446924135996e-01, -2.0125343894044220e-01,
          2.4900337109802556e-01, 1.7820390427533406e-01,
          7.8283673735249318e-02, 6.3090729111537985e-02,
          -8.6087020477777901e-02, 1.9105404293167227e-01,
          -8.0701736472026886e-02, -1.9029439461436651e-01,
          1.4794610494326435e-01, -1.2314661901715152e-01,
          1.0068787735553451e-01, -8.2287442348532289e-02,
          1.2145753140227056e-01, -8.4157421308044170e-02,
          7.2752086877386560e-02, -1.5872757586253389e-01,
          -1.1130045758490222e-01, 4.4139905136635210e-03,
          -1.4622573704099207e-01, -2.6503958807899054e-02,
          -6.1660038147823816e-02, -3.6881255996670931e-01,
          -8.8603696259258680e-02, 2.2640823281873576e-01,
          1.4238675279173418e-01, 2.8053600802269407e-01,
          -2.7308351161330174e-01, 2.4339140536990922e-01,
          -1.0891360558292368e-01, 2.9056516558393353e-01,
          -3.7580576116292930e-01, -2.8028266443603217e-01,
          3.3635472647856640e-01, 2.8217966193565608e-01,
          2.4705964825034671e-01, 3.3475307739965221e-01,
          -5.1146834338602889e-03, 1.7776649099017058e-01,
          6.9493689256574911e-02, -1.8098857712264915e-01,
          5.9040123233749686e-02, -8.2954008378196248e-02,
          5.9618888183281959e-01, -2.7102027654198002e-01,
          1.2763877391353765e-01, 6.1363807741872424e-03,
          8.6946936469411776e-02, -3.3135807741815126e-01,
          -6.6117743330242329e-01, 2.3040591487134388e-01,
          9.7431094770576140e-02, 6.8439799681412894e-03,
          1.1898646316273190e-01, -9.2524880905863555e-02,
          -1.9689811096860921e-01, 9.1470683155090549e-02,
          2.1602537507783701e-01, 3.4938284672849790e-01,
          -1.1527019018328044e-01, 7.4367654222560850e-02,
          -1.2079270709093229e-01, 4.4893349942089336e-02,
          -2.2998510390344687e-01, -1.6717371953545351e-01,
          1.9437725184345522e-01, 1.5059213407551295e-01,
          8.9825295696990673e-02, 1.5773462643656624e-01,
          -4.4076818060614177e-02, 1.5242904335094179e-01,
          1.5436604585107669e-02, -1.0785718651992494e-01,
          6.1738762969247444e-03, -1.0587721998268132e-01,
          1.3004339415492494e-01, -1.4036837742529035e-01,
          1.2194334513874594e-01, 7.1856246455719920e-04,
          1.2670141369421212e-01, -1.2641253640278949e-01,
          -6.4749648113568981e-02, 8.3694684769821170e-02,
          -7.2717640400078942e-02, 4.8930603794265538e-03,
          -4.6328719847704217e-02, -1.5572465921801890e-01,
          -3.0803191704327618e-02, 1.5030805424822863e-01,
          1.8278935374096836e-01, 1.5039158379677611e-01,
          -1.4624625511433736e-01, 9.6901304230304769e-02,
          -3.3031783335840365e-01, 2.3266105386058036e-01,
          -4.9731160639213490e-01, -2.9035865260815180e-01,
          3.6799980882554012e-01, 2.3975584053705776e-01,
          1.8832170136882445e-01, 1.2696012281032076e-02,
          -1.2529524632513039e-01, 3.3590251838720675e-01,
          -1.1040416368966856e-01, -1.7112633157923759e-01,
          1.1696850221539386e-01, -1.7405433330302283e-01,
          8.6789787228481477e-02, -1.1401399523795337e-01,
          1.4525635220850641e-01, -1.3228371106666928e-01,
          -8.7914324696396744e-03, -1.6492068008532765e-01,
          2.0782924549238215e-02, -9.1978198107271741e-03,
          -2.1845869422002981e-01, -4.8047601418503387e-02,
          -5.1487702605063294e-02, -4.3639202723369902e-01,
          -4.4654954891051264e-02, 3.3905228230750606e-01,
          2.0753238606752522e-01, 4.1205160806798585e-01,
          -9.8093371775898774e-02, 1.1275997723532354e-01,
          -2.3783222569784730e-02, 2.3024261970005896e-01,
          -2.1473943017561126e-01, -2.0224837095172143e-01,
          2.2009803204557588e-01, 1.6086915006482150e-01,
          1.0182928774819799e-01, 2.0709715458607608e-01,
          7.2040948826934950e-03, 1.1447172796248756e-01,
          4.7965122470428091e-02, -2.2238687271510260e-01,
          7.3050327183309088e-02, -1.1790801364406536e-01,
          2.7751237244326127e-01, -1.7899812288625147e-01,
          1.2545097406206837e-01, 4.1218553386203456e-02,
          1.4402871617348484e-01, -2.6044907265071593e-01,
          -3.0110453690526279e-01, 1.2727783505685317e-01,
          4.2467816571389108e-02, 3.2435516727192228e-02,
          -5.7400815278980648e-03, -1.4136074064832144e-01,
          -1.4191808492903707e-01, 4.0249975299833048e-02,
          1.8199054518703639e-01, 2.0057921098638232e-01,
          -9.5437595746801149e-02, 1.2013056165594181e-01,
          -1.7865356198045201e-01, 1.4231166066005513e-01,
          -3.9263593525296581e-01, -2.4011685649790626e-01,
          2.9960957602606136e-01, 2.0558189849078110e-01,
          1.1867926943638982e-01, 7.4463932023354565e-02,
          -3.1632047572193067e-02, 2.0456475362682239e-01,
          -3.0457721241436284e-02, -1.5860068678256889e-01,
          9.2444082746150111e-02, -1.2464747595622860e-01,
          1.3830870188806924e-01, -1.2339609655986654e-01,
          1.4138676408783482e-01, -2.2978715246916651e-02,
          7.7936749142893932e-02, -1.5765340411954001e-01,
          -9.1243903942921950e-02, 5.6438163492146497e-02,
          -7.8394108409682750e-02, -3.0671606459984407e-03,
          -3.5700790854396022e-02, -3.0619358174884959e-01,
          -9.9109122081590201e-02, 2.3221479040845971e-01,
          1.9757106241185515e-01, 2.9520123439701135e-01,
          -2.9051039400053624e-01, 4.9593794290514755e-02,
          2.9111747099652741e-02, 1.2203749239633740e-01,
          -2.8560090786634895e-01, -1.9809142388800177e-01,
          2.7418669664118395e-01, 1.3192904738149214e-01,
          -2.3080194487538629e-02, 1.1528163504785606e-01,
          2.2674878070955144e-02, 1.4251857948199492e-01,
          8.0187828943746417e-02, -8.2703352491095020e-02,
          4.8908266817773362e-02, -1.1036300957946663e-01,
          6.1685551460901107e-02, -9.7100400343790971e-02,
          9.9296570734552642e-02, 1.4447975199066493e-01,
          9.4016836840210574e-02, -4.6481849246674194e-02,
          -2.6875239936938074e-02, 4.6550171530088481e-02,
          1.0361677989759849e-01, 8.9402940722898297e-02,
          5.1544765214005611e-02, -1.0399814403483949e-01,
          -1.3520913698423238e-02, 1.3513768975014617e-01,
          1.7645184162937427e-01, 1.4921152081999367e-01,
          -3.4643089790082815e-01, 8.7561192282619341e-02,
          -5.3425554935420373e-02, 1.1252095610504226e-01,
          -3.1169594120978655e-01, -2.1796196295299533e-01,
          3.0204008351817913e-01, 1.8823404087764761e-01,
          9.0710296188490969e-02, 1.0376254808204149e-01,
          -3.6011066189559952e-02, 1.7063220654021141e-01,
          2.7911976052088873e-02, -4.5324703888463491e-02,
          2.3116203336081779e-02, -8.5968506547994247e-02,
          1.2512611811541585e-01, -1.1764715027693896e-01,
          7.6092299245770170e-02, 1.7748721327193448e-02,
          3.0266932090016893e-02, -7.4664816616283103e-02,
          -7.5398777129588396e-02, 7.5213710125378294e-02,
          2.2638959448572669e-02, 5.7930570493957716e-02,
          1.9956244007428132e-02, -1.1006533057950257e-01,
          -2.3070001740056349e-02, 1.0330319832977407e-01,
          1.6173535061287203e-01, 2.4260777882399143e-01,
          -1.2907228718591268e-01, -1.1242986032394511e-02,
          -2.3669666829352132e-01, 4.2742905357881111e-01,
          -3.5689993318220764e-01, -1.8548587454253074e-01,
          2.1100820639199286e-01, 1.6957124191954981e-01,
          8.1104905337051836e-02, 6.5354565294033828e-02,
          4.1646682209732798e-02, 2.6483237495032746e-01,
          1.3564619946360010e-01, -3.6614639191574500e-01,
          1.6542731744675029e-01, -2.0753903185330924e-01,
          1.7074195823790259e-01, -1.4679163590868782e-01,
          1.6011353811385401e-01, 3.3692201208442359e-02,
          1.7308913129240905e-01, -2.8230027365341781e-01,
          -3.5250500498108112e-01, -3.8360173813069096e-02,
          -3.3821882214871722e-02, 9.3084074852273671e-02,
          1.9175188739494104e-02, -4.0274967098295122e-01,
          3.3772409786741633e-02, 2.8380351974231177e-01,
          1.5332134884831000e-01, 2.8284398746682810e-01,
          7.3432780031080030e-02, 3.0757873385530855e-02,
          -1.5744612431430427e-01, 3.4828108575154629e-02,
          -1.7503492530584061e-01, -9.1942776434742052e-02,
          1.3246135610650009e-01, 4.8740925785403032e-02,
          -1.4503427179627385e-04, -3.6661852599115259e-02,
          -1.3047944974322934e-01, 1.3584387831622563e-01,
          -6.8071609709186714e-02, -9.4695110828470624e-03,
          7.3469177747689615e-02, -8.7488430596507821e-02,
          -1.5946160604640969e-03, 2.3302983157866435e-02,
          4.4158639739475619e-02, -5.4986377553288487e-02,
          -1.5301395259506930e-02, 3.1796536592085367e-02,
          -2.3559092782685330e-02, -4.3064882205711384e-02,
          -1.6497175250928736e-01, 3.0492479096496045e-03,
          -5.1128254494945860e-02, -3.8754837924862773e-01,
          -4.4056644852092465e-02, 2.0569535219655258e-01,
          6.7497891464705820e-02, 1.1380816314641262e-01,
          7.1636341447071511e-02, 1.9700866750409173e-02,
          -7.7190401112761847e-02, -4.9639623265453355e-02,
          -4.4170251203777683e-02, -2.4403242582840084e-02,
          1.1552351897361028e-02, 1.4929891085281772e-02,
          -1.0509465481459401e-02, -6.7991264489734929e-03,
          -1.0637730266382135e-01, 1.1997883445091419e-02,
          -1.2362867886288879e-02, 4.1330668697768011e-02,
          1.9778833470283166e-02, -4.6740301179843881e-02,
          1.4715480589297510e-02, 2.0840773163572596e-02,
          3.0691053050061909e-02, -7.0181332241293817e-02,
          1.7052051264656812e-02, 6.9052991695141341e-02,
          -7.3124561509684868e-02, -2.8420573390123029e-02,
          -1.3607100286370855e-01, 1.8247741890377311e-02,
          -6.0578741364314397e-02, -2.1053576651314210e-01,
          -2.2168609797032210e-02, 4.6717251196453501e-02,
          7.1945377844047347e-03, -1.0434915830884232e-02,
          -1.7850253368332153e-01, 8.6884034205465352e-02,
          -2.2400531812439778e-01, 1.8030847870242664e-01,
          -4.2171799454133102e-01, -2.4378281287482145e-01,
          3.4824033703808271e-01, 2.2545223478262202e-01,
          1.4438952954057682e-01, -3.7742196330729323e-03,
          -8.8645190552350012e-02, 2.5884691149135680e-01,
          -4.5404349902933350e-02, -1.3784804554969027e-01,
          7.5763853619357127e-02, -1.4731585064324329e-01,
          5.8910425425047971e-02, -1.0219860227624276e-01,
          1.3965221391932953e-01, -5.1557706105076220e-02,
          3.4414678258618221e-02, -1.4031808924340386e-01,
          -2.3412981101524035e-02, 2.0362157260306896e-02,
          -1.4001181852231451e-01, -1.2255249449364840e-02,
          -1.9935056158283442e-02, -3.8911326330851526e-01,
          -7.7227151936738792e-02, 2.6242965551944242e-01,
          1.9379006683937380e-01, 3.3714301834407218e-01,
          -6.4965954534977896e-03, 8.3163304335116622e-02,
          1.5970189677806525e-02, 2.2795859942059807e-01,
          -1.4705090720679631e-01, -1.2967917664506942e-01,
          1.4187040335242204e-01, 9.3276083211196695e-02,
          -8.0377382069625053e-03, 1.2050430783308159e-01,
          9.2011297178402562e-02, 1.7035952694399524e-02,
          1.0873107554628426e-01, -1.9855906144289326e-01,
          6.5207179342505223e-02, -7.0664619702074646e-02,
          2.2325216088749206e-01, -1.5991165875562136e-01,
          1.1130574141598211e-01, 1.3266112176184219e-01,
          1.9662441879694623e-01, -2.6401424548983754e-01,
          -3.0289321363034322e-01, 6.4194052745081470e-02,
          1.4171291497000113e-01, 6.6978307886741292e-02,
          -1.0797565241178367e-03, -1.0568315712419507e-01,
          -1.4986449835737647e-01, -2.8219219791951116e-02,
          1.2416338466011617e-01, 1.3288489101100764e-01,
          1.8369717276503283e-02, 1.2554050950155115e-02,
          -1.2934116858504191e-01, 5.4045293466724771e-03,
          -1.6608394788067563e-01, -7.6263911699968712e-02,
          1.1196407259206401e-01, 3.4010689003693299e-02,
          -6.2779791923422160e-02, -6.4938014663307939e-02,
          -8.5437245597282566e-02, 9.3387644097755226e-02,
          -2.8326641183155254e-02, -1.7660865226420071e-02,
          6.7736125978805531e-02, -1.0162163908449680e-01,
          -5.0872690798991538e-02, 3.1066002998935430e-02,
          6.3424467116034097e-02, -3.0843894238657226e-02,
          -9.1481850064703881e-03, 7.8712061033270317e-02,
          3.5335781025126335e-02, -4.5877919287328150e-02,
          -1.4559083282118374e-01, 4.7986151332737217e-02,
          -3.4365306599666016e-02, -3.4697481786642514e-01,
          -2.2710705361696122e-02, 1.9331023483781268e-01,
          3.0476327415131659e-02, 8.8702940735155167e-02,
          -1.2344955155653649e-01, 5.5989045726122788e-03,
          -9.3211126637760225e-02, -3.2499524248929955e-02,
          -1.5662692795054531e-01, -9.9618893325663607e-02,
          1.4991107104117260e-01, 6.0013079557228587e-02,
          -1.0734395553957532e-01, -4.3006660146539713e-02,
          -4.6869027925993026e-02, 1.1075845590700310e-01,
          -1.0956540141952072e-02, -1.6482248383865809e-02,
          4.3848954108692988e-02, -1.0639386879934176e-01,
          -4.3911847659141912e-02, -5.7264570035555351e-03,
          5.6768593490539157e-02, 5.1483947655649662e-02,
          2.7161544457588054e-02, 5.6505470057635128e-02,
          7.7243498515712924e-02, -2.4456129821849231e-02,
          -8.2225334740550229e-02, 9.5861812601215318e-02,
          -7.2752843406006882e-03, -2.6042963153617965e-01,
          -5.6963223288501993e-02, 1.6981487164990741e-01,
          6.0645160286699300e-02, 8.2777514352909434e-02,
          -3.0330225065869165e-01, 7.8031565820416583e-04,
          -6.3033486804925043e-02, 1.4853909505691119e-02,
          -2.7693677116115245e-01, -1.7461348405516486e-01,
          2.2475166709692793e-01, 1.1127085340893118e-01,
          -7.6353213192384375e-02, 2.1433868606556220e-02,
          -1.3721931331694085e-02, 1.5762928202460877e-01,
          2.1775892595940097e-02, -8.3291855462638162e-02,
          7.4326491778652887e-02, -1.1917347703789359e-01,
          -1.1037348126519244e-03, -4.7399918669657828e-02,
          1.2015221773621004e-01, 6.7972306346210681e-02,
          6.6631912548404212e-02, 5.4127997872259991e-03,
          1.3108199688179845e-01, -1.6940393507604286e-02,
          -2.2026853920326640e-02, 9.7747112371042347e-02,
          1.5490827730186122e-02, -1.8110187762236296e-01,
          -7.8451179569466775e-02, 1.4821214308754707e-01,
          1.4721104526337789e-01, 1.5775114219705896e-01,
          -2.3085582643164620e-01, -3.2578933926556169e-02,
          -3.9183447840637486e-03, -2.1110824166521071e-02,
          -1.0143402162599434e-01, -6.8720910885621156e-02,
          9.6229078298859724e-02, 2.7022265816718127e-02,
          -1.1263758116770214e-01, -1.8843709898305153e-02,
          8.7719386802201885e-02, 9.2144073066224616e-02,
          1.0731528909278661e-01, -6.9945013900829259e-02,
          1.9678680194902251e-02, -7.8893200590678822e-02,
          2.7748425471068094e-02, -4.6136645837583076e-02,
          6.3703360032878881e-02, 1.3805656382545042e-01,
          1.4676764645609255e-01, -4.6819133964447486e-02,
          -1.2104485093354225e-02, -1.8128427937925542e-02,
          1.0466050419446425e-01, 1.0598853626886277e-01,
          -1.0341485073314144e-02, -6.3960833539939504e-02,
          -6.8830671917183825e-02, 3.5976899677278629e-02,
          6.6208441510166360e-02, 1.0320132074779406e-02,
          -4.1778780785365183e-01, 6.8676336291472852e-03,
          2.1460156323629437e-02, -2.8544287652771890e-02,
          -2.4557425358290835e-01, -1.5680877696340684e-01,
          2.1298038548959741e-01, 8.1494749173835312e-02,
          -8.4795187502321664e-02, 8.2066075665340771e-02,
          6.6667833101412111e-02, 1.0984600633977135e-01,
          8.8227437894017116e-02, -1.2641597811724922e-01,
          5.1394348809158712e-02, -1.3876631883786064e-01,
          7.1553359872749425e-02, -1.1714307401768226e-01,
          1.1811680795637494e-01, 1.3510419898968057e-01,
          1.6107958719966298e-01, -8.8592448642676125e-02,
          3.9605512882600169e-02, 1.8623129247976482e-02,
          8.6186160531093986e-02, 1.2325796652080563e-01,
          2.8324672228970643e-02, 2.8645533875733938e-02,
          -8.1427491543402980e-02, 5.4458821012062189e-02,
          1.4062139971027857e-01, 9.6304986722067012e-02,
          -3.0539876358632811e-01, 5.5285658201969748e-02,
          -5.2621781532223785e-02, 5.5625180269002407e-02,
          -2.6200641779274497e-01, -1.8276299172217778e-01,
          2.3792929550365596e-01, 1.1280818752629962e-01,
          -1.4954818232322900e-01, 1.2121394666793411e-02,
          3.8692079176915667e-02, 1.6114363077931004e-01,
          3.2509210037167183e-02, -1.0322377425004316e-01,
          9.1006287357569313e-02, -1.3686512578503365e-01,
          -1.3745810284977304e-03, -5.8081667617985611e-02,
          1.1483775217548298e-01, 1.4935645793211241e-01,
          7.8431516864049533e-02, -3.4442633129308418e-02,
          1.6250506427337916e-01, 4.4955386624531473e-03,
          6.1035634621017500e-02, 1.2495103060451711e-01,
          3.4545121323948290e-02, -2.1599964775134603e-01,
          -4.6539051489116218e-02, 2.1536606053721441e-01,
          1.2667622106916449e-01, 1.7709033896338275e-01,
          -3.1159619265972227e-01, 3.7190361894852739e-02,
          -4.7732568189714365e-02, 3.3257985774524129e-02,
          -2.6080299764926396e-01, -1.6391981322353244e-01,
          2.2309647753011344e-01, 9.3659841308997613e-02,
          -1.4047353169051108e-01, -1.4644617581622225e-03,
          5.3832417982918108e-02, 1.7306884290571109e-01,
          2.9979985410547139e-02, -7.5300646649792441e-02,
          8.8295939595339684e-02, -1.2603988865514260e-01,
          -6.9397610776940752e-03, -3.8067239419987221e-02,
          1.2372514700600364e-01, 1.7343305754390773e-01,
          8.0242597232230359e-02, -3.7993692365329818e-02,
          1.5967529803545796e-01, -1.4284981750122642e-02,
          7.7320528736023048e-02, 1.3662022975921254e-01,
          1.9260293000788922e-02, -2.1353634014512454e-01,
          -6.3152836150376632e-02, 2.0135144828469273e-01,
          1.2385168534985960e-01, 1.7041770235966550e-01,
          -3.5569331567406742e-01, 4.6024078636157928e-02,
          -3.4480391600456066e-02, 1.0415379233845284e-01,
          -3.3373927658598063e-01, -2.0558794106079895e-01,
          2.6879863646616542e-01, 1.4643012900354993e-01,
          -1.1893149324375132e-01, 1.4455792227624350e-02,
          6.1093961670061987e-02, 1.8474077366002764e-01,
