%YAML:1.0
mlp: !!opencv-ml-ann-mlp
   layer_sizes: !!opencv-matrix
      rows: 1
      cols: 3
      dt: i
      data: [ 130, 32, 3 ]
   activation_function: SIGMOID_SYM
   f_param1: 6.6666666666666663e-01
   f_param2: 1.7159000000000000e+00
   min_val: -9.4999999999999996e-01
   max_val: 9.4999999999999996e-01
   min_val1: -9.7999999999999998e-01
   max_val1: 9.7999999999999998e-01
   training_params:
      train_method: BACKPROP
      dw_scale: 6.9999999999999996e-01
      moment_scale: 1.0000000000000001e-01
      term_criteria: { epsilon:1.0000000000000000e-10, iterations:10000 }
   input_scale: [ 1.1438503810211731e-04, -2.7535528938862361e+00,
       8.9940568919429000e-03, -8.0047106338291807e-01,
       3.5098307642524185e-03, -8.8096752182735705e-01,
       1.2216018646412181e-03, -9.3533982769362600e-01,
       1.1823214877931065e-03, -9.6635076268956577e-01,
       8.6804879662585302e-04, -9.9304782333997588e-01,
       1.0571807689482948e-03, -9.1798530103676934e-01,
       1.9643027603791487e-04, -9.6277025962050000e-01,
       2.8485859997244041e-04, -1.0989844786936751e+00,
       4.5446484666221231e-05, -1.1218616228138931e+00,
       1.1689271917944572e-04, -1.2242564122060615e+00,
       3.2192454153392053e-04, -1.0261881302296274e+00,
       8.7559154638340705e-04, -1.2033546485795956e+00,
       2.0661245224409723e-03, -9.2355766153111463e-01,
       5.6964616895812791e-04, -8.4782338146601366e-01,
       1.6944555868630678e-02, -8.4157960814199029e-01,
       1.4991382431940564e-02, -7.8954614141553636e-01,
       1.4314759543122590e-03, -9.8103818735533488e-01,
       3.3145630368119412e-02, -9.3912619376338335e-01,
       3.3968311024337888e-01, -4.0761973229205468e+00,
       2.0901990428748529e-01, -1.6024859328707206e+00,
       6.8612454617832683e-04, -1.2860261077202439e+00,
       7.5761440841415811e-02, -1.1111677990074318e+00,
       1.4708710135363803e-01, -9.8058067569092022e-01,
       4.7202964556750781e-03, -8.4335963341394726e-01,
       3.8430031676389394e-03, -1.1234379260064500e+00,
       7.4397952596516423e-02, -7.4397952596516426e-01,
       2.6643782577247983e-02, -7.7266969474019154e-01,
       2.9907430227728959e-02, -8.3740804637641086e-01,
       8.8396788716929384e-03, -1.5145316466833902e+00,
       2.1486752129677003e-02, -1.0743376064838501e+00,
       6.1237243569579447e-01, -1.2247448713915889e+00,
       1.0867853340033272e-01, -4.1297842692126432e+00,
       7.0710678118654746e-01, -7.0710678118654746e-01,
       1.9456742242973633e-02, -9.0149572392444510e-01,
       2.6577432299594297e-03, -1.7576541894131696e+00,
       1.4610351107027283e-02, -9.7889352417082798e-01,
       1.7496355305594130e-01, -8.7481776527970645e-01,
       8.3141099321053999e-02, -7.4826989388948595e-01,
       7.6966607498942467e-03, -1.4059233636473489e+00,
       4.9820416604493975e-02, -9.6319472102021675e-01,
       1.2414088329035521e-01, -8.2760588860236806e-01,
       4.6897790352713395e-03, -1.4100602299382494e+00, 1., 0.,
       3.1389959190638132e-02, -1.2451350478953125e+00, 1., 0.,
       2.3048151303114283e-03, -1.1700778144881019e+00,
       1.1164843913471802e-01, -1.3769974159948557e+00,
       5.7291148628385323e-02, -1.3749875670812477e+00,
       3.6893420420119998e-03, -9.9243300930122791e-01,
       1.2838814775327387e-01, -7.7032888651964315e-01,
       7.6411857989218245e-03, -9.0675404813872318e-01,
       1.1415677183500962e-02, -8.7139669167390665e-01,
       3.3767661850664789e-04, -1.5683953340905439e+00,
       3.9263517975114216e-02, -7.4600684152717012e-01,
       2.8097574347450821e-01, -8.4292723042352469e-01,
       9.8438537911999294e-04, -8.1244606623370086e-01,
       4.2426406871192851e-01, -7.0710678118654757e-01,
       2.1213203435596426e-01, -7.0710678118654757e-01,
       7.0038884631887395e-04, -9.7610858881973739e-01,
       3.6428590014591485e-02, -8.1357184365920976e-01,
       3.0400801359471920e-03, -7.4481963330706202e-01,
       4.2426406871192851e-01, -7.0710678118654757e-01, 1., 0.,
       1.0531286666756402e-03, -1.6193608464582430e+00, 1., 0.,
       3.0304576336566320e-02, -7.0710678118654746e-01,
       1.2227087189088336e-01, -1.5080074199875615e+00,
       3.7483160373154095e-04, -1.0105460036602343e+00,
       1.3143995503889722e-02, -1.3450688732313816e+00, 1., 0.,
       1.8009292310636744e-03, -1.0007163427277150e+00,
       8.0178372573727308e-01, -1.0690449676496974e+00,
       4.1690166631690211e-04, -1.0849171029786850e+00,
       3.4498714946801852e-02, -4.3238389399991650e+00,
       2.2927686900152079e-03, -7.9024094182524174e-01,
       1.2107014684068924e-01, -7.6677759665769851e-01,
       1.7721788938348585e-03, -9.0026687806810812e-01,
       1.4914123694028297e-04, -1.3411774300583179e+00,
       3.0304576336566330e-01, -7.0710678118654779e-01,
       5.6553463581555836e-02, -7.3519502656022584e-01,
       2.4746786955692112e-04, -7.9156722542273827e-01,
       2.1213203435596424e+00, -7.0710678118654746e-01, 1., 0., 1., 0.,
       2.5855984417092316e-04, -1.2778027498927023e+00,
       1.7677669529663687e-01, -7.0710678118654746e-01, 1., 0.,
       9.2943867700848413e-03, -7.7143410191704187e-01,
       6.3663298734288728e-04, -8.0343083002672377e-01,
       1.0606601717798212e+00, -7.0710678118654746e-01,
       2.4828176658071041e-01, -8.2760588860236806e-01,
       2.6516504294495530e-01, -9.7227182413150270e-01,
       1.3028217831585020e-02, -1.2159669976146017e+00,
       3.8801034018222227e-02, -8.0188803637659278e-01, 1., 0.,
       7.4124931666110117e-02, -1.3342487699899821e+00, 1., 0.,
       1.5152288168283165e-01, -7.0710678118654779e-01,
       4.6226882147107351e-03, -1.3744792958406584e+00,
       1.9284730395996749e-01, -7.0710678118654746e-01,
       2.1213203435596424e+00, -7.0710678118654746e-01, 1., 0.,
       3.0304576336566330e-01, -7.0710678118654779e-01, 1., 0., 1., 0.,
       1.1068377658544159e-02, -2.3132909306357292e+00, 1., 0., 1., 0.,
       1., 0., 4.8782100036557793e-02, -1.0894669008164573e+00, 1., 0.,
       1.0606601717798212e+00, -7.0710678118654746e-01,
       2.6726124191242440e-01, -1.0690449676496976e+00, 1., 0.,
       1.0606601717798212e+00, -7.0710678118654746e-01,
       8.0178372573727308e-01, -1.0690449676496974e+00,
       1.5690226351929035e-03, -1.3739408208839190e+00,
       7.0710678118654746e-01, -7.0710678118654746e-01,
       2.1213203435596424e+00, -7.0710678118654746e-01,
       4.2199143459856481e-02, -1.4629036399416913e+00,
       8.0178372573727341e-01, -1.3363062095621223e+00,
       1.0606601717798213e-01, -7.0710678118654757e-01,
       2.0778294049267201e-02, -1.9462335426146946e+00,
       1.1933359262635949e-01, -1.0342244694284488e+00,
       3.6558191099961952e-02, -1.7304210453981992e+00,
       1.6222142113076254e-01, -1.2977713690461004e+00,
       8.0178372573727308e-01, -1.0690449676496974e+00,
       3.9939692218817692e-02, -1.3765880584752498e+01,
       3.2170772475275639e-02, -1.1152534458095555e+01 ]
   output_scale: [ 5.2631578947368418e-01, 4.9999999999999994e-01,
       5.2631578947368418e-01, 4.9999999999999994e-01,
       5.2631578947368418e-01, 4.9999999999999994e-01 ]
   inv_output_scale: [ 1.8999999999999999e+00, -9.4999999999999996e-01,
       1.8999999999999999e+00, -9.4999999999999996e-01,
       1.8999999999999999e+00, -9.4999999999999996e-01 ]
   weights:
      - [ -6.5140916232817094e+00, -5.8489133340631085e-02,
          9.9648259268998840e-02, -1.7161485853537228e-01,
          3.2918005654242244e-01, 2.3971553678370314e-01,
          -2.6607826521062283e-01, -2.0689624653089275e-01,
          -1.4265792345933861e-01, -1.2600781417174110e-02,
          3.1175282097363743e-01, -1.7357309525279274e-01,
          2.6133455638579162e-01, 1.7790760829907090e-01,
          -8.1640625512726855e-02, 8.9892573710967191e-02,
          -1.3737400519907184e-01, 1.3976894704899850e-01,
          -1.0562414128721316e-01, 7.5291791039930933e-01,
          -6.0404345907261292e-02, 2.0722896233047217e-01,
          1.6247874605431153e-01, 4.2270631607225989e-01,
          2.5402808382787384e-01, 2.4226760131716990e-01,
          3.7253803977832622e-01, 1.3859425648117710e-01,
          4.6851458408004552e-02, -9.9653588432636844e-02,
          -1.6554883363251285e-01, -2.6495796610862604e-01,
          -5.8688573627331682e+00, -9.3609598794411567e-02,
          1.2456971513294983e-01, -2.0876516878449367e-01,
          3.8670774975107802e-01, 2.8486422066313816e-01,
          -3.0576290333766631e-01, -2.3723416032920522e-01,
          -1.6993600783657054e-01, -2.8649103930560995e-02,
          3.1569166143877098e-01, -1.9268725220471397e-01,
          2.4226315578395810e-01, 2.0398492934118120e-01,
          -8.4914457123594383e-02, 1.2661756598114304e-01,
          -1.7922322101478916e-01, 1.6387229020144986e-01,
          -1.2892167469817539e-01, 6.6535838820792892e-01,
          -8.5182904600522816e-02, 2.5804682953908331e-01,
          2.1115544592902288e-01, 4.0581810119234746e-01,
          2.2705696182692181e-01, 2.0568405579731366e-01,
          3.6674451386599966e-01, 1.1354388598753684e-01,
          4.9994459573221905e-02, -1.3830657362318163e-01,
          -1.9288306727374613e-01, -3.3786857238422185e-01,
          -5.4904274198705707e+00, -8.7721208372242884e-02,
          1.3214696687462865e-01, -2.3565229016549025e-01,
          4.2577772370904104e-01, 3.0532161607834712e-01,
          -3.4378514494562817e-01, -2.6518646895876480e-01,
          -2.0606745588529257e-01, -2.8311733560716729e-02,
          3.2240169251059664e-01, -2.2030097455239467e-01,
          2.2312454047001587e-01, 2.3805538737705434e-01,
          -1.1531017185017389e-01, 1.5018458265758652e-01,
          -1.8454917807729534e-01, 1.8192378945961049e-01,
          -1.5288098799965019e-01, 6.2058779893839122e-01,
          -8.0664072115280289e-02, 2.9887633079674070e-01,
          2.3371801009556556e-01, 3.9617204449734933e-01,
          2.1775426353806301e-01, 1.8812575359605060e-01,
          3.6634455520364373e-01, 1.0313265613381765e-01,
          5.1666930493426987e-02, -1.3997369406850255e-01,
          -2.2013878807249354e-01, -3.8493251515851745e-01,
          -5.0420523232941656e+00, -1.2607525717924881e-01,
          1.4441667014340942e-01, -2.4984944060863093e-01,
          4.8822173626533738e-01, 3.5135692927358242e-01,
          -3.7477947876110668e-01, -2.9736543051891173e-01,
          -2.1139876635125943e-01, -6.3691549647476045e-02,
          3.0450785223079174e-01, -2.5071726380652776e-01,
          2.4629413543220330e-01, 2.4465961491725652e-01,
          -1.0860529256322936e-01, 1.4283169109304147e-01,
          -2.2151038257383665e-01, 1.9712595624363513e-01,
          -1.5875242720290164e-01, 5.3240600745516686e-01,
          -1.0403807344533281e-01, 3.3095481929407533e-01,
          2.4385542134011740e-01, 3.7744661410973895e-01,
          1.8428779244440063e-01, 1.6368390419001452e-01,
          3.6395676883569916e-01, 1.0759781983513816e-01,
          6.7006769889449078e-02, -1.5631644096262226e-01,
          -2.3948051283860727e-01, -4.0347224133704729e-01,
          -5.3162984801800768e+00, -9.9497976506435951e-02,
          1.4673568098307604e-01, -2.4505863758754501e-01,
          4.4326586308542415e-01, 3.1631731998431661e-01,
          -3.7416334171312787e-01, -2.7480478440836953e-01,
          -1.8803238760671842e-01, -5.9869435912418133e-02,
          3.2212491338845051e-01, -2.3478614520670416e-01,
          2.4841948971364897e-01, 2.4085558177114083e-01,
          -1.2874454784249476e-01, 1.4830198173752490e-01,
          -1.9927936530766593e-01, 2.0164654292039036e-01,
          -1.5901421708305988e-01, 6.0082566918994518e-01,
          -7.4762540470965991e-02, 3.1265656438973027e-01,
          2.2439840639481706e-01, 3.8361044789341903e-01,
          1.8807691862094586e-01, 1.7160217684580242e-01,
          3.5628083886860556e-01, 1.2699487760996581e-01,
          6.0388124353876992e-02, -1.3551266876573823e-01,
          -2.2057714178309717e-01, -3.9711918468857238e-01,
          -4.6844234434658931e+00, -1.3002486025682361e-01,
          1.5785003657291849e-01, -2.7325616461699698e-01,
          4.9764801459997826e-01, 3.7114604646240312e-01,
          -4.0154428464598435e-01, -3.0969961758774656e-01,
          -2.1644689509103140e-01, -6.0104566424165000e-02,
          2.9695621357871799e-01, -2.5094870768958039e-01,
          2.2247181227131727e-01, 2.5085035050672300e-01,
          -1.4577381539363266e-01, 1.6957598460376161e-01,
          -2.0791689250126441e-01, 2.0459874956976912e-01,
          -1.8717817621975349e-01, 5.1489336625622639e-01,
          -9.9887976106829743e-02, 3.3059055434385587e-01,
          2.6144372302162905e-01, 3.7187040221833406e-01,
          1.5168108329492011e-01, 1.6919183692430728e-01,
          3.2718257365496095e-01, 1.0403797285115271e-01,
          8.5108596468045875e-02, -1.7098894931972655e-01,
          -2.4161890645986867e-01, -4.3986986059686595e-01,
          -5.1270579658777011e+00, -1.1925596140557208e-01,
          1.4837882212133940e-01, -2.6529607393289961e-01,
          4.5548757784501659e-01, 3.4436841513768934e-01,
          -3.8544191909986525e-01, -2.8291405082096927e-01,
          -2.0393494029014381e-01, -4.9063555998052948e-02,
          2.9569475899705777e-01, -2.5617115778271565e-01,
          2.2583271528834281e-01, 2.4370113550568734e-01,
          -1.2267056202031884e-01, 1.5609810743359440e-01,
          -2.0207115379256990e-01, 1.7984901090215194e-01,
          -1.6925390123119172e-01, 5.7458915410467282e-01,
          -1.0323207453980172e-01, 3.3240333139027400e-01,
          2.4827688629487840e-01, 3.6872623331624071e-01,
          1.8491380260218485e-01, 1.7880773861432825e-01,
          3.5391437083242416e-01, 1.1418447838422886e-01,
          6.7280357627702458e-02, -1.3602115742280202e-01,
          -2.1175087354337552e-01, -3.9295006273704369e-01,
          -4.8640609750964732e+00, -1.0760521049552520e-01,
          1.3419551467955132e-01, -2.7680316536957905e-01,
          4.7379269238257743e-01, 3.5050238082815405e-01,
          -3.8897042509882429e-01, -3.0375708966325937e-01,
          -2.1883499594502345e-01, -6.1834548679070886e-02,
          3.1657270886727235e-01, -2.4405838483561984e-01,
          2.3928795930977287e-01, 2.7043452597990703e-01,
          -1.2418298063424954e-01, 1.6744912101744661e-01,
          -2.1025211099222524e-01, 2.1045761006291702e-01,
          -1.6006119352112461e-01, 5.2069131611709574e-01,
          -8.5181345895243704e-02, 3.3307833969926948e-01,
          2.4987707032956769e-01, 3.6958704468576847e-01,
          1.8090857431114102e-01, 1.7329523989491874e-01,
          3.5475362619354456e-01, 1.0812066693185267e-01,
          6.9302577516455161e-02, -1.5207683236368455e-01,
          -2.2401652942389763e-01, -4.2024784838161655e-01,
          -3.8947567387311866e+00, -1.2389416439577999e-01,
          1.5732098339801057e-01, -3.1434171195250976e-01,
          5.6108180568002741e-01, 4.0397426829525052e-01,
          -4.4455833168953257e-01, -3.5014798472603420e-01,
          -2.5531999882545015e-01, -6.7996120058396767e-02,
          2.8049479547415085e-01, -2.9894658119627782e-01,
          2.0910651612183556e-01, 2.9183964978339400e-01,
          -1.5435893027759293e-01, 1.7348915386875996e-01,
          -2.4090573305556112e-01, 2.3129228002875751e-01,
          -1.9529880720191850e-01, 3.9047002684897564e-01,
          -1.2431067276572499e-01, 3.9388689216546624e-01,
          3.0703946689532119e-01, 3.3268461965603652e-01,
          1.1455527058996345e-01, 1.2492877038129192e-01,
          3.2350686710454096e-01, 8.1907926772144035e-02,
          1.0017009812091845e-01, -1.6952242017176677e-01,
          -2.6590264636453059e-01, -4.8702219410072695e-01,
          6.0099947466690526e+00, -1.8328350341835384e-01,
          1.7622511932981219e-01, -3.0353438406367073e-01,
          5.7654841960153913e-01, 4.0964313493091514e-01,
          -4.5319511922980765e-01, -3.5150715846322045e-01,
          -2.5260455971214102e-01, -1.4792857143775887e-01,
          -7.8520284850080127e-02, -2.8619308377308567e-01,
          -6.7907727870966744e-02, 2.8924179859045390e-01,
          -1.7816149034182027e-01, 1.8904096997738054e-01,
          -2.5526952247974738e-01, 2.3587656948903230e-01,
          -1.9147844633542377e-01, -8.2513333964622659e-01,
          -1.4287000718647877e-01, 3.9182260882054998e-01,
          2.9959626352190555e-01, -1.7904074274777823e-01,
          -3.5574888081383754e-01, -2.4856578671949289e-01,
          -1.6120686818261026e-01, -1.7033987280568383e-01,
          1.5682702233264167e-01, -1.8612189283614461e-01,
          -2.6692306547726879e-01, -4.9629496601714479e-01,
          5.2491152988383991e+00, -1.7129926453093403e-01,
          1.8975100712032750e-01, -3.5114093476688180e-01,
          6.0886975485098715e-01, 4.5088525644945943e-01,
          -5.1350116441381455e-01, -3.9955813460980166e-01,
          -2.7191560623868100e-01, -1.7269568508016425e-01,
          -3.0997989198416988e-02, -3.1394510090285233e-01,
          -5.3301806648922347e-02, 3.3858682081223168e-01,
          -1.8976120529150164e-01, 1.9535617956859830e-01,
          -2.6941013401002889e-01, 2.5839152812385630e-01,
          -2.1693582305730680e-01, -7.5864026192408540e-01,
          -1.5164357079478097e-01, 4.3151201622512081e-01,
          3.3621535564780664e-01, -1.4150474090464174e-01,
          -3.0321722816085334e-01, -2.1700614639414392e-01,
          -1.0505448618878718e-01, -1.7122520185479001e-01,
          1.6965019641792203e-01, -1.8205289064815436e-01,
          -2.8641401925371202e-01, -5.5154828256386212e-01,
          6.5331622693658264e+00, -1.7289461584690405e-01,
          1.7191284747205901e-01, -2.9421704065816234e-01,
          5.1100307226808706e-01, 3.5740154581012595e-01,
          -4.3093896198120035e-01, -3.3600108204132773e-01,
          -2.3033823083772906e-01, -1.5611562263760290e-01,
          -1.2025187083459886e-01, -2.6917700455418536e-01,
          -9.3702838295435881e-02, 2.6405121362792539e-01,
          -1.3491706855263760e-01, 1.5967471742995917e-01,
          -2.1364273015692073e-01, 2.0911335658855504e-01,
          -1.8215119057176393e-01, -9.0901240264421046e-01,
          -1.2364662205317575e-01, 3.4519676194963750e-01,
          2.8307021058530085e-01, -2.3155110172285803e-01,
          -3.6248580766213456e-01, -2.6289423615060331e-01,
          -1.7820281797774987e-01, -1.8870861497955135e-01,
          1.4489395624661031e-01, -1.6423608956846733e-01,
          -2.5893488490913791e-01, -4.4811120946559779e-01,
          -2.9781234068606524e+00, -1.4718195322137434e-01,
          1.9129590506115610e-01, -3.2950468581374132e-01,
          6.0879128164289065e-01, 4.4070333850745830e-01,
          -4.8418491248998163e-01, -3.7669779644376733e-01,
          -2.7868921966633398e-01, -1.0856628306345578e-01,
          2.6408304483175982e-01, -3.2826379468774936e-01,
          1.8738720223918026e-01, 3.1771191460653675e-01,
          -1.6250596921357796e-01, 1.9842406829595341e-01,
          -2.6652826990572942e-01, 2.5796324484193778e-01,
          -2.0540508998051937e-01, 2.8022631883867105e-01,
          -1.2601042126078640e-01, 4.0304620017150516e-01,
          3.0737580664773034e-01, 2.8748714778158663e-01,
          7.6042921941909591e-02, 9.7665713956934311e-02,
          2.8530774004347675e-01, 4.3564856783083014e-02,
          1.2231044900609024e-01, -1.8757819428409392e-01,
          -2.8750151562198206e-01, -5.3094853222165872e-01,
          -5.2791895823669366e+00, -9.1156672421475154e-02,
          1.3145586459615943e-01, -2.3118390042009762e-01,
          4.5752895559144008e-01, 3.2931122039000371e-01,
          -3.6052929994119792e-01, -2.8730085452039134e-01,
          -2.1730810713671742e-01, -4.3631943044103387e-02,
          2.9974548151250524e-01, -2.3753473590019081e-01,
          2.2584239902970718e-01, 2.4905423053859696e-01,
          -1.0392010307561528e-01, 1.4908026486335199e-01,
          -1.8330239744036492e-01, 2.0097216377786772e-01,
          -1.6853565879111884e-01, 5.6821415376860807e-01,
          -1.0326058061134860e-01, 3.1205482969021325e-01,
          2.3546217014854648e-01, 3.9047501754669928e-01,
          1.8906124367064919e-01, 1.9024860711662442e-01,
          3.7156926246477068e-01, 1.0822383413354160e-01,
          5.6595415395238061e-02, -1.4568294348688879e-01,
          -2.2476807817344707e-01, -4.0636827249256585e-01,
          -6.0355170655015487e+00, -7.3889066538545628e-02,
          1.2383909241906435e-01, -2.1220231937070522e-01,
          3.6316782972989509e-01, 2.5909202048326163e-01,
          -3.1041054216320391e-01, -2.3656757735548845e-01,
          -1.7377240431544042e-01, -1.2354797561641095e-02,
          3.1872363214812377e-01, -1.9098085195639034e-01,
          2.4026826906215817e-01, 1.8926111124706102e-01,
          -9.1166688148660566e-02, 1.3335155145132485e-01,
          -1.7096554817227491e-01, 1.6996605630606051e-01,
          -1.1179329297183289e-01, 6.9654747127289618e-01,
          -7.3575778979271422e-02, 2.5222802707416569e-01,
          2.0687616830776151e-01, 4.0426653099770943e-01,
          2.2561456306968244e-01, 2.1705673286228358e-01,
          3.8840591139470293e-01, 1.2250559028796533e-01,
          3.7636195095794502e-02, -1.2994548873526510e-01,
          -1.7835088204842023e-01, -3.3785221582772235e-01,
          -5.8713585210151047e+00, -7.3284198247086055e-02,
          1.2922539907294750e-01, -2.1424615909159694e-01,
          3.9560263745919805e-01, 2.8750568362219553e-01,
          -3.0618026075294569e-01, -2.5853812495238782e-01,
          -1.6836950720633165e-01, -2.0616561036893036e-02,
          3.2347459551706520e-01, -1.9726856592059255e-01,
          2.4198007990431711e-01, 1.9781772390378302e-01,
          -9.9086923088382892e-02, 1.1966498258214893e-01,
          -1.7369843037959257e-01, 1.5766047146859780e-01,
          -1.4968473304337579e-01, 6.6404932464696309e-01,
          -8.2050036654290448e-02, 2.5650331765773882e-01,
          2.0921060979087638e-01, 3.8163391890091453e-01,
          2.2911393526893259e-01, 2.0356066039643977e-01,
          3.7944574819955457e-01, 1.1594186527214272e-01,
          6.5845910889455891e-02, -1.1300383729835255e-01,
          -1.7932942301408372e-01, -3.4259877540903400e-01,
          -6.1475248290911146e+00, -6.9501055574652096e-02,
          9.6988056421517060e-02, -1.9180178172166429e-01,
          3.7579452077783232e-01, 2.7176194307878015e-01,
          -2.8338460280576189e-01, -2.1776046738596566e-01,
          -1.7037215080169782e-01, -2.2051334608362158e-02,
          3.3278379049098039e-01, -2.0033439667687136e-01,
          2.3928952120123373e-01, 1.8746520326549562e-01,
          -8.0671018401811040e-02, 1.0493572513159616e-01,
          -1.4978809406528845e-01, 1.5488862755938629e-01,
          -1.1435962491278008e-01, 7.1284548760711075e-01,
          -5.9779379709279858e-02, 2.3699285949146087e-01,
          1.8348289906258491e-01, 3.9988712741866317e-01,
          2.4547131679801754e-01, 2.3122368616988140e-01,
          3.6974588807095127e-01, 1.2516051540649167e-01,
          3.9220707240562459e-02, -1.0159010502389136e-01,
          -1.7296512273733064e-01, -3.1443524188570843e-01,
          -5.4558342067188779e+00, -1.0300114797179666e-01,
          1.3521126224281724e-01, -2.3802398713848627e-01,
          4.4770228180849375e-01, 3.0248924056719001e-01,
          -3.6107232777355014e-01, -2.6258479154360670e-01,
          -1.8392199833353087e-01, -4.6839981862726920e-02,
          3.2011483163678706e-01, -2.3600798182573152e-01,
          2.4869930895710496e-01, 2.4147298418766780e-01,
          -1.0346827269946954e-01, 1.4848654732525851e-01,
          -1.9324426379077361e-01, 1.6774287996411133e-01,
          -1.4022323758982841e-01, 6.1435229020809690e-01,
          -8.4555804344355778e-02, 2.9343214138904583e-01,
          2.2400670916459983e-01, 3.8477124696837767e-01,
          2.0768230785219211e-01, 1.8833272615257038e-01,
          3.6746857830086532e-01, 1.0581811615268291e-01,
          6.6378180205191747e-02, -1.3879556135643953e-01,
          -2.1914582233945934e-01, -3.6816846593521108e-01,
          -6.1755570202206407e+00, -7.5934710173638259e-02,
          1.0080492827853718e-01, -2.0069786289163638e-01,
          3.4938409900286510e-01, 2.5384333940843840e-01,
          -3.0466621224088430e-01, -2.4036896959602441e-01,
          -1.7062894414894425e-01, -2.3274344433265877e-02,
          3.3927827103787483e-01, -1.7804730776517794e-01,
          2.4312700859540631e-01, 2.0182904113553166e-01,
          -9.6192715087781613e-02, 1.2020689784008157e-01,
          -1.4014158057334974e-01, 1.6365726408478179e-01,
          -1.2422145458188276e-01, 7.2157577884205137e-01,
          -7.5718929302099683e-02, 2.5817371004080775e-01,
          1.9930663107914420e-01, 4.1712481671106560e-01,
          2.3860909727084220e-01, 2.0571631043157318e-01,
          3.8080977844817060e-01, 1.2948809350750767e-01,
          4.7276170451425556e-02, -1.1060984169400370e-01,
          -1.8089224089918460e-01, -3.1770883522626103e-01,
          -6.5806835149702323e+00, 1.4557212996916882e-01,
          -1.7520385800314994e-01, 2.9584151885478560e-01,
          -5.0930939791896446e-01, -3.6157516200448891e-01,
          4.2841387270863079e-01, 3.4173183128932610e-01,
          2.4181625677722721e-01, 1.5023237032352268e-01,
          1.2246355290969160e-01, 2.8260917660657364e-01,
          1.1121288608805807e-01, -2.8267200472499893e-01,
          1.6173522184946199e-01, -1.5728402325856730e-01,
          2.4353309284414112e-01, -2.3187210736696232e-01,
          1.7252619858659171e-01, 8.8512330799666616e-01,
          1.4356110526790120e-01, -3.4721765720024905e-01,
          -2.8592359037634302e-01, 2.3966186006114421e-01,
          3.6437170175809969e-01, 2.4153400922116738e-01,
          2.0397895918994460e-01, 2.0117795198327754e-01,
          -1.5288705549376247e-01, 1.7200718663543316e-01,
          2.4260729327300282e-01, 4.6509179239090009e-01,
          -7.0335975790334890e+00, 1.4112465003178831e-01,
          -1.5098609356685005e-01, 2.6264182664313879e-01,
          -4.4927473445318628e-01, -3.2258991535034032e-01,
          3.6823816666945042e-01, 2.8325723946736658e-01,
          2.1038012865400835e-01, 1.5070087070494340e-01,
          1.6374875906558897e-01, 2.5345568693386566e-01,
          1.4091289535882370e-01, -2.2870211892535816e-01,
          1.4253855002270044e-01, -1.4962726295999723e-01,
          1.9625640285299090e-01, -1.7901399268742121e-01,
          1.4545337510486944e-01, 9.5119895642192265e-01,
          1.1133278513197273e-01, -3.2828741213309043e-01,
          -2.3372379469605983e-01, 2.7388503605819209e-01,
          3.8960000051091981e-01, 2.6517024090602970e-01,
          2.1472240838565734e-01, 2.0779192423432466e-01,
          -1.4740486999695301e-01, 1.4325607151363717e-01,
          2.1895359094078362e-01, 3.9752562423252308e-01,
          -6.8839640958431056e+00, -4.3625582695274168e-02,
          8.9763800788903267e-02, -1.5278625798787263e-01,
          2.6292994464553410e-01, 1.7627037097798867e-01,
          -2.2557110458225627e-01, -1.7862610104154356e-01,
          -1.1152139368880670e-01, 5.1107701451907021e-03,
          3.3289188121406077e-01, -1.3280835535881891e-01,
          2.5296781025661103e-01, 1.5072453956885945e-01,
          -6.5282899267121580e-02, 8.8553352346690373e-02,
          -1.1442634176992755e-01, 9.9911330821494032e-02,
          -9.3745222542591600e-02, 7.9962557191083716e-01,
          -2.9983574936302711e-02, 1.6605013679350422e-01,
          1.2963976126782470e-01, 4.1474914048793182e-01,
          3.0631234851592981e-01, 2.5641301456501897e-01,
          4.0427148459463819e-01, 1.4767257523188176e-01,
          4.3403169047625005e-03, -8.5831457580750697e-02,
          -1.1711909194486821e-01, -2.1420802940853520e-01,
          -7.6670765310620910e+00, -1.1940634784437716e-02,
          2.4042016584018874e-02, -6.6165877563992379e-02,
          1.1417620599054906e-01, 8.2876621752089707e-02,
          -9.0488718934060727e-02, -7.0330037219841476e-02,
          -4.8736277711969402e-02, 3.9339599073520103e-02,
          3.0896137213361913e-01, -4.8927340045949744e-02,
          2.3259038504931337e-01, 3.8938196874681190e-02,
          -2.6786351170951204e-03, 1.6071893754775930e-02,
          -5.6996054256996512e-02, 3.2617950630113871e-02,
          -3.7503440003062598e-02, 9.3025223730147377e-01,
          -7.2805648572571791e-03, 8.2595897141738719e-02,
          5.2693122314556258e-02, 4.1965482635473100e-01,
          3.4703580921891014e-01, 2.8165895973186228e-01,
          3.8642840838766029e-01, 1.8061875493719992e-01,
          -8.1685286812953409e-03, -2.2667977984476007e-02,
          -5.8629218940183629e-02, -1.0125546635123713e-01,
          -7.2469562253088400e+00, -3.4917003311716058e-02,
          4.9254751827715174e-02, -9.4313323773883115e-02,
          2.0768778356813733e-01, 1.3867480886213426e-01,
          -1.6019932541597565e-01, -1.1417283966554315e-01,
          -9.5790231409169188e-02, 2.8456254494329754e-02,
          3.1837118672587661e-01, -1.1971263837723073e-01,
          2.5871003454828939e-01, 9.6364774407207712e-02,
          -3.2405072302371135e-02, 5.9323386978217603e-02,
          -9.4520887382873953e-02, 8.5166380655965143e-02,
          -6.5832674139269798e-02, 8.5511870173698512e-01,
          -1.6419162864207248e-02, 1.3780390622981678e-01,
          9.2487205535370501e-02, 4.1377424582658184e-01,
          3.1097159709071748e-01, 2.5382489996938945e-01,
          4.0537636288519313e-01, 1.8283989688632801e-01,
          -6.0522051901178370e-03, -6.6436149705282985e-02,
          -8.8206903550461208e-02, -1.5818751227688349e-01,
          -6.3815782611788796e+00, -7.1038198737294833e-02,
          1.0712687255973356e-01, -1.9266998223426526e-01,
          3.3428520035359710e-01, 2.3268023385946865e-01,
          -2.7160156564693877e-01, -2.0297386696546740e-01,
          -1.5660898453051977e-01, -1.3259655013349860e-02,
          3.2379143949089578e-01, -1.8711119072560384e-01,
          2.4245286554339701e-01, 1.6340784371658665e-01,
          -7.3056376034637563e-02, 1.1666296714111210e-01,
          -1.4885299538178526e-01, 1.4815128921503073e-01,
          -1.1891966870490989e-01, 7.2727508491953607e-01,
          -5.0714226116149536e-02, 2.1376333405340203e-01,
          1.6552544358612042e-01, 4.2010423577867229e-01,
          2.5463816783382531e-01, 2.3898039795586870e-01,
          3.8785020870979342e-01, 1.4144777840967512e-01,
          4.9749784022733778e-02, -8.9683671982229388e-02,
          -1.5183759863492749e-01, -2.7952128270294424e-01,
          -6.3899237312957116e+00, -6.2695533602659573e-02,
          1.0644355681127327e-01, -1.9750636900553276e-01,
          3.4094980502721017e-01, 2.3962805390073494e-01,
          -2.7364249723144329e-01, -2.2527675615411111e-01,
          -1.3876569301986924e-01, -1.2816180223548834e-02,
          3.3137500809055598e-01, -1.8412266979485767e-01,
          2.5802608781481051e-01, 1.7036518475958040e-01,
          -8.0025023967886202e-02, 1.0342784456930913e-01,
          -1.3103836048400383e-01, 1.3933298821411760e-01,
          -9.5903467214269317e-02, 7.2806399787610965e-01,
          -5.3785461616875030e-02, 2.1491061301249725e-01,
          1.7831820796881601e-01, 3.9737577798901597e-01,
          2.4886312528408666e-01, 2.2122501960902749e-01,
          3.8477070646944961e-01, 1.5551984510918374e-01,
          3.6656999107768894e-02, -9.0706742866485890e-02,
          -1.4935757055279056e-01, -2.8828763523702633e-01,
          -6.3221022603104071e+00, -8.2291305293093461e-02,
          1.0157766586047974e-01, -1.8178638372840319e-01,
          3.2705739985689425e-01, 2.5539375992223240e-01,
          -2.7368507454192625e-01, -2.1296685314309538e-01,
          -1.4702579918247832e-01, -2.6466869580863261e-03,
          3.2958116785579766e-01, -1.8586517411237155e-01,
          2.5249103212667612e-01, 1.7277665780692930e-01,
          -9.8622349172827362e-02, 1.0516964375815702e-01,
          -1.5143770575926349e-01, 1.4302009225181950e-01,
          -1.0120847540939944e-01, 7.3140729320770081e-01,
          -6.7749048454201766e-02, 2.3149705121781519e-01,
          1.6670198444289858e-01, 4.1280653049786709e-01,
          2.6973576765575541e-01, 2.3669508527664571e-01,
          3.7591488603535511e-01, 1.5506367108173294e-01,
          2.9314400873965338e-02, -1.1916434345746968e-01,
          -1.5523506293093836e-01, -2.9754868885519609e-01,
          -6.4437583657895479e+00, -5.7383790254310507e-02,
          8.0708233726076981e-02, -1.9188927749403553e-01,
          3.3764129219977856e-01, 2.4261473231804151e-01,
          -2.5762587238053003e-01, -2.1142152472424530e-01,
          -1.4002512975815665e-01, -6.4790340514534308e-03,
          3.1040741513346487e-01, -1.7522607373766258e-01,
          2.5086472867580700e-01, 1.8332512746702345e-01,
          -8.4088618356859254e-02, 9.7472280929633365e-02,
          -1.4678397229888951e-01, 1.3976392754972117e-01,
          -1.0090268580979707e-01, 7.4656867467668686e-01,
          -6.7523655188180792e-02, 2.2545781604262904e-01,
          1.6729236597127251e-01, 4.0827210007370973e-01,
          2.7873454657163188e-01, 2.2916290263703093e-01,
          3.8350612643806448e-01, 1.5779072096012647e-01,
          3.9926989655365092e-02, -1.0326324816682775e-01,
          -1.5888809830459555e-01, -2.7348014496239825e-01,
          -6.7081830025426132e+00, -6.1138020345770178e-02,
          7.2471119618612009e-02, -1.6466351906213203e-01,
          2.8741639591255902e-01, 2.0082405126267028e-01,
          -2.3992763078862281e-01, -1.8729502760916075e-01,
          -1.1671239500322543e-01, -1.7951038151522718e-03,
          3.3915293448974060e-01, -1.5701399020828294e-01,
          2.4547751750143199e-01, 1.6081353245637026e-01,
          -7.9847966135000850e-02, 1.0234895039799928e-01,
          -1.1281591738494634e-01, 1.2028382054745843e-01,
          -1.0470233003598967e-01, 7.6988258514856367e-01,
          -5.8459065333441002e-02, 1.9265053086033554e-01,
          1.6286905920045550e-01, 4.2256618173207600e-01,
          2.7613999624340352e-01, 2.3900145924456079e-01,
          3.9712502429867108e-01, 1.5181017334523270e-01,
          2.0380349316005488e-02, -8.3507462278768388e-02,
          -1.5173773801347989e-01, -2.3701068564578651e-01,
          -8.0732016487452398e+00, 4.0994614647325366e-02,
          -3.5945759520363288e-02, 4.9656378695545643e-02,
          -8.1766394965475275e-02, -5.6750475394738743e-02,
          8.2622308111190063e-02, 7.0244287579780532e-02,
          3.5559273974734962e-02, 8.8475353166033388e-02,
          2.8206122304201148e-01, 5.3683931891671074e-02,
          2.2431504103509914e-01, -5.0707455558934279e-02,
          2.9160390195643739e-02, -2.7491089588816620e-02,
          5.6371312892787628e-02, -5.3986598436988872e-02,
          4.6035544145800952e-02, 1.0110918445263277e+00,
          3.5074124043193648e-02, -5.9086960626303732e-02,
          -4.0591157872979518e-02, 4.0939342776277193e-01,
          3.7376306471660076e-01, 2.9532797218499662e-01,
          3.7852843429376037e-01, 2.0669713915502283e-01,
          -8.1351298594195084e-02, 3.4968189996304432e-02,
          3.5508844348875183e-02, 8.9609914908979169e-02,
          -7.4206630693176132e+00, -2.7739975692010924e-02,
          3.3177929115389457e-02, -9.2408449393899791e-02,
          1.5291869011269596e-01, 1.1116176436413293e-01,
          -1.2019605675057869e-01, -9.0645459646939749e-02,
          -6.1677625195756848e-02, 3.8781786700586129e-02,
          3.1732915350095908e-01, -8.1488193925818173e-02,
          2.4880304646770696e-01, 7.5659248134168189e-02,
          -3.4970040570176407e-02, 4.6955427004311802e-02,
          -7.2349864294175739e-02, 7.2739156750210060e-02,
          -4.9016172524165999e-02, 9.0754000504579280e-01,
          -2.5680062064656051e-02, 1.1151488305775178e-01,
          9.3603402798332028e-02, 4.2064134677133108e-01,
          3.4003428602570807e-01, 2.8012748464186965e-01,
          3.8248997947523450e-01, 1.8191094370579186e-01,
          -1.5040586791791731e-03, -4.7121396011230103e-02,
          -6.8837519102546998e-02, -1.5585503114900445e-01,
          -5.2467440687776916e+00, 1.9414322283154642e-01,
          -1.8500902714646250e-01, 3.2265600852825410e-01,
          -6.1008128404347628e-01, -4.5729279545534524e-01,
          5.1552113605028038e-01, 4.0702120133601583e-01,
          2.9450901547399433e-01, 1.5162915999467250e-01,
          5.5127307325670213e-02, 3.2215523303038135e-01,
          5.0766789280200827e-02, -3.1210678821059934e-01,
          1.6189105521645009e-01, -2.0290338344717909e-01,
          2.6863605634554427e-01, -2.5140711661625770e-01,
          2.2223785422930858e-01, 7.5177018751775537e-01,
          1.6771806345159695e-01, -4.2485947200317131e-01,
          -3.1525846636755450e-01, 1.4569617363594253e-01,
          3.1942616584380745e-01, 1.9717757442886072e-01,
          9.1501284290878268e-02, 1.5116175649909819e-01,
          -1.7341471505039843e-01, 2.0846353526622988e-01,
          2.8687952057799332e-01, 5.3832569446256628e-01,
          -6.4118871885812654e+00, -6.8754517271117171e-02,
          9.9253429881158386e-02, -1.7631786589539983e-01,
          3.3457638264684375e-01, 2.3472903866957129e-01,
          -2.6033802894630126e-01, -2.0698192051391853e-01,
          -1.3715308922240452e-01, -2.2259979483937577e-02,
          3.3610759955527247e-01, -1.8643065335746201e-01,
          2.5977673129327195e-01, 1.6587805230577243e-01,
          -8.5249109156926364e-02, 1.0437533065960981e-01,
          -1.5034810388200776e-01, 1.2473496116556010e-01,
          -1.1685767367692675e-01, 7.2758652889479958e-01,
          -7.0765857168119228e-02, 2.1567157746018636e-01,
          1.7967751462375775e-01, 4.0740379723895948e-01,
          2.5270955376444665e-01, 2.1776130295596488e-01,
          3.6990063921213606e-01, 1.3952172966323156e-01,
          4.0357596032636500e-02, -9.5748039778992294e-02,
          -1.6210969183815327e-01, -2.7365957812416325e-01,
          -6.1674011483077358e+00, -8.5977474650951444e-02,
          1.0890370044875974e-01, -1.8845024876532654e-01,
          3.4678223860156648e-01, 2.5259715042783726e-01,
          -2.9117884764745811e-01, -2.1742489020541331e-01,
          -1.5025322567788105e-01, -1.7318142194761833e-02,
          3.1176042222883815e-01, -1.9134873766572355e-01,
          2.5072654132180228e-01, 1.8520532409741536e-01,
          -9.5201715780132548e-02, 1.0944399390438518e-01,
          -1.5789307076522163e-01, 1.6175864828059139e-01,
          -1.1215634505495391e-01, 7.0803419409164414e-01,
          -7.3877645041867362e-02, 2.5796711817194151e-01,
          1.9500077163453014e-01, 4.0924987095190907e-01,
          2.6059541267042963e-01, 2.1741277720380647e-01,
          3.8989949021588394e-01, 1.2376398686817441e-01,
          3.9518679783998006e-02, -1.0661980256023142e-01,
          -1.6401116507516261e-01, -3.1316001198874360e-01,
          -6.9641477811703565e+00, -5.3270208590126100e-02,
          8.5976601515681275e-02, -1.4812633201999806e-01,
          2.3881202710633737e-01, 1.8085778290690357e-01,
          -2.0952818825724989e-01, -1.6713891835664418e-01,
          -9.6487300165233034e-02, -5.9957649179552064e-03,
          3.1335840459018682e-01, -1.2116125935146474e-01,
          2.3946775290794689e-01, 1.3184751500423544e-01,
          -5.2904854069382473e-02, 6.4892600571464440e-02,
          -9.3602044385252881e-02, 1.0211282776071523e-01,
          -9.7572050748319789e-02, 8.3379991108173568e-01,
          -5.2531034424307552e-02, 1.8495226726881220e-01,
          1.2140819541599564e-01, 4.2856255407811800e-01,
          2.8520127460473865e-01, 2.4451610248364677e-01,
          4.0607044335813997e-01, 1.5303969485374236e-01,
          1.4752335979012429e-02, -6.5057654560091910e-02,
          -1.1732681296339853e-01, -2.0543020698920500e-01,
          -7.0522371896110192e+00, 1.6175678208285485e-01,
          -1.3889357444175571e-01, 2.5762441069676739e-01,
          -4.5164591007856081e-01, -3.3564670192830282e-01,
          3.8199768992644556e-01, 3.0631057519525878e-01,
          2.0880336759132961e-01, 1.3736142638475785e-01,
          1.6009179393265979e-01, 2.3981498841533971e-01,
          1.2740036064430540e-01, -2.3886448530416735e-01,
          1.1897537725651529e-01, -1.5409914877216857e-01,
          1.9150026859868130e-01, -1.9548794494256741e-01,
          1.6011745765721308e-01, 9.5084972920191213e-01,
          1.3338525150551869e-01, -3.0086118563122094e-01,
          -2.4032510636766094e-01, 2.5053149024315902e-01,
          3.7456250712779920e-01, 2.8541460332722146e-01,
          2.3914250953455746e-01, 1.8440475167271750e-01,
          -1.3698434362109058e-01, 1.4315467321146258e-01,
          2.2200432670390347e-01, 3.9938701474713212e-01,
          -7.2594513317196085e+00, -3.1649982364378298e-02,
          5.4773443562740713e-02, -1.0339745062606384e-01,
          1.9881243935201742e-01, 1.3514139457246002e-01,
          -1.7393526728775585e-01, -1.4030265804275902e-01,
          -9.9580720590824415e-02, 5.6022165113011040e-03,
          3.1912581326543704e-01, -1.1063183836982114e-01,
          2.4560199199581093e-01, 9.3840681561743203e-02,
          -4.0461912196137810e-02, 6.9195595201974908e-02,
          -8.8968546237793752e-02, 8.3795654066539660e-02,
          -7.6073776507795968e-02, 8.6378928743311845e-01,
          -3.6689303574136946e-02, 1.3517952811428052e-01,
          9.1952588119058376e-02, 4.2618588807534874e-01,
          3.3177623318344540e-01, 2.6807981978597129e-01,
          3.8932623255173116e-01, 1.8125208370577409e-01,
          -1.0901613453649699e-02, -7.2120940413939752e-02,
          -8.9718230208610375e-02, -1.8669569618664453e-01,
          -6.8685839395590964e+00, -6.0590795271269232e-02,
          8.0274912232109641e-02, -1.5548561462249333e-01,
          2.7022853278506553e-01, 1.8632105636786497e-01,
          -2.2899311293007463e-01, -1.5941217810873626e-01,
          -1.2622889658772618e-01, 1.4857287529146126e-02,
          3.4238612142684621e-01, -1.3133602803233349e-01,
          2.6283949272890972e-01, 1.2852032237685648e-01,
          -6.6558356955681131e-02, 7.6100662669948957e-02,
          -1.0438079272438076e-01, 1.0850178565468306e-01,
          -7.8767963152931733e-02, 7.9557954966138111e-01,
          -3.1059802515135435e-02, 1.7126678665394487e-01,
          1.4180897278548701e-01, 4.1422915680867411e-01,
          2.8508164092447658e-01, 2.5212963112665426e-01,
          4.0027112250174918e-01, 1.6335808697464554e-01,
          6.9532085968719648e-03, -9.1159039710692308e-02,
          -1.1559146717829526e-01, -2.4540413548035542e-01,
          -6.3562516966423237e+00, -6.6791544170816008e-02,
          9.4578278592521034e-02, -1.7049665849723644e-01,
          3.4442367085118358e-01, 2.3228800774615810e-01,
          -2.8556550491958282e-01, -2.2437730419453258e-01,
          -1.5477143631035620e-01, -2.5626555620353080e-02,
          3.3691512116517308e-01, -1.8206501891874455e-01,
          2.3824327050272950e-01, 1.6657705767333053e-01,
          -8.0970235616732375e-02, 1.2272882892919101e-01,
          -1.4673826500417200e-01, 1.3725651060619640e-01,
          -1.0094718704802860e-01, 7.2348549165515319e-01,
          -6.5897416143414669e-02, 2.4257357733100379e-01,
          1.7545576074789962e-01, 4.0203504616923547e-01,
          2.5344117100336189e-01, 2.1118654153455682e-01,
          3.9006271137365434e-01, 1.3224092817712163e-01,
          5.1763975192229944e-02, -1.0868189233126485e-01,
          -1.5334082563395646e-01, -3.0030738380618227e-01,
          -7.9992849755208306e+00, 8.6500118146850768e-02,
          -8.6060930025624940e-02, 1.4469652306266167e-01,
          -2.4161996096932153e-01, -1.5894293794258427e-01,
          2.0504462347640226e-01, 1.4150751123708344e-01,
          9.9951658698897092e-02, 1.0030070872697544e-01,
          2.5298751567298189e-01, 1.2974584269440506e-01,
          1.9889012105843148e-01, -1.3072417856180346e-01,
          9.2917907693643706e-02, -6.5177798709533288e-02,
          1.1890117520616726e-01, -1.1541442726741061e-01,
          7.4259492312781450e-02, 1.0223568628510546e+00,
          8.6998180920524984e-02, -1.5101431757659123e-01,
          -1.3622722900248840e-01, 3.5222324641668945e-01,
          3.9292371618737776e-01, 2.9176885176544992e-01,
          3.3510957078976772e-01, 2.0252035015400610e-01,
          -1.1425269303795614e-01, 7.1787779924815567e-02,
          1.1726978235566152e-01, 1.9425574334809514e-01,
          -7.2006662030981099e+00, -3.4825669661862936e-02,
          6.9318154576009344e-02, -1.0426189339434910e-01,
          2.0161863932672605e-01, 1.4285751796590559e-01,
          -1.6359435502452110e-01, -1.2242243134584702e-01,
          -9.2771282670197547e-02, 2.2088107155026581e-02,
          3.2862599370235740e-01, -1.0689906564708808e-01,
          2.6432812219068424e-01, 1.2488364222718802e-01,
          -4.9787536340992616e-02, 5.5365641952744619e-02,
          -1.0574198784038664e-01, 7.7470704955931446e-02,
          -7.2138682838858548e-02, 8.6683448667379304e-01,
          -1.8437472342513424e-02, 1.4326472836321255e-01,
          1.1840109515725585e-01, 4.2059145013206756e-01,
          3.2070552208351694e-01, 2.6433653418108427e-01,
          3.8447806543849333e-01, 1.6741872180160886e-01,
          2.9710412453871175e-03, -7.8617626252834985e-02,
          -1.1020729588725776e-01, -1.7179791165108779e-01,
          -6.6698519333449111e+00, -5.0315257142657908e-02,
          9.8664738524185128e-02, -1.5717648921238983e-01,
          2.8627937160890637e-01, 2.0469130408323982e-01,
          -2.3756727385637796e-01, -1.9125709021758464e-01,
          -1.3210157698576774e-01, -1.9817579315518238e-02,
          3.3405044001010603e-01, -1.4984782837492489e-01,
          2.3810851155512683e-01, 1.6327049281279671e-01,
          -5.6637480101912475e-02, 9.7956989717462584e-02,
          -1.1445288658943067e-01, 1.1187502095672178e-01,
          -1.0026693924660945e-01, 7.7667009149959065e-01,
          -5.5169928221397269e-02, 2.0961295582877154e-01,
          1.4699453785677652e-01, 4.0109947566514825e-01,
          2.7439277211116486e-01, 2.4685463312322939e-01,
          3.9421829903073680e-01, 1.6364803092687880e-01,
          1.8143033870583608e-02, -7.8305686477593284e-02,
          -1.4615825885877515e-01, -2.7107210773308643e-01,
          -7.3784261624546978e+00, 1.2716674035924061e-01,
          -1.1947966238987663e-01, 2.0677384286664555e-01,
          -4.0799239224775796e-01, -2.8475691069604742e-01,
          3.2903616748884024e-01, 2.6630507452240387e-01,
          1.8694443738017433e-01, 1.3693351339879617e-01,
          1.8833247997102581e-01, 2.2155155219688266e-01,
          1.4532810428352216e-01, -2.0652189727155043e-01,
          1.0550507829916395e-01, -1.2426436634162230e-01,
          1.6763925538424995e-01, -1.8445612207376269e-01,
          1.5366554152500794e-01, 9.9409592339655939e-01,
          1.1479991579011886e-01, -2.6629873776064150e-01,
          -2.2288747710792001e-01, 2.8230137963189056e-01,
          4.0002745510950299e-01, 2.8090129665311347e-01,
          2.5454460459815448e-01, 2.0491397589171773e-01,
          -1.4036417652097982e-01, 1.1335004772424255e-01,
          1.8626263512272720e-01, 3.6618715603447421e-01,
          -1.1598943053556167e-02, -2.9377493219316054e-03,
          -4.0726658722125509e-03, -6.3447054274034806e-03,
          7.1186551892084299e-03, -8.3639004354582411e-03,
          -6.0374746354075366e-03, 1.1025801202590153e-02,
          -1.1390356927534350e-02, -2.5192946375501396e-04,
          -1.3327443978849893e-02, -1.5057330489316251e-02,
          6.3371978077332355e-03, 6.4982960030292546e-03,
          1.7023320910997243e-03, -5.6239093387740972e-03,
          -5.3535452625813650e-03, -1.0401560383731656e-02,
          2.2996274147095625e-03, -3.4682019053115954e-03,
          2.7278341173976352e-03, 6.1231359136942054e-03,
          -6.3350355294241366e-03, 7.1516451148626375e-03,
          -1.4380800082147680e-02, 1.0626016442756943e-02,
          -2.1371777881226402e-03, 1.5888525988047575e-02,
          5.0451092920223602e-03, -2.3726729166831640e-03,
          -9.1826814107336483e-03, 6.2678540908330214e-03,
          -8.0218041260530288e+00, 1.7728465385964110e-02,
          -3.0233926635129145e-03, -1.6687438755185937e-03,
          -1.1740948202520722e-02, -5.7167202130705392e-05,
          2.1336952677541668e-02, 2.5113398576785469e-02,
          2.5083701213563813e-03, 5.9318818330370227e-02,
          3.0774490480042588e-01, 1.6936861568759936e-02,
          2.3323767251974298e-01, -1.0523469727296056e-02,
          1.8491891554393715e-02, -2.1433435017440258e-02,
          1.6555147052610308e-02, -5.4965151642748580e-03,
          2.0687047307852920e-02, 9.9605935769272647e-01,
          1.5421947768509109e-02, -1.3725103027040542e-02,
          -5.3708791581163111e-03, 4.2400917741143979e-01,
          3.8982581639462183e-01, 2.8456959816213290e-01,
          3.9145972851800193e-01, 2.0311840034877807e-01,
          -6.4515015714256496e-02, 9.8433875518604969e-03,
          2.2320100723259857e-02, 2.6458598537476358e-02,
          -6.4400614813536977e-03, -1.3283828739324151e-03,
          -1.1537978942288276e-02, -6.7293955817032663e-03,
          -7.3739139716619117e-03, -8.9267807916912720e-03,
          4.8915198396715298e-05, 4.6639147309523480e-03,
          1.0703982315809112e-02, 8.0601852650021184e-03,
          -8.0152215104957059e-03, 1.1920108428010421e-02,
          6.4573783213316507e-04, 1.3108622717758315e-02,
          1.1570498753988202e-04, -7.3791606303760249e-03,
          -8.1873536751387067e-03, 1.5453973621815305e-02,
          9.7267862870826175e-03, -4.1687716213804791e-03,
          8.7940053187559025e-03, 1.9560214259247821e-03,
          7.8373575996095266e-03, -1.3216511099899981e-03,
          7.0785100932712220e-03, -2.6676372660322189e-03,
          -1.0334397688662320e-02, -3.3535706846451563e-03,
          -9.4345881034846816e-03, -1.9234184011848007e-03,
          7.7188035868466813e-03, 2.9164059688853564e-03,
          -4.3887613103714420e+00, 1.8249967666159744e-01,
          -1.9912599244909862e-01, 3.4568755101880438e-01,
          -6.5210571635950587e-01, -4.8636824800351469e-01,
          5.3456129684931042e-01, 4.1647075694029118e-01,
          3.0731091912916947e-01, 1.4611457796361513e-01,
          1.5721747479704666e-02, 3.5199770687307469e-01,
          2.4797981028684052e-02, -3.3755340014759599e-01,
          2.0247261975928238e-01, -1.9644706083648855e-01,
          2.9648149329829254e-01, -2.8898498974751874e-01,
          2.3658938718159167e-01, 6.4478874698991651e-01,
          1.5745655809574222e-01, -4.5364030044717052e-01,
          -3.5111467903683607e-01, 8.9790070802931887e-02,
          2.7061518856389949e-01, 1.7742087824205746e-01,
          5.7469881951571586e-02, 1.5367526554245928e-01,
          -1.5808825568224463e-01, 2.1451997035170745e-01,
          3.1575497533865199e-01, 5.7783460125991681e-01,
          -6.7907115747123976e+00, 1.6397378063761422e-01,
          -1.4749845556812424e-01, 2.5603763246687594e-01,
          -4.9648076007461300e-01, -3.3653753891055915e-01,
          3.9291893455741700e-01, 3.0713539727660599e-01,
          2.2228069104478118e-01, 1.6159314950031603e-01,
          1.4279230068633536e-01, 2.5772412443845399e-01,
          1.2245447823230619e-01, -2.5220689778034588e-01,
          1.2648037975191215e-01, -1.5721315719812759e-01,
          2.0702498231580194e-01, -1.9823331925451815e-01,
          1.7337418929802226e-01, 9.2436868030169039e-01,
          1.2643697276773350e-01, -3.4779314507768982e-01,
          -2.6673342242639680e-01, 2.3263211940685119e-01,
          3.8391859618048829e-01, 2.5534152921927683e-01,
          1.9412019898114868e-01, 2.0172554453706190e-01,
          -1.5201960592329661e-01, 1.5898527754415204e-01,
          2.2437362462676877e-01, 4.1824549760302110e-01,
          -6.7762965871441647e+00, 1.6752992119974588e-01,
          -1.3994636201469496e-01, 2.7443450419207610e-01,
          -4.8723051435804887e-01, -3.5149974751581325e-01,
          3.9383593167923375e-01, 3.0856179989738608e-01,
          2.1508055365930967e-01, 1.5602961415056074e-01,
          1.3889607795698519e-01, 2.6043537944892609e-01,
          1.0381358381270854e-01, -2.5125417507766173e-01,
          1.3450167745038541e-01, -1.4404468241499874e-01,
          2.0269319141358202e-01, -2.0307539736312402e-01,
          1.8185105496738108e-01, 9.1874325767011655e-01,
          1.3066893386188211e-01, -3.3725670008888137e-01,
          -2.6317770597571954e-01, 2.4641140918090121e-01,
          3.8107531344156642e-01, 2.7324758514599512e-01,
          2.0635755776457188e-01, 1.8902781926746726e-01,
          -1.3556687574037149e-01, 1.6530421045444046e-01,
          2.3134443863350407e-01, 4.3038369074023286e-01,
          -3.4052350414782797e+00, 2.0030726415427080e-01,
          -2.1007371360748930e-01, 3.6564187414349891e-01,
          -6.8648740740960956e-01, -5.1172281849969481e-01,
          5.7110463492332364e-01, 4.4038713539768554e-01,
          3.0714108020854569e-01, 1.7483111749253696e-01,
          -5.0614075209195163e-02, 3.7563709200094358e-01,
          -5.4212757661795214e-03, -3.5582317518985074e-01,
          2.0234185168077537e-01, -2.0910288644540015e-01,
          3.0181794461276723e-01, -2.9703771718134020e-01,
          2.3271139097197682e-01, 5.3405319960596420e-01,
          1.6302187541696722e-01, -4.7243993708473364e-01,
          -3.6250983221806632e-01, 3.1036546036283672e-02,
          2.4812015188197933e-01, 1.4588470866952161e-01,
          -1.4330041503291393e-02, 1.1226566127009457e-01,
          -1.6471445654696146e-01, 2.1092761788367376e-01,
          3.2579678326464023e-01, 6.0382990096452938e-01,
          -1.8656897613346874e+00, 1.8715369910767862e-01,
          -2.0630156076070819e-01, 4.0633053097124938e-01,
          -7.0319069034365123e-01, -5.1870660247048761e-01,
          5.9090664459034770e-01, 4.6305065067136630e-01,
          3.0884483841838212e-01, 1.5185366633085279e-01,
          -1.0554362207582837e-01, 3.9302828919068700e-01,
          -6.7090673942882470e-02, -3.7664691019944913e-01,
          1.9452364414290316e-01, -2.2113610408111706e-01,
          3.1153115576554125e-01, -2.8634270424307817e-01,
          2.5325339625582716e-01, 3.3559825622560885e-01,
          1.7093808730174070e-01, -4.8924834081095731e-01,
          -3.7847240819501110e-01, -7.1390350764264462e-02,
          1.8407121958264838e-01, 7.8542210362185963e-02,
          -7.0251938252230459e-02, 8.8887653375884071e-02,
          -1.8268107129598296e-01, 2.3488426459385972e-01,
          3.5333884688126194e-01, 6.2029228311844353e-01,
          -2.7992581764110072e+00, 2.0245001420742917e-01,
          -2.2821757680002927e-01, 3.8850381983323284e-01,
          -7.0515971010458678e-01, -5.0325731670048113e-01,
          5.6379678456236482e-01, 4.5260225881590460e-01,
          3.1805645966429680e-01, 1.7305933895804473e-01,
          -6.1957673525973568e-02, 3.7099356882463674e-01,
          -5.0576319158626259e-02, -3.7432452456822279e-01,
          1.9861218549440188e-01, -2.3915386746473380e-01,
          2.9987938620155208e-01, -3.0678600607487072e-01,
          2.5112067350649092e-01, 4.5616128257755545e-01,
          1.6281455734474612e-01, -4.8329628687939807e-01,
          -3.6421723010835977e-01, -2.7348113143697714e-02,
          2.1433117485852707e-01, 1.1198610323897820e-01,
          -2.3978157470288627e-02, 1.1541286767960660e-01,
          -1.6455805780480443e-01, 2.0723859447338255e-01,
          3.3107068568222581e-01, 6.1498368788792301e-01,
          -2.5494982827018573e+00, 2.1028941843224280e-01,
          -2.2741668899778117e-01, 3.8446095489131998e-01,
          -7.2166490185082544e-01, -5.1577594953195727e-01,
          5.7250839737809178e-01, 4.6406899924073858e-01,
          3.1431413226819255e-01, 1.6026052843651295e-01,
          -7.4019319912962567e-02, 3.6541013648034393e-01,
          -4.5086338052916994e-02, -3.7189323018332832e-01,
          1.8686004064005776e-01, -2.3700626495934227e-01,
          3.0880920178274424e-01, -2.9626543966513974e-01,
          2.5338159027337409e-01, 4.3926932494130622e-01,
          1.6685018580285091e-01, -4.9395910896391004e-01,
          -3.7819051548000754e-01, -1.3389035607604736e-02,
          2.0350359756826500e-01, 1.0017613471785856e-01,
          -3.9003813979798581e-02, 9.5483254352186187e-02,
          -1.7899569532272841e-01, 2.1294749206316316e-01,
          3.4227699791533095e-01, 6.1244380955845490e-01,
          -7.4743229305802936e+00, 1.2680833448407949e-01,
          -1.1234556113040586e-01, 2.0375986920518085e-01,
          -3.9224138059081098e-01, -2.9380324552289860e-01,
          3.0586523111480235e-01, 2.5303577707189079e-01,
          1.7603987244224803e-01, 1.2954594259068491e-01,
          1.8211786135099425e-01, 2.1017066579106719e-01,
          1.6256031562188800e-01, -1.9492010263347917e-01,
          1.0516530402197502e-01, -1.3007524311112911e-01,
          1.8350752009933255e-01, -1.7465387832528831e-01,
          1.4707435346027650e-01, 9.7708875513540105e-01,
          1.0807391847323763e-01, -2.7334859492966057e-01,
          -2.0064144725330266e-01, 3.0082468080295277e-01,
          3.8101865169157212e-01, 2.8033258011830103e-01,
          2.6183084036147430e-01, 2.1076715033557505e-01,
          -1.2846613264084566e-01, 1.1408768140867925e-01,
          1.9874241207469084e-01, 3.2980579623412176e-01,
          -1.6951405002643571e+00, 2.0423836388834402e-01,
          -2.2362214461781504e-01, 3.9476821858851563e-01,
          -7.1567391269841774e-01, -5.1904691242647349e-01,
          5.8830730377841467e-01, 4.6079429384514936e-01,
          3.1169681916648517e-01, 1.4464480786707154e-01,
          -1.0307769101082859e-01, 3.6670575029962066e-01,
          -8.0777572091633165e-02, -3.6744247609056729e-01,
          1.9639394921012293e-01, -2.4389737671578726e-01,
          2.9870640108912444e-01, -3.1477641305318005e-01,
          2.5033043353816825e-01, 3.2845741729473205e-01,
          1.7018343747172571e-01, -4.8395268570603267e-01,
          -3.8919784528915680e-01, -6.7863616472430527e-02,
          1.5711043738612948e-01, 7.2271658457713314e-02,
          -8.9003044012203075e-02, 7.8056035926865039e-02,
          -1.5306349071889794e-01, 2.1221721876435093e-01,
          3.5280536637700399e-01, 6.1501501963011429e-01,
          -2.3421987523430650e+00, 2.0434223087221351e-01,
          -2.2012272716933814e-01, 3.8137325269701983e-01,
          -7.1019444796502329e-01, -4.9903846267679830e-01,
          5.8965558464987999e-01, 4.4541560174065215e-01,
          3.0788818777564125e-01, 1.5448024650109385e-01,
          -7.4600532922080590e-02, 3.8159398934809791e-01,
          -4.4278708149834020e-02, -3.8129133628988349e-01,
          2.0769595840831837e-01, -2.3314074008631444e-01,
          3.1835832199241770e-01, -2.8826457248879778e-01,
          2.5848509525561236e-01, 4.0339000901562494e-01,
          1.6738038568329736e-01, -4.8374503233160976e-01,
          -3.8854318720404257e-01, -3.8286883011047303e-02,
          2.0198351171123785e-01, 9.6755816288174160e-02,
          -7.0278253932612278e-02, 8.5697999980375139e-02,
          -1.8458465667271948e-01, 2.2815923828871981e-01,
          3.4485811970401531e-01, 6.3204356873974865e-01,
          -2.0968254378640081e+00, 2.1278910565750830e-01,
          -2.2222964107883506e-01, 4.0113101506326182e-01,
          -7.0606862086914235e-01, -5.2638396074500537e-01,
          5.9170830333267621e-01, 4.5350570098306103e-01,
          3.1584079612335647e-01, 1.4949552451790396e-01,
          -8.6470712001652572e-02, 3.8577159086112617e-01,
          -6.7856162908422363e-02, -3.6779072730644391e-01,
          1.8202831669873110e-01, -2.3735385324308536e-01,
          3.0513325960234777e-01, -3.0712829939085734e-01,
          2.3667154621149131e-01, 3.8082879228959748e-01,
          1.6042881694607800e-01, -5.0207586582158348e-01,
          -3.8503640548295598e-01, -6.4691146316274706e-02,
          1.8446526743207378e-01, 8.8486259102189241e-02,
          -8.1950704081755713e-02, 9.4048716867513607e-02,
          -1.6742950017746708e-01, 2.0985233600855868e-01,
          3.4111563477683254e-01, 6.3781013277382470e-01,
          -1.4563519375974781e+00, 2.0017795595196286e-01,
          -2.1261738407338457e-01, 3.9901249468679656e-01,
          -7.1147608577240196e-01, -5.0599248012113085e-01,
          5.8865611616217028e-01, 4.6947635028058571e-01,
          3.3303599314043525e-01, 1.6191410461034902e-01,
          -1.0841723884033375e-01, 3.7214819417059442e-01,
          -8.2509590429190482e-02, -3.8459427388262757e-01,
          1.9736969224277134e-01, -2.3779949023619495e-01,
          3.1506044410888573e-01, -2.9636416066546789e-01,
          2.6038818563185651e-01, 2.9243667830113756e-01,
          1.8402897178518562e-01, -4.8509176967364503e-01,
          -3.6924425652100995e-01, -8.5287519397159700e-02,
          1.6268634478691965e-01, 6.5191970664520094e-02,
          -8.6371187102042460e-02, 7.7904167053625004e-02,
          -1.7899580520842723e-01, 2.2573873233481853e-01,
          3.5751768959504571e-01, 6.2348187625273321e-01,
          -1.4318149289594087e+00, 1.9782300621412607e-01,
          -2.2925456455211835e-01, 4.0072151625135383e-01,
          -7.1042073845029607e-01, -5.0431947486637907e-01,
          5.8870282039968269e-01, 4.4910118520850972e-01,
          3.3973402665571939e-01, 1.5207374329784332e-01,
          -1.1678554130344662e-01, 3.9026598515494465e-01,
          -9.3132068543544611e-02, -3.8531231036866831e-01,
          1.8831902050848348e-01, -2.2460737643092732e-01,
          3.3014795942409680e-01, -3.1529702818710270e-01,
          2.3546569550463017e-01, 2.9049108135995799e-01,
          1.5852611823243512e-01, -5.0306267003631244e-01,
          -3.7315905420056261e-01, -8.3126101909855893e-02,
          1.3658112892463506e-01, 5.7795250154184567e-02,
          -9.4153832902004533e-02, 6.7605780438877563e-02,
          -1.5154684107353875e-01, 2.1876195121755909e-01,
          3.4393615733416105e-01, 6.2603226157530412e-01,
          -2.6743399835726578e+00, 2.1395239953370329e-01,
          -2.1712586725589378e-01, 3.8109600505231650e-01,
          -7.0741837744346436e-01, -5.0511210420835906e-01,
          5.7199639521791423e-01, 4.6395430316290448e-01,
          3.1090778670350178e-01, 1.4958534397301301e-01,
          -7.5461688720579193e-02, 3.6778989979590659e-01,
          -2.7878761920233992e-02, -3.8186414644162459e-01,
          2.1268421958368733e-01, -2.3720424631748238e-01,
          2.9781736855721852e-01, -3.1022089308552075e-01,
          2.3030941993596485e-01, 4.4840257199484584e-01,
          1.5648812696881051e-01, -4.9818141401935956e-01,
          -3.8186896670644505e-01, -1.7339100873658926e-02,
          1.9936330056796500e-01, 1.2869449935337332e-01,
          -3.7779322177931271e-02, 1.0505729539105521e-01,
          -1.6430794616534111e-01, 2.1457880102468768e-01,
          3.4844030545883009e-01, 6.3107389540365411e-01,
          -2.1597460324290330e+00, 1.9862288238608353e-01,
          -2.2757339729302861e-01, 3.8222373379460317e-01,
          -7.1984146835216622e-01, -5.0791032444241246e-01,
          5.9556625474241198e-01, 4.6421707536076862e-01,
          3.3099636730904780e-01, 1.4740535745221678e-01,
          -1.0744411056755021e-01, 3.8818634650803424e-01,
          -7.1660010683337050e-02, -3.7550414948788563e-01,
          1.9657818326178020e-01, -2.2729433053330192e-01,
          3.0309890974606918e-01, -2.9201874849097642e-01,
          2.4021196694920210e-01, 3.7221221501133056e-01,
          1.7842261587952735e-01, -4.8988891838186105e-01,
          -3.6685243768654130e-01, -6.3554996346041157e-02,
          1.8053744527177162e-01, 1.0383446764531168e-01,
          -6.5030037061878987e-02, 8.7926678662846022e-02,
          -1.6814250632629926e-01, 2.3139902329408019e-01,
          3.3088133184280977e-01, 6.2517717056308786e-01,
          -1.6829508993219209e+00, 1.9864715285326320e-01,
          -2.2207800479401502e-01, 3.8956091874722126e-01,
          -7.3201137847323572e-01, -5.1192001845540847e-01,
          5.8149476565982638e-01, 4.6593208885830506e-01,
          3.1080948961931149e-01, 1.5182766189264640e-01,
          -1.0221687922905143e-01, 3.8674337692108796e-01,
          -8.3522775788198861e-02, -3.8252007240411268e-01,
          2.0457926592292255e-01, -2.2565768418548640e-01,
          3.1811005883311999e-01, -3.0230504453793050e-01,
          2.6450284608706387e-01, 3.2860984271925331e-01,
          1.7585206276494064e-01, -4.8483735317767013e-01,
          -3.8979381158504101e-01, -8.6799811112683964e-02,
          1.6717294207956118e-01, 6.5632560322642197e-02,
          -1.0230408316480569e-01, 8.0702341967241770e-02,
          -1.5422140287863101e-01, 2.1716060745007285e-01,
          3.4417168354250088e-01, 6.1603966203427851e-01,
          -1.4528337357309105e+00, 1.8416264355947531e-01,
          -2.0902329661951372e-01, 3.9054556010450314e-01,
          -7.2346117759381967e-01, -5.1886650984230731e-01,
          5.7239089388387998e-01, 4.7010028691054345e-01,
          3.2997683530018135e-01, 1.5749440855931116e-01,
          -1.3837304682330409e-01, 3.7477922219658183e-01,
          -7.0994882359191561e-02, -3.8339630905243638e-01,
          1.8160289417467504e-01, -2.3230400232127588e-01,
          3.1530079967687563e-01, -3.0676655305906575e-01,
          2.6445746920745833e-01, 2.8478173879838820e-01,
          1.8246877048376389e-01, -4.8595931885341975e-01,
          -3.7117078520715063e-01, -9.2742741623462521e-02,
          1.5046700725789589e-01, 8.3577160360947339e-02,
          -9.7802361291326259e-02, 8.5877266859766668e-02,
          -1.7469338383367627e-01, 2.1338844176430799e-01,
          3.3417072033988549e-01, 6.3980164980244947e-01,
          1.1478160104271798e-03, -3.5565590871888359e-03,
          1.1708032078374507e-02, 1.5764827092207636e-02,
          -1.4116391300824635e-02, -1.0485752606953436e-04,
          -8.8709520998168940e-03, 1.0378430690293605e-02,
          -1.4720522689151272e-02, -4.0625803927434598e-03,
          -8.1959185486905253e-03, 1.6377621876028715e-03,
          5.1752358471933903e-03, -1.2240966002500324e-02,
          1.2570968672160284e-02, -1.8966454125720420e-03,
          -1.3654269513449991e-02, -8.4167690933161302e-03,
          1.4256828414952658e-02, -7.6957330246627854e-03,
          8.3245539378309953e-03, -2.1573485315879077e-03,
          8.3318623481239366e-03, 1.0802792030551473e-02,
          1.2045436313241708e-02, 1.4131907900721597e-02,
          -3.6957911689468738e-03, -1.5163366341509594e-02,
          5.9957775839283483e-03, -1.2185900522007976e-02,
          1.0836043069762574e-02, 5.7497939155905673e-03,
          -7.8411639826073143e-01, 1.9378759060933920e-01,
          -2.0510060619471943e-01, 4.0412022160210381e-01,
          -7.2361283782870978e-01, -4.9732721289641602e-01,
          5.7845551161974240e-01, 4.4188291372345684e-01,
          3.3247371518263974e-01, 1.4865621504275120e-01,
          -1.4728201522298692e-01, 3.6793932739283530e-01,
          -1.0821689386302956e-01, -3.8115510135953845e-01,
          1.8212906319329225e-01, -2.4089491601097546e-01,
          3.1544808886655956e-01, -2.8841155305002741e-01,
          2.3636040507296868e-01, 2.2127896502886910e-01,
          1.8144230602979963e-01, -4.9145645192807408e-01,
          -3.7442291969297559e-01, -1.1401577501773612e-01,
          1.3136590378110874e-01, 3.9850294908701393e-02,
          -1.3515643542015426e-01, 4.0541879816019387e-02,
          -1.5905877505879146e-01, 2.1270563190328445e-01,
          3.4410862147863092e-01, 6.1286143809439941e-01,
          -7.8601824988141257e-03, 5.8842732464877076e-03,
          4.3867206518837538e-03, -1.6587469663978786e-02,
          -4.4483157529409349e-03, -1.4760471926101939e-02,
          1.3903708433005672e-02, 5.5885316574983647e-03,
          -9.3721566693003768e-03, -4.9547013279038410e-03,
          1.5594781097614663e-02, -4.2912624445335675e-04,
          1.0208637039449501e-02, 1.6754802709607027e-03,
          -1.0900780777812123e-02, 1.1350932214897615e-02,
          8.2765899399060835e-04, -9.1754859880204698e-03,
          -8.3446320515515419e-03, -5.1862542106905036e-03,
          -5.9036257134597399e-04, -1.4629833763167581e-02,
          1.5207352224511549e-02, -1.2828199351184131e-02,
          -1.4856562542480892e-02, -7.0680168498297143e-03,
          -1.0087027723900329e-02, -3.8186521477030539e-03,
          -3.4030720586961495e-03, -5.6892082717164959e-03,
          1.3145399365995280e-02, 1.2434103425657218e-03,
          -1.4360985947684299e+00, 1.9708247862408876e-01,
          -2.1843333894293016e-01, 3.9251270552236073e-01,
          -7.2847298850967313e-01, -5.1827950889684926e-01,
          5.9702459504173289e-01, 4.5912511319967308e-01,
          3.1904209130070588e-01, 1.6549103647309574e-01,
          -1.2345097245978959e-01, 3.7230303589279334e-01,
          -9.0117507497327096e-02, -3.6634722171853518e-01,
          2.0606580968810737e-01, -2.2544381835806576e-01,
          3.1799330540186199e-01, -2.9288376159611068e-01,
          2.3799973314320222e-01, 2.9683351920364470e-01,
          1.7041490409295579e-01, -4.9124847661804577e-01,
          -3.6449271134037897e-01, -1.0101555269717619e-01,
          1.4850024284379595e-01, 7.5296264425424808e-02,
          -1.1210723945005699e-01, 6.2096313512977286e-02,
          -1.6203556257139717e-01, 2.2859897103825694e-01,
          3.4664578774185223e-01, 6.3275466771824596e-01,
          7.0877148803021814e+00, 2.9121175584667328e-02,
          -5.6197234954157627e-02, 1.1943164700841866e-01,
          -2.1758975225248045e-01, -1.6122678930169551e-01,
          1.9305272716568997e-01, 1.4055552200767715e-01,
          1.1670322949409202e-01, 8.1502297716995395e-03,
          -3.1897364980071635e-01, 1.1717566796412111e-01,
          -2.3917163078102674e-01, -1.2170499501912878e-01,
          6.5326296567774653e-02, -5.9409082338209969e-02,
          1.0122741203069995e-01, -8.8678828327318521e-02,
          8.0411482943337262e-02, -8.5210895598546921e-01,
          3.7840613699900452e-02, -1.5508892243629552e-01,
          -1.3416335278782202e-01, -4.1688841827485229e-01,
          -3.0053406530424581e-01, -2.7187210483392193e-01,
          -4.0386023617552264e-01, -1.6213649537822289e-01,
          -1.9987966981041758e-02, 7.7614296188747739e-02,
          1.1781690290649915e-01, 2.0545914447060989e-01,
          -2.3626256592362425e+00, 1.9234699904010383e-01,
          -2.2712614782801421e-01, 3.9933455770744719e-01,
          -7.2047919802345717e-01, -5.2214202655965203e-01,
          5.7826289334294201e-01, 4.6547624373241409e-01,
          3.1653891283899754e-01, 1.6155654476830186e-01,
          -8.3390344843843792e-02, 3.8448786545929797e-01,
          -5.4243453485243759e-02, -3.6717537268141809e-01,
          2.1575633546011766e-01, -2.2014972527593127e-01,
          3.2557126100901224e-01, -2.8771083018504906e-01,
          2.3186488357394072e-01, 3.9504093824292019e-01,
          1.6104314300518549e-01, -4.7628176619788920e-01,
          -3.8801320839086306e-01, -4.0440630553517612e-02,
          1.9385643886362022e-01, 9.6047091098550599e-02,
          -5.9719223645945334e-02, 9.0247315990378510e-02,
          -1.6398682606192838e-01, 2.0976850839368466e-01,
          3.5165229813433446e-01, 6.3380292179192199e-01,
          3.1967991558567421e+00, 1.4816863322819662e-01,
          -1.7419774294913828e-01, 3.2891157239373203e-01,
          -6.1241233188549327e-01, -4.3718358669062363e-01,
          4.9441583791729948e-01, 3.7992278529920342e-01,
          2.8438111927136589e-01, 7.7964728604855565e-02,
          -2.7081586540776809e-01, 3.1238097035912987e-01,
          -2.0652296620870683e-01, -3.1487619782128617e-01,
          1.6061301279970244e-01, -1.9039038082167190e-01,
          2.5808923783070875e-01, -2.5210886315134451e-01,
          1.9348762982109791e-01, -3.1261950754809770e-01,
          1.3958940232100492e-01, -3.9645839135549321e-01,
          -3.0534454321030141e-01, -3.1657823220752146e-01,
          -7.1042151990451982e-02, -9.4605063186444044e-02,
          -2.8058785910958961e-01, -6.7255251103289934e-02,
          -1.1723102136595134e-01, 2.0282976760983659e-01,
          2.7770531534939363e-01, 5.0981611772889324e-01,
          -8.7847006207861754e-03, 7.7101938998503025e-03,
          6.7214851898686383e-03, 7.7703831124421646e-03,
          1.0029411000845439e-02, -9.9132024564034821e-03,
          -8.2073231659086972e-03, -1.1368746514414583e-02,
          -7.6360101204073078e-03, -7.5400146588146021e-03,
          -1.8250263070742154e-03, 1.3073204737715609e-02,
          -9.7216927100747218e-03, 7.4697419494066056e-03,
          -1.3150098407379485e-03, -4.5889401765217162e-03,
          -1.9338312136651127e-03, -4.6508888318561531e-03,
          3.9393682681737692e-03, 3.9521031143122769e-03,
          1.1163816675647529e-02, 1.3388732511038144e-03,
          -1.3539718605637524e-04, -4.6233905000855361e-03,
          -6.1383946251525124e-03, -9.3159540804370698e-03,
          -2.0850180430351021e-03, -1.3633345295131938e-02,
          -3.2238753589926853e-04, 1.0741582620883419e-02,
          1.3505425838186468e-02, -1.0934908534211994e-02,
          -6.5244224797059125e-01, 2.0243674974558978e-01,
          -2.1682311405565494e-01, 3.9806891923096355e-01,
          -7.0405884335158009e-01, -5.1564181255037089e-01,
          5.9071352599285065e-01, 4.6582202634113024e-01,
          3.1666710271924003e-01, 1.3626148998508170e-01,
          -1.6684955790633788e-01, 3.8346291454148834e-01,
          -9.2429645623524806e-02, -3.7471784321457413e-01,
          1.8470623522184099e-01, -2.1273789266274173e-01,
          3.0152752267628541e-01, -3.0094503600943801e-01,
          2.5594283558092368e-01, 1.9009064387363217e-01,
          1.6817507775327534e-01, -4.9966619199775064e-01,
          -3.7413028303136592e-01, -1.3610689623143810e-01,
          1.2214379527543505e-01, 4.6529424275646852e-02,
          -1.2539841746462588e-01, 3.9685026620022858e-02,
          -1.5513128335448434e-01, 2.2465724695851019e-01,
          3.4779042272150540e-01, 6.0701294481878898e-01,
          1.2477581636518607e+00, 1.6649081732359450e-01,
          -1.9357188180195303e-01, 3.8024361668969825e-01,
          -6.7781711630702524e-01, -4.9505538534222998e-01,
          5.5153309836373654e-01, 4.1866629084226897e-01,
          3.0461643042117831e-01, 1.1724622770668564e-01,
          -2.1151469392946615e-01, 3.6988460373820792e-01,
          -1.3788087957594655e-01, -3.5422404081003495e-01,
          1.9029287181366922e-01, -2.1889929641162084e-01,
          2.8300748160108330e-01, -2.8143320052990234e-01,
          2.2544351456930528e-01, -5.8946341333570573e-02,
          1.6516214789651440e-01, -4.5274479528233541e-01,
          -3.4357438916931621e-01, -2.0289912848881655e-01,
          8.1528831257032218e-03, -1.7500623940107513e-02,
          -2.3371022267089928e-01, -9.3143871946374229e-03,
          -1.4133108391728286e-01, 2.2465348600645829e-01,
          3.2403224804010600e-01, 5.9839391598639802e-01,
          -1.1225184094199063e+00, 1.8631121985705348e-01,
          -2.0730300148665912e-01, 3.9734174129511013e-01,
          -7.0566717672092261e-01, -5.0896351487591585e-01,
          5.9521336904471134e-01, 4.5719328796046521e-01,
          3.3819164727980028e-01, 1.5616649745864891e-01,
          -1.3755199005283231e-01, 3.7406332299725809e-01,
          -1.0124652080508348e-01, -3.8273846883786994e-01,
          1.8746321956747022e-01, -2.3435656254300255e-01,
          3.1958554875677042e-01, -3.0455430504877579e-01,
          2.4560034095336011e-01, 2.6021447540374770e-01,
          1.6018222704959859e-01, -4.8922193349171472e-01,
          -3.8871749278965773e-01, -1.1130275726577446e-01,
          1.2813627718326265e-01, 6.8156818051955337e-02,
          -1.1333533164320117e-01, 6.4000725738844522e-02,
          -1.5988114145753865e-01, 2.2028963024402196e-01,
          3.4101971835090877e-01, 6.3329021310403333e-01,
          2.6729750952847664e+00, 1.7027038149153229e-01,
          -1.8172633190957221e-01, 3.5061070651138004e-01,
          -6.2158810586453961e-01, -4.4308752608844837e-01,
          5.1020372607890641e-01, 3.8790709377943028e-01,
          2.7834500527258188e-01, 9.0469036978842260e-02,
          -2.6684417897071527e-01, 3.1678852188289042e-01,
          -1.7274248272583009e-01, -3.2513231541128662e-01,
          1.6863494511176141e-01, -1.9820100445425198e-01,
          2.6169444110142559e-01, -2.4547895572258818e-01,
          2.2308238634521455e-01, -2.3699921433686080e-01,
          1.2977853266957087e-01, -4.2586289052962412e-01,
          -3.2934637876162010e-01, -2.7187125220740943e-01,
          -4.5970508042728689e-02, -7.3176304321018029e-02,
          -2.7992354668656916e-01, -4.9952500745547225e-02,
          -1.1768488289949931e-01, 1.8665411443689944e-01,
          2.8957776135189511e-01, 5.4781720669382661e-01,
          -8.9704028886368814e-01, 1.9668742209856097e-01,
          -2.2500152399651649e-01, 3.7919827015870988e-01,
          -7.1421918453487143e-01, -5.0507961553947489e-01,
          5.7766148215619706e-01, 4.5123486415310099e-01,
          3.2583598673187347e-01, 1.6147901352781321e-01,
          -1.2971780831197138e-01, 3.8180357987584401e-01,
          -9.1837628297729845e-02, -3.6179523318352647e-01,
          1.9598376121636019e-01, -2.3300988406420892e-01,
          3.0759867246276162e-01, -2.9041199863050521e-01,
          2.3412515227900293e-01, 2.2111012448076706e-01,
          1.6334191590741420e-01, -5.0249951393102987e-01,
          -3.8012707463917284e-01, -1.0866959693452058e-01,
          1.2280298334024757e-01, 4.0587086723775978e-02,
          -1.2684559701244585e-01, 5.2618134804011209e-02,
          -1.6390601111698322e-01, 2.2879919090901207e-01,
          3.5575526371426519e-01, 6.2963282656539965e-01,
          -1.0559110681350057e+00, 1.9739703998312691e-01,
          -2.1097723695869749e-01, 3.7763158887389475e-01,
          -7.3035974782540247e-01, -5.2390046375049026e-01,
          5.9359632160683429e-01, 4.5701334399881738e-01,
          3.3317951804401147e-01, 1.4889671932960341e-01,
          -1.3380718274366254e-01, 3.6635095732324913e-01,
          -7.5516081119373316e-02, -3.7389076710458191e-01,
          2.0260751790139489e-01, -2.3509856609377125e-01,
          3.2208786886771762e-01, -2.9985343902689288e-01,
          2.5578379783210886e-01, 2.3248892405710822e-01,
          1.7111580711662289e-01, -4.9030553676142558e-01,
          -3.8344208289868836e-01, -1.0778308715850632e-01,
          1.2510888963667485e-01, 6.7973677243316710e-02,
          -1.2569197214341382e-01, 7.3272442429571580e-02,
          -1.7085570527328101e-01, 2.2380841319557129e-01,
          3.5604689173154963e-01, 6.2286766277371952e-01,
          -8.7664861812324635e-01, 1.8257816593697462e-01,
          -2.1282000149350480e-01, 3.9222869771621138e-01,
          -7.2034598457451804e-01, -5.1138549937752187e-01,
          5.7939062437269973e-01, 4.5442401524800835e-01,
          3.1259877788998613e-01, 1.4777111049112826e-01,
          -1.3836781186059297e-01, 3.7013032773883747e-01,
          -1.0349728999903567e-01, -3.7067817968863953e-01,
          2.0386872237046189e-01, -2.1874501925080408e-01,
          3.0518484017141495e-01, -2.8933905962873491e-01,
          2.4128527792840213e-01, 2.3462234779384089e-01,
          1.7763629002993084e-01, -4.9964358457181546e-01,
          -3.6546888644890047e-01, -1.2710038079740701e-01,
          1.2379627097245820e-01, 5.2630913673869399e-02,
          -1.2558272562921824e-01, 5.0077339699133833e-02,
          -1.7200955262532058e-01, 2.3259822028011040e-01,
          3.3688300089160211e-01, 6.2353399404626275e-01,
          -5.5118781259190808e+00, 1.6628512844921858e-01,
          -1.8494216203978706e-01, 3.2109248078923763e-01,
          -6.0587889977139309e-01, -4.3286629969228252e-01,
          4.8318388621594877e-01, 3.9023208163651091e-01,
          2.7556406780657250e-01, 1.5302027105619145e-01,
          6.5626749164053061e-02, 3.0487766734594784e-01,
          6.8262374467949805e-02, -3.3203845272456395e-01,
          1.7261680711975985e-01, -1.8303582611942512e-01,
          2.6635186045887899e-01, -2.6674005092492775e-01,
          2.0847623981172753e-01, 7.9547951577936138e-01,
          1.6908800190530698e-01, -4.2018437099929418e-01,
          -3.1606506693265468e-01, 1.6394314738003263e-01,
          3.2581125193550969e-01, 2.2158271220901798e-01,
          1.2115311498244910e-01, 1.8120535284252848e-01,
          -1.7409982880571886e-01, 1.7610615746159014e-01,
          2.9205397277318224e-01, 5.3923725553524082e-01,
          -1.4567198298908308e+00, 1.8993770655705952e-01,
          -2.1908960306873221e-01, 3.7664024693021048e-01,
          -7.2241180755883694e-01, -5.0592042460958775e-01,
          5.8315636454178776e-01, 4.5852430251731080e-01,
          3.0928283673543994e-01, 1.5551030858302503e-01,
          -1.3601159092079532e-01, 3.8484334376892965e-01,
          -7.8556897375227225e-02, -3.6879671625904009e-01,
          1.8780362477592566e-01, -2.1806688750659170e-01,
          2.9985121163236012e-01, -3.1340141467336530e-01,
          2.5863427565831160e-01, 2.9962017658249596e-01,
          1.7709270794259330e-01, -4.7769843282221219e-01,
          -3.7010032100882290e-01, -7.7103990968267033e-02,
          1.3701464033003416e-01, 5.8098389253707472e-02,
          -1.0635499147464862e-01, 7.0567627263759480e-02,
          -1.5960099712517081e-01, 2.1555111703380439e-01,
          3.5436849840904078e-01, 6.1050072297047830e-01,
          -1.2725310080448096e+00, 2.1136474371137604e-01,
          -2.2086620541420413e-01, 3.8176780675271249e-01,
          -7.2026169456269629e-01, -5.1628333333265053e-01,
          5.7696288683223307e-01, 4.4280580380906259e-01,
          3.2148793248016078e-01, 1.6555977714290629e-01,
          -1.3128313071816328e-01, 3.8742243700946477e-01,
          -8.6779377229753388e-02, -3.7677141575660444e-01,
          1.9173744653148186e-01, -2.3572952017828711e-01,
          3.2828745266817055e-01, -3.1249476166351559e-01,
          2.4235520095902108e-01, 2.7888353265741794e-01,
          1.6408121038017259e-01, -4.8125023960064567e-01,
          -3.7261853646412230e-01, -1.0826536344409357e-01,
          1.3237303176385706e-01, 7.4871324057833102e-02,
          -1.0928990437052449e-01, 6.2459836625424134e-02,
          -1.5654538267062021e-01, 2.1948243391607658e-01,
          3.5037593627322478e-01, 6.2940731468439570e-01,
          -1.6817316899158712e+00, 1.8514239896434234e-01,
          -2.0377166095161436e-01, 4.0009896166851749e-01,
          -7.1436752698313621e-01, -5.2025250197726769e-01,
          5.8761604774562470e-01, 4.4285018713392493e-01,
          3.3715438561676586e-01, 1.5642217400899538e-01,
          -1.1109350212406466e-01, 3.9044468146930195e-01,
          -8.1302730795320508e-02, -3.8416784564274437e-01,
          1.9574679782573717e-01, -2.4425161164096940e-01,
          3.0720567795301673e-01, -2.9912963605576171e-01,
          2.4166714397700112e-01, 3.1777850434868216e-01,
          1.7189983730602043e-01, -5.0106552630188239e-01,
          -3.8858648321872358e-01, -6.3034926350026235e-02,
          1.4588432269755969e-01, 6.9750759198982534e-02,
          -9.2770877582538089e-02, 7.3604960195636310e-02,
          -1.7575439354974526e-01, 2.1161571538352181e-01,
          3.3493133041733958e-01, 6.1117103896928326e-01,
          -1.4435896796509406e+00, 2.1131760676021236e-01,
          -2.1549628453450126e-01, 3.7679618946104915e-01,
          -7.3067351620640908e-01, -5.0539277932674620e-01,
          5.7481366872187611e-01, 4.5199812552599788e-01,
          3.1414845991904117e-01, 1.4649946378185924e-01,
          -1.1133211220497061e-01, 3.7049077493267224e-01,
          -7.9595753547561793e-02, -3.7955325031173881e-01,
          2.0365173038184192e-01, -2.1659597788820895e-01,
          3.0252579927235257e-01, -3.0063564414790328e-01,
          2.4884765700665903e-01, 2.9019032160593716e-01,
          1.7051225020063196e-01, -4.8135144459750140e-01,
          -3.7996221670063934e-01, -8.6051928359504537e-02,
          1.5417581881129830e-01, 8.2266211231938613e-02,
          -1.1053909356493462e-01, 5.8974133851754235e-02,
          -1.8028690197664232e-01, 2.2538328700977750e-01,
          3.5167570915161489e-01, 6.1510348079743371e-01,
          -2.0200285689556331e-03, -6.7789562585939388e-03,
          1.0079501977775103e-02, 8.3507132286958028e-03,
          -1.2588181140227271e-02, 5.3526957652668674e-03,
          4.7910391222063036e-03, 3.3477298873192896e-05,
          1.0214684378087255e-03, 1.5457476478894555e-02,
          -1.4261084024696150e-02, -4.1624929498779053e-04,
          -5.2218842847983026e-03, -6.7529909495537398e-03,
          4.1267718483066777e-04, -6.1966862995953120e-03,
          -1.5700722890599796e-02, 2.7847950955302179e-03,
          2.5541755144487601e-04, -3.6553133599250120e-03,
          1.0416639668897889e-02, -9.8728667372217482e-03,
          -6.4695552744344710e-05, -3.5983553585090034e-03,
          -6.0994958501534779e-03, -1.2947039188254982e-02,
          1.3693959199939492e-02, 1.4604464632237480e-02,
          -8.9578085340249851e-03, 1.1098817299094847e-03,
          -7.7350492664235810e-03, -8.5748169207395981e-03,
          -1.3009164900943834e-02, -4.8210041248254108e-04,
          6.1032744009108754e-03, 5.4931180060788657e-03,
          9.9112299269081272e-03, 3.7837798659467333e-03,
          7.2890728380837957e-03, 1.1297676945162453e-02,
          1.0182701807217785e-02, -1.4838385820295430e-03,
          -1.5269713391346041e-03, 1.3893769222259097e-02,
          -4.5181123873675655e-03, 1.4711379612076842e-02,
          -1.7375122392325242e-02, -3.1493308895463286e-03,
          -1.3312142290729679e-02, -1.2860173004365880e-02,
          -8.3380672098321736e-03, 1.2558299006082610e-02,
          -9.5879680889059799e-04, 3.6109561435390472e-03,
          1.0971942578348933e-02, -4.2585635676523564e-04,
          1.1947012662307067e-02, 5.3189694874702454e-03,
          1.4958626115092391e-02, -1.2222245122247918e-02,
          4.2633874305608860e-03, 1.5893633912486800e-03,
          -9.9190486321802055e-03, 1.1658268238445926e-02,
          -5.1647726293739558e+00, 1.8211359997826257e-01,
          -1.8435457386948620e-01, 3.3884082914170000e-01,
          -6.3134031262286139e-01, -4.4267754075830867e-01,
          4.9712737154764336e-01, 3.9277391261610139e-01,
          2.8773326327248383e-01, 1.7265278352577521e-01,
          2.9684929057799708e-02, 3.1644441819473623e-01,
          3.6585981764385850e-02, -3.3403395180148632e-01,
          1.8685658727588300e-01, -2.0971137708965168e-01,
          2.7247189380739945e-01, -2.7515130696160217e-01,
          2.0406118361827896e-01, 7.5484378714690625e-01,
          1.5634719661917082e-01, -4.2204514401288357e-01,
          -3.2487339170158902e-01, 1.2975926136846294e-01,
          3.0663881937443260e-01, 2.1066344392396535e-01,
          1.1270457203682015e-01, 1.6891671014830814e-01,
          -1.7131907341216657e-01, 2.0181878688766677e-01,
          2.8891209883069924e-01, 5.2996672668718448e-01,
          -1.4497098743668837e+00, 1.9753966378346585e-01,
          -2.2841883007995134e-01, 3.9946135728425902e-01,
          -7.1127501784242053e-01, -5.2015145157021014e-01,
          5.8197252712113468e-01, 4.4845548830905263e-01,
          3.3168549882857656e-01, 1.5736070200707863e-01,
          -1.3793162135618442e-01, 3.9346768377929575e-01,
          -8.7891176514745220e-02, -3.7324704458919183e-01,
          2.0295624687500605e-01, -2.2004898755434951e-01,
          3.2180630685558603e-01, -2.8981595368279889e-01,
          2.3380749897502287e-01, 2.9199222575881584e-01,
          1.7406245522346306e-01, -5.0430701257459698e-01,
          -3.7403691290027785e-01, -8.2287780387786141e-02,
          1.4154162170152848e-01, 6.5359626279921895e-02,
          -1.1136300993506615e-01, 6.4502642756130782e-02,
          -1.6910908587945422e-01, 2.3132565927772164e-01,
          3.5738072773391905e-01, 6.2062936268747781e-01,
          -5.5257871968795542e-03, 9.9883742478089586e-03,
          -1.9483394036684881e-03, -5.9179505457885818e-03,
          -1.3777897856899569e-02, -1.2817824357772336e-02,
          -7.0486742656667095e-03, 1.3057039021869953e-02,
          -3.7447094534183659e-03, -8.8723619056883737e-03,
          -1.2001747858657194e-02, 2.7109154240652455e-03,
          -1.0427429418250559e-02, 6.3135729622465948e-03,
          -7.7550604753839035e-03, -2.5684839132972834e-04,
          -3.7210467098104374e-03, 6.6465154657471843e-03,
          1.2995327175036684e-02, 1.2266658366705237e-03,
          1.0735503685667119e-02, 4.9760707574154047e-03,
          1.4421800479720540e-02, -4.3071056537549784e-03,
          -4.9131576314631713e-03, -8.8655516468844620e-03,
          -6.2755213326021646e-03, -5.1768394487422455e-03,
          -2.7008424576506255e-03, -3.2235467619336311e-03,
          -3.8798775302560998e-03, -9.4238184123264408e-03,
          -1.7939081870906950e+00, 2.1461029946544660e-01,
          -2.0682650040078449e-01, 3.8633081675250208e-01,
          -7.0839286230849630e-01, -5.0100647875149817e-01,
          5.9169858141190135e-01, 4.6969606175224066e-01,
          3.3183335153915605e-01, 1.4239137587566106e-01,
          -1.0974541274052399e-01, 3.6906378976915416e-01,
          -5.5361774563726027e-02, -3.6451684343653007e-01,
          1.9065413758132777e-01, -2.2174151440788126e-01,
          3.1508340901552045e-01, -2.9909245861340089e-01,
          2.4854874995818843e-01, 3.4831906820621905e-01,
          1.6747575426359076e-01, -4.7928376705067954e-01,
          -3.9051131404686695e-01, -5.9651995674686882e-02,
          1.5959899030244121e-01, 8.4282830603117115e-02,
          -7.3227250057626980e-02, 7.8671686910371685e-02,
          -1.7170812279170677e-01, 2.2304260360506006e-01,
          3.4621690522868792e-01, 6.3138748313367732e-01,
          -2.0108192758671395e+00, 1.9440183472512762e-01,
          -2.3163676623410051e-01, 3.9160409344983382e-01,
          -7.2683988161473778e-01, -5.2127477671797195e-01,
          5.9298884475277902e-01, 4.4360242068917050e-01,
          3.1892409859349635e-01, 1.4382382715229841e-01,
          -1.0206611458450501e-01, 3.6391920956717849e-01,
          -7.4189952264302222e-02, -3.6146646075073313e-01,
          1.8976980791096087e-01, -2.2832057858974611e-01,
          3.0026999829591861e-01, -3.0461986016205844e-01,
          2.4952382978928428e-01, 3.4989996125627365e-01,
          1.6151177028781469e-01, -5.0133972461503962e-01,
          -3.9059981062715182e-01, -6.2448597324954579e-02,
          1.7353797697921308e-01, 9.9767905091557585e-02,
          -7.7114248100076679e-02, 8.4336603981342850e-02,
          -1.7146887615416209e-01, 2.1340285583471993e-01,
          3.3400506475265612e-01, 6.2179677437444103e-01,
          -1.4534328030814705e+00, 1.9779571758150308e-01,
          -2.0802986047645436e-01, 3.9674782681498999e-01,
          -7.3194681873228240e-01, -5.2220455342409777e-01,
          5.8665726437039423e-01, 4.4973805694911007e-01,
          3.0982343896638853e-01, 1.3856553590669826e-01,
          -1.0951787872086691e-01, 3.6416135702937835e-01,
          -7.4767093126344775e-02, -3.8749080830846894e-01,
          2.0308059772824469e-01, -2.3413922242100435e-01,
          3.0516693470146805e-01, -2.8784514766233416e-01,
          2.5535339279679170e-01, 3.0605874151842949e-01,
          1.5566509884018964e-01, -4.7797341722337577e-01,
          -3.9248106249971998e-01, -8.9323481077893563e-02,
          1.5193071796867233e-01, 6.0676595466561754e-02,
          -8.9803954496129629e-02, 8.0384619445398972e-02,
          -1.5275899116484348e-01, 2.3550667624621074e-01,
          3.3296084359872363e-01, 6.1743377980307235e-01,
          -2.2365250357986901e+00, 1.8608112592865159e-01,
          -2.2161632712792717e-01, 3.9163873121226811e-01,
          -7.2084634739444475e-01, -5.2331552772706524e-01,
          5.9131982726884136e-01, 4.6180386926040412e-01,
          3.0788380827879425e-01, 1.4070506462588217e-01,
          -9.1288164635726907e-02, 3.8662110615123735e-01,
          -6.8181020001825104e-02, -3.8187253897567885e-01,
          1.9079150173018747e-01, -2.4124104656594367e-01,
          3.0990348461398781e-01, -3.0204529758618176e-01,
          2.4280020279129744e-01, 4.0717951223267507e-01,
          1.7652617288202085e-01, -4.7642781192437522e-01,
          -3.8844857467118998e-01, -4.3022322817078226e-02,
          1.7524904734563562e-01, 1.1073849480430654e-01,
          -5.2674288534303358e-02, 9.0796923622454090e-02,
          -1.6953137531516679e-01, 2.3366115449462313e-01,
          3.3743980169721743e-01, 6.2418131041232106e-01,
          -1.4482405693851530e+00, 1.8546976949120222e-01,
          -2.0570059160289114e-01, 4.0603799659928430e-01,
          -7.1526995078809152e-01, -5.2854901653504138e-01,
          5.7141161353375880e-01, 4.6610703870801151e-01,
          3.2166628889842924e-01, 1.5299167526968141e-01,
          -1.2447015329860792e-01, 3.6613031938003820e-01,
          -8.5522261515392897e-02, -3.8671239231850457e-01,
          1.9547035806337501e-01, -2.1940528727061437e-01,
          3.2634706392382606e-01, -2.8854665015066888e-01,
          2.6216532273994458e-01, 2.8565483947438741e-01,
          1.7775796814002448e-01, -4.7546035422377148e-01,
          -3.6549243612522825e-01, -9.3099935492730879e-02,
          1.4417747605216205e-01, 7.1548734067102743e-02,
          -1.0037594545146200e-01, 7.4272380142490990e-02,
          -1.7399510418003766e-01, 2.1405344626298098e-01,
          3.5562732242932871e-01, 6.3946052400643560e-01,
          -5.1501512899530129e+00, 1.7181890857220947e-01,
          -1.9578434702680214e-01, 3.5435459177484391e-01,
          -6.1645729761200874e-01, -4.5397363004519981e-01,
          5.0894532143875548e-01, 3.9962718773009215e-01,
          2.7541621547673290e-01, 1.5110093074493569e-01,
          3.6055440730462275e-02, 3.4012871668552913e-01,
          5.4582994610791018e-02, -3.3594702260075576e-01,
          1.7507564885656840e-01, -2.0499814835813682e-01,
          2.8772312855371851e-01, -2.4751437868794005e-01,
          2.1744339072638996e-01, 7.3742562319568694e-01,
          1.7035578565651754e-01, -4.2046856459888171e-01,
          -3.3394972484841284e-01, 1.3038965889647691e-01,
          3.0053612454414574e-01, 2.2234749401140916e-01,
          9.2835543165176990e-02, 1.5704974173326022e-01,
          -1.5426241219220915e-01, 2.0405901340574836e-01,
          2.8993936859840980e-01, 5.3673131818510877e-01,
          -2.0741954266201863e+00, 1.9455845527445267e-01,
          -2.1700787153272075e-01, 4.0606484857575736e-01,
          -7.0703270118384953e-01, -5.1607324213172323e-01,
          5.8404777887427572e-01, 4.4639442732440404e-01,
          3.1990246718161414e-01, 1.5637101775563483e-01,
          -9.5829941485498310e-02, 3.6817984277831950e-01,
          -7.1874961180225919e-02, -3.6305684626106371e-01,
          1.8507538106986163e-01, -2.4318064267263462e-01,
          3.2833051798866397e-01, -3.0997020316318485e-01,
          2.4615284369105861e-01, 3.5983179745333521e-01,
          1.7772234015019489e-01, -4.8872623523972503e-01,
          -3.7657281203420562e-01, -5.9931599377050303e-02,
          1.8775866643865180e-01, 9.6621797660771350e-02,
          -6.5969134221293926e-02, 9.0799740339464918e-02,
          -1.6248692869019277e-01, 2.3893200318828939e-01,
          3.3083826091742591e-01, 6.2612450270592646e-01,
          -1.1794273901443589e-02, 1.3875392589269007e-02,
          -1.0364851971747451e-02, -1.3036411769083666e-02,
          -7.6327918224713461e-03, -1.2855593069906870e-02,
          1.0531594358673341e-02, 9.1333537569793081e-04,
          -7.6359665187955509e-03, 1.5202444768396179e-02,
          -6.8411907771176979e-03, 3.5293603203280862e-03,
          -8.8043583160413944e-03, -6.5763478626262228e-03,
          -1.7097257725623839e-03, -1.2377715909183906e-02,
          1.5107911078664348e-02, -1.0606153095680929e-02,
          2.5433532765635511e-03, -5.2675989571394407e-03,
          8.8051374147908468e-03, -2.0851829165812754e-03,
          -8.5281831939998942e-03, 1.7747436903808524e-03,
          -3.2657076969896401e-03, -4.8652528202668185e-03,
          9.8293817306323184e-03, -1.6024068457090178e-03,
          -1.1338219936795310e-02, 1.0296945757409555e-02,
          -6.4348345676013665e-03, -2.3562129617277746e-03,
          -5.5543679356605313e+00, 1.7709587858954640e-01,
          -1.9965657901007680e-01, 3.2260182255763437e-01,
          -6.0850238666556900e-01, -4.2859411712390089e-01,
          4.8185109880053073e-01, 3.6960533136673507e-01,
          2.7058648719629563e-01, 1.5940305145036474e-01,
          6.8394251037397616e-02, 3.3382373304233393e-01,
          5.0176041617762131e-02, -3.0251899491529710e-01,
          1.6915236119564558e-01, -1.9264554711898726e-01,
          2.8069216258711699e-01, -2.4200211997119533e-01,
          2.2125200703665754e-01, 7.9512305302732011e-01,
          1.6730663802584755e-01, -4.2455580006385096e-01,
          -3.3263919377169548e-01, 1.3758428267038944e-01,
          3.3522444325908590e-01, 2.3479913732959262e-01,
          1.1045425564005901e-01, 1.5203469714434040e-01,
          -1.7567260925804093e-01, 1.9615583229780287e-01,
          2.7997178275365053e-01, 5.2943547512214395e-01,
          -7.3895014904365522e-03, -1.2628159474521308e-02,
          -2.8303484617952859e-03, -5.2211646731971217e-03,
          -1.4175796390200812e-02, 1.1040706808617403e-02,
          -1.2795127645702392e-02, -4.1420983672680973e-03,
          1.7293782860601317e-03, -1.3534266658364070e-02,
          -6.1686364930119463e-03, 1.3383342368363577e-03,
          4.2046745942048895e-03, 1.4615606652039988e-02,
          4.5583133678758097e-04, 1.1126377038905150e-03,
          -5.9412095150671905e-03, 9.4739188650243191e-03,
          -1.9816333107170164e-03, -8.0026458164945864e-03,
          -3.8247441782293238e-03, 1.4916823204216872e-02,
          1.4980904725373620e-02, 5.9196458480856751e-04,
          -1.3220015967408285e-02, -1.4245872253286584e-02,
          -1.4669015711318064e-02, -1.5460459192073443e-02,
          1.4271788086801910e-02, -5.7685240247313235e-03,
          1.3431033606237864e-02, -7.4474600898240175e-03,
          -1.4431925365025298e+00, 2.1374781421422615e-01,
          -2.2190703775578063e-01, 3.9607181860050916e-01,
          -7.0733263539483027e-01, -4.9903144071871613e-01,
          5.7789082253892488e-01, 4.6389718573100913e-01,
