%YAML:1.0
mlp: !!opencv-ml-ann-mlp
   layer_sizes: !!opencv-matrix
      rows: 1
      cols: 3
      dt: i
      data: [ 37, 32, 3 ]
   activation_function: SIGMOID_SYM
   f_param1: 6.6666666666666663e-01
   f_param2: 1.7159000000000000e+00
   min_val: -9.4999999999999996e-01
   max_val: 9.4999999999999996e-01
   min_val1: -9.7999999999999998e-01
   max_val1: 9.7999999999999998e-01
   training_params:
      train_method: BACKPROP
      dw_scale: 1.0000000000000001e-01
      moment_scale: 1.0000000000000001e-01
      term_criteria: { epsilon:1.0000000000000000e-08, iterations:10000 }
   input_scale: [ 1.3329250196498531e-04, -3.1925375884807501e+00,
       1.0630658623955165e-04, -9.0241357749386863e-01,
       3.7455629471942493e-05, -1.1808243019509854e+00,
       1.2213718038511638e-04, -7.9840871255783274e-01,
       7.9779513429186735e-04, -6.2255943304465866e-01,
       6.6028166429973997e-04, -1.0269250677909805e+00,
       2.1345378606786982e-03, -8.0141223979181719e-01,
       2.7519589582862235e-03, -7.7380499308744799e-01,
       1.0235903390670973e-03, -8.1134888226153468e-01,
       2.6810362472081289e-03, -7.6476558951611873e-01,
       5.2656215348291123e-03, -7.8905338699414240e-01,
       1.4332429900844660e-03, -8.0089618285919950e-01,
       1.8375283642310201e-03, -8.0933936802555273e-01,
       3.7931408252229028e-04, -9.3992133078610918e-01,
       5.5423687958899989e-04, -8.7591596450245546e-01,
       1.1806091113210990e-03, -5.7220188262029270e-01,
       5.8193973898674632e-04, -9.8994738898600387e-01,
       2.6879268408897986e-04, -8.0124411200084011e-01,
       2.5851740485189126e-04, -7.8069671091222648e-01,
       1.7853348361468232e-04, -1.0435341628439387e+00,
       2.0972953951571005e-04, -7.8912486988948538e-01,
       1.6253211920919637e-04, -8.0850248266287994e-01,
       3.4670209144069399e-04, -7.6476125166807352e-01,
       1.2017545129670627e-03, -6.7492536372418521e-01,
       6.6347342845150662e-04, -8.9968102687071716e-01,
       1.5504623163264315e-03, -4.2371551001340835e-01,
       2.7005666701060680e-03, -3.4436725988302541e-01,
       1.2174887275407831e-03, -4.3584067298080803e-01,
       1.4358264271177668e-03, -3.5886088501763386e-01,
       3.5985153948516082e-04, -6.2132566560073677e-01,
       1.0933856755660229e-03, -6.0872425177679057e-01,
       3.6174852829132078e-03, -6.3583332989337815e-01,
       3.8971918962783555e-02, -1.2872424833407409e+01,
       3.9011315946870698e-02, -1.2934201802184980e+01, 1.,
       -2.0491978011190013e-23, 1., -1.7272452879895998e-16, 1.,
       -4.6752356587812712e-24 ]
   output_scale: [ 1.0526315789473684e+00, 0., 1.0526315789473684e+00,
       0., 1.0526315789473684e+00, 0. ]
   inv_output_scale: [ 9.4999999999999996e-01, 0.,
       9.4999999999999996e-01, 0., 9.4999999999999996e-01, 0. ]
   weights:
      - [ 3.1951121455119652e-01, -1.3035181353745840e-02,
          -1.5185842254774537e-01, 5.4944855642584112e-02,
          -7.3503076132381412e-02, -1.9321688167018212e-02,
          3.2626259181837619e-02, 1.2767169434389133e-01,
          -1.0704133015465803e-01, 2.0918512243571363e-01,
          -5.2856766756678963e-01, 2.8193720806369935e-02,
          2.1485094120564968e-01, 1.7686387996807459e-01,
          2.1925355293918308e-01, 1.1546219342646973e-01,
          1.9105761537252161e-01, 1.1203987235147385e-01,
          5.6403284220363933e-02, -3.7649097230624112e-01,
          -7.1440835497000943e-01, 1.2168592893402719e-02,
          1.0228862216575946e-01, -2.8826078468151248e-02,
          8.4623535935439156e-02, -3.2905494324630052e-02,
          -2.4599484026506741e-03, -4.3018436074010936e-02,
          1.4891372726981092e-01, -2.1081725225144557e-01,
          -2.1647307626786502e-01, -7.4959740430765240e-02,
          3.0549062275674660e-01, 3.7430699770949122e-02,
          -1.1139700392425045e-01, 3.3588706271746226e-02,
          7.7055381659792949e-02, -1.2125988603164106e-01,
          9.1862731970701966e-02, -4.2423670243681572e-02,
          -9.2399415232073179e-02, -5.4441164216140210e-02,
          1.8532091617969201e-01, 6.3019520937330584e-02,
          -2.5806679505774012e-02, -5.2389312456459121e-02,
          1.7692166727708675e-01, 7.5286689762850662e-02,
          -3.2326402707437240e-03, -4.0369403761882999e-02,
          -5.6102615593573151e-04, 6.1322916053768106e-02,
          3.5439221539952642e-01, 3.0816346006700673e-01,
          -4.3597571154702398e-02, 4.9775397527972692e-02,
          -5.6676259697702638e-02, -1.8299104653828932e-01,
          -6.2721981893635981e-02, 3.7756076230998047e-02,
          6.1382060491487304e-02, 1.4956227186176088e-01,
          3.9366376277566617e-02, 2.4309783424118197e-02,
          7.9263344712056072e-01, 1.4991547518082179e-01,
          -1.9921989277295019e-01, -2.2815403797680264e-02,
          3.7771687427482259e-01, -3.6564832637244582e-01,
          3.7538672399102073e-02, -5.6775891161663442e-02,
          -1.4354105252924595e-01, -3.0785114818185765e-02,
          1.3897974143469538e-01, 1.9678278585784102e-02,
          1.4563874533348867e-01, -3.0899100064723578e-01,
          3.4115042553102087e-01, 6.8153962752682623e-02,
          1.0916629321996496e-02, -8.9569906275345140e-02,
          1.5863346991938720e-01, 5.7991516377312674e-02,
          5.9657459370811816e-01, 1.0058451916307412e+00,
          -1.4678355602070040e-01, 1.0237097379800941e-01,
          -1.1825110183212101e-01, -5.8744269819968986e-01,
          -7.1162696410168189e-02, 2.2657320626356467e-01,
          -6.3268820602618250e-02, 2.6644391381952942e-01,
          3.5740155725961048e-01, 1.8859806887512384e-01,
          7.1056447320676364e-01, -6.2568422579129283e-03,
          8.2619105587422581e-02, -1.5385457082825515e-01,
          -2.9857951556214679e-01, -2.8857423807562166e-01,
          -1.0462780661177130e-01, 3.0849502109067076e-02,
          2.3959128172634014e-01, 1.6886553266694448e-01,
          -3.3286248603455926e-01, -5.1664228546045611e-02,
          1.4667588899169984e-01, -1.0607077692718880e-01,
          -1.4532228324724814e-01, -1.8129815028103155e-01,
          -2.1574137513428338e-02, 4.0691826517986765e-02,
          2.3639469637167003e-02, -1.8342145064894141e-01,
          2.6776172234545975e-01, 3.7937832371201979e-01,
          -7.9765909597999896e-02, 3.5240422225786432e-02,
          -4.2296659334970725e-02, -4.7610603502661747e-01,
          -4.5619865380692584e-02, 2.4965894127038954e-01,
          -1.5578781420166204e-01, 6.4366220220518827e-02,
          2.3498948267930408e-01, 6.8939989536733776e-02,
          7.6954137564973280e-01, -7.1207383784204659e-02,
          1.9118761163835343e-01, -2.0373392332213217e-01,
          -2.7213981509881646e-01, -3.1281773487176029e-01,
          -1.9160094701448893e-01, 1.5466803936676973e-01,
          4.2008178599570101e-01, 2.3206439383714758e-01,
          -9.7568808862349354e-01, -7.8316601537870040e-02,
          4.2633219221367941e-01, -1.8624608204052384e-01,
          -4.8725450838831363e-01, -2.9756940246014352e-01,
          1.1587468792421191e-01, -3.7902065545367236e-02,
          3.9745097053782368e-02, -1.6608511724158542e-01,
          3.4397313905495819e-01, 4.2990124179380307e-01,
          -1.8246405564681401e-01, -2.6780055125910699e-02,
          -1.7445955298127835e-01, -3.4283324451280667e-01,
          -5.3360670207661338e-02, 3.4690588265154493e-01,
          -3.9798971460366761e-01, -9.7258818600624838e-02,
          1.6554790594908497e-01, 2.0550916833522889e-02,
          -2.0891656113763216e-01, -1.4194081413260201e-01,
          -6.4320337282907911e-02, 5.3686549417589269e-02,
          -3.7838940875569094e-01, 7.5681015698142340e-02,
          2.8830189782572551e-02, 1.4973294052790087e-01,
          1.2915582660056174e-01, 2.9096112975243771e-01,
          -6.8396484777656263e-01, -9.6160584423833878e-04,
          1.1249481600857704e-01, 1.9276335283962251e-01,
          1.3543198279381132e-02, 8.3566451429607901e-03,
          1.0887906977298041e-01, 4.4377994000308105e-02,
          -7.6133916327208437e-02, -5.3086711583513213e-01,
          -3.5239657217070586e-01, -2.0329659129440750e-01,
          1.6931932161598331e-01, -8.2809971577760919e-02,
          5.9613678165539141e-02, -1.1448597994323365e-01,
          3.0533587054709373e-02, -7.8962519405426743e-02,
          9.1864151612987777e-02, -3.7588024871498654e-01,
          -2.6791328123810443e-01, -1.3947594585873518e-01,
          1.9708194533388337e-01, -3.0289503918668359e-01,
          5.1324928750540777e-01, -2.8531527714958482e-01,
          -4.0835113282345403e-01, -2.7771887313393284e-01,
          -3.5655801706616169e-01, 2.3159655229851769e-01,
          6.8708034256725281e-01, 1.5054181328843066e-01,
          -1.2952902333503227e+00, -2.4880759933951938e-01,
          1.1645597260276810e-01, 8.3821720490074914e-02,
          -4.3582107940117171e-01, -5.2845512349109125e-01,
          -4.4675519669327276e-03, 1.2227766927957730e-01,
          -8.0568436191758630e-02, -5.4418377437099497e-01,
          9.9608274541458180e-02, 6.2258303009172178e-01,
          -5.5984440235983535e-02, 1.4354082880508195e-01,
          -1.0108679170041904e-01, -7.0798354915481676e-01,
          6.1508313409399662e-02, 3.5028544604419792e-01,
          -4.7385182932061998e-01, -2.5197077357603143e-01,
          2.1637725880902442e-01, -1.3443647076142193e-01,
          1.0031848741413341e-01, -1.8101337812751994e-01,
          1.3266680683428109e-01, -3.9840390726699704e-02,
          -3.5990513389764872e-01, -3.7420706897618915e-02,
          -5.0551992277437924e-02, 1.6702737190641742e-01,
          2.6437391258415666e-01, 1.5455881965843671e-01,
          -7.1173086630755555e-01, -4.7997733750563557e-02,
          1.0958853046923203e-01, 1.2065323396398187e-01,
          -1.4696937162960344e-01, -1.1113300638195943e-01,
          9.0186223497387918e-02, 2.2136422040072973e-01,
          -1.1308487765927248e-01, -3.5029394399549346e-01,
          -4.5050343666427767e-02, 1.7881795125202782e-01,
          1.0160230103204007e-01, 5.1655307375081559e-03,
          6.3568792154638731e-02, -1.5384964732835890e-01,
          3.5189020468261986e-02, 8.4580996342920503e-02,
          -1.2227062894745379e-01, -1.4407309654854619e-01,
          -1.3545686815208752e-02, -7.0319960504039727e-02,
          -1.4567804469712994e-01, -2.6139832057307702e-04,
          -3.8505388993888534e-01, 1.3110376867652912e-01,
          -3.4302511181977546e-01, 2.1140099371520282e-01,
          3.3704005731425035e-01, 9.7033076844101382e-02,
          -1.5315811873729621e-01, 1.8335642627365117e-01,
          -6.5336514287075903e-02, 1.5939109692437706e-01,
          2.9454858354226399e-01, 9.1216112333980776e-02,
          5.6916295426835606e-01, 2.0162168005079581e-01,
          1.9330908760134613e-01, 1.9917737059979107e-01,
          -7.5758937687815317e-02, -1.0014214631467103e-01,
          3.6386563943380350e-02, -6.2556551045248654e-01,
          2.0890751221719017e-01, -2.4057543154163138e-01,
          1.8491910160092301e-01, 4.0126323761604898e-01,
          -5.4568734492826787e-02, -6.4031449896257309e-02,
          2.2310094490094251e-01, -3.3716463388639421e-02,
          -2.4497210957093332e-01, 4.1471900038844926e-02,
          1.6902617615986296e-01, -4.1932683429035916e-02,
          -5.9622571228762127e-02, -2.5149212277654823e-02,
          -2.5102454661897150e-01, 6.8668898330869435e-02,
          4.1118145666310356e-02, 7.9757018819667833e-02,
          -1.6647081886387741e-01, 1.5443454107781779e-01,
          -3.7913084696900312e-01, -1.4648601805951589e-02,
          1.5398732150530722e-01, 8.0183806063095414e-02,
          1.9215148830266679e-01, 1.1530224305188277e-01,
          1.9189777135403838e-01, 2.5932889363596523e-01,
          -9.3842929613356538e-02, -2.6221826476917609e-01,
          -3.1740325320563545e-01, -2.5714902958963110e-01,
          1.0901849213403494e-01, -1.3391261740709184e-01,
          1.4097978728314900e-01, 1.4517840361806028e-01,
          -8.1094085783276926e-02, -7.8721961683367397e-02,
          1.1096999058247276e-01, -1.0661791203377070e-01,
          -1.7473745674654179e-01, -1.4132749217446935e-02,
          1.2848809499927086e-01, -1.2478790346595749e-01,
          1.4350393315504207e-02, -6.4459650012833117e-02,
          -1.7710409177974715e-01, 5.6704980095159056e-02,
          4.9415779482345851e-02, 1.2899684546602733e-01,
          -8.9475631712688644e-02, 1.9946910669305315e-01,
          -3.7318775892228234e-01, 2.6854363288023798e-02,
          5.8817075343095458e-02, 1.0111266559348529e-01,
          1.2583694332470235e-01, 6.8091574589406165e-02,
          1.2843984287168062e-01, 2.2589345294153804e-01,
          -3.4477862355728132e-02, -1.9039972569265287e-01,
          -1.9818082346029062e-01, -2.1778180475914205e-01,
          1.2141867336873169e-01, -9.3769550736569340e-02,
          1.4661231089236687e-01, 1.0245414067472247e-01,
          -6.6525288895278922e-02, 1.4599370676851119e-02,
          5.4405449595950721e-02, -5.8611529627135561e-03,
          -3.3911770740759774e-02, -3.4956884484801755e-02,
          -4.7102364187977391e-02, -8.6028201538580026e-02,
          -5.8180745379477691e-02, 7.8154077466036434e-02,
          -1.5166845172917626e-01, 1.2826997128167300e-01,
          1.2264723702022566e-01, 6.7174145099175006e-02,
          -2.3118247497268714e-02, 7.6340554185252651e-02,
          -3.6425886793445111e-01, 8.6219152522182915e-02,
          4.0343550433059774e-02, 8.4061073801391634e-02,
          2.3104880656428611e-01, 1.2124675843051426e-01,
          5.0239909137102148e-02, 2.2794396406183934e-01,
          -1.1328738065735917e-01, -1.3920223071685378e-01,
          -2.1619220938129485e-01, -2.0882121383244681e-01,
          1.0454484564115907e-01, -1.2376082805930898e-01,
          2.2506812581775207e-01, 1.3838946927641496e-01,
          -4.5339897958852203e-02, -1.3184116337232613e-01,
          1.8098916175663984e-01, -2.2202880118496655e-02,
          -6.0097573232788644e-02, -1.0655648913822371e-01,
          -1.1583722843390569e-01, -1.2683152082359481e-01,
          2.4325818938889407e-01, -6.4136578382547299e-02,
          -1.7144240563228094e-01, 2.0153664055671872e-02,
          -6.7462703838577540e-02, -1.4938881547036601e-02,
          1.6477122997623432e-02, 1.5002053982256039e-01,
          -5.4183256559555770e-01, -5.6416810965653562e-02,
          -1.8181840310823175e-01, 1.0054025199946265e-01,
          4.9325977569128931e-02, -5.8135839000032948e-02,
          -2.0860933063852713e-02, 2.2690064218217296e-01,
          -1.0433565649041987e-01, -2.5576228594354405e-01,
          -1.9059539364335934e-01, 5.1161909907143428e-02,
          -1.9924495935994841e-02, 4.0533507022906798e-02,
          1.5713167901428235e-01, -1.4958915008858195e-01,
          6.8851339317831887e-03, -5.2795498031707869e-02,
          9.2544858226538629e-02, -7.3539724375386403e-02,
          3.7957812721917158e-02, -1.4834696193653132e-01,
          -1.1982628533880814e-01, -9.9714168733065336e-02,
          2.5738715718203443e-02, 1.0084535161467997e-02,
          -2.2744446741147895e-01, 6.4372833261778700e-02,
          -6.3750748425323814e-02, 1.0588515411836730e-01,
          -7.2358814313583306e-02, 1.8450403160670975e-01,
          -7.1201524362002366e-01, 4.8188167811474815e-02,
          -5.7179044360789494e-02, 1.1885106995911945e-01,
          -2.7801609992586247e-02, -8.8590424968180946e-03,
          2.8679582232171524e-02, 8.6069287691233023e-02,
          -1.3845653546804379e-02, -3.9006486663441214e-01,
          -2.7812981872712367e-01, -5.1522855388804967e-01,
          1.7286499102910049e-02, -5.0142276559798797e-02,
          9.7284460335471085e-02, 1.9163953194568173e-01,
          4.3069376760543635e-02, -1.1957802930965519e-01,
          6.3514311961748893e-02, -1.7711648794869589e-01,
          -3.3353567811052753e-01, -1.5848555944491416e-01,
          -3.3912821166572960e-01, -1.2753084782450994e-01,
          9.7214414171548053e-02, -2.5194805566430421e-02,
          -6.0627471004742813e-02, 8.6129582404880778e-02,
          4.0162637192289269e-02, -2.4092084594351321e-02,
          5.8002140945269797e-03, -6.5220677393480525e-04,
          -2.2161138241673534e-01, 5.5874959885964498e-02,
          -3.0573108874537139e-02, 7.6639637173866543e-02,
          -7.7972117014503795e-02, -1.1316587488471044e-01,
          1.5913214829864446e-02, 1.6436495802876061e-01,
          -1.3670891365350224e-01, -1.8344856659991085e-01,
          4.7863290728300624e-02, -2.3313146357012762e-01,
          5.2521019529578753e-03, -8.5554854345156098e-02,
          1.8242248234429170e-01, 9.2742992541344577e-02,
          -2.4234555817498199e-02, -8.0663901464330126e-02,
          9.7183262082572969e-02, -1.3828691075100683e-02,
          4.7542253051237895e-02, -1.7874275946193847e-02,
          -3.6372354389225747e-01, -1.0409024496941584e-01,
          2.4611940330308518e-01, -6.8271023438912323e-02,
          -1.7548827743708517e-01, 1.9645663320934606e-01,
          -4.8067452310806960e-02, -6.1993709730832791e-02,
          -8.1027184539902875e-02, 5.1533714194815596e-02,
          1.5139839402684904e-01, 2.0662821460970017e-02,
          -1.4051203333818038e-01, 2.6735064422744533e-02,
          -1.0811093316131799e-01, -1.2373189228355640e-01,
          -3.6394995470518700e-02, -3.4578411513827025e-03,
          -3.8935262080087407e-02, 8.5542290081854294e-02,
          -1.4103820236258410e-01, -2.7431922386738034e-01,
          6.4535186295996061e-04, -4.3925218287660106e-02,
          3.3951140632165464e-02, 1.7760917304098839e-01,
          -1.8098940228758555e-02, -9.4812226348771914e-02,
          3.1702841871271537e-02, -4.7442630257428897e-02,
          -3.2235210030801507e-02, -2.0405408271434904e-03,
          -4.4216733867809715e-01, -1.4845057971477005e-02,
          1.2938847658122263e-01, -1.2859068499839168e-02,
          -2.5006707185464938e-01, 2.4375670276997888e-01,
          3.0742941285464846e-02, -7.1000033527301137e-02,
          -1.7773728872694219e-01, -5.4674096557958581e-02,
          3.2943558096993203e-01, 3.7505924135165736e-02,
          -1.3747186289311830e-01, -3.4995966361588630e-02,
          -1.0323600267041512e-01, -6.1433685263459409e-02,
          -1.0269140688208461e-01, 7.8243499491139061e-04,
          -1.2913437599732977e-01, 1.1185076094746520e-01,
          -1.4590448986944290e-01, -2.2503172981495856e-01,
          3.4563018999910600e-02, -6.1364285038742868e-02,
          9.3557978988067531e-02, 1.7844049701437226e-01,
          6.3846504472369350e-02, -1.9639440093172769e-01,
          1.0879704361175255e-01, -4.2679701023037107e-02,
          -4.0070160413510192e-02, 8.1425132734192669e-03,
          -4.3262530296954510e-01, -1.3143093226300646e-02,
          2.4819955034527691e-01, 1.7569342359326445e-02,
          -5.7864904172835449e-02, 2.3565336332901596e-01,
          -2.5224039183605031e-02, 3.9449007328612222e-02,
          -1.3670515552162940e-01, 7.5916933845186635e-02,
          2.4853192151944972e-01, -4.1899406107634297e-02,
          -1.6916048148129825e-01, 1.0835630599152044e-01,
          -3.7864140143149094e-01, -7.2417643169180923e-02,
          -2.2568156148634590e-02, -1.8486946728269216e-02,
          -1.5965138347754004e-01, 5.5186520694057814e-02,
          -3.1747789820502959e-01, -3.7186503609354632e-01,
          2.5648758719640542e-02, -4.0947318536894900e-02,
          1.1071026941152211e-01, 3.1176229932811811e-01,
          8.0423251517972666e-02, -1.8719784475600662e-01,
          8.3176681206953276e-02, -1.6685546178119218e-01,
          -1.3097881836473332e-01, -8.6835037079896274e-02,
          -3.7460931818681886e-01, -8.4091677220704975e-03,
          1.5390783772654973e-01, -1.9732334026654551e-02,
          -1.2717414675440367e-01, 1.6623513132867224e-01,
          -5.5604844777367178e-02, 7.9085581358084144e-03,
          -9.3187548706981427e-02, -9.0639050144740663e-02,
          4.3534698908484665e-01, -9.4788326539259789e-03,
          -2.8760876083085935e-02, 1.9468121339951362e-05,
          -4.0077308459647465e-01, -9.7214755421101820e-02,
          -7.8893428373308858e-02, -1.2490702140488030e-02,
          -5.0522950319398189e-03, 2.3156072527264135e-01,
          -2.6334912525035004e-01, -5.5631874421096850e-01,
          -7.4931643573158735e-02, -8.3149259364139957e-02,
          4.4339463282368118e-02, 4.5258403516960405e-01,
          -2.2730952040216447e-02, -1.3834425447336424e-01,
          5.2225185516321215e-02, -7.9648042037277503e-02,
          -2.5912196207569443e-02, -5.8425174282569513e-02,
          -1.3922454058077535e-01, -1.4528560802357415e-01,
          2.9898961773841237e-01, -1.1159065267483431e-01,
          -1.9423163321898076e-01, 4.6022456742900918e-02,
          -1.8317979750070582e-01, 9.5896582933462982e-02,
          3.5183878678964789e-02, -6.9250826952456407e-02,
          -5.4003223581022741e-01, -1.5943782025844608e-01,
          -2.1540487332844382e-01, 5.8924549924221012e-02,
          -3.7373452385669936e-01, -2.0686721698835669e-01,
          -2.5796243835555215e-02, -3.1397204952062663e-02,
          -3.5124263177898712e-02, -2.0751186817242973e-01,
          -8.2902585824171843e-02, -3.6239319037129830e-01,
          -4.7718905226768929e-02, 5.5196901191738021e-02,
          -7.4046919780420939e-02, 1.8015415302837137e-01,
          2.1190556437105202e-02, -9.7163553098331204e-02,
          -1.7515202189099502e-01, -2.1287839043486506e-01,
          -2.7472845042764615e-01, -1.1715726534185919e-01,
          -2.3764145310057841e-01, -2.5611330212497261e-02,
          3.1137443179580060e-01, -1.6678520260389001e-01,
          -4.2182510959507917e-02, 3.3909569869862266e-02,
          -1.1358892993868845e-01, 9.1573321876260549e-02,
          2.3587211748315823e-01, -1.6148924095294642e-01,
          -6.9017917175645691e-02, -1.5291545174809953e-01,
          -2.5593889799629738e-01, 1.8307017715858628e-02,
          -5.9918277437700651e-01, -2.1205283278426679e-01,
          -1.1021078379842411e-01, -8.6896016430484738e-02,
          -1.0797999114687401e-01, 9.7478328044753426e-02,
          -2.7073736489222167e-01, -1.5518276480189344e-01,
          -6.6964741074064416e-02, 4.8682120121501395e-02,
          -7.9006618671337722e-02, 9.8820240169123386e-02,
          9.7105473217001928e-02, -2.6077024801465062e-02,
          -1.3671009520018376e-01, -1.6516521966000861e-01,
          -3.1604324029214759e-02, -9.5356936121487407e-02,
          -2.1197244496482701e-01, -6.7179827054274915e-02,
          3.4309154416300301e-02, 9.4544119164268504e-03,
          -1.4718760701763092e-01, 1.7491051412625136e-01,
          -4.5613212731964357e-02, 8.3899313844267617e-02,
          1.1758903275894685e-01, -9.8462035771074541e-02,
          -3.9693701437354195e-01, -6.1024562538413048e-02,
          -3.0468660602477545e-02, 2.8315731401003359e-02,
          -8.1739271278607445e-02, -2.1392517782180195e-02,
          5.0100377379996256e-04, 6.0182169132762933e-02,
          -5.1943142433031796e-02, -3.9692103737144775e-02,
          -6.3973117303737315e-01, -7.3152827694278710e-01,
          6.9716740297494556e-02, -7.8192864341894722e-02,
          8.6652499146406964e-02, 4.5085842725980363e-01,
          5.1045548753226463e-02, -1.3903622490895579e-01,
          4.9967335739855949e-03, -1.0160850176126120e-01,
          -4.2252106825718827e-01, -2.4597830800758891e-02,
          -1.6946529839306695e-01, -8.4260908633528156e-02,
          2.0852476606745948e-01, -1.0115717835407127e-01,
          -1.5232300947215582e-01, 8.9929186200051317e-02,
          -1.7846686329040178e-02, 6.2189918793881950e-02,
          1.4035953767446160e-01, -1.3076286853204958e-01,
          -1.8340122998545885e-02, -1.2635245429899911e-01,
          -2.1996695005966799e-01, 4.9476803423763975e-02,
          -5.8460477856904391e-01, -7.6531141330735089e-02,
          -6.7161239885033308e-02, -9.3514643014916674e-02,
          -3.6532123270859959e-02, 1.5273544341880260e-01,
          -1.9620162002062883e-01, -4.7402918957109208e-01,
          -5.1223228596760109e-02, -6.9767595486519840e-02,
          -2.6839299072150810e-02, 2.8338490454991150e-01,
          4.4515538492211952e-02, -5.5877630370329043e-02,
          -1.0552059034732893e-01, -8.3645483361536765e-02,
          -7.1347347682720372e-02, -2.3937860277742699e-02,
          -3.3069020930669474e-01, 7.7094461281109533e-03,
          3.1345045486718917e-02, -7.1312070376556069e-02,
          -7.6252260039861269e-02, 1.9743257820801108e-01,
          1.3275298316800160e-01, -5.0331286933771965e-02,
          5.8609826803726955e-03, 1.0354382315739874e-01,
          1.2295475585424377e-01, -1.0702638400814872e-01,
          1.0499070899841578e-01, -6.1051823722798750e-02,
          -8.6879868453979228e-02, -5.9245461294786646e-02,
          -1.1561537363112342e-03, -1.2705657362503114e-01,
          -5.7733634197564360e-02, 1.5873046965403079e-01,
          2.6146306214312978e-02, -2.7042381314409414e-01,
          7.5463708389121795e-02, -5.4682738494111469e-02,
          -7.1172965433015337e-02, 3.9362165325347415e-01,
          1.0349448439539945e-02, 5.3162788254050949e-02,
          -3.9892835922411538e-02, -7.9752386376543069e-02,
          5.6590511864230301e-02, 4.5992795132891076e-02,
          -2.3439360405396481e-01, -1.3307981544798306e-01,
          5.8938493458502604e-03, -1.4515111704489233e-02,
          -2.2958092187132809e-01, -6.7553688769152145e-02,
          3.7328165885157569e-02, 3.0539336191795958e-02,
          1.5959066313312584e-01, 1.1698928288917707e-01,
          -2.8950371774784411e-01, -1.2231848207769065e-01,
          -1.8888170582870401e-02, 5.9510722431123604e-02,
          -1.2037491422728226e-01, -2.6386598871495835e-02,
          6.1612603842846884e-02, -5.9973620055743353e-02,
          -9.4651431989170060e-02, -3.5137779209316503e-02,
          2.0476144447389355e-01, -2.4392627599828390e-01,
          -2.9616517040878546e-02, -4.0552522648643983e-03,
          -5.0062423335945752e-02, 1.1379653917311293e-01,
          1.0745003831753780e-02, -6.5622570189377075e-02,
          -1.4235060527622517e-01, -1.1760194484302711e-01,
          -1.1343897067257362e-01, 1.0637407266147564e-01,
          -6.4689488542385998e-01, -2.8966280736501367e-02,
          2.0153166116482395e-04, 1.4177139304206191e-01,
          3.1445467400503045e-02, 2.0389986623504985e-01,
          1.0019043014274863e-01, -6.2463483098363540e-02,
          2.7953594077240240e-01, 8.2420382246350274e-02,
          -1.3707401800343705e-01, -9.1557524360945497e-02,
          -2.0791465070098797e-01, 1.3396323182455760e-01,
          -4.6631573591256981e-01, 1.4420600172296255e-01,
          1.5652713391166955e-02, 4.3168972729279255e-02,
          -2.1706116631438185e-01, -1.8955209821601413e-02,
          -1.2642171719224576e-01, -2.9057581703625202e-02,
          2.2802080315509826e-01, -1.2337508388129390e-01,
          6.0291798050501014e-02, 6.8979644433983925e-02,
          8.4101544039179424e-02, -7.7358054446892643e-02,
          5.7664452667851043e-02, -4.6906001358255588e-02,
          2.1996969758739712e-02, -4.6532463025037699e-04,
          -6.3391156159737627e-01, -9.5720358139111214e-02,
          -1.3210792737170285e-01, 3.2049649738244673e-02,
          -6.8468968514672230e-03, 1.8159387907242244e-01,
          2.2067364109036641e-01, 2.5779177264028575e-03,
          1.8159092945377045e-01, 1.8614560362362376e-01,
          -1.6627945580062479e-02, -1.2507406447001324e-01,
          -2.0407996679063067e-01, 2.1812244287248880e-01,
          -4.4127295133724370e-01, 1.9352433306021521e-01,
          1.3882644034636038e-01, -9.2058974142262592e-02,
          -1.9158427182548984e-01, 2.0929736436073754e-02,
          4.2604021892871255e-02, -2.9793855913351269e-01,
          3.3292881844964600e-01, -1.5750464335211897e-01,
          8.7667826899134234e-05, 2.5463415030017267e-01,
          1.1829787616119965e-01, -6.0115479025344441e-02,
          1.6195425355505076e-02, -1.2093157032681855e-01,
          -7.9711692880222493e-02, 4.0382757487805211e-02,
          -5.9339814207365715e-01, -2.1321871364343231e-01,
          -1.1821951631619251e-01, 6.2636615583018154e-02,
          -1.5355606159466093e-01, 6.1924365966015679e-02,
          1.0866963194680263e-01, 7.9151067280707477e-02,
          3.1282187801863726e-01, 1.2099955295651642e-01,
          -2.2970050595865721e-01, -1.1827526979171592e-01,
          -9.0131815286947595e-02, 1.0378023686560901e-01,
          -3.0331452060038222e-01, 1.0188521748843635e-01,
          1.0740386434054056e-01, -1.6673985251141743e-01,
          -2.4434940711597891e-01, -1.1040510839714064e-01,
          1.9441444489067233e-01, 6.6368683066104064e-02,
          1.0935823823716125e-01, -1.2402205957251676e-01,
          -6.6988824443133282e-02, 8.6501607546684636e-02,
          1.2823005093179454e-01, 2.5848265388382623e-02,
          -1.9879459122919421e-01, -2.7707101237472512e-02,
          6.2337539962368696e-02, 1.1318003308461094e-01,
          -6.6320246193365096e-01, -7.8754490353664164e-02,
          -1.2012158945486895e-01, -8.9746932946397920e-02,
          -8.2857821167085566e-02, 1.0546671588089626e-01,
          1.3538769520225738e-01, 9.8056828089876841e-02,
          2.1955795264763092e-01, 2.8377170496284493e-01,
          -9.1610814260169288e-02, -2.1646072551016579e-01,
          -1.6975108908433817e-01, 1.7123477302924028e-01,
          -3.8324401888164833e-01, 1.0755005979365351e-01,
          1.3490907111741943e-01, -5.2848424253912174e-02,
          -1.6887122102092905e-01, -3.2387015794417592e-02,
          1.4284651610516022e-01, -1.4984553919498983e-01,
          2.2733864859290867e-01, -9.8938027167196574e-02,
          9.6093014554765061e-03, 1.8517390792985639e-01,
          1.5972069989535601e-01, -1.8363142036955625e-02,
          -9.8249124185595518e-02, -2.3965351089098269e-01,
          -1.6833915145111236e-01, 5.6275552968710625e-02,
          -5.8842060923329187e-01, -1.1757650877669767e-01,
          -1.5314184371355560e-01, 4.5411313302233039e-02,
          -1.8166123622379479e-01, 1.9247398189355652e-01,
          1.2091714645163985e-01, 9.9692223139085309e-02,
          3.9052573907806330e-02, 1.7619358254512760e-01,
          -1.8039537995313562e-01, -1.4154091468877372e-02,
          7.2087692520644953e-02, 2.6631176959232145e-01,
          6.9061674636030065e-02, 7.0418247503694048e-02,
          1.4059441534150968e-01, 9.4472022922834617e-02,
          -7.2641168850513846e-02, -2.4173765827894383e-01,
          -6.8853264420849880e-01, -5.1218310094985398e-01,
          1.6976261936289286e-01, -4.9537640060129874e-02,
          1.1257289386684323e-01, 3.3263870940583673e-01,
          1.6800744035297559e-02, -2.1524280287586894e-01,
          1.6923379564913865e-01, -2.9881882681361938e-01,
          -5.4787454259712887e-01, 5.5677339604173039e-03,
          -3.9884611413280213e-01, -2.6585547338129034e-01,
          1.3387121781320155e-01, -9.4877172361176834e-02,
          -2.9359997384370723e-01, -2.2171254581064426e-01,
          -1.0298016038527413e-01, 1.5653665915983134e-01,
          4.5262538527808088e-01, 2.1048759886790813e-01,
          -6.0010749466800906e-01, -2.2297246333942003e-01,
          -3.4921461730571993e-02, 2.2770285652803016e-01,
          -4.7728973996496110e-01, -2.4280774721109238e-01,
          5.6424710813952859e-02, -2.1296363537458418e-01,
          -1.3713012150430648e-01, -2.5177935977508303e-01,
          -1.9511581520750870e-02, 3.6991558499106691e-01,
          3.1224035947089047e-03, 2.1553614152296407e-02,
          -1.8633971320559284e-01, -1.9088662256147887e-01,
          5.9037682369575489e-02, 1.1857437462885834e-01,
          -2.9483740267980851e-01, -1.3547901446784277e-01,
          4.1988833452952248e-02, 2.6962626922549970e-02,
          -1.6997089452055611e-01, -1.6988588581811268e-01,
          2.3272029177985654e-02, -7.0111883567907152e-02,
          -3.0648247382160160e-01, -2.0502669436201304e-01,
          5.0302658213487887e-02, 1.0007455738649824e-01,
          2.6174155574893848e-01, 1.8501444805344389e-01,
          -4.6910213001741097e-01, -8.3295090661682086e-02,
          9.4974035924918945e-02, 2.8531566434091001e-02,
          -2.7518902995980510e-01, -1.7104829513312256e-01,
          1.3349087702553014e-01, -2.1947163273141394e-02,
          -8.6295941078654653e-02, 3.2908662369025433e-02,
          3.8564177336178040e-01, 1.5290805287560219e-01,
          6.1808341712301179e-02, -8.0735085222915878e-02,
          -8.7114761998866613e-02, -7.5367869162427700e-02,
          1.0363198902435485e-01, 2.2625581597783112e-01,
          -2.4510269379116870e-01, 3.6851600694075011e-02,
          2.7135340644679201e-01, 1.3724240896623019e-01,
          1.0020021594227089e+00, -1.1039457255457611e-02,
          1.4563657331579324e-01, -1.3270604220820226e-01,
          -3.5620076766695673e-02, -6.0401038801980123e-01,
          -1.1770318725446373e-01, 7.1817614084451808e-02,
          1.3276816411485620e-01, 7.2013226500199229e-02,
          -8.0384280064898306e-01, -2.0354274531248020e-02,
          1.3588356578376812e-01, -2.8586309340571020e-01,
          -1.7764621654942755e-01, -3.3360032902427428e-01,
          8.0363205163995532e-02, -3.5675583964402048e-02,
          1.7532436798796688e-01, -3.0401656067288668e-01,
          2.2226615448885301e-01, 1.0970251526407548e+00,
          -2.2398591134881071e-01, 7.1847822023300104e-02,
          -2.1555089709229333e-01, -9.0269643348252326e-01,
          -6.0660170380605255e-02, 4.5091587936231081e-01,
          -2.6464093202746097e-01, 8.1527381798429346e-02,
          3.8950474606742425e-01, 8.7219923786107323e-02,
          1.0237142782035853e+00, 5.3176058602118124e-02,
          -7.7190457617467456e-02, -1.2290243249957109e-03,
          1.1915557869802498e-01, -4.3582579696073787e-01,
          9.3926373861978246e-02, 1.1481727587083816e-02,
          -1.7455155699679328e-01, 1.3396223707374205e-01,
          -5.1774365617982732e-01, 9.5018480922142837e-02,
          1.7816472359985250e-01, -8.4860405453363957e-02,
          1.4023249468814579e-03, -7.4748015644536342e-02,
          8.0094537887918441e-02, -9.7789827804803855e-03,
          1.2153159971613649e-01, -1.9101885939277927e-01,
          1.3411988868118929e-01, 7.9840119888128980e-01,
          -7.6852745717181856e-02, -3.2131376233798171e-02,
          -1.0639409466521459e-01, -6.4337126408892675e-01,
          -1.3594596710141590e-01, 2.6676252783757165e-01,
          -8.3516290480317210e-02, 1.2704008631949121e-01,
          2.1230741223355518e-01, 1.0390092607346545e-01,
          3.5201798134024079e-03, 1.8369600383225500e-02,
          5.0948575675297751e-02, -5.4769473398776393e-03,
          1.6007489551438232e-02, -4.6248570438595232e-02,
          2.6512885640379083e-02, -1.2044169388278391e-02,
          2.5907660022628835e-02, 5.2172361296761088e-02,
          -3.0149936058242465e-02, -1.6736635383541632e-02,
          -1.6627138737330398e-02, -2.3766600012440360e-02,
          -7.6430328157741584e-03, -7.3662516548793052e-03,
          4.2738044181125520e-02, 6.4784177248436063e-03,
          -3.6234127513021122e-04, 4.0620583547131307e-02,
          3.3448397981984256e-02, -1.8958015635241774e-02,
          2.7206593401485155e-02, 3.9036474533532414e-02,
          4.5944839940223768e-02, -1.3345438988353707e-02,
          2.9060365756946697e-02, -1.5279699777200588e-02,
          -5.3992843910472009e-02, 2.4821552638146199e-02,
          -2.8779340270392823e-02, 2.3595139383740239e-02,
          -1.8432871879299463e-02, 4.8974503991220095e-02,
          -1.7870788315253287e-02, 6.2703403878002746e-03,
          5.1880940881427529e-02, -1.9213017552468500e-02,
          3.3830840862493987e-02, -2.8396221998565618e-02,
          1.7404095274394366e-02, 3.2543513292575321e-02,
          -3.3639075177816218e-02, -2.3332060825292111e-02,
          1.5189403531334113e-02, -1.7861690896067331e-02,
          2.5473154703550740e-02, 1.4607173329548348e-02,
          -4.5206203039765060e-02, 4.4195516699560844e-02,
          5.1219664088291379e-02, -3.1608922989743986e-02,
          3.4658307188740987e-02, -2.6836351550629613e-02,
          -4.6067758278991143e-02, -3.3431421209806036e-02,
          4.3112281677666127e-02, 4.1128257537120454e-02,
          -2.3010875157013573e-03, -5.3790619124436584e-02,
          -5.3166998616540721e-03, -1.4120937518488679e-02,
          -3.1988412147305280e-02, -3.1552259997619299e-02,
          -3.5407031604754551e-02, 8.9347059500106043e-03,
          -8.8422003040341396e-03, -4.5631197919708391e-02,
          5.0375961970113205e-03, 4.6353170351235318e-02,
          1.8415978696821753e-02, 3.4888769010639947e-02,
          6.1495335355040426e-03, 4.0848947006898985e-02,
          4.6406671593881489e-02, -4.9099837080828317e-03,
          -2.0765140336409797e-02, -4.8769447267933058e-02,
          3.4077905600086444e-02, -4.6195860389073681e-02,
          -9.9008097904192890e-03, 3.7505442153204220e-02,
          -5.1005668545725698e-02, -1.6588970772126406e-02,
          -2.6563337676834508e-02, -3.3312742688706536e-02,
          -9.6457389904852642e-03, 3.8012555257149513e-02,
          3.8980015684033517e-02, -5.8974554727003108e-04,
          -8.5043292253970306e-03, -1.8494262638401017e-02,
          -2.4610420766033786e-02, -4.4767331287787891e-02,
          -4.0536713229401139e-02, -1.5478500716331372e-02,
          -2.0836223655956343e-01, 1.4664337148099788e-01,
          -2.8346231897581364e-01, 2.6631191391431719e-02,
          1.1142125267662835e-01, -1.0380529014959647e-01,
          3.2486586416324387e-01, -6.7662143452513229e-02,
          -3.3203241336201761e-01, 1.1725338257008476e-01,
          -4.8738334013451001e-01, 7.8801833995398290e-03,
          2.2954295524113300e-01, -8.6632049233653960e-02,
          3.2380996153360092e-01, 8.7561363078149740e-02,
          8.7432571601167616e-02, 1.5390287288015206e-01,
          9.3510514137780942e-02, -1.5994679266001285e-01,
          -5.1304157463703914e-01, 1.0764460476948656e+00,
          9.3341058655311102e-02, 1.3902640480090685e-03,
          1.0726029304493520e-01, -4.8606489958067711e-01,
          -5.6856768100114113e-02, 1.5836705206308704e-01,
          2.4608184504635686e-01, -5.7628149985782681e-02,
          1.3841705728054873e-01, 1.3710298358718395e-01 ]
      - [ -3.0505663240544399e-02, 1.7134573097743869e-01,
          2.7309187851159444e-02, -3.2048325822839346e-01,
          -4.5309478191964361e-02, -6.4193815390068729e-02,
          -2.6446433827298799e-01, 5.8951567577767816e-02,
          1.1330329035710847e-01, 3.0739098481866012e-01,
          1.9469930069137640e-02, 1.8815377246544238e-01,
          -6.5495703316429466e-01, -1.0535057618363543e-01,
          5.3399940480809782e-01, 3.6018846060812654e-01,
          -5.1054878564113428e-02, 2.9267129853416469e-02,
          -1.0460488906331074e-01, -9.4969554394788616e-02,
          -5.3988313279187898e-02, -4.3758397409115607e-02,
          1.6718731652444727e-02, -1.3480598647342154e-01,
          3.2954313180327532e-01, -3.1045186951529574e-01,
          2.4321521188649969e-01, -5.7039333454111407e-01,
          2.6846539241039036e-01, -2.8368947637515829e-01,
          7.5406302399283953e-01, 4.6969102866793017e-01,
          -8.2443361854402730e-01, 3.9287470470739505e-01,
          1.0817979772699177e-01, 8.2285720880467969e-02,
          4.9855990993003724e-01, 1.6716576903825539e-01,
          -3.3351424069164864e-01, 3.9699727525747911e-03,
          1.9754833051922333e-01, 2.4926460178753493e-01,
          7.0290360632715865e-01, -5.7012926635209980e-02,
          -8.4880647256592245e-01, 3.1474448679408573e-02,
          1.7150733097947538e-01, 2.1968088677730069e-01,
          -5.1919807184739722e-02, 1.4057283959385727e-01,
          -5.4722632570892611e-02, -2.2315018600829364e-01,
          -3.8736303963662028e-01, 1.2450016937507304e-01,
          -1.2124827084251942e-01, 5.2969631190438661e-02,
          -1.9360080515998374e-01, -3.4867476843659279e-01,
          -3.3010465725452537e-01, -2.0616158712969093e-01,
          5.5967570075659046e-01, -4.9560479624942456e-02,
          -1.0013239028404024e+00, -8.8432640930599465e-02,
          -8.6209670401567040e-01, 1.2388543544048298e+00,
          -3.9394263496712562e-01, -2.1358742686569582e-01,
          1.2248815304715940e-01, -3.1693642950167394e-01,
          1.8429863448351756e-02, -2.9043199875525387e-02,
          9.1708599105413107e-03, -2.1958307649479894e-01,
          1.0899185287645428e-01, 6.2186037474763622e-01,
          3.7377061634926356e-01, -6.5619512276484182e-01,
          -1.4663961161777678e-01, -9.2501250003940952e-02,
          -6.8805736179259527e-03, 1.5179031242597915e-01,
          -8.5349641010367544e-02, -1.7584633945137820e-01,
          -2.9922685175430197e-01, -2.6349620256968542e-01,
          1.1019039927225084e-01, 5.6323623785708254e-01,
          -1.9124003672137163e-01, 1.2365843021770223e-01,
          8.0697376681819455e-01, -2.3671124244318528e-01,
          -7.3938654762928185e-02, 1.4711208168149353e-01,
          -5.7432003657286651e-02, -8.7955406456001237e-02,
          -6.5397679299562639e-01, -1.7094519240869732e-01,
          -9.0460111919612607e-01 ]
