%YAML:1.0
mlp: !!opencv-ml-ann-mlp
   layer_sizes: !!opencv-matrix
      rows: 1
      cols: 3
      dt: i
      data: [ 133, 32, 3 ]
   activation_function: SIGMOID_SYM
   f_param1: 6.6666666666666663e-01
   f_param2: 1.7159000000000000e+00
   min_val: -9.4999999999999996e-01
   max_val: 9.4999999999999996e-01
   min_val1: -9.7999999999999998e-01
   max_val1: 9.7999999999999998e-01
   training_params:
      train_method: BACKPROP
      dw_scale: 1.0000000000000001e-01
      moment_scale: 1.0000000000000001e-01
      term_criteria: { epsilon:9.9999999999999995e-07, iterations:10000 }
   input_scale: [ 1.3258574530169894e-04, -3.0030273553598907e+00,
       5.4325091313768619e-03, -9.6472307991367445e-01,
       2.4862258523937462e-03, -1.0685384342612922e+00,
       1.3123255878585702e-03, -9.1114765565020528e-01,
       1.2803251967195045e-03, -1.3329892398112335e+00,
       9.4795418410618384e-04, -1.0178816044204166e+00,
       1.0809275257084566e-03, -9.5496343804589778e-01,
       1.3850449423229248e-04, -7.6044738354121588e-01,
       1.3844587562626134e-04, -8.2030796510442150e-01,
       6.3589811306962561e-05, -9.9145842333212986e-01,
       1.5329655699713464e-04, -9.6920726184391737e-01,
       2.0135225139784787e-04, -7.4237232742043857e-01,
       2.0047503959332656e-04, -7.5168450220583793e-01,
       6.8495968127103640e-04, -6.4881664208930134e-01,
       5.0271060217218697e-04, -7.8794859784468585e-01,
       1.5583658734794955e-03, -4.2517415581432233e-01,
       3.4154649357969608e-03, -4.2266378580487390e-01,
       1.4771741969321381e-03, -7.6564400583987613e-01,
       4.5431533707734643e-03, -4.3652131970848368e-01,
       8.1564892775477498e-03, -3.4420384751251504e-01,
       1.8566709900722161e-02, -3.4410302349338406e-01,
       6.6958430998353708e-04, -1.0073337956777331e+00,
       1.7741415982242915e-02, -4.1219223132077709e-01,
       4.0660598239093314e-02, -3.7001144397574914e-01,
       4.8934716227674703e-03, -6.6322852060575110e-01,
       4.1142019033721961e-03, -8.5863393723377723e-01,
       1.0786849139215932e-01, -4.9439725221406350e-01,
       2.0657458557882327e-02, -5.5017697959159928e-01,
       2.3751809603229986e-02, -6.4169472278059680e-01,
       4.0490302286915461e-03, -7.4461665905637531e-01,
       1.0580417825552503e-02, -7.1770500916664470e-01,
       1.9721057236528292e-01, -4.7987905942218839e-01,
       2.8323270918505148e-02, -5.7213007255380399e-01,
       4.6766657905136205e-01, -3.8972214920946840e-01,
       1.9596240890976429e-02, -6.4765576144677095e-01,
       1.0689427741398308e-03, -7.8948550155387442e-01,
       9.7602634484221119e-03, -7.4666015380429152e-01,
       1.9133524688434400e-01, -5.9951710690427784e-01,
       7.9823165829158937e-02, -5.9202181323292880e-01,
       3.7587612529854965e-03, -7.4498648034172532e-01,
       4.5722531028414129e-02, -6.6678691083103936e-01,
       1.1561659439202626e-01, -5.4339799364252350e-01,
       6.1201152225477378e-03, -7.9653299621458806e-01,
       9.2198645970383619e-01, -3.8416102487659842e-01,
       1.3734524663274987e-02, -5.8875329056572112e-01,
       6.2745580513815857e-01, -3.7647348308289513e-01,
       1.6373979019087136e-03, -8.1545144511557111e-01,
       3.2714291784326680e-02, -5.6650248606525699e-01,
       1.5536738097470252e-02, -6.9578692113170937e-01,
       3.3828037095331282e-03, -8.3910446014969253e-01,
       4.2541253111565751e-02, -5.6154454107266794e-01,
       5.8476956053805009e-03, -7.8602775095656230e-01,
       5.9485495067794795e-03, -6.8477719072209775e-01,
       3.9564197167166827e-04, -9.2120617280745121e-01,
       1.6097100974724558e-02, -5.4139916278323597e-01,
       3.9173872253838715e-01, -3.1991995673968282e-01,
       9.8982178846312107e-04, -7.3446426406944354e-01,
       9.7008670591314572e-02, -5.1091233178092343e-01,
       3.0595126737398642e-01, -5.5581146906274204e-01,
       1.1698178118581335e-03, -9.7246954699766630e-01,
       8.6407362265153304e-03, -5.2521275030169012e-01,
       1.4043426522091949e-03, -5.6592668312943539e-01,
       2.9790376500385268e-02, -4.6820541733105514e-01,
       8.1222185547043399e-02, -4.2100166175217496e-01,
       8.4651465799952654e-04, -1.1713364408515783e+00,
       2.0199026372602430e-02, -4.2586280602236787e-01,
       3.6070604771911595e-03, -5.0949729240325126e-01,
       3.1661999154480734e-03, -4.9097206688881456e-01,
       4.9065420269329323e-04, -8.5494859305297366e-01,
       1.7820945495645420e-03, -5.7508191114447771e-01,
       3.7209769211498982e-02, -2.9953864215256681e-01,
       7.3567020603576224e-04, -6.6775558484856079e-01,
       8.9925718314121064e-02, -2.5628829719524504e-01,
       3.0568383031513984e-04, -7.8960680735653255e-01,
       2.2100176080815603e-02, -3.7238796696174292e-01,
       1.4910899362982968e-03, -6.2195846392895793e-01,
       1.9720576819097512e-02, -3.9539756522290515e-01,
       5.5196356440865679e-04, -6.2695701402631288e-01,
       2.1040883116522788e-04, -9.8136782943773948e-01,
       2.0618704011059009e-02, -5.1581124534332623e-01,
       3.3870997283247076e-03, -4.6047620806574396e-01,
       2.2326800723646850e-04, -8.0122329190224484e-01,
       1.2850158988933129e-02, -4.6003569180380599e-01,
       1.5712891301592713e-01, -3.4830242385197180e-01,
       3.1110223479537535e-01, -3.2147230928855458e-01,
       1.6255285333986828e-04, -8.0700447726266533e-01,
       4.1828160868578143e-02, -2.9907135021033376e-01,
       1.2236237299270253e-01, -2.0393728832117089e-01,
       1.0001479424072922e-03, -5.4813107983631648e-01,
       4.6501853239310745e-04, -7.5656965158583944e-01,
       9.4883156456670406e-02, -2.9255639907473374e-01,
       1.3634599210842886e-02, -3.7790564146052863e-01,
       1.2384577840724824e-02, -4.8072802985080193e-01,
       1.7304861092998104e-03, -6.6949623425294158e-01,
       4.1658159113535749e-03, -5.5294263196699778e-01,
       8.9978284112192400e-02, -2.8643087109047910e-01,
       1.4348641405892542e-02, -3.4245424155396870e-01,
       1.2667026039984761e-01, -2.4067349475971045e-01,
       9.9982371329313049e-03, -3.6793512649187199e-01,
       6.9437594882641675e-04, -8.9814057100952882e-01,
       5.1525932364461140e-03, -4.2431605302133746e-01,
       4.5565350846201128e-02, -2.6731672496437991e-01,
       2.6357472452168497e-02, -3.0618597165269074e-01,
       2.4881808507537179e-03, -4.3157496856323235e-01,
       1.6405491286101862e-02, -2.9885336626182224e-01,
       1.9407457601233410e-02, -2.5876610134977879e-01,
       3.9161122550328527e-03, -3.6341521726704873e-01,
       7.2738227702221089e-02, -2.3033772105703343e-01,
       6.3480762324155436e-03, -3.0460185788540584e-01,
       7.2013920195873229e-02, -2.3044454462679434e-01,
       1.6670103686343915e-03, -4.7676496542943597e-01,
       1.4770452561679902e-02, -3.0722541328294195e-01,
       1.0284022992637268e-02, -3.1143449629369863e-01,
       2.7599137946937480e-03, -3.7557826889457424e-01,
       2.4925628328882978e-02, -3.4729708804910281e-01,
       5.0077283675540544e-03, -3.4870481866068070e-01,
       5.9291978010925202e-03, -3.3450557594496966e-01,
       3.6255761304760861e-04, -5.9267897267580993e-01,
       1.2027857264013725e-02, -3.8429003958523850e-01,
       9.2155570316477253e-02, -3.2561634845155296e-01,
       1.9513029687146584e-03, -4.5013307316632645e-01,
       8.6336744554841638e-02, -4.6046263762582207e-01,
       6.3328497488077493e-02, -3.9474763434234972e-01,
       2.4583509849762262e-03, -7.7311041225860688e-01,
       2.3325972018991833e-02, -5.0967248861497161e-01,
       4.8732739004392223e-03, -6.6861317914026119e-01,
       4.9570460330412666e-02, -4.8248581388268325e-01,
       5.4455990684022779e-02, -3.8028433494342573e-01,
       3.8971918962783555e-02, -1.2872424833407409e+01,
       3.9011315946870698e-02, -1.2934201802184980e+01,
       1.9198838460214796e+04, -2.9388920067486321e+01, 1.,
       -2.1506880245464320e-09, 1., -4.6761577127211343e-13 ]
   output_scale: [ 1.0526315789473684e+00, 0., 1.0526315789473684e+00,
       0., 1.0526315789473684e+00, 0. ]
   inv_output_scale: [ 9.4999999999999996e-01, 0.,
       9.4999999999999996e-01, 0., 9.4999999999999996e-01, 0. ]
   weights:
      - [ 6.8351787846012771e-02, -1.0499445546150813e-02,
          8.7882348399167476e-02, 1.9673409387997612e-03,
          -1.0297597015090239e-01, -6.4951136000288692e-02,
          2.2634330165693713e-02, -8.6952869909208350e-03,
          -6.4038263457480357e-02, 9.3611286179674000e-02,
          -7.6531708752503300e-02, -1.5601262086153911e-01,
          3.3000084000849625e-02, 3.5771380371989164e-03,
          -1.1195412176516711e-01, 8.3369423650350299e-02,
          -8.1180437503270877e-02, -1.3220352730538340e-01,
          7.8901163399316118e-02, 9.1673744893140015e-03,
          -9.5459486708651661e-02, -1.8253246833192743e-01,
          -6.8573135719816616e-02, 1.5975273521063552e-01,
          -3.1042070898983043e-01, 9.1047054101388858e-02,
          -2.6241782652313478e-01, -5.1872151046178344e-02,
          1.6776433117303632e-01, 1.3293516130721255e-02,
          1.4896750543819740e-01, -3.7212990036650927e-02,
          -5.3790389086643509e-01, -1.4676941936221885e-01,
          -1.6464940776828665e-01, -1.5815545400110365e-01,
          1.1449139377732460e-01, 1.9327967022551656e-01,
          6.7566707511344040e-02, 1.9204486755046971e-01,
          1.3031552494170534e-01, -1.3287131142487615e-01,
          -8.3708500991387491e-02, 1.8876543522722966e-01,
          -1.7991439607183432e-01, 1.4051495851483747e-01,
          6.2592506691279040e-02, 1.6682512993356824e-01,
          5.2422348807830595e-02, 1.7877971415874364e-01,
          2.0664747996326965e-01, -1.9250210690133412e-01,
          -7.0482558946674059e-02, -6.0371293609276728e-03,
          -1.4241168632185550e-01, -1.7225953995313559e-01,
          1.4313761687915028e-01, 7.4415385428920511e-02,
          3.2537000541701150e-01, -1.3085923584028651e-02,
          -1.7508363401679536e-01, -1.5729121113887612e-01,
          -1.5689083913643079e-01, -2.2503636326009085e-02,
          -2.6739163927414961e-01, -8.7430348628012078e-02,
          -1.4657287444893102e-01, -1.2788865008995756e-01,
          1.4635121693552947e-01, 1.5573126438326898e-01,
          1.0011754988244090e-01, 1.4312028669461710e-01,
          1.0584458163270016e-01, -5.0760824079366731e-02,
          -2.3223227367172975e-02, 2.3564898649232971e-01,
          -2.2599776151925699e-01, 9.8568276997975254e-02,
          9.8775593677972617e-02, 3.9154660975772165e-02,
          -5.6477135358382426e-02, 1.5508832992226543e-01,
          1.2027092299038335e-01, -1.6451373995730256e-01,
          3.7822925558982930e-02, 5.9864950746909527e-02,
          -3.2344998292113916e-02, -1.2040756134305909e-01,
          2.9460066841036764e-01, -1.2289691887490198e-01,
          2.6089166819390969e-01, -3.2313545759585630e-02,
          -1.6948682436775361e-01, -1.5369103702552395e-01,
          -1.3886312501132653e-01, 1.2675338271603821e-02,
          -4.1999677218950598e-01, -5.0557490454673046e-02,
          -9.9803626788204758e-02, -5.3704997930448341e-02,
          5.1493740688065733e-02, -5.7218621530554237e-03,
          3.8135896510175883e-02, 1.4770521373744974e-01,
          9.8484263726390575e-02, -8.8756789404426009e-02,
          -5.7002141059149684e-02, 1.0063984164813522e-01,
          -8.1840980716695521e-04, 8.9247865813639943e-02,
          4.6151601473153087e-02, 1.3711370929344538e-01,
          2.7782515349077112e-02, 9.4761252518647129e-02,
          1.5965465103094634e-01, -1.4947608074621441e-01,
          -5.8496305068840744e-02, -1.7828239104077766e-02,
          -9.9611539857037260e-02, -9.8234295096920832e-02,
          7.3484782580113928e-02, 8.5098022810180515e-02,
          1.8866727408049064e-01, -6.0130305987465021e-02,
          -1.0592033583037268e-01, -1.1011233782283759e-01,
          -1.1112084258818684e-01, -6.1762386013885166e-02,
          -1.1554621531098540e-01, 1.2315592174213869e-01,
          -1.5958277944025916e-03, 1.2251098981143517e-01,
          9.9648966087873658e-02, -2.3018212872871727e-01,
          -4.0862676989106813e-03, -1.7014108299548297e-01,
          3.9161992874777486e-02, 3.4222511804224004e-02,
          4.6724864759988223e-02, 1.7892930162119181e-01,
          1.6035163524549850e-01, 1.3172839476085146e-01,
          -3.1716732398373937e-01, -1.6078498956252424e-01,
          -1.3096092659726530e-01, 7.6777502739625109e-02,
          -1.3176267263440392e-01, -4.7580558484267253e-02,
          1.5680107855914649e-01, 1.1394797304220552e-01,
          1.1070700421559750e-01, 6.5774995668318653e-02,
          1.2061549274438173e-01, -1.9145166947212602e-01,
          -3.1411581748482148e-01, 7.7045606807822908e-02,
          -4.9315486477269493e-02, -2.8929167437337408e-02,
          -8.9255473921837136e-02, -8.8303377554495386e-03,
          -4.2418968862249468e-01, -3.9249921351333712e-02,
          -1.2236314505188245e-01, -7.0394665463251072e-02,
          8.0414872783192662e-02, 1.7744844508289358e-02,
          8.6438941976624536e-02, 9.3131763252591940e-02,
          1.2323880769559145e-01, -1.1369612849635082e-01,
          -4.8877305285313623e-02, 1.4604864304499812e-01,
          -5.5425769385606442e-02, 9.1474953283281188e-02,
          -5.2553118120097164e-02, 9.4035992845044838e-02,
          4.0391500919028059e-02, 1.4313780238766871e-01,
          1.0144476896082567e-01, -1.6152666399664484e-01,
          -4.2593844402596913e-02, 3.6680285593442524e-02,
          -6.3035944359402102e-02, -1.0574459894743445e-01,
          1.2183327437897064e-01, 2.5053377580356320e-02,
          7.0910400213248570e-02, -7.5010199296097854e-02,
          -1.4461927980757239e-01, -1.3578918824250505e-01,
          -1.4809682888742887e-01, -6.9786116436960435e-02,
          -3.8420339485477628e-01, -1.1221139120158014e-01,
          -1.7177529664399255e-01, -1.4467315093232644e-01,
          9.7729453458702181e-02, 1.4111708064685516e-01,
          1.5818076540701756e-01, 1.5602026433795332e-01,
          1.5093610642256114e-01, -9.1488848192990677e-02,
          -8.0599235993501203e-02, 1.7558287437605402e-01,
          -2.1313585970675630e-01, 7.7767869444991103e-02,
          1.3613674721041669e-01, 1.0422057292484670e-01,
          -7.1288753059614062e-03, 1.6670803844607124e-01,
          1.7590917830081654e-01, -2.0120405845966710e-01,
          -5.6071935899596963e-02, 5.0980347045342649e-02,
          -4.5096719951107180e-02, -1.3700939511470558e-01,
          2.0981359999319810e-01, -5.8682202926257969e-02,
          2.3512989033609025e-01, -1.5786983549896683e-01,
          -1.4107277200195578e-01, -1.6780947104073271e-01,
          -1.5202619441986043e-01, -6.0904503599201944e-02,
          -4.4206081696544886e-01, -5.7190915080920737e-02,
          -1.5508738261615040e-01, -5.8802058165878940e-02,
          1.1806849448807623e-01, 5.3154538123642098e-02,
          9.0952010334082886e-02, 4.3670766932019899e-02,
          1.7024097276800176e-01, -9.7098601390699396e-02,
          -2.7718340845673973e-02, 1.6897302752144583e-01,
          -4.9154729309158478e-02, 6.7667193700037223e-02,
          -4.1908692440302507e-02, 2.6683533939737741e-02,
          3.0540869976877050e-02, 1.6189217154612015e-01,
          7.9226987266934168e-02, -1.4347239260855277e-01,
          1.4206836825161709e-02, 1.0676455807801224e-01,
          -6.8585534801987166e-03, -1.0367903952934236e-01,
          1.8406186359928450e-01, -2.2043290801365117e-02,
          5.3550761012075399e-02, -6.7003674676225353e-02,
          -2.0203463806166286e-01, -1.1274982000248775e-01,
          -1.8391760017832715e-01, -2.0824772020679002e-02,
          -3.0517328927959336e-01, -4.5391279991116806e-02,
          -1.3573695801399832e-01, -4.4599532811753682e-02,
          1.4834840858742523e-01, 2.4006790487306594e-02,
          1.1153605624640765e-01, 1.8060102084843030e-02,
          1.8003176281520300e-01, -4.0271016522937075e-02,
          3.2246270942468229e-03, 2.1858892962529389e-01,
          -4.7346573683601560e-02, 2.3958353019443370e-03,
          -5.2746532393630431e-03, -3.6608752602283225e-02,
          -4.6115060365259322e-02, 1.9278397892901813e-01,
          2.7519152164414664e-02, -1.3891351110837641e-01,
          4.4853621698708497e-02, 1.1829608327644266e-01,
          4.8237462477489799e-02, -7.2110564621469711e-02,
          2.5133390868583128e-01, -1.3653756384075103e-01,
          4.9188210176113370e-02, -1.1438864565218633e-01,
          -2.6643258529664576e-01, -1.0788812622655039e-01,
          -2.4996432063898102e-01, 4.3820732915092836e-02,
          -7.3282995434322012e-02, -6.2429670049207499e-03,
          -1.0191911148482842e-01, -4.4445405292092073e-02,
          1.0147742377010503e-01, 2.7499536098736736e-02,
          7.9523853696632063e-02, 1.5134153062257894e-02,
          1.5736411909562611e-01, -3.7026610634344287e-02,
          2.6084292701704079e-02, 2.5952963467117790e-01,
          -5.2905356500159324e-02, -2.5268047519122091e-02,
          1.8221422098719867e-02, -5.5774790586703253e-02,
          -4.8655383302010913e-02, 2.1232349020654162e-01,
          1.4178578543202352e-02, -8.6802164685820457e-02,
          2.9335106966420003e-02, 1.0069852674447431e-01,
          1.8044940788018105e-02, -4.1167145284204849e-02,
          2.1826349747065313e-01, -1.2200071979654301e-01,
          4.0700916114218597e-02, -1.1440721806897765e-01,
          -2.4611241809570189e-01, -7.2222749468684871e-02,
          -2.5610978963264869e-01, 5.2585657962995511e-02,
          -1.8146912630566231e-01, -6.4969348324204652e-03,
          -8.1171030499323490e-02, -2.2626378620089847e-02,
          4.2706295227011526e-02, 9.6644315226602537e-02,
          3.0513322484333406e-02, 1.9449343683252428e-02,
          1.1858038402158999e-01, -5.1850203567010880e-02,
          -1.0624919380979966e-02, 2.1835552949996972e-01,
          -1.1244392598886832e-01, 8.7297789113078422e-02,
          2.0190787179293582e-02, -5.3119935644670553e-02,
          5.4015192551693111e-02, 1.7481937620285304e-01,
          -8.8882645009678522e-03, -8.4375142077636453e-02,
          8.8025625786186876e-03, 3.6050732996101641e-02,
          -9.8891112121698641e-03, -3.9816261375369290e-02,
          1.8939403894253815e-01, -6.7614608427165379e-02,
          1.0619039869992802e-01, 1.2402190158099563e-03,
          -1.9547959829493436e-01, -6.0177772045952475e-02,
          -2.1385418193637162e-01, -3.3920863957095135e-02,
          -3.5036394318422320e-01, -6.4210478121845480e-02,
          -6.4934576502281197e-02, -5.8058726260216909e-02,
          4.2445460923333907e-02, 1.7804926791352052e-01,
          7.7002137216426653e-02, 1.0898357115084556e-02,
          8.7925780715225513e-02, -7.6422648467395909e-02,
          -6.1740650767234548e-02, 2.0124560501815991e-01,
          -1.8804953749829134e-01, 1.7063845288681795e-01,
          -2.1696858192105529e-02, -5.4403402396245845e-02,
          9.0962073586585881e-02, 1.5679976991930711e-01,
          -5.0469249949350323e-03, -1.4062558527428304e-01,
          -9.9362509004224300e-03, 1.5961013827808661e-02,
          1.2622045348975272e-02, -5.0798631162798855e-02,
          1.5134669479585217e-01, -6.7085961460973162e-02,
          1.1244812579952930e-01, 8.3718492063385955e-02,
          -1.8479925029085473e-01, -1.0960326213858622e-01,
          -2.1231516147729679e-01, -4.7528935524625233e-02,
          -2.1578470441558800e-01, -1.1440031322790541e-02,
          -5.8155949946497885e-02, -2.7404116674195771e-02,
          6.6166157382079913e-02, 7.7378369591639046e-02,
          4.1455907344695522e-02, -4.4315616208683711e-02,
          5.9406176947262995e-02, -3.9113655143553520e-02,
          -1.0902380931498404e-02, 2.8232384522733600e-01,
          -1.2223988227025633e-01, 1.6627090371930711e-01,
          -7.2506744824361938e-02, -1.2025636039646014e-01,
          -2.7508888961468698e-02, 1.2298931912527587e-01,
          -6.4537491728997712e-02, -8.0809918423771970e-02,
          1.1578015959824936e-01, 7.8460025271161526e-02,
          8.6839719789295139e-02, -1.8258335269253811e-02,
          2.4339839897247956e-01, -1.0425936149117147e-01,
          -5.5120023746488530e-03, 1.2438886298228309e-01,
          -1.7464636635701056e-01, -2.3200403828840636e-02,
          -1.8618337013114875e-01, -3.1571412024202154e-02,
          2.5687257283878929e-02, 3.1330331896385170e-02,
          1.2871360379842363e-02, 4.0407098406467822e-03,
          6.3114476732526306e-02, -3.0898411755212435e-02,
          3.8778154562787311e-03, -6.4248542112422855e-02,
          -2.0844498166060984e-02, 2.2351502528278663e-02,
          -1.0798703645172153e-02, 1.6105547533317099e-01,
          -1.7366017241508852e-02, 1.7861508452346528e-01,
          -6.2849870526542409e-02, -8.9781984995643521e-02,
          -9.2544054848766891e-02, 3.0081722697964607e-03,
          -3.8260221548249145e-02, 4.5488911452244941e-03,
          1.1963572962864143e-01, 6.1154987905187079e-02,
          8.8998655264585169e-02, 8.8856687557489714e-03,
          1.0556572475965002e-01, -1.0008624885210377e-01,
          -7.8991022968292482e-02, 1.4347838674312302e-01,
          3.1505314444096447e-02, 5.6048927509981868e-02,
          -1.8278514673171053e-02, -2.7838566103298303e-02,
          2.8740300353630915e-01, 1.1320079510917959e-01,
          1.1256431056763690e-01, 1.0514473224174722e-01,
          -1.4609935400221936e-02, -1.7754486424983759e-01,
          -3.5147035954959042e-02, -9.8699890511465008e-02,
          -9.8395505642396575e-02, 8.9459524986903322e-02,
          5.3778350337737986e-02, 1.9217580010537319e-02,
          1.0352994148818676e-01, 1.6974507992981600e-01,
          -1.8383108727577677e-01, -1.3781950349343691e-01,
          -1.4050444239822876e-01, -1.6925243197892934e-01,
          -9.3451703042232548e-02, 5.9762096074045257e-02,
          1.1164615122061188e-01, 2.3310674756234554e-04,
          1.0014076075215272e-01, 1.2884916152560202e-01,
          -6.1571081122836602e-02, -9.6036021017698564e-02,
          -2.7817131958960245e-01, 1.2908616651921095e-01,
          2.1614190649144507e-01, 9.6825896861731736e-02,
          1.6414254351681939e-01, -3.0362740630258636e-02,
          1.6808095524860420e-01, 1.3719820868045064e-02,
          4.7987627426706682e-02, -1.4578656670748468e-02,
          5.3717189765743585e-02, -2.3713411767609977e-03,
          -1.8386958977133012e-02, -1.3588989545973403e-02,
          -3.6033004336046920e-02, 1.3817814422767222e-02,
          7.9169971448435632e-04, 1.1926635297610939e-01,
          -5.3316155979487530e-02, 1.4865099383840541e-01,
          1.5610918218217451e-02, -4.4159871557945082e-02,
          -9.0843343062918760e-02, -4.6828563664314607e-02,
          -8.4653722752540857e-03, 1.3476892413292073e-02,
          9.6954361569842051e-02, 1.8655660860225035e-02,
          3.1366152526670826e-02, -1.0351746043436786e-02,
          7.0203387311982626e-02, -5.3154500866598335e-02,
          -1.1523947117692274e-02, 1.2157746164770362e-01,
          7.0135605945694637e-02, 6.9151449618593236e-02,
          4.0135231216430423e-02, -3.3375837244970598e-02,
          1.5212999559316437e-01, 1.1994446657751016e-02,
          2.7760004211398709e-02, 5.5498475364082938e-03,
          5.9151049146129828e-02, -5.0824806559962701e-02,
          -1.2964521077944099e-02, -3.6537481104582874e-02,
          -1.0888892823965258e-02, 3.9063439535226042e-02,
          3.1872098483397358e-02, 1.2417812253471208e-01,
          4.7844880780945967e-03, 9.2133454213757973e-02,
          -5.1326476912704408e-02, -8.7801993352303001e-02,
          -1.0184995360440698e-01, -4.3582905846631943e-02,
          -3.9601255186477925e-02, 5.0273592175593693e-03,
          1.3786953796313545e-01, 6.1838368573750392e-02,
          6.8953129478321856e-02, 2.4234327603986326e-02,
          7.7457113073928954e-02, -4.5014248336426234e-02,
          -5.7645893534105576e-02, 9.8534387372776519e-02,
          6.3769316362755388e-02, 4.5886568109671941e-02,
          5.8633585604806318e-02, 8.4136774853533819e-04,
          1.5972621471185244e-01, 1.4986701397631691e-01,
          1.1199403484649234e-01, 1.8356413460894386e-01,
          2.2665715625992934e-02, -3.5763906213897056e-01,
          -1.0194518714744420e-01, -2.6844879090546414e-01,
          -6.6166712383561019e-02, 7.1481620352519135e-02,
          9.8080448652089744e-02, 1.5177849067708865e-01,
          2.8477074346912107e-01, 1.8113125667622479e-01,
          -4.1379032528919391e-01, -2.3279844563825625e-01,
          -7.9390538818631506e-02, -4.1867974315606696e-02,
          -2.1356216352069823e-01, 1.0384395658038793e-01,
          1.8744430121132427e-01, 1.1820407869248203e-01,
          1.5900162521273542e-01, 1.2916594711347953e-01,
          5.5924768087436023e-02, -1.0065514392431417e-01,
          -4.5275570917799413e-01, 2.1260366390017510e-01,
          6.5181758444379290e-02, 1.5479736991677998e-01,
          2.6178314940102563e-02, -3.2534298953233134e-02,
          2.0976165389125154e-01, 6.6654943234678202e-02,
          9.7668316401902960e-02, 4.1088021925600890e-02,
          1.2328049068808305e-02, -9.8439779820788623e-02,
          -9.2395243662520402e-02, -6.7790156376171376e-02,
          -7.5802775931678820e-02, 4.1891129043135779e-02,
          4.7632943044816481e-02, 8.6252624449409870e-02,
          3.5446623366667387e-02, 1.4103813207406757e-01,
          -9.5400288285350202e-02, -9.7778631900190330e-02,
          -5.9748471487173986e-02, -9.3166176117778693e-02,
          -6.1483235449416265e-02, 8.0203840755310618e-02,
          1.4408275871667880e-01, 3.5149410256536832e-02,
          7.5745485822222833e-02, 2.6010109749006045e-02,
          6.5944512862325014e-02, -2.8231350017170472e-02,
          -1.1313985578352674e-01, 1.6831362457908713e-01,
          1.1622151492561593e-01, 1.2439511082156630e-01,
          7.6209544981965124e-02, -1.0374491091053475e-02,
          1.7211673542310366e-01, 1.3059559527920468e-02,
          4.1397051912012366e-02, 4.9545972818794371e-03,
          5.5741085597804017e-02, -3.0839332846547728e-02,
          -3.7567760064139706e-02, -4.8944701894466508e-03,
          -4.1899614828571172e-02, 1.0060369363745880e-02,
          1.5546398841248173e-02, 9.9932067662071203e-02,
          -6.8972878357168301e-03, 1.0204115901951273e-01,
          -2.4058014139093104e-02, -6.8108162804991865e-02,
          -7.0382472211412486e-02, -7.2637136610257155e-02,
          -1.5731740736388736e-02, 1.7283291121587985e-02,
          1.1149358513711845e-01, 4.2573207751040378e-02,
          5.1859762846865068e-02, 9.6772052219197147e-03,
          6.8839996772859374e-02, -2.7079892973798869e-02,
          -5.2196875098708836e-02, 1.2597420463724113e-01,
          7.1408257095623054e-02, 8.4141383195122710e-02,
          6.6252979405012014e-02, -5.9856787893638255e-03,
          1.9363612399692964e-01, 2.5245265526200173e-02,
          4.6069337201716840e-02, 2.2801304856154423e-02,
          4.1845604823735463e-02, -5.3393286412307159e-02,
          -4.9552294168246032e-02, -2.8078144886816633e-02,
          -4.9444651772637169e-02, 3.9873082161392577e-02,
          2.7114559256401549e-02, 8.4319141507236031e-02,
          -1.2930325013079697e-02, 1.0104170046532267e-01,
          -6.1267269095248066e-02, -4.9417992568722792e-02,
          -4.4920245922720876e-02, -7.1884671487358748e-02,
          -1.2301095744116924e-02, 5.6369860047690651e-02,
          9.8559760875654948e-02, 3.1098234069726942e-02,
          5.5685432406814755e-02, -9.8696476595048783e-04,
          7.8712067589182991e-02, -3.7900344482962138e-02,
          -5.9574882206837307e-02, 1.2887376970710587e-01,
          8.9522248247203978e-02, 7.9021651176494859e-02,
          5.6457854564003332e-02, -5.9660923502426570e-03,
          2.6474328469892555e-01, -4.7250894351194917e-03,
          4.6569918188066980e-02, -1.0542310244804717e-02,
          -7.6037434017880073e-02, -1.9011665601533119e-02,
          -3.3430763533076793e-02, -4.2017850820378951e-03,
          -7.0773088962533454e-02, 1.0014016708300212e-01,
          1.3335044465531843e-02, -1.1945303660114293e-01,
          -1.7144274519762429e-02, -1.5711763024001016e-03,
          -5.2832820346431830e-02, 2.2705460578291283e-02,
          -1.1532282945575292e-01, -1.4699246802609647e-01,
          2.2590552511111712e-02, 7.1758569051829230e-02,
          -1.8128806447305669e-02, -6.7173399319164190e-02,
          4.3830262530696475e-02, 1.2971946474239343e-01,
          -1.9136470424254515e-01, 7.0224007782144854e-02,
          -2.0187903011806135e-01, -6.6779015535705635e-03,
          1.4764661996396872e-01, 4.7855527296623901e-02,
          1.4100915340704698e-01, 1.5879228598959762e-02,
          2.4547373735059186e-01, 5.1996824176342833e-02,
          3.6843897940769421e-02, 3.6637794564263171e-03,
          6.2018410771218752e-02, -8.6645117914325456e-02,
          5.1144795177726354e-03, -4.5607348572062043e-02,
          -7.0714189970590133e-02, 9.0667536938250720e-02,
          4.5283738428734822e-02, 4.9065339744418131e-02,
          -3.6741617912684259e-02, 9.6900060345092520e-02,
          -1.1433797151864501e-01, -6.9561499774466365e-02,
          -9.6323710220610120e-02, -1.2066649102310734e-01,
          -2.1652717025723203e-02, 1.3049662997909835e-02,
          1.0392521320860193e-01, 7.0888279329860845e-02,
          7.4449102378359305e-02, 3.9847680585067755e-02,
          1.1862467740101082e-01, -1.2116242132011219e-01,
          -8.3848064886646909e-02, 6.8536330933197567e-02,
          1.8004596939909653e-01, 3.1215656548412494e-02,
          1.5372405177675597e-01, 2.9765123890978518e-02,
          1.7462402825148798e-01, 2.1440970101539943e-02,
          4.9896020131495647e-02, 3.7770402366208558e-02,
          4.9434086413945456e-02, -6.3415208188099925e-02,
          -4.0035003804626317e-02, -3.8107641641892509e-02,
          -4.3980706094928941e-02, 3.2104855512255524e-02,
          1.8288451310066622e-02, 6.9011206774743469e-02,
          1.5848068850757277e-02, 1.0423595086230597e-01,
          -8.5721476580724015e-02, -9.0011277899041509e-02,
          -9.5814059642553226e-02, -6.4409311354108309e-02,
          -5.4428153711092747e-02, 4.6387442874537090e-02,
          1.5919430526798434e-01, 5.1730823743310443e-02,
          6.6354055842883439e-02, 1.2223269401531837e-02,
          8.9563057629897122e-02, -2.9083203711809287e-02,
          -7.1340353133352380e-02, 1.2237849404557676e-01,
          9.7331014054504533e-02, 7.9434987279135824e-02,
          7.9927270892706334e-02, -3.1669437219753280e-02,
          1.6884238942826477e-01, 1.3177527253181956e-01,
          1.1263445073610294e-01, 1.3870313584816243e-01,
          2.6966177957710481e-02, -2.2962383141754517e-01,
          -9.2058726738071389e-02, -2.0134968100260234e-01,
          -1.1118262864831856e-01, 1.1186416328727619e-01,
          9.3868243063000539e-02, 4.1753745732558488e-02,
          1.7403210369996786e-01, 9.2403057587399473e-02,
          -2.9206339322673175e-01, -2.0801194721290311e-01,
          -9.1149086500147872e-02, -6.8395867486188408e-02,
          -1.8007414869148045e-01, 7.3562917692274438e-02,
          1.7232776196722480e-01, 1.3123893589206403e-01,
          1.4451577602272003e-01, 1.3408715486454836e-01,
          1.0845230173117350e-01, -1.0343436121023961e-01,
          -3.1177316924639847e-01, 1.1992890881512799e-01,
          1.0015058304690466e-01, 9.0819819148732661e-02,
          8.8215458989276907e-02, -1.0995730006506681e-03,
          2.5676733948024444e-01, 5.9106740962614451e-02,
          8.6470716383937621e-02, 6.1511806333131670e-02,
          -5.3772823142360327e-03, -1.8089493906487672e-01,
          -7.7478787007888614e-02, -1.7638715178888970e-01,
          -9.6248139668829225e-02, 9.8578893283444713e-02,
          7.9506910728067842e-02, 6.0608369098041813e-02,
          1.0821188390822623e-01, 3.2897884747773005e-02,
          -2.4318704993347137e-01, -1.2313541287993107e-01,
          -1.1858852695302793e-01, -6.0042902815694167e-02,
          -9.8926498058748757e-02, 9.9874727649865463e-02,
          8.5314197948483383e-02, 7.1167231601045336e-02,
          1.2788492492444156e-01, 1.1790159347855809e-01,
          -1.0070854504988272e-02, -3.8200093201275230e-02,
          -3.6678917971816327e-01, 6.8783661779485930e-02,
          3.9109988099215363e-02, 8.8632480088325583e-02,
          6.4426829049553200e-02, 1.3218555389846233e-02,
          1.8514317194124941e-01, 2.5303123498818313e-02,
          8.4103360858696644e-02, 3.1439483834597999e-02,
          3.6094693343351227e-02, -4.3601287547080050e-02,
          -8.1317720545998645e-02, -7.3569793579789239e-02,
          -1.1867191271317330e-01, 1.5433395250639075e-02,
          5.6062068010422718e-02, 8.6479986224657357e-02,
          -2.6016168183586433e-02, 1.8412875282219696e-01,
          -8.9658215911599684e-02, -6.9206266715140977e-02,
          -2.4022350745893657e-02, -7.9738064413341150e-02,
          -6.5316011573667287e-02, 8.5572150946269354e-02,
          9.8531343818841738e-02, 7.5855715795630982e-02,
          1.0519867438360000e-01, -1.7392999882372332e-04,
          1.4456414421267236e-01, -7.8314969554556038e-02,
          -1.1503386011426783e-01, 1.6009441414207684e-01,
          1.1021142934616247e-01, 9.4123784900922769e-02,
          1.0004146262540886e-01, -1.1900154321059861e-02,
          2.1966837844254414e-01, 8.2516673951429378e-02,
          1.3284594341406974e-01, 8.4380791891233015e-02,
          3.1774207795944934e-02, -1.2479934172167216e-01,
          -9.5430603822497850e-02, -1.5153470436618982e-01,
          -1.3276968400166170e-01, 7.5867632141959310e-02,
          8.5239555806018039e-02, 5.2381312864562296e-02,
          8.8645877220049116e-02, 1.3929102916879846e-01,
          -2.0099745695137713e-01, -1.5420780403624904e-01,
          -5.2603449854916183e-02, -1.1661629648872517e-01,
          -1.2910518407095767e-01, 9.6417753329895176e-02,
          1.2421555075899261e-01, 1.0042537891147676e-01,
          1.2040060423948382e-01, 8.0264309417508103e-02,
          1.1296920092839975e-01, -1.1388254848995029e-01,
          -2.2197826675775359e-01, 1.3516599387477182e-01,
          1.6016610403562662e-01, 8.9710145476430359e-02,
          9.7552711273844767e-02, 1.6987495929548027e-02,
          1.9852620868427145e-01, 1.2992545104586145e-01,
          1.4897992152835909e-01, 1.2520937177079464e-01,
          -1.3180075586940888e-03, -2.2212684617757356e-01,
          -1.3304814956969260e-01, -2.0120898693915776e-01,
          -1.0101456295588540e-01, 7.3328493227843239e-02,
          9.9422574578905284e-02, 6.3204979989405177e-02,
          2.0511829623362282e-01, 9.3558938723200979e-02,
          -2.6322334588761354e-01, -2.0007942463815720e-01,
          -5.7536103638097850e-02, -7.2078176323444779e-02,
          -1.7759939410040748e-01, 1.2712409854051746e-01,
          1.6089060501084898e-01, 1.1342538712221148e-01,
          1.4015317257674201e-01, 1.1747713945065071e-01,
          5.0083020357784315e-02, -6.4784367276320073e-02,
          -2.9461843703345475e-01, 1.5875826551327196e-01,
          5.6014747953783743e-02, 9.8337520565564204e-02,
          3.2607469851410026e-02, 1.0034788662178485e-02,
          2.8143856959949021e-01, -2.8270913297865203e-02,
          4.2143152265576085e-02, -2.1090715016060409e-02,
          -2.3063181921270069e-02, 4.4807508142320894e-02,
          -2.2951544862051816e-02, -5.5837764252930348e-02,
          -6.5139048950452694e-02, 6.7559981184549533e-02,
          1.7770772271081276e-02, 8.9590444969883127e-03,
          -3.8301691505542856e-02, 2.1670592057218339e-03,
          -3.2756498151541906e-02, -2.6060943232351592e-02,
          -1.1840430787162762e-01, -6.6514297573583375e-02,
          4.4279773977706997e-03, 6.5761917055174729e-02,
          3.2208804228047332e-02, 3.6810265817941043e-02,
          9.4302353869470570e-02, 8.1428751320042389e-02,
          -1.5309737148078663e-02, 3.2802853265306742e-02,
          -1.5629874880837885e-01, -9.9632319666900174e-03,
          4.3391930187413871e-02, 6.5752597576110780e-02,
          4.1697968000973903e-02, 1.2243758196931654e-02,
          2.3278800049711984e-01, 1.1209336786412116e-01,
          1.3385425210489513e-01, 1.4814525474011916e-01,
          -1.2348416414795034e-02, -2.2639519645584785e-01,
          -1.2774589557257646e-01, -2.1063486717264288e-01,
          -1.0961502581007551e-01, 1.1027750486361011e-01,
          8.3780336172539049e-02, 5.4307448641923724e-02,
          1.9397418871350811e-01, 8.0209917820805374e-02,
          -2.5178144768685284e-01, -2.0554048970717237e-01,
          -6.2340592716239374e-02, -6.1996434620502708e-02,
          -1.9209914956061169e-01, 1.2656211375901941e-01,
          1.3965264431783289e-01, 1.1330128701942203e-01,
          1.4817393828480346e-01, 1.6016027175880324e-01,
          7.1403612975186825e-02, -4.6954490652094769e-02,
          -3.3083184279620281e-01, 1.5370797758144097e-01,
          4.0306442625937779e-02, 1.1470188827507098e-01,
          3.7959783820635481e-03, 1.2495391132149288e-02,
          1.7078037584192421e-01, -6.9698007107559861e-03,
          2.2138586408863195e-02, 1.5570493393362098e-02,
          3.1693885746280709e-02, -3.3562132833702144e-02,
          -5.1335448215469745e-02, -2.1984704404873583e-02,
          -1.2878776224083449e-02, 5.9093874690304446e-04,
          2.9932947418776747e-02, -3.8542579027122797e-02,
          1.0772305082306567e-02, 8.0392263648963680e-02,
          -7.2822031012906310e-02, -1.1147897578220588e-01,
          -8.2900966225473965e-02, -8.9388585304118681e-02,
          -7.3779073447154203e-02, 2.2719221157565842e-04,
          1.5502060872130152e-01, 6.4148952642660170e-02,
          8.4850286646603504e-02, -2.2040831670398713e-02,
          7.0673551628374132e-02, 1.4722818370146287e-02,
          3.7789608965399228e-02, 5.0152854899709602e-02,
          5.6171943577596521e-02, -3.5963245294400772e-02,
          3.3515805253621189e-02, -2.3351896201118546e-02,
          2.7123686690794052e-01, 7.4486356780770618e-02,
          1.1758710630587439e-01, 5.5779478623796772e-02,
          -2.3572721055931654e-03, -4.4378908389159109e-02,
          -1.1381695105924196e-01, -8.5899026406509524e-02,
          -1.2072419899635541e-01, 3.7695919175398898e-02,
          4.8234320383401731e-02, 5.4016061854908072e-02,
          5.7024388337742246e-02, 1.0554760593600820e-01,
          -8.0535221112789337e-02, -9.9611622766065250e-02,
          -3.0336966190338460e-02, -8.5892112110808841e-02,
          -9.5922767961059127e-02, 1.1534852468919149e-01,
          1.0675717122836204e-01, 4.7122720782086687e-02,
          7.7804495102735224e-02, 6.2336454365354767e-02,
          5.4658614750139049e-02, -1.2901980221395774e-02,
          -1.5651752251978454e-01, 1.1506138787539505e-01,
          7.7453767856934141e-02, 1.3032210325337204e-01,
          5.7542887596238657e-02, 1.1836178681128417e-02,
          3.3545227280443157e-01, 7.2149743624191093e-03,
          9.3806949631096731e-02, -3.6308364964541782e-02,
          2.7195251704263755e-02, 7.6461794174587511e-02,
          -7.8541185729071733e-02, 3.9866155996079351e-02,
          -1.0219416289358110e-01, 2.9091610950380438e-02,
          -9.7941092212180392e-03, -4.6099152805436000e-02,
          -6.2512017241974471e-02, 1.6071669718463363e-01,
          1.2800074684675003e-01, -2.9320564572479786e-02,
          -6.6482616339004263e-02, -1.7620300639954964e-01,
          2.6618350420762923e-02, 5.7921035860972414e-02,
          8.8231039859833743e-02, -3.3577304639002279e-03,
          2.0940423347403331e-02, 2.2796058244106524e-02,
          2.8135914529906433e-02, -5.3888343008215163e-02,
          1.5848953597881216e-01, 5.3150073448976487e-02,
          1.5018709001902930e-01, 3.2238432018647914e-02,
          1.5298309132931662e-01, -1.3741806089355666e-02,
          3.0524125846476502e-01, 6.3268525887551386e-02,
          1.4251268851246163e-01, 5.6452405942042802e-02,
          -1.3337550830552377e-02, -1.1762151693372169e-01,
          -9.0025892239657221e-02, -1.3431330730364385e-01,
          -9.8534963429244421e-02, 7.8220591795920502e-02,
          5.4490182394983093e-02, -4.9711242421499838e-02,
          9.4442816125932097e-02, 7.4887139271075306e-02,
          -1.2041284329144276e-01, -9.9231550185627446e-02,
          -7.3808053225343312e-02, -1.3067422552710820e-01,
          -8.6753498810668794e-02, 1.2165723693422185e-01,
          9.5443300496069916e-02, 4.5259214961792624e-02,
          9.1941245908236977e-02, 1.0107752050501875e-01,
          -3.1088351508162200e-02, -6.9383759783353902e-03,
          -2.1352531015083637e-01, 7.6474883180241648e-02,
          1.0992889300829303e-01, 7.4957228352297053e-02,
          7.7973010147058402e-02, 3.3711280381097143e-02,
          2.5372420580865107e-01, -5.5085041051616712e-02,
          4.1242732554218689e-02, -8.6574633101949794e-02,
          -6.2132594852836856e-02, 7.1023718694861598e-02,
          -4.1485703945144644e-03, 5.1279312291899269e-04,
          -8.2671823551370718e-02, 8.1595894451703538e-02,
          -9.9902250978553650e-04, -8.6497158576776867e-02,
          -1.1242218738310594e-01, -5.8375631122994279e-02,
          4.9227096513538286e-02, 6.9853232888108380e-02,
          -9.4223454116658070e-02, -8.6129795279033111e-02,
          7.6127296527198712e-02, 4.6608650945658692e-02,
          -5.9424894016937492e-02, -6.3342576173308573e-02,
          1.6842638154054099e-02, 7.8605576531494248e-02,
          -1.3820173759494436e-01, 7.6551800503789361e-02,
          -8.5162240645459714e-02, -6.9915759595783736e-02,
          9.2976093889980682e-02, 4.2435308690588848e-02,
          1.0032082237616168e-01, 3.2338646994482863e-02,
          2.4188034068108411e-01, 1.3787044706363485e-02,
          9.9504755713158935e-02, 4.7195927689429457e-03,
          -3.7352179443981656e-02, -3.7595665217479042e-02,
          -1.5586063064247398e-02, -7.6841161711839426e-02,
          -6.6953446239784178e-02, 6.7357820387764777e-02,
          1.2092658877359184e-02, -3.5896536866548819e-02,
          4.9786288685413634e-02, 5.2220014731381492e-02,
          -7.1717114324051187e-02, -6.8617101520577525e-02,
          -7.0198329998013800e-02, -7.1493050148938586e-02,
          -2.6691364172405523e-02, 7.5555271358815096e-02,
          5.6774794558385001e-02, -5.8889543551381447e-03,
          8.4451885909437072e-02, 1.0598839117802358e-01,
          -7.7297931853156143e-02, 2.5796518506649761e-02,
          -2.1724391957341760e-01, 4.1998001134604480e-02,
          6.9675585536227450e-02, 7.8958210645355173e-02,
          4.7987174940436798e-02, -4.8122875568947223e-03,
          2.0081145481711932e-01, -3.7364192347361116e-02,
          1.0390606078038067e-01, -7.8930473016210562e-02,
          -2.9524767288695353e-02, 7.1161216933871105e-02,
          2.4211375329493648e-02, 3.2495536949675350e-03,
          -1.2339394574319963e-01, 2.9110530218975715e-02,
          -4.4458396413714227e-02, -9.7940641496304146e-02,
          -1.0671190414689649e-01, 1.5143061209460132e-01,
          3.4786082025477075e-02, 5.1729759613143772e-02,
          6.9384475107038884e-03, -1.3390910567195338e-01,
          7.4860085632786663e-02, 3.6161467653384682e-02,
          -1.6891011632782369e-02, -4.6928171841134653e-02,
          1.8915214539069147e-02, 3.9251698843004577e-02,
          -6.8876414195672600e-02, -6.1811856626759008e-03,
          -4.3771352121517101e-02, 3.7189459422079144e-02,
          2.0249130267346277e-01, 5.2454984666445305e-02,
          1.7170667903366443e-01, -5.2833087243979546e-02,
          1.0754772885864231e-01, -4.9599035189538974e-02,
          8.7900514797280532e-02, -7.1861043388294230e-02,
          -5.2304731451342554e-02, 1.0303307984653221e-01,
          -2.2239191158663421e-02, 2.2832611208196379e-02,
          -5.4444797664206970e-02, -2.0681939271914588e-02,
          -5.3200490079634691e-02, -4.5603446455139383e-02,
          -9.3115666270231573e-02, 1.2789343075055903e-01,
          -7.2278051272748230e-03, 2.6699583400572182e-02,
          6.5071303971195413e-02, -6.1884808916385793e-02,
          5.6868088564212931e-02, 7.3471580484646137e-02,
          -2.7780188861197954e-02, -4.9765194485969520e-02,
          -1.6297370230989996e-02, 3.0310926254202477e-02,
          -5.0974582110103299e-02, 5.1972570322774740e-02,
          -5.3255706246542099e-02, 9.5626631582997654e-02,
          6.4408927036489635e-02, 8.4428349019908117e-02,
          3.0095748602636866e-02, -5.0242947775188153e-02,
          3.1507823832803622e-01, -6.2536160816220598e-02,
          8.6471271083492975e-03, -7.5689755400009495e-02,
          -3.0155691706710813e-02, 9.9983586918634793e-02,
          5.6337453713508595e-02, 7.7608744698640119e-04,
          -6.7900482381675939e-02, 9.3748204354159453e-02,
          -1.3379129908582015e-02, -2.7614184967919071e-02,
          -1.2690700987027811e-01, -6.2135044692246441e-02,
          7.7970466413488607e-02, 1.7768637020830182e-02,
          -1.1430670647127869e-01, -7.6452892302540140e-02,
          6.6486049941408915e-02, 4.4945469479889921e-02,
          -9.2282867468920296e-03, -4.1686393837692869e-02,
          7.2367994514929784e-02, 8.4720551272061587e-02,
          -6.6611973732334351e-02, 4.6840084075512829e-02,
          -9.2849863829229079e-02, -9.6160725920677897e-02,
          8.9856905684218558e-02, 4.6728587461926964e-02,
          9.1128994797611010e-02, 1.3047014463617274e-02,
          2.3330334964175103e-01, -9.0159881424933877e-02,
          9.0672881317921863e-03, -1.1346571910144948e-01,
          -5.7345526124353480e-02, 1.6913138330953842e-01,
          7.7995123791892995e-02, 2.6309567380469131e-02,
          -1.4537719553993434e-03, 4.6590632664501301e-02,
          -5.5451914595204675e-02, -2.7496134942171620e-02,
          -1.4586450236394269e-01, 4.2629191660665073e-03,
          1.0097475296442075e-01, 1.9533882841890594e-02,
          -3.4120724735131690e-02, -4.8711802566961317e-02,
          7.7457712153046282e-02, 8.4803037137565970e-03,
          -6.8683001048111601e-04, -3.0079508369090822e-02,
          3.6777493496837371e-02, 4.2098359578439479e-02,
          -4.0691048273543244e-02, 6.1174465242652035e-02,
          -7.4642106395851560e-02, -5.5242661485442594e-02,
          5.9518270505310063e-03, 1.6164279386306546e-02,
          6.0629972987698297e-03, -2.8709624608008546e-02,
          1.6986294485032868e-01, -1.0547321160933715e-01,
          6.2543435652808843e-02, -9.6398603517225775e-02,
          -9.9771415595269544e-02, 1.0838704447615298e-01,
          -1.5814925012136792e-03, 7.6389905759772309e-02,
          -6.2338429090888846e-02, -1.1932296733528337e-02,
          -1.0403898664689622e-01, -1.4358739834869144e-01,
          -1.6724501141497433e-01, 5.7646925598888593e-02,
          8.6037968337015713e-02, 7.2613336715463717e-02,
          7.6280184952663505e-02, -8.2375812715595274e-03,
          7.7684027847141943e-02, 6.3664963351536319e-02,
          -9.1167933473753626e-02, -1.5105214212543375e-01,
          -4.9741096032292050e-02, 1.1169540001139296e-02,
          -1.8369222513133771e-01, 9.2237303981049013e-02,
          5.0266980221618823e-02, 6.4926475493132713e-02,
          2.6183300482024361e-02, 4.2345451394561293e-02,
          2.1420571615942841e-02, -9.7694340092383369e-02,
          3.1964055244892942e-01, -4.0540213687839721e-02,
          4.0660752532636756e-02, -5.6097817549628975e-02,
          -5.3834449140391379e-02, 7.2983065436118488e-02,
          8.0285141566910759e-02, -3.3488653509194916e-02,
          -4.5447335560025358e-02, 7.4217689240774931e-02,
          -1.3547336649944406e-02, -4.0695744699910517e-02,
          -1.0318294195436324e-01, -6.0018431073645843e-02,
          2.8994294610655176e-02, 7.8428564513904203e-03,
          -7.6325187048504758e-02, -5.9776498565984562e-02,
          3.8281244341141954e-02, 5.5652932987806276e-02,
          -3.1787954770517497e-02, -4.2653291530734869e-02,
          5.0141625291355109e-02, 9.5644287451944851e-02,
          -5.0980494671798791e-02, 6.2338404438495990e-02,
          -1.1067898621196615e-01, -4.6890806957626104e-02,
          5.3696310522494919e-02, 5.0655259131535513e-02,
          5.3109143385851557e-02, 1.4129375123445000e-02,
          -1.6389347501353091e-01, -4.7974232896290367e-02,
          -6.1444151459555542e-02, -2.6175943522736854e-02,
          5.8606899869503438e-02, 1.3965859097878128e-02,
          3.6615172739649690e-02, 4.8712290592655270e-02,
          6.0373295093306384e-02, -2.0665626567313237e-02,
          -2.8908580069041512e-02, -3.0987773623914944e-02,
          3.6254493854182751e-02, 7.0645052253149815e-03,
          6.3498631981509623e-02, 3.0060641401389126e-02,
          -3.5981027049974156e-02, 1.7579471633355326e-02,
          -5.2189622272785672e-03, -9.5765407736423197e-02,
          1.8793973216344880e-03, 1.1664574755365651e-02,
          -4.9238203284432142e-03, -3.5080708293362642e-02,
          6.3115808117126623e-02, 2.1714952156867254e-02,
          8.9526696906740449e-02, -8.4130070472746617e-03,
          -3.8909840169601854e-02, -1.1282099794222127e-01,
          -2.8530941383521823e-02, 1.5587763327289455e-02,
          2.1953015415078125e-01, -7.6817111940253341e-02,
          3.5013786737701350e-02, -1.1920086924146704e-01,
          -6.7447013778966475e-02, 1.3642429644607978e-01,
          7.5685196974153532e-02, 2.5814420511608194e-02,
          -4.1622028484242908e-02, 2.9857577464134300e-02,
          -8.1754866990792055e-02, -8.1148997718695201e-02,
          -1.7047087873384464e-01, -3.1314126750492534e-02,
          9.9351475318015248e-02, 6.5515066991032669e-02,
          4.8175109860902014e-03, -6.0974397679756071e-02,
          7.8933189829223649e-02, 3.5269374823886437e-02,
          -7.6551821148285529e-02, -1.0461063157944904e-01,
          1.9440867637936373e-03, 4.0911870535399027e-02,
          -1.1047059021707957e-01, 9.7616326568947226e-02,
          -8.1717524111171239e-02, -6.6063486698407545e-02,
          2.4403766777366442e-02, 1.2844359594898391e-02,
          4.4374839559019032e-02, -4.7657009983335927e-02,
          -8.7914076056761631e-02, -4.7781229915240239e-02,
          -7.0608065654425928e-02, -4.5541606181078297e-02,
          5.6473495038819856e-02, 1.0201975088320631e-01,
          5.9008010241408448e-02, 4.0356141748824285e-02,
          6.8139212760891910e-02, 1.4997885031619673e-02,
          -3.1463700377075021e-02, -1.3964863503292908e-02,
          -5.2118396256851017e-02, 2.0601213851614470e-02,
          1.6873141744148246e-01, -1.7831542515376667e-02,
          -7.0823073624650776e-02, 6.4495495287300905e-02,
          -5.1718603222250720e-02, -7.2469540786214037e-02,
          2.5349642142024578e-02, 9.6483861881200440e-03,
          1.8651052142797383e-02, 6.2311176565533017e-03,
          2.7365760456926898e-02, -3.0082559173599095e-02,
          1.4594910694363733e-01, -3.7101582823429277e-02,
          -7.6207467416643054e-02, -1.0207819308031231e-01,
          -7.3221210384148847e-02, 1.3989839461528557e-02,
          1.8874694463405015e-01, -4.1962872460387539e-02,
          9.3069768373224039e-03, -3.6405486438213765e-02,
          -4.3110075812843367e-02, 9.9863264541947255e-03,
          1.4101004096205925e-02, -9.0198438763142916e-02,
          -2.3833389796130422e-02, 6.9487829251106178e-02,
          -6.9708070365023965e-03, -2.1189597585611040e-02,
          -2.3898273489798109e-02, -9.6596094741594099e-02,
          -4.8625556888962890e-02, -1.2420701658350443e-02,
          -4.2452008235124995e-02, 1.7883608639533706e-03,
          -2.3843857191702008e-02, 4.8134613493510288e-02,
          -1.9080213315920084e-02, -1.7831544698355153e-02,
          6.7659049254340908e-02, 6.6905662344687505e-02,
          -7.2811840981588619e-02, 9.2069001228311464e-02,
          -1.3657935678015609e-01, -6.3161893153760333e-03,
          -1.9992917892139524e-02, 4.8242342155031884e-02,
          -2.3487305378580250e-02, 7.0170441378906490e-04,
          1.8407406505899357e-01, -8.9781523634196100e-02,
          7.0341379050219671e-02, -7.2747655458172952e-02,
          -9.6771280935576492e-02, 9.1711576391427491e-02,
          4.7490134028483073e-02, 4.2224388882863798e-02,
          -6.8372470604416230e-02, 2.3830588573967509e-02,
          -7.2189059031071021e-02, -9.4336018314889719e-02,
          -1.3541426184608546e-01, -1.5085854908399796e-02,
          3.0462368028932582e-02, 7.9272359829258926e-02,
          6.9614492311136242e-02, -6.4880218362788303e-02,
          6.7839854323982443e-02, 4.4360297751665556e-02,
          -1.0825227389038962e-01, -1.0872238260255367e-01,
          -5.3886361415574680e-02, 8.1296269092724513e-02,
          -1.6657255430914492e-01, 1.1199852361022078e-01,
          -4.2273468887441372e-02, 2.0583888214220209e-02,
          4.3311344487233783e-02, 3.2721890308787444e-02,
          5.8397188781988033e-02, -7.5671460952043884e-02,
          7.9617307748997335e-02, -5.2403852555944735e-02,
          5.8901034321768072e-03, -4.2467849823760048e-02,
          -4.9527540306997166e-02, 2.0857359728468930e-02,
          1.0239726268531135e-01, -8.0212731285272454e-02,
          7.0905779725490593e-03, 7.8407741608538209e-02,
          -4.3589539048370728e-02, -1.9857807542499481e-02,
          -6.8555876769625976e-02, -4.7895857955223969e-02,
          -4.9828705070660867e-02, -1.4372573019751466e-02,
          1.3981559208364525e-02, -1.4086890466818094e-02,
          -1.6125664085712738e-04, -2.4531265336171497e-02,
          -1.1672286963932124e-02, -3.1515230302764721e-02,
          3.4691904210419157e-02, 1.0477231345510675e-01,
          -5.0885086123803915e-02, 6.5032172318498241e-02,
          -1.0770014723341276e-01, -3.0858402096097085e-02,
          -4.3863372931962951e-03, -2.3007285418485620e-02,
          6.3953950204205115e-03, -3.5188269615690500e-02,
          1.9422235800105928e-01, -1.3337014866445689e-02,
          3.6436024095897683e-02, -9.5611098948137508e-03,
          -6.5120228613208334e-02, 1.5147133841736308e-02,
          4.2791716118251028e-02, -1.2540504785489109e-01,
          -1.6046001199162427e-02, 8.2303379153317646e-02,
          -2.3046340282860282e-02, -5.5859159430454677e-02,
          -4.5014643889636212e-02, -6.8267804358139825e-02,
          -7.4958334237987159e-02, -4.0621344209461348e-02,
          -5.7479162063068905e-02, -3.1565185950347373e-02,
          -4.2859051405669202e-02, 3.0480242870324230e-02,
          5.0650199850813147e-03, -3.0278026133849903e-02,
          7.5590584872552061e-02, 1.1031491462036831e-01,
          -9.2632150187095502e-02, 5.8370176414558557e-02,
          -1.7380508287657220e-01, -2.3500306213258691e-03,
          3.1911998049103420e-02, 4.2356951394368812e-02,
          2.9018458049154944e-02, -9.9604562337520935e-03,
          8.4244824015447875e-02, -7.4827436914873563e-02,
          1.1959946293156743e-02, -6.1038353920735394e-02,
          -8.0706923879544631e-02, 5.7402622729918057e-02,
          4.9264443693502200e-03, -2.8913338520574400e-02,
          -1.0768152661879472e-03, 9.0820268910875197e-03,
          -4.9710430271115540e-02, 2.5613953442210548e-02,
          -9.7100739488765644e-02, -1.7749771446531594e-02,
          -3.6987997165663679e-02, 2.5785730857806164e-03,
          7.4347023457270164e-02, 5.5480009311340540e-02,
          -1.8311585595006830e-02, 4.5806696427308551e-02,
          -5.4534650818628495e-02, -6.9099477685719127e-02,
          -1.4355360600756754e-02, 5.1718258615495574e-02,
          -6.8017570594167895e-02, 1.0108643825874720e-01,
          -9.5885725304505745e-02, 1.0435216159389128e-01,
          -1.1423754083374932e-01, 7.4826789209402889e-02,
          -1.0533167498756783e-01, -6.7938475206150442e-02,
          1.7422987530713557e-01, 3.3826370869535103e-03,
          5.7647858937489332e-02, -1.2762035672145636e-03,
          -5.8572530835235094e-02, -2.4591530646053003e-02,
          3.3292614564930760e-02, -1.5610645398963585e-01,
          -2.7434819918405129e-02, 7.5958707108305726e-02,
          6.3795504966723034e-04, -3.2123014526483459e-02,
          -1.4142236629191634e-02, -7.7907748812871630e-02,
          -1.0514407642698860e-01, -5.2916994494932083e-02,
          -4.8426224053364546e-02, -5.1885784533249067e-02,
          -7.2202612745649153e-02, 4.2751000752276613e-02,
          2.6480971113883475e-02, -3.3146615486871089e-02,
          6.1575888365359349e-02, 1.2197735142854706e-01,
          -7.3745844877313046e-02, 1.8789785638970879e-02,
          -1.7539260749879970e-01, 1.9821473296120978e-02,
          5.8344378437920272e-02, 5.6624738829642640e-02,
          2.6927606009463981e-02, -3.8952215008782017e-03,
          8.5215676384498715e-02, -2.7612039019422812e-02,
          1.6720178655680984e-02, -1.1848506863707340e-02,
          -5.2371112777840255e-02, 2.9420670809290790e-02,
          7.8096359929765088e-03, -1.2482898991776774e-01,
          1.3444395460185131e-02, 4.2264827957356595e-02,
          -5.3651968766048721e-03, -1.9611345981214157e-02,
          -3.3226880744360324e-02, -5.1841655967135400e-02,
          -1.0230219751542782e-01, -3.4313280239962433e-02,
          1.1835235469374077e-02, -3.9697510812976939e-04,
          -7.3264943324089185e-02, 1.9009343950210447e-02,
          1.3011979465956567e-02, -1.1696438411096048e-02,
          5.5408934589501441e-02, 6.0353331709928404e-02,
          -5.8137259778946383e-02, 4.2246420995504318e-02,
          -1.1851682461039215e-01, 6.4717911477490397e-02,
          -2.0550039619992827e-02, 5.1506842632326744e-02,
          -2.1896226039334350e-02, -4.2264523415570701e-02,
          2.2714050967325072e-01, 4.9966743092344140e-02,
          9.9055406002206317e-02, 3.4883840197544362e-02,
          -1.0103201594918858e-01, -1.0796571362949479e-01,
          -9.6420021440422003e-03, -5.8168357685576107e-02,
          -1.2192614583521652e-01, 1.1464166714471749e-01,
          1.0717379702688120e-03, -1.7970619562893347e-01,
          5.1699059478591290e-02, -1.4772919937323475e-01,
          -4.2114267363768026e-02, 3.3157763027233778e-02,
          -6.5269261495329856e-02, -1.8366573737783187e-01,
          2.8948738474076301e-02, 9.4159745734383127e-02,
          -3.7543386405161971e-02, -1.2233709402139267e-01,
          8.1514654609189212e-03, 1.2625393998824599e-01,
          -2.4611411554703702e-01, 1.5016747490242524e-01,
          -1.9527351405518165e-01, -9.7537305244770930e-02,
          2.2088349298052642e-01, 9.6329639687217611e-02,
          2.1722873619667984e-01, 2.9075772579115807e-02,
          6.7086989587594098e-02, -6.3046677070192313e-03,
          -4.2109218969828468e-03, 3.7135531476092616e-02,
          -4.8281585467141314e-02, -4.5666640342523230e-03,
          -1.1530800719750106e-02, -1.0580343766478027e-01,
          3.2210812711566415e-02, 2.3562352105920125e-02,
          3.4099820709405293e-03, 9.4641812981782106e-02,
          -2.3325432744070836e-02, 1.0345509040843865e-03,
          -9.6521445262245570e-02, -9.5052608403325953e-02,
          7.5521553960753940e-02, 2.3672551990980693e-02,
          -9.0679249922348271e-02, 2.7273665951598147e-02,
          4.1390910197699450e-02, 5.4659183065538450e-02,
          6.9523227369534368e-02, 6.9695638347151798e-02,
          9.2017848481401626e-02, 1.3395931894586528e-03,
          -1.4930373925177226e-01, 1.0680537241366840e-01,
          -7.0612309329880663e-02, 7.4356854727297458e-02,
          -1.0834339008379218e-01, -7.7019079510040667e-02,
          1.6946031933980496e-01, 5.3280574840276027e-02,
          4.5338044311709569e-02, 7.6613469278434349e-02,
          2.8315966151517141e-02, -9.8443525736375576e-02,
          -6.4671596026350850e-02, -4.4546965395950926e-02,
          -7.2272359658741708e-02, 5.7104940104733808e-03,
          3.4125422332889697e-02, -4.6355931054859502e-03,
          8.0738207668942158e-02, 3.4277932170577674e-02,
          -9.2435452107183902e-02, -1.0216704209877188e-01,
          1.9477274569480882e-02, 7.7194851157966283e-03,
          -9.3388065400932460e-02, 7.5373429585224097e-02,
          6.2385760429924754e-02, 4.0062492969169722e-02,
          5.8685022336248151e-02, -1.1921733215651235e-02,
          2.8329999803055391e-02, -5.9534247351515884e-02,
          -1.2962954817997563e-01, 1.1682109899436435e-01,
          1.8323781630857541e-02, 8.1876793759179833e-02,
          8.2113078264172707e-03, 2.5276952768972419e-02,
          1.3962449897101820e-01, 1.3336535067902024e-02,
          5.1766577924515014e-02, 8.0545605365638304e-03,
          -3.6209160283844202e-02, 1.4440560767751129e-03,
          -9.9187018075371294e-03, -1.2600736512393243e-01,
          -1.7382419475607546e-02, 6.0860133613393985e-02,
          -3.9583551348952835e-03, -5.0232914741884113e-02,
          -2.0768032273576703e-03, -8.6095890251000881e-02,
          -7.6092022317609989e-02, -3.9537266301869552e-02,
          -1.3827443908536713e-02, -3.2962041429203386e-02,
          -1.0507261551048765e-01, 4.2939672082246111e-02,
          4.9757313418357992e-02, 1.3214781335255820e-02,
          5.6815283712576194e-02, 6.3592287885515145e-02,
          -4.1993815913429711e-02, 1.8107659140753511e-02,
          -7.5726341200761826e-02, 6.6017852308695446e-02,
          2.9479920173975445e-02, 6.3077018475982280e-02,
          2.5364222538327773e-02, -2.0671877552507278e-02,
          1.6545451266003294e-01, -1.2893592582060213e-02,
          3.1183865303951773e-03, -1.1942543588730202e-02,
          -1.6790998635631590e-02, 5.0528717661014931e-02,
          2.7943528462890530e-02, -5.8838957516911039e-02,
          7.9646271772717686e-03, 7.1477278967223223e-02,
          -1.5229888122498074e-05, 4.8794396372050422e-02,
          -1.1308301790261473e-01, 7.4339406148676125e-03,
          -5.9571156121162934e-02, -6.8442256602291598e-02,
          7.1880072512366814e-03, -2.7531798983310690e-02,
          -3.7726868734983710e-02, -9.3260888979156981e-03,
          4.4959059087940040e-02, 4.4761282550824212e-02,
          5.9591202229599800e-02, 8.3132133097361893e-02,
          1.0586222897494080e-01, -6.6663877876171868e-02,
          -9.8610014041310146e-02, 4.0053107380671658e-02,
          7.1265588455486376e-02, -8.2613871253657666e-03,
          4.6867704577809449e-02, -3.7775103769196225e-02,
          3.3640825393880724e-01, 7.3687771081511741e-02,
          6.7134498963457703e-02, 6.8284089440915574e-02,
          3.2117365572256196e-02, -8.6352307090046238e-02,
          -1.8837497254245140e-03, -4.6943703692077919e-02,
          -8.8792011594431453e-02, 1.0014892089786880e-01,
          2.9787525132283214e-02, 1.1307651288998164e-02,
          3.8066891151718560e-02, 8.8849375345261036e-02,
          -1.0318439796881067e-01, -1.4669238125308096e-01,
          -3.2177909371596182e-02, -2.0109500765931942e-01,
          -7.7252981466853998e-02, 2.3060994026887983e-02,
          1.0488469592113739e-01, 7.3671661108012126e-02,
          8.8188648169029979e-02, 1.0378638754307121e-01,
          1.1555561971930013e-01, -1.1021802256490648e-01,
          -1.3593657664048753e-01, 7.4773258434544590e-02,
          2.3379644807322408e-01, 2.6863739836292679e-02,
          2.3436743782463951e-01, -1.6905521938627467e-02,
          2.2743308171401794e-01, 1.1101353537523742e-02,
          8.0140071918079397e-02, 5.2193120216162618e-02,
          -4.2322289711072318e-02, -6.4327712174029786e-02,
          -2.2655560608124400e-02, -1.2845350022269825e-01,
          -6.7106040988420976e-02, 9.2005467886126763e-02,
          2.2577926312405454e-02, -1.2090520474985766e-01,
          4.4827794841807225e-02, -1.1262104975041413e-01,
          -4.6495851489641853e-02, -2.2437165512508132e-02,
          -5.4341362949074677e-02, -9.4787847378180357e-02,
          -7.9337443130606519e-02, 9.3804196453608338e-02,
          3.1571320165707077e-05, -3.6339907582008127e-02,
          4.3426741576449608e-02, 9.0527864273563310e-02,
          -1.2134053958165078e-01, 7.9486926237374828e-02,
          -1.1020815344389698e-01, 8.4877667323763704e-03,
          9.9766267624589358e-02, 1.0294604933955899e-01,
          9.5712056298790579e-02, 2.3531981859282469e-02,
          1.1682968034727047e-01, -6.6420168977865542e-04,
          2.1032686004793941e-02, 3.5935084245994932e-02,
          -2.0444745926802982e-02, 4.6979584666671972e-02,
          -6.5172510733697550e-02, -7.3612890883306928e-02,
          2.1440198851763394e-03, -7.1453575524406641e-03,
          3.3321030131370506e-02, 6.6281134378072593e-02,
          -1.2276590140329125e-02, 7.9840303003696801e-03,
          -3.1241621435543689e-02, -4.6747024544273590e-02,
          8.2963023853972459e-02, -8.3880988752613080e-03,
          -8.6934090250620669e-02, 4.0879994109432854e-02,
          2.4310753063663013e-02, 6.7230438839545756e-02,
          3.5569913760266018e-02, 1.3090079837754409e-02,
          6.8182516856779132e-02, -1.3938594324969267e-02,
          6.6554981870423774e-03, 1.4136159482287958e-01,
          -1.8273932418641538e-02, 7.2722259305218084e-02,
          -1.0533883909151899e-02, -3.8935764173305028e-02,
          9.6242515670026632e-02, -1.7272986837764674e-02,
          4.7301556948749983e-02, 1.6765803147117005e-02,
          -1.9269968276527594e-02, 5.6353761391150135e-02,
          -5.1364796525669325e-02, -6.5230274642233674e-02,
          -1.9499877214117486e-02, -7.7314914089731089e-03,
          -4.2550013806720696e-04, -4.4908570496976281e-02,
          -2.1754960592682688e-02, -5.8266657218568094e-02,
          4.2071060897260837e-03, -3.4234736550561723e-02,
          5.5283577945429388e-02, -2.5218793927705596e-02,
          -7.2861072097324980e-02, 4.2889572902598608e-02,
          -4.0973072845867592e-03, -2.0296774930559747e-03,
          1.2736997256854198e-02, -8.3232600296310553e-03,
          -3.0638696198261751e-02, 1.3842857570949009e-02,
          4.5039287239750779e-02, 1.0960369698010558e-01,
          1.5410083942620797e-02, 5.8677891325421040e-02,
          1.9142443164679973e-02, -4.5280040437087783e-02,
          2.4811827842602302e-01, 9.4024916253139024e-02,
          9.5594190379586552e-02, 1.1071072273086906e-01,
          -7.0748907197805105e-02, -6.8315175568332900e-02,
          -1.2165671535223842e-01, -1.1041159712160133e-02,
          -8.4737559688861847e-02, 6.9861018672224776e-03,
          3.3624924656460498e-02, -5.3257372179661262e-02,
          1.2079298768042160e-01, 2.2586374638481909e-02,
          -7.0839388276827423e-03, -7.7191367254671781e-02,
          1.2224810886268465e-01, -7.9994630363618591e-02,
          -6.3884945304579069e-02, 1.1883328300065979e-01,
          7.6897032470433163e-03, 1.8607593372000013e-02,
          -5.9784964186072763e-03, 1.7192442039373201e-02,
          -6.7441981216638316e-02, -2.7653050557444492e-02,
          -1.3260930874000666e-02, 1.6012097062017674e-01,
          1.0128007925604524e-01, 1.2673381699531799e-01,
          8.6989430226990724e-02, -8.7531465702909608e-02,
          3.3598154292447913e-01, 3.6338066128048539e-02,
          9.6094998890609448e-02, 4.8143585468853757e-02,
          -7.4174847858234610e-02, 3.3857812578996782e-03,
          -8.4947935935141911e-02, 8.6399958016662212e-02,
          -1.1099810297340683e-01, -1.7606123174868173e-02,
          -2.2888360707591653e-03, -1.0206836293119172e-01,
          7.4143815730699281e-02, -8.2956844716403615e-03,
          1.3880184575789253e-01, 3.8463872669418482e-02,
          8.1442627610875049e-02, -1.0202742345625181e-01,
          3.4832057113250246e-03, 1.3441671722268264e-01,
          -7.1813196519974337e-02, -6.6508669450420679e-02,
          -5.5406900116647652e-02, -4.9632105109823764e-02,
          -1.3634507165703308e-01, 1.2419470324780770e-02,
          1.0435490305670951e-01, 9.1495999498604555e-02,
          1.1936564705506351e-01, 1.1685432814285028e-01,
          1.0891253756135444e-01, -6.3857343374541117e-02,
          2.3260568036217483e-01, -1.8547256908014370e-02,
          4.9760535967300956e-02, 9.9970559736810099e-04,
          -3.7969659288070272e-02, 9.6961214297320450e-02,
          -3.5890763213486540e-02, -5.1598432351859028e-02,
          -4.2615812011897916e-02, 2.5445502261258707e-02,
          8.2366726643686907e-03, -5.6561623636306881e-02,
          -6.4245572374480711e-02, -8.3195886605865382e-02,
          6.2817439588696303e-02, -3.2540968743863258e-04,
          -1.7887903368028268e-02, -8.4434953104481084e-02,
          -7.3468417175003714e-02, 6.1345220707007826e-02,
          8.5154299385314814e-03, -3.9064321672755836e-02,
          5.2248250782081470e-04, 1.8774176643985108e-02,
          -2.0627104988223323e-02, 3.8523803011377175e-03,
          5.7262272833293673e-02, 4.3654098113433980e-02,
          6.4922466478380403e-02, 5.3817498107935922e-02,
          8.6225287930499911e-02, -1.6908423738037418e-02,
          2.2822049765029911e-01, 6.7046223931520690e-04,
          3.1830762923194353e-02, 2.4489496092550442e-02,
          -3.2332245158776370e-02, 6.7603511584276410e-02,
          -1.7713984396988635e-02, 5.2749225936837271e-02,
          -3.7839553509543683e-02, 1.8503754141474003e-02,
          -1.2306748227756518e-02, -9.6396113357295074e-02,
          1.8561005281478943e-02, -6.0869949365055583e-02,
          1.5285350562747688e-01, 4.5582100773118297e-03,
          1.3123157889086365e-02, -1.0035989550705403e-01,
          -2.0925861255973406e-02, 3.4235180683266316e-02,
          -5.5967885591100761e-03, -3.4559985390172153e-02,
          -1.4691517359771604e-02, -2.0186989586677001e-02,
          -6.6649288920264449e-02, 2.3504792747852787e-02,
          1.3427065362948143e-01, 2.8237761719580545e-02,
          9.3960821877206752e-02, 4.4629103573806839e-02,
          1.0598609378545634e-01, -4.0983787653444723e-02,
          1.4295446876273354e-01, -4.2492585764114651e-03,
          8.3101995427504335e-02, 3.7855324497453094e-03,
          -6.6115285347493835e-02, 5.7900387128537019e-02,
          -7.3544613865736963e-02, 2.5857856922792032e-02,
          -8.7771953651742618e-02, -2.4004021568620644e-02,
          -7.8100346467714361e-04, -1.0045057656416445e-01,
          9.3156998148283664e-03, -8.0473313830022458e-03,
          8.2611313178604318e-02, 1.3399566618978091e-02,
          8.5283251627394446e-02, -7.1647213458694972e-02,
          -4.1697825219252825e-02, 7.1933646284437366e-02,
          -5.1572333548913191e-02, -7.0626451683237695e-02,
          -4.0411639217821198e-02, -4.9677064815693832e-02,
          -9.1949282937152502e-02, 3.4051076918898117e-02,
          1.0507504449565751e-01, 1.2958749384456181e-01,
          8.2584705081659951e-02, 9.0602411383326684e-02,
          7.8984320306936320e-02, -5.1829481593362363e-02,
          8.7513789509867365e-02, 3.3855423641793891e-02,
          1.2020249757054903e-01, 2.9178645347966829e-02,
          -1.0033892846514736e-01, 3.7832061382221970e-02,
          -1.1818800171352341e-01, 7.0987839163218075e-02,
          -1.3073388380693765e-01, -2.6040243758275867e-02,
          -1.6607197338214849e-02, -1.6333908468918809e-01,
          7.1683073142224621e-02, 9.0707995600603046e-03,
          1.2351507414223122e-01, 3.6003119839051162e-02,
          1.1839545339667477e-01, -1.1974096557891281e-01,
          -3.3499731738523164e-02, 1.2530979096275244e-01,
          -7.9480286084366955e-02, -9.0069417776735175e-02,
          -6.4552728987355021e-02, -5.2849897936185719e-02,
          -1.6098446742054889e-01, 6.1325770921131971e-02,
          1.0868816288291225e-01, 1.3990581888451870e-01,
          1.2486085271017432e-01, 1.4511216000035757e-01,
          1.3219444130459362e-01, -6.5688735366752682e-02,
          2.1757949708121488e-01, 6.1212602770691571e-02,
          9.2871903462489247e-02, 7.4133410953976173e-02,
          -4.3995564089387519e-02, -3.8963215163196285e-02,
          -6.9451005577954403e-02, -1.0375690726817276e-01,
          -8.6372673611697065e-02, 6.9866927287381447e-02,
          4.8772458181776071e-02, -1.0392876222205163e-01,
          6.3977245938175900e-02, -1.1776664611845236e-01,
          -1.4911371068981541e-02, -3.0139567481239918e-02,
          -2.0043371438639743e-02, -1.2765799883037351e-01,
          -1.1224145309301028e-01, 9.0448854407501764e-02,
          -2.3471925565661804e-03, -3.4568306742185383e-02,
          3.4276969599135690e-02, 4.0592787025522450e-02,
          -1.1698358296391324e-01, 3.1631818254130153e-02,
          -4.8116696693180944e-02, 5.8455375194692037e-02,
          1.2873286657400695e-01, 1.0579840202451317e-01,
          1.4139314804162378e-01, -5.4805741304281945e-03,
          8.5188388851147018e-02, -1.6349575922988181e-02,
          8.5459371953567689e-02, 5.6903372473884389e-03,
          -9.3115178331949308e-02, 1.0092740227237650e-01,
          -1.2031013936698201e-01, 7.2410239243925270e-02,
          -1.1979115856925246e-01, -3.2112495804901338e-02,
          -1.9990102374671716e-03, -1.4354831960931483e-01,
          2.4165696107640872e-02, -1.6942353815540399e-02,
          1.6961377340092385e-01, 5.5048810980263048e-02,
          9.9064541781294729e-02, -1.1134920348091766e-01,
          -1.9541949070381228e-02, 1.4742794758892439e-01,
          -1.0066823624957136e-01, -9.5105087807970085e-02,
          -7.0867156164832315e-02, -5.1369064464495559e-02,
          -1.6478721863528464e-01, 8.6185453266139952e-02,
          1.6967637735707042e-01, 1.0434631244962352e-01,
          1.1608341118614215e-01, 1.5835950686271882e-01,
          1.3582808398773966e-01, -7.1708790656835122e-02,
          9.0698151785285036e-02, 5.8129987131258269e-02,
          1.8962040997625035e-01, 5.0505740080262117e-02,
          -1.5352068490289458e-01, -2.5632088534038099e-02,
          -1.4209163155494892e-01, 6.2517935114677320e-02,
          -2.0173259845289424e-01, -4.5453833471777727e-02,
          -1.7933828011988024e-02, -1.8368899147706413e-01,
          1.1883059173512762e-01, 7.5199376101173776e-02,
          4.5075930181117503e-02, -2.9852124751705247e-02,
          2.1033566837841530e-01, -1.4372656510007853e-01,
          -2.7682268429340538e-02, 1.9353622453270769e-01,
          -7.1049572592442947e-02, -8.8032933144836775e-02,
          -6.4192040627236602e-02, -1.1805441191321294e-02,
          -1.6882345341713773e-01, 6.3964593670551184e-02,
          4.2627731417608880e-02, 1.5260614861520716e-01,
          1.6946610305536594e-01, 1.9719220883747798e-01,
          1.7260335729915446e-01, -9.8809380727419335e-02,
          1.9859702744531968e-01, 2.6218087097946208e-02,
          1.1437688875256501e-01, 1.2711297910312402e-02,
          -1.2129601211341860e-01, 6.7729318035801414e-02,
          -9.4317905766622148e-02, 5.8889244971968867e-02,
          -1.3560724957679920e-01, -1.2090139950715742e-02,
          -1.2986839191937672e-02, -1.5309964293404749e-01,
          -8.5420946300331282e-03, -1.6153794635272792e-02,
          1.3242626519742065e-01, 5.4838655666098621e-02,
          1.0415358562957741e-01, -1.3385342500774405e-01,
          -2.9945308478026580e-02, 1.3590945401435453e-01,
          -1.0760849569038046e-01, -1.1294243304222466e-01,
          -7.9431292934282263e-02, -4.6560057280296337e-02,
          -1.5254472361671784e-01, 6.6074789181786081e-02,
          9.8432279482056961e-02, 1.0302055503554641e-01,
          1.3349520430779588e-01, 1.5095987891181306e-01,
          1.2649070931078032e-01, -5.3794710038447532e-02,
          1.4899189023717052e-01, 4.5977864342146922e-02,
          1.0028472026197537e-01, 4.9202326343865177e-02,
          -6.9445500875511740e-02, 1.4423581126261343e-02,
          -8.1775995022606213e-02, 3.6524537780975044e-02,
          -1.0861655735985798e-01, -2.5973953645704673e-03,
          1.3901378687005977e-02, -8.6216948135383428e-02,
          5.2930516450451659e-02, -1.7535222466248151e-02,
          7.8230662121286224e-02, -9.9601232816894633e-02,
          7.7886717731108696e-02, -1.2950324628338780e-01,
          -3.4649121746420423e-02, 1.0234062860765042e-01,
          9.3510883636896143e-04, -4.9911704243601494e-02,
          -1.0992601316223479e-02, 2.5398017622786397e-02,
          -6.8268437033787280e-02, 5.3537263197717351e-02,
          7.9640547356087152e-02, 5.9808190627624831e-02,
          1.1979453996921577e-01, 9.4117346610433014e-02,
          8.7584360514467871e-02, -4.3173751702895252e-02,
          1.5836619800571328e-01, 5.2951942272200299e-02,
          1.1344307143748292e-01, 6.9426660434733764e-02,
          -1.0488181234066250e-01, -7.0225536875994313e-03,
          -1.0360832017709504e-01, -2.4083775808983011e-02,
          -9.6860373079746168e-02, -2.5404136351975484e-02,
          1.1544445130634670e-02, -1.6571356360467904e-01,
          1.2677316418011408e-01, -2.0146510285040577e-02,
          6.1016068976731709e-02, -1.8024500253954270e-02,
          6.2704521066577160e-02, -1.0482427668882849e-01,
          -9.5005659808330201e-02, 1.5274009735116845e-01,
          -3.2307424529606645e-02, -6.8695464221254859e-02,
          -2.4411622318583071e-02, -1.2975212609679463e-02,
          -1.6110377689641950e-01, 5.2850177286030184e-02,
          2.8531129596756546e-02, 1.2427853226543882e-01,
          9.0696117281089020e-02, 1.6245647059681437e-01,
          1.2546058651589354e-01, -6.7316389764596696e-02,
          1.5684857280096377e-02, 2.8426811438949758e-02,
          1.0553839540615818e-01, 5.8315841285086406e-02,
          -8.7479764070344232e-02, 5.1490371060953838e-03,
          -1.0893194181144536e-01, 5.2736208479263275e-02,
          -1.1402217224706676e-01, -4.1516853690273227e-02,
          -6.5889172783612443e-03, -1.3837674827456506e-01,
          8.2297328847192916e-02, 6.3963663517227071e-02,
          1.1810095534184760e-01, -7.4260638457303912e-03,
          1.0852969815582265e-01, -1.0951851100187210e-01,
          -4.3727604574941292e-02, 1.2538121034653638e-01,
          -4.0808520909521785e-02, -5.9270269446426951e-02,
          -4.1303842375127582e-02, -3.8210643347289970e-02,
          -1.0635910513718246e-01, 3.2181211532656628e-02,
          8.2558821159766871e-02, 1.3982562299375723e-01,
          1.1748465548846465e-01, 1.4777641300457106e-01,
          1.2186311588606788e-01, -8.1104876373934459e-02,
          -1.4929797881918569e-01, -3.9552467309827621e-03,
          8.5210947903441553e-02, 5.2489329523307253e-02,
          -7.0736826088291530e-02, -2.5303227514674540e-02,
          -5.3075899022963023e-02, 4.2958610377689050e-03,
          -7.3710336272344315e-02, -4.2238438041371278e-02,
          -1.4305200525336968e-03, -1.5745067270801044e-01,
          9.6527253733104265e-02, 1.0957549408310669e-02,
          7.8846211786748416e-02, 2.4499710953537784e-02,
          1.0029083609340664e-01, -3.9071872285362547e-02,
          -5.3823045366170233e-02, 6.3614042084277345e-02,
          -2.9779074358360462e-02, -4.9393164611552777e-02,
          -5.1544347024850987e-02, -3.8340580307583617e-02,
          -1.0256308840526134e-01, 6.7336949120398407e-02,
          9.2793320261301798e-02, 1.0736794628695488e-01,
          9.9699890644537478e-02, 7.3462768510186613e-02,
          1.2320931277063812e-01, -6.3908126152837738e-02,
          -6.5975003570876295e-02, 1.1595348796336802e-02,
          3.6428110997587630e-02, 3.6532748992362730e-02,
          -2.0127201105318623e-02, 2.6779992333632301e-03,
          -1.7222592535750564e-02, 9.2801440793322202e-03,
          -3.1762665557742674e-02, -8.2607056909310538e-03,
          7.4352446273771638e-03, -8.0852122215526873e-02,
          4.7541660752156684e-02, 2.1237951559351587e-02,
          1.1712208023086007e-01, -1.6889551168852504e-02,
          3.6341575734224166e-03, -5.4953759307511410e-02,
          -9.6167231696943911e-02, 3.7346692714439814e-02,
          -1.0008184010392178e-02, -1.7633787860901302e-03,
          -1.6878966186145167e-02, -5.5637312667670309e-02,
          -1.8844445988934574e-02, -2.3379893815376664e-02,
          9.9086707047210579e-02, 5.9668918686865170e-02,
          6.5593340564890523e-02, 5.0067366093555672e-02,
          6.6701594718982626e-02, -4.2646006676100336e-02,
          3.6522763051421374e-02, 9.2809643202249274e-03,
          7.9322469112190541e-02, 2.9763429644604527e-02,
          -1.1395273149816197e-01, 4.8519090774864382e-02,
          -7.9704883870906629e-02, 1.0387800286804315e-01,
          -7.7517231596743896e-02, -7.1313684173104255e-02,
          8.4392646521521415e-03, -2.1543449673068396e-01,
          3.8382286669966167e-02, -1.6467745556787469e-02,
          1.5326949762943790e-01, 9.8848444103309813e-02,
          8.0686206042030639e-02, -9.4783284709974033e-02,
          -1.4534760898008290e-02, 1.1344202969043221e-01,
          -7.5398947098922212e-02, -1.1442550278466955e-01,
          -1.0587518604967781e-01, -8.5914876693467687e-02,
          -2.4441035284804380e-01, 1.0583795706827788e-01,
          1.4182137372544618e-01, 1.2090659920511707e-01,
          1.1080120657035188e-01, 1.3902308836296939e-01,
          1.3272761867443328e-01, -6.1646894149887679e-02,
          2.5478493175853972e-01, 1.1757099129792602e-01,
          1.2134132984461579e-01, 1.1773948694004270e-01,
          -1.5604734033108638e-02, -2.6971210694255449e-01,
          -2.2719204871468564e-02, -1.3531435745774090e-01,
          -1.5950543058437197e-01, 1.4926172978088401e-01,
          8.8964080246067348e-02, -2.3238674739708504e-01,
          1.9758152090604425e-01, -1.7190433775690378e-01,
          -1.1220908081676532e-01, -1.6218102186362927e-02,
          -9.3965814977470835e-02, -2.3823056167064113e-01,
          -8.3973056534499615e-02, 9.1263975931972496e-02,
          2.1530740355556893e-02, -1.0923734879156058e-02,
          6.8476005080827060e-02, 1.0762207760375904e-01,
          -1.8878843249274749e-01, 6.8613769217035145e-03,
          -1.6964081300651637e-01, -1.3344530656197484e-01,
          3.5526770331143925e-01, 3.4094813328711449e-02,
          3.5660011999327146e-01, 1.2329538304591037e-01,
          -4.2077664571843879e-02, 5.0789955744403072e-02,
          7.6679378624323599e-02, 6.1483784782205966e-02,
          -7.4117589704230880e-02, -6.6372358490179029e-02,
          -1.0425679857317557e-01, -1.5871706722283954e-02,
          -5.5108826505719834e-02, -7.0789552716264026e-02,
          1.9449747403354829e-02, -1.1822275799196939e-01,
          7.0457724648079118e-02, 6.7975926937220044e-02,
          3.1124227611607602e-02, 9.9941019067294485e-03,
          5.9879491781739236e-02, -3.9884681893625873e-02,
          -8.0600864826709931e-02, 1.3102843974428424e-01,
          4.9165505433634701e-03, -2.4513928224003390e-02,
          -2.7796203627076538e-02, -6.9969544782950699e-02,
          -7.2341895976541157e-02, -1.0773016544111081e-02,
          1.8170841199424755e-02, 1.4989590093950816e-01,
          5.6148270475549572e-02, 1.3638976952267232e-01,
          5.9731784476392158e-02, -5.6257508216978586e-02,
          -1.5134808622901416e-01, -5.2958122098218416e-02,
          3.4663622406039596e-02, -4.9787056027856104e-03,
          -1.1449959829627528e-01, 7.5248541976423652e-02,
          -1.2146608014824975e-01, 1.4445008204130458e-01,
          -3.6198382010287418e-02, -1.4225014289432172e-01,
          -2.7618260560100218e-02, -2.2104249973762038e-01,
          1.0357926862053213e-02, 2.0140678223394926e-02,
          1.5816264640151292e-01, 1.5641577457018471e-01,
          8.4303627090576261e-02, -1.9568885807406323e-02,
          2.4756319577374220e-02, 1.1691578172164670e-01,
          -6.8839633051713298e-02, -1.5470351156361356e-01,
          -1.6407898731825735e-01, -1.4591136749384739e-01,
          -2.4563473441434019e-01, 1.5280982204977991e-01,
          1.9885857290238507e-01, 1.6766809389388868e-01,
          7.1169954567287697e-02, 1.4993350955873258e-01,
          1.0475251414075319e-01, -1.1363259989228060e-01,
          1.1180921905728580e-01, 1.0554227711599327e-01,
          1.0532170329373439e-01, 1.4869171639616832e-01,
          -3.9103906143813850e-02, -1.6603341929500309e-01,
          -1.0515420895012406e-01, -8.0638097697300487e-02,
          -9.9466604837558120e-02, 4.1636072303339940e-02,
          7.1164269222411855e-02, -2.1168511926476313e-01,
          2.4826788178467366e-01, -5.9095410635141191e-02,
          -4.7662385237928782e-02, -4.6743860187736345e-02,
          -5.6193270036953777e-03, -1.3320926862789695e-01,
          -1.4125914018246322e-01, 1.1879028159598880e-01,
          3.4918881269359534e-02, -3.2782753051003859e-02,
          1.5349038553543108e-02, 5.8065906059338750e-02,
          -1.9224673947697407e-01, 5.9014836798589206e-04,
          -4.3283853400321717e-02, 1.0322848715810427e-01,
          1.9929202093423398e-01, 1.0704595065858635e-01,
          2.0142289481021441e-01, -1.2628078323583713e-02,
          -7.1449863901045157e-02, -9.8159983024178089e-03,
          5.9137113935879365e-02, 4.1925215807683880e-02,
          -6.5729071620957466e-02, 8.8736453344521755e-03,
          -9.6679593495057864e-02, 6.2173335966133239e-02,
          -4.2760641681864997e-02, -9.5237838608045966e-02,
          -8.7182189204973847e-03, -1.7941704365573943e-01,
          9.9960138410127297e-02, 2.5842419491296419e-02,
          8.8558721629647494e-02, 5.6132703942330629e-02,
          3.1695224164254847e-02, -5.3685111266058926e-02,
          -3.0461897111237788e-02, 8.2336391978746482e-02,
          -2.6816860031535987e-02, -7.1585813300686640e-02,
          -8.0179332262384953e-02, -8.0612106264115982e-02,
          -1.9281333421436497e-01, 8.3698540616264500e-02,
          1.2695697500174707e-01, 1.4302523816470725e-01,
          6.9703983921702156e-02, 1.0247761547196738e-01,
          9.1654878912381638e-02, -6.0999958512870246e-02,
          1.7691293964909902e-01, -1.6479603202676323e-02,
          -1.3278625332081070e-02, 1.4600371659512662e-02,
          -3.8562045581317927e-03, 5.2179068064254971e-02,
          -4.8363111827945435e-02, 1.0991891441064138e-02,
          -2.2384801734769501e-02, -4.7881027197787338e-03,
          1.1804289123678157e-02, -1.3416040804887522e-01,
          -1.0179650759469029e-02, 4.9262761956824892e-02,
          6.2785119746506760e-02, 4.5096719292057243e-03,
          -2.9244001157138405e-02, -1.1628625757308211e-01,
          -2.6849726297167604e-02, 5.2379498626552064e-03,
          -1.2811277205852509e-03, 8.9714380889745152e-03,
          1.4217342325961922e-02, -3.7005817832517517e-02,
          -3.8277766562573152e-03, -9.7588644938809610e-04,
          1.3627960892180865e-01, -9.1811850736744811e-03,
          7.9204630866873668e-02, -4.3026058807347702e-02,
          1.2969130009463542e-01, 4.9132847045272078e-03,
          -5.8016064021122749e-02, -4.4826021568756688e-02,
          -2.9043363330664439e-02, -1.4411999435881550e-02,
          -9.5791942138789138e-03, 9.7614842658253098e-02,
          -2.4259110476796712e-03, 7.1856226542343596e-02,
          1.7871450237846646e-02, -3.0589824387870834e-02,
          3.5871561883741108e-03, -1.0611695307120281e-01,
          -4.7894460912083332e-02, 1.3688174647666331e-02,
          1.0717752871027095e-01, 7.1850592969813429e-02,
          -2.9538308756181693e-02, -5.5106721853866385e-02,
          -1.9110143513268341e-02, -1.7528496562174683e-02,
          -2.6897613120850858e-02, -4.4191872081997999e-02,
          -3.0908744626677562e-02, -8.0778677918736830e-02,
          -7.0730275604702783e-02, 5.0411213010512476e-02,
          1.2231624360761498e-01, 4.7304196191608402e-03,
          5.1606240574917056e-02, -3.7428114282521317e-02,
          1.0948690420910109e-01, -5.5294260586195628e-03,
          1.7430805177387274e-01, 6.8575953014598096e-02,
          8.4155423216506181e-02, 7.0222992693311045e-02,
          -8.2115342514354067e-02, -1.6752101371287675e-01,
          -4.1791443605253796e-02, -6.0542910291982270e-02,
          -1.2330380799284808e-01, 5.7934016353205983e-02,
          1.7861719194532284e-02, -1.8743671339369961e-01,
          1.0025453844440475e-01, -7.8402049255928641e-02,
          -1.1066556738008366e-02, 5.8639413290804965e-02,
          -7.7525107775364914e-04, -1.2493529887250346e-01,
          -8.8111553159515247e-03, 1.2521517080884112e-01,
          -2.6496602865324011e-02, -7.4057964171669918e-02,
          1.6295939765750361e-02, 4.8768537355306563e-02,
          -2.0350662860978228e-01, 9.9642272168502397e-02,
          -1.3875714423295143e-01, -1.5838940612659422e-02,
          1.5559540518832718e-01, 8.5790891935726671e-02,
          1.7882180178977886e-01, 3.0625485487062794e-02,
          3.3921697398921251e-02, -4.0033026214474451e-02,
          4.2819930688957477e-04, -2.3102523863171569e-02,
          2.8372024713262171e-02, 6.0257663461906051e-02,
          1.0732512916296630e-02, 4.8894405924610942e-03,
          6.2519140190872794e-03, -2.4839177407991204e-02,
          1.5500833377482255e-03, -8.9151511419401822e-02,
          -7.1586806919585284e-03, 3.0313975979374710e-02,
          5.8570260525911126e-02, 3.2477887430473723e-02,
          -2.9931326784484756e-02, -7.6545450682997479e-02,
          -3.0312106055358411e-02, -3.2046864684121233e-02,
          -1.2008699322042026e-02, 8.0387588805564281e-03,
          -1.1670872770362207e-02, -5.5930295280873267e-02,
          -5.7234307049338372e-02, -5.6850244142289924e-04,
          8.4939578220347228e-02, -8.9299435162590278e-03,
          6.6150373545658628e-02, -4.5286810051611205e-02,
          8.8588202389307730e-02, 2.3259406278419888e-02,
          3.3484666203204790e-02, -1.9863801285003407e-02,
          -2.9949783582026632e-02, -5.1785877317778346e-03,
          3.2273532596545480e-02, 5.3843162761076282e-03,
          3.4461661929345466e-02, -3.1138141287401128e-02,
          1.5267245941169070e-02, -1.9288447822540368e-03,
          1.6909343496550492e-02, -4.7020200621408804e-02,
          -1.8248745988211107e-02, -1.6581841350643660e-03,
          -5.6452386919992993e-03, 8.7418965542812883e-03,
          -1.4302631976132827e-02, -2.0090915390224201e-02,
          -5.1254244006294795e-02, -5.9343760674590934e-02,
          -1.8312458495816850e-02, 1.4537324053258529e-02,
          1.5746605535345352e-02, -3.3101667819377949e-02,
          -2.7464261781583781e-02, -4.8721305519749361e-02,
          -3.1339284476131192e-02, -3.7866148963541360e-02,
          2.3285790423247191e-02, -4.5122921808963587e-02,
          4.1684788081826997e-02, 6.1620204131197981e-02,
          1.3478660507113768e-01, -2.3780879761842514e-02,
          5.5752956623389707e-02, 5.3140076054932648e-03,
          -1.0426100385562169e-01, 5.6102074605263036e-02,
          -1.0990832727639226e-01, 1.3272228619334109e-01,
          -7.2641792479432560e-02, -7.1584334820284465e-02,
          2.3030360712427495e-02, -2.1007159725955477e-01,
          1.1470114242623949e-02, 2.0163175335984013e-02,
          1.9476663341352310e-01, 1.2272312314334388e-01,
          4.8577925648181426e-02, -8.3208555375780119e-02,
          4.1106571124630616e-03, 1.2621975399272373e-01,
          -6.9355959264537734e-02, -1.0047060675456385e-01,
          -1.1424248843548405e-01, -9.9517626111143204e-02,
          -2.4222725984980606e-01, 5.6116372088330764e-02,
          1.8204706685483155e-01, 1.4695030804744780e-01,
          1.2025831054100804e-01, 1.3815967603896387e-01,
          1.4930645778717536e-01, -7.4513285546715186e-02,
          1.6625659755503319e-01, 1.0253894454031730e-01,
          6.2941419867000928e-02, 1.5834786117425248e-01,
          5.6414573615778518e-03, -2.3282647369271017e-01,
          -5.9905423706817701e-02, -1.3868077842375853e-01,
          -7.3859736534342413e-02, 1.1818226340577177e-01,
          9.6188499081257400e-02, -1.3907776923458576e-01,
          2.9741089643360807e-01, -1.1238646827986086e-01,
          -1.1351258862575152e-01, -1.3885925311433428e-01,
          -9.0765574404357660e-02, -1.0973919520978594e-01,
          -1.6339922284656716e-01, 4.5648880313946955e-02,
          1.2752175086641898e-01, 4.4663979115378838e-02,
          1.1373767989865106e-01, 1.3063324582800151e-01,
          -8.2580568287895992e-02, -3.2333327961667907e-03,
          -5.9978739551934460e-02, 2.9051759429198628e-02,
          1.2967987096060724e-01, 3.7741901435691463e-02,
          1.3734896405059527e-01, 6.1982274455162203e-02,
          1.0179806519665138e-01, -3.1209077958591722e-02,
          8.0113165468695575e-03, -8.5888391774524772e-03,
          -2.6990785712773411e-03, 4.7999867152638223e-02,
          -1.5455262294754333e-02, -1.0023734784090235e-02,
          -2.7225939202078810e-02, -2.1977195962886293e-02,
          2.2055155058612060e-02, -6.4171326668772385e-02,
          -4.0409311621278790e-03, 8.4078023573265437e-02,
          4.6615002665217009e-02, -1.0968974972906490e-04,
          -5.7112430990557839e-03, -8.8376175431345336e-02,
          -5.0364828204589540e-02, 7.7633027389632130e-04,
          2.0960390968812415e-02, 9.3022845674970160e-04,
          -1.1900987846423109e-02, -4.3485876144022495e-02,
          -6.3011247880724555e-02, 1.7082109307425670e-02,
          8.1037853172300695e-02, 4.7346991793568161e-02,
          8.1862587322733313e-02, 5.3755959762968215e-03,
          9.2142551792498736e-02, -1.2773937574157996e-02,
          2.8027792920300393e-01, 9.3395892053634421e-03,
          5.2408553465287083e-02, 2.2985909138328837e-02,
          -1.4400547814846520e-02, -4.5100771614476117e-03,
          -8.1482930740941373e-02, 6.9044863215912610e-03,
          -7.6302454097541772e-02, -1.4986489133344749e-02,
          1.7689993358993780e-02, -8.3683790293130805e-02,
          3.3763113072649911e-02, 1.0160066792993801e-01,
          5.2208785291992604e-02, 7.1341075452003794e-03,
          -7.8789330026089160e-03, -1.2780417501849342e-01,
          -3.0232733372853298e-02, 5.0013481132419962e-02,
          2.8213180202539779e-03, -1.9659437965329006e-02,
          -1.4312058069627102e-04, -5.2875823501542893e-02,
          -8.2281065470578618e-02, -7.6326489948495974e-03,
          6.8759280637289574e-02, 9.9232660748426030e-02,
          1.2373127046604507e-01, 3.7327237909908099e-02,
          1.3046400759494123e-01, -1.4872421283889773e-02,
          3.6946658866145793e-01, 4.7448634796855037e-02,
          9.4003597525126492e-02, 4.8366490193160666e-02,
          -7.6312213178962460e-02, -5.2833894290230509e-03,
          -1.4942058300864838e-01, 7.9477447870216558e-02,
          -1.5081332451092677e-01, -3.8082737402425001e-02,
          3.2558686823267853e-02, -1.4166046983760028e-01,
          4.1456433593564379e-02, 1.2681722985889934e-01,
          9.7822661830110277e-02, 6.3276490172075192e-02,
          3.0183304344323009e-02, -1.3920067052761284e-01,
          5.9429703021494310e-03, 1.4181922997518126e-01,
          -4.8510253377293228e-02, -7.0664610385480775e-02,
          -5.4012134554930979e-02, -7.1607109570739833e-02,
          -1.7207122998889227e-01, -2.5033805913566735e-02,
          1.1127313268978326e-01, 1.6843142790051280e-01,
          1.4814158671402181e-01, 1.3102224513274102e-01,
          1.8422386571951935e-01, -7.0996759450408245e-02,
          3.2068331737454564e-01, 2.9148547168970945e-02,
          2.5139195253146358e-02, 2.8527039404653537e-02,
          -1.2456538379285665e-02, -7.9987120047464166e-02,
          -8.8179894662014299e-02, 4.0029532039663154e-02,
          -9.3345294130060555e-02, 1.2231277372837369e-02,
          4.8983051300425184e-02, -9.5212619069502916e-02,
          7.0801067675275733e-02, 3.3900859979777175e-03,
          7.9970468114868437e-02, -1.7478378306424323e-02,
          -5.5809278150787893e-02, -1.2785213735741413e-01,
          6.4711441643096196e-03, 9.7101997960461317e-02,
          1.0371251508921069e-01, 3.5089953922647070e-02,
          4.9479811783851857e-02, -1.9317524584310707e-02,
          -6.7972320425989663e-02, -4.9165532528313910e-03,
          8.0423714872540103e-02, 8.9829570559420438e-02,
          1.2788874358574914e-01, 6.4705422510533198e-02,
          1.4126906929355090e-01, -2.7650877072085724e-02,
          3.4524375461506956e-01, 4.6186770893411631e-02,
          9.7566099541991178e-02, 5.6323958812161318e-02,
          -7.1552675564523771e-02, -9.4857894271540635e-02,
          -1.5804353164863100e-01, 3.3441335059942172e-02,
          -1.2560225554119886e-01, -5.1774142482628814e-02,
          5.6855319249359645e-02, -1.1410452578432234e-01,
          9.2393750844467964e-02, 1.2970493146686993e-01,
          3.8787582768780422e-02, 3.4801357967415854e-02,
          2.9379593118797141e-02, -5.9918722538894208e-02,
          -1.3629120648369965e-02, 1.7270290294363053e-01,
          -1.6487020742596110e-03, -3.4905730422661367e-02,
          -1.4157223953809205e-02, -9.6198346885163225e-02,
          -1.2481358614356107e-01, -6.4961347931376520e-02,
          3.2211619923264025e-02, 2.1027853734335078e-01,
          8.5001910780996087e-02, 1.7757532457690062e-01,
          1.0953211670945334e-01, -5.8377220538549587e-02,
          3.1767762883089762e-01, -1.1231351195035376e-02,
          9.4772216669027597e-03, -2.6875978700233824e-02,
          1.3784313862199084e-02, 6.3227417920501419e-02,
          -3.0335342932300377e-02, 2.6156324704531834e-02,
          -9.4404877150668642e-03, -5.8423587332153666e-03,
          -1.1971566470104347e-02, -3.9368793732029110e-02,
          -2.4348081559929194e-02, 9.1252842333814047e-02,
          9.8302317945542880e-02, -1.5148405721760065e-02,
          -6.8438138800981790e-02, -1.7274122632231692e-01,
          1.8162997742898528e-02, -1.9818380009409935e-02,
          4.5081402748351720e-02, -1.2999998942801679e-02,
          -1.0544485407859631e-02, -2.9399181314058108e-03,
          -8.4372729498992209e-03, 2.5071542813706636e-02,
          1.8732467815905485e-01, 2.6798227457719617e-02,
          1.3430389411477728e-01, -5.4707823680053329e-02,
          1.2963609657000322e-01, -3.0138343925532760e-02,
          3.5165877285792713e-01, -3.9660981895037264e-03,
          3.7185937609813570e-02, -1.1585212881363998e-02,
          5.1237391472490163e-03, 2.3325643044691917e-02,
          -6.1358646520550446e-02, 3.1525935794347835e-02,
          -6.0137336912499957e-02, 7.5240892711262043e-03,
          1.0955788629919971e-02, -6.8031173540968229e-02,
          1.2479936977169344e-02, 9.1491108953759129e-02,
          6.6443363114772155e-02, -2.2573472972066796e-02,
          -4.6454493939385333e-02, -1.5671848288163992e-01,
          -3.2165905671627103e-02, 7.3053108677984405e-03,
          4.9123470168918659e-02, 6.0982508684324001e-03,
          1.4400190164420347e-02, -2.2871394903370756e-02,
          -2.8328022825601654e-02, -1.5699188844199151e-02,
          1.5965558996168563e-01, 9.0438121682747369e-02,
          1.3246872468653637e-01, -9.1680600808658457e-03,
          1.6378374211769095e-01, -3.3333173178828814e-02,
          2.9562285945063110e-01, -2.8308986967627646e-02,
          -7.1085335628689522e-03, -3.6433417302966370e-02,
          3.1359664854889162e-02, 8.3935975206070781e-02,
          -1.7111685167664828e-02, 3.7969100891228215e-02,
