%YAML:1.0
mlp: !!opencv-ml-ann-mlp
   layer_sizes: !!opencv-matrix
      rows: 1
      cols: 3
      dt: i
      data: [ 2, 10, 1 ]
   activation_function: SIGMOID_SYM
   f_param1: 6.6666666666666663e-01
   f_param2: 1.7159000000000000e+00
   min_val: -9.4999999999999996e-01
   max_val: 9.4999999999999996e-01
   min_val1: -9.7999999999999998e-01
   max_val1: 9.7999999999999998e-01
   training_params:
      train_method: BACKPROP
      dw_scale: 1.0000000149011612e-01
      moment_scale: 6.9999998807907104e-01
      term_criteria: { epsilon:1.0000000133514320e-10, iterations:10000 }
   input_scale: [ 2., -1., 2., -1. ]
   output_scale: [ 1.0526315789473684e+00, 0. ]
   inv_output_scale: [ 9.4999999999999996e-01, 0. ]
   weights:
      - [ -8.7160020511610259e-01, -3.0877815933030943e+00,
          5.2854578289699727e-01, 1.2532903820455174e-01,
          8.5231434734235445e-01, 1.1124184355681510e+00,
          6.7469976890360162e-01, -2.4252844647704830e-01,
          1.0021298334624067e+00, 1.1284643430904358e+00,
          1.2148763612827986e+00, 2.9355501342799482e+00,
          5.0956427029410145e-01, 6.1225041835803040e-01,
          1.0182322849697348e-01, -7.8807379444286207e-01,
          -1.7843070409429669e+00, 1.1325774031659928e+00,
          2.6407761226272347e-01, 5.9346393943934284e-01,
          -8.8666663412220703e-01, -2.9953528610599629e+00,
          4.1086696798227396e-01, 1.4187461065004059e-01,
          2.3524083991528102e-01, -1.6146105058596588e-01,
          -2.4765161405830566e-01, -1.0321948697209153e-01,
          7.6030616049290445e-01, 1.1406147707313914e+00 ]
      - [ 7.4902014597838584e-01, -3.2451757294687202e+00,
          -2.0440821969079398e-01, 3.4298846099283170e-01,
          -3.2053568131172538e-01, -9.6735507881048055e-01,
          -1.6116798098329921e+00, 8.0360806272064345e-01,
          -7.4790217434305850e-01, -1.0227586959975770e+00,
          -1.4325545882855688e+00 ]
