%YAML:1.0
mlp: !!opencv-ml-ann-mlp
   layer_sizes: !!opencv-matrix
      rows: 1
      cols: 3
      dt: i
      data: [ 10000, 10, 1 ]
   activation_function: SIGMOID_SYM
   f_param1: 6.6666666666666663e-01
   f_param2: 1.7159000000000000e+00
   min_val: -9.4999999999999996e-01
   max_val: 9.4999999999999996e-01
   min_val1: -9.7999999999999998e-01
   max_val1: 9.7999999999999998e-01
   training_params:
      train_method: BACKPROP
      dw_scale: 1.0000000149011612e-01
      moment_scale: 1.0000000149011612e-01
      term_criteria: { epsilon:1.0000000133514320e-10, iterations:1000 }
   input_scale: [ 1.0658036359280272e-21, 1.1250858295560222e-01,
       3.9847943285029629e-18, 5.1010102846577650e-02,
       1.3980239057442314e-19, -1.1250961825029544e-01,
       8.6596572265377932e-21, -1.1251047427330164e-01,
       3.3235218987930554e-23, -1.1251553066389719e-01,
       1.7027820845043644e-36, -1.1250879009412434e-01,
       2.8691050278633079e-32, -1.1251055495959125e-01,
       4.5734252503879064e-31, -1.4358298991836932e-01,
       1.6820860797713195e-36, -1.4353098282054297e-01, .Nan, .Nan,
       4.6280965072415174e-31, -1.1261818375731686e-01,
       1.7095784569621667e-36, -1.1250879009881405e-01,
       1.8512171771851570e-30, -1.1250879169307437e-01,
       2.1084671508433233e-21, -1.1293951422018432e-01,
       3.6277915908880842e-17, -1.1250879667357788e-01,
       2.2571270286599950e-18, -1.1250879009260395e-01,
       2.1553880691345356e-21, -1.1250879009260241e-01,
       3.3090376025257406e-23, -1.1250879009260241e-01, .Nan, .Nan,
       1.2689242189651138e-25, -1.1948813899741036e-01,
       1.2704281888793531e-25, -1.1250879009260238e-01,
       1.2704281888793531e-25, -1.1250879009260238e-01,
       2.1269430605957484e-21, -1.1250878697244017e-01,
       1.0849473466321555e-21, 1.1249503523469638e-01,
       1.9022782632445099e-27, -9.8018783584563660e-02,
       4.2819930643007656e-21, 1.1250540720046466e-01,
       2.2361341864949459e-18, -9.7523835171562961e-02,
       3.4794316804342482e-20, -1.1253584285544513e-01,
       2.1458595242622732e-21, -1.1261705576037526e-01,
       2.0591998676377360e-24, -1.1261758912731581e-01,
       6.8382076303965078e-36, -1.1250879011875684e-01,
       1.1511305841971629e-31, -1.1964496430220938e-01,
       1.1164605803788061e-34, -1.1598594548566409e-01,
       2.6096680501341695e-38, -1.3684544356274450e-01,
       1.0885524284864200e-34, -1.1929679596165597e-01,
       1.9433071330184752e-27, -1.1253601953071647e-01,
       4.2570210600367816e-37, -1.1250879009260831e-01,
       4.6091923449501365e-31, -1.1250879009412526e-01,
       5.2709535936839958e-22, -1.1251045305041948e-01,
       5.8578453277146153e-16, -1.1251554655968002e-01,
       9.0696416302903167e-18, -1.1250879170529048e-01,
       2.1649515708806311e-21, -1.1250879009260388e-01,
       8.2725940063143516e-24, -1.1250879009260241e-01,
       5.1256152400849882e-25, -1.1250879009260238e-01,
       1.6729055244106259e-36, -1.1250879009410265e-01,
       1.2704811356434480e-25, -1.1295114688498209e-01,
       2.0502459617896557e-24, -1.1250879169507340e-01,
       3.0730343218796039e-20, -5.1804357805105158e-02,
       1.5915232967114057e-26, 1.1250795257368822e-01,
       4.7210134332441411e-31, -1.0888891894979298e-01,
       1.7203652479279054e-20, 1.1245164949039846e-01,
       5.6174252829600167e-19, -1.1272573646893100e-01,
       8.6601618093347075e-21, -1.1294313338473216e-01,
       1.3353063617433747e-22, -1.1294520511478540e-01,
       5.1198931617887489e-25, -1.1934443373826871e-01,
       6.8652902641270856e-36, -1.1250879088741014e-01,
       1.8154980798069632e-33, -1.1307100660581840e-01,
       2.6713738250717248e-38, -1.1262412183003102e-01,
       8.5451671879910449e-21, -1.1250879048717186e-01,
       4.4337354382277226e-31, -1.3660620966093701e-01,
       5.0597926495878926e-25, -1.1251559566766339e-01, .Nan, .Nan,
       4.5904944034594488e-31, -1.1250879009260854e-01,
       5.2481864975180350e-22, -1.1250930281722524e-01,
       5.6782004948679561e-16, -1.3657436897512668e-01,
       9.0699094190569752e-18, -1.1261848508752190e-01,
       2.1649517174797387e-21, -1.1250879019304263e-01,
       2.0592108017437695e-24, -1.1250879009260238e-01,
       1.2704494420594073e-25, -1.1250879009260238e-01,
       1.2704281888793531e-25, -1.1250879009260238e-01,
       2.0413935364595492e-24, -1.1250879009260166e-01,
       2.7681708550638580e-35, -1.1250879009260829e-01,
       4.4649342830995125e-34, -1.1250879008956136e-01,
       2.6608026376542782e-38, -1.1250879008020218e-01,
       1.5088391050040279e-29, 1.1250879009260241e-01,
       6.8811514145293070e-20, 1.1207716346184084e-01,
       1.3964385761671220e-19, -1.1932852935396379e-01,
       2.1555152248912794e-21, -1.1425207116657994e-01,
       3.3053882950675087e-23, -1.1931503236855377e-01,
       9.0992707639861075e-26, -1.6012777265431047e-01,
       2.7461587178237324e-35, -1.1250921032704664e-01,
       2.7907651833467910e-35, -1.1252409261971347e-01,
       6.9408269827386776e-36, -1.1934836733715359e-01,
       1.0456296371433642e-37, -1.1250879009260238e-01,
       7.1514562575750508e-30, -1.3660426913188559e-01,
       8.1653232822262107e-24, -1.1253612613354678e-01,
       3.4484809375756855e-20, -1.1261704062359708e-01,
       4.5904219473106897e-31, -1.1250879009269694e-01,
       5.2711675805176246e-22, -1.1293959415664491e-01,
       5.5920007275513278e-19, -1.1251552505467483e-01,
       2.2443844759732498e-18, -1.1931154220379643e-01,
       8.6987119170085542e-21, -1.1251561971752866e-01,
       8.2725945541963699e-24, -1.1250879009298800e-01,
       5.1036553294502309e-25, -1.1250879009260241e-01,
       5.1035695838589805e-25, -1.1250879009260240e-01,
       5.2942792376809884e-22, -1.1250878989843140e-01,
       1.0043185177168092e-18, 4.9373926933021305e-02,
       6.4212138590517697e-26, 1.1250879009259036e-01,
       1.5151524392765443e-29, 1.1250879009260240e-01,
       1.5025538110152284e-29, 1.1250879009260238e-01,
       6.8754452088623730e-20, 1.0875375190023981e-01,
       9.9485848179586012e-20, -1.6011829107499148e-01,
       1.5371928893924055e-21, -1.6012775173760577e-01,
       5.8869853827426881e-24, -1.6012815380646500e-01,
       1.9767954578897083e-27, -1.1426050042913194e-01,
       2.7571290945807767e-35, -1.1253560806010059e-01,
       4.3082717793161413e-37, -1.1250933982645631e-01,
       4.3258685343747923e-37, -1.1426134095536579e-01,
       4.2153195989167979e-37, -1.1250879009260241e-01,
       2.8728898389271021e-29, -1.3652254822343465e-01,
       1.3177985158530697e-22, -1.1261896960742272e-01, .Nan, .Nan,
       4.5904944034625273e-31, -1.1250879009864199e-01,
       1.5135130072868888e-21, -1.6012182060385616e-01,
       5.3410053136333095e-22, -1.1250879168601735e-01,
       1.7095521134000331e-36, -1.1250879009260248e-01,
       2.7571642822940823e-35, -1.1250879009260277e-01,
       2.7683013790632828e-35, -1.1250879009262600e-01,
       2.7682582069726147e-35, -1.1250879009298363e-01,
       2.8807910501702743e-32, -1.1250879019179386e-01,
       1.8005518137270657e-33, -1.1250879009260836e-01,
       1.1117592994761648e-34, -1.1250879009260235e-01,
       7.2020922051303338e-33, -1.1250877731377756e-01,
       4.6432124250538345e-31, -1.0896445991697798e-01,
       1.2447238951723882e-28, -9.7134061879079220e-02,
       6.1377740773146185e-20, 5.0540999814365641e-02,
       8.6603134291518052e-21, -1.1425889905921184e-01,
       1.3395861962331056e-22, -1.1937243550697994e-01,
       5.1260922090088076e-25, -1.1426021883804550e-01,
       1.2198478376143113e-28, -1.1294554064634771e-01,
       2.7462705924610186e-35, -1.1293889547103825e-01,
       2.6713821347357667e-38, -1.1250882417938445e-01,
       1.0771124797667772e-37, -1.1294769784707323e-01,
       1.6961176281025839e-36, -1.1250879009260246e-01,
       1.0642716639518822e-37, -1.1250879050829204e-01,
       1.7096050071524512e-36, -1.1250879009260277e-01,
       1.0600859575023830e-37, -1.1261737814796076e-01,
       2.8809569642372152e-32, -1.1295121621997012e-01,
       7.4970927183783257e-30, -1.1250881600700174e-01,
       1.2146232979718765e-28, -1.1251047021818639e-01,
       3.1491221975366474e-26, -1.1294357285348547e-01,
       5.8485451790709992e-24, -1.6012806069452046e-01,
       1.3207138298450992e-22, -1.2608299173585666e-01,
       1.3294782080576738e-22, -1.1305599158938558e-01,
       2.1363351358016723e-21, -1.1253589504246583e-01,
       8.9468864707082813e-18, -1.1251558457008966e-01,
       2.9494198102138811e-16, 1.1250536499142262e-01,
       2.7002696375781322e-22, 1.1250878930603345e-01,
       4.6148286927838999e-34, -1.1250877682090507e-01,
       6.3114906591687913e-26, 1.1250879009260238e-01,
       2.1351050306850298e-21, -9.7435605683998741e-02,
       5.3410666828354610e-22, -1.1261622963744057e-01,
       8.3087534489543042e-24, -1.1261853912628311e-01,
       3.1761607832911092e-26, -1.1261762010273652e-01,
       7.5599515659759690e-30, -1.1251554068640660e-01, .Nan, .Nan,
       1.7095789746685151e-36, -1.1251097496877428e-01,
       6.7823647213919322e-36, -1.4358231641091715e-01,
       1.6960966257299093e-36, -1.1253572750871466e-01,
       1.8150466287326362e-30, -1.3752028003581332e-01, .Nan, .Nan,
       1.1072684769770087e-34, -1.1250879049321978e-01,
       7.7410550628286470e-27, -1.1272284958205780e-01,
       5.1036591767500768e-25, -1.1251559082206961e-01,
       1.2704494457130538e-25, -1.1250881597767774e-01,
       3.1760704722006080e-26, -1.1250879009890899e-01,
       1.9681859221438716e-27, -1.1250879009872734e-01,
       7.8727431860746836e-27, -1.1250879650855082e-01,
       8.2009405054816180e-24, -1.1261711569368742e-01,
       2.1458121229419863e-21, -1.1294712094478744e-01,
       2.2468242336849817e-18, -1.1253610030797745e-01,
       3.5431873744251882e-20, -1.1262001229634967e-01,
       2.8367896970282286e-35, -1.1250879009260249e-01,
       5.1478931217971416e-25, -1.1229041247669763e-01,
       4.2149337398526845e-37, -1.1250879019060765e-01,
       5.2912342689253076e-22, -9.7500029226143703e-02,
       1.3293888612741477e-22, -1.1253491094026047e-01,
       5.1478560635403161e-25, -1.1251559287517707e-01,
       1.9682201676036548e-27, -1.1251553711473895e-01,
       6.8383159135806037e-36, -1.1251045274600845e-01,
       6.9408972558457234e-36, -1.1989856494948402e-01,
       1.1370667287111548e-31, -1.5049812763773446e-01,
       2.7875486279004997e-35, -1.1934828189329873e-01,
       1.0388985620515454e-37, -1.3711852090012158e-01,
       1.0642881273109447e-37, -1.1250879176218855e-01,
       2.7571211223030072e-35, -1.1250879009260457e-01,
       1.8588490471397260e-30, -1.1250879168572474e-01,
       5.1260888032604218e-25, -1.1428311186905292e-01,
       3.1625266670751011e-26, -1.1250879009299630e-01,
       1.9681859221425328e-27, -1.1250879009260395e-01,
       4.8996594580106904e-28, -1.1250879009260284e-01,
       1.9598637832042966e-27, -1.1250879009269826e-01,
       7.8727431805492933e-27, -1.1250879019150027e-01,
       1.3178288019641546e-22, -1.1251547218698064e-01,
       5.5668458301747069e-19, -1.1261751188069233e-01,
       1.3653778875271465e-22, -1.1250921890460924e-01,
       2.7145984663148795e-38, -1.1250879009260238e-01,
       4.9417775088332561e-28, -1.1250879009260237e-01,
       1.0771636781242209e-37, -1.1295661045384395e-01,
       5.0381368272929154e-25, -1.1250879008956133e-01,
       2.9434568686320006e-23, -4.9930446756940951e-02, .Nan, .Nan,
       1.7095783540560370e-36, -1.1250879009873496e-01,
       4.4470367052149999e-34, -1.1250889393647062e-01,
       2.9167906995247715e-32, -1.1427548397790377e-01,
       1.7303731089863724e-36, -1.1428955471175745e-01,
       3.3275610767671794e-31, -1.6020327704001966e-01,
       1.1163326240913148e-34, -1.1294583502474861e-01,
       1.6730752256150949e-36, -1.1293491005675781e-01,
       1.7860073854741460e-33, -1.1253669040658133e-01,
       1.8588491631645389e-30, -1.1250879168492590e-01,
       1.4526391465527883e-24, -1.6012204232957911e-01,
       3.1761238119039076e-26, -1.1250879011788240e-01,
       1.9598962801051697e-27, -1.1250879009260242e-01,
       1.9598637832042762e-27, -1.1250879009260385e-01,
       7.8394551328171248e-27, -1.1250879009262625e-01,
       2.0326849699172568e-24, -1.1250879019704733e-01,
       8.5451697208099493e-21, -1.1251085800514277e-01,
       4.0990762704984863e-16, -1.7777660294933556e-01,
       5.4615112940064634e-22, -1.1250879677916405e-01,
       4.5575083187949713e-34, -1.1250879009260240e-01, .Nan, .Nan,
       2.8574692797489873e-32, -1.1251529342349641e-01,
       7.8391946667552951e-27, -1.1250879009260238e-01,
       8.2364233684662091e-24, -1.1250879009260240e-01,
       4.2570210600368234e-37, -1.1250879009269667e-01,
       1.1072858795970608e-34, -1.1250879019190461e-01,
       2.8808830809670650e-32, -1.1251046479933961e-01,
       7.3526892602884506e-30, -1.3700978978910447e-01,
       1.8079450304945565e-33, -1.1250879182101189e-01,
       1.0727978550207202e-37, -1.1262000562821646e-01,
       4.5260824759898717e-31, -1.3652027221967489e-01,
       4.4832612107941242e-34, -1.1250920894402221e-01,
       6.7843668683932316e-36, -1.1250889276398721e-01,
       7.2141150049276242e-30, -1.3814009238422556e-01,
       5.0757812880502094e-25, -1.1934320218047245e-01,
       5.1035699769984422e-25, -1.1250889503925726e-01,
       7.9064478571200399e-27, -1.1250879009260249e-01,
       1.9598961541461089e-27, -1.1250879009260238e-01,
       3.1624737830967968e-26, -1.1250879009260831e-01,
       8.2008454696407291e-24, -1.1250879011716070e-01,
       2.2268036736867555e-18, -1.1294117782541128e-01,
       3.6444377911125265e-17, -1.1261787949128819e-01,
       2.2471163811766723e-18, -1.1425488070850086e-01,
       1.9222484885662521e-30, -1.1250879009416898e-01,
       1.1429868878898971e-31, -1.1250879009867107e-01,
       5.0383628492764439e-25, -1.1261621894527117e-01,
       5.3408255926294213e-22, -1.1251562204973418e-01,
       3.0036629356279772e-32, -1.1250879011823220e-01,
       2.0591759045354589e-24, -1.1250879009260238e-01,
       1.7859454222741551e-33, -1.1250881581635719e-01,
       1.8665658765388386e-30, -1.1261724653690096e-01,
       8.6437750451052209e-29, -1.6012815381756645e-01,
       1.1666467337604305e-31, -1.1250879173358007e-01,
       1.1208151123253292e-34, -1.1250879009414759e-01,
       1.0984805630258468e-34, -1.1250879167550128e-01,
       5.3572979072316844e-30, -1.6012672231450845e-01,
       4.5014517150548556e-34, -1.1250879014334056e-01,
       2.6714997947216862e-38, -1.1429987652153319e-01,
       1.1430561503211451e-31, -1.1424704173143693e-01,
       5.1040437791072305e-25, -1.1426969950761337e-01,
       3.1760704722072236e-26, -1.1250879011765542e-01,
       7.8727436885701313e-27, -1.1250879009260278e-01,
       3.1490974754280520e-26, -1.1250879009260242e-01,
       8.2008454696183639e-24, -1.1250879009261402e-01,
       2.2266736305105727e-18, -1.1250922887349485e-01,
       5.8850236661945774e-16, -1.1253767475189456e-01,
       9.0285419586814677e-18, -1.1254216690590597e-01,
       1.1028311185544296e-34, -1.1250879009865129e-01,
       1.0858051136703824e-37, -1.1250879009299701e-01,
       1.2814255161644969e-25, -1.1250879019459269e-01,
       4.8997407002629242e-28, -1.1250879009260242e-01,
       2.0239492453948012e-24, -1.1250879011675265e-01,
       5.6429222100913754e-19, -1.1251563509450185e-01,
       8.4113156754564072e-21, -1.3745806650477696e-01,
       1.8665909933039504e-30, -1.1294378588372697e-01,
       1.2132696156093434e-28, -1.1937424361628651e-01,
       7.5285115623875977e-30, -1.1251047078685672e-01,
       7.2318956609382235e-33, -1.1250879009263354e-01,
       6.9487136514530385e-36, -1.1250879009262624e-01,
       4.3939219865613831e-34, -1.1250879166880004e-01,
       2.1473943366125362e-29, -1.6012493962714622e-01,
       1.8079451425641244e-33, -1.1250879021806497e-01,
       1.0428030365917952e-37, -1.3719814296023544e-01,
       2.8427637429666827e-32, -1.1929470462338325e-01,
       3.1589201336659921e-26, -1.1942984098443971e-01,
       7.8727441980869179e-27, -1.1250879170391200e-01,
       7.8726131071410645e-27, -1.1250879009260832e-01,
       2.0413934030101116e-24, -1.1250879009260385e-01,
       3.4331573853872190e-20, -1.1250879011739473e-01,
       6.0409747143774192e-13, -1.2594571116786121e-01,
       9.5490447700378836e-15, -1.1426728455779020e-01,
       7.1148099878089898e-33, -1.1250879009269435e-01,
       7.3525411750176156e-33, -1.1250879009903861e-01,
       1.3294304931382949e-22, -1.1250879011762886e-01,
       7.9404423665745189e-27, -1.1250879009260240e-01,
       3.0366575335425532e-29, -1.1250879009260240e-01,
       1.2542713078924163e-25, -1.1250879009260240e-01,
       7.5507359163645267e-27, -1.1250879009262554e-01,
       1.1128991425421231e-37, -1.1434811858670582e-01,
       7.5599106004007876e-30, -1.1261886347594009e-01,
       1.8743339301419893e-30, -1.1250881593292485e-01,
       2.9045917788131652e-32, -1.1250879009269987e-01,
       1.1162864921612116e-34, -1.1250879009260251e-01,
       1.0727683773432175e-37, -1.1250879009260241e-01,
       4.4113935282234032e-34, -1.1250879048688833e-01,
       7.4975450997634880e-30, -1.1423908806760608e-01,
       1.1666280275726378e-31, -1.1250889467376367e-01,
       6.9487140764949217e-36, -1.1250879011763536e-01,
       4.3940525500731368e-34, -1.1424749238759849e-01,
       1.9066049632481025e-27, -1.3703683484270443e-01,
       1.9598638059634170e-27, -1.1250889461803149e-01,
       1.2649895132395861e-25, -1.1250879009878188e-01,
       5.2941891299211037e-22, -1.1250879009871403e-01,
       1.4379632529064701e-16, -1.1250920115709878e-01,
       9.9173515172039116e-12, -1.1305264675514153e-01,
       4.3937855031311041e-34, -1.1250879009260241e-01,
       4.9846301431152471e-28, -1.1251580515059310e-01,
       9.0698031505300660e-18, -1.1250890329572720e-01,
       2.1553880691345368e-21, -1.1250879009260831e-01,
       5.1257885555101643e-25, -1.1250879009260238e-01,
       4.2151909713646917e-37, -1.1250879009412092e-01,
       1.8588191128710295e-30, -1.1250879019260859e-01,
       1.9598311614317105e-27, -1.1250879009901084e-01,
       4.8996594580106895e-28, -1.1250879009260242e-01,
       4.6664362766954457e-31, -1.1250873951331922e-01,
       2.8927118684083863e-32, -1.1250879008960608e-01,
       4.4831894036740623e-34, -1.1250879009260248e-01,
       1.7232815243939061e-36, -1.1250879009260238e-01,
       5.3585101156878144e-22, -1.1934305008542329e-01,
       1.0984634358506435e-34, -1.1250879009449342e-01,
       7.4661434457816088e-30, -1.1261798581300260e-01,
       1.8821596446715598e-30, -1.1251557702847921e-01,
       4.5015230750335650e-34, -1.1250881626091518e-01,
       2.6609223610402814e-38, -1.1298228733200318e-01,
       3.4578428503494065e-28, -1.6139479271255200e-01,
       1.9598328856619215e-27, -1.1251556762700990e-01,
       5.0816274157785904e-25, -1.1250879170314437e-01,
       8.5827454577439267e-21, -1.1250879652365237e-01,
       3.7491042832454932e-14, -1.1422696862087636e-01,
       4.1823919150047513e-37, -1.1250879009260240e-01,
       4.7978283141279368e-28, -1.1250879162838492e-01,
       7.0630778111029981e-36, -1.1250879009260240e-01,
       9.5483213924879114e-15, -1.1251049615307687e-01,
       9.0696422567015995e-18, -1.1250879009414709e-01,
       3.4794213195498813e-20, -1.1250879009260240e-01,
       7.4349172670345609e-30, -1.1250879011705722e-01,
       4.3154317283102689e-34, -1.1250879009269486e-01,
       1.4146881621825318e-22, -1.1974433404851320e-01,
       1.9851772718547718e-27, -1.1250879009260240e-01,
       1.8005518136867733e-33, -1.1250878989119364e-01,
       1.1162512563796513e-34, -1.1250879009259046e-01,
       1.7232815243939061e-36, -1.1250879009260238e-01,
       2.6607613175495349e-38, -1.1250879009260238e-01,
       1.3352323816027874e-22, -1.1253586867780824e-01,
       1.6961177293945766e-36, -1.1250879009262593e-01,
       4.6281165684728388e-31, -1.1250930623822522e-01,
       4.8941831758604210e-28, -1.1948458260873367e-01,
       1.1714725516236856e-31, -1.1261815926649239e-01, .Nan, .Nan,
       1.8591086080689188e-30, -1.1599216125789347e-01,
       1.9598544227648840e-27, -1.1261859409306534e-01,
       2.0413592022508989e-24, -1.1250920976472785e-01,
       1.3793327067931819e-19, -1.1253573879113643e-01,
       3.7793539047189933e-14, -1.1940228934356791e-01,
       4.3937167339523001e-34, -1.1250879009260240e-01,
       5.0497079617549338e-28, -1.1250923238391028e-01,
       9.8580981699060816e-12, -1.1954155945379093e-01,
       6.2918672879823001e-10, -1.3703603955072882e-01,
       2.4792070927642172e-12, -1.1250881622548009e-01,
       4.1182997134839502e-37, -1.1250879009260238e-01,
       3.2658989507228401e-23, -1.1250879011695923e-01,
       1.0541269823389954e-34, -1.1250879009260240e-01,
       1.4781050967625680e-16, -1.1250879009260238e-01,
       3.0756996238993064e-29, -1.1250879009260241e-01,
       2.7793980786882141e-35, -1.1250879008011255e-01,
       1.7164294037491479e-36, -1.1250879009260220e-01,
       1.3790293575947273e-19, -9.7638544685102108e-02,
       2.1553137975361446e-21, -1.1251046644830812e-01,
       1.3294079243203442e-22, -1.1251046010920707e-01, .Nan, .Nan,
       7.1437808116403102e-33, -1.1250881572465096e-01,
       1.3918848477705376e-27, -1.6137414137247033e-01,
       2.1654966038063609e-29, -1.6012779165126007e-01,
       2.9046261181057529e-32, -1.1261817617242309e-01,
       1.7232829476635748e-36, -1.1251569386219079e-01,
       1.9517281494532701e-27, -1.1426068963635416e-01,
       5.0816308836145197e-25, -1.1251553546730056e-01,
       1.3777852790570432e-19, -1.1931315135673112e-01,
       1.4577363427807681e-16, -1.1253622167305399e-01,
       2.8458792633532465e-32, -1.1250879009260240e-01,
       2.8722730170473771e-35, -1.1250879009260238e-01,
       3.9855647285975841e-11, -1.1262061136605608e-01,
       1.0351939250183993e-08, -1.1424137567537590e-01,
       4.1811145340802449e-08, -1.1251560831117804e-01,
       1.1337539652892279e-31, -1.1250879009260238e-01,
       5.5170262843443411e-19, -1.1250879009269589e-01,
       1.7851928886829389e-30, -1.1250879009294150e-01,
       2.5030823208542326e-12, -1.1250879009262746e-01,
       4.8059407343053019e-31, -1.1250879009260240e-01,
       4.2740125178811055e-37, -1.1250879009255459e-01,
       2.6503064578470875e-38, -1.1250879009260238e-01,
       1.3905443538527499e-19, -1.0890635663600660e-01,
       2.1553133995420130e-21, -1.1250880344154474e-01,
       3.3234626097998227e-23, -1.1250881595020321e-01,
       2.0591410144277116e-24, -1.1250881596003877e-01,
       6.8382080420069972e-36, -1.1250879011713222e-01,
       7.4662417561214798e-30, -1.1294200876939123e-01,
       1.2146770375122935e-28, -1.1261730984204402e-01,
       7.3562736546891581e-30, -1.3684578237829390e-01,
       1.2734507095403628e-33, -1.6012946348528692e-01,
       4.2911404179303625e-37, -1.1250879014281151e-01,
       5.0816868998806127e-25, -1.1261762390848452e-01,
       8.5458208977157899e-21, -1.1424457098406784e-01,
       3.6112780280897913e-17, -1.1251561791273108e-01,
       2.8459238210672610e-32, -1.1250879009260249e-01,
       4.4144236319393738e-37, -1.1250879009260240e-01,
       6.4073669597528209e-10, -1.1262041630054115e-01,
       6.6897946560479996e-07, -1.1294000928018134e-01,
       3.1499276841728222e-04, 5.0162995101897249e-02,
       4.9746871408880045e-25, -1.1250879009260240e-01,
       5.9978892703915763e-13, -1.1250879009297494e-01,
       2.9845106583995393e-35, -1.1250879012109384e-01,
       1.0609023737204117e-08, -1.1250879008109442e-01,
       1.3098828324162408e-25, -1.1228851357005236e-01,
       1.0185064339413571e-24, 1.1250877729752820e-01,
       2.6529154051074273e-22, 1.1249533702423933e-01,
       3.4762998328660800e-20, -1.0890478050157280e-01,
       2.1457976621179784e-21, -1.1250878390950568e-01,
       3.3090376031140867e-23, -1.1250879169292614e-01,
       5.1257017281218760e-25, -1.1250879019230137e-01,
       3.1760706790787218e-26, -1.1250879049158082e-01,
       1.7859171425952651e-33, -1.1250889391173739e-01,
       3.0366934349141838e-29, -1.1262001416125135e-01,
       3.0239376462004554e-29, -1.1253578878908002e-01,
       4.2149342931213306e-37, -1.1250890304901065e-01,
       1.8006148650678670e-33, -1.1253668535279408e-01,
       2.6819625991043801e-38, -1.1250879009262804e-01,
       2.0706247812716853e-21, -1.3667250074583076e-01,
       3.5950140288092523e-17, -1.1261849884974445e-01,
       2.8344738295886334e-32, -1.1250879009260248e-01,
       2.7477749853660872e-38, -1.1250879009260240e-01,
       6.2294902328322263e-10, -1.3712839312551800e-01,
       4.3451981477354408e-05, -1.1422900036774179e-01,
       1.7574866935809200e-33, -1.1250879009260240e-01,
       8.4335236365549384e-21, -1.1250879009260238e-01,
       6.9783493951258252e-10, -1.1251629160750901e-01,
       4.7931240951159372e-25, -1.1250879009260238e-01,
       1.3706669413029089e-09, 1.1250878926312301e-01,
       4.1275873517365327e-24, 1.1250878697044542e-01,
       1.0185064339413852e-24, 1.1250877729777671e-01,
       2.6529030569743482e-22, 1.1245496936577036e-01,
       3.4319579987853699e-20, -9.7567341443000236e-02,
       2.1457974636388771e-21, -1.1250795161633313e-01,
       3.3090376025641763e-23, -1.1250879019715025e-01,
       5.1257017280686169e-25, -1.1250879009877739e-01,
       3.1761236051490606e-26, -1.1250879009413962e-01,
       4.2569552112718960e-37, -1.1250879011734899e-01,
       4.6093799185057923e-31, -1.1293853175782485e-01,
       3.0239288868872750e-29, -1.1250889597672731e-01,
       1.0897129638640563e-34, -1.1250920067046681e-01,
       1.7787029061147702e-33, -1.1251086155321631e-01,
       2.9166174218297393e-32, -1.1251060554629849e-01,
       6.9487140764755990e-36, -1.1250879009260539e-01,
       1.0643045908336661e-37, -1.1250879009260241e-01,
       2.8344292843819564e-32, -1.1250879009260241e-01,
       1.1489092794386779e-34, -1.1250879009260861e-01,
       3.8925602737563816e-11, -1.1293644891753472e-01,
       2.7352828875059854e-35, -1.1250879009260238e-01,
       4.9957963921597906e-25, -1.1250879009260240e-01,
       2.3006596416795644e-15, -1.1250879009259956e-01,
       3.4108179083367503e-26, -1.1250879009260240e-01,
       1.1983189135180694e-25, -1.1250879009260240e-01,
       1.8963782583213548e-17, 1.1250879009260241e-01,
       1.6978978210354706e-20, 1.1250879009260153e-01,
       1.0185064339414136e-24, 1.1250877729802714e-01,
       2.6529029827669302e-22, 1.1245472653188367e-01,
       3.0921612340452778e-20, -4.9657829540353179e-02,
       2.1458213432764484e-21, -1.1245450213745652e-01,
       3.3234626002519509e-23, -1.1250879009213620e-01,
       2.0591757687513183e-24, -1.1250879009414104e-01,
       1.2758924793735117e-25, -1.1250879009298480e-01,
       7.8728747824554711e-27, -1.1250879009269719e-01,
       2.7461159414051856e-35, -1.1250879647821121e-01,
       1.1813390894213112e-28, -1.3701112012228636e-01,
       1.2146430456230771e-28, -1.1250881644506276e-01,
       4.8585871394354264e-28, -1.1253678523590005e-01,
       2.8574673596123933e-32, -1.1250923078834088e-01,
       1.2197918632439933e-28, -1.1261917713928933e-01,
       4.6665117635833475e-31, -1.1250879009269875e-01,
       4.2647963707827754e-34, -1.3629361370971976e-01,
       4.4650784546723373e-34, -1.1251532160224263e-01,
       7.1727620484866731e-33, -1.1250879009260238e-01,
       7.7734593531819303e-27, -1.1250879009260241e-01,
       2.2069257841560902e-18, -1.1250879009260238e-01,
       1.0153885698187031e-08, -1.1250879595236318e-01,
       1.1584095908267401e-02, -1.1250881709898058e-01,
       1.1983189870927092e-25, -1.1250879009260240e-01,
       2.7493905879817656e-22, 1.1250879009260238e-01,
       2.8185186162302052e-16, 1.1250860023327472e-01,
       2.5462660875680848e-25, 1.1250878689354074e-01,
       6.6034530102616159e-23, 1.1249539492360014e-01,
       1.5344818533165622e-20, 5.0730697050546128e-02,
       2.1552566881765862e-21, -1.1228854996243623e-01,
       1.3294076759450022e-22, -1.1250877753896629e-01,
       8.2724532031321736e-24, -1.1250879009231048e-01,
       5.1036553294502842e-25, -1.1250879009269667e-01,
       3.1625791428480183e-26, -1.1250879009260828e-01,
       1.9598961541461093e-27, -1.1250879009260384e-01,
       1.1028311217090827e-34, -1.1250881584542805e-01,
       2.9199442677737373e-29, -1.3659861842623011e-01,
       7.3664436694540308e-30, -1.1921306861111818e-01,
       7.8393251565499583e-27, -1.1250879815935602e-01,
       2.8690588252967252e-32, -1.1250879019376735e-01,
       3.1810903095445574e-23, -1.3650342759726655e-01,
       1.0296056238983992e-37, -1.1250879009262529e-01,
       1.2635311787170404e-25, -1.1946593658938694e-01,
       8.1655736120404508e-24, -1.1250879009260836e-01,
       5.5174100299324906e-19, -1.1250879009260240e-01,
       2.4328405113968245e-12, -1.1250879009260240e-01,
       1.7087785799285280e-10, -1.1250879182568804e-01,
       1.1027624746272000e-05, -1.1250879009263190e-01,
       4.4632580628427880e-31, -1.1250879009260238e-01,
       6.4494647827676510e-26, 1.1250879009260238e-01,
       1.5278755907434495e-16, -1.1250873301353718e-01,
       2.5354271150705755e-25, 1.1250878928566344e-01,
       1.6508655665408078e-23, 1.1250794980850891e-01,
       1.0703628492325545e-21, 1.1162903469970140e-01,
       8.6138706782420334e-21, -1.0892133137535398e-01,
       5.3410036666737138e-22, -1.1250541877910264e-01,
       8.2725934583883609e-24, -1.1250879004429663e-01,
       2.0502462306433799e-24, -1.1250879009262335e-01,
       1.2704494420594075e-25, -1.1250879009260385e-01,
       7.8728742743311259e-27, -1.1250879009260248e-01,
       1.9598639091591757e-27, -1.1250879009260241e-01,
       1.7028084240899383e-36, -1.1250879049023474e-01,
       1.0941293160305053e-34, -1.1423370450063378e-01,
       4.8327025734263204e-28, -1.1931845180384336e-01, .Nan, .Nan,
       7.4656949258120747e-30, -1.1250879009260986e-01,
       8.2007054844514420e-24, -1.1250879168030094e-01,
       7.6763996986465893e-27, -1.1250879012293113e-01,
       1.3098268430265122e-25, -1.1250879009419512e-01,
       6.9490430595445832e-36, -1.1250879009260238e-01,
       2.6758088564898275e-06, -1.1250879019043615e-01,
       3.8569082393356331e-17, -1.1250879009260241e-01,
       1.6974111462257867e-07, -1.1250879009260277e-01,
       3.2463424854494930e-13, 1.1227877889452315e-01,
       2.4656320564538862e-28, 1.1250873563863509e-01,
       2.2556150968775281e-21, -1.1250879009259909e-01,
       2.5353849563874979e-25, 1.1250878972089615e-01,
       4.1092980633622662e-24, 1.1250872533724915e-01,
       2.6529021716747110e-22, 1.1245137956289188e-01,
       1.5331126627928356e-20, 5.0417118907286132e-02,
       2.1457785709969668e-21, -1.1228991273834783e-01,
       3.3235191753071194e-23, -1.1250873812116435e-01,
       8.2724526552688163e-24, -1.1250879009185914e-01,
       2.0502462306433755e-24, -1.1250879009260276e-01,
       1.2704282715751738e-25, -1.1250879009260242e-01,
       7.9063161552372210e-27, -1.1250879009260237e-01,
       7.8727436885701299e-27, -1.1250879009260240e-01,
       1.9598639091591757e-27, -1.1250879009260238e-01,
       3.0742463789029628e-26, -1.3718071445098554e-01,
       1.1072684769277717e-34, -1.1250879009298531e-01,
       6.8379952465553360e-36, -1.1250879169620977e-01,
       7.4969700436241812e-30, -1.1250881601953865e-01,
       2.9497419368489240e-29, -1.1251045056257085e-01,
       5.7778647492214467e-16, -1.1293531783712685e-01,
       1.3980730580731165e-19, -1.1250879009269864e-01,
       1.2814689306136343e-25, -1.1250879009260240e-01,
       2.7145554585185948e-38, -1.1250879009260249e-01,
       2.6132950274948832e-09, -1.1250879009260820e-01,
       4.7412106190408618e-18, 1.1250878672050811e-01,
       2.3381531737298727e-31, 1.1250879009260238e-01,
       1.7367708291975662e-33, -1.1250879605524798e-01,
       6.3384619772598469e-26, 1.1250878686853945e-01,
       4.0915858003779265e-24, 1.1250856979603475e-01,
       1.6508649501868891e-23, 1.1250459322438389e-01,
       6.6322483383552758e-23, 1.1244121308099501e-01,
       7.6690188819427169e-21, -5.0024292706050896e-02,
       2.1457787260636094e-21, -1.1229117047201558e-01,
       1.3294076773216201e-22, -1.1250878685924807e-01,
       3.3089812812529747e-23, -1.1250879009259646e-01,
       2.0502460960339953e-24, -1.1250879009260238e-01,
       1.2704494420594073e-25, -1.1250879009260238e-01,
       1.2704281888793531e-25, -1.1250879009260238e-01,
       3.1625266670749628e-26, -1.1250879009260240e-01,
       4.5534065945279114e-31, -1.1250889218079277e-01,
       5.3173576689598238e-22, -1.1250881654495196e-01,
       3.5948448213156062e-17, -1.1250879009262559e-01,
       4.1595359193899201e-37, -1.3676711793156351e-01,
       4.4990854528494868e-31, -1.4360947255490533e-01,
       1.3121687140910501e-22, -1.1425273663954917e-01,
       1.4978238247340180e-13, -1.1931003199889137e-01,
       9.9647235383148072e-12, -1.1250923855521067e-01,
       1.9389616664598778e-30, -1.1422270807953777e-01,
       4.0242351509931775e-11, -1.1250879009269703e-01,
       1.8173752146017994e-20, 1.1250877653899213e-01,
       3.6085695647320905e-33, 1.1250879009260240e-01,
       1.1584882330343160e-34, -1.1250879009260240e-01,
       1.5778987812350582e-26, 1.1250873852318401e-01,
       6.3385676125312288e-26, 1.1250795618960001e-01,
       1.0185219787130175e-24, 1.1249531647853002e-01,
       4.1093612579788822e-24, 1.1249500435349630e-01,
       6.6034942427124001e-23, 1.1240064854202361e-01,
       4.2431614558150532e-21, 9.7490288691484656e-02,
       2.1552998321397492e-21, -1.1245378797431524e-01,
       1.3352284018085051e-22, -1.1250879004423443e-01,
       3.3090373833731037e-23, -1.1250879009260248e-01,
       8.2365640340397065e-24, -1.1250879009260241e-01,
       2.0502460960339953e-24, -1.1250879009260238e-01,
       2.0502460960339953e-24, -1.1250879009260238e-01,
       1.0140953352664247e-37, -1.1250879009260274e-01,
       5.0304430991620923e-22, -1.3608387530400548e-01,
       5.8041562695005693e-16, -1.1250879009884190e-01,
       2.5506352470080475e-09, -1.1250879009297536e-01,
       1.0375871843253922e-37, -1.1250881595091505e-01,
       6.7841577383990134e-36, -1.1250879169692489e-01,
       1.2489283985005266e-25, -1.1250879169023899e-01,
       1.4857846052529289e-13, -1.1250891925526248e-01,
       7.5419399996303460e-33, -1.1250879656547090e-01,
       1.5495911436554613e-13, -1.1250879009262607e-01,
       1.1201523006921015e-21, 1.1250791064450916e-01,
       5.5929100619107817e-35, 1.1250879009185574e-01,
       2.5959301868012446e-22, 1.1250879009860974e-01,
       3.9114578635914160e-27, 1.1250795947410872e-01,
       1.5778964085034944e-26, 1.1249526650445590e-01,
       1.5778579260243338e-26, 1.1229127394792941e-01,
       1.5778577349588019e-26, 1.1229032524410257e-01,
       2.5461998469960365e-25, 1.1229034931228193e-01,
       1.6437037637544788e-23, 1.1228801320965323e-01,
       1.0656857831307753e-21, 1.1161961700487485e-01,
       8.6594272586246546e-21, -1.1228863307328797e-01,
       2.1553132510727792e-21, -1.1250879009259503e-01,
       5.3409139640870672e-22, -1.1250879009260235e-01,
       1.3293849516738518e-22, -1.1250879009260238e-01,
       1.3293849516738518e-22, -1.1250879009260238e-01,
       5.3175398066954071e-22, -1.1250879009260238e-01,
       2.8007560335566694e-32, -1.1250879009269490e-01,
       1.4104870862285345e-16, -1.3720387852580820e-01,
       9.8229479520833629e-12, -1.1250879019322413e-01,
       7.0296179772774671e-33, -1.1250879009260240e-01,
       4.1821376855445162e-37, -1.1250879009260240e-01,
       7.7733310538093438e-27, -1.1250879009260240e-01,
       4.5534068213651944e-31, -1.1250879009260240e-01,
       7.2112584573724162e-36, -1.1250879009262603e-01,
       6.0534836123095682e-13, -1.3722132838654266e-01,
       4.5216074428927165e-21, 1.1158369039871899e-01,
       7.1150245423918934e-36, -1.0884351865727589e-01,
       1.5513382170025174e-26, 1.1250879642795589e-01,
       2.4343893216927856e-28, 1.1250795200822955e-01,
       9.7783910057834884e-28, 1.1229123390408768e-01,
       2.4443508435736512e-28, 1.1162861388571953e-01,
       2.4322757791725982e-28, 1.0893514535316007e-01,
       2.4343258981818026e-28, 1.1228933478112006e-01,
       1.5711717925395142e-26, 1.1229030863853263e-01,
       2.5462651278558033e-25, 1.1250539838684540e-01,
       6.6034582466720021e-23, 1.1250247862046259e-01,
       1.3979902759478944e-19, -1.1245277742373157e-01,
       3.4639222776552193e-20, -1.1250878688641491e-01,
       8.6212535853792059e-21, -1.1250879008952906e-01,
       8.6212530042910777e-21, -1.1250879009255503e-01,
       8.6212530042911244e-21, -1.1250879009260238e-01,
       1.3917196904956833e-19, -1.1250879009260238e-01,
       4.7583467539043406e-28, -1.1250879009410363e-01,
       5.9134486002059767e-13, -1.3712120666657693e-01,
       6.6914187203506251e-36, -1.1250879009260240e-01,
       1.4122851577042148e-16, -1.1250881508461294e-01,
       6.7843659806954229e-36, -1.1250879009260238e-01,
       1.2952409662552041e-22, -1.1250879162358181e-01, .Nan, .Nan,
       7.4350374553425222e-30, -1.1250879009260238e-01,
       1.2117984366547667e-31, -1.1250879009415569e-01,
       3.6234752842819816e-33, 1.1250879009260165e-01,
       3.7099619115847404e-30, 1.1250881558305206e-01,
       6.0605007801874625e-29, 1.1249526058907681e-01,
       1.5086238400603083e-29, 1.1163219873470256e-01,
       1.5012498021541676e-29, 9.7631175209098836e-02,
       1.3433151948660699e-29, 5.0189102613764830e-02,
       3.7372217621265702e-30, 9.7565610439390479e-02,
       2.4220728667235935e-28, 1.0895024646779371e-01,
       9.7784230973382517e-28, 1.1245397408589311e-01,
       2.5353810821664501e-25, 1.1249568341779971e-01,
       1.7128133820986628e-20, 1.1267353681061629e-01,
       2.2449482827076794e-18, -1.0893726803968090e-01,
       5.5919948353015733e-19, -1.1250541459928058e-01,
       1.3917441007232886e-19, -1.1250873831641282e-01,
       1.3917441087212411e-19, -1.1250879003994502e-01,
       5.5918983819861236e-19, -1.1250879008026010e-01, .Nan, .Nan,
       8.3607013196713065e-21, -1.1250879638338557e-01,
       1.0217460416975608e-37, -1.1250879009260237e-01,
       3.3732373074411811e-20, -1.1250879048017838e-01,
       2.4791223125372491e-12, -1.1253596782410943e-01,
       4.5533349743099432e-31, -1.1250879009260382e-01,
       2.7479500701826564e-38, -1.1250879009269801e-01,
       3.4760642654826337e-23, -1.1250879009260842e-01,
       6.6397584445034575e-36, -1.1250879009260241e-01,
       5.8941926037391741e-32, 1.1250792618260361e-01,
       2.4039693567573498e-28, 1.1250879009864387e-01,
       1.5086237484818001e-29, 1.1163221368314438e-01,
       3.7219752140566536e-30, 9.7630362204053106e-02,
       4.6425841806755077e-31, -9.7565158074836303e-02,
       4.6236861777255342e-31, -9.7629510673095013e-02,
       2.8901529258650824e-32, -1.0893418110196511e-01,
       3.3414661742175590e-30, 4.9937701348598457e-02,
       1.5012401820134022e-29, 1.0891944138984427e-01,
       9.7373383255790690e-28, 1.1245430074951170e-01,
       1.6295866592310260e-23, 1.1239917455245037e-01,
       6.9434237654926596e-20, 1.1288305945757746e-01,
       4.4429764104036321e-18, 9.7709226532052690e-02,
       8.9450485563462976e-18, -9.7568475496102494e-02,
       9.0281098397491397e-18, -1.1228775211623740e-01,
       9.0283345578465717e-18, -1.1249527872360639e-01,
       1.4380327674065429e-16, -9.7782021415753678e-02,
       1.1337538271710680e-31, -1.1250879009260235e-01,
       6.4384122683942957e-17, 4.8544954619147436e-02,
       1.9982194625437146e-24, -1.1250881491609058e-01,
       2.2367996027860377e-18, -1.1251214454247381e-01,
       1.6062395826098872e-18, -1.6012644209903806e-01,
       1.0991623996457882e-37, -1.1250879009416594e-01,
       4.5020423349460088e-05, -1.1250879671643201e-01,
       1.4850775089526740e-16, -1.1250553238416237e-01,
       1.5345407639631343e-29, 1.1250879004213021e-01,
       1.7261733054469314e-33, -1.1250878693663750e-01,
       3.7224929757804130e-30, 9.7759833785116684e-02,
       4.6237596988033253e-31, -9.7629260371796756e-02,
       1.8005333571898964e-33, -1.1228923103928018e-01,
       4.4648889523295221e-34, -1.1229101033252116e-01,
       1.1117523853620928e-34, -1.1245437755831206e-01,
       1.7857758825498090e-33, -1.1163167471457271e-01,
       1.1418727074220798e-31, -9.7691767167644203e-02,
       1.4887650613304169e-29, 9.7629956802711748e-02,
       1.5643598067643536e-26, 1.1163530095858545e-01,
       1.0411283176708717e-21, 1.3680099353977629e-01,
       1.7280573213946415e-20, 1.1253506167278762e-01,
       6.9431769856580113e-20, 1.1249528688093312e-01,
       1.1158433774585777e-18, 1.1229197164704134e-01,
       4.7565312893690617e-16, -2.0919764985840623e-04,
       1.8164820527801792e-17, 1.0892180386631183e-01,
       6.9433099033942470e-20, 1.1250873809195847e-01,
       2.9496942776979264e-29, -1.1250877753583788e-01,
       1.8361100268856844e-30, -1.1250880265220878e-01,
       1.2587957650252716e-25, -9.7640236021473426e-02,
       6.3117575840073314e-26, 1.1244108674317550e-01,
       2.8486986405804133e-35, -1.1294752595924752e-01,
       7.0338549315155294e-36, -1.1250879009260240e-01,
       1.0158832311556586e-11, -1.1245599381420734e-01,
       1.6123661956829249e-26, 1.1250879004242829e-01,
       6.4901501780487075e-23, 1.1250549909861926e-01,
       1.6798299985601199e-30, -4.9682791382493992e-02,
       1.8005980925036852e-33, -1.1245416416091734e-01,
       2.7794408921005694e-35, -1.1250540397963889e-01,
       4.2740787961033249e-37, -1.1250858095532743e-01,
       1.0642881023788875e-37, -1.1250858092632279e-01,
       1.0642881023788875e-37, -1.1250858092632279e-01,
       6.8656079991181058e-36, -1.1250543054459465e-01,
       7.1429953735726537e-33, -1.1163529668502591e-01,
       5.3686817905676776e-29, 4.9936289612025744e-02,
       4.0193855050465076e-24, 9.9268363526746839e-02,
       1.0692787123604081e-21, 1.1915332104967252e-01,
       1.0705357836982142e-21, 1.1251048191320402e-01,
       4.2821423395992864e-21, 1.1250880950283199e-01,
       6.9124088437223044e-20, 1.1261633301080196e-01,
       6.9748574886610092e-20, 1.1294883868412857e-01,
       1.6581315193383950e-23, 1.1250881606982019e-01,
       1.5846950599383717e-26, 1.1250879009113600e-01, .Nan, .Nan,
       1.6591083149105993e-30, -5.1317129625920409e-02,
       7.2607756766983492e-33, -1.1161718460594662e-01,
       1.9222999501160040e-30, -1.1245278354653460e-01,
       7.6559722364898305e-30, -1.1250873725561135e-01,
       1.7128274580025012e-20, 1.1250879009260240e-01,
       7.1350774465632223e-20, 1.1253686164338145e-01,
       3.3903029491329750e-14, -4.7937830633804954e-02,
       1.1704469494407839e-31, -1.0890414760643613e-01,
       2.7906713010435334e-35, -1.1250539035266674e-01,
       1.0727683109527137e-37, -1.1250877702356482e-01,
       2.3284173644503537e-31, 1.1250879169951042e-01,
       5.7971863147177837e-32, 1.1250879169988257e-01,
       1.4434041852668891e-32, 1.1250879049278878e-01,
       5.7971863147177837e-32, 1.1250879169988257e-01,
       6.8382074062628171e-36, -1.1250795356658622e-01,
       7.1726879943260827e-33, -1.1229012948008572e-01,
       1.9176589844882739e-27, -9.7695167964625643e-02,
       4.0664562221310024e-24, 1.0434686659339401e-01,
       1.6490290282114414e-23, 1.1937309717248797e-01,
       1.6438729778121481e-23, 1.1424503747956823e-01,
       4.0917242669323577e-24, 1.1250889493282862e-01,
       6.6325698424862960e-23, 1.1294136123038481e-01,
       4.1276194644742228e-24, 1.1426017964487419e-01,
       9.8204068817587010e-28, 1.1250881610663768e-01,
       6.0859745085675361e-29, 1.1250858329713578e-01, .Nan, .Nan,
       1.4963450044146210e-29, 1.1250878687235606e-01,
       2.4323322078348311e-28, 1.0904325750944156e-01,
       1.5149474793362280e-29, 1.1158327006689300e-01,
       9.3125228607418270e-31, 1.1165048109217476e-01,
       9.7373977562059006e-28, 1.1250879009260241e-01,
       4.0565484785416370e-24, 1.1250879009260237e-01,
       2.9042674838038509e-32, -1.1162454954108321e-01,
       4.3082712297776390e-37, -1.1250873782381376e-01,
       9.3523066534638749e-31, 1.1250879169916105e-01,
       2.3284173644503462e-31, 1.1250879169948312e-01,
       5.7736167410664453e-32, 1.1250879049105636e-01,
       1.4492966687159568e-32, 1.1250879019262254e-01,
       5.7971866750570902e-32, 1.1250879049268298e-01,
       5.7971866750570902e-32, 1.1250879049268298e-01,
       4.2403596517450607e-37, -1.1250877717801903e-01,
       1.7859728268873450e-33, -1.1250543249557089e-01,
       1.9177922769877132e-27, -9.7757706804313629e-02,
       9.7788365256122901e-28, 1.1253588540820160e-01,
       9.8204862578228227e-28, 1.1294736476255363e-01,
       6.1677002014106557e-26, 1.3684579622717255e-01,
       2.5462662863300860e-25, 1.1250890236490549e-01,
       4.1096819096300074e-24, 1.1424497747083090e-01,
       2.5543950550173146e-25, 1.1937335871422067e-01,
       2.5462738811359746e-25, 1.1253600256594240e-01,
       2.5463361410729498e-25, 1.1245445953189867e-01,
       2.9377285976230020e-29, -1.1250550387674535e-01,
       2.8743680265707373e-26, -4.8613609563981336e-02,
       6.0861744278932631e-29, 1.1250879009260238e-01,
       2.3284550849016190e-31, 1.1250879009260237e-01,
       1.1585636863609745e-34, -1.1250526147814090e-01,
       3.6233003541903144e-33, 1.1250879009260240e-01,
       7.2318514027571871e-33, -1.1245416832308680e-01,
       1.0727851043800540e-37, -1.1250878928252549e-01,
       9.3909613192641271e-31, 1.1250879049414098e-01,
       9.3521556939761867e-31, 1.1250879049248171e-01,
       2.3284175097761929e-31, 1.1250879049258275e-01,
       2.3284173640605265e-31, 1.1250879019259749e-01,
       2.3284173640604135e-31, 1.1250879019216083e-01,
       2.3284173640410690e-31, 1.1250879011738325e-01,
       2.3283799356629475e-31, 1.1250879011738243e-01,
       4.2570205434663760e-37, -1.1250877718064399e-01,
       1.1474981150765796e-31, -1.1163902850566482e-01,
       1.5088122233678993e-29, 1.1249555987667875e-01,
       9.3911133785277463e-31, 1.1250921028405818e-01,
       1.5088073004028395e-29, 1.1261721966980238e-01,
       6.1181515927509302e-26, 1.3667734301076431e-01,
       2.5463514669407959e-25, 1.1250879690895914e-01,
       6.3658790823768282e-26, 1.1250879656304139e-01,
       1.5778988923344706e-26, 1.1250879011732377e-01,
       1.0565181767571908e-21, 1.1250880299563734e-01,
       1.8180286062635793e-17, 1.1232024067602370e-01,
       1.1846781143258930e-28, -1.1261270392075486e-01,
       4.3202814051777630e-21, 1.1250879009181934e-01,
       2.5463507845840821e-25, 1.1250521502981355e-01,
       2.4447011136497819e-28, 1.1250554106410222e-01,
       5.6383885456827495e-35, 1.1250879009260241e-01,
       1.8079738576118336e-33, -1.1250794393159011e-01,
       2.6713821246040779e-38, -1.1250879004238243e-01,
       1.5088145477167672e-29, 1.1250879169834757e-01,
       3.7563845277049159e-30, 1.1250879049237983e-01,
       9.3909613189494568e-31, 1.1250879019254678e-01,
       9.3521556935864331e-31, 1.1250879011737559e-01,
       9.3521556935671284e-31, 1.1250879009879569e-01,
       9.3521556935671004e-31, 1.1250879009876832e-01,
       3.7563845275406466e-30, 1.1250879009877224e-01,
       1.5087898951446735e-29, 1.1250879011745515e-01,
       1.6960916880574621e-36, -1.1250873864931310e-01,
       1.8420435227525726e-30, -9.7757498392893521e-02,
       2.3380389237943046e-31, 1.1250879164838033e-01,
       2.3284546496434456e-31, 1.1250879654828358e-01,
       1.5025051745580175e-29, 1.1250920666407305e-01,
       2.4687343793260600e-25, 1.3659102273428247e-01,
       1.5846686071415973e-26, 1.1250879665170377e-01,
       6.0860745365099666e-29, 1.1250879009260388e-01,
       3.8949595999549107e-27, 1.1250879009260238e-01,
       6.8509522989865163e-20, 1.1250552033498588e-01,
       4.9843753347418850e-28, -1.1250879009260240e-01,
       2.8343400255265131e-32, -1.1250879009260241e-01,
       6.6440173636243921e-33, -1.1250879009260240e-01,
       1.7287136208294464e-20, 9.8198788358788328e-02,
       2.4867136912917192e-28, 1.1250879009260238e-01,
       7.2615961621091818e-33, -1.1250794402638441e-01,
       2.6713821246180592e-38, -1.1250879008948990e-01,
       2.4344296595676912e-28, 1.1250879169762869e-01,
       2.4343897043310403e-28, 1.1250879169760233e-01,
       6.0605099323124737e-29, 1.1250879011746458e-01,
       1.5088144518947168e-29, 1.1250879009414289e-01,
       1.5088144518945228e-29, 1.1250879009298587e-01,
       1.5088144518945237e-29, 1.1250879009298993e-01,
       1.5088144518944906e-29, 1.1250879009279237e-01,
       1.5088144518945265e-29, 1.1250879009300770e-01,
       1.5088144518945385e-29, 1.1250879009307907e-01,
       1.1028307082391093e-34, -1.1250544515968314e-01,
       2.3284544281158940e-31, 1.1250794047473928e-01,
       5.8210434100906520e-32, 1.1250879009879730e-01,
       2.3284172184223689e-31, 1.1250879019216081e-01,
       3.7408019067626910e-30, 1.1250881579626999e-01,
       3.8906924132864395e-27, 1.1926183838037020e-01,
       6.0860749964961860e-29, 1.1250889555707028e-01,
       1.5025539057772918e-29, 1.1250879009414344e-01,
       4.0564799693938984e-24, 1.1250877752801330e-01,
       1.8459011348485451e-33, -1.1250879009260240e-01,
       9.3667958265171023e+01, 1.1253475379983587e-01,
       4.2165084184125062e-34, -1.1250879009260240e-01,
       2.4684989135379449e-15, -1.1262705100278050e-01,
       1.2020294740708578e-15, 1.1250879009260240e-01,
       7.2617132976624315e-33, -1.1250873765903723e-01,
       1.0685528498475703e-37, -1.1250879009240949e-01,
       1.5778988926112989e-26, 1.1250879169641849e-01,
       1.5778988924001108e-26, 1.1250879049175033e-01,
       1.5846155978120176e-26, 1.1250879011754197e-01,
       1.5712129812669146e-26, 1.1250879009872980e-01,
       1.5778988923302705e-26, 1.1250879009336434e-01,
       1.5778988923344674e-26, 1.1250879011730530e-01,
       9.7786455616718528e-28, 1.1250879011722816e-01,
       9.7786455617530824e-28, 1.1250879019199538e-01,
       9.7786455616720950e-28, 1.1250879011745092e-01,
       2.4343898593623502e-28, 1.1250879009298526e-01,
       4.6051909235212359e-31, -1.0897892831001407e-01,
       2.3477783831101456e-31, 1.1250879007997193e-01,
       2.3380389233901750e-31, 1.1250879009260831e-01,
       2.3283800812900160e-31, 1.1250879009298274e-01,
       1.4963449112332895e-29, 1.1250879167806133e-01,
       9.4838407757577418e-28, 1.3651166836679157e-01,
       6.0607793041800300e-29, 1.1261814361737858e-01,
       9.7374007769777555e-28, 1.1251043371965413e-01,
       1.0946332145128869e-37, -1.1250879009260240e-01,
       2.1145943896350900e-05, 1.1250919952738557e-01,
       6.8381942953662639e+06, 1.1250540866270341e-01,
       2.2006897199881678e-15, -1.1250879009268695e-01,
       3.1840360818920414e-29, -1.1250879009260240e-01,
       2.9287418664187256e-32, -1.1250877699440955e-01,
       4.3082712547970111e-37, -1.1250879009255439e-01,
       1.0229137647283100e-24, 1.1250879049141865e-01,
       4.1093675808540402e-24, 1.1250879019227988e-01,
       4.1093678512052593e-24, 1.1250879011729838e-01,
       4.1093678511953763e-24, 1.1250879009565269e-01,
       4.1093678512391172e-24, 1.1250879019145633e-01,
       4.1093678541333452e-24, 1.1250879653066787e-01,
       4.1093678986523365e-24, 1.1250889404380897e-01,
       1.0229137764987370e-24, 1.1250889406408505e-01,
       1.0229137676236968e-24, 1.1250881596839829e-01,
       2.5463516311484257e-25, 1.1250879019233678e-01,
       2.7244091932784926e-35, -1.1250879004384162e-01,
       9.8199821004013774e-28, 1.1228650629581077e-01,
       1.5151522465614052e-29, 1.1250879009260221e-01,
       9.3523066517945571e-31, 1.1250879009260241e-01,
       3.7408622774242800e-30, 1.1250879009260822e-01,
       6.0604108858880107e-29, 1.1250879648530174e-01,
       6.8379956471481160e-36, -1.1250877722592688e-01,
       7.3634190760041499e-30, -8.3212433672069722e-02,
       3.1172143064711335e-26, -9.3947111744228026e-02,
       7.8728742743304457e-27, -1.1250879009182438e-01,
       5.1034835075252781e-25, -1.1250879009260220e-01,
       2.9410157266168507e-32, -1.1250879052424072e-01,
       6.7999157265917723e-10, -1.1250879009260238e-01,
       1.8979736121623571e-30, -1.1251050358697717e-01,
       2.7795294936149876e-35, -1.1250879009259644e-01,
       1.0705355575295459e-21, 1.1250857939770893e-01,
       1.7204359451952236e-20, 1.1250879048587022e-01,
       1.7280823271042494e-20, 1.1250879012325554e-01,
       6.9431879412087976e-20, 1.1250881580103780e-01,
       6.9431892077990595e-20, 1.1251045868019445e-01,
       1.7357982824332622e-20, 1.1251555754868496e-01,
       1.7281024267221084e-20, 1.1261753021961214e-01,
       1.7281024267221084e-20, 1.1261753021961209e-01,
       1.7280836235586014e-20, 1.1251555837742483e-01,
       6.9430671689821913e-20, 1.1250920918974851e-01,
       6.9743228179455195e-20, 1.1250879019300164e-01,
       7.4350369906338235e-30, -1.1250878930133390e-01,
       1.0273593786324518e-24, 1.1250857699745023e-01,
       1.5779252227977757e-26, 1.1250879009260235e-01,
       2.7352405742399544e-35, -1.1250878929253304e-01,
       4.8373610693389980e-28, -1.1163600539294685e-01,
       2.4447417455668355e-28, 1.1250793463304516e-01,
       3.3445552182196839e-30, 5.1532841626916799e-02,
       3.7563958353345813e-30, 1.1253614092416966e-01,
       3.9113290421993403e-27, 1.1250879009260388e-01,
       1.0611314849168307e-21, 1.1250879009259954e-01,
       1.6736312349046729e-33, -1.1250879009260240e-01,
       1.1220365402669552e-37, -1.1250879009260238e-01,
       2.9212867657987471e-29, -1.3643362851241278e-01,
       4.5015233414605296e-34, -1.1250879171434444e-01,
       3.4151625417595957e-20, -1.0898530988607352e-01,
       1.8097705886134309e-17, 1.1249503871590991e-01,
       2.9222032026454262e-16, 1.1250920151782963e-01,
       1.1797178275654374e-15, 1.1261742526799863e-01,
       1.1729556944526331e-15, 1.1930978768744130e-01,
       8.3564592353434932e-16, 1.6012815379843579e-01,
       2.9188961658433435e-16, 1.1934087277053493e-01,
       1.1379578100759825e-15, 1.3666416170541901e-01,
       4.5728181881897823e-15, 1.3666332578984020e-01,
       1.1976111822721780e-12, 1.3684513909444707e-01,
       4.9700387909155913e-12, 1.1251555987918291e-01,
       2.7243670526836668e-35, -1.1250879009260240e-01,
       1.0601061852350065e-37, -1.1250879009260248e-01,
       7.1436684879849254e-33, -1.1250879009259947e-01,
       7.7733330241695035e-27, -1.1250877728039756e-01,
       2.7634684704554975e-19, 9.6637059959789495e-02,
       4.8101775985426010e-22, -4.9659501742394481e-02,
       7.6241105314329237e-30, -1.1250794014874956e-01,
       2.4447019548668409e-28, 1.1250921187451783e-01,
       6.0605103177134042e-29, 1.1250879009262656e-01,
       3.8949593512133266e-27, 1.1250879008037092e-01, .Nan, .Nan,
       8.2968082264330404e-27, -1.1227552913961808e-01,
       4.4648627205749677e-34, -1.1250879048957817e-01,
       7.3217418875243588e-33, -1.1251574425560699e-01,
       2.6608031162767585e-38, -1.1250879009260838e-01,
       1.3793285142687846e-19, -1.1250873877817301e-01,
       6.0483763692585509e-13, -1.0877667081374137e-01,
       4.9705048240458470e-12, 1.1426622732445711e-01,
       3.0626703147687515e-13, 1.1261739304240845e-01,
       7.5852298613580104e-14, 1.1251551741144926e-01,
       1.8962730063917287e-14, 1.1251548482250970e-01,
       7.5852250717667835e-14, 1.1251045578634669e-01,
       4.9232393879855853e-12, 1.1250920625659533e-01, .Nan, .Nan,
       4.4291435183393775e-34, -1.1250879009260238e-01,
       4.6471229070892203e-31, -1.1250879009260240e-01,
       1.1714994162868606e-28, -1.3701005585295825e-01,
       1.2649894312529524e-25, -1.1250879011766257e-01,
       3.5789015429509264e-17, -1.1422005354433211e-01,
       5.6429181925486658e-19, -1.1250921286605392e-01,
       5.3884701728326396e-22, -1.1250879008642384e-01,
       3.1898385907732636e-26, -1.1250879009236327e-01,
       4.5385708374789233e-34, -1.1250879009260240e-01,
       1.1441141797098738e-34, -1.1250879009255388e-01,
       4.1093681215794718e-24, 1.1250879009260240e-01,
       1.5914431926447303e-26, 1.1250879009260240e-01,
       9.8202436733143715e-28, 1.1250878927234488e-01,
       3.3529249463950949e-23, -1.1250878683936709e-01,
       1.7645862052702308e-33, -1.1251532721356196e-01,
       2.7795299646104198e-35, -1.1250921425155004e-01,
       5.0814570729218675e-25, -1.1250879009260234e-01,
       8.9065384325076941e-18, -1.1250878930723021e-01,
       6.0812284835881204e-13, -1.1163842332392955e-01,
       1.9880502640353689e-11, 1.1250544618860239e-01,
       4.9232398665358706e-12, 1.1250879048877921e-01,
       4.9464808291219773e-12, 1.1250879019061603e-01,
       7.9520560984889072e-11, 1.1250879009794522e-01,
       1.7028084240147117e-36, -1.1250879009260240e-01,
       1.1570291476999318e-31, -1.1250879009260240e-01,
       1.2095320093803190e-28, -1.1250879009260238e-01,
       1.2649893492601537e-25, -1.1250879009260241e-01,
       2.7243670526836684e-35, -1.1250879009260825e-01,
       3.2519688435436940e-23, -1.1250920234879616e-01,
       9.5493278800179045e-15, -1.1440278815033536e-01,
       5.6429183167675197e-19, -1.1250879049398375e-01,
       2.1553507381939022e-21, -1.1250881556894184e-01,
       2.0198489570927569e-27, -1.1251052113129500e-01,
       1.2814255161499761e-25, -1.1250879009259945e-01,
       7.5917686588996732e-30, -1.1250879009260240e-01,
       1.1162864921612116e-34, -1.1250879009260240e-01,
       1.7232546522727703e-36, -1.1250879009260240e-01,
       4.2740786381409769e-37, -1.1250879009422059e-01,
       1.4043603694927439e-19, -1.1250877703118585e-01, .Nan, .Nan,
       1.1028759360800141e-34, -1.1293702964154211e-01,
       1.8588490468107102e-30, -1.1250879009260238e-01,
       8.1303313166749880e-24, -1.1250879009260220e-01,
       5.5173148322198814e-19, -1.1250879004390422e-01,
       1.5204678818361659e-13, -1.1249536851381609e-01,
       3.2114621276631716e-10, 1.1249518210355730e-01,
       5.1631701422720868e-09, 1.1250878989017460e-01,
       4.4291432485265161e-34, -1.1250879009260240e-01,
       2.9987883862662872e-29, -1.1250879009260240e-01,
       1.2649683603549023e-25, -1.1250879009260238e-01,
       2.6501841104477691e-38, -1.1250879009260246e-01,
       1.1117241449287075e-34, -1.1250879009260276e-01,
       4.4471068303197558e-34, -1.1250879009260238e-01,
       1.1162980265078973e-34, -1.1295483447794948e-01,
       8.4702688132501043e-21, -1.1250919022332521e-01,
       3.2458465990214919e-26, -1.1250879011787815e-01,
       1.7513851705990222e-36, -1.1250879009260240e-01,
       1.3917442073498936e-19, -1.1250881579692898e-01,
       2.2469035724756799e-18, -1.1253584869995811e-01,
       2.2570868750704353e-18, -1.1250873959144149e-01,
       8.6985532986783215e-21, -1.1250878988939887e-01,
       5.1258753858969275e-25, -1.1250879009260240e-01,
       4.7055300930810864e-31, -1.1262326308305619e-01,
       5.9122067441293814e-16, -1.1250858033839110e-01,
       3.3677940850271527e-23, -1.1250879009260233e-01,
       4.9627764791090743e-28, -1.1250879009260240e-01,
       6.8388414870244578e-36, -1.1421281851926333e-01,
       7.4659363648288558e-30, -1.1250879009260240e-01,
       2.0153219710005913e-24, -1.1250879009260238e-01,
       1.3793048165013047e-19, -1.1250879009241400e-01,
       3.7663338828448892e-14, -1.1250877729466779e-01,
       4.4291429787136871e-34, -1.1250879009260238e-01,
       4.8180893788015949e-28, -1.1250879009260240e-01,
       1.7096043896967729e-36, -1.1250879009260831e-01,
       7.3750597725079143e-30, -1.1250879019050035e-01,
       1.9597987927226882e-27, -1.1250879049369908e-01,
       2.0501766414183349e-24, -1.1250879653153302e-01,
       2.1269795624991791e-21, -1.1250879169374867e-01,
       3.3235762329801780e-23, -1.1250879048171335e-01,
       1.1648092039046032e-31, -1.4453338514962130e-01,
       2.0325826968688506e-24, -1.1250879009297782e-01,
       8.6211031100558195e-21, -1.1250881580989429e-01,
       1.3411465790095591e-22, -1.1250879019262236e-01,
       1.2759352694806926e-25, -1.1250879009260381e-01,
       2.4901800995499828e-19, 4.8292091240426105e-02,
       1.6016725913135481e-10, -1.1160494887415130e-01,
       9.5041513215943520e-15, -1.1250881535517868e-01,
       4.7943271727059665e-25, -1.3576742655396787e-01,
       2.4910409981330554e-12, -1.1250795008278894e-01,
       2.2882606931326466e-18, -1.1250879009260197e-01,
       3.3529244975982677e-23, -1.1250879009260238e-01,
       1.2354030567797906e-28, -1.1250879009260240e-01,
       1.7029131543004451e-36, -1.1422682131430029e-01,
       4.6091190120106203e-31, -1.1250879009260240e-01,
       7.8388067706617353e-27, -1.1250879009260240e-01,
       1.0984463094022363e-34, -1.1250879009269735e-01,
       2.9987883862663186e-29, -1.1250879009269742e-01,
       2.8691039348861995e-32, -1.1250879011751527e-01,
       5.0816257619183591e-25, -1.1250879170311692e-01,
       8.7895415675998297e-18, -1.1293539006232428e-01,
       2.3511774121853847e-15, -1.1937095357834787e-01,
       5.9475475595746118e-13, -1.3675285245978125e-01, .Nan, .Nan,
       1.7164025386431936e-36, -1.1250879639676321e-01,
       1.0600930831552338e-37, -1.1253594645090270e-01,
       1.0642883780889401e-37, -1.1251091364417878e-01,
       4.3256074083572602e-37, -1.1250879704644218e-01,
       2.9165698864314362e-32, -1.1250889561451799e-01,
       4.4832612866597243e-34, -1.1251047216386616e-01,
       1.7441978582390030e-36, -1.1250879011838129e-01,
       1.4790477855248187e-13, -1.1251514334418951e-01,
       5.4616071835798383e-22, -1.1250879009260832e-01,
       6.8379961464656360e-36, -1.1250889270827055e-01,
       1.0556023313640373e-08, -1.1251221079633002e-01,
       2.4909947845634919e-12, -1.1250879044257472e-01,
       2.2674105641750108e-18, -1.1250879009260167e-01,
       3.3528666724831916e-23, -1.1250879009260240e-01,
       4.9207102969786148e-28, -1.1250879009260237e-01, .Nan, .Nan,
       4.4466871648529349e-34, -1.1250879009260240e-01,
       1.1463174121517194e-31, -1.1932050818286544e-01,
       7.0865178459048079e-33, -1.1250882216884543e-01,
       2.0477776152497139e-24, -1.1945982309173787e-01,
       1.3235698132838471e-22, -1.1250881617239383e-01,
       6.8653968889564614e-36, -1.1250879009260242e-01,
       1.7859734938875773e-33, -1.1250879009260248e-01,
       1.1617992910665855e-31, -1.1250879009298451e-01,
       6.8110236982385488e-36, -1.1250919539646952e-01,
       7.1728752735576311e-33, -1.1250879655294753e-01,
       1.1618180144435983e-31, -1.1250889428700854e-01,
       7.2316646048646424e-33, -1.1250881614534092e-01,
       4.9248638888242288e-36, -1.6012682429240174e-01,
       4.2740789443568008e-37, -1.1250889314822482e-01,
       1.6649953859380458e-36, -1.3653150042122769e-01,
       7.0338549525726268e-36, -1.1250881703806030e-01, .Nan, .Nan,
       4.2151914718921538e-37, -1.1250879019311566e-01,
       1.1523163487164665e-31, -1.1250879009260240e-01,
       1.7535300620977401e-04, -1.1920800808239407e-01,
       1.6973172275323238e-07, -1.1253584121673331e-01,
       9.9641656456153154e-12, -1.1250879006797466e-01,
       3.6612828649992178e-17, -1.1250879009259947e-01,
       5.3885635186734940e-22, -1.1250879009260238e-01,
       7.9745959555938164e-27, -1.1250879009260241e-01,
       1.6960916738400213e-36, -1.1250920077090656e-01,
       4.3086621929688932e-37, -1.1429654912049748e-01,
       4.2739456278726727e-37, -1.1250879009417541e-01,
       1.0365299499526660e-37, -1.1915812887939259e-01,
       4.3435897013473041e-34, -1.3692488676737494e-01,
       1.7932526118665770e-33, -1.1253603928776307e-01,
       4.4650754991887624e-34, -1.1250879658203371e-01,
       1.0685810077391481e-37, -1.1295304227489368e-01,
       4.8179328769080837e-28, -1.1250879169145657e-01,
       1.2704068539446396e-25, -1.1250879170308746e-01,
       5.1035695875108199e-25, -1.1250879653303558e-01,
       1.9681861776111510e-27, -1.1250879656308499e-01,
       6.8654748421023810e-36, -1.1261601572734849e-01,
       2.7682148676027721e-35, -1.1250879011732080e-01,
       2.9131583773490242e-32, -1.1945720812371871e-01,
       5.1133639446038504e-25, -1.3781501351110073e-01,
       3.2662298718544083e-23, -1.1250879009260387e-01,
       7.1149226910593117e-33, -1.1250879009260246e-01,
       1.2095318558663433e-28, -1.1250879009260240e-01,
       1.7554370419601070e-04, -1.1250798554341823e-01,
       5.0860979660812564e-04, -1.6008403290005790e-01,
       1.0917220158508957e-05, -1.1253256255679614e-01,
       4.0048578470654757e-11, -1.1250879004935922e-01,
       2.3871672486263922e-15, -1.1250879009259944e-01,
       2.2571670154197853e-18, -1.1250879009260238e-01,
       1.0538008868884454e-37, -1.1253589560309003e-01,
       1.7969184715725385e-30, -1.3670245233589770e-01,
       6.9210802100791515e-36, -1.1250879009260245e-01,
       7.0865186840244985e-33, -1.1250879009260237e-01,
       1.2045027815390014e-28, -1.1250879009260240e-01,
       1.2649683603549023e-25, -1.1250879009260238e-01,
       1.0375557654867575e-37, -1.1250879009260249e-01,
       2.9863260701935193e-29, -1.1250879011715927e-01,
       1.3120910007891269e-22, -1.1250881584788998e-01,
       1.3855205722591226e-19, -1.1250920535242302e-01,
       3.4638618514210097e-20, -1.1250838266364117e-01,
       6.7841581423181106e-36, -1.1250879008959891e-01,
       7.4407542829640827e-30, -1.3726106673992758e-01,
       2.6820464012506260e-38, -1.1250879170269809e-01,
       5.5111685991041035e-22, -1.1253723809688590e-01,
       1.5717927684032996e-10, -1.1421751112365482e-01,
       2.7352409037622594e-35, -1.1250879009260238e-01,
       7.4353961872428410e-30, -1.1250879009260238e-01,
       7.8391956743276018e-27, -1.1250879009260240e-01,
       1.7554714277234998e-04, -1.1250874527418361e-01,
       2.8371377844700540e-03, -1.1249712345292302e-01,
       4.5803224897099398e-02, -1.1839223842022299e-01,
       1.1465295048590823e-02, -1.1272857717100222e-01,
       4.1811116849096498e-08, -1.1250878999272056e-01,
       1.0012143157930970e-11, -1.1250879009259095e-01,
       4.2933816762360518e-34, -1.3676618811535671e-01,
       4.9025007741009685e-25, -1.3685159866397228e-01,
       2.7352405749622065e-35, -1.1250879166920912e-01,
       2.8134970629497276e-35, -1.1250889698400365e-01,
       2.0413589736380154e-24, -1.1250879009260238e-01,
       5.3408211913627473e-22, -1.1250879009260240e-01,
       7.0862963721486190e-33, -1.1250879009260821e-01,
       2.0238816965042181e-24, -1.1250881574919337e-01,
       2.2266751844691859e-18, -1.1251552578799948e-01,
       3.6443268958288883e-17, -1.1250218677422254e-01, .Nan, .Nan,
       1.5075520664219942e-29, 1.0888857555361495e-01,
       7.7604827061878496e-27, -1.3587208596327746e-01,
       4.3606839863057934e-37, -1.1261910387036017e-01,
       2.6608694830512535e-38, -1.1293721076727159e-01,
       6.8653968889564614e-36, -1.1250879009260240e-01,
       7.1727620484866731e-33, -1.1250879009260238e-01,
       3.0113058617509968e-29, -1.1250879009260240e-01,
       1.2146430420668498e-28, -1.1250879009260238e-01,
       1.7554714370933013e-04, -1.1250879331440118e-01,
       2.8371414170381558e-03, -1.1250858587888267e-01,
       4.5859490236167783e-02, -1.1249544075905241e-01,
       2.9805410839302340e+00, -1.1336596616786479e-01,
       1.8630671309474572e-01, -1.1261489679820109e-01,
       4.2153657658144389e-37, -1.1294691935676879e-01,
       4.6283079014194416e-31, -1.1294756096683929e-01, .Nan, .Nan,
       4.6280423667690368e-31, -1.1250879009262583e-01,
       3.6394373760184940e-25, -1.6011855932764235e-01,
       7.2916599995740015e-33, -1.1250879009299128e-01,
       2.5949218619646805e-38, -1.3742779357998278e-01,
       4.7978283133100941e-28, -1.1250879009411605e-01,
       3.4179515797997706e-20, -1.1251546837880184e-01,
       2.6847046889302168e-14, -1.5760943018172882e-01,
       1.0456298835196926e-37, -1.1250879009260241e-01,
       7.4349683388650655e-30, -1.1229569737191451e-01,
       2.4242438475632423e-28, 1.1250858486694618e-01,
       4.7251982168861940e-31, -1.1250920817979909e-01,
       7.2916617886617474e-33, -1.1251043527449994e-01,
       2.7683018849941969e-35, -1.1250879009260240e-01,
       7.1727616062283591e-33, -1.1250879009260240e-01,
       3.0113060520572259e-29, -1.1250879009260235e-01,
       4.8789487567029112e-28, -1.1250879009241303e-01,
       1.2146629360074193e-28, -1.1250879009260237e-01,
       1.7554714370828265e-04, -1.1250879326069518e-01,
       2.8371973599342860e-03, -1.1250873734154644e-01,
       4.6094413278251228e-02, -1.1250853128614136e-01,
       2.9806895042561634e+00, -1.1250216212383926e-01,
       1.9378606780786910e+02, -1.1259853199463260e-01,
       2.7461159023986688e-35, -1.1250921261536373e-01,
       4.2402943236753883e-37, -1.1250879049369644e-01,
       7.1438939755552327e-33, -1.1250879009880556e-01,
       3.1356778667021261e-26, -1.1250879009262608e-01,
       3.4181352481900854e-20, -1.1253513372953221e-01,
       5.3885648991021457e-22, -1.1251049016100285e-01,
       7.0864072003726433e-33, -1.1250919854925613e-01,
       2.9046853360193517e-32, -1.1250879019436655e-01,
       4.4650754959694871e-34, -1.1250879009260238e-01,
       2.8808368861422440e-32, -1.1250879009260235e-01,
       7.7733324960104786e-27, -1.1250873929924853e-01,
       6.6616148952284651e-23, 1.1250710472558573e-01,
       3.2176262666946924e-26, -1.1250793183613639e-01,
       4.3430839032246263e-37, -1.1250879009262624e-01,
       4.7054728925610271e-31, -1.1250879009260238e-01,
       1.1117943202397160e-34, -1.1250879009260240e-01,
       1.7860017908476621e-33, -1.1250879009260240e-01,
       1.8005231653095635e-33, -1.1250879009260166e-01,
       1.1162512563796528e-34, -1.1250879009260240e-01,
       4.3082038109847653e-37, -1.1250879009260238e-01,
       1.7554713975539553e-04, -1.1250859060165526e-01,
       2.8371963270002946e-03, -1.1250546425850275e-01,
       4.6094132582464815e-02, -1.1245472100309867e-01,
       2.9539783030386295e+00, -9.7816588950664765e-02,
       2.7461157735055619e-35, -1.1250879009260238e-01, .Nan, .Nan,
       1.7716295836135992e-33, -1.1250889439442571e-01,
       1.2095317791635487e-28, -1.1250879049577046e-01,
       3.2803377571125634e-23, -1.1250879009413860e-01,
       3.5788142311108113e-17, -1.1250879018926174e-01,
       1.0456295139552437e-37, -1.1250879009260238e-01,
       1.1945496686383688e-28, -1.1250879009409610e-01,
       2.1527903711488146e-21, -1.1946160379844004e-01,
       1.3293850400734588e-22, -1.1250878990715271e-01,
       8.5453113118416344e-21, -1.1250545997541789e-01,
       5.1772056964180553e-16, -5.2277180357009227e-02,
       2.2674909239298026e-18, -1.1250804182096359e-01,
       1.2354857004010655e-28, -1.1250879009298687e-01,
       3.1153918613533959e-29, -1.1250889641966873e-01,
       1.8979733720119710e-30, -1.1250879009260241e-01,
       4.2912073285265540e-37, -1.1250879009260240e-01,
       2.6503064578470875e-38, -1.1250879009260240e-01,
       2.9089638512510009e-16, 1.1250879009260246e-01,
       1.3216715029741761e-06, 1.1250879004532156e-01,
       2.2780066188157460e-02, 9.7733763046637986e-02,
       1.7554365501977500e-04, -1.1250546767686560e-01,
       2.8370681840946604e-03, -1.1229227481612319e-01,
       4.6054536305503498e-02, -1.0894381845487949e-01,
       7.3836641523493085e-01, -9.7654846342151436e-02,
       2.8575123165186208e-32, -1.1250879009260240e-01,
       2.7355341126265136e-35, -1.1425464721950357e-01,
       1.8588546203902751e-30, -1.1253603192464583e-01,
       7.8393246471312047e-27, -1.1250879171142882e-01,
       8.5453139062749378e-21, -1.1250879019218293e-01,
       9.3294824803585213e-15, -1.1250879009393980e-01,
       4.4113242065685127e-34, -1.1250879009260240e-01,
       1.2489696386355801e-25, -1.1250879009260274e-01,
       3.5626154186736374e-17, -1.1250890469457950e-01,
       6.6107316604391205e-12, -1.1727814682129112e-01,
       6.1343784099205991e-13, -1.0896674735627770e-01,
       9.5038044477822899e-15, -1.1250877753318927e-01,
       1.4107544745008623e-19, -1.1250879011732526e-01,
       1.9141197800743770e-30, -1.1250879009260285e-01,
       1.1536882825054738e-34, -1.1250879009269997e-01,
       1.8980044593608679e-30, -1.1250879009260240e-01,
       1.0035441069723959e+02, 1.1264722135139284e-01,
       2.2110978301185074e-05, 1.1294178815167431e-01,
       3.5022352399375386e-04, 1.1251047653887725e-01,
       1.2176777777111861e+01, -1.1250878677763480e-01,
       3.9664590862236177e-37, -1.1250879009260240e-01,
       4.3885910326494088e-05, -1.1250545028252901e-01,
       7.0919555219509849e-04, -1.1163129878428785e-01,
       4.5439675409138319e-02, -9.7652980884599436e-02, .Nan, .Nan,
       1.0600735816400064e-37, -1.1250879661681391e-01,
       6.9246048407745424e-33, -1.3676524095543602e-01,
       1.2096239024965916e-28, -1.1426078373825281e-01,
       2.0413590696536088e-24, -1.1250921350325356e-01,
       1.3855204146057721e-19, -1.1250879049436402e-01,
       3.7661987785377323e-14, -1.1250879009394453e-01,
       2.8574672197228159e-32, -1.1250879009260238e-01,
       8.0956616076460801e-24, -1.1250879009260815e-01,
       5.7517519754591652e-16, -1.1250919913341093e-01,
       2.4793097703716407e-12, -1.1294876917935325e-01,
       1.5277311336614506e-13, -1.1250879169424489e-01,
       5.8851107165393472e-16, -1.1250879011716992e-01,
       8.7378026078304663e-21, -1.1250879009298335e-01,
       1.1862917238039066e-31, -1.1250879009262568e-01,
       3.3530406038520654e-23, -1.1250879009260238e-01,
       7.2918958408159213e-33, -1.1250879009260238e-01,
       9.4887278173800937e-02, 1.1250879652368313e-01,
       1.3612276296743324e-06, 1.1250879009269725e-01,
       5.5007037166176415e+03, 5.3070861991135886e-02,
       1.1584024098696997e-02, -1.1245472891914261e-01,
       1.1162293073636953e-34, -1.1262315647609120e-01,
       4.3667883082700593e-05, -1.1250546694297349e-01,
       7.0569397989913392e-04, -1.1229224387057919e-01,
       1.1454741279135672e-02, -1.0894365083483187e-01,
       1.6960655656219046e-36, -1.1250879009260240e-01,
       2.7462012035302263e-35, -1.1250921089368761e-01,
       1.7787234176958320e-33, -1.1261820601030381e-01,
       1.8914258341363736e-27, -1.3676252968990091e-01,
       1.3235511231310011e-22, -1.1253636062153083e-01,
       5.5668783874244993e-19, -1.1250879657993366e-01, .Nan, .Nan,
       4.6280420790836155e-31, -1.1250879009260240e-01,
       3.2661192726836275e-23, -1.1250879009269577e-01,
       5.7778352324807497e-16, -1.1250920103694025e-01,
       9.9053234543012677e-12, -1.1940229844639462e-01,
       3.8193278341539490e-14, -1.1250879169500451e-01,
       3.6612826091372689e-17, -1.1250879009874652e-01,
       1.3531183674222217e-22, -1.1250879009298692e-01,
       2.9410160983680538e-32, -1.1250879048348841e-01,
       2.7571211227856439e-35, -1.1250879166818741e-01,
       7.1438948529616340e-33, -1.1250879009260240e-01,
       1.7860019005275464e-33, -1.1250879009260240e-01,
       2.8926192607570384e-32, -1.1250879009260240e-01,
       5.0383036268765482e-25, -1.1250879009260240e-01,
       3.7315201795331286e-14, -1.1249567935624437e-01,
       1.7924278692777223e-30, -1.1250879009260234e-01,
       1.0916761948366997e-05, -1.1250796413527110e-01,
       1.7642778880268899e-04, -1.1249533850439378e-01,
       1.1454740971185763e-02, -1.0894357917312059e-01, .Nan, .Nan,
       1.7859456438909592e-33, -1.1251048641594286e-01,
       4.4113255661876635e-34, -1.1251047298753353e-01,
       4.8382470611354946e-28, -1.1294373044208950e-01,
       5.2943412858421845e-22, -1.1261903742137533e-01,
       2.2367589985326420e-18, -1.1250920910034320e-01,
       4.2153200994284447e-37, -1.1250879009260238e-01,
       7.4352764514015057e-30, -1.1250879009260240e-01,
       1.3120909108934398e-22, -1.1250879009297747e-01,
       5.7778348354925764e-16, -1.1250920300016543e-01,
       2.8226871597570673e-11, -1.6012627155427359e-01,
       1.5277593710039392e-13, -1.1251047165394695e-01,
       3.6612826117575511e-17, -1.1250879654032328e-01,
       4.5534065436665925e-31, -1.1250879163983096e-01,
       7.3220938125426197e-33, -1.1251043488736479e-01,
       2.9532967317113429e-32, -1.1250879009260242e-01,
       3.7489511346688874e-14, -1.1250879009260238e-01,
       6.1105882598217959e-13, -1.1250879004464906e-01,
       1.0300802698045207e-08, -1.1229304368773134e-01,
       8.5940210675281223e-08, 1.1250879003998540e-01,
       7.3397041475491413e-17, 1.1250879009259067e-01,
       7.5820966358172001e-27, -1.1250859014696818e-01,
       1.0862797065436785e-05, -1.1250876441332101e-01,
       1.7554707911183508e-04, -1.1250548500688386e-01,
       2.8371933583147919e-03, -1.1249541123783167e-01,
       4.1041787097514854e-37, -1.3665306007048059e-01,
       7.2022889508771146e-33, -1.1261774003609015e-01,
       1.0941132210568222e-34, -1.1250879170960146e-01,
       4.8178689482000245e-28, -1.1253579176732925e-01,
       5.1956423527905114e-22, -1.3693290145493783e-01,
       2.2367596201597523e-18, -1.1251048177169769e-01,
       6.8111279296581418e-36, -1.1250879009260240e-01,
       7.4968487666881927e-30, -1.1250879009260240e-01,
       8.2361425947965858e-24, -1.1250879009260387e-01,
       2.2267125884190712e-18, -1.1250879011699268e-01,
       3.8013134748793042e-14, -1.1250920646057537e-01,
       2.3920974389636929e-12, -1.3647219573140562e-01,
       1.9111869983128997e-27, -1.1250879009297381e-01,
       1.3471413284625634e-22, -1.1251057620597200e-01,
       1.8305530700691139e-33, -1.1251046383738278e-01,
       4.3607702190903002e-37, -1.1250879009260240e-01,
       2.9966069075361430e+00, -1.1426631100360467e-01,
       4.6328716798346152e-02, -1.1164093666921703e-01,
       4.5491463397134686e-05, -1.1260664326286281e-01,
       5.7211674875858786e-19, -1.1250879004283967e-01, .Nan, .Nan,
       1.2096418392210322e-28, -1.1295120782095759e-01,
       2.7156466316525442e-06, -1.1250879631574882e-01,
       4.3885929988586050e-05, -1.1250879329241056e-01,
       7.0928536947040201e-04, -1.1250877888754908e-01,
       4.2157695193398010e-37, -1.1425139930675582e-01,
       1.1618875522784303e-31, -1.1426105161947678e-01,
       6.8112332877068556e-36, -1.1250879011745485e-01,
       1.1994766089257483e-28, -1.1250920669496586e-01,
       5.2715357605245511e-22, -1.1423730689153323e-01,
       8.9878021114982874e-18, -1.1294902115562309e-01,
       6.8381014362077222e-36, -1.1250879009260240e-01,
       7.4659358969086823e-30, -1.1250879009260240e-01,
       5.1033113635681147e-25, -1.1250879009260240e-01,
       3.4483815011280525e-20, -1.1250879009260824e-01,
       1.0455664454492190e-37, -1.1250879009260240e-01,
       4.8178537151095401e-28, -1.1250879009262582e-01,
       9.0704906959997831e-18, -1.1430630104474462e-01,
       2.1165928694485528e-21, -1.3675638712110752e-01,
       1.1863194819954807e-31, -1.1272748748661947e-01,
       1.7733189157990965e-04, -1.1250879009260248e-01,
       4.1811918629363881e-08, -1.1250879009260241e-01,
       3.9817271743753405e-11, -1.1901928727985255e-01,
       7.7555089847460926e-30, -1.1250879009260240e-01,
       4.1605790845006674e-08, -1.1229420682104810e-01,
       2.6153671972433853e-35, -1.1253464735063834e-01,
       8.8664090779490512e-18, -1.1251533839380970e-01,
       2.7022884217094932e-06, -1.1250881577828244e-01,
       1.0916974813674416e-05, -1.1250879647420135e-01,
       1.7642805372042149e-04, -1.1250879167554291e-01,
       1.0456732543171437e-37, -1.1261676583744726e-01,
       2.1295648800560545e-29, -1.6012779778773256e-01,
       1.6861282399761552e-36, -1.1250879009298206e-01,
       1.8588191129326295e-30, -1.1250879049088432e-01,
       3.2661198760308496e-23, -1.1251045373177285e-01,
       3.5747355260394514e-17, -1.1928202051499935e-01,
       6.8382072187649636e-36, -1.1250879009260238e-01,
       4.6471223269643676e-31, -1.1250879009260238e-01,
       7.8724810058230037e-27, -1.1250879009260237e-01,
       2.7244091932932804e-35, -1.1250879009269620e-01,
       1.2385210420253172e-25, -1.1251533702071480e-01,
       3.4638626621456819e-20, -1.1251048999221144e-01,
       5.3645866759731629e-22, -1.1250879009269688e-01,
       7.9404423669252128e-27, -1.1250879049012337e-01,
       4.5200808312566276e-34, -1.1251087955044173e-01,
       1.5422066251823518e-13, -1.1250879009260238e-01,
       9.0698036645190124e-18, -1.1250879009269325e-01,
       5.3097353608228193e-25, -1.1250889827272606e-01,
       5.5919965528715781e-19, -1.1250879009260240e-01,
       1.3979991382178945e-19, -1.1250879009260240e-01,
       1.1654543145926174e-28, -1.3733938997476944e-01,
       2.9409676180864701e-32, -1.1250889513646603e-01,
       6.7557210543766761e-07, -1.1250881591543653e-01,
       1.0916762981579485e-05, -1.1250881576608081e-01,
       1.7554715751872868e-04, -1.1250881562294388e-01, .Nan, .Nan,
       2.9586133085112204e-29, -1.1929292395257703e-01,
       1.0456297603315140e-37, -1.1250879009260384e-01,
       1.1522980149007138e-31, -1.1250879009298310e-01,
       2.0238816908245027e-24, -1.1250879048986703e-01,
       8.9066957379375594e-18, -1.1251045849667002e-01,
       1.7095255648514121e-36, -1.1250879009260238e-01,
       2.8807908717911663e-32, -1.1250879009260240e-01,
       1.7715743133806157e-33, -1.1251045880394521e-01,
       3.1490820097024854e-26, -1.1261858997244142e-01,
       5.1255284185114848e-25, -1.1250879009262695e-01,
       5.1035699174938299e-25, -1.1250879009260240e-01,
       7.9064483695872972e-27, -1.1250879009260240e-01,
       7.2914246305989025e-33, -1.1250879009260238e-01,
       7.8294083721852294e-27, -1.3675965322276032e-01,
       5.3647720795520675e-22, -1.1250879009260240e-01,
       7.9067122990524993e-27, -1.1250879009296734e-01,
       7.5917686588996732e-30, -1.1250879009260240e-01,
       1.8006092247784483e-33, -1.1250879009260240e-01,
       4.4650044771191553e-34, -1.1250879009260240e-01,
       4.2910737718262501e-37, -1.1250879664115372e-01,
       2.6503063000321938e-38, -1.1250879168357444e-01,
       6.7557213466670923e-07, -1.1250920539519597e-01,
       2.7156990770508445e-06, -1.1250881590825620e-01,
       4.3885930098787767e-05, -1.1250881589423845e-01,
       1.7716294551626069e-33, -1.1250879009260238e-01,
       1.8361608255267199e-30, -1.1261639133140325e-01,
       9.3775030275889312e-23, -1.6012660236668089e-01,
       2.8574673951939712e-32, -1.1250879009260274e-01,
       1.2595551783558018e-25, -1.1250879009269721e-01,
       5.5173144613616558e-19, -1.1250879167735126e-01,
       1.0600898511478895e-37, -1.1250879009260240e-01,
       1.1072891473846146e-34, -1.1253615752998525e-01,
       1.1570476324287359e-31, -1.1250879049623212e-01,
       1.8742731741983100e-30, -1.1250879009260238e-01,
       3.0239284675050787e-29, -1.1250879009260240e-01,
       1.8820970888628223e-30, -1.1250879009260238e-01,
       7.2318956609381975e-33, -1.1250879009260238e-01,
       2.6819625991043722e-38, -1.1250879009260240e-01,
       2.0749798810436414e-24, -1.1931201583443438e-01,
       8.0914622096401991e-35, -1.6013274330230701e-01,
       4.3083387007209666e-37, -1.1250879009260240e-01,
       9.8697571095366001e-12, -1.1250879009260238e-01,
       4.1404583284793430e-08, -1.1250879009260240e-01,
       4.5851112855108712e-02, -1.1164533152678352e-01,
       4.6278939258628514e-31, -1.1250879011826412e-01,
       2.9286937603038015e-32, -1.1250879009260240e-01,
       6.7557222875818066e-07, -1.1251045987906771e-01,
       2.7156991945230042e-06, -1.1250920530769451e-01,
       4.3667904547708383e-05, -1.1250920520248142e-01,
       7.0865178206504278e-33, -1.1250879009260238e-01,
       2.8345188523376034e-32, -1.1250920553764984e-01,
       3.2522110388887103e-23, -1.1294160099959438e-01,
       1.7716018276265556e-33, -1.1250879009260240e-01,
       7.7733320445218630e-27, -1.1250879009260249e-01,
       1.0376185991047883e-37, -1.1250879009260241e-01,
       4.6281163031050898e-31, -1.1250879009260242e-01,
       1.7095784569609870e-36, -1.1250879009260387e-01,
       4.4469667517037406e-34, -1.1250879009260238e-01,
       4.4650044771191553e-34, -1.1250879009260240e-01,
       4.4831180838702744e-34, -1.1250879009260238e-01,
       2.7794419389535335e-35, -1.1250879009260241e-01,
       2.6608024781183778e-38, -1.1250879009260240e-01,
       8.3456090680771527e-24, -1.1250879009260238e-01,
       4.7251976975389698e-31, -1.1250879009260822e-01,
       7.4870614630821298e-30, -1.3659359674088298e-01,
       8.5725983590649433e-24, -1.1251052877384091e-01,
       5.5669764349175338e-19, -1.1250879009260240e-01,
       3.7661305663820437e-14, -1.1250879009260238e-01,
       1.7293502066431039e-04, -1.1261450066722861e-01,
       1.8511870279070097e-30, -1.1250879009418592e-01,
       2.9408718607912446e-32, -1.1250879048519224e-01,
       6.7557260622956847e-07, -1.1251550343557391e-01,
       2.7156471331841743e-06, -1.1251045953956366e-01,
       1.0916977667315954e-05, -1.1251046786457847e-01,
       7.0864073105062223e-33, -1.1250879009260240e-01,
       4.3591887845001199e-34, -1.1250879648161326e-01,
       8.0272092281920326e-24, -1.1251547897163462e-01,
       6.8111283380163056e-36, -1.1250879009260237e-01,
       6.8381018676263048e-36, -1.1250881618059237e-01,
       7.4049870268423431e-30, -1.1250881592362115e-01,
       5.2711471861465415e-22, -1.1253563688568093e-01, .Nan, .Nan,
       4.2571522532065876e-37, -1.1250879009260240e-01,
       1.0685030651519627e-37, -1.1250879009260238e-01,
       2.6607203177838113e-38, -1.1250879009260238e-01,
       2.3871674185795212e-15, -1.1250879009260240e-01,
       1.3411931998977367e-22, -1.1250879009260240e-01,
       3.0624394955313916e-29, -1.1250879009260240e-01,
       6.0633262996456063e-13, -1.3666296847001574e-01,
       3.2602098856582752e-26, -1.1261766290160000e-01,
       2.7254815543214649e-38, -1.1250879009260882e-01,
       1.2650106668299851e-25, -1.1250879009260240e-01,
       3.4180081896362274e-20, -1.1250879009260240e-01,
       2.5264127694572710e-09, -1.1264043536672491e-01,
       1.1994376825904101e-28, -1.1251051465971568e-01,
       3.0494932414258888e-29, -1.1250879009260240e-01,
       6.7557260622956847e-07, -1.1251550343557337e-01,
       2.7156486502790012e-06, -1.1251550224736043e-01,
       1.0917007227983737e-05, -1.1253577028908295e-01,
       1.7645298967444112e-33, -1.1250879009260240e-01,
       1.6601889822162692e-36, -1.1250879018993212e-01,
       4.9542427098278714e-25, -1.1250920473641730e-01,
       1.0456410593056326e-37, -1.1294350977119980e-01,
       1.1523860322643791e-31, -1.1424683149373074e-01,
       3.1224852069443364e-26, -1.1253601750905272e-01,
       8.6209526915590966e-21, -1.1250889537848728e-01,
       9.3722075564436357e-15, -1.1250879169501515e-01,
       6.4072896020839920e-10, -1.1250882196177756e-01,
       4.2225391357332606e-08, -1.1261946657196888e-01,
       3.8375133747035647e-14, -1.1250879009260834e-01,
       3.5268864293656039e-20, -1.1250879009260240e-01,
       1.2759355197236790e-25, -1.1250879009260238e-01,
       4.5016665987277015e-34, -1.1250879009260240e-01,
       1.4782127995803361e-16, -1.1250879168015451e-01,
       5.1932817379050476e-25, -1.1253550770466927e-01,
       2.8484758905776218e-35, -1.1261773497272871e-01,
       4.3607027413230251e-37, -1.1250881659992198e-01,
       1.2542505925452641e-25, -1.1250879009260242e-01,
       5.2626347892350094e-25, -1.1250879009422393e-01,
       4.7658387280357507e-36, -1.6010680576918890e-01,
       1.8742137123043596e-30, -1.1251554192571890e-01,
       6.7557411050930570e-07, -1.1253577904676834e-01,
       2.7157307804227744e-06, -1.1261724212818727e-01,
       4.3669691259809062e-05, -1.1294194390861660e-01,
       4.4113247418610279e-34, -1.1250879009260240e-01,
       1.9352195302386630e-27, -1.1250879009260240e-01,
       1.1072866485205190e-34, -1.1251560467541133e-01,
       7.4662971488221806e-30, -1.1250879019259148e-01,
       2.7352830521506623e-35, -1.1250879009262615e-01,
       1.1994960291356105e-28, -1.1250879009260829e-01,
       3.2802826239226894e-23, -1.1250879009260240e-01,
       1.4379378298611216e-16, -1.1250879009264847e-01,
       1.5716606152304931e-10, -1.1261475977316607e-01,
       1.0060207733511436e-11, -1.1250889613747388e-01,
       3.6613486233482189e-17, -1.1250879009260242e-01,
       3.3529825497200422e-23, -1.1250879009260240e-01,
       7.6239858486703020e-30, -1.1250879009260238e-01,
       2.6927536795788063e-38, -1.1250879009260238e-01,
       5.6432197946489089e-19, -1.1250879009260277e-01,
       7.9407090874194187e-27, -1.1250879009297783e-01,
       4.6862726662124553e-31, -1.1421727214467610e-01,
       1.7934142484279126e-33, -1.1421835209963685e-01,
       2.7906302658437044e-35, -1.1251565973890608e-01,
       7.4148831051901241e-33, -1.1296423589833203e-01,
       1.7715462716747006e-33, -1.1250889308314437e-01,
       2.2457298406256441e-26, -1.6020913276283535e-01,
       2.7157583434010291e-06, -1.1294419088320404e-01,
       1.0917596885713563e-05, -1.1424912957773953e-01,
       4.3889282538288907e-05, -1.1424903224735519e-01, .Nan, .Nan,
       1.7716022665640737e-33, -1.1251047281944836e-01,
       1.7716020507284240e-33, -1.1251047282529071e-01,
       5.0326578770537269e-25, -1.1931694790243148e-01, .Nan, .Nan,
       1.1429870282660592e-31, -1.1250879009260240e-01,
       1.2595761505862958e-25, -1.1250879009260240e-01,
       5.5417927649805768e-19, -1.1250879009262553e-01,
       2.4328237823460265e-12, -1.1261532646347909e-01,
       1.5421780353317149e-13, -1.1250881635929000e-01,
       2.2571674821996663e-18, -1.1250879009260240e-01,
       8.3090831828321063e-24, -1.1250879009260241e-01,
       4.7251976975389663e-31, -1.1250879009260240e-01,
       6.5336124749506745e-10, -1.1250879009262589e-01,
       8.7382646394972274e-21, -1.1250879009260241e-01,
       1.2301777330440731e-28, -1.1250879009260240e-01,
       4.4833323265455148e-34, -1.1250879009410589e-01,
       4.2740917199062418e-37, -1.1253549938427763e-01,
       1.7787587409905539e-33, -1.1250879167414313e-01,
       5.0059959200983147e-28, -1.1251629430295088e-01,
       1.0984292498665676e-34, -1.1250879009269613e-01,
       4.0863791949329141e-37, -1.1250879173940381e-01,
       2.7159067164633968e-06, -1.1424929339610705e-01,
       1.0904648280875339e-05, -1.1933554186339307e-01,
       1.7091105174077932e-04, -1.3664733735029519e-01,
       6.7769061671804458e-36, -1.1927103484004722e-01,
       1.8589610104796166e-30, -1.1425382471955596e-01,
       4.2151914718451256e-37, -1.1250879009269767e-01,
       1.8512465212471097e-30, -1.1250879011727134e-01,
       3.3882228588137779e-20, -1.1250920426860643e-01,
       6.8111283380163056e-36, -1.1250879009260237e-01,
       1.1994765534152517e-28, -1.1250879009260240e-01,
       2.1268697805882498e-21, -1.1250879009262554e-01,
       3.7662156463236015e-14, -1.1293862576951928e-01,
       5.9123140498262996e-16, -1.1250879049934047e-01,
       3.4794823694185886e-20, -1.1250879009260240e-01,
       1.2870068359580515e-25, -1.1250879009260240e-01,
       4.7054722977764424e-31, -1.1250879009260238e-01,
       1.6334031187376642e-10, -1.1250879009260248e-01,
       8.7382646394972274e-21, -1.1250879009260241e-01,
       1.9059967061381521e-30, -1.1250879009260241e-01,
       1.0728184954694375e-37, -1.1250879009260238e-01,
       2.8484893014057061e-35, -1.1250879019346113e-01,
       1.0844733202864494e-37, -1.1950968652065065e-01,
       4.7979059119252020e-28, -1.1250879048360463e-01,
       8.3459597992573324e-24, -1.1424447926211639e-01,
       4.0866245818333857e-37, -1.1251675177258121e-01,
       1.0625677926616967e-05, -1.3674685416304469e-01,
       4.2703815691291077e-05, -1.3684513636458645e-01,
       2.7461587555825846e-35, -1.1250879009260240e-01,
       1.0456614236265912e-37, -1.1250881572895619e-01,
       2.8690590042389422e-32, -1.1250879660783861e-01,
       1.9433331353145885e-27, -1.1250879169065559e-01,
       1.0984633694678460e-34, -1.1250879009298227e-01,
       1.2489696388572693e-25, -1.1250879169020776e-01,
       3.5626258900734920e-17, -1.1253560617440526e-01,
       7.0862959404886387e-33, -1.1250879009260240e-01,
       5.0597032430653212e-25, -1.1250879009260248e-01,
       3.6110848109084446e-17, -1.1251545938799172e-01,
       3.6612168558306131e-17, -1.1250879666546144e-01,
       8.6599575515018489e-21, -1.1250879009260240e-01,
       1.2814472230140929e-25, -1.1250879009260237e-01,
       1.8900173035247547e-30, -1.1250879009260240e-01,
       4.3083387007209666e-37, -1.1250879009260240e-01,
       9.1959864950133828e-18, -1.1250879009260240e-01,
       3.0755973831863985e-29, -1.1250879009260240e-01,
       4.0636471829042512e-11, -1.1253593321338153e-01,
       2.0111192582275812e-27, -1.1250879019272921e-01,
       2.9782180166254857e-32, -1.1250879009260240e-01,
       1.7716018276265556e-33, -1.1250879009260249e-01,
       6.7438955853226328e-36, -1.1250879047633297e-01,
       2.2798458229694426e-15, -1.1293307272839198e-01,
       3.1230634045246493e-05, -1.6012811670109481e-01,
       1.0642551373933281e-37, -1.1250879009260241e-01,
       1.1476418569965375e-31, -1.1250879009260240e-01,
       3.1356780682165665e-26, -1.1250879009260240e-01,
       1.1028311854652576e-34, -1.1250879009260829e-01,
       7.4659363648288572e-30, -1.1250879009260387e-01,
       1.2596178532591680e-25, -1.1250879009260238e-01,
       1.1430049266082258e-31, -1.1250879009872497e-01,
       3.2520781350918747e-23, -1.1250881574319531e-01, .Nan, .Nan,
       7.4656944579221581e-30, -1.1250879009260240e-01,
       1.3235019679170296e-22, -1.1250879019084051e-01,
       3.6612605614554888e-17, -1.1262051950247984e-01,
       8.6599575515018730e-21, -1.1250879009262633e-01,
       5.1480270043594238e-25, -1.1250879009260238e-01,
       3.0494940220800713e-29, -1.1250879009260241e-01,
       1.8006378759346485e-33, -1.1250879009260238e-01,
       1.7302156615295929e-36, -1.1250879009260238e-01,
       1.3040687674671496e-25, -1.1250879009260240e-01,
       1.7372336675522363e-36, -1.1250879009260238e-01,
       2.3205191375738383e-18, -1.1250879171127157e-01,
       6.8110229832342462e-36, -1.1250879009407697e-01,
       4.3432201890582505e-37, -1.1250879019530949e-01,
       2.9908709843603489e-32, -1.1253743167081366e-01,
       6.1109569053623654e-13, -1.1295493609464434e-01,
       1.0904480564765310e-05, -1.1936853343161249e-01,
       4.4468963077346849e-34, -1.1250879009260238e-01,
       1.1995154299974660e-28, -1.1250879009260238e-01,
       8.1654358945520615e-24, -1.1250879009260238e-01,
       1.0600573744003079e-37, -1.1250879009260241e-01,
       7.1437812299882863e-33, -1.1250879009260238e-01,
       4.8381271164374799e-28, -1.1250879009260240e-01,
       4.1826456825932042e-37, -1.1250879009260824e-01,
       4.7979062136740934e-28, -1.1250879011715199e-01,
       2.2166783416911393e-18, -1.1250920536292935e-01,
       6.8379952453370470e-36, -1.1250879009260240e-01,
       3.0112076669449918e-29, -1.1250879009260242e-01,
       8.5074870328331344e-21, -1.1251537805948436e-01,
       1.3980483258343622e-19, -1.1250881640457960e-01,
       3.3235762328364956e-23, -1.1250879009260240e-01,
       1.9766122205136551e-27, -1.1250879009260238e-01,
       3.0366575335425532e-29, -1.1250879009260240e-01,
       1.8821275393508949e-30, -1.1250879009260240e-01,
       1.8743036079685083e-30, -1.1250879009262550e-01,
       7.3321745343096347e-30, -1.3651450076390634e-01,
       1.0771014718322782e-37, -1.1250879009891708e-01,
       5.0497946808567183e-28, -1.1250879685560151e-01,
       1.2407773920679944e-28, -1.1250879009875316e-01,
       4.4325585170284220e-37, -1.1251591661951918e-01,
       3.4028169224917077e-20, -1.1250879167122106e-01,
       6.8382076303766371e-36, -1.1250879009260238e-01,
       1.8512466363198909e-30, -1.1250879009260240e-01,
       1.2542713078924163e-25, -1.1250879009260240e-01,
       2.1176756519670038e-21, -1.1250879009260242e-01,
       9.4588418650180800e-15, -1.1250879019132361e-01,
       1.7095254619516653e-36, -1.1250879009260241e-01,
       1.1570290757762724e-31, -1.1250879009260240e-01,
       3.1224756495882558e-26, -1.1250879009260237e-01,
       4.4112556901990927e-34, -1.1250879009262603e-01,
       2.6502656213660042e-38, -1.1250879009260838e-01,
       1.0642881271135245e-37, -1.1250879009260238e-01,
       2.6471913112825410e-38, -1.1940213245264171e-01,
       2.9741107661945878e-29, -1.1250879009260276e-01,
       5.2711325727243537e-22, -1.1251043793985117e-01,
       3.4794818963123113e-20, -1.1250879049810419e-01,
       1.3352514173810947e-22, -1.1250879009260240e-01,
       8.2365640340397065e-24, -1.1250879009260241e-01,
       8.2364239115672921e-24, -1.1250879009260238e-01,
       1.3235698094488003e-22, -1.1250879009260274e-01,
       8.5833899404854101e-21, -1.1293729435324534e-01,
       4.7451668952156143e-31, -1.1250879009260242e-01,
       1.5720169268841905e-13, -1.1245696638759724e-01,
       1.1963645401620738e-31, -1.1250879009262625e-01,
       1.7010769973309107e-36, -1.1908573333281500e-01,
       1.9351561638114067e-27, -1.1250879009260240e-01,
       7.1436689266628698e-33, -1.1250879009260240e-01,
       4.8179331805224302e-28, -1.1250879009260240e-01,
       1.3064478798772059e-22, -1.1250879009260240e-01,
       3.5786888234694022e-17, -1.1250879009410386e-01,
       6.1105878422583580e-13, -1.1250881572871479e-01,
       6.5750788237776257e-07, -1.3674671015736453e-01,
       2.7571637804259561e-35, -1.1250879009260238e-01,
       1.0642717277245940e-37, -1.1250879019369120e-01,
       4.2740122606078532e-37, -1.1250879009260838e-01,
       1.7164029659300662e-36, -1.1251049410544695e-01,
       1.7164026411703179e-36, -1.1250879009260839e-01,
       1.7164026411703166e-36, -1.1250879009260238e-01,
       7.5065211228990966e-38, -1.6012172131055719e-01,
       4.6280423667690245e-31, -1.1250879009260238e-01,
       8.5071898458053448e-21, -1.1251044466949929e-01,
       3.6443959525712045e-17, -1.1251050481459511e-01,
       1.4577580020714966e-16, -1.1250879009877925e-01,
       5.8577361479201366e-16, -1.1250879009260238e-01,
       9.4156668219017811e-15, -1.1250879009260274e-01,
       6.1107697306495992e-13, -1.1261530235760356e-01,
       3.3981700361221160e-23, -1.1250879009259947e-01,
       2.9166645482798435e-32, -1.1250879009260235e-01,
       2.6713407968897568e-38, -1.1250879009260240e-01,
       1.1849770016938404e-31, -1.1929016180875608e-01,
       4.4113247542692008e-34, -1.1250881540999702e-01,
       4.6281163031050898e-31, -1.1250879009260240e-01,
       7.7735876567897662e-27, -1.1250879009260238e-01,
       2.1362917969041110e-21, -1.1250879009260246e-01,
       5.8576293124264026e-16, -1.1250879011717747e-01,
       6.3463162893470132e-10, -1.1253541210317937e-01,
       2.6502249444169599e-38, -1.1250879009260240e-01,
