%YAML:1.0
mlp: !!opencv-ml-ann-mlp
   layer_sizes: !!opencv-matrix
      rows: 1
      cols: 3
      dt: i
      data: [ 3, 5, 8 ]
   activation_function: SIGMOID_SYM
   f_param1: 6.6666666666666663e-01
   f_param2: 1.7159000000000000e+00
   min_val: -9.4999999999999996e-01
   max_val: 9.4999999999999996e-01
   min_val1: -9.7999999999999998e-01
   max_val1: 9.7999999999999998e-01
   training_params:
      train_method: BACKPROP
      dw_scale: 1.0000000149011612e-01
      moment_scale: 6.9999998807907104e-01
      term_criteria: { epsilon:9.9999999747524271e-07, iterations:100000 }
   input_scale: [ 1.0081594594915015e+04, -1.7676231719640800e+01, 1.,
       -9.0821638529248180e-09, 1., -2.3447528497261805e-11 ]
   output_scale: [ 5.2631578947368418e-01, 4.9999999999999994e-01,
       5.2631578947368418e-01, 4.9999999999999994e-01,
       5.2631578947368418e-01, 4.9999999999999994e-01,
       5.2631578947368418e-01, 4.9999999999999994e-01,
       5.2631578947368418e-01, 4.9999999999999994e-01,
       5.2631578947368418e-01, 4.9999999999999994e-01,
       5.2631578947368418e-01, 4.9999999999999994e-01,
       5.2631578947368418e-01, 4.9999999999999994e-01 ]
   inv_output_scale: [ 1.8999999999999999e+00, -9.4999999999999996e-01,
       1.8999999999999999e+00, -9.4999999999999996e-01,
       1.8999999999999999e+00, -9.4999999999999996e-01,
       1.8999999999999999e+00, -9.4999999999999996e-01,
       1.8999999999999999e+00, -9.4999999999999996e-01,
       1.8999999999999999e+00, -9.4999999999999996e-01,
       1.8999999999999999e+00, -9.4999999999999996e-01,
       1.8999999999999999e+00, -9.4999999999999996e-01 ]
   weights:
      - [ -9.3041692964215285e-09, -4.4271322773227345e-01,
          4.4271326531172733e-01, -4.4271319645781393e-01,
          -4.4271309544046750e-01, 3.0664161099922310e-01,
          5.4863671923728163e-01, 4.0643975156264378e-01,
          1.0879679222731035e-01, -5.7236108874079716e-01,
          3.3422261742370923e-01, 9.8434358445954565e-02,
          3.3740951045985473e-01, -4.3831558233845436e-01,
          2.8487263322135536e-01, 1.7876156971984337e-09,
          8.3063610345228411e-03, -8.3062288874006240e-03,
          8.3064040353480854e-03, 8.3065829250865107e-03 ]
      - [ -4.1599168866576707e-09, 8.3207464912381083e-09,
          6.3263226622138993e-09, -2.9776002914252793e-09,
          -8.2861647007095077e-09, 1.3299797380167508e-09,
          -3.2268009576367179e-09, -1.0283007260385203e-08,
          1.0865288648783905e-01, 1.2807682671388865e-01,
          -1.3394968407190993e-02, 2.3412598628486078e-01,
          5.2771877333101604e-02, -4.8520373349986309e-02,
          -3.7248165628475594e-01, -1.1933910328575775e-01,
          -1.0865009741702616e-01, -1.2807403747497004e-01,
          1.3397893442647206e-02, -2.3412323232520835e-01,
          -5.2769208527986493e-02, 4.8523179629686532e-02,
          3.7248443792653912e-01, 1.1934193994926753e-01,
          1.0865406845181508e-01, 1.2807794802931860e-01,
          -1.3393791104023689e-02, 2.3412714748467350e-01,
          5.2773027510480047e-02, -4.8519216058748676e-02,
          -3.7248049054846699e-01, -1.1933788137248626e-01,
          1.0865856483481864e-01, 1.2808228462011095e-01,
          -1.3389239427026878e-02, 2.3413157133271295e-01,
          5.2777379942192483e-02, -4.8514776041520193e-02,
          -3.7247604060702466e-01, -1.1933325670930491e-01,
          -1.1607256889907882e+00, -1.4050812038413978e+00,
          -1.1392006775978836e+00, -1.1362401958118586e+00,
          -1.6071035411605861e+00, -1.4182970990068291e+00,
          -1.4439678272508094e+00, -1.4589269202587432e+00 ]
