%YAML:1.0
mlp: !!opencv-ml-ann-mlp
   layer_sizes: !!opencv-matrix
      rows: 1
      cols: 3
      dt: i
      data: [ 3, 5, 8 ]
   activation_function: SIGMOID_SYM
   f_param1: 6.6666666666666663e-01
   f_param2: 1.7159000000000000e+00
   min_val: -9.4999999999999996e-01
   max_val: 9.4999999999999996e-01
   min_val1: -9.7999999999999998e-01
   max_val1: 9.7999999999999998e-01
   training_params:
      train_method: BACKPROP
      dw_scale: 1.0000000149011612e-01
      moment_scale: 6.9999998807907104e-01
      term_criteria: { epsilon:9.9999999747524271e-07, iterations:100000 }
   input_scale: [ 1.8970700396427106e+04, -2.8979490461961017e+01, 1.,
       -3.1400219943286676e-09, 1., -2.9336233556319716e-12 ]
   output_scale: [ 5.2631578947368418e-01, 4.9999999999999994e-01,
       5.2631578947368418e-01, 4.9999999999999994e-01,
       5.2631578947368418e-01, 4.9999999999999994e-01,
       5.2631578947368418e-01, 4.9999999999999994e-01,
       5.2631578947368418e-01, 4.9999999999999994e-01,
       5.2631578947368418e-01, 4.9999999999999994e-01,
       5.2631578947368418e-01, 4.9999999999999994e-01,
       5.2631578947368418e-01, 4.9999999999999994e-01 ]
   inv_output_scale: [ 1.8999999999999999e+00, -9.4999999999999996e-01,
       1.8999999999999999e+00, -9.4999999999999996e-01,
       1.8999999999999999e+00, -9.4999999999999996e-01,
       1.8999999999999999e+00, -9.4999999999999996e-01,
       1.8999999999999999e+00, -9.4999999999999996e-01,
       1.8999999999999999e+00, -9.4999999999999996e-01,
       1.8999999999999999e+00, -9.4999999999999996e-01,
       1.8999999999999999e+00, -9.4999999999999996e-01 ]
   weights:
      - [ 3.4497170208064212e-09, -9.2224137656610139e-01,
          2.1530080887048273e-08, 5.7918266347477706e-09,
          -3.0361307768843400e-08, 3.0664152779156695e-01,
          5.4853925767767453e-01, 4.0645207667726668e-01,
          1.0878482354949867e-01, -5.7237269126203327e-01,
          3.3422261719211671e-01, 9.8434413304391816e-02,
          3.3740950503260503e-01, -4.3831557698698886e-01,
          2.8487263822400666e-01, -1.6623953209706297e-09,
          6.3662063058723573e-01, -6.4817742452105711e-09,
          -1.7441015333965219e-09, 9.1410973389291696e-09 ]
      - [ 2.9609745809411571e-09, 1.2006591315649580e-09,
          -2.4365119345720303e-10, 1.4051736088958960e-09,
          4.9389970063910814e-09, 3.5896731347607426e-09,
          4.9088455231229935e-09, 5.0456719696577568e-09,
          5.0209230679400185e-01, 3.2977095282379637e-01,
          6.1625713692145667e-01, 2.2542674392160364e-01,
          -1.4413923668627687e-01, -3.9566177480088655e-01,
          -5.3473492942659284e-01, -7.4107460226326038e-01,
          8.9626466341488749e-09, 6.2723948606643905e-09,
          -7.2011255004998617e-09, 6.0385758844246622e-09,
          1.9757654429321455e-08, 1.6069463511130510e-08,
          2.3941857895180716e-08, 2.8020468676743348e-08,
          2.3986794485449968e-09, 1.6801377114916057e-09,
          -1.9562735149920851e-09, 1.6145116560562710e-09,
          5.3004703508496325e-09, 4.3061787696891168e-09,
          6.4222270139957048e-09, 7.5246653609828968e-09,
          -1.2621167557602042e-08, -8.8348523000897229e-09,
          1.0182338246771043e-08, -8.5012061210428865e-09,
          -2.7840941053703701e-08, -2.2636865262404682e-08,
          -3.3735904173644309e-08, -3.9495027821395162e-08,
          -1.2711469308972618e+00, -1.0760619203555133e+00,
          -1.2715531235711419e+00, -1.7251502412208455e+00,
          -1.3715823793199962e+00, -1.5204371532068099e+00,
          -1.2812814627905265e+00, -1.2678854206894372e+00 ]
