%YAML:1.0
mlp: !!opencv-ml-ann-mlp
   layer_sizes: !!opencv-matrix
      rows: 1
      cols: 3
      dt: i
      data: [ 800, 10, 1 ]
   activation_function: SIGMOID_SYM
   f_param1: 6.6666666666666663e-01
   f_param2: 1.7159000000000000e+00
   min_val: -9.4999999999999996e-01
   max_val: 9.4999999999999996e-01
   min_val1: -9.7999999999999998e-01
   max_val1: 9.7999999999999998e-01
   training_params:
      train_method: BACKPROP
      dw_scale: 1.0000000149011612e-01
      moment_scale: 1.0000000149011612e-01
      term_criteria: { epsilon:1.0000000133514320e-10, iterations:1000 }
   input_scale: [ 1.3147003051662737e+03, -6.2460678770762557e-01,
       3.2565178866879552e+02, -9.3320394337038604e-01,
       1.0055014124893538e+03, -6.5458313157896320e-01,
       9.2379184779489037e+02, -9.0150294120469432e-01,
       1.1475375780498714e+03, -1.0065003641941315e+00,
       4.5765162132018821e+02, -1.0310610766290127e+00,
       9.4321143736742442e+02, -1.2437256771805190e+00,
       1.8355687308480168e+02, -1.1917559068578885e+00,
       1.0860332206035049e+02, -7.1305525732126029e-01,
       4.0715091458295780e+02, -7.4843206962437281e-01,
       6.8542942311463526e+02, -8.3424069419250912e-01,
       9.7518911959989475e+02, -8.2841008766796809e-01,
       1.2197463137761133e+03, -7.6014515434258412e-01,
       5.6899386830703531e+02, -6.1241271240408890e-01,
       1.4853964965647747e+03, -8.4376722726112297e-01,
       2.9992992680449794e+02, -1.1540251016795167e+00,
       9.6924212393226469e+02, -6.9038786105697370e-01,
       1.5561356653607897e+03, -8.4571739848698257e-01,
       4.4687154792111488e+02, -6.6670549024514059e-01,
       1.2061703044336557e+03, -8.6059299983937121e-01,
       9.4832638594656191e+02, -9.6795597910887532e-01,
       7.6110381650496936e+02, -9.9725163199380762e-01,
       7.4608525095852133e+02, -1.0734062131209698e+00,
       5.9233241869652034e+02, -8.0900479863158625e-01,
       7.6409378528084994e+02, -7.1987386477691118e-01,
       1.1834062360633900e+03, -7.2367640236196029e-01,
       4.4976610858366274e+02, -7.1999561605597151e-01,
       6.1570804362016884e+02, -9.8152263946449370e-01,
       6.0553028777344491e+02, -9.2348550398849216e-01,
       6.8546405097884985e+02, -7.9859256263741951e-01,
       2.6531741607240940e+02, -9.5527550250803661e-01,
       6.1524380975181782e+02, -8.8418236088465341e-01,
       3.7465324374355384e+02, -7.8679356382851862e-01,
       1.7427230870206004e+03, -7.4774370861570094e-01,
       7.1582093530738996e+02, -6.9260934120077655e-01,
       6.9229361371081757e+02, -1.0146409124526066e+00,
       4.4784465945009538e+02, -7.9290470199123242e-01,
       1.4612208819251000e+03, -5.6268411337875879e-01,
       2.6031165312558369e+02, -6.8215070347017370e-01,
       2.7783823035915754e+02, -7.4176330844015459e-01,
       1.0965869955725648e+03, -5.7864004011001069e-01,
       9.9102347262520561e+02, -8.1670622518757319e-01,
       6.9497409662336997e+02, -5.1523822732842017e-01,
       3.9057708744737909e+02, -1.1844353269521433e+00,
       1.2043355300730786e+03, -8.4400929377910316e-01,
       8.2064582483825893e+02, -8.3792065564780216e-01,
       7.7574427773653406e+02, -7.2014111429385819e-01,
       6.3791276623781107e+02, -1.1919724581344779e+00,
       9.4290046488758605e+02, -6.5103921441179857e-01,
       1.2006358539231967e+03, -8.3846553251449563e-01,
       1.3890927808746990e+03, -6.0734830852071631e-01,
       6.1839437331751651e+02, -9.3777045787485569e-01,
       6.0680474707949486e+02, -1.3215561966050688e+00,
       1.0559348390849264e+03, -1.1071737701088649e+00,
       9.5515422512304963e+02, -7.8773803068670967e-01,
       2.6415985861197203e+02, -1.1475058069997526e+00,
       4.3482610794941888e+02, -8.8975390942231658e-01,
       8.5284649218131904e+02, -9.5553637758386734e-01,
       1.0557749684528712e+03, -7.5990919900594711e-01,
       1.1156567617754017e+03, -7.8053718776789949e-01,
       8.7339032181186610e+02, -1.0166778591232819e+00,
       3.5911468031422970e+02, -1.0395411987168275e+00,
       8.9263847537296726e+02, -1.0745628664825579e+00,
       3.7822491217444292e+02, -9.1148053319958178e-01,
       3.7446649166114452e+02, -4.4142254555973198e-01,
       9.0738228751584450e+02, -9.5415664039387116e-01,
       4.2762772071192927e+02, -9.9068434768381997e-01,
       4.0453627882421756e+02, -1.0342079350322002e+00,
       9.5036386379986493e+02, -8.2544763352614325e-01,
       6.6247671087005483e+02, -7.3316523701744285e-01,
       2.7782207722497850e+02, -7.0914673756216340e-01,
       6.2758461823174673e+02, -8.5981814802081880e-01,
       9.3191950109886272e+02, -7.8588086389433054e-01,
       4.2277993174993730e+02, -1.0890115920768242e+00,
       9.9512803824945922e+02, -7.7809811938133855e-01,
       6.7165291441198065e+02, -8.5145127897808037e-01,
       5.4981474505588517e+02, -9.7075874179467636e-01,
       6.7283228063063234e+02, -1.4881687396126668e+00,
       4.3261297914857778e+02, -7.5691272677442412e-01,
       2.5878555254731219e+02, -5.8342872567822424e-01,
       6.1505666871148787e+02, -6.9856508446882037e-01,
       7.7836719194601244e+02, -1.0105245215112979e+00,
       4.0618734561638468e+02, -7.6601480371720121e-01,
       1.0186270823022305e+03, -1.0130763675487833e+00,
       2.3265838294130771e+02, -6.0430014311766012e-01,
       5.9762923847774255e+02, -9.5523762708137416e-01,
       1.4522507575453469e+03, -8.8607497835784210e-01,
       1.0234235673400713e+02, -6.4523510433139886e-01,
       1.1597391979603874e+03, -9.5432507350846107e-01,
       2.4046497502982507e+02, -5.2173409469251775e-01,
       1.1280924714928180e+03, -9.8371746875205035e-01,
       8.6752571504530056e+02, -5.8239323344939931e-01,
       1.4005520807792793e+03, -7.8693385136712568e-01,
       1.0714423986425684e+03, -9.3542936222716289e-01,
       1.6110860395760430e+03, -6.8193429280196494e-01,
       6.2330052167977180e+02, -9.9457308166109892e-01,
       6.9534060786551345e+02, -1.1333739544684760e+00,
       6.5260770687182776e+02, -9.3103990017087868e-01,
       6.8923837411933187e+02, -1.0300760382162246e+00,
       9.5854728038933399e+02, -9.9489471299999099e-01,
       1.0700085907442619e+03, -1.2232587465973526e+00,
       3.8491452630997691e+02, -7.1337054803268685e-01,
       1.8670927342097789e+03, -8.1031002158381982e-01,
       5.7302105994329838e+02, -8.5106693079199280e-01,
       3.1483010831598796e+02, -7.6967664089287169e-01,
       1.1965412547904855e+03, -7.2385724912499705e-01,
       7.4739921099266780e+02, -8.8533111566035783e-01,
       1.0559844017396640e+03, -1.2055822424612848e+00,
       1.4821066728687995e+03, -8.0444012936775167e-01,
       9.7435181552860570e+02, -1.0077752696302045e+00,
       6.2902314386511807e+02, -8.6741949238287896e-01,
       1.2984217178746308e+03, -6.4268266588462386e-01,
       1.3466118586078385e+03, -8.1897658636816373e-01,
       6.1873832743704122e+02, -7.7431017218274367e-01,
       8.2002209881603312e+02, -1.0114696682071702e+00,
       4.8320238227699565e+02, -8.0621863161273721e-01,
       4.4505356961438213e+02, -9.4117225246572456e-01,
       9.0033998177712203e+02, -1.0277729990054734e+00,
       1.2769551885017714e+02, -6.5270134137191449e-01,
       2.8260957099912770e+02, -9.5873620536892590e-01,
       9.5995985501537359e+02, -8.7499196011425140e-01,
       1.2520809088868466e+03, -6.5958506919332138e-01,
       1.5423652069941224e+03, -9.4789197234770595e-01,
       9.1725297927456108e+02, -9.3311437653611740e-01,
       8.5573423826697922e+02, -8.4493910135880035e-01,
       1.0156368149329693e+03, -9.1337612298363680e-01,
       4.5554930022785925e+02, -9.3719893969583123e-01,
       4.8480841230700457e+02, -8.6446146132649904e-01,
       7.8356941093790681e+02, -7.0368172963297015e-01,
       5.8587911975746852e+02, -9.6809041186938838e-01,
       4.4017905788071778e+02, -9.3301220204569768e-01,
       2.8962225685586935e+02, -1.1572892573239437e+00,
       1.1490709282226799e+03, -7.9913934651752161e-01,
       7.2857863602482985e+02, -8.3691747500632696e-01,
       1.1667133437301584e+03, -7.7292349007107219e-01,
       9.0836424694891264e+02, -6.1215347635863726e-01,
       9.6490583275988865e+02, -7.0055271329234237e-01,
       1.0904520279237138e+03, -1.0639987904624613e+00,
       6.3750846057455351e+02, -1.1592633302239308e+00,
       1.2661127852614136e+03, -7.9071054367937121e-01,
       1.2900024817020847e+03, -6.7712694681687413e-01,
       8.8122949818043128e+02, -1.0609437722965853e+00,
       1.3075604725857943e+03, -9.2038369810074971e-01,
       1.0517103725153806e+03, -1.0059921927008040e+00,
       4.1928117450790126e+02, -1.3154386046105702e+00,
       1.4023466196839065e+03, -6.8394608726733208e-01,
       7.9446965386557395e+02, -7.3560107846250855e-01,
       6.3585607225838908e+02, -6.8744085404122768e-01,
       7.4692778189742683e+02, -1.0483408986562166e+00,
       6.4734193145773861e+02, -7.9987371198824642e-01,
       1.4146360517856356e+03, -8.7173576738730296e-01,
       6.4308569607422760e+02, -9.8054022184064649e-01,
       4.1329128256854807e+02, -8.1277936199117407e-01,
       5.2421499522849990e+02, -1.0357616885643066e+00,
       9.2588077348780541e+02, -7.1908212865307308e-01,
       1.0301328448916249e+03, -8.6290444464507554e-01,
       6.3079191070760601e+02, -7.5396915617848803e-01,
       3.8606864825766070e+02, -1.2071929904192209e+00,
       1.0539594633849804e+03, -9.5300920735929395e-01,
       4.1889258495391596e+02, -8.5019515101562881e-01,
       3.0177685706258177e+02, -8.1394934035997812e-01,
       1.2226067148917255e+03, -7.2719090176309031e-01,
       6.6905023535913153e+02, -6.5200486938709368e-01,
       8.2970627992977643e+02, -6.2022674822127666e-01,
       8.8043907841278269e+02, -1.0675656429792877e+00,
       1.3377310155608047e+03, -7.9578889299353406e-01,
       1.3653863575048010e+03, -8.4870939862642503e-01,
       4.0172667263847944e+02, -5.7459319144861354e-01,
       9.8632887165778868e+02, -9.4462700559714219e-01,
       1.1512258374100429e+03, -8.7789083150793723e-01,
       9.8324287716761000e+02, -9.6300845623676634e-01,
       1.1576202994125911e+03, -1.0993276861979870e+00,
       7.3568260154001973e+02, -5.2574483643359926e-01,
       7.3614220181387475e+02, -9.2369937478108755e-01,
       1.5476745803260951e+03, -8.1287609926916626e-01,
       9.3703818236719724e+02, -1.1045199373073855e+00,
       1.0134007232552283e+03, -7.1812190206960624e-01,
       6.8824004944252420e+02, -1.1318661476290948e+00,
       9.9464152663071695e+02, -8.1681942226250370e-01,
       6.3484822599148663e+02, -1.0241978151088693e+00,
       1.2764856054395768e+03, -6.7500102215019009e-01,
       7.5406567366685454e+02, -1.0419855073968360e+00,
       1.5318550716210851e+02, -7.0004399487122526e-01,
       5.7948897697266261e+02, -8.7512073394331868e-01,
       1.2236008083439783e+03, -8.9541112510916043e-01,
       8.4457626516841913e+02, -1.1143601791403626e+00,
       9.2259186068081885e+02, -1.0759317379044531e+00,
       8.1919895819035025e+02, -1.1477735904318835e+00,
       1.2935697077887119e+03, -7.5777969383854848e-01,
       1.4887137009789412e+03, -7.4019225121049415e-01,
       1.0272757724265953e+03, -8.5546852574893550e-01,
       1.2019084549468846e+03, -8.8134326103760152e-01,
       5.2553199759694132e+02, -6.2151595770759671e-01,
       1.0643604453427513e+03, -6.0840892681906067e-01,
       7.1926002266141029e+02, -8.2779284277159204e-01,
       9.7255674610707274e+02, -9.4014437860314004e-01,
       7.7658335288642195e+02, -9.1517165406146739e-01,
       6.1731444333506909e+02, -9.6813610388206484e-01,
       1.3123997549157211e+03, -7.6391405111548738e-01,
       9.1805155654559917e+02, -7.9172753595651357e-01,
       1.1531221626853703e+03, -7.9119952109181912e-01,
       1.1462838418175950e+03, -8.9804139881800316e-01,
       1.3414348614710814e+03, -7.8291113597672213e-01,
       1.0554776269521255e+03, -6.5987227768197332e-01,
       5.7638476793210657e+02, -9.8913004743527888e-01,
       1.3690057124605080e+03, -9.4311969549002839e-01,
       9.2541189652231685e+02, -1.0596689776077022e+00,
       7.5681894008295342e+02, -1.0995424052210678e+00,
       8.6428440359187050e+02, -9.5264218259774147e-01,
       1.1590428049090774e+03, -8.9482960129263656e-01,
       1.2476939765438003e+03, -1.0091224673136978e+00,
       2.4843548819068903e+02, -8.0072307293920730e-01,
       9.1096924750718517e+02, -8.4566245058546785e-01,
       1.0807046090367896e+03, -6.2698440298515823e-01,
       9.5016431735994240e+02, -7.2030182982469670e-01,
       9.3394235450943142e+02, -8.4904985615627770e-01,
       2.5006991799278921e+02, -9.2216437673880336e-01,
       5.6769961144766921e+02, -4.7662318982886748e-01,
       4.0182258860767826e+02, -9.6246118925436575e-01,
       1.0427977852030456e+03, -7.4603362991080702e-01,
       1.1198711670498726e+03, -7.7660228471943338e-01,
       3.9006064717425267e+02, -9.0280668534639819e-01,
       4.9340617555592382e+02, -9.7761872389846816e-01,
       4.9388344385280084e+02, -9.9940505339167340e-01,
       8.5490224016263403e+02, -9.9172256100247524e-01,
       1.2013301766546547e+03, -9.8045556515926169e-01,
       1.8676863110907973e+03, -7.8464617249625146e-01,
       1.1643372140977638e+03, -7.4412679748116095e-01,
       1.4199390234597020e+03, -1.0899843227339137e+00,
       6.9853741645817206e+02, -8.3436862140299672e-01,
       5.0432955939507536e+02, -8.2735691412043266e-01,
       1.1229424210663249e+03, -6.0130684482778285e-01,
       9.5940819931506235e+02, -7.4515322860075106e-01,
       8.2558205940287553e+02, -6.1104354844290298e-01,
       9.9530522403573525e+02, -9.0922957133223048e-01,
       8.6114334543087591e+02, -8.5343921515130627e-01,
       6.4884550174094750e+02, -9.0234652268504345e-01,
       7.1721040852351109e+02, -1.1463669442707893e+00,
       1.2728302236040824e+03, -6.4196275099341638e-01,
       5.9248968373452919e+02, -6.2708669745954515e-01,
       1.4670436109368891e+03, -7.5479438175046265e-01,
       1.0773394621985638e+03, -7.6082082087233271e-01,
       7.9905321191138205e+02, -7.7856472387624964e-01,
       9.1238077169965663e+02, -9.2884845062335919e-01,
       8.8976958519357299e+02, -9.5452998127251421e-01,
       5.9658950837461998e+02, -8.3412476233848853e-01,
       3.3574512744047348e+02, -7.9147235871679888e-01,
       7.6703910260465250e+02, -8.6909866657887058e-01,
       1.0449418182044647e+03, -7.5894167968062132e-01,
       7.2200591803343536e+02, -9.9998434776393408e-01,
       1.3100030038588552e+03, -6.0740700628747979e-01,
       9.8279256418603700e+02, -1.2134376178761901e+00,
       1.1277669373139843e+03, -5.6155920477385834e-01,
       5.9447967602051415e+02, -8.2078616684328687e-01,
       6.9718212186389712e+02, -6.1015950028840249e-01,
       6.8767733753917491e+02, -9.9608605643230397e-01,
       9.0082503630698557e+02, -8.7570695194608827e-01,
       1.2678008895670612e+03, -8.3135947570249991e-01,
       1.0013936228933986e+03, -9.2358631409611980e-01,
       9.2681972237401169e+02, -9.6382961287575153e-01,
       1.0833554695482765e+03, -7.5476326836021923e-01,
       9.2649788729581405e+02, -6.7634918326519911e-01,
       6.4612021748757400e+02, -1.3125021310469374e+00,
       7.2124035797183581e+02, -5.7467589424915300e-01,
       1.0155934297238703e+03, -5.4551686262541066e-01,
       1.1113280029145376e+03, -7.5214874748177796e-01,
       4.2378039635295352e+02, -1.1328853396143190e+00,
       5.5136698390291804e+02, -5.6968799552586558e-01,
       6.9236671638024484e+02, -7.0692934723434631e-01,
       1.6039025533654194e+03, -7.2722511953358404e-01,
       8.2890793022381547e+02, -7.3207567627348180e-01,
       1.1788586717211253e+03, -7.5887674928808091e-01,
       7.1655270274370150e+02, -7.2901958613820406e-01,
       6.7008383199534728e+02, -7.1246848167658494e-01,
       6.5386898618434577e+02, -9.2811477292614142e-01,
       1.0766425464492058e+03, -6.9899551197108045e-01,
       1.8592341961024058e+03, -6.9132473690742346e-01,
       1.0523272348663120e+03, -8.9720426949077814e-01,
       1.2727996638021264e+03, -1.0653402292138685e+00,
       1.4153741194582717e+03, -9.9933499933358949e-01,
       9.3642951842121101e+02, -1.1070018880460064e+00,
       1.1642924753715540e+03, -9.6350098859417377e-01,
       1.1319549681977662e+03, -8.1859982965714606e-01,
       5.2710710054137860e+02, -5.5835343846091612e-01,
       8.9377630507442893e+02, -1.1787666539993222e+00,
       5.9292221372948268e+02, -9.0582356473787828e-01,
       3.7062558678498539e+02, -9.5665384752154936e-01,
       8.4215722822118221e+02, -9.9402316911545563e-01,
       1.4976184100331357e+03, -5.5109169738072761e-01,
       1.2874513907685207e+03, -8.8116555082431514e-01,
       9.2651570731960328e+02, -9.3388759759618212e-01,
       6.3188336560926234e+02, -5.1138539119069371e-01,
       1.1435801765582219e+03, -1.1266586383464599e+00,
       8.2219943962853040e+02, -7.1753313587660905e-01,
       2.5029879021702627e+02, -1.2909277607235679e+00,
       3.2582346828115277e+02, -1.0844562512432905e+00,
       6.6281927580081333e+02, -1.2022758590960994e+00,
       9.1066813238105021e+02, -5.9246973398627600e-01,
       9.1321379092936684e+02, -5.5169781090007530e-01,
       2.2796288834438263e+02, -8.4978276263709096e-01,
       8.5244325065657131e+02, -1.0490581592050985e+00,
       1.1512915251319930e+03, -1.4224056100358029e+00,
       1.0264643302352431e+03, -8.8345482060175939e-01,
       8.9674611626706348e+02, -6.8017725076952507e-01,
       1.1546938610220272e+03, -6.1653464436808836e-01,
       1.1299697821674183e+03, -7.2416516805143216e-01,
       3.5329662096181789e+02, -8.1444907566462221e-01,
       2.7729126394035734e+02, -6.1026054941157726e-01,
       5.1125328824000184e+02, -5.7845611531962382e-01,
       7.3381592443895931e+02, -9.4739362905867852e-01,
       1.5270512920348094e+02, -9.0537189687196573e-01,
       8.4651385976189260e+02, -6.2608007184382208e-01,
       1.0691395932857326e+03, -9.1885969595582007e-01,
       7.0386684926855776e+02, -1.0540569827972037e+00,
       8.2804798788335597e+02, -8.3214567397552763e-01,
       1.4323707046279005e+03, -9.7705152527844219e-01,
       1.4131696967951368e+03, -1.1213338473590839e+00,
       1.1160397177408852e+03, -6.6185814800773168e-01,
       3.6556916216760510e+02, -5.3887585272158334e-01,
       1.1550107225645691e+03, -7.7333654775725569e-01,
       1.1018332188387951e+03, -8.1604453933046495e-01,
       1.2491090528200282e+03, -8.2130554185385907e-01,
       9.9878436617054990e+02, -8.8271242026868446e-01,
       1.3083363200362178e+03, -7.3492305785882794e-01,
       2.6302351521135705e+02, -8.2911597580471996e-01,
       9.2929591637699502e+02, -1.1812746076827612e+00,
       9.3212620951701729e+02, -7.0585928785934848e-01,
       1.3142592045717399e+03, -8.2630458472477808e-01,
       9.8428016373643186e+02, -1.0014068200426225e+00,
       1.0335284833904209e+03, -6.7169462659153500e-01,
       1.0072414808615548e+03, -5.7010566702016130e-01,
       6.2777091080315461e+02, -1.2148085523048271e+00,
       1.2614647062709123e+03, -7.6826335698230319e-01,
       1.2556050844572605e+03, -9.9898909944526659e-01,
       8.9995182523104893e+02, -1.1447137301191492e+00,
       7.1635575478440910e+02, -8.7587574181662609e-01,
       4.7342302711421775e+02, -1.1709013948675602e+00,
       3.3687112480475662e+02, -9.5188747780547756e-01,
       1.1921317420658113e+03, -7.8689031490698558e-01,
       9.8186576657141927e+02, -7.5989254165297027e-01,
       1.3070295129991109e+03, -7.3319417266102749e-01,
       5.0762567994598965e+02, -5.0716796276182452e-01,
       1.1220751802010811e+03, -7.2866883996602805e-01,
       1.0295725544341728e+03, -8.5194804852580908e-01,
       1.0034483036424158e+03, -7.1347633331635585e-01,
       1.2000055156129474e+03, -8.7068941448915727e-01,
       9.2653545075087811e+02, -6.3516088130283477e-01,
       5.3297438797611449e+02, -8.0874628944699578e-01,
       6.5280576100295787e+02, -5.8973654219054583e-01,
       8.0826670085730211e+02, -1.0710909760016811e+00,
       1.0407088392239796e+03, -1.0232780947862656e+00,
       1.2197324337212901e+03, -7.8847486914511811e-01,
       8.3299691974352265e+02, -5.9701716739009214e-01,
       1.4796461197725425e+03, -7.7535038238272946e-01,
       8.0729773323579741e+02, -8.6681113799203779e-01,
       8.7861768102036729e+02, -6.8111526621136709e-01,
       9.5244750803691250e+02, -8.4059778297779009e-01,
       8.6664195018281464e+02, -1.1560632514900087e+00,
       9.3306607435386957e+02, -1.0434521963483776e+00,
       3.4300113664264438e+02, -8.3365856373220193e-01,
       1.1596584818452488e+03, -6.7069239705883643e-01,
       1.0151422286822493e+03, -6.7870013890392100e-01,
       7.1822838838257690e+02, -1.0018011978859296e+00,
       7.3584106065503420e+02, -4.0780284375851106e-01,
       6.9129144506629723e+02, -6.7750228872826945e-01,
       1.3272433403327154e+03, -7.8323782083924132e-01,
       9.2525839230592339e+02, -1.0631940108901490e+00,
       5.9168525208345659e+02, -1.0729046793696364e+00,
       1.3735954124871826e+03, -8.4863894245966820e-01,
       1.5785444594904843e+03, -5.8861390244201639e-01,
       6.1094609079780764e+02, -8.7599712664112162e-01,
       7.8394372619358887e+02, -9.0488078635400337e-01,
       7.7374342638132975e+02, -1.1732035101892919e+00,
       2.0417882042338701e+03, -8.5616796242385573e-01,
       7.0322791332581892e+02, -7.7326900192042181e-01,
       1.0842442129808962e+03, -7.3116871491406588e-01,
       1.1727815022075042e+03, -7.2919409495005583e-01,
       6.0223322942065204e+02, -7.1680108308255375e-01,
       1.2152660044946242e+03, -7.7501524112624887e-01,
       8.9229178809073198e+02, -1.0667044348416013e+00,
       1.4263543500594033e+03, -7.4810574732157664e-01,
       1.0802547782521103e+03, -9.8844683700093616e-01,
       2.1751531453387670e+02, -1.0440576951273075e+00,
       1.1079352156160624e+03, -5.5171502723861521e-01,
       6.6640578402989081e+02, -9.4529555586373137e-01,
       9.6269741292496622e+02, -8.7603132020805485e-01,
       8.4468550484948457e+02, -8.0621401598850406e-01,
       3.8063939356653447e+02, -9.7715826484741131e-01,
       5.7679418705880346e+02, -1.0069075345430096e+00,
       9.7432883768635372e+02, -7.2871731706258736e-01,
       8.1149999703638639e+02, -7.5013473917850271e-01,
       9.0999314973045216e+02, -1.0063498980296279e+00,
       2.3767416132981748e+02, -1.2380329714866267e+00,
       6.6788592115159929e+02, -1.1015061917213049e+00,
       1.0488433969813007e+03, -8.3367649664466092e-01,
       7.1501940020559948e+02, -9.9974052988637396e-01,
       6.2030373537077969e+02, -1.1626531254456725e+00,
       1.4448222347674296e+03, -9.6312325217986861e-01,
       6.0403773938914514e+02, -5.4530595939154169e-01,
       5.2616390897938265e+02, -1.3144192903282017e+00,
       1.2584482364958578e+03, -8.7562895960547604e-01,
       1.1856835669574898e+03, -6.3316784333930287e-01,
       8.5339216526617986e+02, -8.0713000011425939e-01,
       1.2193958633879017e+03, -7.1718914843321746e-01,
       1.2695566089088827e+03, -9.2263598857766072e-01,
       3.0361728700349698e+02, -5.8639942042220272e-01,
       1.0920022643095174e+03, -8.8683627708006907e-01,
       8.7560627440385554e+02, -1.3219347299355573e+00,
       7.7510511486091002e+02, -8.6937703512098652e-01,
       1.5129215030841890e+03, -9.0938855832046794e-01,
       3.6570357478217704e+02, -7.2204471448321372e-01,
       9.4304263233126835e+02, -1.0618082450551156e+00,
       4.1505708262328659e+02, -8.3072715826716204e-01,
       4.8965623549785323e+02, -8.6874776266718345e-01,
       1.2615449463556915e+03, -6.9090542290246848e-01,
       1.4073978058916980e+03, -8.3500712811097022e-01,
       1.2994025938297627e+03, -7.0196112952268186e-01,
       1.3201383228769550e+03, -7.5640174500551005e-01,
       1.3039173398953144e+03, -8.4627811502762973e-01,
       8.1584735829424562e+02, -8.8936046816827263e-01,
       1.0393052526650895e+03, -6.7230436267965477e-01,
       1.1827903233497416e+03, -6.1777148314615371e-01,
       7.3307848309121823e+02, -8.6489816962567012e-01,
       9.7841430073247125e+02, -8.5392435278341705e-01,
       1.0832916772027320e+03, -7.5843818192048251e-01,
       9.0913900086604690e+02, -9.9124896428084897e-01,
       1.0560464818981559e+03, -1.0790059501619560e+00,
       1.3487436833598799e+03, -7.5473291807600629e-01,
       6.7212248851515676e+02, -6.6389671137577688e-01,
       8.1991517496066615e+02, -6.5691276692369549e-01,
       2.5663745678056586e+02, -5.7080415264965823e-01,
       1.2599725563278209e+03, -8.0946670786979447e-01,
       2.4868492236340978e+02, -6.8561382709121654e-01,
       6.7920889627825090e+02, -8.7563872474744253e-01,
       7.4156942796160990e+02, -7.9762906620082830e-01,
       3.2800445088705857e+02, -1.0534944773086408e+00,
       9.9777688801515592e+02, -7.9034455307856466e-01,
       5.2629733262172067e+02, -7.4537580255046387e-01,
       1.4876798823736087e+03, -4.7731289559951284e-01,
       9.0133286863262470e+02, -7.8764964413777139e-01,
       7.4704795495169662e+02, -8.8827551189319742e-01,
       1.4087858806689758e+03, -7.4077158345300620e-01,
       3.8196952853316770e+02, -6.5810115317311235e-01,
       1.1746632344977279e+03, -7.4453994075815444e-01,
       1.0229928535471048e+03, -1.0458737175504476e+00,
       7.8936526399049421e+02, -1.1200215901064106e+00,
       4.4034640399039932e+02, -1.0392731244143385e+00,
       5.5601164032947747e+02, -8.7125970671672404e-01,
       6.5036056647605778e+02, -8.1188720247074853e-01,
       1.2793995131610372e+03, -9.9210756033700565e-01,
       8.2950535586557464e+02, -9.1995924734452006e-01,
       6.4685182759694112e+02, -8.5638397369690844e-01,
       4.5729377014068899e+02, -9.9357091562426469e-01,
       8.9346906775211573e+02, -7.4873991755429525e-01,
       1.2385564794580957e+03, -9.1907491112610573e-01,
       9.1148719745339258e+02, -1.2507235010111375e+00,
       7.7386417032628515e+02, -8.2324810747031651e-01,
       5.2545147651183163e+02, -4.4981244009750870e-01,
       1.0837597423606915e+03, -8.7497019017005451e-01,
       2.7807834367855475e+02, -6.4658446324813845e-01,
       1.1435915455689351e+03, -8.5637764434391161e-01,
       9.1654535340244104e+02, -1.0360705535166652e+00,
       7.7952767632241205e+02, -9.8397135777932077e-01,
       9.8015364059114540e+02, -8.3666953020115564e-01,
       5.0119329370218782e+02, -5.9512040496370489e-01,
       5.7595548096838559e+02, -1.1608543593014851e+00,
       8.3583218303127046e+02, -9.5128844428555781e-01,
       4.9707321749706284e+02, -9.8787922549171026e-01,
       8.3600115682170258e+02, -1.1474794271854745e+00,
       8.3817264819097829e+02, -6.4065932380440826e-01,
       7.8700540543165016e+02, -1.2860275800707934e+00,
       1.1994377395524773e+03, -5.7149123498989174e-01,
       1.0808845180953799e+03, -9.0946468467430497e-01,
       1.0532437377309807e+03, -7.9327660957221202e-01,
       1.0603558844670317e+03, -9.5119967725675203e-01,
       1.0344354747806526e+03, -7.3809545566179813e-01,
       5.4760994981841225e+02, -9.9610824225082173e-01,
       7.7111887242651983e+02, -6.8049741941068764e-01,
       5.6487270490182982e+02, -8.3173372159073800e-01,
       5.8712013968450208e+02, -8.4266794262200895e-01,
       4.0420091044616413e+02, -1.1029638571649116e+00,
       8.3534887422671500e+02, -1.1298694104405351e+00,
       1.4319709874465927e+03, -6.8876536670184163e-01,
       1.6716222274242803e+03, -6.0145109152746468e-01,
       8.2021908545931240e+02, -1.0558311613645224e+00,
       9.6151114671130063e+02, -9.9078322908144989e-01,
       8.5336078654884545e+02, -9.8206610562015539e-01,
       9.5717259273569289e+02, -9.7437475306066934e-01,
       1.0652808525401165e+03, -8.2090246588763216e-01,
       9.6746694942120826e+02, -8.2188726501317677e-01,
       9.3743288280128957e+02, -8.1490854703261784e-01,
       1.5021054039965977e+03, -6.8589010386260119e-01,
       1.1956423601384806e+03, -1.0698962108834822e+00,
       7.9649899178901569e+02, -9.6881725113027317e-01,
       7.0673876189205396e+02, -7.5803190480258231e-01,
       1.5167893008544506e+03, -7.1103012712211899e-01,
       6.5713150517321537e+02, -8.3472211133519558e-01,
       4.6419836938882031e+02, -1.4410422484228207e+00,
       1.0154637387200207e+03, -9.5672251551543075e-01,
       9.4094247122506158e+02, -7.8928011323459812e-01,
       1.1972992784004612e+03, -1.0478618954304735e+00,
       9.7742870648963617e+02, -7.6797850936155909e-01,
       6.3849050031861645e+02, -4.6719789191577410e-01,
       4.4997571756875266e+02, -1.0420197315056543e+00,
       7.7342271077154112e+02, -9.8420409221787686e-01,
       1.9068897733303970e+02, -8.2578947481694409e-01,
       7.8681514969200953e+02, -8.4207334868807227e-01,
       9.9419888795588474e+02, -1.0140523764292384e+00,
       4.5743007249338018e+02, -1.0162358504470967e+00,
       2.8736149316411411e+02, -8.4573125236053148e-01,
       9.5120859402447923e+02, -7.3970646814273777e-01,
       1.7195526451085996e+02, -8.3814336452098070e-01,
       1.2702880170879707e+03, -8.0611751678249999e-01,
       1.1129983994008467e+03, -9.3940682420369803e-01,
       9.9455247199741279e+02, -9.1117851592853660e-01,
       6.4056765743987501e+02, -5.5944071644520188e-01,
       1.6508532190622900e+03, -5.8584904426349693e-01,
       2.4123074888487349e+02, -7.3382686147879539e-01,
       9.2429174898124154e+02, -1.1000627180179166e+00,
       4.1588681266218725e+02, -9.1180175021329080e-01,
       1.2365428175966160e+03, -8.0680906010144338e-01,
       5.5469175206438081e+02, -8.8895964018689544e-01,
       1.3822232912021580e+03, -8.7429402868965012e-01,
       3.5565929305378131e+02, -1.0864054219327790e+00,
       7.7061134048987662e+02, -8.6253503446657209e-01,
       8.6218404057917735e+02, -7.3911932252437618e-01,
       2.9918709767911464e+03, -5.4963387935146080e-01,
       2.8627866283606801e+02, -8.2564050660139610e-01,
       1.0682953921096757e+03, -8.2099183793990338e-01,
       6.9132872128959548e+02, -1.1375924361190073e+00,
       1.3300770888364327e+03, -7.4063126388660316e-01,
       1.1125591251826622e+03, -7.7720741095480028e-01,
       1.2207942340957070e+03, -8.3862500626041203e-01,
       6.6708293318308790e+02, -6.9737530011066318e-01,
       7.9564459790765113e+02, -6.9210303249590976e-01,
       1.1694444087543225e+03, -8.3863073114836861e-01,
       8.6579293744359131e+02, -1.0191677638258176e+00,
       5.0397635316622592e+02, -7.4072067629619998e-01,
       1.2089732538569651e+03, -9.2264272930095448e-01,
       3.4403150766335597e+02, -9.5727777936532799e-01,
       1.2548551113307728e+03, -9.6166826523389026e-01,
       1.5526418426197702e+03, -8.5056615196172880e-01,
       8.8570198523723741e+02, -8.9257385670746758e-01,
       8.1615514608881858e+02, -8.2833643101923493e-01,
       5.9798848338366065e+02, -7.8316254019623188e-01,
       1.2260471426143417e+03, -7.4227944206752017e-01,
       9.5218764188826219e+02, -4.6598749367916470e-01,
       1.1269289641395560e+03, -8.7321712995255885e-01,
       4.4461590973847876e+02, -6.0545079321645845e-01,
       1.1456661588933548e+03, -8.0573109999958592e-01,
       1.0658439195774213e+03, -7.1136971887071199e-01,
       5.5179670865283776e+02, -1.1619161122056878e+00,
       1.0396315850129606e+03, -6.2709846185503981e-01,
       8.7728773563580137e+02, -8.1428644445545595e-01,
       2.7406782362949809e+02, -5.5700385477895786e-01,
       6.6124570327902791e+02, -1.1594621745456226e+00,
       7.8893985808014884e+02, -1.0747904733626239e+00,
       6.9055929849678614e+02, -9.8927584061046459e-01,
       5.7904727541553234e+02, -9.1912121764552035e-01,
       1.0647361204473473e+03, -1.0547632520336669e+00,
       2.9685031293280161e+02, -7.4329861527179897e-01,
       6.7019658268609533e+02, -1.0655753066389828e+00,
       9.5974204658730378e+02, -1.1848473262619483e+00,
       1.1825451609788663e+03, -9.2298443689154630e-01,
       5.9697447801457577e+02, -8.5153992048907334e-01,
       5.2715939370232536e+02, -8.2936292867925709e-01,
       9.2876966959521587e+02, -1.0539545709182627e+00,
       6.8475036353338294e+02, -8.0269148431436999e-01,
       7.7266225423977664e+02, -1.0455888533097537e+00,
       7.2548066429744654e+02, -7.7038059688008775e-01,
       7.2327075536356767e+02, -2.5819266057855639e-01,
       7.8690856004744433e+02, -6.9184430628766347e-01,
       1.3564332784783905e+03, -5.1003487805631442e-01,
       9.5670499807098554e+02, -7.6559692436262461e-01,
       1.2064156212511721e+03, -8.1864521159741055e-01,
       3.6452520966216059e+02, -1.0736496762955037e+00,
       2.3070596613543603e+02, -1.0532947538009605e+00,
       7.4472438909508946e+02, -1.0394865954105803e+00,
       6.1871287557541621e+02, -1.1612909883389699e+00,
       8.8815875423593104e+02, -8.5453182083702095e-01,
       8.1444977808964654e+02, -1.1930166501872037e+00,
       1.1291753590317378e+03, -7.8810625388707845e-01,
       1.0851605391438300e+03, -9.8805600634161550e-01,
       8.2211611437091074e+02, -1.2601831642465984e+00,
       2.2438197125359039e+02, -9.7356503129553795e-01,
       1.9316671263252874e+03, -7.0476217941068475e-01,
       1.3173652931425636e+03, -8.3956720435932641e-01,
       7.5455950291052397e+02, -8.7889818954124133e-01,
       1.0602993258603228e+03, -6.5584382126311869e-01,
       1.0795086533170020e+03, -8.0192401085304776e-01,
       1.1480090057236182e+03, -6.8795566120228357e-01,
       7.2944090789782467e+02, -7.7838630750176996e-01,
       2.0379666169110885e+02, -5.6560342186664747e-01,
       4.2768356159865556e+02, -7.6923534958361384e-01,
       1.2011750211973140e+03, -8.2214141724280243e-01,
       8.8341325415640210e+02, -8.6757569892057218e-01,
       6.9966316548830912e+02, -9.5733397559195377e-01,
       5.0416736384779443e+02, -8.2235332208530210e-01,
       5.6077890882786380e+02, -6.9091148072953912e-01,
       4.5609775073459645e+02, -1.3461569702923821e+00,
       8.1116400926448182e+02, -8.7894934405478853e-01,
       4.4462162724862804e+02, -4.7881802240621318e-01,
       8.5312110287961059e+02, -8.1247476782951200e-01,
       8.2601749479647913e+02, -9.7499407990260867e-01,
       7.6649528924661251e+02, -9.9855961996270148e-01,
       1.1324179377521377e+03, -8.0334743380439477e-01,
       7.7340156942259819e+02, -8.3398431841782039e-01,
       1.4199059677292425e+03, -8.7412405598784204e-01,
       1.1440795258235403e+03, -7.3674734938210962e-01,
       7.0702905142546422e+02, -9.0915517709669325e-01,
       7.5016096181738635e+02, -6.9641016166281700e-01,
       4.3339594045478214e+02, -7.8579791748918659e-01,
       1.4389084429976031e+03, -7.6043400934124405e-01,
       4.3434367020619840e+02, -8.9319012338582382e-01,
       5.2270675046747999e+02, -7.1619351406708842e-01,
       7.8919455805523285e+02, -5.3737901193780002e-01,
       4.7635123727424917e+02, -9.6949624539485868e-01,
       7.8851175499874103e+02, -6.9617021848420046e-01,
       6.6174046045474938e+02, -6.0446141779551865e-01,
       1.2747918511140874e+03, -9.7189587424492796e-01,
       8.0965803337068553e+02, -9.7517374247032795e-01,
       1.2243563980206829e+03, -7.9386902953265981e-01,
       6.5551057167162242e+02, -6.7318362682960187e-01,
       1.3981599896021089e+03, -8.3339271791046343e-01,
       9.1084482976522656e+02, -8.4679359596158399e-01,
       6.6571904830317669e+02, -5.6686915386792514e-01,
       1.4092646426349079e+03, -9.4639582066810113e-01,
       1.2293809501084925e+03, -6.7939104096510694e-01,
       1.5445815103210348e+03, -7.2295195623964759e-01,
       1.0334203763906278e+03, -7.9013836407159066e-01,
       1.1055164676958807e+03, -1.2609052339420355e+00,
       4.9645544115577383e+02, -9.9394605408300163e-01,
       7.9841491824355126e+02, -5.4344335425477852e-01,
       1.2219301889605156e+03, -8.2521851706990745e-01,
       4.0141793821988369e+02, -1.1925347686727623e+00,
       1.4749213249665877e+03, -7.9792622539898428e-01,
       8.4115816949078612e+02, -8.0581942568842868e-01,
       8.9124224960629374e+02, -8.5245236333005880e-01,
       9.6540015213153117e+02, -1.2225623611867973e+00,
       1.1774466795309422e+03, -1.2058900767384073e+00,
       1.0527835249171117e+03, -5.9184746632276053e-01,
       4.8508612384430313e+02, -1.2039409491904276e+00,
       8.5488063571196642e+02, -9.5122159954579466e-01,
       1.5655852401773425e+03, -9.5780998250117111e-01,
       8.7913297074399509e+02, -7.1626304328256096e-01,
       9.9324116446441280e+02, -9.8614333186127978e-01,
       5.6692943877536766e+02, -1.5044181650436097e+00,
       1.1350260454869401e+03, -6.4991388923855709e-01,
       9.9529076443297561e+02, -9.5310162266467091e-01,
       6.5102747466513802e+02, -7.3184465651083974e-01,
       9.0939795000916592e+02, -8.2829540006798941e-01,
       5.2311812266424909e+02, -9.9494147689869561e-01,
       1.6931510047997135e+03, -4.1733246459357332e-01,
       1.3081573832841768e+03, -1.1130735986723901e+00,
       6.6228099044795249e+02, -7.8167461187659792e-01,
       9.8008614826881092e+02, -6.2587150893661525e-01,
       1.5537967980000838e+03, -6.8622077215421728e-01,
       8.4076489123271142e+02, -9.0594557228161987e-01,
       5.9015638589142907e+02, -7.4954668256131118e-01,
       7.6060714218196222e+02, -9.9703246271173729e-01,
       1.0027332020679296e+03, -1.0283486762363101e+00,
       1.6243127901536982e+03, -6.5289541858607436e-01,
       1.8311172207613827e+03, -5.7957821870587400e-01,
       9.4836750956274682e+02, -6.4362446892253788e-01,
       1.3133156469050346e+03, -5.4898442528040248e-01,
       1.8963695822127343e+02, -7.9471377772696083e-01,
       7.1085887076794631e+02, -1.0222965451752779e+00,
       1.1122839829800207e+03, -8.4087579541877178e-01,
       6.8632218782827283e+02, -9.9345870954247806e-01,
       1.0317416865197185e+03, -9.0421958159392801e-01,
       6.2531038068079670e+02, -7.1929188680299183e-01,
       2.5310835566204011e+02, -1.0861890175084346e+00,
       7.8372494079952264e+02, -7.9090508021539463e-01,
       9.6726660676753988e+02, -9.6107840504557862e-01,
       6.5605880856496094e+02, -8.3592902844781014e-01,
       5.7155357610492774e+02, -1.1805684752677843e+00,
       2.6189888099877243e+02, -6.5861173869523182e-01,
       1.1968216969349994e+03, -7.7843470786941393e-01,
       4.6853415881272497e+02, -1.1792712268026495e+00,
       8.8565755861732566e+02, -8.3146742596518608e-01,
       7.5253969689234657e+02, -9.3104223805136166e-01,
       7.8783181524873305e+02, -9.6269017023080328e-01,
       9.1565992623577847e+02, -1.1694666016299626e+00,
       7.0261765041174408e+02, -1.2058317747892167e+00,
       1.0675436902686010e+03, -8.0104388700336482e-01,
       8.9361394792670797e+02, -1.1513720685799684e+00,
       4.7073847366382608e+02, -7.4188137838492485e-01,
       6.4648816341271402e+02, -8.9222826661417920e-01,
       8.1143823882277343e+02, -6.9864792694089384e-01,
       6.4690946446507883e+02, -1.2026910904860273e+00,
       9.0476310608613301e+02, -1.0165156249571130e+00,
       1.0591497669668001e+03, -3.9928394827436958e-01,
       6.5539206286137721e+02, -4.7317270085393737e-01,
       1.4772436500071964e+02, -4.9224767834034566e-01,
       9.4173717463972730e+02, -7.0344076081633633e-01,
       9.4797501185847818e+02, -8.6894175679798458e-01,
       4.5426676862875689e+02, -1.0713910473288724e+00,
       1.4989459130623811e+03, -7.4285576272240883e-01,
       5.9802932066005621e+02, -9.7738426674341428e-01,
       4.8119625942190947e+02, -1.1930962130146192e+00,
       9.4802737852103735e+02, -9.3313902166673857e-01,
       8.1864547722589498e+02, -9.1270309051390508e-01,
       1.4216808292831274e+03, -8.7186845064584428e-01,
       7.0656374338886769e+02, -1.0274890356908819e+00,
       9.7474423047632331e+02, -9.9224194730811921e-01,
       3.8983946846606244e+02, -1.0547849150416675e+00,
       7.5704937866193995e+02, -9.8317248878123265e-01,
       1.1467386359546203e+03, -6.8636304329649556e-01,
       6.2566808258842684e+02, -8.4101167259072673e-01,
       5.1861378371571038e+02, -1.1565964008648830e+00,
       1.0846675177958659e+03, -6.7205617137088169e-01,
       4.6783874920115358e+02, -1.0381504460165281e+00,
       1.6372304518462211e+03, -6.8403265116110146e-01,
       9.9009536839755606e+02, -1.0720571790296343e+00,
       4.3342796577176586e+02, -4.8789171366284134e-01,
       1.3897895706072829e+03, -7.1606248129643701e-01,
       1.9684160907678283e+03, -8.5901740652418646e-01,
       7.9790620660389777e+02, -9.2490741851408020e-01,
       1.2049998320104862e+03, -1.0303298115082580e+00,
       7.2413324759379998e+02, -7.9587428061929499e-01,
       7.4267841130503916e+02, -1.1240898575333476e+00,
       6.5972574327537677e+02, -9.6280991156558815e-01,
       1.0753863333003860e+03, -7.7853154952988424e-01,
       4.2231744639400813e+02, -9.5199185084275673e-01,
       8.5833918744956668e+02, -6.5908014002387239e-01,
       6.7018079408755477e+02, -5.2360347140780916e-01,
       7.0930200708562370e+02, -6.4177548331205247e-01,
       1.4172763658910699e+03, -6.6801825956872429e-01,
       1.0363526990091727e+03, -7.4364371969155585e-01,
       1.2568108811030063e+03, -8.3235598669431832e-01,
       3.7423137698054080e+02, -1.3003616654280561e+00,
       1.1418258654974013e+03, -1.2709957391484921e+00,
       9.6561137517255008e+02, -9.2464987091424355e-01,
       5.8107244857159515e+02, -1.1037533686625591e+00,
       4.2075162328029381e+02, -7.1017409451579383e-01,
       9.4840794423071509e+02, -6.8013916366845539e-01,
       1.4012280452828443e+03, -9.5139035803497030e-01,
       6.1073575048679265e+02, -5.2185906920843350e-01,
       1.0541084481723583e+03, -8.0913365202574949e-01,
       9.9701154240729545e+02, -9.2780230363613159e-01,
       1.2968261938879489e+03, -7.8483935698898910e-01,
       5.1246510268777877e+02, -9.4231625892941662e-01,
       1.1000940433730577e+03, -7.4860979979195397e-01,
       5.4466255968631185e+02, -8.1812748781382238e-01,
       9.6397768547432008e+02, -8.2341630752355910e-01,
       5.6900406533543844e+02, -8.0830050583528346e-01,
       7.0547763277872355e+02, -1.1754566256130343e+00,
       7.8552151569282523e+02, -6.3299658051030838e-01,
       8.9704411701538845e+02, -8.6195792564625595e-01,
       9.8168881437095729e+02, -9.6051983299407118e-01,
       9.8991888042198775e+02, -9.0542117858526061e-01,
       7.5350505794385049e+02, -7.4479073905337656e-01,
       1.2054912502474667e+03, -8.6657498383704823e-01,
       9.7883816610425447e+02, -1.0346221027642519e+00,
       9.9949632298085419e+02, -4.9284708744601963e-01,
       1.0419586460250141e+03, -1.2116911002430080e+00,
       7.8171456800789065e+02, -7.5284975138431831e-01,
       3.8549703061639764e+02, -9.5354600993651251e-01,
       6.6617112376215994e+02, -8.6768871561720318e-01,
       8.7599292309806253e+02, -9.3119479755374668e-01,
       1.1442983986905685e+03, -7.6934615165141107e-01,
       4.1502821371379332e+02, -1.1104533343575864e+00,
       3.6233877211741930e+02, -5.4804912997142607e-01,
       2.2561187067885314e+02, -9.7370357841273003e-01,
       7.1834251188928363e+02, -9.9987414300032618e-01,
       1.8265363032626433e+03, -6.0329706966053576e-01,
       9.2666529674333560e+02, -5.4993959169123563e-01,
       7.8983868431166763e+02, -7.4125471367812157e-01,
       7.3039569583482432e+02, -7.4305862934253253e-01,
       1.5579028945020173e+03, -7.4356245842422675e-01,
       1.3002589914359039e+03, -6.4833091952936872e-01,
       1.1441057051191003e+03, -7.1969102319631517e-01,
       1.0572939571469451e+03, -7.1743569461710022e-01,
       7.2793739478096802e+02, -8.7847216894903368e-01,
       1.0871171813937633e+03, -6.9248008643336434e-01,
       1.0899530187606661e+03, -8.3732112721569230e-01,
       9.7150704761100098e+02, -5.0766975597641839e-01,
       8.7628975823746964e+02, -7.9501907844046571e-01,
       1.0186845974951246e+03, -7.2489700769014709e-01,
       1.2253478445290939e+03, -7.6311565863396280e-01,
       1.3009345236533504e+03, -7.6022267851298053e-01,
       1.0951642374748635e+03, -7.7872509353655006e-01,
       9.7376019485405857e+02, -5.6921998301675281e-01,
       2.6309597313520038e+02, -8.3620068027632555e-01,
       1.0864251047417697e+03, -5.7539164651727004e-01,
       9.9110389516721705e+02, -1.2485992761476445e+00,
       1.1503603747636021e+03, -1.3459385739657481e+00,
       1.3801407535444503e+03, -9.3870127440311413e-01,
       9.2112465981190826e+02, -9.5698144623328063e-01,
       1.4104036164354088e+03, -7.8943962083243524e-01,
       1.2013798766183684e+03, -9.3960516246574999e-01,
       1.1812031668538502e+03, -5.8042534774501031e-01,
       4.8199512007800917e+02, -1.2165233041722487e+00,
       1.2056575655630336e+03, -9.9286462689752975e-01,
       6.1045975408444940e+02, -9.5092152018393550e-01,
       7.1843358735142863e+02, -7.4236481891290951e-01,
       8.8390331012235731e+02, -1.3015326695052589e+00,
       8.2726646532359518e+02, -1.1016367528889710e+00,
       9.6363221367432618e+02, -8.1326860134391432e-01,
       1.2744431851454185e+03, -7.9922045477238657e-01 ]
   output_scale: [ 1.0526315789473684e+00, 0. ]
   inv_output_scale: [ 9.4999999999999996e-01, 0. ]
   weights:
      - [ 9.9308361206700460e-02, 1.5483567638813029e-02,
          6.1274531591483501e-02, 3.0301649987017305e-02,
          -3.9064886072382989e-02, 1.8667968214021391e-02,
          1.5000607561056534e-02, -2.7913400325478996e-02,
          9.5351913258656280e-03, -1.1502420344587636e-02,
          9.3952665635245416e-02, 1.7410973517964133e-02,
          -2.2178848023129208e-02, -1.6446966651197742e-02,
          -2.1276269873159715e-02, -1.6103755373940088e-02,
          1.3300879413183156e-02, 1.6646423475294769e-02,
          1.3929768122310747e-02, -1.3985240609267266e-02,
          8.9984623259129259e-02, -1.3088756666272329e-02,
          7.4026488487307265e-02, 4.6044632618450466e-02,
          -3.3254479711248328e-02, 3.8623471456502065e-02,
          -6.8077177562442925e-03, -4.8720238148030448e-02,
          1.5090436008274921e-02, 1.2386102342781338e-02,
          7.4807296448347549e-02, -1.2984301535329463e-02,
          4.1098913845042516e-02, 3.0081977902242738e-02,
          -9.4277538174368427e-03, 2.5507640135495491e-02,
          -8.3416155832640206e-03, -3.1235060117320645e-02,
          8.3726039754216941e-03, 1.0484444263791503e-02,
          -3.8788725741511175e-02, 2.3088554259099104e-02,
          -2.8152478365566048e-02, -3.5559937549251651e-02,
          1.4696729817439693e-03, -3.0751136535114638e-02,
          1.5982198029588369e-02, 3.3322248226129919e-02,
          -9.8619885388292212e-03, -1.9448071594508488e-02,
          8.5839014663453186e-02, 9.0527775409875826e-03,
          -1.1624906629021204e-02, 1.7349738387334450e-03,
          -2.2494987881354830e-02, 1.5165014713970078e-03,
          1.5316657862015597e-02, 3.2458041498283872e-03,
          2.1865012000674717e-02, -8.3134709237324932e-03,
          -1.6460964697941155e-01, -1.0680337382671927e-03,
          -4.5688960341601269e-02, -2.5966749965656143e-02,
          2.6638309611945837e-02, -2.1545705834799121e-02,
          -8.8632455534808389e-04, 2.7247988585703372e-02,
          -1.5818363888285676e-02, 1.3108965033593466e-04,
          -5.3830091420481334e-02, 4.5318988802045906e-02,
          -1.0977283068880732e-01, -9.0027119376667589e-02,
          1.8717238713841539e-02, -8.1188686694405987e-02,
          3.6493352649432667e-02, 9.0748812403992560e-02,
          -1.9021109540357899e-02, -4.6715203280921096e-02,
          4.8478797660602466e-02, -1.2505751521493335e-02,
          2.1855027566172563e-02, 1.7672167816829520e-02,
          5.2653534614762318e-03, 1.2770442794632634e-02,
          -1.2909206836435143e-02, -1.8590991951393913e-02,
          9.5233290671516580e-03, 1.0311795649602445e-02,
          -3.3614295261495897e-02, 2.4050357084660829e-03,
          -1.2345422758793440e-02, -1.0869185974315603e-03,
          1.9275876006975788e-03, -4.9907914770636408e-03,
          3.7871324262003388e-03, 3.4571831273275291e-03,
          -9.9166130902753388e-03, -1.8761248966634940e-03,
          -1.9113047923524554e-01, -4.5933691082327421e-03,
          -3.7082772244516962e-02, -1.1844549140442780e-02,
          2.1486316982060799e-02, -1.3939819173361836e-02,
          -8.4386101460731163e-03, 1.4177269764160028e-02,
          -1.6999284080719827e-02, 6.2848157244498517e-03,
          -1.9667132465936504e-01, 2.4815754125214525e-02,
          -1.0967749765981719e-01, -7.4719648582338732e-02,
          4.5880880514908046e-02, -6.0203665184688643e-02,
          1.7207781362007964e-02, 7.0158621594069007e-02,
          -2.4974630223242714e-02, -2.3823333694029277e-02,
          -2.0627584975619792e-01, -1.2427192730084280e-02,
          -3.2551412373274038e-02, -1.5278562641805059e-02,
          4.7331511211218501e-02, -9.8398757391141844e-03,
          -1.9102524090116445e-02, 1.8884449564676480e-02,
          -2.8737265723393680e-02, 1.2259027724918384e-02,
          1.3111178769979978e-01, 1.1756146887721450e-02,
          -2.1304583196747967e-02, -9.6895741620540710e-03,
          -5.7822154852836198e-02, -5.0845690826542903e-03,
          2.0460679195192594e-02, 9.6134429072124352e-03,
          4.0441496915536224e-02, -1.3015295197352268e-02,
          4.8008608033555363e-03, -9.5667537151523947e-03,
          4.4744070649033033e-02, 1.6832187297040349e-02,
          -8.4496473400504492e-04, 1.6842794803107110e-02,
          -1.1182608185508701e-02, -1.8934841730097119e-02,
          -3.6924935027753299e-03, 8.9954061959780784e-03,
          -2.1580654900991536e-01, -3.5967905872880915e-02,
          3.1199348337472906e-02, 4.8054553188683402e-02,
          3.9566872165103815e-02, 4.0325765439329878e-02,
          -3.7975508018163941e-02, -4.9468729968929613e-02,
          -2.2620083054613695e-02, 3.6536113591736440e-02,
          3.3381040742058346e-02, 1.9267998047651561e-02,
          -3.6098602447384470e-02, -2.9131443995865643e-02,
          -2.4114900142892082e-02, -2.8958932514248404e-02,
          1.6964035828214766e-02, 2.9159681219413095e-02,
          5.7874400336650148e-03, -1.5595151757143343e-02,
          8.7762188323088547e-02, -4.3143706745450844e-03,
          7.0823643713232159e-02, 4.3594324605847640e-02,
          -2.0695376739715524e-03, 3.1841328729231094e-02,
          -2.9181721489687593e-03, -4.3719180440094429e-02,
          -2.5307749966905877e-03, 5.3872686063336202e-03,
          8.3533416186860818e-02, -3.7708187590652909e-04,
          4.7606253689768369e-02, 2.4486610140834964e-02,
          -4.6368384713938934e-03, 1.4882342738657080e-02,
          -1.7388814154637028e-03, -2.5275752726632555e-02,
          -8.0166637730157771e-04, -1.1322016200237072e-04,
          3.3587280199519599e-02, -1.8451563321447685e-02,
          1.8287121530794967e-03, 9.7660409658822545e-03,
          2.7200079502683106e-03, 1.5460478183231050e-02,
          -1.2484177038290641e-02, -1.0955852888156013e-02,
          6.5894911854634374e-03, 1.4637022948946763e-02,
          5.5313103333470594e-02, 1.9831105319562007e-02,
          -4.8146850701417179e-02, -2.3027148567230340e-02,
          -4.1128440579803985e-02, -1.8946537711136881e-02,
          1.8922998040319380e-02, 2.0639391626506784e-02,
          2.3665623884803800e-02, -1.6884269247696353e-02,
          -1.1778567206848757e-02, -1.7757047096825105e-02,
          8.4297725662833348e-02, 3.8667206039542774e-02,
          1.6086842013111030e-02, 3.0413041335703408e-02,
          -1.6591856193783089e-02, -4.3955320005945632e-02,
          4.2421741123690642e-03, 1.2419255030067022e-02,
          6.7579125920655972e-02, 4.4001740554022319e-02,
          -4.8000456395778657e-02, -4.4742164501462504e-02,
          -1.7519933285374843e-02, -4.6671764101729185e-02,
          4.3101396491543494e-02, 4.5859403729129493e-02,
          -1.2468474080883050e-02, -4.4992308775875942e-02,
          2.1848980082249045e-02, -1.0297889653613796e-02,
          2.5363717075769086e-02, -4.5620431186470401e-03,
          -1.5558930248068533e-02, 6.7677130536339036e-03,
          -7.0532466661058198e-03, 3.3061377349806690e-03,
          1.7194934713535948e-02, 8.2832491139258595e-03,
          -1.3332521440533374e-02, 1.4745978581051065e-02,
          -3.7920206790669209e-02, -3.7428115108331640e-02,
          -2.0412963757792613e-02, -2.6860638498494710e-02,
          1.2244241248682761e-02, 3.5510500664208952e-02,
          -1.5602848977384557e-03, -1.3975350922804632e-02,
          -1.6593731608461504e-01, -1.3249691246564037e-02,
          -2.3199943780899256e-02, -2.5444566291372331e-02,
          4.1525412240320983e-02, -1.3769016921699660e-02,
          -1.8342269680746443e-02, 2.1403784613804558e-02,
          -2.9828661489294642e-02, 1.3207161977282299e-02,
          2.8312302950102310e-02, 2.2676954189289156e-02,
          -2.7012606877662635e-02, -2.0918798208572766e-02,
          -2.7506208892437194e-02, -2.3788071242949634e-02,
          2.0839270276514252e-02, 2.3935465190550131e-02,
          4.6727336242246998e-03, -1.8663806422536285e-02,
          -4.4066834942086540e-02, 1.3327305487334382e-02,
          1.0589823866099159e-02, -9.1664025841222668e-03,
          -9.8424641647604817e-03, -1.0585468206526826e-02,
          1.2444488552407876e-02, 7.3332962782385403e-03,
          -2.8687507424015539e-02, -1.4543202862390286e-02,
          -1.1947776189412880e-02, -3.4535288714538470e-03,
          1.4693505234349846e-02, 1.8801802841340285e-02,
          2.3938306325655125e-04, 1.0398348909878100e-02,
          -1.6668433015362444e-03, -1.6511094364111956e-02,
          -6.9098824990416509e-03, 4.3502959630995590e-03,
          -1.6193974908517643e-02, 1.5893961974552687e-02,
          -4.9850534024163231e-03, -1.4567133695612421e-02,
          7.2162060182104724e-03, -1.8107382576198868e-02,
          9.8553953026236686e-03, 1.4082125030889875e-02,
          -4.9224496174140762e-03, -1.1161643378840671e-02,
          -1.4652945964143288e-01, -3.7045729489068542e-02,
          3.4411107506876246e-02, 3.3335881693169686e-02,
          3.7842992337864194e-02, 3.3367576920487453e-02,
          -3.7500205385649715e-02, -3.6935137568466864e-02,
          -9.5361027760846543e-03, 3.6649509617101797e-02,
          -3.7854484305092667e-02, 9.2464768491469628e-03,
          -4.9410359961419327e-02, -3.9366477950171737e-02,
          2.9025065213988305e-02, -3.3771005284298480e-02,
          5.4722483534311089e-03, 4.0888539186173807e-02,
          -7.5041788284857880e-03, -1.1417863883755722e-02,
          -4.7611872044542661e-02, 1.0256742207316922e-02,
          -1.3297358784395976e-02, -3.6112197721199009e-02,
          -1.0881006312163800e-03, -2.6582116961325165e-02,
          9.2125139036608791e-03, 3.1401954024085889e-02,
          -1.6134160099147116e-02, -8.6094574807399505e-03,
          -9.5055824959091706e-02, 1.5071582469460072e-03,
          -2.1012723950392831e-02, -9.2217451741384623e-03,
          1.5687532416455213e-03, -1.0199852632634851e-02,
          4.0711206006406823e-03, 1.0098380782739823e-02,
          -6.6446260523412952e-03, -6.2729384824896533e-04,
          6.8117557213366639e-02, 1.6967632754499154e-02,
          6.6408183789826358e-03, 1.5582649881902941e-03,
          -2.5728495018667235e-02, -8.3593478780764757e-03,
          1.8452964969406224e-02, -2.2117213686032571e-03,
          1.2346871576712486e-02, -1.4013057160009145e-02,
          6.6621895092598596e-02, 3.6156251188081745e-02,
          6.2486997109779642e-05, -9.9555513812160656e-03,
          -4.6407140081762603e-02, -1.9117747785103095e-02,
          3.9145249245176449e-02, 7.4398076914937066e-03,
          1.6649770172438034e-02, -3.4006751054935710e-02,
          -1.5666173327262853e-01, -1.9251204006384005e-02,
          1.2465977985670982e-02, 2.3714599393667761e-02,
          3.6935443545961393e-02, 1.6771283190445341e-02,
          -2.0301357495073502e-02, -2.4431415314310024e-02,
          -2.6096103146963940e-02, 1.8572743379774055e-02,
          -1.3793629700916224e-01, -4.3997085845883278e-02,
          3.5691550886273737e-02, 4.9054977646519227e-02,
          1.4203859615196462e-02, 4.5798695494753114e-02,
          -3.8994677806921611e-02, -4.8562249469293842e-02,
          -5.9689265483681532e-03, 4.0744605537461183e-02,
          -1.2703346805668858e-01, -2.0000200855413881e-02,
          -7.1315497207023225e-03, 2.2402986977052623e-02,
          2.1976263219289315e-02, 2.5583986463440532e-02,
          -1.5125558754922608e-02, -1.9708580648843139e-02,
          -4.9709794389441887e-03, 1.6854146563378643e-02,
          3.4821794685641720e-02, -1.0933029428286995e-02,
          8.8393825170993822e-03, 9.2668137735884924e-03,
          1.0039389278577264e-03, 1.4685907243200369e-02,
          -7.6303807629721629e-03, -1.3036228207401718e-02,
          6.9205120711070918e-03, 9.8563564782190288e-03,
          -5.8173890093397060e-02, 2.0829976908812472e-03,
          -3.5600822358119008e-03, -5.6045878648013862e-03,
          6.6238408801408055e-03, -1.1344377044501899e-03,
          2.5060103361661985e-03, 1.9045493434492080e-03,
          -1.6107645159864452e-02, -2.5758223941461413e-03,
          2.9077508580760660e-02, 4.0093100534350510e-03,
          5.1019538803566862e-02, 1.6427750210704282e-02,
          -1.0637160199473670e-02, 1.5386072201083630e-02,
          8.2817178411442975e-03, -1.8918896011940030e-02,
          1.7950294732277673e-04, -2.6281832591945619e-04,
          1.7103827485333754e-02, 1.9906830139958493e-02,
          -8.5420497303488788e-02, -5.8190508325130764e-02,
          1.4964089044485158e-02, -5.4653129777830121e-02,
          1.3519470939495994e-02, 6.3164197662487737e-02,
          -8.2033851697806831e-03, -1.9605726744041072e-02,
          -1.2633539149864742e-01, -5.0515795008366903e-03,
          -1.0071988941033332e-02, -1.2137905613967092e-03,
          4.7887499435886084e-02, 8.3836829887850054e-04,
          -9.4910171220928975e-03, 1.3063632840535056e-03,
          -2.6805698500541975e-02, 4.8716941267674535e-03,
          6.5007430929975310e-02, -2.3309837624318954e-02,
          5.2868468317522066e-02, 4.2263533538898140e-02,
          -1.3874082616766455e-02, 3.8165579591234733e-02,
          -1.6527417855920754e-02, -4.2186990538640542e-02,
          1.8722843945199862e-02, 2.2788951961008212e-02,
          2.7075983172264284e-02, 2.4801749398277142e-02,
          -5.8852852237352732e-02, -3.0479232090210667e-02,
          -2.0707142782288777e-02, -2.9883652251911513e-02,
          2.2538914650981474e-02, 3.0750139822877259e-02,
          -1.9442372950070642e-04, -2.3488996611908307e-02,
          1.2958596657512783e-01, -1.6768925044747102e-02,
          6.7866650499332840e-02, 4.5390035052025303e-02,
          -1.8973291077689369e-02, 4.0482593777332238e-02,
          -1.1606605622473483e-02, -4.6546015085155247e-02,
          1.8089538781213995e-02, 1.6697473255730472e-02,
          5.2595956266380570e-02, 5.1097550207206263e-04,
          1.2177180250518293e-02, 1.7799805912599470e-02,
          -3.7075653063149944e-02, 1.3803361263888458e-02,
          4.8186235641290058e-03, -1.5084463937081271e-02,
          1.3285523226864352e-02, -1.7494594610541656e-03,
          -6.4470123362067283e-02, 2.8790368291499679e-02,
          -8.0489619864518275e-02, -5.5556854080186478e-02,
          2.4785442983365484e-02, -5.0072292988842221e-02,
          2.1367700027044433e-02, 5.5787240254557030e-02,
          -2.6606544359332112e-02, -3.0352485170882602e-02,
          -7.4535813136538870e-02, 1.6683410236253131e-02,
          -5.6051667255360968e-02, -3.5645849649801477e-02,
          9.0612809930241383e-03, -3.4162504655346475e-02,
          1.4627704633197756e-02, 3.6571326748001190e-02,
          -4.1917142218429971e-03, -1.5337721797089110e-02,
          -3.0826166690112785e-03, -1.2616364640021544e-02,
          6.4605959371316747e-03, 8.4162358665833999e-03,
          3.0195142647881947e-02, 7.3247479682289939e-03,
          -1.4715901987647646e-02, -7.9006856777681603e-03,
          -4.0145905066078383e-03, 1.6081554479548805e-02,
          -9.4204901393500587e-02, -9.4731112585627400e-03,
          1.2057417938659779e-02, 2.6480064675787358e-02,
          1.6616476431828124e-03, 2.0276060077214809e-02,
          -9.2830028309095359e-03, -2.3641950411446695e-02,
          -1.1909676789412954e-02, 1.0096336491841648e-02,
          -5.7833234373010425e-04, -3.7722679366165759e-02,
          1.1857696715496864e-01, 7.3935252355247283e-02,
          5.6694578410235825e-03, 6.5071538989734584e-02,
          -3.5103220886851430e-02, -7.6699974926733833e-02,
          1.1966610673326450e-03, 3.9389387008693336e-02,
          4.5056790143007779e-02, 1.5547171680259063e-02,
          -1.7729699040825945e-02, -8.0986129229522787e-03,
          -2.8688939160584532e-02, -7.5089763522535793e-03,
          1.8836491347809407e-02, 7.3802473111638772e-03,
          9.6895536403565977e-03, -1.6538462499024700e-02,
          -1.5694911672428272e-01, 9.4484105967443267e-03,
          -4.0487540144226397e-02, -3.4285684176881187e-02,
          -1.0846071347143241e-03, -2.4570571888349515e-02,
          7.1134553752178120e-03, 3.0184315364210335e-02,
          -1.3364062164692275e-02, -7.6147362120783085e-03,
          1.0138322745299272e-02, -3.7758880048105923e-03,
          -2.2984830745850275e-02, -2.0704905466209095e-02,
          1.2397810234665820e-02, -1.2642731945906299e-02,
          -1.7015502214153184e-03, 1.8504375899280837e-02,
          9.3722749183341031e-03, 1.8972463022315022e-03,
          2.4774107246029780e-02, -1.2738439162706790e-02,
          4.7282764737506922e-02, 4.1073193617635388e-02,
          7.8100355681861499e-03, 3.6030459565123588e-02,
          -1.2790038853862340e-02, -4.1704948196195912e-02,
          5.3088883062580253e-03, 1.3004227439831553e-02,
          9.2070408693454592e-02, -1.2430133801207759e-02,
          6.8090363765938522e-02, 5.7583598002514794e-02,
          -3.6559218506496668e-02, 4.6643608612043773e-02,
          -2.6167328093580013e-03, -5.6648738864553891e-02,
          2.4926186050518242e-02, 1.1947790903214940e-02,
          1.2182913714885838e-02, 1.8994718395665092e-02,
          -2.8709622396917888e-02, -2.4065530029444962e-02,
          9.0012257487801766e-03, -2.5678450079945587e-02,
          1.6443052035821686e-02, 2.4642293578592159e-02,
          -8.4164249049264121e-03, -1.7618775003754781e-02,
          3.9443527028703761e-02, -3.8514660757820178e-03,
          2.4942327066352559e-02, 1.3985861422169501e-02,
          2.1218965218338191e-03, 1.1313984291114555e-02,
          -7.6522663499661034e-03, -1.3191052215651934e-02,
          -4.5666654118251991e-03, 2.5763013180009247e-03,
          8.9963808428999051e-02, -1.5247418947911989e-02,
          5.5218178792110204e-02, 4.3593409299584829e-02,
          -1.4916360215571455e-02, 3.5492382830259815e-02,
          -8.1862145360595742e-03, -4.3587771448300304e-02,
          8.2146929028410875e-03, 1.4336273372582540e-02,
          9.1889654950192981e-02, -1.8852890847777012e-02,
          6.8448127108627202e-02, 5.2343155886166892e-02,
          -1.7013958429478854e-02, 4.4334659615602873e-02,
          -1.7096397022680156e-02, -5.0348523817837283e-02,
          1.9976804960269601e-02, 1.9426404725411607e-02,
          -7.7140576265304225e-02, -3.2597457585599142e-02,
          6.5211392909292940e-02, 2.2322618833131341e-02,
          3.3495601369821888e-02, 2.8509742752354354e-02,
          -2.9560910980486955e-02, -2.0364467810186564e-02,
          -9.1296942551656445e-03, 3.2384472701508120e-02,
          -6.0267814885032432e-02, -6.2319497308847603e-03,
          7.1389779089186898e-03, 2.1038441599305707e-02,
          -1.8050454446773990e-02, 1.5206120833833651e-02,
          -2.9035917761359204e-03, -1.7768738141424704e-02,
          -2.8900764128238668e-03, 6.6740077952192533e-03,
          1.1689483231853577e-01, 9.2953475458620160e-03,
          -7.3145749342278929e-03, -3.3095702675684370e-03,
          -3.6460275610121988e-02, -1.4477231500616811e-03,
          1.2676659646223035e-02, -1.5863319236959290e-04,
          1.1833149756932872e-02, -9.4842764717284408e-03,
          -2.6767505000727311e-02, 9.4506507743894377e-03,
          -4.3855407478141775e-02, -4.2979869829373907e-02,
          1.5399556815528495e-02, -3.5031445498029203e-02,
          6.6577303760310827e-03, 4.1920547057231333e-02,
          -4.2432293001678587e-03, -1.0254258225156325e-02,
          -7.4049500506134416e-02, -1.1243476138670458e-02,
          1.5488524478999998e-02, 2.4584268717656795e-02,
          -3.9624770397812922e-04, 1.9155521078471939e-02,
          -1.0981548915278255e-02, -2.2005267361483713e-02,
          -1.0388520705730386e-02, 1.0606853422472999e-02,
          -1.2435324592331982e-01, -8.7354356067933774e-03,
          -1.4511581429575149e-02, -5.6786193759818552e-03,
          6.2992909399815153e-03, -2.2742426605269891e-04,
          -7.7610563047613261e-03, 2.8019173668345269e-03,
          -2.2759824659375757e-02, 8.8712460961337322e-03,
          5.8745883943064681e-02, 3.4859834456136261e-03,
          -3.2094748794507390e-02, -1.6788684340365904e-02,
          5.5715140515041704e-03, -1.0877362516426290e-02,
          4.2805545891207572e-03, 1.5705015264293978e-02,
          1.3501545592701954e-02, -4.9201758212525102e-03,
          -6.6771973422832864e-02, -3.0262475178877610e-03,
          -1.9936800822544658e-02, -9.1891249364511418e-04,
          2.3239412335505760e-02, 6.5293780588129705e-04,
          -3.3414130346748412e-03, 6.4040238709887438e-03,
          -8.8174720721442574e-03, 2.7362071224395559e-03,
          -1.1286989450214352e-01, 1.5734097918814666e-02,
          -8.4200893048343897e-02, -3.7366611068150597e-02,
          2.2095872204502844e-02, -3.5476864210395621e-02,
          1.5361180348146528e-02, 4.5741383331843743e-02,
          -2.0253291813075298e-02, -1.8255160942258822e-02,
          6.2866619564707585e-02, -3.3335946491701116e-02,
          8.0825751945466068e-02, 6.1569029018811332e-02,
          -5.1983428099747807e-03, 5.0861078531058077e-02,
          -2.8282679475092970e-02, -6.1140478671996644e-02,
          2.4135908046511709e-02, 2.9592914372377332e-02,
          6.4834021512969298e-02, 1.4939929351020540e-02,
          -2.3901573072611235e-02, -1.9607359921733715e-02,
          -1.8493074042355909e-02, -1.9339426809947824e-02,
          1.6310491724236598e-02, 2.1882690635752634e-02,
          4.5416092120430232e-03, -1.6523642472758872e-02,
          6.4373036930668315e-02, -9.7531037746951196e-03,
          1.3715038225112912e-02, 1.4381780336896553e-02,
          -1.2376964532289716e-02, 1.7168919433004172e-02,
          -9.1129785302631154e-03, -1.2694553860929112e-02,
          1.0739324997241374e-02, 1.2050337943452874e-02,
          2.2442392534294902e-02, -2.3322056849305557e-02,
          1.0082645249005508e-01, 6.0515484336261506e-02,
          3.7641436207829747e-03, 4.9123213660430244e-02,
          -2.1856762865607358e-02, -6.1559112763769540e-02,
          -8.0185791103034657e-03, 2.3555467262621442e-02,
          -1.3073372613619000e-01, -1.5723336966615740e-02,
          5.6547314462342901e-02, 1.9433505401446793e-02,
          1.4297196399657978e-02, 2.0308727174624550e-02,
          -1.5412211752461467e-02, -1.7982132491114033e-02,
          -1.1578144130114369e-02, 1.4245727991718029e-02,
          -5.7482295701698993e-02, 1.1833687539316443e-02,
          -2.6380206955570459e-02, -1.3727246311691556e-02,
          -3.5220298268332437e-03, -1.1371026000291516e-02,
          9.2744223892369804e-03, 1.4197466791320888e-02,
          -8.7019546351287183e-03, -6.8581242770303233e-03,
          -3.3544696278378271e-02, -8.7325932371747784e-03,
          1.0829702211857818e-02, 1.7813231830824630e-02,
          5.6189043604028205e-03, 1.5904329215074623e-02,
          -4.2051993454235419e-03, -1.7414023930837970e-02,
          -1.6350357268165128e-02, 5.6236109484095274e-03,
          -3.3488112993528829e-02, -3.8144729575836277e-02,
          5.2131252560650723e-02, 4.4702815237660662e-02,
          3.3258656298639278e-02, 4.1538113671629399e-02,
          -3.8611504233596432e-02, -4.5954411720743361e-02,
          -1.7269880260437813e-03, 3.6244741226267162e-02,
          -2.2789713606319190e-01, -5.0548368844823147e-03,
          -1.7367405759876314e-02, -3.8935079635780204e-02,
          4.6959235281661758e-02, -2.4157821069276549e-02,
          -1.4936371871456940e-02, 3.5408393896627262e-02,
          -3.6107298214317046e-02, 7.6425562364684264e-03,
          -1.7022220463895978e-02, 1.0375420997076631e-02,
          -2.3655498592499023e-03, -6.2045495923494839e-03,
          4.3464496781930820e-03, -5.0707735913587820e-03,
          8.1593374488564182e-03, 4.8159566109530318e-03,
          -7.9980063472315580e-03, -7.6073531828742625e-03,
          -7.0303410711101633e-02, -4.5835556745087970e-02,
          8.6060797564255359e-02, 6.2635216903114715e-02,
          2.0696330515217104e-02, 5.9337158005360463e-02,
          -4.0310821181558043e-02, -6.3789342327834148e-02,
          -3.8200809098509034e-03, 4.2330314955855250e-02,
          1.3224053570043845e-01, 1.5991187267857032e-02,
          -8.0796788047627025e-03, -8.4130253867313477e-03,
          -5.6350732730932322e-02, -1.0765858496317235e-02,
          2.1639178577902221e-02, 7.7588745108259534e-03,
          2.3615563621697068e-02, -2.0220445736436467e-02,
          -6.8373200389083445e-03, -4.0007161941019422e-02,
          7.8908623100035949e-02, 6.6257973540607112e-02,
          -1.3547072748746489e-02, 6.2161798903168995e-02,
          -2.9474428707804583e-02, -6.3674649209643233e-02,
          1.2594491746258468e-02, 3.6307480333492924e-02,
          3.9735840582957996e-02, -6.2228866548338917e-02,
          1.1918294423465300e-01, 9.1900528002977225e-02,
          1.8540963553612094e-02, 8.5289881785762175e-02,
          -5.8354567711508119e-02, -9.0615191679146750e-02,
          2.6315799419057349e-02, 5.8341383040983165e-02,
          5.4850915834454568e-02, 2.2594676617163908e-02,
          -2.0047442017639022e-03, -1.3055145053393977e-02,
          -9.6815164530924761e-03, -1.2766720477443040e-02,
          2.0747641731696104e-02, 7.2332006334179634e-03,
          -6.6369544565745738e-03, -2.3706393435046751e-02,
          7.1077318903970182e-03, -3.9920161523314245e-03,
          3.7804712578663267e-02, 7.8317853166949575e-03,
          1.5322502237162132e-02, 1.8358076961132385e-03,
          -1.2895153085567385e-03, -9.6623112368039912e-03,
          -1.8920310919627502e-02, -4.8446986044620361e-04,
          7.6780796474430049e-02, 1.1913315108318735e-02,
          -6.0240539169399886e-02, -3.8336180754214459e-02,
          -1.2134749910663017e-02, -3.3840793488309096e-02,
          1.0411329842561516e-02, 3.6798230539856466e-02,
          9.2107716567285305e-03, -1.0348107310920673e-02,
          9.5729332331584444e-03, -7.3586335036687619e-03,
          -1.4969001777424454e-02, 1.3639487322343919e-05,
          6.3011175038451186e-03, 3.2792876128026316e-03,
          -7.8144412640483319e-03, 2.9059004514710501e-03,
          5.2346991240200813e-03, 6.7890943946916794e-03,
          -1.4433076706147743e-01, -2.4227304006925781e-02,
          6.2556528616216023e-02, 1.3594815566383407e-02,
          2.9062867268068421e-02, 1.9817631538452344e-02,
          -2.7671347060474593e-02, -1.9829547035106594e-02,
          -9.7594654629876813e-03, 2.3152923820750272e-02,
          -5.4204430417655131e-02, -3.4415935488773301e-02,
          7.2587793270502854e-02, 4.4148344759848676e-02,
          1.8385984870009805e-02, 4.3946413371602600e-02,
          -3.3940562785883498e-02, -4.2860362184365827e-02,
          -3.1078701818727603e-03, 3.2346332596582920e-02,
          9.1368596713031158e-02, -5.0854634054100989e-03,
          6.4959719601980825e-02, 4.2362326657810784e-02,
          -3.0872215749267930e-02, 3.2182060560301685e-02,
          2.5923160104160934e-04, -4.2322954583366053e-02,
          2.3425393749505041e-02, 5.1051525828517711e-03,
          -1.7753245976617118e-02, 8.7424721749007703e-03,
          -2.6432674457785559e-02, -2.9631209284003823e-02,
          1.7720425699650474e-02, -2.9152467210250738e-02,
          3.0147163964773143e-03, 3.2595815249050065e-02,
          -1.3958417059796818e-02, -8.4759118629841815e-03,
          -3.2666459099305337e-02, -1.4467377630811797e-02,
          2.1185287070340581e-02, 3.6546594366819833e-02,
          -7.8952573165151693e-03, 2.8516212570274410e-02,
          -9.6150437782086921e-03, -3.4303574003331366e-02,
          3.6327362433741504e-03, 1.3947861297846214e-02,
          -2.1246552708514228e-02, 2.9490122560357077e-02,
          -5.9918877964896707e-02, -5.5425548660245051e-02,
          9.4043098695115821e-03, -5.1003720452983958e-02,
          2.8982054361366447e-02, 5.5539352229334253e-02,
          -7.0107659743629232e-03, -3.1716868296418017e-02,
          -3.1828757628841201e-02, 7.0546429334532139e-03,
          -2.8103398796679203e-02, -9.2459553688543205e-03,
          -1.8013534134773378e-02, -1.3757777779890793e-02,
          8.8037291425578142e-03, 1.0307790486710018e-02,
          -5.4212958104282250e-03, -6.6398441352833607e-03,
          -2.8239699240554406e-02, 8.0495512778673279e-04,
          2.9397009084611063e-02, 1.5360423120429170e-02,
          -1.8259863905712166e-02, 1.2396153983831724e-02,
          1.0752139357743848e-03, -1.4222976563469056e-02,
          -2.0608467750008654e-03, -2.6732688616027986e-03,
          -1.8412518775687217e-01, -1.2081590856915941e-02,
          -4.8364363149189009e-02, -6.3415968917619964e-03,
          3.6519777927345669e-02, -2.3103849812623701e-04,
          -1.2270152948655359e-02, 7.1061250298120986e-03,
          -1.2078745617865738e-02, 1.4856179169220272e-02,
          -3.5411792845778618e-02, -2.6283599459549469e-02,
          1.4981449541389327e-02, 2.2434816161131115e-02,
          2.6288263794759535e-02, 2.3561822671497878e-02,
          -2.5356884024244970e-02, -2.3157065174716111e-02,
          -2.9460118111509898e-03, 2.1720873075270992e-02,
          -1.1127209198293572e-02, 1.3174267312274481e-02,
          -1.4427114304888512e-02, -1.7611478764748981e-03,
          -1.6913794961515710e-02, -4.3461000698387384e-03,
          1.3933316472681796e-02, 3.0584855674811412e-03,
          -9.7314087189031180e-03, -1.3101826401349574e-02,
          7.8617761815612849e-02, 3.8058254743959311e-02,
          -7.2878473179901301e-02, -5.4886578173700795e-02,
          -4.1737443389634052e-03, -5.1389629608336276e-02,
          3.3828297592572380e-02, 5.6005869766448627e-02,
          4.6252033939578486e-03, -3.5220507996195867e-02,
          1.5484784090485445e-02, -2.4800375205024445e-02,
          2.4775693874756335e-02, 2.4605033803583868e-02,
          1.6985380370874149e-02, 2.8802727298027228e-02,
          -2.0682237364081590e-02, -2.2032849892971777e-02,
          1.0117779245056835e-03, 1.8849503592950297e-02,
          6.8931946542903910e-02, 2.0615822798369921e-02,
          -2.7022077439720188e-03, -1.0085402540216981e-02,
          -1.5327708498180539e-02, -1.1854896498307271e-02,
          1.8559884231632726e-02, 1.3459876723161313e-02,
          -4.4019128723443513e-03, -1.5966318575316701e-02,
          1.1127453102864820e-01, -7.1958222579679033e-03,
          2.8578623699320512e-02, 2.0179044162409905e-02,
          -3.0776523662266558e-02, 1.2610311729426650e-02,
          -4.1437917559619371e-03, -1.6884882438082428e-02,
          -2.9212887646533873e-04, 4.6878803405833187e-03,
          5.9582492939241623e-02, -1.6023590157840190e-02,
          4.3489664155119213e-02, 2.9645856771127334e-02,
          2.1363757803739912e-04, 2.3232365754064500e-02,
          -1.2121546332718232e-02, -2.7140196218881113e-02,
          8.4079309694855206e-03, 1.2309244728866922e-02,
          9.6721624589223468e-02, -1.5787140309168075e-02,
          6.7360253692363162e-02, 5.0820294211113587e-02,
          -2.1273212495836909e-02, 4.5865975022460773e-02,
          -6.1726879803575318e-03, -5.0758362992265743e-02,
          2.3901682640718257e-02, 1.3358602785984369e-02,
          5.2866246567364619e-02, 1.9771448392748636e-02,
          -1.5168547432668843e-02, -1.4746297994955086e-02,
          -3.3274708663014796e-02, -1.7762909186130563e-02,
          2.1560290742350129e-02, 1.3765574040052773e-02,
          4.3030777205343446e-03, -2.3031907544216454e-02,
          -9.7763655097972788e-02, -7.5251275706769032e-04,
          -6.3723727898337516e-03, 9.7664046424982554e-03,
          1.4234414296697483e-02, 4.7187395299879706e-03,
          -3.5307462569704315e-03, -1.3176533670001243e-02,
          -6.6243092028853753e-03, 5.1448319454681325e-03,
          8.2811212727475672e-02, -7.2349762512080985e-04,
          4.6469927255480874e-02, 2.5704235837634516e-02,
          -1.8618605271582510e-02, 1.8205062347251416e-02,
          2.7811945141299325e-03, -2.6492791289009939e-02,
          3.6275157378513464e-03, -3.2332384635068842e-03,
          8.0754338093586578e-02, 2.0878402715602300e-02,
          -5.6856469187351634e-02, -3.2846007729522640e-02,
          -2.2550744487612510e-02, -3.0531107338137773e-02,
          1.8705930598750021e-02, 3.1543250721261185e-02,
          2.9541221355062722e-02, -1.9981903150837546e-02,
          2.6203498493947142e-02, 4.3523842031689255e-02,
          -6.0062915074782015e-02, -5.1428062387871586e-02,
          -3.0651231166110307e-02, -5.2156205257692476e-02,
          3.8869357400891577e-02, 5.1653643416767946e-02,
          -8.4303131061237505e-03, -4.1121018285930490e-02,
          -1.6017558551114003e-01, -1.0927386482000990e-02,
          -1.3338312197253026e-02, -2.3798879994140123e-03,
          2.5422457319687623e-02, 2.2147483160399597e-03,
          -1.4699615359237413e-02, 2.3634493880809364e-03,
          -1.4633142222981472e-02, 1.0432300016366029e-02,
          7.3429416756686352e-03, 2.4326760632690896e-02,
          -5.6912059101547556e-02, -4.3545212894508474e-02,
          -5.6282110249697643e-03, -3.7777111190028821e-02,
          1.9683387273650134e-02, 4.2149910804253551e-02,
          -5.0255278969551656e-03, -2.2604128215157140e-02,
          -1.1882357621738126e-02, 2.1412391016624507e-02,
          -6.3702957783821706e-02, -4.3015489495692345e-02,
          7.2039387748568315e-03, -3.6279554335128861e-02,
          2.3229360340278952e-02, 4.3373218764811532e-02,
          -5.3317030280230215e-03, -2.1645772027538885e-02,
          6.2851444023663203e-02, -9.1548598562097641e-03,
          2.3310954053545347e-02, 1.5021964657447791e-02,
          6.9912844413696617e-03, 1.6113275972514361e-02,
          -8.6224412855702964e-03, -1.6960253458537421e-02,
          -7.7855846171159717e-05, 1.1534715525242699e-02,
          -3.0441707646827500e-02, -2.2572042282079270e-02,
          3.9761538452025166e-02, 1.9138324204869616e-02,
          2.3429605538848292e-02, 2.6961353061670763e-02,
          -2.4891691246049324e-02, -1.8438724224496661e-02,
          -1.5761572889550581e-03, 2.1079908879986575e-02,
          1.2122823101232431e-01, 1.6984535274516464e-02,
          -4.5674071611292673e-02, -2.2328469372438313e-02,
          -3.8320537493248208e-02, -2.2396745429026813e-02,
          1.9057436275464051e-02, 2.7671567204297032e-02,
          2.0408799494227022e-02, -1.5913738684139662e-02,
          -1.0593553949409427e-01, -1.4373321996394867e-02,
          -2.0148153855663074e-02, -1.0349858236908812e-02,
          4.5181560384199078e-02, -1.6795710199589843e-03,
          -2.0905311397645000e-02, 1.2500664884758603e-02,
          -1.3237518551462029e-02, 1.4782579854451651e-02,
          1.2165369143482813e-01, 1.2998059644673354e-02,
          -1.4042055216558443e-02, -1.1653824406370793e-02,
          -4.0617843314802414e-02, -7.0731675113782965e-03,
          1.6185468433918524e-02, 7.5997847787428168e-03,
          2.0913494937483741e-02, -1.3090521054169786e-02,
          5.2724294626056512e-03, 2.1702026424911841e-02,
          -2.5413649110418601e-02, -3.2924228751787923e-02,
          -2.0142917776368740e-02, -2.8175398054994482e-02,
          2.2731536399532667e-02, 3.0540265041814469e-02,
          8.9833507844871031e-03, -2.2821932627990812e-02,
          5.7713564273035096e-02, 1.4378113080833557e-02,
          -6.3937794473065315e-02, -3.3629873891282747e-02,
          -1.2462453732031095e-03, -2.9398776000187764e-02,
          1.1440189103600680e-02, 3.6512304427918675e-02,
          1.1846924337634537e-02, -1.4973493703128945e-02,
          9.0697860073579675e-02, 1.6030076344779542e-02,
          2.2965835399786111e-02, 7.8355487050746613e-03,
          -4.0100524968863092e-02, 2.1999348311985871e-03,
          1.5180572991488632e-02, -7.7517770451582908e-03,
          1.2794491019589778e-02, -1.2706859661647876e-02,
          6.3974986959551242e-02, 4.1313865317897665e-02,
          -1.0170206390542646e-02, -3.1163072310400747e-02,
          -1.9346719665655657e-02, -3.5237317947960485e-02,
          3.3605088350481982e-02, 2.8995404968345156e-02,
          -1.2154588749278114e-02, -3.5577275489880357e-02,
          9.4085324233332088e-02, -1.4413846019162410e-02,
          7.7804620893093743e-02, 4.1389673826311132e-02,
          -1.6184464894097077e-02, 4.0036670586654964e-02,
          -1.2909267911335016e-02, -4.3849546362180220e-02,
          1.3015471289005529e-02, 1.6385545497234619e-02,
          1.4941956253069736e-02, -2.3134559221116174e-03,
          2.6550313479470223e-02, 1.8707786981447625e-02,
          4.6073447169502193e-04, 1.8016668258341903e-02,
          -2.6458636291957953e-03, -1.7372445629748930e-02,
          4.3482584858462001e-04, 4.8648253936596896e-03,
          -7.2273790358911266e-02, 1.5271891210386624e-02,
          -1.8930873653233610e-02, -1.3312422005903206e-02,
          9.6181891750423600e-03, -1.7021678616378298e-02,
          1.1606593173439143e-02, 9.9329452441832503e-03,
          -1.3532565324390511e-02, -1.3781445217604762e-02,
          1.1603964539709043e-01, 4.3355064537522782e-03,
          -2.0951258591654559e-02, -2.9974731924765955e-03,
          -2.8420068400022924e-02, -4.4134641834568484e-03,
          1.1402727916336479e-02, 8.3423644875829529e-03,
          1.9186553790557011e-02, -4.3253755233526184e-03,
          5.5783559395892204e-02, 4.4108412651550424e-02,
          -4.4427129876663363e-02, -5.5775508556836960e-02,
          -2.2070136839741513e-02, -5.8214495797754257e-02,
          3.9620007882557234e-02, 5.4498287606301599e-02,
          8.1171894614209192e-03, -4.4350799656467224e-02,
          8.0621397557144314e-02, 6.8656085223954916e-02,
          -7.2901654558850698e-02, -6.4435479424861331e-02,
          -5.6948236339261070e-02, -6.6123826004052741e-02,
          6.6251922643732072e-02, 6.5574875257475074e-02,
          4.8519336102184774e-03, -6.2693202802501374e-02,
          -1.6747506732376841e-01, 2.6001314374538034e-02,
          -1.0335843682281640e-01, -6.1755551676906363e-02,
          2.9395645121856859e-02, -4.9965158244046140e-02,
          2.1443081813442559e-02, 6.4185033251490345e-02,
          -2.7954400221906386e-02, -2.5180406053864953e-02,
          -5.4599334017500556e-02, -5.1578093920035773e-03,
          2.1843743502771601e-02, 1.9926344796769840e-02,
          -5.7074767956608310e-03, 1.4791516650469724e-02,
          -4.4489305566239104e-03, -1.8365226121483721e-02,
          7.7250101213936285e-04, 5.7252634222304307e-03,
          6.5489188032261388e-05, -1.4369372310985777e-02,
          -1.7392995090464045e-04, 3.7179390837574918e-03,
          1.3584439160649962e-02, 9.0246631897626644e-03,
          -1.1314324072563588e-02, -2.3153750849708868e-03,
          -2.1343357985489687e-02, 1.2342987099853178e-02,
          3.8548295782690568e-02, 4.7488808221792918e-02,
          -8.4167194252649069e-02, -7.2021848972084926e-02,
          -2.4060972052196337e-02, -6.2697067905142484e-02,
          4.1701721394259192e-02, 6.9673128271062340e-02,
          -1.5610490094596845e-03, -4.3154815267973178e-02,
          1.1820776274939232e-01, -5.6682335820128537e-03,
          -2.1455349068054980e-02, 1.0589751021619093e-02,
          -2.9376576534285152e-02, 1.2083122174600659e-02,
          -3.5041433387115288e-03, -1.0474332887863067e-02,
          3.2232530933810961e-02, 9.7882039050270694e-03,
          -1.2321924837605575e-02, 1.3515994198647390e-02,
          1.3252806617247506e-03, -3.7208494921369350e-03,
          -2.4427346415412568e-02, -5.2766134202888596e-03,
          1.4574326330270596e-02, 3.5621656726792465e-03,
          5.0925041473241861e-03, -1.7742755517437033e-02,
          3.5962387265449841e-02, -5.5303018266010520e-03,
          2.3312616012109559e-03, 1.0138428492815231e-02,
          -1.0114820633167211e-02, 1.0368437564464327e-02,
          -4.3877286112422040e-03, -1.1826533600116032e-02,
          1.7214371698291282e-02, 5.9627703433829992e-03,
          6.4175305934776633e-02, -1.0046799568033725e-03,
          4.3868240467580741e-02, 2.1761313091678242e-02,
          -3.1028898205336043e-03, 1.7329023146103226e-02,
          -2.1475118145658978e-03, -2.3013356390228942e-02,
          -4.3435322911928465e-03, -2.6166040148168740e-04,
          1.0425032131212653e-01, -1.3586979707282249e-02,
          3.4529028742581042e-02, 3.3097919747824681e-02,
          -3.0699112174356547e-02, 2.5965338965108185e-02,
          -3.5834792049085837e-03, -3.4975561613453054e-02,
          1.6790473636499510e-02, 9.9762621804943413e-03,
          -8.1149407019044009e-02, -2.6053795742631683e-02,
          3.8101524160402772e-02, 4.6785483362746877e-02,
          1.6601268464248354e-02, 3.8761363234557887e-02,
          -2.2289770763800738e-02, -4.2877110243291508e-02,
          -1.7472708578609886e-02, 2.5195413879243594e-02,
          1.2644981797815152e-01, -2.9827915886262231e-04,
          9.0090630890091963e-02, 5.1705425260943814e-02,
          -4.4209532756924783e-02, 3.8387916360565516e-02,
          4.9289258096530935e-03, -5.5719607139435239e-02,
          2.4245145352636596e-02, 2.1568008735649652e-04,
          6.2575833746778470e-02, -1.7559952725222119e-02,
          2.5397024577919643e-02, 1.5652208438931697e-02,
          -1.1623786554559225e-02, 2.0058079735849988e-02,
          -1.3458436690746322e-02, -1.4018831708415747e-02,
          2.2463606371504484e-02, 1.5694903858267984e-02,
          -1.4990047568950776e-01, -5.7072833259800186e-03,
          -1.7104389146039206e-02, -1.5562149008773035e-02,
          2.8560256100587548e-02, -1.0837351181138906e-02,
          -3.6719883568602798e-03, 1.5367443144191339e-02,
          -1.5481715744547922e-02, 2.0989339300197802e-03,
          -2.3928457803275464e-02, -2.2247383012804704e-02,
          3.3821174560018395e-02, 1.3719863269530737e-02,
          8.2125621886482737e-03, 1.7714899299176218e-02,
          -2.1311422967811747e-02, -1.2672782860219087e-02,
          1.4633346275006580e-02, 2.2488674421974005e-02,
          6.8190431830233766e-02, -8.0620002361041739e-05,
          -1.8368306819546595e-02, -1.1729828093811395e-03,
          -6.8658623432797314e-03, -5.2089584940762969e-04,
          8.1375457672778822e-04, 3.4278808891582075e-03,
          1.6180374789940031e-02, -1.3924153090687423e-03,
          9.9867644479877726e-02, 1.9446360210935640e-02,
          -3.8628164615434904e-02, -2.6518273368040555e-02,
          -3.1846752703243997e-02, -2.3850249836486336e-02,
          2.2347742677711037e-02, 2.4756795192244659e-02,
          2.0063137400213826e-02, -1.7598377214417434e-02,
          5.3410224292482364e-02, 8.8768659375859441e-03,
          -1.1408268867553658e-04, -2.7976111332419884e-03,
          4.5649859785187969e-03, -5.3473824867816084e-03,
          4.8690087384687750e-03, 2.2247883152546814e-03,
          -5.2698115845589417e-04, -5.4015960954462991e-03,
          1.1562833057149988e-03, 1.5762823517295875e-02,
          -5.0770501583983073e-02, -3.3349741233179755e-02,
          1.2527343750903809e-02, -2.9413242285965351e-02,
          7.5152075675601875e-03, 3.2427896110106491e-02,
          -9.9074075254529936e-03, -1.0091653527297762e-02,
          6.7855858260762311e-03, 2.7659390061553525e-02,
          -4.0851684544354755e-02, -4.6548222463265877e-02,
          -7.7397605471553905e-03, -3.9976036185138439e-02,
          2.3595279580713068e-02, 4.8027484728760179e-02,
          7.0459784934248501e-03, -2.5339774651769315e-02,
          5.8525502205006699e-02, 5.8711367749992313e-03,
          1.4144150426320144e-02, -4.9258839275165372e-05,
          -1.5415823412680383e-02, 1.5549098054619395e-03,
          4.7895007799035666e-03, -8.9568135845249084e-04,
          1.1971657793885150e-02, -7.7425000348595608e-03,
          -8.1545766145622034e-02, 9.7112299364581628e-03,
          -3.6087349628881771e-02, -2.6590062884720937e-02,
          2.7805644292886851e-02, -2.4079196270904830e-02,
          2.4639298302043607e-03, 2.7895557353040723e-02,
          -2.3299638107805443e-02, -4.8450292802708116e-03,
          8.9372420164503502e-02, -2.7228831854156182e-02,
          1.3527978419735498e-01, 7.8078224231810281e-02,
          -1.5732141611087571e-02, 6.3056867775184336e-02,
          -2.2253371931155588e-02, -7.7553556280776439e-02,
          -6.7186484118361830e-04, 2.2619990874896669e-02,
          -3.3543070539147721e-02, 2.6249916904026948e-03,
          -1.1193821951044543e-02, -7.2941681245900650e-03,
          2.5652456422205240e-02, -6.5803569292611471e-03,
          -2.2394870003081932e-03, 8.5667921456272066e-03,
          2.1283704077209439e-03, 3.6346499604430555e-04,
          -1.2685327728189341e-01, -1.1822250545904583e-02,
          -1.0245507946409825e-02, 9.5259786659106661e-03,
          1.5206148462735750e-02, 8.6566225002617132e-03,
          -1.0825838954470653e-02, -7.0784535865505982e-03,
          -1.7959809435829765e-02, 1.2067670014172137e-02,
          1.9657222681061164e-02, 1.6858467689605566e-03,
          5.0357325608864897e-02, 2.0900303205262771e-02,
          -6.7459921947267808e-03, 1.4498765941759261e-02,
          2.5410016902184347e-03, -2.2658418004699653e-02,
          6.6831619995495290e-03, -1.1169769025221000e-03,
          3.2414809996892764e-03, 1.9997717831985364e-02,
          -6.5382686494309700e-02, -4.8320301743496850e-02,
          -4.9276873314052876e-05, -4.0650059687083420e-02,
          1.6951564398540071e-02, 4.7827134058674232e-02,
          -7.0192137136410541e-03, -2.2264422241914474e-02,
          9.5480711684139449e-02, 3.4008862340674031e-02,
          -3.3625208945391484e-02, -3.8786021002112349e-02,
          -3.1594023411058748e-02, -3.7602970741443288e-02,
          3.4674029767162599e-02, 3.6693128602671363e-02,
          3.4308194157370692e-03, -3.5595280823542484e-02,
          5.3918811098196934e-02, -2.1631775402280649e-02,
          8.0056941905302326e-02, 5.3803827805409682e-02,
          -1.7706313518110373e-03, 4.5445332818226845e-02,
          -2.0874564903766799e-02, -5.2958848629962849e-02,
          1.9339249993519433e-02, 2.4562840624928011e-02,
          2.8183391016623371e-02, 4.1541393822013802e-03,
          -6.4008710950874265e-02, -2.2627767598692040e-02,
          -9.3667509309004124e-03, -1.3254328608275865e-02,
          5.6579879360945454e-03, 2.3628711006494486e-02,
          3.3874541387552189e-03, -3.7552329695626323e-03,
          2.3485007422509401e-02, 3.5857157457090963e-02,
          -1.0777720697125028e-01, -7.3095724788539984e-02,
          -1.3510181645660763e-03, -6.1147489463767447e-02,
          3.3161892743088305e-02, 6.9642616229405249e-02,
          1.5403997173188448e-03, -3.4104741518999504e-02,
          2.2778877227284805e-02, -3.2112152700689025e-03,
          -8.0449183749269038e-04, 1.6524039027439728e-02,
          -6.7937540391720336e-03, 1.2773493823909618e-02,
          -3.2135454433192003e-03, -1.4864119634555452e-02,
          7.7812773005616503e-04, 3.7475220432244601e-03,
          -2.8652293282799018e-01, -2.6801701789247977e-02,
          3.5049545374055434e-02, 1.9734285863299079e-02,
          4.3993740140975915e-02, 2.5116031515850415e-02,
          -2.9263772527574394e-02, -2.1133650289670732e-02,
          -2.8759361375794643e-02, 2.9987311118479906e-02,
          9.3901765357202502e-02, -6.7672181322751225e-03,
          3.5335517120149949e-02, 2.3207124370233884e-02,
          -2.6181898994821255e-02, 2.3321425647444226e-02,
          -2.1736584144664921e-03, -2.3366918353554204e-02,
          1.9785202942923831e-02, 8.6551352192033443e-03,
          -1.5328206547464090e-02, -2.8260555297761135e-02,
          1.0342061518665854e-01, 5.3388626347055143e-02,
          1.0554961069074281e-02, 5.1311777446993043e-02,
          -2.4499214197569497e-02, -5.6849449686950222e-02,
          2.2396854721263731e-03, 2.4581760319404868e-02,
          4.2304938113849999e-02, -3.4147422075991069e-03,
          6.1205467185638206e-03, 6.7414320459278660e-03,
          2.1546568276189625e-05, 3.1232055856827480e-03,
          -3.2496597144848005e-03, -4.6317410759905246e-03,
          -6.4699346606498175e-04, -9.6332968961700764e-05,
          5.2176055803988278e-02, -8.2108798373455427e-03,
          6.0558155588193302e-03, 4.3050805175702594e-03,
          4.4484346686427118e-03, 2.6039391842044494e-03,
          -5.4319212943746663e-03, 1.1005829350465223e-03,
          -4.2463682062239948e-03, 5.1988024207250847e-03,
          1.4599295675986319e-03, -2.4569292993770878e-03,
          -4.1305946544822912e-02, -1.8238797783133514e-02,
          1.7797537389794525e-02, -1.2267523277273587e-02,
          -4.7811888937942457e-03, 1.9082662176581517e-02,
          -1.4277559310942914e-02, 4.0719619343129454e-03,
          2.5140077303812302e-02, -3.7503744591210059e-02,
          6.1715654169760555e-02, 5.8329963273370783e-02,
          2.1332704133168495e-04, 5.3982973536195897e-02,
          -3.1324072525295524e-02, -5.6852481810234889e-02,
          7.2289849330512456e-03, 3.9134792814764237e-02,
          -7.7506400890301599e-02, 7.9596636619276503e-03,
          -3.9347250927896600e-02, -1.7900324726560720e-02,
          -3.7471877080917141e-03, -1.3585668511587838e-02,
          8.9862442093640860e-03, 1.7998038565135373e-02,
          -6.3643631734155914e-03, -7.3105720267977207e-03,
          -2.6047679335128356e-02, -2.7230263501916572e-02,
          3.3099650968972681e-02, 1.7186666605075885e-02,
          2.3971779531929943e-02, 2.4479491297321829e-02,
          -2.6380426848007330e-02, -1.8936200596222055e-02,
          9.8673275998833999e-04, 2.7142580185026400e-02,
          3.2372752853993353e-02, 5.4568356423598929e-03,
          2.1457866344347577e-02, 2.1264668311144924e-03,
          3.7153852972369623e-03, 2.0585536854884597e-03,
          6.7992087500552247e-03, -5.1633707681102382e-03,
          9.2276178126142454e-03, -6.2691052673027377e-03,
          8.3418022696267927e-02, 3.8590309800342698e-02,
          -7.4774826442291970e-02, -5.4203731282214951e-02,
          -3.5860937029565942e-02, -4.8103013374347518e-02,
          3.7036665010757870e-02, 5.7698306163279221e-02,
          4.5836475413231622e-03, -3.7277166529243400e-02,
          4.9813882984930849e-02, 7.8434744160170225e-03,
          -3.1808600654821405e-02, -2.3881319149068832e-02,
          6.3836606978303831e-03, -1.9403882622912129e-02,
          7.3335397573334113e-03, 2.8584147795150127e-02,
          -6.3181947830432952e-03, -7.4906040889295656e-03,
          7.3807842801388870e-02, 1.7740058530047398e-02,
          -6.1273522609904263e-02, -3.6216429981891764e-02,
          -1.5036097063072296e-02, -3.1549759198371274e-02,
          1.6031488139072236e-02, 3.2953067045259646e-02,
          1.1142374253249916e-02, -1.7482999483397484e-02,
          3.8379511197420599e-02, 5.9444477258712880e-02,
          -8.6425014043354786e-02, -6.8933790060594913e-02,
          3.2153336444300186e-04, -6.9450008739877209e-02,
          4.9929191757621671e-02, 6.9168366486087512e-02,
          -1.6887403970770577e-02, -5.4182740987986568e-02,
          -1.3183832050128994e-01, -7.1353060720299927e-02,
          8.3756533492637009e-02, 9.6988119427891456e-02,
          5.3909305861692861e-02, 8.6452236700274479e-02,
          -6.3515225313009765e-02, -9.2040615395292083e-02,
          -7.5794256906323255e-03, 6.7506428346966268e-02,
          -3.3173252830673780e-02, -1.0314954750161774e-02,
          3.0882170899663684e-02, 2.6713428131714081e-02,
          -9.2707055745142649e-03, 2.5858562842520659e-02,
          -1.0590681506497180e-02, -3.1623883182399816e-02,
          4.7013087459062651e-03, 9.7002586111005085e-03,
          -3.0466645133642025e-02, -1.7624822171180845e-03,
          -1.1075717718250807e-03, -4.3985846405684747e-03,
          2.3358413452769372e-02, -4.4361617911262861e-03,
          -2.5618705918200877e-03, 3.9568685218723965e-03,
          -1.8411108651265815e-02, 3.6117201046078399e-03,
          -2.2858069779245885e-01, 8.6346554301914517e-03,
          -5.3227711226284363e-02, -3.6265694398561921e-02,
          3.4938186005708020e-02, -3.2478794368409412e-02,
          5.7566349524714865e-04, 3.9439008677777457e-02,
          -1.1485738285380307e-02, -4.7346188073919939e-03,
          -1.0244805001724518e-01, -1.2828890623769806e-02,
          8.1953900436334576e-02, 4.0931582006605245e-02,
          1.1206982380911902e-02, 3.3379486716702197e-02,
          -1.2387419356040328e-02, -4.5127930704506700e-02,
          -8.4952440245633296e-03, 1.3898133305128603e-02,
          -9.0443568203847996e-02, 2.2723996034590639e-02,
          -5.8824683785765969e-02, -3.7704027446877210e-02,
          1.4080689289855473e-02, -3.5658325088404809e-02,
          1.6541360425353712e-02, 3.9150065421369229e-02,
          -1.7682460538208343e-02, -1.7120903120306681e-02,
          -2.6706732374534765e-02, 2.3035762901505524e-02,
          -5.4240708124044322e-02, -4.0401937963199734e-02,
          -1.0006975248776716e-02, -3.8554972613866340e-02,
          2.3020699214781663e-02, 3.9825125742205460e-02,
          -3.8559240604832804e-03, -2.1839910773553385e-02,
          1.5116761727026293e-01, 9.6902165325938477e-04,
          7.4078009791122001e-02, 3.8988204461591312e-02,
          -3.7865052134821990e-02, 2.9013435650729828e-02,
          2.4187841360680030e-03, -4.2462172416375475e-02,
          1.7397457333922981e-02, 2.2719732993813648e-03,
          8.9505796303766733e-02, -2.4495365316571958e-02,
          4.1248978310968985e-02, 3.5353126543142072e-02,
          -4.1694510816378070e-03, 3.0361594933111684e-02,
          -1.9548619664190019e-02, -3.5379919610557899e-02,
          2.0713142593077535e-02, 2.3408361764610513e-02,
          -4.2869436593520507e-02, 1.1127207204784247e-02,
          -1.9330497637103317e-02, -1.5493287847212224e-02,
          -9.9549571763274530e-03, -1.4500709579226832e-02,
          1.1914949654833260e-02, 1.3610077977143415e-02,
          -8.5397766552268058e-03, -1.0952696891628508e-02,
          -5.4631712381942345e-02, -2.8401472455017493e-02,
          2.5613054522755030e-02, 4.7608263505246121e-02,
          1.1450531228823760e-02, 3.9985600066241085e-02,
