%YAML:1.0
mlp: !!opencv-ml-ann-mlp
   layer_sizes: !!opencv-matrix
      rows: 1
      cols: 3
      dt: i
      data: [ 800, 10, 1 ]
   activation_function: SIGMOID_SYM
   f_param1: 6.6666666666666663e-01
   f_param2: 1.7159000000000000e+00
   min_val: -9.4999999999999996e-01
   max_val: 9.4999999999999996e-01
   min_val1: -9.7999999999999998e-01
   max_val1: 9.7999999999999998e-01
   training_params:
      train_method: BACKPROP
      dw_scale: 1.0000000149011612e-01
      moment_scale: 1.0000000149011612e-01
      term_criteria: { epsilon:1.0000000133514320e-10, iterations:10000 }
   input_scale: [ 1.3807212582063153e+03, -1.1868329923332686e+00,
       7.4802898678720533e+02, -1.1949978398031837e+00,
       5.4575816274126237e+02, -1.2302411492691705e+00,
       8.7492654080300531e+02, -1.0625159813686027e+00,
       1.0573808836419910e+03, -1.5226164887954219e+00,
       2.3049006179839325e+03, -6.6025752490384571e-01,
       8.0972602179379862e+02, -1.0756161964614668e+00,
       9.8247477474101572e+02, -8.9811723618699835e-01,
       8.7194146188726620e+02, -9.4389660152491106e-01,
       7.3201359202826359e+02, -1.5792337263025751e+00,
       8.6345042774261265e+02, -1.1904486591394359e+00,
       1.2432211383569334e+03, -1.4489838598976559e+00,
       7.8587282811921443e+02, -8.3323522270677752e-01,
       8.1460626629706996e+02, -1.4206705531040593e+00,
       7.0577040453545260e+02, -9.5406944601553678e-01,
       8.4326012877216431e+02, -1.0630513607668595e+00,
       8.2892445809387107e+02, -1.1402584568211720e+00,
       9.2334036245061827e+02, -1.0181646736746628e+00,
       1.3343874989924125e+03, -1.0883854654964611e+00,
       1.0339153570055078e+03, -1.4126841019676735e+00,
       5.0514116141337894e+02, -8.1306434042490683e-01,
       9.0016885915954549e+02, -1.2844038317416897e+00,
       1.2254973670845093e+03, -1.3799815110316460e+00,
       2.8134893205389409e+02, -6.3337403426790684e-01,
       7.3082061646627426e+02, -9.2769816913370284e-01,
       1.0124648374191415e+03, -8.4410781879759245e-01,
       9.4644653895808244e+02, -1.3079591540800355e+00,
       5.5927195440083824e+02, -1.0385744411342759e+00,
       3.4059161627788006e+02, -7.8307617198170743e-01,
       2.5064883476132124e+02, -5.3590367627998003e-01,
       9.6159373138542833e+02, -1.2593580465617080e+00,
       1.1744533584309236e+03, -1.4123130871670244e+00,
       8.8404646171469744e+02, -1.6481619789403832e+00,
       9.3908634636662873e+02, -1.3317015613474845e+00,
       1.4987646781864100e+03, -8.4045576318343085e-01,
       5.5067685821868383e+02, -1.0372206390137111e+00,
       1.2619756275570112e+03, -1.0289479436322411e+00,
       9.9136873438863142e+02, -9.2000033949513016e-01,
       1.0016179272290059e+03, -1.4277334307251655e+00,
       2.1617189882786038e+03, -6.5315342747082705e-01,
       9.5649108958955503e+02, -1.3535807743259709e+00,
       1.1122930544872215e+03, -1.3231540885302586e+00,
       1.0104254839071832e+03, -1.1272052317037129e+00,
       9.4727536945237944e+02, -1.0256419589773313e+00,
       1.3011511174894088e+03, -1.7719117546019081e+00,
       7.7426523408194771e+02, -1.4070993665969536e+00,
       1.0897865816461224e+03, -9.8874983532066252e-01,
       8.2241609559149185e+02, -1.2706908000402215e+00,
       7.3962089991092523e+02, -8.1189496027576213e-01,
       2.0066787446984285e+03, -6.1320741781222532e-01,
       1.2840826848162146e+03, -1.2257717295544963e+00,
       1.3572848508795307e+03, -1.5019299612798120e+00,
       1.1349226219098584e+03, -1.3353659137708480e+00,
       1.1942386197077838e+03, -1.0573303406686321e+00,
       1.0243251218800820e+03, -1.2581143932409520e+00,
       1.1231681364971730e+03, -1.1361486523588467e+00,
       8.9812273470591902e+02, -1.0430160201428058e+00,
       8.0317349738840562e+02, -1.3701451995448390e+00,
       1.1120478772484253e+03, -1.3707455072369603e+00,
       8.8276643821524692e+02, -1.1691784630786575e+00,
       5.1365954715516671e+02, -7.7342439014749376e-01,
       8.1362284365612356e+02, -7.9498665465097784e-01,
       1.2439247434824103e+03, -1.0824897163909277e+00,
       5.5771312011940188e+02, -1.0763921932991998e+00,
       4.5188515647812397e+02, -1.1133918501368958e+00,
       2.0758834966415052e+03, -9.4691050903235852e-01,
       5.9689523669443633e+02, -8.8904985527719405e-01,
       8.3867503208100266e+02, -1.0694817830798840e+00,
       5.3972653710428528e+02, -8.0719237054468418e-01,
       1.8702637251749995e+03, -1.0375433711714070e+00,
       7.5632188209482763e+02, -1.1104984133737863e+00,
       8.4341517163671392e+02, -8.3718024962851278e-01,
       1.3689798842248711e+03, -8.2665122804651958e-01,
       1.0808739064392059e+03, -1.1073500535844316e+00,
       7.3813818893280506e+02, -1.2470082203638768e+00,
       1.0521207047437590e+03, -1.5520851411325731e+00,
       7.4984591746521676e+02, -5.9753469692116501e-01,
       9.6502738296322673e+02, -5.7033587344439884e-01,
       9.1230603369117773e+02, -1.4639818346466602e+00,
       5.8800448215282302e+02, -1.1603586253857241e+00,
       7.2768583484809301e+02, -7.0594408228369587e-01,
       1.5246467008451204e+03, -8.1973086061978373e-01,
       1.1765891386906742e+03, -1.3144611295192334e+00,
       1.0667293546770563e+03, -1.2470725150862068e+00,
       7.6542099869856099e+02, -9.5811630888338817e-01,
       5.8060658031141486e+02, -1.3588554565339759e+00,
       1.2414342685945849e+03, -1.4165152454225864e+00,
       8.5132385046970285e+02, -1.4284599753777047e+00,
       9.0089816339840183e+02, -1.4292311725720181e+00,
       1.0043224631535044e+03, -1.1228459835621460e+00,
       1.4603205132035648e+03, -9.4168639900684470e-01,
       1.1710742938115009e+03, -9.0374815363685546e-01,
       1.0360800460776200e+03, -1.0491247487075841e+00,
       7.5622575574964810e+02, -7.8256450982441916e-01,
       9.3606535581711739e+02, -1.0309322122265634e+00,
       1.0540576089189401e+03, -1.0048580775856777e+00,
       9.9198903172157293e+02, -1.1009216815898164e+00,
       9.7063003802139349e+02, -1.6884269059824011e+00,
       9.5056973930949005e+02, -1.2032212506830395e+00,
       1.1549663752436388e+03, -9.6122771028020271e-01,
       1.2757999926772238e+03, -1.1911739888725461e+00,
       9.0412946536920811e+02, -1.3342173227764236e+00,
       6.4822413621500311e+02, -1.2531603613841513e+00,
       7.4513108922663332e+02, -1.0455865216592792e+00,
       2.3263077998899630e+03, -7.1368361056718810e-01,
       4.7231594727901006e+02, -1.3752148194710423e+00,
       7.7718331487968999e+02, -1.2253350963047844e+00,
       6.9159565830855956e+02, -7.9809477204400625e-01,
       9.1108580588108100e+02, -1.0467281117402714e+00,
       9.8923152943528305e+02, -9.3550543009820986e-01,
       6.6685526835994119e+02, -1.1652344226904827e+00,
       8.2184242553640206e+02, -1.5502474216708881e+00,
       3.7394244299657385e+02, -8.1265796971536031e-01,
       1.0564632442055424e+03, -1.1080270157801444e+00,
       3.1396942737699192e+02, -9.2696956046186663e-01,
       1.0727084901754361e+03, -8.9980445370223217e-01,
       4.0960619080635422e+02, -8.6933153631000937e-01,
       7.0145079079063214e+02, -1.0475892873127284e+00,
       6.4241001686133666e+02, -1.0593234137311096e+00,
       7.8883070282538574e+02, -1.1051548474232535e+00,
       1.2339548493166210e+03, -1.0632736395553339e+00,
       1.0647823500016320e+03, -1.4459241904538045e+00,
       4.9338362881434705e+02, -8.9517312346433486e-01,
       4.0784738869639858e+02, -1.0678865372723110e+00,
       1.9432108074888874e+03, -5.6522985797799208e-01,
       7.0358208069608247e+02, -8.9679108324358647e-01,
       1.1046023682723269e+03, -1.6936382220047745e+00,
       1.0744268452312738e+03, -1.0149588931584941e+00,
       4.8764842012870855e+02, -1.3043710297566602e+00,
       1.0359645647010220e+03, -1.2528067497426618e+00,
       5.2968245501981698e+02, -5.7387079446104472e-01,
       1.0405671631606101e+03, -1.4021106526961955e+00,
       7.3670689647145264e+02, -1.8776578036075202e+00,
       6.0481081877212739e+02, -8.7511317299032776e-01,
       1.3787317877775681e+03, -1.4910944043412466e+00,
       1.0105014793703930e+03, -7.0292331312991996e-01,
       9.9672357775562637e+02, -1.4642585334085372e+00,
       1.2159888365158172e+03, -1.0130834969113143e+00,
       1.2768329432547644e+03, -1.3179924911193894e+00,
       7.1279621619504690e+02, -1.1932745218824330e+00,
       6.8615087087861161e+02, -1.2213028604828469e+00,
       8.9915091468798789e+02, -1.3394096853334809e+00,
       7.2909841191890052e+02, -8.3699967251086260e-01,
       8.9495850245666963e+02, -1.1725067960276336e+00,
       1.7751926905709038e+03, -1.1415081649704695e+00,
       8.6135565967396656e+02, -8.7416143274173197e-01,
       1.2853939811581922e+03, -1.1371544854138618e+00,
       1.1180588046060216e+03, -1.1086713302084812e+00,
       2.5098288318446225e+03, -8.1076144713491527e-01,
       1.0532173776338700e+03, -1.1819694076287208e+00,
       7.3883072197439594e+02, -1.0761670491850919e+00,
       2.6114559600541056e+03, -6.3812339148747510e-01,
       9.5194632453509996e+02, -1.2098982431266494e+00,
       9.2548565205512000e+02, -1.1994450977242506e+00,
       9.7367491907966928e+02, -1.2546094240626569e+00,
       4.3196653770556912e+02, -5.5811513348655284e-01,
       3.5318451163531898e+02, -3.3598352383705693e-01,
       7.7761404153490525e+02, -1.2169677574702547e+00,
       8.0172370428674606e+02, -9.0909788245051382e-01,
       1.0761344408042482e+03, -1.2369543572504909e+00,
       1.3142801336963448e+03, -8.4764246880532690e-01,
       6.9196596307902576e+02, -1.1242998941990956e+00,
       9.6803485426852035e+02, -1.4111127759453290e+00,
       1.2041855783019396e+03, -1.4441967904170825e+00,
       7.4527848213715208e+02, -7.0767455219263709e-01,
       8.5360794664422224e+02, -8.2714510358019566e-01,
       1.4124505152806335e+03, -7.5071761968758088e-01,
       1.1287305545220661e+03, -1.6251555658211980e+00,
       1.1611196111043428e+03, -1.1442265379540097e+00,
       9.1106734026224387e+02, -9.2640982448766451e-01,
       1.3548180933481881e+03, -1.7520673341500257e+00,
       3.4125444541070459e+02, -8.9423285905812355e-01,
       7.8666892719548719e+02, -1.2371376843557975e+00,
       6.7790432482612005e+02, -7.7419683899075942e-01,
       1.1694377012183652e+03, -1.1897622266165149e+00,
       5.6040077792258887e+02, -5.5053669382812997e-01,
       1.0849376304137556e+03, -1.2240746967560774e+00,
       4.3487352335923106e+02, -8.5520836905556297e-01,
       5.5470215582174160e+02, -1.2264871113500377e+00,
       1.1560779094276243e+03, -6.9115091147574292e-01,
       6.7530456166108127e+02, -1.3987496932389956e+00,
       5.7322014032340223e+02, -1.1270418227192993e+00,
       1.2275544590614495e+03, -9.0304848322451958e-01,
       1.4449536557914614e+03, -1.3213502809057793e+00,
       1.0608576535733566e+03, -1.2699307812204041e+00,
       1.0662611799958008e+03, -8.9539608846950269e-01,
       6.9888389768452362e+02, -1.0786293200061443e+00,
       1.1329460090574662e+03, -1.1344172973520696e+00,
       1.3422468846258992e+03, -5.3458906517625837e-01,
       6.5503892713092773e+02, -1.0825509628260093e+00,
       7.3941848369966112e+02, -9.1026173451047865e-01,
       1.0961806106221331e+03, -1.3108262383731155e+00,
       8.3504517311527081e+02, -1.2903080690818618e+00,
       6.4448605579126911e+02, -6.8893259025954134e-01,
       1.1083883081783240e+03, -1.3213938173555826e+00,
       8.2150579672532433e+02, -1.1787528749067524e+00,
       1.5296526608970485e+03, -1.5011707646713186e+00,
       1.2275568659754308e+03, -1.5345158790254469e+00,
       1.4739388181257377e+03, -1.1682854176228801e+00,
       7.1460412476059309e+02, -9.5607593810251024e-01,
       6.1229141466071167e+02, -1.2524542873410289e+00,
       1.2351623331556050e+03, -1.4341114993654882e+00,
       9.0401214909780219e+02, -1.1979093109210914e+00,
       4.4197667934329479e+02, -1.0531701187973006e+00,
       8.1881699263721009e+02, -7.4747076975118321e-01,
       1.3649000305122513e+03, -1.4513583463570572e+00,
       5.9187276904802138e+02, -1.2682045762370473e+00,
       5.6111240873544921e+02, -1.1614939773749529e+00,
       1.2778610630565622e+03, -1.1276016326289446e+00,
       1.2036156090466748e+03, -1.0039716952260014e+00,
       7.6440147808654103e+02, -1.5727949917288027e+00,
       8.1793791365921879e+02, -1.1966990271293638e+00,
       1.0221031125858858e+03, -5.8366776314708313e-01,
       5.0305921698216537e+02, -7.7150109172140080e-01,
       9.6972777176895715e+02, -1.0861449981841840e+00,
       7.9608501322855852e+02, -1.0413313180816206e+00,
       1.2002270874875423e+03, -1.3900594571276270e+00,
       1.1649444211356702e+03, -1.1192047369155829e+00,
       1.0564896419102608e+03, -1.4171129009749599e+00,
       9.6483003937003491e+02, -1.4160833469586538e+00,
       1.1131969688551310e+03, -1.5685360633240875e+00,
       4.1979741752966459e+02, -8.2608861912646714e-01,
       7.7537588950159761e+02, -1.2598688159611824e+00,
       8.6184289973463740e+02, -1.0933518441642867e+00,
       1.0827411865048207e+03, -1.1686772737444677e+00,
       1.0324199329271910e+03, -1.2285802976061604e+00,
       9.9044947408348412e+02, -1.4934863139462826e+00,
       1.0262999867889525e+03, -1.4449632414841509e+00,
       1.2021046573663511e+03, -1.1185487262958493e+00,
       8.7358306161325186e+02, -1.2920610374588184e+00,
       7.1017991744119161e+02, -1.0110833022307204e+00,
       8.5315209341625382e+02, -1.3898635230517415e+00,
       1.4136424481384925e+03, -1.2198716329158164e+00,
       9.3779360280787455e+02, -1.4537263488805154e+00,
       8.7560875521506784e+02, -1.1651627581047093e+00,
       8.7948653033945482e+02, -1.1252754586112979e+00,
       5.5648720363210350e+02, -1.1854377658686479e+00,
       8.6422731094138658e+02, -1.2177398721894996e+00,
       9.7276580046351330e+02, -1.3871160073232256e+00,
       4.7772837056657488e+02, -9.2142467248045501e-01,
       1.0337403494509674e+03, -1.5675417204747397e+00,
       6.5096726428259342e+02, -1.2701591582571243e+00,
       1.0015688724803389e+03, -1.2807775261714824e+00,
       6.3900661125480769e+02, -1.0879413582598920e+00,
       8.8563701494170971e+02, -7.9814125012017512e-01,
       8.3166396590256613e+02, -1.2109728065590646e+00,
       5.5279045471653001e+02, -1.3615722970562794e+00,
       1.2262298514850393e+03, -1.6695609199285681e+00,
       1.5015549123669562e+03, -9.6880564415642412e-01,
       8.5111068406052300e+02, -1.3905574867035699e+00,
       5.8632023200682238e+02, -9.6058445608450349e-01,
       9.7910222030277691e+02, -1.4288429591868899e+00,
       8.3600853077027477e+02, -1.1661090699206160e+00,
       1.0382433987430231e+03, -1.2431647439425615e+00,
       8.1050784376163904e+02, -9.6230913583926103e-01,
       8.0579922019437436e+02, -1.1455324004509333e+00,
       8.9926381104257075e+02, -1.3320566824302253e+00,
       6.3526352184537063e+02, -1.2706209024152997e+00,
       1.0616718102279115e+03, -1.3085236469109847e+00,
       6.5885044682529565e+02, -1.3770398914773043e+00,
       1.1153749279623878e+03, -1.4347607272330090e+00,
       1.1524844431522918e+03, -1.3012230101045206e+00,
       9.3841339412780940e+02, -7.9826860714463788e-01,
       9.9585553085166077e+02, -1.0213437506630823e+00,
       1.1974527302446782e+03, -1.4028382945916775e+00,
       1.2709100865020637e+03, -1.3016226420754149e+00,
       9.8043919375220003e+02, -1.1109669860875633e+00,
       5.7658279307521377e+02, -7.2080055380648278e-01,
       8.9557963029827965e+02, -7.4924648390467630e-01,
       1.2473584022059383e+03, -1.5056330033743486e+00,
       9.0603870843392724e+02, -1.4932768458432704e+00,
       1.1941180830531412e+03, -7.0329160397117807e-01,
       1.1020040222258126e+03, -1.2091212809048892e+00,
       7.1676345765226074e+02, -9.3204772846161466e-01,
       7.8097726443161616e+02, -8.7400008097315485e-01,
       1.2602285442723808e+03, -1.0355275399161417e+00,
       1.4261160217565862e+03, -1.3007792220860730e+00,
       8.7605965347350798e+02, -1.1234774056497465e+00,
       9.1576888732886630e+02, -1.1681344821250577e+00,
       1.1709266673363416e+03, -1.6139815638083477e+00,
       1.0506821840796974e+03, -1.2285487473585095e+00,
       7.6192319536282184e+02, -1.1225080008144397e+00,
       9.9605562771117820e+02, -1.3482113726008107e+00,
       1.1058987681118981e+03, -1.2199550034588371e+00,
       1.1628472257333192e+03, -1.3468614776934629e+00,
       5.5296944637319154e+02, -9.9869468508758696e-01,
       8.7003968432654244e+02, -1.2253442987781931e+00,
       9.1423266968634130e+02, -1.2160359481623721e+00,
       1.2532623725870899e+03, -6.1382980044237789e-01,
       5.1114865612281721e+02, -1.1341719058455293e+00,
       8.4753974608554745e+02, -1.3651180423797249e+00,
       6.8818185235201452e+02, -1.4269327466371928e+00,
       1.5490597487679302e+03, -8.6505163993773104e-01,
       1.1091898127319707e+03, -1.5070534634344743e+00,
       8.3614489283013381e+02, -1.1449687032141955e+00,
       8.3678993239006604e+02, -1.2805411604795089e+00,
       7.1145852574346486e+02, -1.0346723627002783e+00,
       1.3653952685015931e+03, -1.3898097626374051e+00,
       1.1116957980350278e+03, -1.3802438183723722e+00,
       8.6363835336221655e+02, -8.0707332762399520e-01,
       1.3051016666939613e+03, -1.3066302682436304e+00,
       1.0243256731299643e+03, -1.3159567412363411e+00,
       7.6665110308593523e+02, -1.6164808363710939e+00,
       7.2418668255191710e+02, -1.1133279886581664e+00,
       7.8227370876891621e+02, -1.0516248435130606e+00,
       8.8062527618354852e+02, -6.7289974411607822e-01,
       1.2836190169696392e+03, -1.1557906434930543e+00,
       6.2286000191298467e+02, -7.8020435947643296e-01,
       7.1744095878735016e+02, -1.2624719332971268e+00,
       1.0369559351989003e+03, -9.4133886741993089e-01,
       7.8852529528053719e+02, -1.4214506185276561e+00,
       3.5229730044879875e+02, -6.4266758720509387e-01,
       6.3770360594408646e+02, -1.4264781262678641e+00,
       1.7583342227598096e+03, -1.0103798286053287e+00,
       9.1811447002954935e+02, -9.7663263139212342e-01,
       4.0747571124455021e+02, -8.3496298537908964e-01,
       3.8483899405438882e+02, -1.0533876659680179e+00,
       1.1388539950985121e+03, -1.5556463273422403e+00,
       9.8607185050946521e+02, -8.8729100845945119e-01,
       6.9851463413435636e+02, -8.7130443432609761e-01,
       9.9111780265320647e+02, -1.3530058048937696e+00,
       1.0509265220194175e+03, -1.3058751847275694e+00,
       1.3109291471619811e+03, -1.2345184072933744e+00,
       8.9306436723763261e+02, -1.1150821888254066e+00,
       1.3974309976978786e+03, -9.7053211678312390e-01,
       9.9568140461694486e+02, -1.1648511371214796e+00,
       8.1666276998282603e+02, -1.3534086518706150e+00,
       1.0066596657128557e+03, -1.0058322397923152e+00,
       9.0041455703623274e+02, -1.0812715163944586e+00,
       1.0100266572586779e+03, -1.2705636678680599e+00,
       9.3472622018513414e+02, -1.4499991756879760e+00,
       2.3463102831208218e+02, -2.3255763486096417e-01,
       1.1821222914546809e+03, -1.1986531231453343e+00,
       1.2339768195365475e+03, -1.1742591458076057e+00,
       1.3765182670618708e+03, -1.0193447440317691e+00,
       1.0212679735210188e+03, -1.4341182241720254e+00,
       6.4085404601841049e+02, -1.2506532482158605e+00,
       1.0573237279742466e+03, -1.0274590700750188e+00,
       1.0616134670317799e+03, -1.3462785972421509e+00,
       1.2144688386771456e+03, -1.0546897438252330e+00,
       1.0469319040065825e+03, -1.2463996722279129e+00,
       7.7440401188213752e+02, -7.8091336028822356e-01,
       1.0270296708463090e+03, -1.3944640558227570e+00,
       1.0426969157749154e+03, -1.5099607036728637e+00,
       1.0918497784826573e+03, -1.3387170713745900e+00,
       9.3328568630907444e+02, -1.2302484424679645e+00,
       5.4507391673642292e+02, -8.1915925579998961e-01,
       1.0570344200749430e+03, -1.1473560456242300e+00,
       9.3217461641675391e+02, -1.0745873223876101e+00,
       1.2310353636638542e+03, -1.1609634004982787e+00,
       8.5037838133615264e+02, -1.0051002036154828e+00,
       1.1525946031662322e+03, -1.0469552777586655e+00,
       2.2838681425134778e+03, -6.5468409517862336e-01,
       9.8741952073926359e+02, -1.8506536598792092e+00,
       7.8084207149805843e+02, -7.3440778266189055e-01,
       4.3581002201390140e+02, -4.8077760199958730e-01,
       8.5423301095390877e+02, -1.5611496481375307e+00,
       1.2361812024897570e+03, -1.2906248729756769e+00,
       1.0122548473341794e+03, -1.3786537061791972e+00,
       1.1214279574061341e+03, -1.4920451371784786e+00,
       1.0306945782052053e+03, -1.3653414430648454e+00,
       1.0135898649063517e+03, -1.3593075791566229e+00,
       1.0892935562324813e+03, -1.2778222424577814e+00,
       1.0599869854782648e+03, -8.6604892835631297e-01,
       5.5400346113899707e+02, -9.4505329153617901e-01,
       4.9476498646006200e+02, -8.7111424430795581e-01,
       1.1374141293213634e+03, -1.6438335523651737e+00,
       9.8853843534691134e+02, -1.1178593858451786e+00,
       1.2970957473363640e+03, -1.2620339910822214e+00,
       9.3856693048284103e+02, -1.1345869086349385e+00,
       5.6313479042424683e+02, -1.2211804433457463e+00,
       7.9753210660191019e+02, -1.3924941298223779e+00,
       1.0220429681123352e+03, -8.8471363983796936e-01,
       1.3857646933929827e+03, -1.4319155556622418e+00,
       3.6508054280864826e+02, -9.0676228071437770e-01,
       1.5124770676852747e+03, -9.9431367822644889e-01,
       7.6887501434152955e+02, -8.3300106691369791e-01,
       1.0968557093519680e+03, -1.1200238340476096e+00,
       9.4428532180129287e+02, -9.8679264713365944e-01,
       9.3004855163207549e+02, -1.4648560171129619e+00,
       5.8596736061833997e+02, -1.1020415946863025e+00,
       1.3675467530524445e+03, -1.0851141628017085e+00,
       1.1413903761304543e+03, -1.5213767172191033e+00,
       1.0380635071280578e+03, -1.0770638037546185e+00,
       4.5952912299675768e+02, -5.3911536963501683e-01,
       8.7772108524675298e+02, -1.2608153249563390e+00,
       1.2166268153691910e+03, -1.2595107357303701e+00,
       1.0154752355030953e+03, -1.3638576152397051e+00,
       1.1581059351789174e+03, -1.5155812965193132e+00,
       1.1003136942321639e+03, -1.3384907804155033e+00,
       6.2851658385912344e+02, -1.0378185421343178e+00,
       9.1037098216886716e+02, -1.2242934357379687e+00,
       8.8934856421663244e+02, -8.8672132386945246e-01,
       5.0800301716580418e+02, -9.7812694310649007e-01,
       1.0183132485126596e+03, -1.4266188688232226e+00,
       6.8582214107199809e+02, -1.1053187230099528e+00,
       1.0679194439052012e+03, -1.2300157150985582e+00,
       1.2445250511072538e+03, -1.0554015175286970e+00,
       7.3147078477859066e+02, -1.2372347270101165e+00,
       1.2437204591704119e+03, -1.4304923358947503e+00,
       9.2034179938697753e+02, -9.2990523768007982e-01,
       7.7218017836960610e+02, -1.1044835290363757e+00,
       8.1327202995720234e+02, -1.0833310240450085e+00,
       5.8683769160992347e+02, -9.6450775791861665e-01,
       1.3066297561924982e+03, -1.1833152853443445e+00,
       1.1818479182121005e+03, -1.2478208549219791e+00,
       9.9718157088928012e+02, -1.0234098795127302e+00,
       1.4783825143496404e+03, -1.2019823901827507e+00,
       9.6939468090390278e+02, -1.2479318251119398e+00,
       1.0147024015057643e+03, -1.0736394754182463e+00,
       1.5468862752271339e+03, -8.5658837402540366e-01,
       7.5967194551874934e+02, -1.2012227281949419e+00,
       1.0004473648320735e+03, -1.0332540597442497e+00,
       6.0967459635778096e+02, -1.0285331518461087e+00,
       1.0849370401807146e+03, -9.3088699895890359e-01,
       1.4717054885743014e+03, -8.5465480184295162e-01,
       1.6446029942254083e+03, -9.1208742759114092e-01,
       7.6060242416331721e+02, -8.4001815131335733e-01,
       6.0795462403352292e+02, -6.9075749118340612e-01,
       6.9700265587593628e+02, -1.0018874285204806e+00,
       1.3206147072034319e+03, -1.4420826740367738e+00,
       1.4089553105550451e+03, -1.3072814198638587e+00,
       9.9246366253428346e+02, -1.6668153702733282e+00,
       9.6612793236538914e+02, -9.1124512159511906e-01,
       8.0507808461817285e+02, -1.1205282327397423e+00,
       7.7857674009190828e+02, -1.0136817272047556e+00,
       1.0028290108115107e+03, -1.2024401427442857e+00,
       1.0208233517052876e+03, -7.6412381383845429e-01,
       9.6574706981677241e+02, -5.3903252258235124e-01,
       1.0134258013910293e+03, -1.3760920818739577e+00,
       1.1418490244922602e+03, -1.1493618350366273e+00,
       1.1432098965177245e+03, -1.0254406065934758e+00,
       3.3823063781736585e+02, -1.0970544179198727e+00,
       1.7123919099742152e+03, -1.0577273834360506e+00,
       1.2017463876230222e+03, -1.4714458896115021e+00,
       7.7461083980768012e+02, -1.3762823788551075e+00,
       1.1718494217269511e+03, -6.2958136701856737e-01,
       9.8621090839541034e+02, -9.2264715449808288e-01,
       1.0870863509474191e+03, -1.3363148510968965e+00,
       3.2282086464968738e+03, -6.3104493587390742e-01,
       1.0425201310755540e+03, -1.2369365415093960e+00,
       1.4539369143764391e+03, -1.2658022022177573e+00,
       1.0362671489858374e+03, -1.1055429383377546e+00,
       1.1451347612821576e+03, -1.3992547926152294e+00,
       1.4720524922991983e+03, -1.1521879166221904e+00,
       9.4921567447478662e+02, -1.0779764739984201e+00,
       6.4812243535687969e+02, -5.0736606677852303e-01,
       1.2959514610138801e+03, -1.3377655637450112e+00,
       1.2781162210855862e+03, -1.3069795029335973e+00,
       9.9098844482540756e+02, -1.1570911255836418e+00,
       1.1498094874233730e+03, -1.2653568794668915e+00,
       8.7195670329496079e+02, -1.0180711918290202e+00,
       1.6901077575312938e+03, -1.3072753020748762e+00,
       8.5714458076120673e+02, -1.5808814189631708e+00,
       1.0564842923073541e+03, -1.1255129030551070e+00,
       1.2060724032153930e+03, -1.1141485378999270e+00,
       3.3654027379593913e+02, -5.9299039536331022e-01,
       1.1980354871799364e+03, -8.9416664184855177e-01,
       8.6964178891738675e+02, -1.2158587021577665e+00,
       1.2704110727242119e+03, -1.4197407813813185e+00,
       9.2832481141037886e+02, -1.1578599753282084e+00,
       9.7079807882230091e+02, -1.1040940292950479e+00,
       1.1150775797147651e+03, -9.5347466880179987e-01,
       1.0733674615962070e+03, -1.4615397804260748e+00,
       9.1483826897647464e+02, -1.2644025638483656e+00,
       1.0619746423323568e+03, -1.1770333307946339e+00,
       1.2969324267031036e+03, -1.2100772989966240e+00,
       5.7339558550446827e+02, -9.1593170518441669e-01,
       1.1911111095840565e+03, -1.4010960383873019e+00,
       8.8408134014696407e+02, -1.6537976838410595e+00,
       6.5808351253058913e+02, -9.8616017520247679e-01,
       7.0180703561630185e+02, -8.4103109686150757e-01,
       4.9635922552776321e+02, -1.3002435993772943e+00,
       1.1082394304849713e+03, -1.4160924426032158e+00,
       1.9205426641825366e+03, -1.2685475367193759e+00,
       1.7265799321215591e+03, -9.4598300006199354e-01,
       1.1676871213561076e+03, -1.1728430945670179e+00,
       9.9516272254207161e+02, -1.0547939844130696e+00,
       1.2178935293433024e+03, -1.3797842302905625e+00,
       8.2659913688516531e+02, -1.3670215800244978e+00,
       1.1316381871921540e+03, -1.1967928491865492e+00,
       1.1189039412808502e+03, -1.1529905393552973e+00,
       1.3128901059924603e+03, -1.2261077813645340e+00,
       1.4925680913684689e+03, -1.3249826809907657e+00,
       1.2810754610074355e+03, -1.0033426856745642e+00,
       9.8947752028430625e+02, -6.8169392193379508e-01,
       1.1716812743975468e+03, -1.3412628426186353e+00,
       6.8043338262763450e+02, -8.4072942158837127e-01,
       6.1005734222269518e+02, -6.9414797214450585e-01,
       1.2725822914570952e+03, -1.5471069284923338e+00,
       7.6073059336921938e+02, -1.3685259048964320e+00,
       1.0764321966845957e+03, -1.2474000506680101e+00,
       1.0251787235442637e+03, -8.7312762079824746e-01,
       6.5210919833231537e+02, -1.2266773159731581e+00,
       9.7784453544660767e+02, -1.1946885552514737e+00,
       5.5312009996566974e+02, -1.0270900091307074e+00,
       9.1446972744346090e+02, -1.1456586588093323e+00,
       1.0362881824693616e+03, -8.8784462190583069e-01,
       1.0093359525177414e+03, -1.1633210597090375e+00,
       1.3907391056545621e+03, -6.5477429041953361e-01,
       8.5063647105451605e+02, -1.4252914585964278e+00,
       9.0065569662839209e+02, -8.4297545443305910e-01,
       5.9295991947026153e+02, -1.1980041649373898e+00,
       6.3729732656144654e+02, -1.2119424182517144e+00,
       1.2525903669953354e+03, -1.5341904428761135e+00,
       4.2426147701725796e+02, -1.2345901258790235e+00,
       8.2066184995370588e+02, -8.3758387957995639e-01,
       8.8298293024392956e+02, -1.1106969956978903e+00,
       1.0257185870005271e+03, -1.1664432183682707e+00,
       7.2647366628823806e+02, -1.0785947409857655e+00,
       8.5630157538535309e+02, -7.4315724435953856e-01,
       1.2191675373869386e+03, -1.1197807193394635e+00,
       1.0403843446809835e+03, -1.3789878419361501e+00,
       1.0451328933881168e+03, -8.2347647005291447e-01,
       1.0717442089677525e+03, -1.1491743623180821e+00,
       1.1551470201542645e+03, -1.0077036453910884e+00,
       9.4042890612230144e+02, -1.1937315298361371e+00,
       1.2529314785617235e+03, -1.3349805223841287e+00,
       1.1964308892880326e+03, -1.4136765541294123e+00,
       9.9427546467328341e+02, -1.3205919226652911e+00,
       7.2860205425992888e+02, -1.2673730731219779e+00,
       1.1819043545412408e+03, -1.6871950786679153e+00,
       1.0902291517952262e+03, -1.0924450977170577e+00,
       9.8914180584649762e+02, -1.1570971846449640e+00,
       1.4531508130225318e+03, -1.1417364396214937e+00,
       4.0352742614417252e+02, -9.3562390520788596e-01,
       7.9495742139359277e+02, -1.1340397174380090e+00,
       1.1586139541002217e+03, -7.3233344939190514e-01,
       1.3897317023671010e+03, -1.2281327410565095e+00,
       1.1336892034813634e+03, -1.3681931397572002e+00,
       9.6372850513521246e+02, -1.3452651622574865e+00,
       8.5866383828066466e+02, -1.5030899073001909e+00,
       1.4022840854901881e+03, -7.0540513485659728e-01,
       8.5580919285365826e+02, -6.5594074927374868e-01,
       1.5304660282574202e+03, -6.1733174009248515e-01,
       9.9800033836776583e+02, -1.3453318242684291e+00,
       1.0242752469998798e+03, -1.1757197544502929e+00,
       9.1685556684762457e+02, -1.0640469154369812e+00,
       6.5815736216016899e+02, -1.0569501283495566e+00,
       9.1549214796975332e+02, -1.6227553137287192e+00,
       1.0718137231968924e+03, -1.0248856902458265e+00,
       9.2940563224175764e+02, -9.4752883639663288e-01,
       5.7202738309166068e+02, -8.5677307282414750e-01,
       3.6529322016678356e+02, -7.8981380944586277e-01,
       6.9843825466256953e+02, -1.2902368461563902e+00,
       4.4770227557998402e+02, -9.6032089867002135e-01,
       8.1158859645556743e+02, -1.1896195514172534e+00,
       1.2396438453040996e+03, -1.3844176174946292e+00,
       1.8377743009240885e+03, -5.7313018271341509e-01,
       9.9132824610709179e+02, -6.3662357043990037e-01,
       9.7469607273258293e+02, -1.3505477332176652e+00,
       1.8612496353179015e+03, -9.2943408931440297e-01,
       7.9971020295993151e+02, -1.4735724723135897e+00,
       1.1955482942159499e+03, -1.0769466610754763e+00,
       1.2871843709498228e+03, -6.4544813013830715e-01,
       1.0626487342262485e+03, -5.9262758611665833e-01,
       7.1472260158618451e+02, -8.9365329721060038e-01,
       5.4525330488790848e+02, -1.0851667894810808e+00,
       8.8784484860091811e+02, -1.0983746292420427e+00,
       1.2076337524389271e+03, -9.0797084093448599e-01,
       6.5475994455711088e+02, -1.0959448077006375e+00,
       7.4273670708787824e+02, -1.0686525940410143e+00,
       8.3792025938545157e+02, -1.2227260728844556e+00,
       1.1713872253477350e+03, -1.0353025655226500e+00,
       8.6206895250153968e+02, -9.6312169971920003e-01,
       1.4336085895584306e+03, -1.1976874653945839e+00,
       8.9326220778997754e+02, -1.1628196455624784e+00,
       4.3028330121417287e+02, -1.0924133817785679e+00,
       1.5197815311258187e+03, -1.2191263577152760e+00,
       1.2376912251141862e+03, -1.4505475601950735e+00,
       1.0965324409841967e+03, -1.4050041284057428e+00,
       6.3214036255600035e+02, -8.1637117448053798e-01,
       7.0753814934072898e+02, -1.0253580691672364e+00,
       1.3291296475332269e+03, -1.2428119471472243e+00,
       7.3390892957496544e+02, -1.2563573666215695e+00,
       7.4197559037303938e+02, -1.1066230568903308e+00,
       1.1374668120723111e+03, -8.8384321592721304e-01,
       7.2057217827494799e+02, -8.5491581698353769e-01,
       1.1145407130482115e+03, -7.8874167760620673e-01,
       1.1716105706169437e+03, -8.7922550260306143e-01,
       8.7297890891088343e+02, -9.0971649758407658e-01,
       1.1961314214793770e+03, -1.0378424294290851e+00,
       6.8780576263652574e+02, -9.3532400491581091e-01,
       2.0747058689147125e+03, -8.2763950955807941e-01,
       9.0559865065505960e+02, -1.0425433070542114e+00,
       4.7937706862098116e+02, -1.1545089424142509e+00,
       8.6800127506694889e+02, -8.1297771178528400e-01,
       9.2770931106044839e+02, -1.0268885764348534e+00,
       1.0331761047132957e+03, -1.4151262034880576e+00,
       1.1966738072349597e+03, -9.0778655705604849e-01,
       4.4930670362615751e+02, -1.0127120854764371e+00,
       1.2164630335193053e+03, -1.2440207628973521e+00,
       9.4066239877645410e+02, -1.2411518408374511e+00,
       6.5312793178854383e+02, -1.1239215068109270e+00,
       8.3392195838042448e+02, -7.5925950582898760e-01,
       1.4518838071082171e+03, -1.0664538061927480e+00,
       1.1628097802099278e+03, -1.1413265195502287e+00,
       1.0179629551467536e+03, -8.4412079803059303e-01,
       1.1945785089753140e+03, -1.5078423052010006e+00,
       1.2627895405422937e+03, -9.6846432475828392e-01,
       6.6819752670272010e+02, -1.1832965692943740e+00,
       1.1168343656937204e+03, -1.3615574851946683e+00,
       1.0756784649132949e+03, -1.1148487883637630e+00,
       9.2247395824316231e+02, -1.4732810134912937e+00,
       3.8098185973522084e+02, -8.0130067367100488e-01,
       1.3660936173906885e+03, -1.1175672318252479e+00,
       8.7641855842677080e+02, -8.5980191716802690e-01,
       1.0217673508359427e+03, -1.4460094031657709e+00,
       9.3039615743212846e+02, -1.0664926224067641e+00,
       1.0979139380309850e+03, -1.4626706640790634e+00,
       1.1167855730738615e+03, -1.0415805204735755e+00,
       7.0612217544382111e+02, -1.2609005702731237e+00,
       1.3329162621048431e+03, -1.1317323155435410e+00,
       1.3052687086473347e+03, -1.3767135220628997e+00,
       1.3631932218260249e+03, -1.2512666456569517e+00,
       9.5530217820547659e+02, -1.0958601300102158e+00,
       8.0829099387800545e+02, -1.3815158477784095e+00,
       5.8599532693361607e+02, -8.0599019241132386e-01,
       1.3175199186133584e+03, -1.3092221249493143e+00,
       1.1306726073518132e+03, -9.7442261553599219e-01,
       7.9952311595453386e+02, -1.2885481374527912e+00,
       5.1736016327921072e+02, -9.0058859018069282e-01,
       7.8660493531710949e+02, -1.1317190795835941e+00,
       1.5786035026744314e+03, -1.1473982414976724e+00,
       8.7554111634227115e+02, -1.1606388736954036e+00,
       9.4568340994108212e+02, -1.1869681503737695e+00,
       3.1480671731630326e+02, -7.6660020033174836e-01,
       2.8354307090171704e+02, -7.3962469275544906e-01,
       1.3496690915644306e+03, -1.2732940554117065e+00,
       1.2594201637753465e+03, -1.3746730982250248e+00,
       5.6038041084646693e+02, -3.1030913190235337e-01,
       5.7387345999071010e+02, -1.0791194519413658e+00,
       9.2713252626590804e+02, -1.2073487136911469e+00,
       1.2004678294615849e+03, -7.3272279917441119e-01,
       1.2024648059652279e+03, -1.1057950134292125e+00,
       1.0374012859871618e+03, -1.7921765744104055e+00,
       7.4167599653905245e+02, -1.0894484625550211e+00,
       4.6547842263694537e+02, -5.2394430091011590e-01,
       8.3863254837232057e+02, -1.5297330290815798e+00,
       9.2322318710640172e+02, -1.1855843729807582e+00,
       1.1536965751950220e+03, -8.1457487016215735e-01,
       9.7066854209143764e+02, -1.3378968520948153e+00,
       1.2816885519618017e+03, -4.0503270705020877e-01,
       8.6225332384654996e+02, -7.2306020472645527e-01,
       1.0135098791769429e+03, -1.5500168054109789e+00,
       1.0622712782309136e+03, -1.3931069247641439e+00,
       1.1571277823612547e+03, -1.2608211135490224e+00,
       1.0370095685876404e+03, -9.9226086718211248e-01,
       9.8908841625695572e+02, -1.0884701854367265e+00,
       6.9683727901712371e+02, -8.7046106370828236e-01,
       7.2008630101862150e+02, -8.5267739852487956e-01,
       9.8166568355051879e+02, -9.2484080068361474e-01,
       7.9382850812589379e+02, -9.9314506450639395e-01,
       6.5267530333622358e+02, -1.1067128092859757e+00,
       1.7922939300586286e+03, -1.2151876353314142e+00,
       1.1201882107087474e+03, -1.3086136428793400e+00,
       4.7456173215167394e+02, -1.0024699313805543e+00,
       1.0830271970157221e+03, -1.1129300317981690e+00,
       1.4250254037445914e+03, -1.0206956267477818e+00,
       1.1325048261342915e+03, -1.1974646368091491e+00,
       3.9583807196664145e+02, -7.4000398619148355e-01,
       7.9444616230456120e+02, -8.2865484926407451e-01,
       1.1657214551940860e+03, -1.2823980290045296e+00,
       7.8396283606128031e+02, -1.2289964289367585e+00,
       1.1256453134071610e+03, -1.0311203834704461e+00,
       2.4003247810835666e+02, -4.2516454284817573e-01,
       1.2540643318232676e+03, -1.3338829313588572e+00,
       1.2213698293370549e+03, -9.3540419031802291e-01,
       9.7628747113766735e+02, -1.3089341016372846e+00,
       1.3300998672891690e+03, -1.4220025728865548e+00,
       6.4310992509086361e+02, -7.4436991732646551e-01,
       6.2044615555658470e+02, -1.4297550825022607e+00,
       7.1454192754517396e+02, -1.0754044514902679e+00,
       9.5061017330844959e+02, -1.5165572956649298e+00,
       1.0228814379267468e+03, -1.4188613020816065e+00,
       1.4129584471889173e+03, -1.0768034156277759e+00,
       6.0886957571228254e+02, -1.1877876013647879e+00,
       1.3364426255888920e+03, -9.2286880194548793e-01,
       1.6153765121090000e+03, -1.0724564569253523e+00,
       1.4877073357628124e+03, -1.1603491232980685e+00,
       9.1069084096437746e+02, -1.6067787155099871e+00,
       8.6057240256847490e+02, -1.5171844586109717e+00,
       9.2762559817014426e+02, -9.3644489417391197e-01,
       9.2078113449990553e+02, -1.2418924756155416e+00,
       9.1225311578190065e+02, -1.4465017540650111e+00,
       8.2979959809148500e+02, -9.0493791989735384e-01,
       8.3304524033247583e+02, -1.1067955837188408e+00,
       1.2891898486862926e+03, -1.3143471311134036e+00,
       5.7094893727553949e+02, -1.1519085905318041e+00,
       9.5598032299814406e+02, -1.4248108208198225e+00,
       4.0825246348691098e+02, -2.9657417872307268e-01,
       1.1854233762021609e+03, -9.8514665778673938e-01,
       5.3799230241292707e+02, -9.1070731597272736e-01,
       8.5647247539307216e+02, -1.1138725485924810e+00,
       1.0547716880361108e+03, -1.5470759151264988e+00,
       8.3437872401433617e+02, -7.3697375259213938e-01,
       3.2223846177731542e+02, -5.3783452766718809e-01,
       1.0951671850147593e+03, -1.4728023415748959e+00,
       1.2548186632516827e+03, -1.6982339989369410e+00,
       1.0918290923469181e+03, -1.5245135339776643e+00,
       1.1258301268025316e+03, -1.1954443010076639e+00,
       7.1560960432476361e+02, -9.3245514715433020e-01,
       1.6989963861322178e+03, -1.2449692565373334e+00,
       1.0452560320664993e+03, -1.0393116300694274e+00,
       5.7182467219451507e+02, -8.8048941581556639e-01,
       1.2484008084002244e+03, -1.5397895981088492e+00,
       6.2843826116527157e+02, -1.0448868172557073e+00,
       1.6864493440694862e+03, -8.5462104636083791e-01,
       1.1881286677706044e+03, -1.1578065366906010e+00,
       1.2031011144897466e+03, -1.3819397056377341e+00,
       1.3940054669971107e+03, -1.5802683726358784e+00,
       1.0082274463289419e+03, -1.5509054803705249e+00,
       1.1770099612297806e+03, -1.2490359230781172e+00,
       1.1577497444612234e+03, -1.4239564698676488e+00,
       7.1677593785680551e+02, -9.0596197471936801e-01,
       9.7979144771187896e+02, -1.3268457262908764e+00,
       6.6937271309512823e+02, -9.9956243118218946e-01,
       1.1051127705867104e+03, -1.4829925598568565e+00,
       1.0196356039382980e+03, -9.1953683765288063e-01,
       7.9985475957780523e+02, -1.2084113258873979e+00,
       8.4358123143082184e+02, -1.0186280506609406e+00,
       1.3431192479595977e+03, -9.7954681876605287e-01,
       7.2880355863437876e+02, -5.9476797491326194e-01,
       1.2311318171630348e+03, -1.2745759969171064e+00,
       1.3605812481228206e+03, -1.3415284310739872e+00,
       1.3132619481880938e+03, -1.0030725407549044e+00,
       8.6832986090432837e+02, -8.5438874107059581e-01,
       1.2226622846995208e+03, -1.3938085135642242e+00,
       1.1545191109821776e+03, -9.0494283686436061e-01,
       9.3488175573308877e+02, -1.0392477956198936e+00,
       8.3930051703787012e+02, -6.7934441008804058e-01,
       8.6730516261965658e+02, -1.0174355586313160e+00,
       1.0737037365929459e+03, -8.5640667641830137e-01,
       7.0824889356091512e+02, -1.0164536625973772e+00,
       7.0876560968135448e+02, -1.0864663774059276e+00,
       1.2382292831858115e+03, -1.0409467422869443e+00,
       1.0822672220433137e+03, -1.4083626940470495e+00,
       1.1375760996289628e+03, -1.3682897196630388e+00,
       7.8960666055440402e+02, -1.3221340382599831e+00,
       1.2546033790388117e+03, -8.2000363153120104e-01,
       1.1720500883214129e+03, -1.1106414565581968e+00,
       1.0853807057558392e+03, -1.4157385253440424e+00,
       1.3417905464156909e+03, -1.4175468984008615e+00,
       1.5678637512392188e+03, -1.1708097258519581e+00,
       9.0333920511708232e+02, -8.1819020625653871e-01,
       1.2946839367851510e+03, -1.5769975259822595e+00,
       1.0660627579287168e+03, -9.8119914185096402e-01,
       9.2798444508210503e+02, -1.1488908153526967e+00,
       8.6076776004589715e+02, -1.5777570895023714e+00,
       8.7776978054672441e+02, -1.2227692644405208e+00,
       1.2347830478367100e+03, -1.0268363614768621e+00,
       1.3629839015844814e+03, -1.1692733834424094e+00,
       1.3201597915799146e+03, -1.3097013625285150e+00,
       8.2233563817205959e+02, -6.4173400613403397e-01,
       1.2696699934639973e+03, -5.0137833161523992e-01,
       1.4552354303234822e+03, -9.5154585016188920e-01,
       9.0492329290021337e+02, -1.1019756693943485e+00,
       9.2041345627263172e+02, -1.1287176028362169e+00,
       9.9920482340618457e+02, -1.1461482441644459e+00,
       1.2957823095034162e+03, -1.2191243711959447e+00,
       1.1337197017785779e+03, -9.8279124907935422e-01,
       6.5164825507439457e+02, -6.8606925010147379e-01,
       8.2228425813768263e+02, -1.1257752896285305e+00,
       1.0353610283704022e+03, -1.4719565217444608e+00,
       6.0302025896190003e+02, -1.3085037004757878e+00,
       4.2977006912751665e+02, -7.4701135718388179e-01,
       1.2473377219801039e+03, -8.9037206117466239e-01,
       9.8345900733718611e+02, -1.2046304071772218e+00,
       9.3385347224378711e+02, -1.0225868965865834e+00,
       8.4211442097164706e+02, -9.6588932196416788e-01,
       1.1949823410032188e+03, -9.5734169449880313e-01,
       1.1432228923756438e+03, -9.5964612754749035e-01,
       9.3479637384011289e+02, -1.2864891454275666e+00,
       7.4224389512710593e+02, -1.3063318076319770e+00,
       1.0598643782307890e+03, -1.4462399440970053e+00,
       1.0986099929497370e+03, -1.0913034137205881e+00,
       9.0696163612523583e+02, -1.2175475010923726e+00,
       1.0889168979201227e+03, -7.0718628841994768e-01,
       8.2943210450607137e+02, -9.4343280331561341e-01,
       1.0292875310413219e+03, -1.1682452032280082e+00,
       7.3270075888125086e+02, -9.3935994189446004e-01,
       1.2720056176596909e+03, -1.3228966699902363e+00,
       9.4660737670624962e+02, -1.1754306993961421e+00,
       9.2683312279106894e+02, -1.0743278671199927e+00,
       1.3675265789343248e+03, -1.3223370679732336e+00,
       8.5435806819797938e+02, -9.8293771558798182e-01,
       6.4389618347238115e+02, -1.0200494222758614e+00,
       1.0419554031255909e+03, -1.1209216555785870e+00,
       1.0922562958285171e+03, -1.3944793020706383e+00,
       9.2875523998937899e+02, -1.1324553800653760e+00,
       8.1713786412123397e+02, -9.4069622032184375e-01,
       8.8849972282487272e+02, -1.4222529571478011e+00,
       8.4636294345661486e+02, -5.2714239639327942e-01,
       1.4453361783633827e+03, -9.4002341883325113e-01,
       1.2723322724009251e+03, -1.2317878437099217e+00,
       1.0879200326164084e+03, -1.1220386930264989e+00,
       5.9946037076371442e+02, -7.4460591711262269e-01,
       7.5323407402748899e+02, -1.0171122269160593e+00,
       1.3717061764429625e+03, -1.1104689141317980e+00,
       8.2099008170127922e+02, -1.4032089525362903e+00 ]
   output_scale: [ 1.0526315789473684e+00, 0. ]
   inv_output_scale: [ 9.4999999999999996e-01, 0. ]
   weights:
      - [ -1.2761954983614332e-01, -2.2195905406808582e-03,
          -4.9943252595338432e-02, -2.3423551208326114e-02,
          4.1702172463385326e-02, -1.4406910370829428e-02,
          -1.9135681009856016e-03, 2.7664936758021702e-02,
          -1.6413440394663328e-02, 4.0253496680262716e-03,
          -9.9065808765653032e-02, 2.8091414270616625e-02,
          1.3231812982632217e-03, -2.7614582179171603e-02,
          3.8361574064983681e-02, -3.0511110060392237e-02,
          1.7635297311312234e-02, 2.6684942061804908e-02,
          -1.9368207948317180e-02, -2.2730658997989192e-02,
          -8.3860577771884298e-02, -3.7896297902927908e-02,
          6.5071277915682749e-02, 6.0683276304644852e-02,
          4.9358232633871416e-02, 5.3741823457617882e-02,
          -4.4302243579389090e-02, -6.1968431030710022e-02,
          -1.8157886762118849e-02, 4.0371483478979592e-02,
          1.1259560832588849e-02, -7.0584783506532234e-03,
          4.2013146036254126e-02, 2.4484367951031833e-02,
          8.5687206398306279e-03, 1.7886728078850864e-02,
          -5.5857524243373364e-03, -2.2519981803434855e-02,
          -1.8431918630509143e-03, 4.2217379460445870e-03,
          -9.7301134789147536e-02, -1.0249036392151042e-02,
          1.0800745377386189e-02, 7.6513531509484218e-03,
          4.4226636251382984e-02, 9.0248759889824670e-03,
          -2.3604529728573995e-02, -1.1250515918410000e-02,
          -3.3834760211897984e-02, 1.6724450610020064e-02,
          -1.6378921300659589e-02, 3.9245944543163193e-02,
          -5.0652054595806378e-02, -5.8825512286394988e-02,
          -1.6438999807143830e-02, -5.4848480220048318e-02,
          4.6496180366562369e-02, 6.2342210151724191e-02,
          -1.5097161695392187e-03, -4.0589426219226094e-02,
          -1.0514287394254503e-01, -1.4689913190706038e-02,
          -4.1759092407641068e-03, 7.9100543329406366e-03,
          3.0001405589986124e-02, 1.0469144806913144e-02,
          -2.3395295658631441e-02, -6.7546281991186403e-03,
          -3.1563910900530019e-02, 1.6472089575233270e-02,
          2.1806598185846598e-03, 1.3638681484836587e-02,
          -3.1856810108816490e-02, -1.8151493132806510e-02,
          7.8372231677615138e-03, -1.6385078151507457e-02,
          4.0678959086182295e-03, 1.6185330729711296e-02,
          -2.7993088921352141e-03, -1.1542303541874592e-02,
          -2.5341706205199731e-02, 3.3263123249135142e-03,
          -3.4431522778385071e-02, -2.2267531396209721e-02,
          -1.7209387441201988e-02, -1.6575713611445646e-02,
          1.5729435559808534e-03, 2.2226862932700826e-02,
          1.0979169024036639e-02, -5.6097471578999058e-03,
          -4.9971105276397556e-03, 6.6052559734473158e-03,
          1.8742427383094794e-02, -1.5284916397676656e-03,
          -6.6144887619844451e-03, -6.3358928038163929e-03,
          5.1696658541618146e-03, 2.6923028331952690e-03,
          4.4101537643738533e-03, -4.6169711257184965e-03,
          -1.9313918793642866e-02, 7.0700895509226581e-03,
          -1.9316562471126276e-02, -1.0817927363361065e-02,
          -7.0453439225714341e-03, -1.5744917141247910e-02,
          9.7971037761809716e-03, 1.6365250470475670e-02,
          -5.4281494448289534e-03, -7.3556822006039576e-03,
          -6.3961524437769313e-02, -1.9925641534367804e-02,
          -1.0992840574092477e-02, 8.2811472890940846e-03,
          3.2053542675874291e-02, 1.9582463968730309e-02,
          -2.2411146996456886e-02, -1.3676877795165526e-02,
          -4.3865394076868696e-03, 2.1808484338894724e-02,
          3.9135893056334158e-02, 1.7601293367096281e-02,
          -3.3604192928828533e-02, -2.6213702404265925e-02,
          -1.5805131109858865e-02, -2.6080045827852033e-02,
          2.3855600747729012e-02, 2.9940496421161589e-02,
          2.8319405200930587e-03, -2.0791441582660625e-02,
          7.1059752087609340e-02, 5.2968264541392841e-02,
          -8.8042898500244077e-02, -6.7628017228828385e-02,
          -6.6062934393460337e-02, -6.2125445243285372e-02,
          5.9761390287752292e-02, 7.1156210927408314e-02,
          -8.1345728309290682e-03, -5.8697273446329155e-02,
          -1.2105809882359918e-01, -1.0679607585378255e-02,
          -2.2956506449848663e-02, 9.3548146455484961e-03,
          4.6122580039219714e-02, 1.0235179555023609e-02,
          -1.6217847143034512e-02, -8.5179594422546481e-03,
          -1.0963298931760549e-02, 1.1178855613321588e-02,
          9.3306348451483861e-03, -1.9604321285302397e-02,
          3.5124200553907761e-02, 3.6739240779850670e-02,
          7.9237917657863383e-03, 3.0950059107767339e-02,
          -1.3755868898833066e-02, -3.7625004521285386e-02,
          -9.4335714658026803e-04, 1.8026530722887461e-02,
          -2.7725122194056560e-02, 1.1993340321900256e-02,
          -4.6974150523620008e-02, -3.3115334763764027e-02,
          3.9837621583725504e-03, -2.9713547987965466e-02,
          1.9956495764290160e-02, 3.5998437130669574e-02,
          -1.0995838584661225e-02, -1.3326834702973502e-02,
          -2.5778123239897314e-02, 3.5328602975656286e-02,
          -9.9538696603941559e-02, -6.3359132541974075e-02,
          -3.4667365350304361e-02, -5.7306008531370689e-02,
          4.2730515012671104e-02, 6.6469199467371634e-02,
          1.2234274287078042e-02, -3.6418720780370249e-02,
          7.0759508643316787e-02, -1.4724293277161613e-02,
          1.1791658392592450e-02, 1.0045899489636308e-02,
          -3.8548339936351060e-02, 9.3053826906943325e-03,
          -1.6413507049840535e-02, -1.1190529849184826e-02,
          1.9584530080287363e-02, 1.4023151577003736e-02,
          9.7861077758179066e-02, -1.4069174801189896e-02,
          3.7138484410492840e-02, 3.3385768234802819e-02,
          -1.6510531718938314e-02, 2.9419058542311732e-02,
          -3.4583612439653081e-03, -3.3949613229550771e-02,
          9.8749916741653759e-03, 6.6264075580198187e-03,
          -3.2637668180631324e-02, 3.9185881554326597e-02,
          -3.3458300269835442e-02, -4.8306139762406247e-02,
          -8.3402142665950987e-03, -4.6843839366560863e-02,
          2.6137751661418844e-02, 4.2513543258771325e-02,
          -2.4726929925047978e-03, -3.2528438647765612e-02,
          6.6151823476953225e-02, -8.9019506952529841e-03,
          1.0909722006718272e-02, 1.9978730612667490e-02,
          8.8769100941503247e-03, 1.9145464991983042e-02,
          -1.1324103515679279e-02, -2.0726787385033030e-02,
          -1.5519443526493952e-02, 3.4379836546220488e-03,
          -1.3241292541887634e-02, 3.8733488899931293e-02,
          -7.3430209777000210e-02, -6.2713821980975928e-02,
          -1.9712601381456549e-03, -5.9711477038941967e-02,
          5.1472190819699372e-02, 6.5378044615413647e-02,
          2.7802949631036493e-03, -4.4814173498929813e-02,
          3.3823248053134844e-02, -1.6534455474899016e-02,
          1.3966238386857718e-02, 1.9418422769789442e-02,
          -6.5612039755555700e-04, 2.0907549265399537e-02,
          -1.4146473453848400e-02, -1.8703799260681896e-02,
          1.2537346138772641e-02, 1.4170556857183698e-02,
          -8.3678043492439430e-02, 1.7337068348036139e-02,
          -2.0633972884736809e-02, -1.9735545044907071e-02,
          2.4321837156031936e-02, -1.7622954452618599e-02,
          6.4206644533039816e-03, 2.0305014511840868e-02,
          -2.5990157353161167e-02, -1.2473893630538647e-02,
          8.6712156130866996e-02, -7.8971214203778766e-03,
          2.1307766744496911e-02, 1.6676313487193423e-02,
          -3.5470106529002746e-02, 1.8503818165588177e-02,
          1.5215198237297431e-03, -1.8503446036072541e-02,
          2.5832938523615352e-02, 4.0202537893059666e-03,
          8.0830022778320285e-02, 1.4338283544875990e-02,
          -7.8529971750624830e-02, -3.1105103093522331e-02,
          -5.8489306791552856e-02, -2.5134752015395116e-02,
          2.0861230538453929e-02, 3.4561695143630056e-02,
          3.0942118482008684e-02, -1.4251157543905837e-02,
          -1.4639824958491202e-01, 2.3197514675382083e-02,
          -1.0014394514140330e-01, -6.5026289345353913e-02,
          3.6910379381646541e-02, -5.1087880945455480e-02,
          1.2850694000588770e-02, 6.4832818830325087e-02,
          -3.5543005649433281e-02, -2.1542612362743577e-02,
          -3.4978392787411929e-03, -5.5092595269198982e-03,
          -2.9164291749539120e-02, 1.4254722455929987e-03,
          2.3290588105449657e-02, -3.0356086754670058e-04,
          -8.9707938191367961e-03, -5.2894358767100272e-04,
          -2.2244848937869191e-03, 6.9688712633364557e-03,
          5.9820372272360707e-02, -9.3469471785839406e-03,
          -1.7307287020026246e-02, 6.9313242539631274e-03,
          -8.8444253467484264e-03, 8.4942840004264761e-03,
          -4.2895023006607981e-03, -6.1368279017550622e-03,
          1.6704282731119662e-02, 1.1005379685997324e-02,
          5.7544776051588607e-02, -4.4540393607434611e-03,
          2.6585342497694672e-02, 3.7873103505750298e-03,
          -7.1460733945505018e-03, 2.2047201642905293e-04,
          7.1780869193573788e-04, -1.1116845645575779e-02,
          9.7142904560024480e-03, 5.0593504599649791e-03,
          3.1977371850567385e-02, -3.4845717511329459e-03,
          -5.2153657537085058e-03, -1.2071415943294177e-02,
          1.9311078526441774e-02, -2.3055935500198334e-03,
          -1.8403763269737826e-03, 8.7646732080052941e-03,
          -1.2319204832796879e-02, 4.3160833742807885e-04,
          -9.7364436581936064e-03, 3.9647001854923599e-04,
          -2.9308000849645161e-02, -1.7103794250593003e-02,
          -2.3366284505451397e-02, -1.2436961529200007e-02,
          1.0054971016486024e-02, 1.4605594520496470e-02,
          1.2118726204579534e-02, -2.1544286361790217e-03,
          -5.5159920862703993e-02, -1.6939950445126712e-04,
          2.8301574758508141e-02, 8.4980680798409074e-03,
          1.6745953270603089e-02, 2.6336712665772639e-03,
          -8.7141020200678290e-03, -9.0624174001816219e-03,
          -1.5932161333650944e-02, 5.4796916650496691e-03,
          7.0927468456197837e-02, -2.4373953195364322e-03,
          3.1095740220091726e-02, 2.2709192043886092e-02,
          -4.0735849525320104e-02, 1.3392514069019779e-02,
          1.5328951118663709e-02, -2.0150041865556835e-02,
          2.8076414540459404e-02, -3.0107548057336096e-03,
          -4.5716428293375279e-02, 6.9323936961688832e-03,
          6.4266987099666384e-02, 2.7604289420917541e-02,
          3.9779829466261220e-02, 1.4791169639722400e-02,
          1.5585332308398398e-04, -3.1806667399166925e-02,
          -1.0936818563325981e-02, -1.6402169183786226e-03,
          -3.3678203667422872e-03, 7.1659530777983026e-03,
          5.8091935806983651e-02, 7.8960194532311616e-03,
          -1.5141332507653276e-02, -2.8190301874776720e-03,
          9.8812777213205943e-03, -1.0454500295327868e-02,
          8.9011042938533843e-03, -7.2125021925540959e-03,
          -1.9597972578422287e-02, 2.6062081192606543e-02,
          -1.0378941782660139e-01, -6.3530628327925803e-02,
          -2.9266163468062472e-02, -5.5098046485557391e-02,
          2.2347362240412783e-02, 6.3888352450172617e-02,
          6.5359349270710364e-03, -2.5553760402077515e-02,
          -2.5111720304790443e-02, 6.0098869240475264e-02,
          -1.7162900179260238e-01, -1.1379275837779498e-01,
          -4.5834882872317149e-02, -9.6575052441991174e-02,
          6.2221041478802454e-02, 1.1613421099631294e-01,
          -9.3342110099071431e-03, -6.5081637346678559e-02,
          -4.7650835365212217e-02, 2.1770647317367518e-02,
          -6.2892791476349519e-02, -4.2811291889794378e-02,
          4.1125364471506420e-03, -3.4766404597482654e-02,
          2.5608346204871367e-02, 4.0763158584635639e-02,
          -6.3188904038270193e-03, -2.2728993392685505e-02,
          -1.3835843229107173e-01, 1.1949131793914582e-03,
          6.5022574134166872e-03, -2.8772864949922800e-03,
          6.9350567495994359e-02, -3.1213623725716936e-05,
          -1.0959434630781004e-02, -1.4978087388800760e-04,
          -4.3519701975750884e-02, 2.7489263178612122e-03,
          -4.3065909708580964e-02, 2.3767255241442495e-02,
          -7.4336133087893635e-02, -4.6450711549837792e-02,
          6.5003181826970916e-03, -3.7767260541381312e-02,
          1.7857982118606286e-02, 4.5734666365974661e-02,
          -1.2878261324822499e-02, -1.9063073564774113e-02,
          6.3232812214131058e-03, 5.4266807189128085e-04,
          4.8888839568572283e-02, 3.0303548991397960e-02,
          8.7627042163970510e-03, 1.3333974487618874e-02,
          -7.5385864034056740e-04, -2.6727645041663192e-02,
          6.5003461122063403e-03, 1.4487821618943170e-03,
          2.2498073323183196e-02, 7.5074660979917570e-03,
          -2.3581855760668353e-02, -2.4503197096984713e-02,
          -3.2441975146381176e-02, -1.8874066635675937e-02,
          5.3895137726265117e-03, 2.2979666373420953e-02,
          1.5707315317577356e-02, -7.6524616645706504e-03,
          4.8688013521858746e-02, -1.3144336704698625e-02,
          1.6494189088542777e-02, 1.9034316941754784e-02,
          -3.3831585061004504e-03, 2.0838215335297991e-02,
          -1.2578876559386169e-02, -2.0137830199428167e-02,
          -4.9826695081653415e-04, 1.4417223456854559e-02,
          1.0373599527291696e-01, 8.3805867122440682e-03,
          -1.3826309272891305e-02, -9.1677003687092272e-03,
          -4.4689196394893910e-02, -9.5621556682272246e-03,
          1.5431954863766108e-02, 7.9990362775005392e-03,
          2.1991941005785661e-02, -9.1278349551814301e-03,
          1.1374373083615075e-01, -3.5088126089175757e-04,
          8.3369090276621510e-02, 3.7991664436462985e-02,
          -3.5726698278597556e-02, 3.0704105783710404e-02,
          -1.8405103310276478e-03, -4.0826200476938579e-02,
          -4.2724035108128019e-03, 9.2485269896637164e-04,
          7.4240650717852005e-02, -4.7937648629285998e-02,
          6.1552051399977721e-02, 8.0501033116311488e-02,
          8.8855535462818973e-03, 7.1476332152839703e-02,
          -3.2007620098894261e-02, -7.2191233657294560e-02,
          1.3360437198631555e-02, 4.0570826470113362e-02,
          8.4792243978445078e-02, 1.2355179879884446e-02,
          1.2517849592493512e-02, -1.5377895227061430e-03,
          -6.0806569962178307e-02, -4.2712143612696355e-03,
          2.0048521029197505e-02, 2.5544841728297281e-03,
          2.4661939316402315e-02, -1.8969239011719815e-02,
          -8.9544380016769634e-02, -3.5476195633605732e-02,
          7.0760492514833032e-02, 5.0778486534901190e-02,
          6.7379604561913664e-02, 4.6119046643604500e-02,
          -3.1604620257880314e-02, -5.0769730146246334e-02,
          -2.5719502547920110e-02, 3.7625220413291915e-02,
          -8.5838541445327640e-02, -3.9696988447501920e-02,
          4.2002214207451184e-02, 5.5200199731346898e-02,
          7.0510932900335679e-02, 4.9808369109882192e-02,
          -4.3849271710159593e-02, -5.4494105591468223e-02,
          -5.0450026367910815e-03, 4.4077428821466619e-02,
          -3.3565133833522269e-03, 2.7604573572691780e-02,
          -7.1788790027200691e-02, -4.6720098603455683e-02,
          -2.0922917320327718e-02, -4.2574375010337742e-02,
          2.1555604275471825e-02, 4.9476272788010360e-02,
          -1.7109642476703889e-02, -2.5442117014245764e-02,
          1.0505254303367160e-02, 8.3480663092242481e-03,
          -1.4051581006771677e-02, -1.9662609705011901e-02,
          4.7425359805878878e-03, -1.4408304862822106e-02,
          5.1030176952506544e-03, 1.3107072485425468e-02,
          2.6011331956440338e-03, -1.2525914888986110e-03,
          -5.5650478202499624e-02, 9.0473339589099300e-03,
          -6.4189267535204653e-02, -3.0772288320270576e-02,
          5.2190267241466288e-03, -2.7908713661402986e-02,
          1.0922152821398481e-02, 3.1635664710067887e-02,
          1.0080843813469581e-02, -9.8197393332721313e-03,
          2.9752468679994443e-02, 3.7474163995545644e-02,
          -6.7691138360716815e-02, -5.9964912107992277e-02,
          -1.3682108395155393e-02, -4.8453042561016402e-02,
          3.0297323832241808e-02, 5.2343361999024486e-02,
          -9.0867916392462326e-03, -3.2559784066215160e-02,
          -7.6812280816538989e-03, 4.0170735532340796e-02,
          -7.5402496562246027e-02, -6.9336258511767959e-02,
          -3.3175742783106137e-02, -6.2886640120889112e-02,
          3.8357177099745815e-02, 6.6436112236063244e-02,
          -1.8354102149037783e-02, -4.1202062986092448e-02,
          -1.2923704164869721e-02, 1.3618539340527615e-02,
          -2.0301650150244880e-02, -2.3142670693352449e-02,
          -1.6160819449598740e-02, -1.7762479951939518e-02,
          1.4396715176418978e-02, 2.0927317864156549e-02,
          9.8661289586683028e-03, -1.4075067303094695e-02,
          1.0103542191483901e-01, -1.5037544476247740e-03,
          -2.7461412422115413e-02, -7.9012607612298242e-03,
          -2.9518623094298115e-02, -8.1053467994476169e-03,
          8.0523973601940909e-03, 1.0245287356037068e-02,
          2.6233479638363939e-02, -1.1268837079486797e-03,
          -2.5565236797185566e-02, -1.6850220252329396e-02,
          -2.5395034240427480e-02, 1.1129301174058344e-02,
          2.2977333222127635e-02, 1.5171457979773057e-02,
          -8.2518607460469462e-03, -6.9229802396120216e-03,
          -1.5126047788882213e-02, 1.4184673132229370e-02,
          2.8571840363786137e-03, 1.3806942628065377e-02,
          -2.3990559064404515e-02, -1.5671395103975472e-02,
          -3.5180235457362048e-02, -1.0447973647449278e-02,
          5.5078825227898812e-03, 1.4453304008541876e-02,
          -1.4142276105293559e-03, -1.3477228508232207e-02,
          1.2646855255002468e-01, 1.8213336581151659e-04,
          3.7467820859944621e-02, 1.7157906859738618e-02,
          -4.9573424093148348e-02, 1.3714846145844567e-02,
          -6.9879045536189828e-04, -1.7875671822818837e-02,
          7.2041442117199194e-03, -3.4182775048024691e-04,
          -1.1340299970493378e-01, 1.6838578404892005e-02,
          -2.7753903238234120e-02, -2.6200338621129894e-02,
          2.9978980793609628e-02, -2.5167921057941516e-02,
          -6.4630683247276109e-03, 2.6366607354967243e-02,
          -1.0860930407161747e-02, -7.3929645693605588e-03,
          -6.1665123827643144e-02, -3.6523030826645368e-02,
          4.4031661416077013e-02, 4.4788351060872027e-02,
          3.7487755030582187e-02, 4.5135234181291541e-02,
          -3.0861435011319618e-02, -3.8404294899729220e-02,
          -1.0779176882379258e-02, 3.5127372209761053e-02,
          -6.0575752532246459e-02, 4.8375765409056172e-02,
          -5.8906580178782114e-02, -6.5438083487371360e-02,
          1.6426842160320958e-02, -6.3294185274665071e-02,
          4.2762735523621594e-02, 6.7220715815775017e-02,
          -1.6636187827471442e-02, -4.4964055041533064e-02,
          -3.0908810588903213e-02, 1.6176516027538460e-02,
          2.3746494679507063e-05, -1.0213765190363471e-02,
          -5.5697998746849463e-03, -1.0109249971930910e-02,
          2.6357274067066853e-03, 5.5413101174639151e-03,
          -2.7805406707567551e-02, -1.2046272737846191e-02,
          -8.2104874112184256e-02, 3.9018720375646881e-02,
          -1.4403713365069290e-01, -7.4773714544702746e-02,
          2.5299549998661436e-02, -7.1075889619947250e-02,
          3.6637511258515783e-02, 7.5933162385627612e-02,
          -1.1383446492259244e-02, -3.9365917031893349e-02,
          -7.3894702055304684e-02, -3.7753944897889490e-02,
          6.2458567566261454e-02, 6.3165259989089520e-02,
          6.7425102995911257e-02, 5.3704674840700552e-02,
          -3.8117220871159763e-02, -6.1641032078640294e-02,
          -9.9156044308028376e-03, 3.8334279690594761e-02,
          -5.5463219408962469e-02, 3.4179104931531402e-02,
          -4.7055747500403929e-02, -5.1021851506633797e-02,
          3.1531362006902070e-03, -4.5955900926422634e-02,
          1.8086834341443838e-02, 4.2873302093980561e-02,
          -1.7792651151625118e-02, -2.5540980268450020e-02,
          3.5142515499352683e-02, -2.0852987348143476e-02,
          3.2833247903305059e-02, 2.4457218557129363e-02,
          4.0673877786140756e-03, 2.8778933677561961e-02,
          -1.5008139232386244e-02, -2.4528163251000452e-02,
          -3.2926587604662646e-03, 1.7918639068250888e-02,
          2.2718650420124515e-02, -1.8700768062987504e-02,
          1.0208359954763267e-01, 5.4991043427262604e-02,
          2.6137624584993472e-02, 4.4411198266879406e-02,
          -1.7755209284060259e-02, -4.9452527646306969e-02,
          -5.1462769225128170e-03, 1.5645569021729231e-02,
          7.1571953992855611e-02, -1.7840769855920941e-02,
          -3.6726616375429232e-03, 3.1366346188873614e-02,
          -4.1371732708905096e-02, 2.7688757053183657e-02,
          -5.1529698582973692e-03, -2.3108793305330149e-02,
          1.2912752598132174e-02, 8.0996448250643723e-03,
          3.0689674083642779e-03, 2.6111285939101711e-02,
          -1.8447363769533997e-02, -2.1335219575731493e-02,
          -1.9969788639157510e-02, -2.5684213629944021e-02,
          1.9340239924330094e-02, 2.1921664214768277e-02,
          -1.3221011923274645e-02, -2.5507731170661008e-02,
          4.5845875773412294e-02, -1.2098312717277208e-02,
          5.9615215371734358e-02, 2.3004452882024615e-02,
          7.8565512429000020e-03, 1.9334497960538637e-02,
          -6.9552251081895205e-03, -2.1459828398845086e-02,
          7.2928163733265994e-03, 9.2107639549601147e-03,
          -2.1785767876355853e-02, -3.0288659855737032e-02,
          8.8919946211558493e-03, 2.8802626447149066e-02,
          3.1566471739121471e-02, 3.6434203039730433e-02,
          -2.8587860336683847e-02, -2.5684939203077115e-02,
          -8.8127464425041407e-03, 2.9733709458499971e-02,
          1.3396326169891105e-02, -3.1269377599430289e-03,
          1.0860689149191491e-02, 1.2590306768324070e-02,
          1.4026644218022891e-02, 8.2899953011694224e-03,
          -4.9417958813925498e-03, -1.0400603639039612e-02,
          -8.5069993169617063e-03, 3.7062955956548697e-03,
          -3.4995784445146304e-02, 2.7875337011115279e-02,
          -2.5112940833316090e-02, -3.6735468906569764e-02,
          2.4807812157452594e-03, -3.3001246117626039e-02,
          1.8431568309514163e-02, 3.8784770792879356e-02,
          -2.0882004178070537e-02, -2.4195967361294878e-02,
          6.1968169511490132e-02, -2.0065523920153809e-02,
          2.6026548247386590e-02, 2.5538795516698208e-02,
          -5.0321612059773171e-03, 2.5696673666899171e-02,
          -1.2244375676791833e-02, -2.5384192517451491e-02,
          6.7953805621893855e-03, 1.9614597868625544e-02,
          2.7023875168522511e-02, -3.1900099748807978e-03,
          5.8571634594929846e-02, 3.2003146819461266e-02,
          -3.8543064192166999e-02, 2.4182894769709449e-02,
          2.7451768227238714e-03, -3.1202906160298954e-02,
          1.0906369243795042e-02, -7.9942443026404070e-05,
          3.8135865777397852e-02, 1.6762384873478219e-02,
          -3.1441430458082495e-02, -1.9919504603860168e-02,
          -4.2911260810325987e-02, -2.2992518261323678e-02,
          2.8620134535159793e-02, 2.2882348780311805e-02,
          -5.4802637651506711e-03, -2.5134838395633199e-02,
          2.6234416593461381e-02, 2.0597532893716259e-02,
          -3.8236098433730471e-02, -2.9780781876408067e-02,
          -4.6706373014078095e-02, -2.5800643017865235e-02,
          2.6916871904070484e-02, 2.8351376327953506e-02,
          1.9790607299697862e-02, -2.1063124416734632e-02,
          4.4747046120823537e-02, 5.1011832900016397e-04,
          3.5447077250876258e-02, 1.3996681823959063e-02,
          -1.8430881105097746e-02, 1.0645879218987873e-02,
          -4.7348283088617729e-03, -1.6101018420096855e-02,
          2.0406636246585500e-03, 5.2119638512426528e-03,
          -8.7028259213295604e-03, -2.9076525352081023e-02,
          -1.4310224174522647e-03, 2.4078653305843408e-02,
          2.6603307604388293e-02, 2.5961267421940208e-02,
          -2.0159446759681628e-02, -2.1127390917889299e-02,
          1.7984900154203105e-03, 2.4376553361413315e-02,
          -4.6463355957842005e-02, -1.5007296610215387e-02,
          2.7417902665811518e-02, 1.6672028957764949e-02,
          2.1574320730945094e-02, 1.4156416746962943e-02,
          -2.1060948279745299e-02, -1.7036519831124957e-02,
          -1.6498541717114155e-02, 1.1542049803166837e-02,
          9.2154049040213445e-02, 2.7153870172295241e-02,
          3.6555894836069212e-02, -3.9777579096830235e-03,
          -6.1371543268720193e-02, -1.4756257208928165e-02,
          2.7603701028111480e-02, 7.1459402459354742e-03,
          1.4504773345502230e-02, -2.9024370123687429e-02,
          -7.4276424498317187e-02, 9.8674632128870308e-03,
          -5.5394136463767021e-03, -2.5271426749301412e-02,
          1.2034226876906541e-02, -2.2550820491493175e-02,
          1.0083708616149984e-02, 2.8334336953971816e-02,
          -6.1245114727083915e-03, -1.1392313719351677e-02,
          3.7548138452562718e-02, -1.1145237327101482e-02,
          2.6689977841301255e-02, 2.0320888998264678e-02,
          -1.6470382836909211e-02, 2.0882095584752347e-02,
          -1.2204760568829787e-02, -2.8472257649748596e-02,
          8.7720788510400934e-03, 1.0808006888904849e-02,
          -4.7839727492431559e-02, -4.8315134854462448e-02,
          -4.6235191138792623e-03, 4.8490220250560302e-02,
          2.5843767199878256e-02, 4.8467393833474925e-02,
          -3.1629817044305064e-02, -4.6226934936571124e-02,
          6.1596500492138188e-04, 3.9627835277318932e-02,
          -7.4136030804005382e-02, 6.0044885988710377e-02,
          -1.6882085817221859e-01, -1.0545337557515673e-01,
          -1.8072276458363998e-02, -9.2357294773083257e-02,
          5.5035682434552390e-02, 1.0646130279882089e-01,
          -3.4793701340588887e-02, -5.9583215629902882e-02,
          -2.5916052027059967e-02, -1.8680385325301679e-02,
          -2.4655131945920269e-03, 9.8511982832856886e-03,
          -8.2681820990962804e-03, 1.2914936223899633e-02,
          -1.1357167341507423e-02, -5.7208466278297256e-03,
          1.2064420311162206e-03, 1.4858505429751118e-02,
          8.7863204198671357e-02, -1.0848140552001726e-02,
          7.4425459322942974e-03, 7.9803113225051132e-03,
          -7.1418810312008267e-03, 1.0107561928493901e-02,
          5.4060752584404242e-03, -8.6245061456843904e-03,
          7.5506024010783320e-03, 4.1741633589044685e-03,
          -6.8547326617109397e-02, 2.6150897727100018e-02,
          -6.2056191819215081e-02, -3.7659831938397843e-02,
          1.0868158346507022e-02, -3.4349984743290117e-02,
          2.1656972810608670e-02, 3.9631135934506116e-02,
          -1.9917808351918236e-02, -2.6262159421014290e-02,
          -3.1694309402491676e-02, 1.8581188474025932e-02,
          -2.1172961640851841e-02, -2.4698585496121944e-02,
          7.0316870232501796e-03, -2.7677934383336100e-02,
          1.2695003927885654e-02, 2.3504196636333519e-02,
          -1.0295712999019423e-02, -1.5879092317684206e-02,
          -8.3767503139542634e-02, -5.9425951164293611e-03,
          -5.4799062063689316e-04, 8.9956195894236087e-03,
          1.7165246990738316e-02, 3.5988489306008090e-04,
          -2.3085868376155820e-03, -2.7015233032761719e-03,
          9.4988968377494323e-04, 2.9425625148204746e-03,
          -3.2642625330265580e-02, -1.2047358879338390e-03,
          -1.7083632977133396e-02, -1.1273846660447562e-02,
          1.1476320018622463e-02, -9.5027468682258014e-03,
          -6.5188777104650201e-04, 1.2239668743162404e-02,
          1.5321251088968302e-02, 3.6201454765594932e-03,
          -2.0233518303606854e-02, 1.0890140692554359e-02,
          -2.1540160539096534e-02, -2.7974373122725032e-02,
          -8.2574407905720293e-03, -2.3748170240170601e-02,
          1.5749769082843878e-02, 2.7816872055632717e-02,
          -2.7495230918446125e-03, -1.5427545604957411e-02,
          -1.4502917585977349e-02, 3.2667261304631439e-03,
          -3.5077174439419205e-02, -1.0147615779508993e-02,
          9.5580637931254268e-03, -1.2002734730914705e-02,
          -5.6846104104620538e-03, 6.5140658050592383e-03,
          1.0950947177294868e-03, 3.0598144261703981e-03,
          1.6042463780293604e-02, -1.0025377603128953e-02,
          -9.3238645863163681e-03, 5.4152158765363341e-03,
          -7.1779606213183567e-03, 9.7576982531840314e-03,
          -1.2474862745181619e-02, -8.2290667030000524e-03,
          1.3905692094562791e-02, 9.4572319153191364e-03,
          -6.1748983763141004e-03, 2.4276483847714855e-02,
          -3.1957771266180518e-02, -3.4158878636870588e-02,
          6.7354971714881015e-03, -3.1595217596681817e-02,
          1.3481696100146282e-02, 3.1862808617367823e-02,
          -8.5702387012285639e-03, -1.7677180281537863e-02,
          -1.7301479113303906e-02, -1.7662387953160066e-02,
          3.8620721573550183e-02, 3.0867876081946011e-02,
          2.3369250933037867e-02, 2.5899077405786220e-02,
          -2.0832570629853470e-02, -3.0699636275820719e-02,
          -1.3624120183337647e-02, 1.6202087806681181e-02,
          -2.0252597694394871e-03, 3.7546688200287481e-03,
          -6.6675157713851588e-02, -2.4896389367200907e-02,
          -4.6385377510342841e-03, -1.3942657395114442e-02,
          1.3264474094191894e-02, 2.7582896898821332e-02,
          1.3481946176533890e-02, -8.0473110618364402e-03,
          7.2292640576596137e-02, -3.9542670095571684e-03,
          6.4801111570777045e-02, 4.0002447274271671e-02,
          -8.0133315136980705e-03, 2.7326062998536634e-02,
          2.7246104860495818e-03, -3.7031561049498805e-02,
          1.2068686330733821e-02, 9.8083445295473392e-04,
          -2.3910875802642968e-03, -6.0618615644027398e-03,
          5.2139581278832843e-02, 2.2161426894296919e-02,
          -1.4342397730448514e-02, 1.6097568609071598e-02,
          -5.8334738517894181e-03, -2.1449423483805748e-02,
          4.9479692839980395e-03, 1.8006328730758581e-03,
          -5.1694018228232802e-02, 1.8459907946271118e-02,
          -7.8572768934945473e-03, -2.7503862506130104e-02,
          -2.4066379505247586e-02, -2.5741104897861647e-02,
          2.1822755970321819e-02, 3.1704195809567508e-02,
          -1.0176878095206614e-02, -1.7110587841696487e-02,
          4.2066502867196535e-02, -4.1588608036352767e-02,
          1.5451720528450072e-01, 9.0299589279394132e-02,
          2.5979645299128877e-02, 7.0568955715279824e-02,
          -3.2985362388572644e-02, -8.5999350736534433e-02,
          1.9861371577699193e-03, 3.7332449298481160e-02,
          -2.7464551891206328e-02, 4.6231413345883881e-03,
          -2.7477155937842015e-02, -2.3939295588478595e-02,
          -1.9965983810637463e-02, -2.1939694160292077e-02,
          2.0323678889693299e-02, 2.9657983058823938e-02,
          -4.5891592968831463e-03, -1.1762510081303334e-02,
          6.1815776431141937e-02, 1.4471729456429598e-02,
          1.6279697056861178e-03, -1.7005411254849140e-02,
          -3.6849461656806783e-02, -1.9933700544067755e-02,
          2.0322320151487883e-02, 1.7223124009472759e-02,
          -4.4394544449510875e-04, -1.6931135271802858e-02,
          -3.2151437519641460e-02, -9.5424449245892270e-03,
          -5.8506155043500249e-02, -9.1425445233767229e-03,
          1.1951993279622625e-02, -4.5375395263335628e-03,
          -1.3710535103815969e-03, 1.2035501488638467e-02,
          -7.0658559608311822e-03, 3.3859432116091241e-03,
          1.4962557556402353e-01, -7.8540896115450228e-03,
          3.2375667557868491e-02, 2.1575861962796677e-02,
          -4.0288916531550305e-02, 2.1226652309610097e-02,
          -5.8567136713354932e-04, -2.7468553068259759e-02,
          9.2001671870963007e-03, 9.7064242745904788e-03,
          -2.8081481765560294e-02, -3.7443346462591877e-02,
          3.8932187583658419e-03, 3.3982878751159344e-02,
          4.5920737874716067e-02, 3.3837329767106461e-02,
          -3.5808452048598838e-02, -3.2976661404186015e-02,
          -2.2301182082177773e-03, 3.3074608903625582e-02,
          -3.0776935403720271e-02, -2.1391602391185264e-02,
          -2.1812585817318365e-02, 2.4689029273570352e-02,
          3.2208150148827219e-02, 2.4235951176438321e-02,
          -1.9952637439259648e-02, -2.4514957347948094e-02,
          2.8399394609181171e-03, 2.0187104947623789e-02,
          7.1040450657890469e-02, -1.0668994062310292e-02,
          1.9071942288305256e-02, 1.1130902928008260e-02,
          -1.5988100425103485e-02, 1.1593128242028929e-02,
          -1.0051872944576507e-02, -1.2939482325944532e-02,
          -3.3627619458573652e-03, 1.2432037841789846e-02,
          -2.8950844177354357e-02, -1.9315982165215635e-02,
          1.4876893954281059e-02, 2.1957836629868707e-02,
          2.1842893889886354e-02, 2.8734318939602096e-02,
          -1.6423721210711794e-02, -2.0253715996309016e-02,
          -1.2595749563170982e-02, 1.4342705722214192e-02,
          1.1004260196006915e-01, -1.4540916489253481e-02,
          -8.5501401868066963e-03, 1.2158780475315923e-02,
          -3.9713709177854203e-02, 1.5629687120025031e-02,
          3.5824956846824702e-03, -1.1372770204929508e-02,
          3.8768112929703204e-02, 8.5748189594446397e-03,
          -5.5552557355544605e-03, 6.4993894787084882e-03,
          1.0390070297294683e-02, -9.0243390831600007e-03,
          1.4354901065911332e-02, -9.3018046364233241e-03,
          3.2391037250897197e-03, 3.9435771473929080e-03,
          3.9204565649832634e-03, -3.6534622987902379e-03,
          -4.5055375179881431e-02, -1.2430796254090520e-02,
          4.8933514469184586e-03, 7.2992039328871024e-03,
          2.6863967071232953e-02, 1.5133355882838624e-02,
          -2.2822504071690630e-02, -9.0924539523455448e-03,
          -1.1702363895158606e-02, 1.8713808817752118e-02,
          7.5476717375472915e-02, 8.3217772607446158e-03,
          3.0323601107511099e-02, 1.9726725578489739e-02,
          -2.2728983587749052e-02, 1.5772945606963393e-02,
          7.0323502432675239e-03, -1.9052376666024620e-02,
          1.1657075002022390e-02, -1.0269588010890464e-02,
          3.0792973180328028e-02, -3.6740426127676445e-02,
          4.2983770621304963e-02, 5.0802669146014869e-02,
          1.5183788768649427e-02, 4.5823054272191015e-02,
          -3.0672871132896417e-02, -4.8345574738264493e-02,
          6.9534937931650673e-03, 3.6464435763397848e-02,
          1.7405295695207469e-02, -8.8632577934908263e-03,
          -3.2150272472228965e-02, -1.0452066605282329e-02,
          -1.4000178627019791e-02, -3.2401821180951481e-03,
          -8.4986127557445824e-03, 1.3465241845846240e-02,
          2.6218138091034748e-02, 8.2854692130165629e-03,
          3.7701420125708339e-02, -7.6338759475331102e-03,
          7.0163958595124365e-02, 2.2880517412152711e-02,
          1.4330223347570751e-02, 2.1322944583125010e-02,
          -1.5917271176159556e-02, -2.9688311277427513e-02,
          -3.6021846470360476e-03, 1.0056188160129580e-02,
          -2.3154147899008657e-03, -1.5582311961429987e-03,
          -2.4052576480123825e-02, -8.8441738657188025e-03,
          -1.6195153343448860e-02, -3.5614042682836993e-03,
          4.0231429400276368e-03, 6.0331998904007015e-03,
          2.7749759899858204e-02, -2.6071542324088175e-04,
          4.2045039899214154e-02, -3.5578559188390434e-03,
          -5.3801143634377982e-03, 8.9957218738273090e-03,
          -5.0528764395601930e-02, 6.6782522255867715e-03,
          1.3692698043248026e-02, -4.2783437634005177e-03,
          2.7276155273864518e-02, -4.7241891507878199e-03,
          5.3977957314860527e-03, -2.9505356042891236e-02,
          2.0685411515619888e-02, 3.8190622027788522e-02,
          -3.0345436068542715e-03, 3.7149744434584547e-02,
          -2.8694506008276378e-02, -3.1519537473741664e-02,
          1.6886130549375919e-02, 2.9527654580708450e-02,
          -4.0699467880642999e-02, 2.7233533509853629e-02,
          2.9072944168784160e-02, -1.6504707518298328e-02,
          2.6231108749387760e-02, -2.1445773531958409e-02,
          9.5660458044387522e-03, 8.5901772730312045e-03,
          -1.0988411953475101e-02, -1.8224204557976825e-02,
          5.0863236817137919e-02, -9.8914510241475007e-03,
          2.1323338076001678e-02, 8.2825651728254228e-03,
          -3.9963175703794242e-02, 1.5638792998601096e-02,
          -2.6869630686333669e-03, -8.7487056230706167e-03,
          1.8653280566548046e-02, 6.7313807203678985e-03,
          -6.8736629624736034e-03, -1.1544210391140571e-02,
          1.3692113932412198e-02, 1.6786257297353703e-02,
          1.0064259352857225e-02, 2.0559725903735625e-02,
          -1.7409366949949330e-02, -1.4944183863663647e-02,
          -6.6690767996870036e-03, 1.3399450452445763e-02,
          1.0274017714279961e-01, -4.3805095731003739e-02,
          7.4421922559070278e-02, 6.5578586166029434e-02,
          -3.4447127397928205e-02, 5.9548731198424729e-02,
          -2.6251492093522261e-02, -6.7240799265343973e-02,
          2.1396866771664500e-02, 3.8360479956502699e-02,
          -8.0037258231049860e-02, -1.0571195625312960e-02,
          1.0989793110383709e-02, 1.0456480932445904e-02,
          2.0835269002774364e-02, 3.0983251187565244e-03,
          2.7583597264453398e-03, -3.2320975409842259e-03,
          -1.3365993154115497e-03, 7.2662081014479565e-03,
          -9.9632423969799686e-03, -1.8658321514146564e-03,
          -1.3897068306250412e-02, -6.3707899545467342e-03,
          -4.9471556602085701e-03, -6.5558412297069060e-03,
          1.1348904852089173e-03, 6.8434598020708243e-03,
          9.6822255552846039e-03, -2.0307403342231596e-03,
          2.2265186810132592e-02, -2.3741837320758651e-02,
          2.2328981740154956e-02, 3.3414219133475379e-02,
          -2.1015759905151046e-02, 3.1854987372205733e-02,
          -1.2819881725631772e-02, -2.6847026962375162e-02,
          -1.1347493395180871e-02, 2.2982548734796143e-02,
          -6.4243370667994459e-02, -7.9196106696025113e-04,
          -3.7770931910859604e-02, -1.7126055126128428e-02,
          1.7089663180147655e-02, -1.0506253191012395e-02,
          -3.9877715488900352e-03, 1.8024188973186171e-02,
          1.1015294322836922e-02, 3.6264683139777267e-04,
          1.0376061095886997e-01, 5.7541761754897778e-03,
          2.1228707345811969e-02, 4.4713859770446601e-03,
          -4.9218792930529623e-02, 3.2253150479978595e-03,
          1.0207580781903548e-02, -2.0794966854005333e-03,
          1.5635681891681432e-02, -8.4658865607930792e-03,
          2.6746474442049056e-02, 1.3581372907576118e-02,
          -2.1954033357789098e-02, -2.7715418428689579e-02,
          1.1329028578877093e-02, -2.1226084264700379e-02,
          1.5857639548411871e-02, 2.7711414330631130e-02,
          2.4787248821735107e-03, -1.4532275881428542e-02,
          -6.8568268008112054e-02, 1.8089131031718896e-02,
          -3.9523407138728532e-02, -1.2730327252621782e-02,
          1.9314909935725228e-02, -1.6784249356621418e-02,
          1.5397876709839138e-02, 1.4219147203029095e-02,
          8.3135601277570959e-03, -1.5778221609423299e-02,
          7.3404788851052283e-02, 5.2726299439852882e-04,
          1.3629478049893886e-02, 1.2362697853596815e-03,
          -1.4407616404176973e-02, -5.4864117045427710e-04,
          -3.2706075170120699e-03, -6.2063664388593964e-03,
          1.2169638393228594e-02, 5.0626951085097583e-03,
          1.6772541168521941e-03, 3.4770399287271846e-02,
          -1.3495644965013620e-01, -7.8044058272693076e-02,
          -2.3114415216810062e-02, -6.4577224753165463e-02,
          4.9503241061001457e-02, 8.3314370078481623e-02,
          1.8049730083133736e-02, -4.7179888051293591e-02,
          9.4635632467026748e-02, -3.2920802540845904e-03,
          8.7259201421104274e-03, 1.3786362207408583e-02,
          -5.9499081788592222e-02, 1.1420161718957645e-02,
          7.3868998739596058e-03, -1.4083353652503131e-02,
          2.3213459376229990e-02, -7.4330059564000359e-04,
          -3.3006440940047010e-02, 3.3649896697974164e-03,
          -8.0692905032433999e-03, -4.7800600133599816e-03,
          3.5259996779617685e-02, -2.9267002910823669e-03,
          -7.5767963044002197e-03, 3.1212774530612829e-03,
          -1.7618509813499101e-03, -1.5675599383901302e-03,
          -1.9804649486380551e-02, -8.2920203736022245e-03,
          -1.1168689505266506e-02, -9.4802281535125987e-03,
          2.1240668734197349e-02, -4.9784921529337283e-03,
          -6.0168318989743293e-03, 6.6475741063542933e-03,
          -5.1436900040500591e-03, 5.5560718166189132e-03,
          -3.0906047138045494e-02, -9.8122985316709509e-03,
          2.3233954894211723e-02, 1.6791046038051510e-02,
          -2.0168112908037941e-03, 1.1150691060956702e-02,
          -1.4856163315099103e-02, -1.2843980744622742e-02,
          -1.1481909593955142e-02, 1.1028479533709275e-02,
          -3.8774186654602888e-02, 3.0520127033517041e-02,
          1.3807863773976589e-02, -2.4789385285582395e-02,
          -1.9006533890532130e-03, -3.1568341504866801e-02,
          2.3752396966742185e-02, 1.9990879337916989e-02,
          -2.2744997091490291e-03, -2.6939783317065785e-02,
          -5.2604413196130004e-02, 2.5690012531980933e-02,
          -8.3837604350784051e-02, -5.7254653468471910e-02,
          7.7233072860715063e-03, -4.4586438453985577e-02,
          1.8345570442789925e-02, 5.6430613438302427e-02,
          -2.5529751986762196e-02, -2.3398811516817140e-02,
          1.5829017555133632e-01, 2.1728205675807511e-02,
          -3.2060778333507481e-03, -2.0390958602067411e-02,
          -8.8316010606365083e-02, -2.2104872789755269e-02,
          4.7887548136226206e-02, 2.2513704114629485e-02,
          2.7468279670632544e-02, -3.5405160046856753e-02,
          -8.4798136167530874e-02, -1.9885707235975172e-02,
          1.5822028532892465e-02, 1.6775676795997875e-02,
          5.6393688104158936e-02, 1.7964849628661492e-02,
          -2.8205017710255936e-02, -1.5489836378949844e-02,
          -1.6218521230438692e-02, 2.5775477020083138e-02,
          -1.7044196105172896e-02, 1.5255916699445884e-02,
          4.4193837533331927e-02, 1.1718180015691552e-02,
          2.3210084024944285e-02, 3.1062468174719831e-04,
          3.7543252931273165e-03, -7.5538767283291697e-03,
          -1.5081821963974892e-02, -1.3487177164296458e-02,
          -7.5922556043131278e-02, 6.0433586064806916e-03,
          2.2188355183596804e-02, -2.0820580528271965e-03,
          5.6727196412249860e-02, -1.4464022074775363e-03,
          -1.2278092608385855e-02, -5.8858937007822583e-03,
          -2.5632739272306040e-02, 5.0468624705139213e-03,
          -9.2646608500684610e-02, 9.8940233983378263e-03,
          -6.9556919723565994e-02, -3.8958591173144382e-02,
          2.6437429905429931e-02, -3.1537546545590558e-02,
          1.1487219492642895e-03, 3.8072177410494054e-02,
          8.1998455656003954e-03, -2.6714709247311307e-03,
          1.7832764543091840e-02, -8.2973743111663372e-03,
          2.1768828765817729e-02, 1.2231141276757170e-02,
          -3.3400514085092037e-02, 1.2401720390490863e-02,
          -8.7746826966046930e-03, -1.4802353629016779e-02,
          1.7602290040898402e-02, 1.1249413805615333e-02,
          9.9135872856186816e-02, -1.6846126045003837e-02,
          3.3764775600587708e-02, 2.6930069651049264e-02,
          -2.7618296343274704e-02, 2.5803045005060823e-02,
          -1.0053295849367176e-02, -2.5268831254515799e-02,
          2.1139362348912286e-02, 1.6131162134567358e-02,
          -9.0150197161442278e-02, -5.8149939318452252e-03,
          -7.0682030374326771e-02, -7.8438429116550693e-03,
          -6.9173879382947059e-04, -2.1468101998667498e-03,
          -6.6601167474572131e-03, 1.3114736304505051e-02,
          9.5008412507075254e-03, 2.9526698710682212e-03,
          -7.3325923637139218e-02, -5.4414018854456936e-03,
          -8.5174100444906295e-03, -6.2635501619467526e-04,
          -2.0695587281604181e-04, -5.1631155982846943e-06,
          -6.5506528376260706e-03, 5.9037715629801542e-03,
          1.3381563428600626e-02, 7.7786467395776545e-03,
          5.6202664243407023e-02, 1.7685345487660022e-02,
          2.6105670012952904e-02, -4.0202695317881829e-03,
          3.5407836245342759e-03, -8.6899071356963328e-03,
          1.9535242151703922e-02, 5.1935910812529245e-03,
          -1.3263533969956722e-02, -2.1133856716449510e-02,
          2.9544120069160230e-02, 7.8075800132984636e-03,
          -4.0300821152337483e-02, -9.3101033889634865e-03,
          -3.0277119040422233e-02, -7.8401174206106893e-03,
          1.4750616358036062e-02, 1.3467009257280177e-02,
          -2.9168976740398538e-03, -7.9878192968007473e-03,
          1.1961458696979822e-01, -1.4708343211937345e-02,
          4.6073205385223125e-03, 2.5370107206308341e-02,
          -6.2370031464814686e-02, 2.4271912448288125e-02,
          6.1759562032973623e-04, -2.1611183246805832e-02,
          2.5369229431784577e-02, 1.0128797628231236e-02,
          -2.4432885667909670e-02, -1.6240453635774837e-02,
          2.4564631524523917e-02, 2.1981965721340934e-02,
          1.3215679513270271e-02, 1.9748256516236157e-02,
          -1.4047814227874579e-02, -1.9898976161067793e-02,
          4.6912661264089800e-03, 1.6008504538470372e-02,
          1.2144584127069522e-01, -1.2294586919794102e-02,
          3.5880730439745434e-02, 1.9697281330955187e-02,
          -3.1628726312368884e-02, 2.0112663232109272e-02,
          3.1982164262086316e-03, -2.0009222831411325e-02,
          2.5910274457597735e-02, 3.4480800228573276e-03,
          -7.4631116009994183e-02, -6.9069604249564183e-03,
          -1.9475048501730964e-02, -1.3225582043263398e-02,
          3.5809142521515444e-02, -3.2161696731675174e-03,
          -2.1658920455006770e-02, 9.4821029504769481e-03,
          -1.6909996120271813e-02, 1.0890189132249048e-02,
          6.1921549148439205e-02, 7.3292746267448377e-03,
          5.3220771547476302e-03, 5.3740843934893985e-03,
          -1.9070852854870743e-02, 4.2594573004290995e-03,
          3.8485249162909137e-03, -5.0328787964948650e-03,
          -2.2237778677147295e-04, -3.9669720577010705e-03,
          -9.0247171232796963e-02, 2.1155324431059531e-02,
          -5.7420747052541105e-02, -4.2031504063345708e-02,
          1.4113484122430913e-02, -3.7294827574230693e-02,
          1.8728196687751820e-02, 4.1438409172338458e-02,
          -8.4091237942505778e-03, -2.0199155929900518e-02,
          -2.1103939356916131e-02, 1.3089554936271126e-03,
          -4.6508297303050151e-02, -2.1017196149686824e-02,
          5.2372820505497738e-03, -1.1938573417610033e-02,
          4.7078337554249585e-03, 1.7299637380793736e-02,
          2.0053435865667421e-02, -9.5127892910827855e-04,
          -6.9923616059897165e-02, 1.5255955134340067e-02,
          -3.4047972646859527e-02, -2.5442799416424217e-02,
          -9.4573082440045295e-03, -2.1525195654164497e-02,
          7.3727631761014555e-03, 2.7960403839080720e-02,
          -2.4566302593032274e-02, -1.2286922341651177e-02,
          -3.9776179694589527e-02, 3.4353386321121391e-04,
          2.0307720588904267e-02, 9.3339422315075263e-03,
          3.8371050619733733e-02, 8.6722564130677186e-03,
          -9.6850554788011269e-03, -1.3583397384303591e-02,
          -2.0965640865548720e-02, 7.8640621767852321e-03,
          1.1902655304807165e-02, -2.2229744027936888e-02,
          6.4925042648664548e-03, 2.8717404263004651e-02,
          3.0167042675410968e-02, 3.0745643060344292e-02,
          -2.4100824071022459e-02, -2.7104530097575921e-02,
          1.2647577050254849e-02, 2.5738099905145466e-02,
          7.6597933079433786e-02, -4.6570710658650247e-02,
          5.1185361568331381e-02, 5.7788647915195307e-02,
          -2.0792276253165740e-03, 6.0935323193689557e-02,
          -3.5573704622637405e-02, -5.7800486824861483e-02,
          2.1728052248144225e-02, 3.9414503726113402e-02,
          9.4503735140681906e-03, -2.8926265024807864e-02,
          5.9947183398499852e-02, 5.3703187089899032e-02,
          1.7436180675516392e-02, 4.5787740298197918e-02,
          -3.1771170468861083e-02, -5.0062380620191298e-02,
          3.8108503029599871e-03, 2.8951933149351697e-02,
          5.3832897306230060e-02, 4.2891951568736026e-03,
          8.7202843988594455e-03, 1.4615474263408658e-02,
          1.0296206560512292e-03, 9.7930686584243119e-03,
          -1.3232027002027180e-04, -1.1148743475828938e-02,
          -1.0587772353467119e-02, -5.7020199193808093e-03,
          9.1420061100957756e-03, 2.4648228122587735e-03,
          5.2413461012770682e-02, 1.5212290967558361e-02,
          -4.3733148065228430e-03, 1.1927837154986260e-02,
          1.8657296198374823e-03, -1.8513323885756657e-02,
          -1.6514344171198562e-04, 7.2299510196531026e-04,
          -2.3846879870390265e-02, 3.9597387048206721e-02,
          -9.5738859628469328e-02, -6.3032243653255743e-02,
          -2.8834951894219606e-03, -5.7627424379561476e-02,
          3.9686734395817928e-02, 6.7547440211915971e-02,
          -7.4586947019566205e-03, -3.7221627584755113e-02,
          3.5743909904658422e-02, -2.1658337435474687e-02,
          2.0737176911900320e-03, 1.2215198356358778e-02,
          -1.7029828316923606e-02, 1.9661703008799766e-02,
          -7.6317193673205146e-03, -1.2547640006820467e-02,
          4.9267878084016609e-03, 1.6987566472480758e-02,
          -9.6179432703404830e-02, -9.2127778108443636e-04,
          4.2699536022691824e-02, 1.2223392929428237e-02,
          4.4832008983508718e-02, 7.9528260807081429e-03,
          -1.3852519458702844e-02, -1.7602449984413349e-02,
          -1.7630086921195300e-02, 8.2509411143622778e-03,
          -9.9419669609055419e-02, 7.4774038108285611e-03,
          -1.8253941206244122e-02, -2.1393847013089239e-02,
          4.2573523396084112e-02, -1.5730516187187678e-02,
          -9.2927804592784873e-03, 1.6381198446042800e-02,
          -2.9369081943652408e-02, -1.8309048367855995e-03,
          -2.2414660187506090e-02, -3.2157443786015108e-02,
          4.6310516105734327e-02, 4.8620186020281418e-02,
          4.3675070895113834e-02, 4.4830978046520170e-02,
          -3.2528146292086085e-02, -4.7857855876972236e-02,
          -1.7970829677373798e-04, 3.1978329924441856e-02,
          1.1125098213053430e-01, 1.6123044815084732e-02,
          -3.0196711278046691e-02, -2.0487151885590183e-02,
          -5.6115039909024680e-02, -1.9998871613811326e-02,
          2.3604486237864191e-02, 2.0798840283524245e-02,
          3.2905418278554283e-02, -1.8622656069272214e-02,
          -6.4695183403454079e-02, 1.0462256508097583e-02,
          -6.0291990010884956e-02, -3.0995754903193905e-02,
          7.5471016033775854e-03, -2.5364367890341834e-02,
          -2.0360028734832785e-04, 2.5130635658674107e-02,
          -3.3803146857835390e-03, -6.9712160345083221e-03,
          -1.9688786361628043e-02, 5.7758635842880797e-03,
          -2.4527366696353296e-02, -1.4386606504104291e-02,
          -1.4759499254292313e-03, -1.0727165863583661e-02,
          1.4216370201802157e-03, 1.4726016293635409e-02,
          4.7858599574847971e-03, -2.2995717109108656e-03,
          4.2836866163237071e-02, 8.9632863323930150e-03,
          2.6124562682202517e-02, -1.5582250963605156e-03,
          -1.3682883554256462e-02, -7.1814716356848668e-03,
          4.3463319964255403e-03, 1.7433822035680994e-03,
          2.7030043522636546e-03, -7.7167993913207552e-03,
          1.4865030425233472e-01, -5.2012134616058053e-03,
          5.8368786931515787e-02, 2.9020230072100847e-02,
          -4.8734725421571257e-02, 2.7056497537903925e-02,
          -2.2335935799850195e-03, -3.4383379931793405e-02,
          1.1741836629466176e-02, 3.3278761526421229e-03,
          -4.2532952627451312e-02, -1.7568504354071320e-02,
          1.8709937295696480e-03, 1.0538085710467137e-02,
          9.9142754622203004e-03, 1.1837172796700372e-02,
          -1.1845419849811179e-02, -4.7191211339321299e-03,
          -9.0490064802503558e-04, 1.6600955570118286e-02,
          2.9259681791883509e-02, 1.5990516822696525e-02,
          2.8481735404681238e-02, 2.6127823364722165e-03,
          2.0369494933818885e-02, -6.0625630071202375e-03,
          8.2137874440836103e-03, -1.1010595054950201e-03,
          -8.0285539363260435e-03, -8.4375071344448931e-03,
          5.4600062788984396e-02, -1.6628325503611489e-02,
          1.9906184498228018e-02, 1.9456282046448347e-02,
          -5.4335012232459550e-03, 1.8866486845675549e-02,
          -7.1741105546727175e-03, -2.1992645655641799e-02,
          4.3904733035091941e-03, 1.5034717563424995e-02,
          -4.9364130980150071e-02, 7.5194176757015327e-02,
          -1.5818819302928669e-01, -1.1757289453484640e-01,
          -2.7991430191850731e-02, -1.0921261632501038e-01,
          6.9734557125300980e-02, 1.1752471434121911e-01,
          -1.8340827794962003e-03, -6.8386284261988992e-02,
          -6.9404325962376126e-02, -1.3990861216181738e-03,
          2.4923478627086153e-02, -6.8960175605794682e-03,
          2.2742237194613827e-02, -9.0262001570889719e-03,
          -1.5416553214272529e-03, 3.6366435960539373e-03,
          -2.1084084094360133e-03, 2.2627256035974500e-03,
          -1.8528013669076398e-02, 1.2370596480326953e-02,
          -7.0198568693045360e-02, -3.3919074373268354e-02,
          2.4507249424268050e-02, -2.4873669283318498e-02,
          9.3318694541417706e-03, 3.2634435035000492e-02,
          -1.5211842409921536e-02, -8.7339642079673190e-03,
          9.3308110356735401e-03, -3.7616668687384595e-03,
          1.6651141862603070e-02, -1.4302826367457227e-03,
          1.6193673930812193e-02, -4.1979564465803240e-03,
          3.5542605229698081e-03, 3.7793154052138114e-03,
          4.1211655255612659e-03, 1.4085697220272855e-03,
          -4.1336903770989109e-03, -5.3953323234377424e-04,
          6.2496630243371466e-02, 1.5668707180783375e-02,
          -1.7324356321013329e-03, 1.1832943135167771e-02,
          -6.4378536648296552e-03, -1.6320824655138948e-02,
          -2.0689817265028346e-02, 4.1339796939621389e-03,
          -3.2222884565526674e-02, -3.1984863483448655e-03,
          3.4595299359506365e-02, 1.5167753582363008e-02,
          5.0321932518810546e-04, 1.2925018331227493e-02,
