%YAML:1.0
mlp: !!opencv-ml-ann-mlp
   layer_sizes: !!opencv-matrix
      rows: 1
      cols: 3
      dt: i
      data: [ 800, 3, 1 ]
   activation_function: SIGMOID_SYM
   f_param1: 6.6666666666666663e-01
   f_param2: 1.7159000000000000e+00
   min_val: -9.4999999999999996e-01
   max_val: 9.4999999999999996e-01
   min_val1: -9.7999999999999998e-01
   max_val1: 9.7999999999999998e-01
   training_params:
      train_method: BACKPROP
      dw_scale: 1.0000000149011612e-01
      moment_scale: 1.0000000149011612e-01
      term_criteria: { epsilon:1.0000000133514320e-10, iterations:10000 }
   input_scale: [ 1.2063622416628261e+03, -1.3284979057335788e+00,
       4.9332450204395099e+02, -1.3013586992106192e+00,
       7.4926321798058439e+02, -1.1244803091202027e+00,
       9.4546442367721477e+02, -1.2835466908098601e+00,
       1.6182439979292678e+03, -1.4347863787644075e+00,
       1.1211739799166742e+03, -1.6437227456017940e+00,
       9.9918299536591724e+02, -1.8544620226037591e+00,
       1.6621801052192295e+03, -1.2860231491021830e+00,
       2.1025459557976637e+03, -1.5092580638722437e+00,
       1.7947368478087069e+03, -1.4236539405706066e+00,
       7.4190538547604922e+02, -8.5082708510633376e-01,
       6.9065681330363020e+02, -1.1161442556401626e+00,
       1.4862410666086159e+03, -1.7729435764519133e+00,
       1.8937202395855427e+03, -1.9485679179098709e+00,
       7.8756171892013060e+02, -1.1336598714569377e+00,
       1.1975772592396402e+03, -1.8325063898020213e+00,
       1.7244452886674965e+03, -1.5287750878159017e+00,
       1.0887735141300311e+03, -1.2799286162599692e+00,
       1.5253798013869143e+03, -1.1152835695957160e+00,
       1.4432854596819600e+03, -1.7960279691555481e+00,
       1.2201763855758218e+03, -1.2822889859753508e+00,
       1.6823142042510854e+03, -1.4408696992747472e+00,
       9.7617118789539177e+02, -1.4837467394687740e+00,
       1.4386316050640637e+03, -1.7058992529556678e+00,
       1.0787343571716720e+02, -7.6820288811948434e-01,
       1.2164263782319895e+03, -1.4437876721532299e+00,
       1.3978096919290379e+03, -1.2583073004032117e+00,
       1.4209737331219033e+03, -1.3616178720606278e+00,
       1.5503400330779036e+03, -1.2315811447748455e+00,
       1.7326631379789462e+03, -1.4709747905249113e+00,
       7.9117123698851879e+02, -1.3372087285203351e+00,
       9.9883370410249415e+02, -1.6584989199742590e+00,
       1.4422906710137913e+03, -1.5658655613620798e+00,
       1.3879005777577231e+03, -1.1042418218569341e+00,
       8.9261971240156856e+02, -1.1384028419157917e+00,
       9.3614441319218679e+02, -9.8404448744422612e-01,
       1.3193862863215652e+03, -1.6774942801670869e+00,
       1.4446624859761214e+03, -1.6339850067955084e+00,
       1.2234866367887878e+03, -1.2758170958853687e+00,
       1.7536259585279445e+03, -1.6167184807297834e+00,
       1.1267768011266594e+03, -9.9629724054396585e-01,
       5.6196426244783231e+02, -1.4009548269960059e+00,
       1.3748164602143245e+03, -1.3143205490345018e+00,
       8.5041367734840742e+02, -1.4072415391800703e+00,
       1.0740047407373893e+03, -1.5046531130475407e+00,
       1.3809655806383912e+03, -1.6867959096021472e+00,
       1.1384316089186887e+03, -1.5591826774493449e+00,
       5.0307425302642326e+02, -1.2678203392088603e+00,
       1.6289837083867437e+03, -1.6492482923491827e+00,
       7.5003874505658871e+02, -1.7348391026659007e+00,
       1.4176353097037113e+03, -1.4082612687595439e+00,
       1.2726531277647421e+03, -1.4209899878177230e+00,
       1.4637355539238181e+03, -1.5817087913311934e+00,
       7.7437308172572000e+02, -1.1754499333420048e+00,
       1.6822733465064675e+03, -1.1811803798655420e+00,
       1.5244262666504883e+03, -1.6998876324282117e+00,
       4.0437991166762231e+02, -1.5099376241483333e+00,
       1.2209171889941542e+03, -1.3871575534794220e+00,
       1.1278023042631048e+03, -9.8350668165262045e-01,
       1.1279522845717975e+03, -1.3413712768979111e+00,
       1.8046196588961020e+03, -1.8080714188190019e+00,
       1.2262464852915286e+03, -1.9172882952932484e+00,
       4.8310344281713793e+02, -1.2420412579955791e+00,
       1.9216392071611731e+03, -2.0274559871351050e+00,
       1.3352439098047287e+03, -1.4922640427624823e+00,
       1.3558545867004098e+03, -1.3066585969972919e+00,
       1.0580606904904848e+03, -9.6241461707706766e-01,
       1.5912833409849288e+03, -1.4348563507618093e+00,
       1.8794069281596915e+03, -1.4397029813552824e+00,
       1.0828034739470429e+03, -2.1591129233173785e+00,
       8.1462684853024837e+02, -1.1941633633201938e+00,
       1.1899302731735529e+03, -1.4692727157517287e+00,
       1.2318356106975154e+03, -1.7800638059910621e+00,
       1.6189826988029649e+03, -1.7789040149141711e+00,
       6.7520748067015234e+02, -1.6151331074171829e+00,
       1.1559158934460377e+03, -1.1661418024391448e+00,
       1.0770709222946371e+03, -1.5252621420127148e+00,
       1.6510344422178164e+03, -1.8465095555374684e+00,
       1.5769784475160386e+03, -1.6174768134012774e+00,
       1.2643978482814464e+03, -1.4943361388095884e+00,
       1.7450967039495335e+03, -1.8829347226893125e+00,
       1.2816261951143899e+03, -1.1807517381734980e+00,
       1.6653262781798501e+03, -1.3036046057470720e+00,
       1.4439266791043735e+03, -1.0930395981559735e+00,
       1.4720705869291367e+03, -1.4569061552133944e+00,
       5.2035859069992784e+02, -1.1946677936008450e+00,
       2.1071447138236299e+03, -1.7633065784692474e+00,
       6.2067103349166166e+02, -1.7705977570735565e+00,
       1.2648036571616674e+03, -1.4963263530702684e+00,
       8.3044565683413862e+02, -1.3164375725252264e+00,
       1.0540742524726759e+03, -1.4143826366694994e+00,
       2.1640753484468073e+03, -1.4643030350155046e+00,
       1.6973690081301979e+03, -1.2735916290771570e+00,
       1.2737487284802310e+03, -1.4543483484227009e+00,
       1.2416476907226224e+03, -1.2330117046685991e+00,
       1.4594384733951679e+03, -1.7274558624566141e+00,
       1.5394281298545898e+03, -1.6517724107005018e+00,
       1.7228418702649644e+03, -1.2713477235026049e+00,
       1.1940628289503893e+03, -1.3227836906340065e+00,
       8.2853277914478269e+02, -1.0418893602195662e+00,
       1.4785905959956660e+03, -1.5045737682045641e+00,
       1.3860509084425851e+03, -1.5633125445701732e+00,
       7.9125723962005827e+02, -1.5848180466127844e+00,
       8.9267502760345872e+02, -1.2184928149051755e+00,
       1.3326364243439657e+03, -1.6346560639145264e+00,
       1.4124873244223636e+03, -1.6347417267651712e+00,
       1.4873463600135128e+03, -1.8349186920541818e+00,
       1.4423011935352313e+03, -1.3616009537704834e+00,
       1.4116839758719680e+03, -1.5053183421546406e+00,
       1.4310540929896906e+03, -1.2294997044644040e+00,
       1.2259421271202452e+03, -1.8309562837225570e+00,
       9.1710464004999449e+02, -1.1773448555472046e+00,
       1.2460713328556192e+03, -1.2683653926486589e+00,
       1.4417565245384683e+03, -1.5414158372883426e+00,
       1.6080909995447280e+03, -1.5677753065904398e+00,
       1.4354575746903818e+03, -1.6195970216890543e+00,
       1.7991542175298302e+03, -1.1753490553010242e+00,
       1.5395731805005994e+03, -1.5023230232089089e+00,
       3.6315860165489431e+02, -1.1470853432367403e+00,
       5.2678761866102059e+02, -1.1292583814200610e+00,
       7.9806944924270772e+02, -9.6811851365291368e-01,
       1.7858054813954561e+03, -1.3116246298277359e+00,
       1.2804351600136856e+03, -1.5862527161868334e+00,
       1.6879934095848193e+03, -1.5300717202615282e+00,
       1.3606545373815738e+03, -1.7713294511974160e+00,
       1.2201989396025556e+03, -1.2468040279851798e+00,
       1.7120102283417664e+03, -1.8997038618190303e+00,
       1.8064792660252865e+03, -1.7540132625607059e+00,
       1.4950398518951445e+03, -1.2732094091247548e+00,
       1.2824041985251213e+03, -1.7653512671073464e+00,
       1.4069162739489016e+03, -2.0183140745999339e+00,
       6.5425940825922748e+02, -1.4060036491889760e+00,
       7.8512039205401481e+02, -1.0868874403508655e+00,
       1.1037896075105159e+03, -1.4877674426058760e+00,
       1.3327483237529884e+03, -1.4068795601908617e+00,
       1.9653880357965119e+02, -1.2870887441494940e+00,
       1.5299832389225339e+03, -1.4052897447802140e+00,
       1.6314663775116614e+03, -1.4665512931298825e+00,
       1.1601195700883293e+03, -1.4733452598382792e+00,
       1.4070668946892279e+03, -1.3462508987840358e+00,
       1.3735682433019792e+03, -9.8786034365370223e-01,
       8.9803906005880265e+02, -1.9208909245190704e+00,
       1.2439020521408927e+03, -1.4764480635206969e+00,
       1.1727088895943111e+03, -1.5169511216548675e+00,
       1.8504160406241026e+03, -1.3997726919606035e+00,
       1.1852319222582353e+03, -1.5508956558635587e+00,
       1.6141372422921909e+03, -1.3970184895245830e+00,
       8.2872235003413164e+02, -1.0187187705211014e+00,
       1.0281053698039618e+03, -1.5112258442361566e+00,
       1.4229218425776230e+03, -1.3981589512731039e+00,
       1.1143088918152471e+03, -1.0714219687764854e+00,
       8.3206954612014306e+02, -1.7077872217127239e+00,
       1.3757911553055321e+03, -1.5368618192283920e+00,
       1.5287012960933903e+03, -1.6270134629559303e+00,
       1.1743707467513568e+03, -1.1974747361688487e+00,
       1.5530775639680467e+03, -1.3517761933277255e+00,
       6.2339431347121638e+02, -9.3877211280514117e-01,
       1.1987037903155028e+03, -1.3807319361202903e+00,
       1.5036497565712484e+03, -1.3787858967550759e+00,
       1.6433964903516098e+03, -1.3351619239743173e+00,
       2.0214012308211466e+03, -1.3276016459449338e+00,
       1.3660381067707046e+03, -1.6098269524620250e+00,
       1.6532066363191605e+03, -1.2018219359436528e+00,
       1.3777709922930549e+03, -1.4004485038947525e+00,
       1.9388855748240085e+03, -1.4135937749161422e+00,
       1.2845646340861299e+03, -1.4760372279476981e+00,
       1.2508093552278253e+03, -1.2546758538989098e+00,
       7.5790186388172174e+02, -1.0168985205864272e+00,
       1.0521856618953050e+03, -1.0774686814245471e+00,
       1.5962991932057525e+03, -1.2833424666653732e+00,
       1.3998932252458658e+03, -1.7646183254299317e+00,
       1.2828655165853972e+03, -1.5505974685230339e+00,
       1.6194658082972369e+03, -1.3237975803795055e+00,
       1.5356777261825507e+03, -1.2380316632847947e+00,
       8.9916682699709747e+02, -9.8502800486896924e-01,
       1.7350292112798534e+03, -1.2209094805479508e+00,
       1.5557161739010523e+03, -1.4087432500105346e+00,
       1.3704407439183893e+02, -8.2370572769547867e-01,
       1.4468729025388775e+03, -1.5326099789087353e+00,
       1.1714185683748365e+03, -1.9218157361342845e+00,
       6.2213288479428024e+02, -1.4877884870053928e+00,
       9.0382772142126316e+02, -1.4255637007239652e+00,
       1.0451925923063520e+03, -1.5517141027961181e+00,
       9.9349321968540573e+02, -1.0792971224331533e+00,
       1.3135974198534841e+03, -1.0923958582563911e+00,
       1.8799981895829392e+03, -1.7883315758332055e+00,
       1.1054379570438709e+03, -1.3483539545145753e+00,
       2.0980274421144923e+03, -1.5383543215785063e+00,
       1.8662809456496270e+03, -1.7377106068026247e+00,
       5.0550499996055163e+02, -7.7693433856687222e-01,
       7.4045115642708583e+02, -1.4711672357023420e+00,
       7.7619377128523240e+02, -1.6326719840457362e+00,
       6.0836314337127271e+02, -1.3467537037439379e+00,
       1.7541512275947737e+03, -1.5431321776338474e+00,
       1.6942067217163662e+03, -1.1070309028190553e+00,
       1.3596949623453247e+03, -1.5710191605367461e+00,
       1.6492990991042718e+03, -1.1906690720749180e+00,
       1.7506948911040993e+03, -1.4436196885396793e+00,
       1.6611400909016675e+03, -1.6806270551136326e+00,
       1.3797714806883521e+03, -1.3718094782026127e+00,
       1.3507516799468740e+03, -1.6902382593920511e+00,
       7.5836666518449101e+02, -9.3349461390527233e-01,
       3.6795505124659024e+02, -9.4711550058324012e-01,
       1.6495343274047869e+02, -7.5262461545591497e-01,
       1.5276314931423535e+03, -1.7827376231872207e+00,
       8.7257035402493273e+02, -1.8038399433271126e+00,
       1.3632007500724278e+03, -1.5333295308850812e+00,
       1.1568770143607221e+03, -1.2667216739299447e+00,
       9.6094554601460607e+02, -1.4510944863467214e+00,
       7.8093261858217204e+02, -9.3504740392892360e-01,
       1.4819421343782744e+03, -1.4003857631614347e+00,
       1.3786738717337373e+03, -1.2772295984910220e+00,
       4.8566874870222870e+02, -1.0146341960214120e+00,
       1.5006642766909301e+03, -1.6970057438874153e+00,
       7.9077654344962775e+02, -1.6508036055518200e+00,
       1.4616629224388928e+03, -1.7419788082840810e+00,
       1.6003229759695384e+03, -1.4933907919694558e+00,
       9.3473993213329209e+02, -1.1610326128180295e+00,
       1.3496195172774446e+03, -1.5767541068772646e+00,
       1.3332805007089246e+03, -1.5966387233835824e+00,
       1.1018246272025003e+03, -9.9179335757513798e-01,
       1.5858985335092120e+03, -1.9164914710353302e+00,
       1.4479973991027634e+03, -1.4663246344279692e+00,
       1.2323516493661093e+03, -1.0050422876405753e+00,
       1.5210600485648665e+03, -1.4771462651671958e+00,
       1.5386619262473159e+03, -1.6168662477301741e+00,
       1.4227209694350697e+03, -1.7785532327158842e+00,
       1.2210433078392432e+03, -1.7665455360441125e+00,
       1.0314311142558447e+03, -1.4479498141121478e+00,
       4.8777016751445495e+02, -1.2322045480107711e+00,
       1.0395847157755152e+03, -1.3933193729149007e+00,
       1.4322015354040448e+03, -1.7940156728863632e+00,
       1.2657033786355321e+03, -1.3427911021199535e+00,
       1.0641951949060888e+03, -1.6981765746023636e+00,
       1.2060877194202596e+03, -1.6091283080943923e+00,
       1.2656042429756069e+03, -1.2413774855330759e+00,
       1.0168623656593413e+03, -2.2107637775334656e+00,
       1.4485498305223191e+03, -1.4758517415738497e+00,
       8.8859431551096270e+02, -1.1415041372787034e+00,
       1.3841411297502182e+03, -1.3332034074720833e+00,
       1.5263524041221056e+03, -2.0479678239237487e+00,
       7.2842834432202994e+02, -6.8661678516468860e-01,
       1.6537955315254958e+03, -1.7915183124437954e+00,
       3.5284303032542414e+02, -1.4793391247497598e+00,
       1.6935092325086050e+03, -1.4485027040052922e+00,
       1.6784862773042310e+03, -1.4676290208625107e+00,
       5.4200320519203751e+02, -1.8976004528739845e+00,
       1.1262718869937491e+03, -1.6317117890753632e+00,
       1.3506688288170114e+03, -1.3405051208424297e+00,
       1.9475545099438993e+03, -1.5427168638983262e+00,
       1.3280444867549174e+03, -1.6725681193181758e+00,
       1.1722229108382096e+03, -1.4283416222002190e+00,
       1.1271061689750659e+03, -1.5310127897625609e+00,
       7.1111586672604710e+02, -1.2257284623659714e+00,
       2.0935674778442917e+03, -1.4530588328355238e+00,
       8.8812353414454230e+02, -9.8356784356213067e-01,
       4.2944447709113081e+02, -7.9883085870222292e-01,
       1.4807372899744071e+03, -1.7064420222606864e+00,
       2.1585615257030504e+03, -1.8291552806051006e+00,
       1.5924896718337036e+03, -1.8957336750564120e+00,
       1.1276573276410402e+03, -1.7650460364166398e+00,
       1.5681733046782681e+03, -1.2536997119579378e+00,
       1.8838143945880799e+03, -1.4520844732395772e+00,
       1.1584403232991281e+03, -1.4604525880410333e+00,
       1.6744128809218423e+03, -1.8663509301723848e+00,
       1.1655338405215537e+03, -1.0828592080958284e+00,
       9.6410215842720561e+02, -1.1888184524117145e+00,
       3.3253086484611777e+02, -9.3497238824772666e-01,
       1.5219423685204249e+03, -1.1595276917861279e+00,
       1.4438083317549990e+03, -1.4450178745133637e+00,
       7.5789838924326125e+02, -1.7520444120513194e+00,
       1.3386810148786533e+03, -1.5339648078826040e+00,
       1.4298719505918891e+03, -1.3436964463490111e+00,
       1.2506020598725736e+03, -1.3219421060497016e+00,
       1.5719974893725200e+03, -1.6374211977108108e+00,
       1.2716581018126835e+03, -1.9296250183801240e+00,
       1.6597024342892464e+03, -1.8223483576493433e+00,
       5.0906755485162751e+02, -1.3414419898852170e+00,
       1.3215846864593323e+03, -1.5708311831698043e+00,
       1.6207003550559643e+03, -1.4985574060981803e+00,
       4.7804144952649580e+02, -1.3694698930990852e+00,
       1.2952790821221017e+03, -1.9061648146075689e+00,
       1.6341673598965403e+03, -1.5936381176403995e+00,
       1.7014592883819764e+03, -1.7701646596447862e+00,
       1.6900313163346725e+03, -1.6166050374505587e+00,
       1.4376372910270170e+03, -1.6093074008779216e+00,
       1.2503842085078888e+03, -1.9178679183661265e+00,
       1.9379216493962977e+03, -1.2773841723236232e+00,
       1.3494832414540722e+03, -1.2513326910613198e+00,
       1.2725025089154819e+03, -1.3873713513471633e+00,
       1.1252534284530211e+03, -1.3544738006251889e+00,
       1.5132288442290649e+03, -1.1451290529439280e+00,
       1.6695191720566265e+03, -1.4063265260322770e+00,
       1.5396579568864877e+03, -1.2149216800158491e+00,
       9.4792325244137101e+02, -1.4727758468675141e+00,
       2.2255844687976605e+03, -2.0163325958809923e+00,
       1.2991729264291528e+03, -1.2987051065010005e+00,
       1.0375093542748755e+03, -1.1098734036727398e+00,
       1.7336959045901842e+03, -1.3828415804664693e+00,
       1.2168846235363258e+03, -1.5849518550190513e+00,
       1.3650817381522299e+03, -1.6909913645612620e+00,
       9.2245151012918802e+02, -6.7694638311558097e-01,
       1.5783307629204007e+03, -1.9322285598992464e+00,
       1.9377675766058985e+03, -1.3345599429926458e+00,
       1.0423297593788982e+03, -1.4473821953465880e+00,
       9.5209127359019919e+02, -1.1196850122725355e+00,
       1.9933190632570052e+03, -1.7005080163530386e+00,
       6.9448986747871868e+02, -1.0025408498361452e+00,
       1.4830317560848168e+03, -1.3289480649200669e+00,
       7.9279049589391286e+02, -1.8158090213908320e+00,
       9.5396263207220113e+02, -1.2389509434252086e+00,
       1.0809870101457389e+03, -1.1684777593814217e+00,
       7.0673295827281413e+02, -8.3467846244580424e-01,
       1.1351138377175519e+03, -1.8606806497376656e+00,
       1.3776993731720638e+03, -1.8596591996974725e+00,
       1.3902888091386242e+03, -1.6062102258669213e+00,
       1.5658168765111413e+03, -1.3907562899652242e+00,
       1.8473825357915762e+03, -1.6072757370536264e+00,
       1.5876414041115033e+03, -1.7420296711049870e+00,
       1.4353492782768501e+03, -1.6967867000936330e+00,
       1.1165621499396839e+03, -1.2551681285906111e+00,
       1.4249070190806760e+03, -1.4403195578652135e+00,
       1.4569423387029306e+03, -1.5853600211633085e+00,
       1.3721314364358698e+03, -1.5914895407784275e+00,
       1.7852205136943646e+03, -1.5890499696871923e+00,
       1.1509488845635349e+03, -1.5484045680695957e+00,
       1.6843447597897161e+03, -1.2455168630174562e+00,
       7.3151034078237979e+02, -1.4988147574634023e+00,
       1.1694550104842233e+03, -1.4379761431848053e+00,
       8.9924874175547006e+02, -1.3635327895928160e+00,
       1.5002449379018551e+03, -1.6568901389975048e+00,
       1.5496616698626756e+03, -1.4979014741307943e+00,
       5.5101324067714040e+02, -1.5350137964836179e+00,
       3.7147461252905538e+02, -1.1867103904832781e+00,
       1.4055587467822315e+03, -1.4053831932954000e+00,
       4.0857189436682359e+02, -6.6740917416185230e-01,
       1.4649038604278101e+03, -1.5064312785508136e+00,
       1.1730390689154510e+03, -1.0510965914761476e+00,
       1.3915153283106806e+03, -1.2017652091090034e+00,
       2.0918576912687172e+03, -1.6509248176899614e+00,
       6.2878093868453368e+02, -1.3153415275907030e+00,
       1.6870629572215757e+03, -1.3847084496726596e+00,
       1.0644805938030302e+03, -1.9121698675811576e+00,
       1.7774734471132585e+03, -1.4429348503331920e+00,
       1.0587228687988916e+03, -1.5636108727040356e+00,
       1.2429983613701677e+03, -1.5136051058535285e+00,
       1.5697312563514147e+03, -1.1431447375003456e+00,
       1.3054767303915673e+03, -1.5288268868485111e+00,
       1.3620733516723803e+03, -1.2027690211443196e+00,
       6.0047789860501007e+02, -1.1256957685280449e+00,
       1.2990955278397489e+03, -1.1744994087376772e+00,
       1.6482814274030127e+03, -1.3987253933225490e+00,
       1.7809460538669318e+03, -1.5659129339628104e+00,
       1.2188196858640458e+03, -1.3381118025733951e+00,
       7.6195047532751471e+02, -1.7165435155470610e+00,
       1.4613559403122683e+03, -1.3855941680424084e+00,
       1.3744075732551275e+03, -1.0979036521596837e+00,
       1.4838904559001107e+03, -1.6727869434768521e+00,
       1.5226944957545422e+03, -1.5340916113004797e+00,
       4.7185028714398260e+02, -1.4713967158851788e+00,
       1.4100172529727774e+03, -1.5832638387954661e+00,
       1.7366129123638600e+03, -1.4349683349185010e+00,
       8.3424162232689355e+02, -1.3880759614306939e+00,
       1.4691601035533429e+03, -1.5216116958483605e+00,
       1.5368698663685282e+03, -1.5282225341553199e+00,
       1.5292122896673245e+03, -1.6945023436802324e+00,
       2.1321708552109249e+03, -1.7438799799886324e+00,
       2.0477630916214109e+03, -1.3684462201469814e+00,
       3.2003897757608803e+02, -1.2637244868409105e+00,
       1.1112726906136027e+03, -1.5372895816562133e+00,
       6.6027651676154335e+02, -1.4703792658260835e+00,
       1.4639864174044537e+03, -1.4317548726488618e+00,
       1.3297554353112566e+03, -1.5129891424522597e+00,
       1.6871558505319035e+03, -1.5503126897675312e+00,
       1.1251409843079598e+03, -1.1879680492029834e+00,
       1.0443519544611333e+03, -1.1223662947068465e+00,
       7.9127644040314715e+02, -1.1905248121069487e+00,
       1.0796479137350727e+03, -1.0426125353164777e+00,
       5.0001788640232382e+02, -1.2841226942294945e+00,
       1.7344441393242726e+03, -1.3645463522360233e+00,
       9.6021839806126275e+02, -1.7336129204828070e+00,
       1.4213200612715734e+03, -1.5655347174183072e+00,
       1.8969967290846691e+03, -1.7433495278658029e+00,
       1.7046226756145702e+03, -1.3133484839834719e+00,
       8.2471081365745215e+02, -1.2647347237515700e+00,
       1.3089693484344405e+03, -1.2085052300413204e+00,
       1.4114020274153897e+03, -1.6026250995850415e+00,
       7.2155657159662314e+02, -9.2594663404589650e-01,
       5.8856061330046703e+02, -1.6589752921753682e+00,
       9.5813921746457095e+02, -1.2884170832614876e+00,
       3.9318445469233944e+02, -1.0705964608639407e+00,
       3.6177423586702946e+02, -1.3105260080717400e+00,
       1.2357181754376693e+03, -1.3269948588250964e+00,
       4.4637869379286093e+02, -1.4038097681574608e+00,
       1.4606212774363923e+03, -1.6496434015081261e+00,
       1.5936459711743439e+03, -1.1877107287263906e+00,
       3.3335283766720818e+02, -9.3485416625190754e-01,
       1.5987823233714687e+03, -1.6990409075630191e+00,
       1.4042450532911892e+03, -1.1283908704082919e+00,
       8.2649180638538633e+02, -1.2956646393485087e+00,
       1.4699546907019871e+03, -1.3130342008134563e+00,
       1.4275807988954180e+03, -1.5405613971452754e+00,
       1.3912340284131667e+03, -1.5147055902104412e+00,
       7.7618932648091345e+02, -9.3350624903708079e-01,
       1.8347604672671682e+03, -1.5865228453299234e+00,
       8.5201288974319698e+02, -1.0069327946667881e+00,
       8.8056494121829905e+02, -1.1041445511459520e+00,
       1.4949295522479338e+03, -1.5389802705769102e+00,
       1.0192260764425095e+03, -1.3902139276036234e+00,
       2.1937068400988915e+03, -1.5055874403376395e+00,
       5.5153829752862146e+02, -1.4799983330053974e+00,
       1.1943597483979240e+03, -1.8842707651348032e+00,
       1.2748054020254528e+03, -1.5258341943085461e+00,
       8.1672508323350667e+02, -9.7262101232895493e-01,
       1.0053060851084913e+03, -1.3259425249514880e+00,
       4.8459575008907558e+02, -1.4999249732655802e+00,
       1.1544037859195289e+03, -1.1963185170823978e+00,
       2.1006961578262863e+03, -1.5281213498507271e+00,
       1.4367595173891364e+03, -1.6363365959049461e+00,
       9.1701802685336179e+02, -1.1656263327805438e+00,
       6.7814583217422069e+02, -1.1463485216332086e+00,
       1.6629381441236865e+03, -1.2241165007673609e+00,
       1.2145923650286134e+03, -1.2091088755546866e+00,
       9.9212394580043349e+02, -1.6375215434089323e+00,
       1.2341180922610836e+03, -1.7149549624859588e+00,
       1.4060892957053477e+03, -1.0510966202014973e+00,
       1.7591361310263960e+03, -1.4337444474927548e+00,
       1.5247694131749331e+03, -1.2163032483456033e+00,
       6.3650142709838519e+02, -1.1776586320802105e+00,
       7.0456024742191130e+02, -1.0438231004673202e+00,
       1.5043005590245953e+03, -1.6603097526929478e+00,
       9.3403006058175470e+02, -1.2456948000464703e+00,
       1.1471333231889016e+03, -1.4271678839652482e+00,
       1.3143030405929794e+03, -1.1016782259879161e+00,
       7.7249935669802812e+02, -1.1392848340222994e+00,
       1.7103977582724522e+03, -1.5922301485243153e+00,
       1.6395215741920549e+03, -1.4336012128895534e+00,
       1.6842703545144229e+03, -1.4355055904063567e+00,
       1.7284764385319818e+03, -1.6583586381153499e+00,
       1.0214864346283210e+03, -9.7774142976170131e-01,
       1.4412414366038727e+03, -1.2167313810022111e+00,
       1.0102552887668076e+03, -1.0063344707644795e+00,
       1.3276096665779939e+03, -1.2944039382520443e+00,
       1.0298737144145937e+03, -1.5898990047178492e+00,
       7.9466737838772247e+02, -8.9879468603830914e-01,
       2.0196830850526815e+03, -1.9418518063985315e+00,
       4.4411161918211263e+02, -1.2370597170081679e+00,
       1.5107756861908440e+03, -1.5962892036124101e+00,
       2.1063165054545698e+03, -1.4633962794779742e+00,
       1.7744490640404370e+03, -1.7894514357062736e+00,
       1.1661688712238156e+03, -9.4085361082862440e-01,
       6.5420091207076723e+02, -1.2142669866688338e+00,
       1.6658768626778085e+03, -2.0661401612578540e+00,
       1.0692953082081067e+03, -1.6980368800203471e+00,
       1.3010665589061891e+03, -1.7739016739330569e+00,
       1.3529340949401212e+03, -1.9774377217190060e+00,
       1.5655721819772557e+03, -1.2735165863078910e+00,
       1.1848680736031265e+03, -1.1300933557967607e+00,
       1.6719154462176734e+03, -1.5266693864591805e+00,
       1.5151604780875459e+03, -1.5352574762607039e+00,
       1.8194027322670820e+03, -1.0348170764233293e+00,
       1.4467169303587009e+03, -1.4321420047463242e+00,
       1.1060687425437784e+03, -1.3622065001594830e+00,
       1.4989571624995388e+03, -1.1608297197408579e+00,
       1.5548896108844065e+03, -1.5517092890391619e+00,
       1.7567048122448468e+03, -1.4882640466931401e+00,
       1.2784683945757452e+03, -1.3767209230001851e+00,
       1.4067887305281708e+03, -1.3025077456181344e+00,
       9.1941687278840618e+02, -1.1173237398007989e+00,
       1.4003936983795791e+03, -1.8202998114063729e+00,
       1.0147839592406817e+03, -1.8262434486842569e+00,
       1.2649073186543499e+03, -1.1314429071314756e+00,
       2.1839450147969796e+03, -1.1446249991634305e+00,
       1.3104564496718951e+03, -1.4152705591653709e+00,
       1.1901987885419442e+03, -1.1736130148393267e+00,
       1.2059053238144481e+03, -1.4874767342913116e+00,
       1.4270480210640835e+03, -1.1404288491768635e+00,
       1.7672013630251201e+03, -1.3448921817644888e+00,
       3.9634977720448791e+02, -1.0785837627675308e+00,
       1.3677137174886043e+03, -1.6174024267282354e+00,
       1.4928257841639809e+03, -1.3214450560013207e+00,
       1.4817548413329162e+03, -1.3405059114379301e+00,
       1.5629081977608116e+03, -1.3741869944705218e+00,
       1.0031013991121099e+03, -1.5019026133408480e+00,
       1.3405000330854352e+03, -1.5488795007532814e+00,
       1.2587722614809293e+03, -1.6851309965135883e+00,
       9.4728487115309963e+02, -1.5074735623945641e+00,
       2.0419916600647841e+03, -1.6142071996211487e+00,
       7.3393646326644637e+02, -1.3023713830358810e+00,
       8.9170832182739366e+02, -8.6798521936997852e-01,
       8.4488646773675725e+02, -1.2733920492516098e+00,
       1.3738283757513896e+03, -1.6363756652542065e+00,
       1.5662261948921628e+03, -1.4451520946639704e+00,
       1.5883746899416885e+03, -1.6051034356501004e+00,
       1.3571791970331140e+03, -1.2939293025649430e+00,
       9.6280787708483342e+02, -1.0928597474143156e+00,
       1.4269691805582866e+03, -1.7622416177502829e+00,
       1.6852292172080315e+03, -1.3272075853559331e+00,
       1.4286766016808658e+03, -1.3304528095057548e+00,
       1.0791566984479862e+03, -8.5159412050214756e-01,
       1.4137743691839946e+03, -1.4484957010703714e+00,
       1.3614552658654575e+03, -1.3208221279518724e+00,
       1.3505373247957536e+03, -1.4246111492065259e+00,
       1.3264547525673697e+03, -1.2404680872410310e+00,
       1.1873683868837311e+03, -1.3766687864937484e+00,
       1.6294472218350404e+03, -1.4841121886622184e+00,
       1.5063636218853874e+03, -1.5054751669525883e+00,
       1.4707783692851419e+03, -1.5349062910843516e+00,
       1.3648685468457161e+03, -1.3656815170452083e+00,
       1.2936053347005025e+03, -1.5817656874006236e+00,
       1.2892930563026216e+03, -1.5524113868780700e+00,
       2.0554963767577146e+03, -1.7475825358235930e+00,
       1.5223040056482405e+03, -1.5112011138933887e+00,
       1.5635363357683927e+03, -1.4217250554618550e+00,
       1.0695676435493124e+03, -1.1666064545885153e+00,
       1.3119210445739470e+03, -1.1507800354786977e+00,
       1.6624341803020948e+03, -1.2253634404401383e+00,
       1.7347562345228405e+03, -1.6881938147621458e+00,
       7.1172806309716054e+02, -1.2191833718172300e+00,
       1.7012322782826445e+03, -1.2480960987491676e+00,
       8.4094682426576196e+02, -1.1342745477949998e+00,
       1.5226795482722518e+03, -1.8549173332167015e+00,
       1.4623391850762118e+03, -1.6574069727017364e+00,
       1.3231961226233623e+03, -1.3521062217687023e+00,
       1.1277260834433362e+03, -1.6761559341820174e+00,
       1.7873658439915050e+03, -1.4869791693536865e+00,
       1.0651296255308100e+03, -1.0360973220956742e+00,
       1.0899093731591761e+03, -1.5633845823077008e+00,
       1.2512722899924322e+03, -1.8380203667863906e+00,
       1.7199475557650642e+03, -1.4591283509428947e+00,
       1.3109344156646423e+03, -1.9733190057677970e+00,
       2.0580102752168618e+03, -1.6542605912529023e+00,
       1.2076973599737187e+03, -1.6711496861600044e+00,
       1.9104146045581533e+03, -1.4210554339379990e+00,
       1.2570499976232936e+03, -1.3762179017062424e+00,
       1.3251306038304474e+03, -1.2103697272669884e+00,
       1.7615228857714876e+03, -2.0106822315321486e+00,
       1.1681273079507937e+03, -1.5592753360695437e+00,
       8.8106462889268403e+02, -1.6736487779220839e+00,
       9.5360369194714713e+02, -1.3723066590618742e+00,
       8.6652768227214153e+02, -1.5837246589916714e+00,
       1.1528815858002872e+03, -1.3406879805506926e+00,
       1.4985110505544212e+03, -1.6480644091056111e+00,
       1.1833536846428497e+03, -1.6943419416777368e+00,
       1.7114560625815097e+03, -1.6504418734199158e+00,
       8.4438997286849451e+02, -1.4362639290345802e+00,
       1.4993161174588299e+03, -1.7007243850896026e+00,
       1.7874205961956250e+03, -1.4935363901902725e+00,
       1.1745109103472319e+03, -1.6509627909944971e+00,
       1.3399133540807900e+03, -1.2647698960646903e+00,
       1.7511015853857259e+03, -1.7953508321266385e+00,
       1.1821411582619244e+03, -1.2963246450492303e+00,
       5.7151710314771788e+02, -1.1939682593060983e+00,
       1.5505989487305376e+03, -1.6664688804389358e+00,
       1.4134819197402430e+03, -1.1066165579597909e+00,
       1.1306710415753935e+03, -1.7970168109890010e+00,
       1.1624290995283945e+03, -1.6619648698549656e+00,
       1.8007131546799972e+03, -1.8864761795294647e+00,
       1.5388802471313584e+03, -1.6984646142077249e+00,
       1.7694345951023565e+03, -1.8897874385268614e+00,
       1.3462839265651367e+03, -1.5086277068072405e+00,
       1.7539641439355178e+03, -1.3682572115672635e+00,
       6.7292902574992468e+02, -1.7926570775446982e+00,
       2.1018452916183151e+03, -1.5075744293718960e+00,
       1.9686747042328961e+03, -1.3251578372341952e+00,
       1.0386720702137047e+03, -2.1465721217866505e+00,
       1.0812273444585646e+03, -1.5487999776357284e+00,
       1.3925001630963259e+03, -1.6295316664215960e+00,
       1.5386978601482485e+03, -1.1860364263748191e+00,
       1.3164048946540772e+03, -1.3133370337268542e+00,
       7.6665133963957601e+02, -1.2662901566554101e+00,
       8.4637192753903514e+02, -1.2082922739597322e+00,
       1.6093989084122570e+03, -1.1884785027209270e+00,
       2.2020804611548965e+03, -1.7002186966566770e+00,
       4.7381762457398150e+02, -1.1262842059306757e+00,
       7.7702396241594420e+02, -1.0107221795569381e+00,
       1.6825437538889787e+03, -1.2123391529465564e+00,
       1.5504269291036617e+03, -1.1881023001177713e+00,
       1.0205623928121513e+03, -1.5352455622672048e+00,
       1.5738249869197830e+03, -1.4436119405130974e+00,
       1.5433155120564170e+03, -1.3877471806727382e+00,
       1.4446017330389950e+03, -1.5764362901518756e+00,
       1.2619122754237665e+03, -1.8272664301988213e+00,
       1.3813049373405090e+03, -1.4255556639119793e+00,
       1.4742740561923199e+03, -1.8294909179197094e+00,
       1.0862878244651406e+03, -1.5363031387033350e+00,
       1.6401529671982917e+03, -1.3186411298259451e+00,
       1.7490908982278186e+03, -1.5995434441230989e+00,
       4.7657886044426448e+02, -1.0944700290368239e+00,
       1.3860778111438860e+03, -1.2914636245809192e+00,
       1.1833468611908856e+03, -1.6823905859769424e+00,
       1.3725201422240752e+03, -1.2563742172016681e+00,
       1.3324455449989855e+03, -1.8082707169010941e+00,
       1.3077694812180969e+03, -1.1577093571430614e+00,
       1.1891994772810554e+03, -1.5872981527337793e+00,
       1.2083269387921946e+03, -1.4289228500803348e+00,
       8.0680572041073037e+02, -9.0493350863874455e-01,
       1.4004118347601284e+03, -1.0682171712691160e+00,
       1.2892158182077080e+03, -1.7085238195885879e+00,
       1.9101259149162274e+03, -1.4644256649521381e+00,
       1.8840815140165880e+03, -1.6845010035124843e+00,
       1.9437061291614316e+03, -1.5384668966073110e+00,
       1.0496873808018177e+03, -1.5833813372183814e+00,
       1.3090473091895744e+03, -1.3910633169509214e+00,
       1.6259416093230050e+03, -1.2592744685513801e+00,
       7.7254993378278198e+02, -1.4270664440346590e+00,
       1.2443977688599086e+03, -1.3668209584620057e+00,
       1.3482065442720409e+03, -1.4895959020461877e+00,
       1.4045880947003366e+03, -1.4438269866848028e+00,
       1.8377889586009226e+03, -1.5245531942911090e+00,
       1.2950864689624350e+03, -1.0530123094018751e+00,
       5.4438523448334956e+02, -6.7030873484134734e-01,
       7.2886340504452767e+02, -7.9019041128879908e-01,
       9.3900257031025103e+02, -1.6224220870907384e+00,
       1.6049779036762757e+03, -1.6788012266690533e+00,
       4.6792850892481522e+02, -1.3375839101843323e+00,
       1.2953005237415687e+03, -2.1006202513973844e+00,
       1.8864741037520230e+03, -1.3033851339387179e+00,
       1.0038675315004101e+03, -1.5368237114044716e+00,
       1.3202986391924380e+03, -1.6528838426739123e+00,
       1.2636770702582505e+03, -1.3000969531337485e+00,
       1.2820419410451116e+03, -1.2389021164782572e+00,
       1.6387034114472458e+03, -1.6167099413154296e+00,
       1.7291134068083882e+03, -1.3501631119865838e+00,
       1.5267375534077219e+03, -1.4114279238332363e+00,
       1.4851277867055842e+03, -1.7788633596110079e+00,
       1.0659007812834582e+03, -1.2707373424064918e+00,
       1.6025657382952268e+03, -1.6198102850274847e+00,
       1.1307647317063199e+03, -1.5570661399129926e+00,
       1.6815616191151255e+03, -1.3167290467069548e+00,
       1.4712314592680441e+03, -1.5451284499679117e+00,
       1.5991586466204883e+03, -1.3964851757607855e+00,
       1.1895687168008726e+03, -1.1808702307680126e+00,
       1.1424892373787357e+03, -1.1181399785159640e+00,
       6.8037910227466023e+02, -1.3021462267608928e+00,
       1.2559340730630624e+03, -1.8516023687120085e+00,
       1.6036793638644679e+03, -1.5802974931866118e+00,
       1.4135028693332140e+03, -1.3629902588141711e+00,
       1.0132989455314556e+03, -1.1475133293799862e+00,
       8.3057944156795179e+02, -1.0962156464021751e+00,
       1.1876003382858523e+03, -1.3647534112967123e+00,
       1.2456732599436396e+03, -1.6007001055633772e+00,
       1.2804600876133618e+03, -1.7987437192151159e+00,
       1.9987167948728852e+03, -1.4951133194133570e+00,
       9.1770531656620221e+02, -1.0451208681072446e+00,
       7.3078601600839158e+02, -6.0090481103200111e-01,
       1.4609049247604660e+03, -1.5051804167470546e+00,
       6.9471083180633627e+02, -1.5915547266223500e+00,
       1.4966531192314387e+03, -1.4196046922536065e+00,
       1.2525992862405139e+03, -1.2844850226166469e+00,
       1.8637110443125814e+03, -1.3458822559732693e+00,
       1.1167904761236578e+03, -1.2215474155545747e+00,
       1.3150094963902079e+03, -1.5698346163524324e+00,
       5.5055740126675005e+02, -1.1247515617400481e+00,
       1.5942018373857863e+03, -1.5979968580497887e+00,
       1.4158166228779737e+03, -2.1208178264062889e+00,
       6.8521292859366190e+02, -1.1849686915273654e+00,
       1.2410475249092608e+03, -1.4512108707624303e+00,
       9.8526817799570813e+02, -1.5331197541681694e+00,
       1.2542789440863644e+03, -1.3461907669792046e+00,
       1.5133038851760077e+03, -1.2925308265419160e+00,
       9.7809868048876490e+02, -1.0368973463545554e+00,
       1.4503734132380057e+03, -1.2750288020517635e+00,
       1.0848426072655684e+03, -1.3878806865777265e+00,
       1.0397667194364992e+03, -1.2540163811020650e+00,
       1.0533285476410942e+03, -1.6986789920469310e+00,
       7.3979719495284189e+02, -1.1814701119748756e+00,
       2.2478016407994037e+03, -1.6470788425189398e+00,
       1.5091201153000188e+03, -1.5177804052437744e+00,
       1.1747758300154767e+03, -1.3446112709801856e+00,
       1.7757756373110224e+03, -1.2834772155647778e+00,
       1.4727417424679545e+03, -1.6708210725620798e+00,
       1.3141944100697201e+03, -1.5160613447892974e+00,
       8.0922956459566160e+02, -1.1410490560193576e+00,
       1.6117328133193041e+03, -1.5674732446190955e+00,
       5.7733100175973516e+02, -1.2148994817936751e+00,
       1.1967875401715119e+03, -1.3012046445290955e+00,
       1.2282865019963326e+03, -1.3570756596349836e+00,
       1.6022292766054413e+03, -1.4666202395085137e+00,
       5.0215492266905954e+02, -1.3086554037369380e+00,
       1.9808622445211925e+03, -1.2951318738367179e+00,
       1.4469293979470433e+03, -1.3820208328124548e+00,
       8.2922338426670433e+02, -1.3995491836110836e+00,
       4.3423785855635617e+02, -1.2165748777104757e+00,
       1.0769243675307005e+03, -1.1936501584305839e+00,
       1.5593139437218695e+03, -1.3583601054795722e+00,
       1.2625640894820726e+03, -1.3799855115341595e+00,
       1.1325891882976325e+03, -1.1347501538810663e+00,
       1.3476461700822113e+03, -1.3255516559514144e+00,
       1.2179480513588617e+03, -4.1648155997905595e-01,
       1.0031906616571088e+03, -1.3066622794430509e+00,
       1.6277232952061913e+03, -1.2874182637047575e+00,
       1.6225552049746552e+03, -1.3890687563930486e+00,
       1.3897379124532174e+03, -1.3785828869810806e+00,
       1.7832987096518793e+03, -1.7555562093233066e+00,
       1.3340727279138569e+03, -1.6459485254162118e+00,
       1.4993105045688410e+03, -1.4247070046754724e+00,
       1.0205539444059834e+03, -1.5610011618068769e+00,
       1.3139362682330116e+03, -1.4796823316159486e+00,
       1.5103388229550783e+03, -1.5907314011521232e+00,
       1.5123478059786519e+03, -1.3107410176582779e+00,
       7.2821855040294633e+02, -9.4716485177504339e-01,
       9.4443900795219474e+02, -7.5700527863979328e-01,
       1.0888693392174071e+03, -1.7370342299004340e+00,
       2.0559373404408298e+03, -1.8853472128806192e+00,
       1.5777249673689553e+03, -1.6299834173484897e+00,
       5.8738526602168974e+02, -1.3659325591105858e+00,
       1.3099224087445230e+03, -1.4476779135352387e+00,
       1.0780412237340740e+03, -1.2433991967554694e+00,
       1.1425083984857458e+03, -1.7044870760509530e+00,
       1.5350715431424326e+03, -1.8306342764344712e+00,
       1.3856814624906328e+03, -1.6744671861191835e+00,
       1.3835938538609994e+03, -1.6014326211545356e+00,
       1.6839131297507656e+03, -1.8692763929609131e+00,
       1.7587090620826989e+03, -1.5113445800885139e+00,
       1.4585825219297810e+03, -9.9116413655124769e-01,
       1.2856172160503186e+03, -1.0632921787111749e+00,
       1.5359837060308373e+03, -1.9522271126435111e+00,
       8.8191066107513859e+02, -1.2069793871209022e+00,
       1.4452000175908199e+03, -1.4679753104211304e+00,
       1.6718312221986730e+03, -1.4355188823485345e+00,
       1.2651039173778072e+03, -1.2080917316192568e+00,
       1.4684416579793030e+03, -1.4732841646509072e+00,
       1.3222404881626205e+03, -1.1705344302924638e+00,
       5.4936932597473731e+02, -7.5645843661233159e-01,
       1.5046694997946565e+03, -1.6024418483289593e+00,
       1.6263286447374053e+03, -1.5337622907329964e+00,
       8.4410031264708118e+02, -7.2976880280260548e-01,
       1.4796182134297705e+03, -1.1137926663317466e+00,
       1.3882386924752093e+03, -1.6591776581607347e+00,
       7.4718025397702615e+02, -1.5772628244913833e+00,
       1.5766647562652968e+03, -1.8169184756115422e+00,
       1.4855099450382145e+03, -1.3376494874293809e+00,
       9.9815680643600945e+02, -1.5006494845472900e+00,
       1.6131835843081994e+03, -1.3320755303851126e+00,
       8.5159735200621969e+02, -1.8506093738166816e+00,
       6.5108661135337854e+02, -1.4679275994412544e+00,
       1.0342332031611168e+03, -1.2165975868929562e+00,
       1.4186377454303047e+03, -1.3807798148533064e+00,
       1.1962061889647139e+03, -1.3208440572485765e+00,
       1.6489573182513266e+03, -1.4383534339719761e+00,
       1.4780207590010132e+03, -2.0738608192287158e+00,
       1.4730360418481996e+03, -1.2564475623412241e+00,
       1.5394007660759071e+03, -1.3857058118436485e+00,
       1.7889402274205956e+03, -1.0343264507668457e+00,
       6.3042953232144794e+02, -9.3060641434432712e-01,
       1.3704148372483733e+03, -1.3158297736569968e+00,
       9.7012581790668617e+02, -1.4379846311394437e+00,
       1.3024636158559349e+03, -1.3704151394329875e+00,
       1.2568740100913617e+03, -1.2133340589995336e+00,
       1.2900861112876701e+03, -1.6591384922975521e+00,
       1.7736213180907575e+03, -1.7022490452730794e+00,
       1.3434584117592931e+03, -1.3938976599500501e+00,
       1.8184608259536888e+03, -1.6646427920078219e+00,
       4.9027168699400983e+02, -1.2483958637503081e+00,
       1.1947138700848564e+03, -8.5279725112072458e-01,
       1.2194442240666151e+03, -1.4150396564656691e+00,
       1.7347840899381843e+03, -1.4176788655544756e+00,
       1.2613484425345086e+03, -1.0094110790360260e+00,
       9.3382432467743854e+02, -1.3814798323419240e+00,
       7.7977813368522322e+02, -9.9930601801056484e-01,
       7.9633442137418513e+02, -1.7140885330717324e+00,
       1.3560948511574036e+03, -1.6240248034154425e+00,
       1.5327739461534384e+03, -1.4470394130621675e+00,
       1.5412864854708648e+03, -1.6677552803696540e+00,
       1.4265755934269769e+03, -1.3128267563763156e+00,
       1.7908410927993280e+03, -1.7963303375180237e+00,
       1.4443823308120702e+03, -1.4984851267289965e+00,
       3.7652036815299198e+02, -1.1095056792885101e+00,
       1.2691304872924395e+03, -1.7229483228375031e+00,
       1.7452081636526839e+03, -9.9368881904368056e-01,
       1.4290443466781951e+03, -1.1117459162776140e+00,
       1.2806399834025515e+03, -1.1530551566923686e+00,
       1.3478599217794522e+03, -1.6020283015334142e+00,
       1.5032061167245483e+03, -1.4352733455326796e+00,
       1.3463061568530877e+03, -1.5269055182246636e+00,
       1.9303835542562074e+03, -1.5455102765193995e+00,
       1.6327798825215505e+03, -1.3511033720675301e+00,
       1.0418908969921547e+03, -1.3695692725958615e+00,
       1.4310371360995225e+03, -1.3715824765843845e+00,
       1.7562258365625453e+03, -1.1858062959584919e+00,
       6.5247578262514583e+02, -1.7351321219719145e+00,
       1.7216869330162481e+03, -2.0711996333675855e+00,
       1.4189738924186263e+03, -1.5157338957550206e+00,
       9.7446538253029075e+02, -1.3664958463370305e+00,
       1.5131696589282387e+03, -1.4971981860082162e+00,
       1.1994962598205850e+03, -1.1053473261083520e+00,
       1.5422865306759793e+03, -1.5759957997638621e+00,
       1.3282055790615971e+03, -1.5139283761450111e+00,
       1.9500319563779035e+03, -1.5923796955450218e+00,
       1.4047068865869055e+03, -1.5238088454031185e+00,
       9.6956144035084094e+02, -2.0427837071403547e+00,
       1.4735735384221596e+03, -1.6081279997632572e+00,
       5.8742562191628087e+02, -1.2549907538649538e+00,
       1.4156999711647545e+03, -1.6135032938953144e+00,
       1.2226694187556000e+03, -1.8255634779047991e+00,
       1.4446716605050608e+03, -1.8470613166016205e+00,
       1.2730731478872542e+03, -1.1117212568499228e+00,
       1.3640162139288782e+03, -1.5414050299412601e+00,
       1.7193804376316727e+03, -1.4829409145267924e+00 ]
   output_scale: [ 1.0526315789473684e+00, 0. ]
   inv_output_scale: [ 9.4999999999999996e-01, 0. ]
   weights:
      - [ -3.5864003328805731e-02, -3.6433344420356902e-02,
          2.6591962583362168e-02, -2.4602797783469330e-01,
          -8.1392540272313768e-02, -1.1167477594410273e-02,
          6.0818102799000151e-01, 1.5091847615879775e-02,
          6.1743957969198106e-02, -2.3955262261065191e-01,
          -4.9516443925324373e-02, -2.9094253362845313e-02,
          2.1498391294844647e-02, -2.6268042337853875e-02,
          -2.1570430901895948e-02, -2.7093253211760149e-01,
          -2.5259025908482845e-02, -3.4840926210506697e-02,
          2.1033751224934169e-01, 8.2424628416242745e-03,
          1.2577710988557759e-02, -6.4269488611648065e-02,
          -1.5674481147294323e-02, 4.4612797605260825e-03,
          -3.2449880961328120e-01, -4.5535189835271904e-02,
          -3.4879533169906968e-02, 7.6090503858090908e-02,
          -2.4188276085559238e-02, 1.8688054342080870e-02,
          1.1759166396045694e-01, 1.1558909204666014e-02,
          2.6274642442787939e-02, 2.0629601953192037e-01,
          -1.3633139778450147e-02, 1.6473846183083889e-02,
          -3.0973348855478866e-02, 1.1562561329000996e-02,
          -1.5436912387665260e-02, -8.6238686932702577e-02,
          6.4672146541105337e-03, -3.8343898308888448e-03,
          3.4297063299975415e-02, -6.6967358689708628e-02,
          1.6931106568992646e-02, -1.7774717451061978e-01,
          -2.6497550419882633e-03, -2.8716052712083530e-02,
          -1.4955729618043004e-01, -6.6840303153144931e-02,
          -1.8155278784544396e-03, 5.1450163186646226e-02,
          6.7798048788977355e-02, 2.9725378630616833e-02,
          -6.6035680380722092e-02, 4.4127959359643490e-02,
          -9.5142870364010677e-03, -7.9774126538697240e-02,
          -6.1561263971237363e-03, 1.2414498606731227e-02,
          -2.6686067690121540e-01, -4.2372693922659792e-02,
          -4.0375436496727660e-02, 8.0357158997460598e-02,
          2.5056196912591825e-05, 7.5885804515983730e-04,
          -1.3046953865491240e-01, -1.9183421087368892e-02,
          1.7856515002974999e-03, -6.0964663238339087e-02,
          -1.1368576235898374e-02, -1.1962409805782379e-02,
          2.0626161750185565e-01, 3.1137062101756468e-04,
          3.6130051555054624e-02, -8.8714703141587359e-02,
          -2.0935644987134776e-02, -8.0389603936406109e-03,
          -8.9949632659764189e-02, 2.9559546296952098e-03,
          -2.0104143255165633e-02, 1.1331458426125554e-01,
          4.7884505075401450e-02, -1.9296096709918477e-02,
          1.2001837946233428e-01, -2.2641255938418751e-02,
          1.0542356797013298e-02, 2.6278773752593229e-02,
          -2.3673146284115817e-02, 8.3583243540127344e-03,
          3.1767446325258401e-02, -1.5123859624731612e-02,
          8.0399005539402747e-03, 1.1286942462723672e-01,
          2.8738789429213960e-02, -2.7588962756891888e-02,
          -6.0880358201654564e-02, 1.6946245904414788e-02,
          -4.4795090631773948e-02, -1.7159713416877494e-02,
          1.9846774567146516e-03, 2.8969981805970317e-02,
          -3.2073531610026779e-01, -4.0994646268970522e-02,
          -3.6940016929614711e-02, 1.6874881502835470e-01,
          4.8306994733981444e-02, 2.0778225950777426e-02,
          -6.7622596940881116e-02, -3.7892359204876915e-02,
          4.1311555748438873e-02, -5.3289014269763534e-02,
          5.1330667210961849e-03, 8.1999735923199979e-03,
          -3.6899498314203250e-01, -4.1461954137950195e-02,
          -6.1337685309379990e-02, 2.6997276291589584e-01,
          4.1514741788483293e-02, 5.9049824508954039e-02,
          1.1850933520125750e-01, -3.2783389778390979e-03,
          6.5869533797634889e-04, 1.1745605314630876e-01,
          -5.7559683283906152e-03, -9.4978294099620410e-03,
          2.5238133738522628e-01, 7.0270902163614327e-02,
          2.8107471066669651e-02, -3.2616856695421192e-02,
          -1.4138365456501883e-02, 1.5310951899430963e-02,
          -1.0823815928427406e-01, -3.5470098572790716e-02,
          -5.1399822446470657e-02, 1.0788911266810268e-01,
          3.1590209900174214e-02, 1.4378021192790594e-02,
          -1.3274205746738967e-02, -6.1319152805002584e-03,
          3.3577641777561458e-02, 1.6516699528001744e-01,
          3.9215593865978427e-04, 1.0450770640937584e-02,
          1.7785426970396333e-02, 1.3558338437444887e-02,
          -3.3614478265820050e-02, 9.3593891960367173e-03,
          -6.2457545174592825e-04, -1.5557096751007802e-02,
          1.4729487902483426e-01, 1.4384445737755842e-02,
          6.5185580627832983e-03, 1.3281546384745824e-01,
          1.7322985242484285e-02, 3.0178899602959768e-02,
          -4.9473067492116066e-02, 9.8391323213736217e-04,
          3.6043945876989676e-02, 1.0453077743518716e-01,
          2.7290106228772006e-02, -8.3698168142355104e-04,
          -1.7934988472485472e-01, -3.6209765262649032e-02,
          -3.2264049168392775e-02, 4.7225021976402465e-02,
          2.6966228049971896e-02, -1.2442472011891836e-03,
          1.2520003378802178e-01, 1.3975272067665023e-02,
          6.9192435182162939e-03, 4.6948184854577163e-02,
          3.1348715480706502e-02, 9.2289458393391977e-03,
          -4.1095258278038942e-03, -6.3965199827537775e-03,
          2.0514345158682907e-02, -3.9218456172706384e-01,
          -5.2829272604300530e-02, -2.6691665147066695e-02,
          -1.0881478153924831e-01, 8.2065742928201044e-03,
          -1.3458806006305495e-02, 1.4528704199197895e-01,
          -6.5921282459628500e-02, -5.4744412780632336e-02,
          7.8784707032187511e-04, 6.6719436274407049e-03,
          8.8103976160750219e-03, -1.8042811368911990e-01,
          -8.9569999104278597e-02, -5.0142402081469292e-02,
          -2.3521289803909964e-02, 3.2800533880427446e-02,
          1.2622476910807600e-02, -1.4343541497435197e-01,
          -2.6456884443985810e-02, 4.9582226551823797e-03,
          -3.0938073366047608e-01, -5.7921805799593239e-02,
          -2.4591075573462101e-02, -7.6343246841196991e-02,
          2.2513422875120308e-02, -2.2670102007289489e-02,
          -2.0144865797898595e-01, -2.0301517314029020e-02,
          -3.5319158099729034e-02, 1.1052805541298266e-01,
          5.8839762087003311e-02, 2.1679930104611153e-02,
          -1.6831644775233931e-01, -4.2945763974096662e-02,
          -9.5803106553520381e-03, 1.2081696343735709e-01,
          2.6506535894752856e-02, -2.1946667328245521e-02,
          -3.7778294025211906e-02, -1.6841866699579301e-03,
          -2.3534305894832418e-03, -2.4000486509440150e-01,
          -8.6033312764534128e-03, -1.9499757636950787e-02,
          2.2967731080087334e-02, 7.5737369528441137e-02,
          -4.8551045835240345e-03, -6.9774653811165196e-02,
          -2.1748297564652810e-02, -9.7377702086848383e-03,
          -3.1997050142634056e-02, 4.9950108592790889e-05,
          -1.1922851551013747e-02, 9.5123829171092661e-02,
          -2.0623289420464083e-02, 3.5148902393643744e-03,
          6.8475237000055131e-02, 2.6367803710870157e-02,
          1.2323461545924213e-02, 1.5463470177092367e-01,
          1.0245073188236975e-01, -7.0773949611920928e-03,
          -1.5623262140281191e-01, -2.9193990071207848e-02,
          -1.3293949915011403e-03, -7.8309349478165230e-02,
          -3.0653773145532467e-02, 1.1347829427595128e-02,
          -6.4967104960460778e-02, -1.4882503740956572e-02,
          1.3893122075870947e-02, -5.0944119360862711e-02,
          -6.6139808721684776e-02, 2.2275035229336264e-02,
          -2.5485115048939694e-01, -9.3658367764092684e-02,
          -3.0282576981504244e-02, 1.3822398439938036e-01,
          3.6174205781914624e-02, -3.1678084002254303e-03,
          1.3390887042862093e-01, -6.2955556021889902e-02,
          1.0519762298067349e-02, -2.2921254403249242e-01,
          -1.0331970700436692e-01, -1.4455565630473734e-02,
          1.3483910515523603e-01, 3.6453310806012426e-02,
          1.1092468404970964e-02, 8.0003235762468899e-02,
          3.8508694051113952e-03, -2.0927099106215343e-02,
          8.0464571948313073e-03, 2.0095485702882273e-02,
          3.1513131659363307e-02, 3.6240437010674531e-01,
          5.5812269773118560e-02, 2.6877013257381246e-02,
          -1.8761829312108372e-01, -6.1231084090941149e-02,
          -2.0768585087553568e-02, -1.6660275541539443e-01,
          -7.0012457012653155e-03, -2.8338377195462852e-02,
          -8.3989968202670837e-02, 5.3998984617827858e-03,
          -4.0878898611478622e-02, 5.6633435095087899e-02,
          -3.4327090014006731e-02, -1.0980671472249504e-02,
          -7.4623833724446656e-02, 1.6398206500407620e-02,
          7.5307350852004875e-03, -6.8364215486983501e-02,
          -8.9302470111455340e-02, -3.0867731396093279e-02,
          -2.8424736660906269e-01, -7.9537411501227992e-02,
          -1.1608761338142454e-02, 2.7992494554929898e-01,
          1.2048636187793534e-02, -1.5161759421335078e-02,
          2.6310965523161245e-01, 6.3118329612023252e-02,
          2.7757793866480331e-02, -8.4512892442490994e-02,
          8.4921913179986184e-03, 1.8032932480951482e-02,
          1.0571078650904818e-01, 1.3010933771169535e-02,
          2.2604781501462570e-02, 2.6743059597279778e-01,
          -2.7304651945250842e-02, 1.7305214684459207e-02,
          -4.3725516462520680e-01, -6.7330617547668684e-02,
          -6.3527839260524813e-02, 1.0778752585004414e-01,
          -2.3558716560417008e-03, 4.3388565700567755e-03,
          2.3642802737371415e-02, -3.2452455235433088e-02,
          8.3081698457625999e-04, -1.5972556724819684e-01,
          -2.3716127292036614e-02, -3.9961021052454630e-02,
          -3.2893164403287344e-02, -2.2536504776229250e-02,
          -4.9930951315473662e-02, -1.4977353926563924e-01,
          -3.8804294458312086e-02, -9.3456963960156739e-03,
          3.2024755237989814e-03, -1.1890360371795356e-02,
          -1.0904920687448106e-02, -2.5986672233368335e-01,
          -2.7476555470469514e-02, -2.3225572069126121e-02,
          -1.4723782946429800e-01, -3.3758612845244083e-02,
          -2.5228383326853228e-03, -1.5443161667120761e-01,
          -3.9073870135039511e-02, -2.5801163229021623e-02,
          1.3619570869365563e-01, 1.6875842528873714e-02,
          5.2952436386609965e-02, -6.0236764566430991e-02,
          -2.4840144701588858e-02, 4.0669165300380103e-03,
          -8.1418893951299975e-02, -1.4243522922198727e-02,
          -6.0200811728340374e-02, 2.2481261508291699e-02,
          5.0719981022288758e-02, 2.4212749794561794e-02,
          2.8863648773553774e-01, 6.8980340043436256e-02,
          -2.2180995610026105e-03, 5.6644776860870487e-02,
          4.6360654768322324e-02, 2.2430738810250310e-02,
          3.0008283289244986e-01, 6.3268748846408290e-02,
          3.2377525421244474e-02, 1.1319000791650323e-01,
          1.3786552841613228e-02, 3.1271719172102162e-02,
          -1.7140960418746762e-01, -4.5999878496665134e-02,
          2.2984251162078479e-04, 1.2471791995265078e-02,
          -2.2950896159951419e-02, -1.0224333586010282e-02,
          -1.2177333656675078e-01, -1.9225636203956908e-02,
          2.3540419380401936e-02, 6.8628161748041178e-02,
          7.0252843361148148e-02, 6.4200963893045002e-04,
          1.3862441785134397e-01, 2.7730985870337305e-02,
          2.6657113567960092e-02, -5.2202841622368212e-02,
          -4.3615752764218493e-03, -2.7808924703286917e-02,
          -1.3725850603629365e-02, 4.1211578743224342e-02,
          -3.3824001250897372e-02, 2.3276531494170286e-01,
          2.5807020339536337e-02, 1.9725192825453884e-03,
          -2.2160409754813381e-02, -3.7592569760701716e-02,
          -3.9671322792267427e-02, 2.6189131327814430e-01,
          7.4790597058974506e-02, 1.4618896383657071e-02,
          3.4076251511210870e-01, 1.2456966156863951e-02,
          8.5900104380651678e-03, -1.7392521735563549e-01,
          -7.7043144626206678e-02, -8.4974508188666205e-03,
          -7.8346250506892437e-02, -1.7361387681440008e-02,
          3.0060150696111193e-03, 6.0524279259912925e-02,
          -2.5114754790356228e-02, 2.1870279533103224e-02,
          -2.8287184057053699e-02, -1.3020835186149871e-02,
          1.2033361104900663e-03, -3.0166166105924241e-01,
          -6.1713533923022798e-02, -1.3673143299690946e-02,
          -7.3185729321718018e-02, -1.6122681317605053e-02,
          4.8283650284136875e-03, -7.9935199954595040e-02,
          -8.8240276157573270e-03, -1.0413626411611768e-02,
          2.0362020881372758e-01, 2.7641889886310264e-02,
          1.5347246563517087e-02, 2.7614397584247202e-01,
          2.0681396696437277e-02, 2.2660103875427832e-02,
          -8.4886447125553557e-02, -5.7217318620693429e-03,
          -2.3711426963795405e-03, -8.1652407411193520e-02,
          -4.5668466456901043e-02, -2.2255985434965282e-02,
          -1.2995541091504860e-02, 7.3911048751212263e-03,
          -8.8284855489668568e-03, -1.4715064155593890e-01,
          -3.0795798166987309e-02, -3.6548626245885479e-02,
          1.0607983851928468e-02, -7.0759749064466554e-02,
          3.7468306827362505e-02, 7.7138663429893077e-03,
          -3.4673733363526867e-03, -4.0992912080903068e-02,
          -6.6476294522176793e-02, -1.8049611025671826e-02,
          -3.1113646392353120e-02, -8.6277979957645357e-02,
          1.3209074468930113e-02, -3.7803875494258586e-02,
          -1.6431773569504007e-01, -3.0608703457410610e-02,
          4.7434941124017719e-03, 1.7253944194097201e-01,
          5.4075752745181518e-02, -1.7491642130304866e-02,
          -1.3540615363977712e-01, -4.1811007617742785e-02,
          -1.2188759639869887e-02, -3.2851367507820022e-02,
          -7.5258474051128912e-02, 3.2709958922217024e-03,
          -3.0135999828154475e-01, -5.9428634508866082e-02,
          -2.2480201311495831e-02, -6.2725486237494521e-02,
          -4.8516531939167253e-02, -5.3157500010243977e-03,
          -2.9125129176340403e-01, -3.6558915878866699e-02,
          -4.1565919203614202e-02, -2.2299153607106137e-01,
          -4.4943942419445632e-02, -1.6403589997780757e-02,
          -5.3476708497143040e-02, 2.5419598215691369e-02,
          -1.3810242877327433e-02, -1.2192394756625745e-01,
          -3.3129276755690953e-02, 8.7193711432261151e-03,
          8.6140990738958464e-02, -3.0239776491105562e-02,
          4.6350833218986212e-02, -1.5056305793096135e-03,
          2.5335274429286955e-02, 8.1114131170747172e-04,
          -1.5434931629620732e-01, -4.2573141973362514e-03,
          -5.8679037137814090e-02, -2.0795733655984058e-01,
          3.0287801560952735e-02, 3.9905641726606812e-03,
          -1.5504516039924271e-01, 2.3788536463996247e-02,
          -1.7535005155934905e-04, -3.6150665609327469e-02,
          2.7395381128264135e-02, 2.0682773027465028e-02,
          -5.1838249891307780e-02, 1.2728929570632612e-02,
          1.3499183609279240e-02, 1.4017692673429608e-01,
          1.4963163342926593e-02, 3.0258065841606092e-04,
          -6.8034760356583068e-02, 4.0380337310435090e-02,
          -6.3165863283625057e-02, -3.6833550969606395e-02,
          -2.8481021852615904e-02, -1.4938414799417160e-02,
          -8.0184862831475467e-02, -2.4967620697356242e-02,
          1.4300681049879509e-02, -6.5820226982839014e-02,
          2.9960605717590383e-04, -5.4369646448113991e-02,
          -1.1061427009140443e-01, -4.7987585138439585e-02,
          -3.1845692828340157e-03, -1.9733250135173452e-01,
          -7.1838264264939222e-02, -4.7528513380918250e-02,
          2.0712949774078526e-01, -7.3771596204528344e-03,
          4.7212856493958129e-02, -1.3347366344412975e-01,
          -6.2742463310943880e-02, -3.5442761045363029e-02,
          9.4935161146472075e-02, 2.3860401234926450e-02,
          6.5787416718119480e-03, 1.3254286416309338e-01,
          -2.3940972372100415e-03, 2.4979943366631258e-02,
          3.5426906652795749e-02, 2.4410201061084466e-03,
          -2.2750555963270386e-02, 1.1714518101444545e-01,
          -1.7197532027634292e-03, -4.2603645711618073e-02,
          2.0697896951222966e-01, 8.9238429151395800e-03,
          3.3793770131912218e-02, 1.3515544937173463e-01,
          1.2189115285995067e-02, -1.3862801154973525e-03,
          -1.2372206356902186e-01, -2.9321658722965271e-02,
          -2.9426328799854691e-02, 4.8681494333595296e-02,
          -6.1849469381498818e-03, 2.1872017032507790e-03,
          -6.0159445573493633e-02, -1.9905058673613418e-02,
          3.7341611423032392e-03, -1.6919534770897834e-01,
          -3.4692627894087731e-02, -6.1748920905485234e-02,
          -3.7725095610764814e-02, -3.4080075560132789e-02,
          -2.4667585776169114e-02, -1.2336808693758661e-01,
          -8.9795449406888817e-03, 5.4776833452840883e-03,
          5.2784284401977077e-02, -2.2395117421143244e-02,
          9.1797904484950347e-03, 2.2758159866308900e-01,
          7.8352275084271825e-03, 2.2709817212892745e-02,
          7.3528346382343748e-02, 4.2814228996745925e-02,
          4.6930984131577230e-02, 6.4351908695473192e-02,
          -1.9569158444184481e-02, 1.1309181726079408e-02,
          9.8105416997153957e-03, -7.8616455372473460e-03,
          2.1358266966117877e-02, -1.3187252176905825e-01,
          1.1126351513933356e-02, -2.9951807741332170e-02,
          -2.3458603585878295e-02, -7.0167186992692018e-02,
          -1.5501500446499204e-02, 1.9926276118670538e-01,
          8.6840872239048267e-02, 4.0687318888000389e-02,
          -1.6716042563709196e-01, -1.2359666024889453e-02,
          5.7204598536919567e-02, -1.7180340771302934e-02,
          1.2545850335617557e-02, -7.6130588233484623e-04,
          7.4390575997957231e-02, -1.7003292561843492e-02,
          8.5373331952148211e-03, -1.6867587836425227e-01,
          -2.4293445187761734e-02, -1.1469236654723089e-02,
          -1.0961208863896445e-01, 8.1263813430730006e-04,
          -4.9276308501547295e-02, 2.5943777257291251e-01,
          4.0933764355485007e-02, 2.4706168988184753e-02,
          2.1891859004093173e-01, 4.0843901472961330e-03,
          3.7019053591694509e-02, -2.1152720967960403e-02,
          2.3251687970913898e-02, -1.2825864863329367e-02,
          -3.5722108172529292e-02, -5.7844703037272988e-02,
          1.4415238024906038e-02, 9.4226492731075209e-02,
          5.3845537976227237e-02, 3.3367879911785697e-03,
          -1.1810177912654997e-01, -2.8032876624235394e-02,
          -2.7610108748799128e-02, -7.7740805977543001e-02,
          -4.9425258504341735e-02, 1.0870194001635369e-02,
          8.0111001076665370e-02, 5.0189579879934963e-02,
          -6.7165281241689141e-03, 2.2902312389286139e-01,
          6.1760033328437484e-02, -1.2627153100614500e-03,
          -1.3775722524697687e-01, -3.9994421339341453e-02,
          -5.4748385205583214e-02, -3.9294445103897353e-02,
          -4.2194029381328033e-02, 1.0984473866733974e-02,
          -1.3677715913100169e-01, 4.6409053155434740e-02,
          2.5781420465274704e-02, 7.0500194649914319e-02,
          7.7536935800165366e-02, 2.9317335111687784e-02,
          2.8253323037493483e-01, 3.8516959865945867e-02,
          5.2531197738810480e-02, 1.6284608697064262e-01,
          -6.3803992933703396e-02, 7.9073444032490506e-03,
          -9.1328362979639741e-02, 5.3323945549640969e-02,
          -2.8534129422250046e-02, 2.7261867875180840e-01,
          4.6166911627823833e-02, 4.3548476674038494e-02,
          1.7510297432592532e-02, 4.1598293888793485e-02,
          2.0998656557943005e-02, 7.5277451071233798e-04,
          -6.0240907275892382e-02, -1.5406670568745721e-02,
          -2.7086044176418639e-01, -2.7047744504718522e-02,
          -1.6475947303009188e-02, 2.1680275533985216e-01,
          -5.3718340072982677e-03, 1.4392201623010257e-02,
          -1.3308863858057479e-01, -2.9071030727999943e-02,
          -3.1935034302072271e-02, 3.4033508723804146e-01,
          3.1526252052607916e-02, 4.0182219180327980e-02,
          -1.6484930557713068e-01, -2.4010135497980360e-02,
          -1.8457905930786890e-03, -1.8436137442370168e-01,
          -1.7253627857570977e-02, -6.8114851815841440e-02,
          -2.6249857853066222e-01, -7.4918406087899347e-02,
          -3.7790251454607668e-02, 2.1471112664283951e-02,
          3.6010824739788630e-02, 3.2386598600959312e-03,
          1.4313873475798661e-01, -1.7514724022991859e-03,
          5.2397967283763433e-03, 3.0245768607438017e-01,
          6.6620592220001967e-02, 3.3192241606774329e-02,
          2.2123620390727780e-01, 3.6583998188786347e-02,
          4.2380750879083016e-02, 1.7433018864261105e-02,
          2.4557252068568937e-02, 1.8623317150793489e-02,
          3.4801144775652459e-01, 4.6711573022485417e-03,
          4.5078847018942381e-02, 1.8798605513211789e-01,
          4.1732174072355896e-02, -2.7647576332209631e-02,
          2.1873619974622546e-01, 5.3790848564749250e-03,
          -8.1552465589100776e-03, 2.5818578708333134e-01,
          5.4141744437903636e-02, 5.8026685958625666e-02,
          -2.8075017873765585e-02, -2.1854953155486082e-02,
          -3.1451185637483288e-02, -1.1423917318311844e-01,
          -4.9843230932553897e-02, 8.1380847950247217e-03,
          -3.8217680181109703e-03, -1.4095281019233134e-02,
          4.7549182471473142e-03, -1.1573938151517932e-01,
          -1.6904071432620321e-02, -2.3087965250686071e-04,
          -3.0944185987055492e-02, -3.3012905236535987e-02,
          -1.5525423576215266e-03, 1.7007172014107963e-01,
          5.5882714284262697e-02, 3.7857324652443958e-02,
          4.2629498668186411e-02, 1.1958441439534454e-02,
          1.5192597397976708e-02, 1.4861802783299075e-01,
          2.8495671328447842e-02, 1.6390483422026401e-02,
          -7.1390368930535714e-02, -2.8922217641573815e-02,
          -3.5762705531811906e-02, 1.6485039871848187e-01,
          2.5893323170974848e-02, 2.1059396579733637e-02,
          1.2254207660592531e-01, 6.1168195445577632e-02,
          -1.8292696472557077e-02, 8.3268378481747979e-02,
          -3.9701807854847393e-02, 7.7303414526566699e-03,
          7.2915529563433140e-02, 7.3397580547296962e-02,
          2.3233371596014172e-04, -9.6203086740032279e-02,
          -6.8553714311410607e-02, -1.2996381782007200e-02,
          3.9374700177941951e-02, 4.1810991796999757e-02,
          2.0252902649094493e-02, -2.2660285962880239e-01,
          -2.7423709771488124e-02, -2.1601450858750971e-02,
          -8.3052387345532802e-02, 5.7865540829849793e-03,
          -3.4242397057803286e-03, -1.1990767801127171e-01,
          7.3639016503292409e-02, 5.7828723872837466e-04,
          -1.7135631378460453e-01, -1.2951552515343735e-03,
          7.2871911554762726e-03, -2.6298526589539623e-01,
          -4.1066541409563999e-02, -3.3527381989806544e-02,
          -1.1127017872768774e-01, 1.2917853110896048e-02,
          8.5787156590571966e-03, 1.0480762329931516e-02,
          -9.8046193480407929e-03, -2.8090228426178498e-04,
          3.3191616440509830e-01, 5.3952736293722534e-02,
          2.5484032272133140e-03, -1.3069284329736855e-01,
          -1.4816655673566149e-02, -5.9817896729697485e-02,
          2.1757968554370150e-01, 4.1420255389445652e-02,
          1.3708200881024080e-02, -1.9785290216724743e-02,
          3.6565069827342450e-02, -5.1817079840727953e-03,
          -2.0740283945732255e-02, -2.1562336978766836e-02,
          -1.6240397149007584e-02, 2.0965075846179161e-02,
          3.2590894452105848e-02, -2.4321799240794539e-02,
          5.9714625607416982e-03, -3.3630342119463363e-02,
          2.6003928084788082e-02, -2.9696538401111100e-01,
          -4.8291748390197509e-02, -1.0655328109851580e-02,
          -2.3836862016178503e-02, 1.4645878937765410e-02,
          -2.9682529678790558e-02, 5.7043260947574552e-02,
          5.7550611935535990e-02, 2.4480196677313101e-02,
          8.5497015670663520e-02, -1.6071359414218916e-02,
          -1.4444660621584426e-03, -2.2394432935509017e-03,
          -7.4572093936480103e-03, 1.8770675213186885e-02,
          1.7021189942924358e-01, 4.4435905383537047e-02,
          3.9726513145671632e-02, 6.2938305204364733e-02,
          3.6993987892847087e-02, 9.7954669005783663e-03,
          2.4183033855049377e-01, 2.8080315365256729e-02,
          6.6278831946942540e-03, 1.0483077412956089e-01,
          5.0479177666131032e-02, 5.1109099185128334e-02,
          -2.6942886832905411e-01, -4.9378332967949294e-02,
          -1.9183408862375611e-03, -1.1948233328021543e-02,
          1.0536027349247802e-01, -1.9860298092855007e-02,
          -1.0550261684078965e-01, -9.3559815415114933e-02,
          -2.5463509722552381e-02, -9.9346217714836788e-02,
          3.7347014398278824e-02, -1.6927437495797705e-02,
          2.1729188930186058e-01, 3.7327051891191704e-02,
          -4.1327400571212758e-03, 7.5120203028079924e-02,
          3.4263331382519358e-02, -1.4988666664620013e-02,
          4.1453799226641957e-01, 4.1318900707350913e-02,
          1.6854445894095287e-02, -2.3863728725739410e-02,
          1.2695969139673389e-02, -1.2000531573822124e-02,
          3.8593271585836350e-02, 1.8939651492892305e-02,
          -2.3454488675999786e-02, -2.0343930484619262e-04,
          -5.7173108065421793e-02, -3.2790811631677554e-02,
          -1.0451114159693670e-01, -1.3509519911764321e-02,
          -1.2252654241678210e-02, -1.5006994225569212e-01,
          -4.6296078462066369e-02, -2.9667020330529873e-02,
          7.1721615775138706e-02, 8.6651057118226960e-02,
          9.3017501906697065e-05, -4.0125538757807722e-02,
          3.1284323154601272e-02, 4.7288443669676458e-03,
          -2.9711946877537518e-02, -1.3449691967426056e-02,
          1.4879671042578658e-02, -2.8999493642223556e-01,
          -6.0457749782610044e-02, -5.0562099293475160e-02,
          -2.2171908022222581e-01, 8.6934751298319689e-03,
          -3.1896739206912120e-02, -3.0612090475827058e-01,
          -4.9037446167292824e-02, -2.8462709289246334e-02,
          -1.9043360336748594e-01, -1.6718648647702943e-02,
          -2.9712941487476951e-02, -1.1247691193754950e-01,
          -3.3178356353109645e-02, 1.0859854522127243e-02,
          -3.3200954642111480e-01, -3.4285366288240540e-02,
          -5.8996851682112959e-02, 1.5711117229557822e-01,
          -1.2062622373818960e-02, 1.8971851985568420e-02,
          -2.2146422017614607e-02, 5.7319934676583445e-02,
          -1.8970823763455238e-02, -2.9842632002418418e-01,
          -3.6856274531169825e-02, -4.1029457444365022e-02,
          2.1105353374965588e-01, -1.1377370724000588e-02,
          3.1493974815814160e-02, -1.7312352565819117e-01,
          5.0732958206395409e-03, -5.6469189077740407e-02,
          5.0974848283449441e-02, -3.8528897646190337e-02,
          -1.6424599350440942e-02, 5.7798528300160501e-01,
          6.4746509240797445e-02, 8.4874475911363503e-02,
          1.7152717206857682e-01, 5.8898297352936984e-03,
          8.4481999215845933e-03, -5.4351757669174175e-02,
          3.2109174355133149e-02, 2.0142783834403551e-02,
          -2.9175613090117003e-01, -4.9453055666753745e-02,
          -4.5511382794326920e-02, -4.1355443290904054e-01,
          -5.3382981025710832e-02, -3.9245342628708907e-02,
          1.2031485542606118e-01, 4.2451080624096540e-02,
          3.0910575508819402e-02, -2.5705762740127702e-01,
          1.7832875462158441e-02, 1.7311425842841354e-03,
          -1.2881058193781708e-01, 5.6960620000083518e-03,
          -3.6567316569387290e-02, -3.7655097448634722e-01,
          -6.2428231760329224e-02, -4.1617415261147463e-02,
          3.4902021992338866e-01, 4.9309676835186268e-03,
          4.0983089466746475e-02, -1.8418022084944835e-01,
          -7.7978723663965799e-02, -2.3930564181858793e-02,
          3.6719320607498807e-01, 5.1630922443057461e-02,
          4.9222185531989052e-02, 2.2487619401441250e-01,
          -9.2171387656202475e-03, -8.2972765368564429e-04,
          5.4118139252406432e-02, -1.0771697225836190e-02,
          2.4307637172277666e-03, 1.7004889752526167e-01,
          4.4172305021127921e-02, 1.9250563696874366e-02,
          2.3839538394522816e-01, 1.8318673822187249e-02,
          3.7687450668862088e-02, -1.1119732886415949e-01,
          5.9255326333331072e-03, -1.8724941060299028e-02,
          -1.4823082383038308e-01, -3.3849051462789138e-02,
          -7.4772175376718033e-03, -2.0316746946522565e-02,
          -3.3298511619233233e-03, 2.0493358699291201e-02,
          5.3692311657919031e-02, 2.8388805111447816e-02,
          3.1063756504805830e-02, -1.2968554517992847e-01,
          -8.4854453459468862e-02, -5.1455967011384976e-03,
          -2.8564642155081643e-01, 2.8028941318884181e-02,
          -6.5955455574207593e-03, -7.4861264389763399e-02,
          9.9184380190883801e-04, 1.6507375703234021e-02,
          8.8843121297551841e-02, 6.4981043873600236e-03,
          1.3315916491812390e-02, 2.1622962589462860e-01,
          1.3615108186534842e-02, 2.5105582666637333e-02,
          -1.4564760434997925e-01, -8.0678086097783125e-02,
          -2.1019295862009308e-02, -1.5041211376372729e-02,
          -1.3049121090769262e-02, 1.5393512838978735e-03,
          -2.4884363358069147e-02, 2.3338374958381653e-03,
          -1.6406586862973589e-02, -1.7579307519668083e-01,
          -4.4128912410292299e-02, -9.5609329931201446e-03,
          -4.1852270614650890e-02, -6.7850069046472103e-02,
          -4.9353816684966252e-02, -3.4205232327642630e-02,
          4.3496560736796842e-02, 8.4111530357826036e-03,
          -5.7396805683499391e-02, -3.1239002480417926e-02,
          -7.9963986162105306e-03, 2.2234157239065477e-01,
          6.2813856348893221e-02, 2.4319825244430868e-02,
          -6.9584111552970035e-02, -1.8624208978122513e-02,
          -5.5274162113230698e-04, 3.0284596027377229e-02,
          8.8935360618680459e-03, -2.7936066284965423e-03,
          -1.5086233701901566e-01, -2.4133974890264354e-02,
          -3.7226015337100814e-02, -1.1290062987699420e-01,
          -1.4925485024703550e-02, -9.9365660071234294e-03,
          3.4203236985650570e-01, -5.7403360890707175e-02,
          3.7716505583551690e-02, 7.9184493483365176e-02,
          2.6310746070318781e-02, 3.6133552925166471e-03,
          3.5397819789014517e-02, 2.7583786499824913e-02,
          8.8015771468483387e-03, -5.2829369227636973e-03,
          -1.8780028089995897e-03, -3.9913622005421957e-03,
          8.1300144310388400e-02, 1.0733275999305057e-01,
          -1.8420456570160396e-02, 9.0427635948392940e-02,
          -3.8978030635044125e-02, 1.9606332219698527e-02,
          2.2028756627922566e-01, 1.0027455684367485e-01,
          1.4944468127982455e-02, 3.7335076907050499e-02,
          3.8827398425704974e-03, -7.5025269600440848e-03,
          -2.9380270490121163e-01, -3.2780328210758547e-02,
          -4.0436140741650764e-02, 5.7382776538700983e-02,
          5.5509247832142151e-02, -9.4285945295969030e-03,
          -2.6555285163844849e-01, -4.7902765988970281e-02,
          -3.0406161072692835e-02, 2.2196772160238604e-02,
          4.4662072819017296e-02, -4.2378307090338366e-03,
          -3.4105110369039582e-01, -6.8676722854916716e-02,
          -5.3352973396185589e-02, -2.7815044242828112e-02,
          -2.7092517171066987e-02, 1.9338480853684101e-02,
          -8.3827939787776154e-02, -5.0888203340923151e-02,
          -8.3443283608012446e-03, -8.0391590575897176e-02,
          3.2042110697992683e-02, -1.3160863767193033e-02,
          -2.5759079997718370e-02, -4.9502598146976898e-02,
          -6.0079303613234471e-02, -5.0252429947643534e-02,
          -3.1927845564134361e-02, -3.9817823695120269e-02,
          -4.1793322911706579e-02, 4.0529440023090772e-02,
          -4.3886423455196687e-02, -8.6182858523132205e-02,
          3.1665603466747641e-02, 3.5680258980481112e-02,
          -2.8401673553179979e-01, -2.8329454281326751e-02,
          -1.9109496828370025e-02, -2.5234442043810156e-02,
          4.5098745902919506e-02, -5.9857880915733623e-03,
          -2.0499759389208441e-01, 3.2904368618283377e-03,
          -2.9181796321214135e-02, -5.8055538797425990e-02,
          9.7985610029621036e-03, -4.0641231803661471e-02,
          -2.2219175865919155e-01, -4.5179239034958282e-02,
          -3.0594040440858512e-02, -1.1396576005552718e-01,
          -1.5434644951668094e-02, -3.6407492446478923e-02,
          -2.3608917715054314e-02, -1.3213972881232083e-02,
          1.5389272694023551e-02, -5.9298943494646365e-02,
          -1.0481231264557201e-02, 2.7349106617782807e-03,
          1.2508827080414983e-01, 4.6579537782034585e-03,
          4.6974842191791669e-02, 2.9616507093028976e-01,
          -1.4215441362145474e-04, 4.3757447872859630e-02,
          1.4202630381165848e-01, 1.1126522211984426e-02,
          2.5389593539247753e-02, -2.2695477254879842e-01,
          -5.4087693863280425e-02, -1.6998586332334798e-02,
          9.8158470600261519e-02, 1.8308706804824253e-02,
          1.8006348411140672e-02, 6.4592561091836365e-02,
          1.7871689015568418e-02, 2.2991460150790224e-03,
          -9.5618898949473424e-03, 4.6314408275731862e-02,
          -3.2358153595824961e-03, -4.1298180757306194e-02,
          1.0471023117699972e-02, 3.9284454408670309e-02,
          -2.2850483088596468e-01, -7.9200009468666829e-02,
          -9.9406970404209930e-03, -1.4680851579673629e-01,
          -1.0394960217783151e-02, 2.3166012393812593e-02,
          8.2721358415362059e-02, -1.0715848050069261e-02,
          3.6347626690375549e-02, -2.8411163885618246e-01,
          -4.9617520054917201e-02, -2.4981869738579878e-02,
          2.1578779552230920e-01, -2.4429520377014334e-04,
          1.3448778002930971e-02, 1.9218954029180058e-01,
          3.7679922776899674e-02, 2.8569906173660672e-02,
          -4.8039209662094004e-02, -1.0033907394676354e-02,
          -2.7443506895800496e-02, 2.0748385882756573e-01,
          1.5953600486716790e-02, -3.5811962850557121e-02,
          -1.6864683788035581e-01, -7.8747461363373981e-03,
          -4.2856173829260449e-02, -1.8509762237059632e-01,
          -8.0439846868244724e-04, -1.1202222838500619e-02,
          -1.5907097437773457e-01, 7.0198241989853319e-02,
          -4.3970298871594038e-02, -2.8200187761192597e-01,
          -4.4920790352636700e-02, -5.7796614367265547e-02,
          -8.1665352855137915e-02, -1.3749055408510227e-02,
          -2.9630481097116250e-03, 1.7126011641445660e-02,
          3.5460132186527313e-02, 2.4938515649488360e-02,
          -4.3601553220612412e-02, 6.6482846721850862e-03,
          5.8717527402546606e-03, -1.7279281191062748e-01,
          2.1117253306561470e-02, 9.2757753736679958e-03,
          -4.7577618470729256e-02, -1.8703081819421638e-02,
          1.0034068676919031e-02, 3.9084904706006424e-01,
          8.3944140799548216e-03, 4.1161192304934618e-02,
          -1.0552821393307706e-01, -4.4985915040670198e-02,
          -2.5840405512373574e-02, 9.8623975573672459e-02,
          4.3458149768333856e-02, 2.2826239056214535e-02,
          -7.7523479019455777e-02, 5.1373547690818207e-02,
          -2.2784428456245096e-02, -1.1896608437900140e-01,
          -2.8232242711133591e-02, -4.0413882539359867e-02,
          1.9259238945112817e-01, 1.3357910648364895e-02,
          4.9199885714327776e-02, 1.8797959625558677e-01,
          4.8411339681176176e-02, 4.0420611489346829e-02,
          8.3793290452890655e-03, -3.0450475086655344e-02,
          -3.5693305758817701e-03, 7.1929015745672301e-02,
          -3.0779247298602277e-02, 1.2934977777047864e-02,
          -1.4569537202306052e-01, 1.0555109293772997e-03,
          -2.1082375271539965e-02, -1.6458009556205005e-01,
          -6.5282099785545902e-02, -2.3481062390813812e-02,
          -1.0121334473174289e-01, -1.4496174741587034e-02,
          -3.6354998437712262e-02, 2.1201426155363837e-01,
          5.7014986596959812e-02, 4.7390762739772253e-02,
          -2.1011754418796783e-02, 4.1743219094985844e-02,
          -3.1988979180060717e-02, -3.8333247296699097e-01,
          -8.8966007940957118e-02, -6.6322359778856824e-02,
          -3.1516661547523778e-02, -7.6060384566308276e-03,
          3.1058596650806878e-02, 7.6261357445665040e-03,
          2.5153066106540976e-02, -2.4598452319275523e-02,
          1.4887712808666334e-01, 5.2877410816451094e-02,
          1.0477445079395287e-02, 1.3314586435022482e-01,
          3.2616798633620318e-02, -1.0270615108353370e-02,
          1.7880975242178193e-01, 3.9524397444992060e-02,
          2.7469479350833419e-02, -2.7042295160982105e-01,
          -1.7447805081322380e-02, -6.2067905787877983e-03,
          -4.5175243602841086e-02, -3.3249267123382324e-02,
          -2.2222036044268700e-02, 1.5555294331722441e-01,
          6.7577740543697279e-02, 3.1150467911197438e-02,
          3.0169584874641640e-02, 2.4451922584434432e-02,
          8.7275413532466820e-03, 2.7248381895902385e-01,
          4.0917661553951275e-02, -7.5219123030394330e-06,
          -2.1718546811489453e-01, -1.6284934678540121e-02,
          -2.7176619862925123e-02, 8.7625550685386827e-02,
          -1.5213016591124503e-02, 3.5414273796355436e-02,
          8.4084771148491652e-02, -3.3934967487167171e-02,
          -1.5453520073432073e-02, -1.7839626785653265e-01,
          6.3460761734767399e-03, -8.4415621256110473e-03,
          2.3864830091020819e-01, 3.1449029492824479e-02,
          2.0893774392137295e-02, 3.6280208397223013e-02,
          -1.9828489704457461e-03, 6.1880838058260210e-03,
          -1.3618954309955286e-01, -3.6817656836024920e-02,
          -6.5266267698423447e-02, -8.5298293047461650e-03,
          2.8390941793785041e-02, 1.4151419664355982e-02,
          -9.8970509290415537e-02, -4.3922429360005809e-02,
          -4.6790876986966622e-02, 1.0914720045357316e-01,
          -1.1590245066152622e-02, 1.4585691614433570e-02,
          -7.0542813644080896e-02, -2.9778585826136291e-02,
          1.9873676165233844e-02, -1.1727041567097114e-01,
          3.7383507639304640e-02, -1.2821076858375838e-02,
          3.2595495581613877e-02, 1.8729438278261096e-02,
          -1.2287623555314400e-02, -2.6322442729132806e-01,
          -1.0644587753501911e-03, -5.5747954866560062e-02,
          -1.3642179366099347e-01, 5.4246268416813315e-03,
          1.2670190480844502e-04, 7.5995962513658671e-02,
          3.7610644331532501e-02, -1.5702252042014739e-02,
          -2.1355604470770140e-01, -5.5477277089570266e-02,
          -4.8312652375227659e-02, -1.0902547055900801e-01,
          -1.6211360891166739e-02, -9.1687934626450990e-03,
          2.3928134287840588e-01, 4.0361757280006974e-02,
          1.8159747128569062e-02, -4.7616735193704365e-02,
          4.5677235149672812e-02, -1.9894310130862465e-02,
          -2.9935545434637521e-02, 8.7790996368082973e-03,
          2.0558421946138279e-02, 2.7076970693380980e-02,
          -1.2742401783583295e-03, -2.6033492690960788e-03,
          -1.7173819905769300e-01, -3.0873104097126256e-03,
          -2.9562809998995417e-02, 3.6113547294477868e-02,
          -1.9519120468958009e-02, -4.9721447735635686e-03,
          -1.6070404843813973e-01, -3.9089957990833538e-04,
          -2.2875260748377108e-02, -2.5842954971058074e-01,
          1.8777456600347865e-03, -2.3146331649886047e-02,
          -2.1213225284721238e-03, 6.6671855134826430e-02,
          -4.2412088407487222e-03, 3.9731318491653983e-02,
          -1.6459424182594277e-02, -1.5328810208992179e-02,
          1.7917281046517572e-01, -3.6667140802588987e-03,
          2.5814944584690296e-02, -1.1856593636334627e-01,
          4.1912307622263605e-02, -3.7569728220339646e-02,
          2.4643239292045649e-01, -1.8720697164319046e-02,
          3.3622818002929086e-02, -1.4661478275933953e-01,
          -2.3189844171483159e-02, -3.9375058793934867e-02,
          -1.2695623260533601e-01, -4.8444528579440753e-02,
          -6.2445310683629962e-02, -6.1895571508998985e-02,
          9.7499923920585721e-03, -3.4391406431018446e-03,
          -2.0321442803832207e-01, -3.9837071962378130e-02,
          -4.4942485687977062e-02, 6.4520134952049737e-02,
          4.9342341984308438e-02, -2.0570460480457036e-03,
          1.9731806466541443e-01, 4.7408440600012799e-02,
          8.7142624173603984e-03, 3.2594517525395411e-01,
          5.1732778066989664e-02, -1.0564588645965199e-02,
          -6.5699755045868100e-02, 2.9639126656650960e-04,
          -3.0283206059250781e-02, 1.7868220161072640e-01,
          5.7245457704981323e-02, 6.5244364855481268e-02,
          -4.3588863722521291e-02, 1.3471424778082381e-02,
          -2.2660999330117875e-02, -1.7688540921999141e-01,
          3.1754715100402953e-02, -1.5962906996221795e-02,
          1.4896939470763904e-01, 5.4072369043645173e-02,
          1.6230266960731793e-02, 1.2660591914495872e-01,
          5.5370817798278668e-02, -2.4994587348242739e-02,
          -1.7223802933360663e-01, -2.1245356124256470e-02,
          -4.6110535433508661e-02, -7.9979352816941476e-02,
          3.5042374232160688e-02, -2.4056047340464220e-02,
          -9.6270767564234888e-02, 4.3573903951985710e-02,
          3.0524368800945931e-02, -2.7318793983716625e-03,
          5.5990399280625255e-02, 2.4217791015758161e-02,
          -1.9028362227328116e-01, -7.9870036093076004e-03,
          2.9388784795037529e-03, 5.2460532648464665e-03,
          -1.3371142067067306e-02, 2.5314905852407966e-02,
          1.0953175069632171e-02, 7.3532792273979216e-03,
          2.2096310341202938e-02, 3.1474428671713761e-01,
          1.1649049799590312e-02, 1.7191971640875079e-02,
          7.8253514772106972e-02, -6.5642338657819436e-03,
          3.4722554418852081e-02, 3.6199171029419219e-02,
          3.0321285081942137e-02, 3.8552183985652456e-03,
          1.3076933078959924e-01, -9.6601004989828928e-03,
          1.5162943202618056e-02, -8.8501607292744755e-02,
          3.9307217027433256e-02, -2.5707496172695070e-02,
          2.6355678292685016e-02, -5.0524902425146283e-02,
          4.2473353160546866e-02, -2.3863657017944326e-01,
          3.5772300502339101e-02, -8.7309308020507431e-03,
          -1.7418383684289498e-01, -5.5610615423542176e-02,
          -2.9264378839872950e-02, -1.0169530914123118e-01,
          3.2447656616180001e-02, -2.8929871320350367e-02,
          -2.2243517041737410e-01, -5.2763890138552962e-02,
          -7.3962353334455430e-03, 1.4328073830730412e-01,
          3.7046457764127898e-02, 3.3109723920628539e-02,
          1.4695111659781029e-01, 9.0872648482664079e-03,
          4.1010716102690893e-02, -2.3769988598924360e-01,
          1.7389700668014887e-02, 1.0241344623093783e-02,
          -6.6373331285272980e-02, -3.4363935029035259e-02,
          -7.4156874333811016e-03, 1.5616882631703977e-01,
          5.0641496074943539e-02, 3.6041062709366196e-02,
          1.2044890788610764e-01, 4.0368400534195166e-02,
          4.3820985964275576e-03, 1.6760101703292279e-01,
          4.7045253313491214e-02, -1.2879209726515213e-02,
          -2.1339226497736916e-01, 4.6064803545116856e-02,
          -3.7090928475305290e-02, -6.9824996714835885e-02,
          3.8832324716425795e-02, 9.8521933112786994e-03,
          2.6262347697308341e-01, -5.6280387618307955e-02,
          8.6059058110689573e-03, 1.2302167251452589e-02,
          -3.6814548565061958e-02, 3.1991330573421337e-02,
          -2.9071860556991791e-01, -8.7275995561450506e-02,
          -3.4612173732062525e-02, -4.5722949898434520e-02,
          -5.5557454287866896e-02, 3.0850254449383989e-02,
          2.4658809250111175e-02, 2.3551570220552275e-02,
          -5.3424923959677698e-03, -3.5001497276885972e-02,
          -2.9004051381301293e-03, -6.4630843387655595e-02,
          2.2163417814391299e-02, -3.6141971447914714e-02,
          4.1246549983871852e-02, -2.3568627135858548e-02,
          -2.1657181760295113e-02, -5.3119553722954828e-02,
          6.8105984439598394e-02, 4.0843192544935375e-02,
          8.0127265467414943e-04, -1.8110126235894350e-01,
          2.0437962066720210e-02, -2.2453042148726367e-02,
          -5.3284592725564309e-02, 1.0412778865083556e-02,
          5.5361187633661312e-03, -1.2797610687288458e-01,
          -1.5126648007946849e-02, 2.3647204478780954e-02,
          5.7443902870985677e-02, -1.7441344955996672e-02,
          1.4845123989147949e-02, -5.2972017629728481e-02,
          -7.5520264992544273e-02, 3.8025636123503577e-02,
          -3.5352586343903307e-02, 9.0331627006985694e-03,
          5.2755959169353923e-03, 1.9459013037701667e-01,
          6.9385521368705433e-02, 3.6159056399543039e-02,
          1.3451843121433471e-01, 5.1944968573593195e-02,
          2.3658331484955913e-02, -4.4084295668722587e-02,
          2.0380090657710154e-02, 1.0427033217413824e-02,
          5.9465671254375012e-02, -3.1152531438224530e-02,
          -4.9179457749861454e-02, -5.8595296559420668e-02,
          -5.5789490249521644e-02, 4.7035877412286353e-03,
          4.1849212772739779e-02, 2.6701771258476573e-02,
          -1.2846520937573775e-04, 6.0715731104856816e-03,
          2.0104381888803213e-03, -1.3304699790446234e-02,
          4.2201321635561194e-02, 6.3868747974127449e-02,
          -1.7735133385869833e-02, 9.1250051954819986e-02,
          -1.1712058311467859e-02, 2.9055269221542460e-02,
          -7.6636316775046519e-03, 4.4741021658026179e-03,
          -2.2650917897359676e-02, -3.3165718518624078e-02,
          -2.8990598784445626e-02, -1.3278754430626838e-02,
          -1.7063803865354513e-02, -8.0629967187088470e-03,
          -5.7508811850653853e-04, -1.9836605110736213e-01,
          -1.7986268864383845e-02, -2.9189349682071635e-02,
          -1.0346820402400418e-01, -1.1165351672450786e-02,
          -1.1310959500026672e-02, -2.4203502236344968e-01,
          -8.8520707069212431e-02, -2.0822852213399728e-02,
          -5.4148059795735434e-02, -3.7508662284066893e-02,
          2.2635628226111024e-02, -1.9299734211622810e-01,
          -1.0825028229196852e-01, -2.8673063100878519e-02,
          -8.9636559082260689e-02, -1.9132974352858465e-02,
          -2.6466206977215561e-02, 4.6584778896522967e-02,
          5.1951699540154044e-02, 3.7768535671679766e-02,
          1.4841841642209000e-01, 2.7778299873096563e-02,
          2.8915348740825859e-02, 2.6613164143423330e-02,
          1.0298977008251437e-02, 3.6101369073907597e-02,
          2.8843469098215274e-01, 6.4398596954781853e-02,
          3.9410758059984376e-02, -2.5061492415452875e-02,
          -3.6191200104159889e-02, -3.5976786634491616e-02,
          -1.3634987238347192e-02, 5.7693690599040844e-02,
          4.2383241766415947e-02, -9.0186426323233315e-02,
          -4.1400233733641691e-02, -3.3563449943659687e-03,
          -2.3254603396188125e-01, -1.7978720717056983e-02,
          -7.8050017387076781e-03, 1.3280795203188975e-01,
          -1.9398094578112193e-03, -2.9705974367475914e-02,
          -1.0356340795532318e-01, 5.3516422897513627e-02,
          2.4757913501073318e-02, -1.1899809031691137e-01,
          -4.6576639033472568e-02, -1.8101563270016014e-02,
          -2.7971295292013015e-02, -5.0236701757484452e-02,
          2.9846160883483994e-02, -1.0547410725157198e-01,
          -4.9259993967209949e-04, -2.7792058027140420e-02,
          -2.6772393058980187e-01, 6.2201928689375865e-02,
          -2.3910154069765089e-02, -3.4322792647791162e-01,
          -7.2822778897803045e-02, -5.7190713334912137e-02,
          -7.7190947142385849e-02, -1.0087851178016319e-02,
          2.7701774911455075e-03, -3.2846818044514461e-02,
          -3.7538699912152695e-02, -2.8870377956064827e-02,
          3.3049185621480376e-01, -1.6161530264686922e-02,
          7.6123654618839170e-04, -1.1979531976159856e-01,
          -7.8420380995188860e-02, -5.6071830868269765e-02,
          -8.9012233907243915e-02, -5.4327492584546569e-02,
          -5.1975672115365981e-02, -2.4238187536323888e-01,
          -4.5882999536454444e-02, -4.0002949356798934e-02,
          7.9680191546551787e-02, 3.9845175463459573e-02,
          5.0743832309449706e-03, 9.0746285204613808e-02,
          6.6544476525714658e-02, 1.3377026820598967e-02,
          -1.1899515541801867e-01, -2.2321776564142914e-02,
          -4.7333872236871057e-03, -1.1011052857419076e-01,
          -5.9205016243653152e-02, 2.4998798506288968e-02,
          -3.3171160867702110e-02, 1.8192640148927637e-02,
          4.8234004885509083e-03, -8.5088522491106794e-02,
          -1.7636298790999063e-02, -1.0024643917431832e-02,
          -1.5155749560557497e-01, -3.5471368712251185e-02,
          -1.9242906501369082e-02, -5.7073062619313497e-02,
          -4.3850199712468282e-03, -1.8496509289290568e-02,
          -4.4140907902672222e-02, 1.8169528991448917e-02,
          3.5779401196027925e-02, -2.1360567112199269e-01,
          -2.3026548094708083e-02, -7.5327208941433034e-03,
          -1.9675182024061169e-01, 2.8548867423396133e-02,
          2.8864142370657055e-03, 1.4946935053241711e-01,
          5.0922081718406308e-02, -2.3016152722762775e-02,
          -3.3572253487418230e-01, 2.4037401901177997e-02,
          -2.1249581323949641e-02, -1.1942158036533906e-01,
          -3.8551957460969406e-02, -1.7160166865988525e-02,
          -4.8760550784774190e-02, 6.3517199841038666e-03,
          -1.5925912631449858e-02, 8.8911775664629308e-02,
          6.1877606218151887e-02, 6.1145533364516669e-03,
          -1.3932679614567589e-01, -3.1181408536239911e-02,
          5.6777407818642362e-03, 1.8173468148744747e-02,
          5.2882648170087795e-02, -1.0375156403401730e-03,
          -4.2198633200443349e-02, -3.2719695020937266e-02,
          -2.6648750537480378e-02, -1.2177218239675222e-01,
          2.2304462826014081e-02, 3.1835827503043021e-03,
          -3.0137391376331324e-01, -6.1151066508149304e-02,
          -5.2535991016991294e-02, -1.4011455201415468e-01,
          -5.4401150586917968e-02, -3.2317877879649390e-02,
          -1.0959720840528285e-01, 1.0648979257666086e-02,
          9.4998790478276127e-03, -7.3265818220596662e-02,
          -2.0649941390603069e-02, 2.8065954223336669e-02,
          1.1644220705231856e-01, 5.9543269092018833e-02,
          1.9031534313407705e-02, 1.4355449226615841e-01,
          1.7150926370137119e-02, -6.0464075746426409e-03,
          6.5399857755955429e-02, 9.4718628364549015e-02,
          -4.3661966671428992e-02, 6.6587813823347622e-02,
          -7.5003717740584661e-02, 7.1660923019354226e-03,
          -4.7506283803414505e-02, 1.9501294745186002e-02,
          -2.3759542432185258e-02, 7.5422568560677456e-04,
          -4.8147502859682507e-02, 8.2262248222159697e-03,
          -3.3368612252203284e-01, 1.5874486811845105e-02,
          7.2742001148026593e-03, 6.2043663027221682e-02,
          3.3859753024705626e-02, -1.4004561291725514e-02,
          -1.0180624022203977e-01, -3.0816360284059600e-02,
          6.1730366858281701e-03, -3.0156698795045102e-02,
          3.7654540942343315e-02, -2.5778057412832484e-02,
          -2.8310695379415430e-02, -7.0373706032756417e-02,
          -3.0952563004419814e-02, 1.4462031185385729e-01,
          2.6671949542943971e-02, 3.0167354667838465e-02,
          -1.6581866125248307e-01, 7.8753468688352000e-03,
          3.6414609630327130e-03, -1.7981606537589107e-01,
          -2.9545966341958326e-02, -1.0931329207427100e-02,
          -4.7309716611710573e-02, -9.7308390285085582e-03,
          -3.4148839413991772e-02, -1.7768780961334618e-01,
          3.2365334672540187e-03, -9.6462964715392230e-03,
          6.6262008206416784e-02, 2.0647667024623385e-02,
          1.5251241605419182e-02, -2.8173838374670052e-02,
          1.4590258717199132e-02, -1.6310942107423607e-02,
          -2.6798839605066038e-01, -8.0494460393151265e-02,
          -2.1079947273972239e-02, 8.8929377930842379e-02,
          -3.0758878645034730e-02, 3.7372290824021943e-02,
          -1.1634926156795207e-01, -5.2571840752459839e-02,
          -2.3891322196189651e-02, 1.1233188797971358e-01,
          8.5955539093680953e-03, -7.4579477531970936e-03,
          1.1612610127654857e-01, 3.7608323457946374e-02,
          -3.7157540090014041e-02, -4.3523276393175894e-02,
          -7.4273535353860873e-02, -3.2079079107911197e-02,
          -1.2466002806637899e-01, -2.9549163229686454e-02,
          7.2341734168511630e-03, -8.2253192441351791e-02,
          4.8027803898910114e-02, 3.8739500115883958e-02,
          -1.1576323830779625e-01, -4.5751320008716234e-02,
          -5.7211237391416509e-04, 2.2840413114287497e-03,
          5.5999094136048866e-02, 1.9367869954185199e-02,
          7.8980446725378781e-02, 2.0095135721742680e-02,
          2.1659307634733081e-02, -2.2801702666812729e-01,
          -6.4185475639217393e-02, -2.3067765191425421e-02,
          -2.6581769340627570e-01, -5.3990222476673011e-02,
          -5.1434212774263244e-02, 1.3990268836141084e-01,
          3.1589681680541049e-02, -1.1627728314190547e-02,
          2.2749347697734179e-01, 3.1640236401565533e-02,
          2.1558461679297772e-02, 3.7950321455617837e-02,
          2.3351774612558461e-02, 1.6232495282540678e-02,
          -2.6882792019137797e-01, -8.6868407208221948e-03,
          -2.5426857631563715e-02, -1.1301841265905682e-01,
          -3.3601074182332047e-02, 7.7107600435790682e-04,
          -3.2555261227135091e-01, -1.7323203050900703e-02,
          -5.6706020532188380e-02, 7.5125321667465855e-02,
          1.5202155645413650e-02, -1.4359930751726499e-02,
          5.3187015834563652e-03, -2.5193955009376722e-02,
          3.4589796009603636e-02, -7.2591071172703248e-02,
          -1.4377569698866765e-02, -2.1060576047793652e-03,
          -1.6311982031645314e-01, -4.6109764510896253e-02,
          -3.6926705098997421e-03, -1.5033272206883472e-01,
          -1.0850896387715695e-02, -5.3081685254763672e-02,
          -2.8221751619840679e-01, -8.7725542181762928e-02,
          -4.3232171446792242e-02, -5.3041912256556731e-02,
          3.4185011863061610e-03, 2.5888687079711054e-02,
          -7.3491519434715408e-02, -2.9934938202846599e-03,
          -2.0387261670506002e-02, -1.7491070768847419e-01,
          -7.9479322756142612e-02, -2.0476869472994756e-02,
          -2.0556571347803798e-01, -5.5472372633672606e-02,
          -1.3059787423770959e-02, 3.9569826309854966e-01,
          6.8179485144163554e-02, 5.9693411651541101e-02,
          3.3136738057673448e-01, 8.8741734522427951e-02,
          6.4146528605368250e-02, 2.7525935735017985e-02,
          -3.4651803933101716e-02, 1.4694695647554540e-02,
          1.4655276671402331e-01, 3.6727593498172360e-02,
