%YAML:1.0
mlp: !!opencv-ml-ann-mlp
   layer_sizes: !!opencv-matrix
      rows: 1
      cols: 3
      dt: i
      data: [ 800, 10, 1 ]
   activation_function: SIGMOID_SYM
   f_param1: 6.6666666666666663e-01
   f_param2: 1.7159000000000000e+00
   min_val: -9.4999999999999996e-01
   max_val: 9.4999999999999996e-01
   min_val1: -9.7999999999999998e-01
   max_val1: 9.7999999999999998e-01
   training_params:
      train_method: BACKPROP
      dw_scale: 1.0000000149011612e-01
      moment_scale: 1.0000000149011612e-01
      term_criteria: { epsilon:1.0000000133514320e-10, iterations:1000 }
   input_scale: [ 5.4378335683034209e+02, -5.3550134872357513e-01,
       6.4084926396850881e+02, -8.5000144159845548e-01,
       4.8942022619722366e+02, -9.8946551152080409e-01,
       8.9165126038225287e+02, -8.0437469888982049e-01,
       2.4663952766900962e+02, -4.9239292602205648e-01,
       1.5632711086763329e+03, -9.1027520914478033e-01,
       1.5777447855234609e+03, -8.1581937127184245e-01,
       5.8268024145469144e+02, -9.6298726360997289e-01,
       8.0809410900757473e+02, -7.2118624033233958e-01,
       3.2286009592022776e+02, -9.3063594260591898e-01,
       9.1808833980639668e+02, -9.5585988676100397e-01,
       4.7761670552706551e+02, -1.0953148725840920e+00,
       1.0582674670368972e+03, -5.5710806635402665e-01,
       7.5881369480610681e+02, -1.1508055780281397e+00,
       1.4623444901907835e+03, -1.1191470689302390e+00,
       5.5699340644457038e+02, -9.2925349405765933e-01,
       5.3113886946529090e+02, -1.2048421228324901e+00,
       8.3892592221308962e+02, -1.0507057261976158e+00,
       8.9370823119838735e+02, -4.7994094615612404e-01,
       6.4307871438094912e+02, -7.8654377128242003e-01,
       8.0645889028122235e+02, -5.3151956288713020e-01,
       9.1619912200132126e+02, -1.1065370480531140e+00,
       9.7674239536597827e+02, -7.9520553503361169e-01,
       7.4492681093189162e+02, -8.6467684704964154e-01,
       1.1841104197777611e+03, -7.0661145129946046e-01,
       6.9091421104771257e+02, -1.0715796357804981e+00,
       9.0316729416429780e+02, -8.1482785822226456e-01,
       9.6427952512687000e+02, -7.8834328080609628e-01,
       8.9048336235710940e+02, -9.6111228305904017e-01,
       1.2762492714553177e+03, -7.6659883612768698e-01,
       1.2077101852905864e+03, -1.0855369282442393e+00,
       4.7892046305633033e+02, -1.1048204605046790e+00,
       1.6037147166315660e+03, -7.6350248162656698e-01,
       2.7574879777000825e+02, -8.1485946032414391e-01,
       8.0792501104375128e+02, -1.1707339155831324e+00,
       3.0594757255496188e+02, -8.2450836582411113e-01,
       1.1183058806880865e+03, -5.9792047010969973e-01,
       3.4610153272679850e+02, -7.5274847339335849e-01,
       9.1105539687487692e+02, -8.6627436458506257e-01,
       5.1534854513131802e+02, -1.1733422496170609e+00,
       9.9322151283215385e+02, -8.8589606037361557e-01,
       6.2128237351342682e+02, -7.3292909540834483e-01,
       5.8253004827183395e+02, -9.0671390193981516e-01,
       6.9262351885012220e+02, -1.1072179451579161e+00,
       1.6872611687866745e+03, -8.4261675005157244e-01,
       7.9554337876895067e+02, -7.1121697588866406e-01,
       1.5607340625442027e+03, -9.1362373215035297e-01,
       4.7596966639494184e+02, -8.9147027594939554e-01,
       3.5361868997016336e+02, -6.2403814946803082e-01,
       1.5010140663339337e+03, -8.7398704293044638e-01,
       1.6204722606989417e+03, -7.6923749107607708e-01,
       2.5038232293139902e+02, -9.5567899668488565e-01,
       7.4992915778993654e+02, -7.9412127063412030e-01,
       1.3768374819796754e+03, -8.7351104636762755e-01,
       5.2137033424965034e+02, -1.0461456988932034e+00,
       1.5082940029497936e+03, -6.6464525744402470e-01,
       5.7826015767771878e+02, -6.4269188416144185e-01,
       6.4129589215893975e+02, -8.3195684455470975e-01,
       4.5348174632768826e+02, -1.0737172483577262e+00,
       7.3033523297623390e+02, -9.6498361103495400e-01,
       9.5193009606461931e+02, -9.4787649091455606e-01,
       5.7954798679510782e+02, -8.0318788368653371e-01,
       1.6064273618136258e+03, -7.4390526197469042e-01,
       7.9948125107543001e+02, -1.0563456466691197e+00,
       9.1297230040379100e+02, -9.9521593808248821e-01,
       1.3550834937949198e+03, -1.1575116814450606e+00,
       5.2091883937480497e+02, -1.2405499605771511e+00,
       3.5121829133365753e+02, -1.0295466227384977e+00,
       4.5872061011038130e+02, -1.4674453217602372e+00,
       1.0447091277902637e+03, -8.3851666270068936e-01,
       6.8616953489658397e+02, -1.1754423166338517e+00,
       7.4617501760595644e+02, -7.6925854333678922e-01,
       1.1889633443273392e+03, -1.2442632354175125e+00,
       1.7756913346491599e+03, -3.4280409497713060e-01,
       1.1403579395894112e+03, -8.0469923612446370e-01,
       1.6310403913589382e+03, -6.5768567662908628e-01,
       1.8320126730870996e+02, -1.0542597628913639e+00,
       1.2358591019348238e+02, -5.3530075535326083e-01,
       2.6173655172883616e+02, -7.4067987020279968e-01,
       6.9736622294821200e+02, -6.8125894973019352e-01,
       1.0265900030128329e+02, -6.3046549147671571e-01,
       8.1346674519643773e+02, -5.6172196850404932e-01,
       9.5040238666770108e+02, -9.0180158957512546e-01,
       5.7335545351570477e+02, -1.0111368813248387e+00,
       2.7085452168925059e+02, -7.4907103950938303e-01,
       8.7686630575916149e+02, -7.6308451692113888e-01,
       6.6012991648180628e+02, -1.0954129033311411e+00,
       8.0950289096023050e+02, -7.1688181296113229e-01,
       6.2340829453734420e+02, -1.0187535610185456e+00,
       1.4227667598310679e+03, -9.6964197658360307e-01,
       7.0418140867733950e+02, -8.9985894573153347e-01,
       7.2381454493101126e+02, -6.8335799256406837e-01,
       8.5478707850207866e+02, -9.1645688969916761e-01,
       8.7826415015378905e+02, -6.9692954824563114e-01,
       2.6569139668312658e+02, -1.0861749959486950e+00,
       1.0318950242538097e+03, -1.1456046056055107e+00,
       6.8732330309684335e+02, -7.5007842051711149e-01,
       2.5080441973068085e+02, -1.0822221449997866e+00,
       2.0879819385638746e+02, -9.8867715504026377e-01,
       9.5693601064059158e+02, -8.7039084163379754e-01,
       6.0014183023731835e+02, -1.1285675112690452e+00,
       6.5287238265513315e+02, -1.2482020894349866e+00,
       8.1705428143838446e+02, -1.0311789139879128e+00,
       2.1993436409172219e+02, -6.1892640065222337e-01,
       5.0629270859098403e+02, -1.3461262500049280e+00,
       7.8274007638403759e+02, -6.0720549966164394e-01,
       4.6139962509899999e+02, -8.9391967813974627e-01,
       6.8341254799964713e+02, -5.4812881797687729e-01,
       9.1870581348224607e+02, -1.0544194628516284e+00,
       1.0185253033803275e+03, -1.1249616458609581e+00,
       1.0502178591434581e+03, -8.6554882159641366e-01,
       1.0791877828507122e+03, -7.3354190500242922e-01,
       3.8867668373387613e+02, -9.6451250834801772e-01,
       1.6106426010591397e+03, -7.3636963525535848e-01,
       1.1038159386153825e+03, -9.7524057346428161e-01,
       1.3163762291713435e+03, -6.6755673386724312e-01,
       9.1988288400167812e+02, -1.2325136578442339e+00,
       1.0014776052508482e+03, -1.1393841285224977e+00,
       1.1421703406110701e+03, -6.0137666391683819e-01,
       8.4243966346859213e+02, -9.3231431917225493e-01,
       1.1206311029339936e+03, -8.0281763472519485e-01,
       1.0177569925251836e+03, -7.6760355287861870e-01,
       1.0442684195345889e+03, -9.8139190196620218e-01,
       1.0384490439081872e+03, -7.3064384165729901e-01,
       7.5879007459032164e+02, -1.2930557599360104e+00,
       9.1136778051190015e+02, -1.3283452610973352e+00,
       4.3990436157147388e+02, -9.4644681609564696e-01,
       7.0941244549627538e+02, -7.5276063759696710e-01,
       3.3553685525486014e+02, -7.4636745989007480e-01,
       2.7082205973818816e+02, -7.2367462397246352e-01,
       1.0668139852971331e+03, -1.1358100114534848e+00,
       7.5454627033443660e+02, -9.0169813663738585e-01,
       6.2652009485506312e+02, -9.3614919087175230e-01,
       1.8628132748482101e+03, -7.7195550935138701e-01,
       1.0658438808314472e+03, -9.4933046002849053e-01,
       5.6549386035054772e+02, -1.1187831863295423e+00,
       3.2472660194499946e+02, -8.9687057874707132e-01,
       1.0848249829196286e+03, -8.5376894670149794e-01,
       5.1360670334129532e+02, -7.1587829930395430e-01,
       2.7337373086129861e+02, -5.8143526537262480e-01,
       1.7156989468810809e+03, -9.4429931149912161e-01,
       7.7723078383927657e+02, -1.0992142806037990e+00,
       9.6034808015218346e+02, -7.9160441266417758e-01,
       1.4428220711652898e+03, -7.9671094088548944e-01,
       1.3564547613132518e+03, -9.5178227621013411e-01,
       1.2998232205168536e+03, -7.0438425424016737e-01,
       9.9943921182436043e+02, -6.7697856416937563e-01,
       8.4736845165526597e+02, -1.2174911085532794e+00,
       8.8723281441910660e+02, -9.5081410838408009e-01,
       3.6657590389455908e+02, -7.0011062439077532e-01,
       1.1534487716387621e+03, -9.7604588294703287e-01,
       1.2428983262650386e+03, -8.4801010256692966e-01,
       1.8086627271332545e+03, -8.9913880999117501e-01,
       1.0954941939318946e+03, -7.7468243722242447e-01,
       7.7108284236296242e+02, -1.1631758689127645e+00,
       5.6655256014843917e+02, -9.4406115835591731e-01,
       7.6257746828542884e+02, -1.0978246451371090e+00,
       6.6273254444708709e+02, -1.2257977062686083e+00,
       1.8213916128256681e+03, -5.7323663804238734e-01,
       3.9848543222020965e+02, -7.9438878517232070e-01,
       1.2478923169599432e+03, -1.1746254786489705e+00,
       4.6133684627140707e+02, -1.2171145426311034e+00,
       1.1963102971720505e+03, -1.1364615118699581e+00,
       9.8291142333736707e+02, -9.9352368016485382e-01,
       8.9084002707616605e+02, -7.6625472553592267e-01,
       7.1330828024479649e+02, -9.6610074270587254e-01,
       1.0346130687933858e+03, -8.7013861451755459e-01,
       6.3555675655185269e+02, -9.4124777751387911e-01,
       9.4840237863280345e+02, -1.2122959554935784e+00,
       7.6269275510721161e+02, -1.1204953610533470e+00,
       9.6455814262563524e+02, -6.6684321978267713e-01,
       7.0939936531160652e+02, -9.7089141318984507e-01,
       1.0085937560131167e+03, -1.0689243551846912e+00,
       1.1866021560127601e+03, -9.2639641901271352e-01,
       8.1597354862115037e+02, -1.0886991384375300e+00,
       1.0449284936278527e+03, -6.1986955405282063e-01,
       1.1292192588690791e+03, -8.7202775275208000e-01,
       1.0542133629965324e+03, -9.1312344905580367e-01,
       9.4401538372347761e+02, -9.4499495638313369e-01,
       7.9081096613176226e+02, -8.0674322138289090e-01,
       1.1486494949873700e+03, -1.1860862396835816e+00,
       1.5010705980044770e+03, -9.5914644070414801e-01,
       8.8380216558004361e+02, -7.8835407594666873e-01,
       1.2643519812256959e+03, -8.0897157926224494e-01,
       9.1495657493960482e+02, -7.8144648644799930e-01,
       1.0979287547934164e+03, -8.6760820506671288e-01,
       2.7402892472263864e+02, -1.0948026138466269e+00,
       8.1736367870951176e+02, -6.8301599093145937e-01,
       1.3230670460789177e+03, -9.6145108375769572e-01,
       4.7233720999007056e+02, -1.1409089055652839e+00,
       7.7719362524105873e+02, -7.6315755602642255e-01,
       1.2655739166687069e+03, -1.1005375480122359e+00,
       1.1065210748454390e+03, -9.4725528104896684e-01,
       9.3272296787746973e+02, -1.3649769460420316e+00,
       9.9132556099653345e+02, -1.2884029385867726e+00,
       6.1651261297455528e+02, -7.1492559613790896e-01,
       1.6448602003924416e+03, -1.1983925225980752e+00,
       7.8009008686707966e+02, -8.9023833034415867e-01,
       3.9927954073760287e+02, -7.2557270042124933e-01,
       9.7432188574981058e+02, -8.8426459144983272e-01,
       2.8689270693550611e+02, -8.1822089250359753e-01,
       1.4083745310658010e+03, -7.9039977989486376e-01,
       8.5758025187375006e+02, -1.0925373248110786e+00,
       1.0316844033927982e+03, -1.0601749283860042e+00,
       5.2841231989912808e+02, -9.5921482294178795e-01,
       4.4469982846990501e+02, -9.1913587456334367e-01,
       5.9939358413408695e+02, -8.9037966575284910e-01,
       6.6294173679091102e+02, -1.0395542434887122e+00,
       1.2392107358214153e+03, -1.0504781873577869e+00,
       8.8404364640054359e+02, -9.9602242865646473e-01,
       9.2670020979175001e+02, -7.0041857337790780e-01,
       1.1941534838998416e+03, -7.9970632088451066e-01,
       9.8365277640808779e+02, -1.1164232135491676e+00,
       7.1140997652624696e+02, -5.7063763544510115e-01,
       1.0391913413280718e+03, -9.2792264872435759e-01,
       1.2387852989485434e+03, -9.8802209537543062e-01,
       9.5095007626648851e+02, -8.0653480747120143e-01,
       3.6501939911080285e+02, -8.8281746980510389e-01,
       1.2324046786256295e+03, -7.6133971611592977e-01,
       1.0726898647351711e+03, -1.0438513102425053e+00,
       4.3678472953771086e+02, -8.3494585573650459e-01,
       1.1475335941126993e+03, -7.3773750580012010e-01,
       5.3077964161093382e+02, -6.0043482569473139e-01,
       3.9780488660168510e+02, -8.7584330397157351e-01,
       7.2275005628671090e+02, -1.2663945955928984e+00,
       6.7409930381270362e+02, -9.9702215819973206e-01,
       4.4099061875632572e+02, -9.9242541427530362e-01,
       8.1788623333747216e+02, -5.7885862923311082e-01,
       2.3316386815282493e+02, -1.0455950286483318e+00,
       1.0613640022436437e+03, -7.1033843331110413e-01,
       1.3059107011521032e+03, -1.3724160101043261e+00,
       6.5018434049327834e+02, -1.0995512370771829e+00,
       1.2504149847791386e+03, -8.5817660374158355e-01,
       4.3928240228926268e+02, -1.3332880500112241e+00,
       2.4576059993451531e+03, -6.1076885159615901e-01,
       9.8069227899441785e+02, -1.0970620697244975e+00,
       6.4343814415338898e+02, -1.0925981952198622e+00,
       1.3393342962892175e+03, -7.0735836877468117e-01,
       9.5865090421191883e+02, -9.4140407205894450e-01,
       7.8220655266814913e+02, -7.3809699670862250e-01,
       3.4305235606243173e+02, -8.4044496874836883e-01,
       3.3265234584576422e+02, -5.2199940903049935e-01,
       8.3050838528892268e+02, -6.8160057872087354e-01,
       1.4027567794850461e+03, -8.0510812973841406e-01,
       7.3245787872359404e+02, -8.1171225703860539e-01,
       3.0408370422062450e+02, -1.0577118936015653e+00,
       6.1413871067305263e+02, -1.1731358810691015e+00,
       8.6534913905761732e+02, -9.3961161051895070e-01,
       9.9304274026325902e+02, -7.6022935650907253e-01,
       7.3263068108747461e+02, -1.1940411377150610e+00,
       1.2924409575455413e+03, -9.1839029611362510e-01,
       1.2180270896287959e+03, -8.9859100038230932e-01,
       1.1960308622147552e+03, -6.2367655361947050e-01,
       1.1533977869894773e+03, -9.7325704308684813e-01,
       7.5065669803252899e+02, -6.4789591563946014e-01,
       1.4203353448984869e+03, -7.9529111634424243e-01,
       1.0683990419343963e+03, -1.0265859159215467e+00,
       5.7627270572366240e+02, -1.0091170995494352e+00,
       8.9360127047313222e+02, -1.0331693853995687e+00,
       8.9991419512401490e+02, -6.7462635542205363e-01,
       1.6758172544435561e+03, -7.9032600626851013e-01,
       1.1238281240573576e+03, -7.8544906580077400e-01,
       2.1397223618995670e+02, -1.2782526156200980e+00,
       1.6726395901137703e+03, -7.8569535638498800e-01,
       6.2404275127448477e+02, -8.4860356193137099e-01,
       2.0406635388000973e+02, -9.5416754620752242e-01,
       8.2463931863810740e+02, -8.5873605506113893e-01,
       1.0193720924660867e+03, -1.1900508653543713e+00,
       3.0161866068739852e+02, -9.8172641122402893e-01,
       1.7557272877517639e+03, -6.4730674891763873e-01,
       1.2718277633531247e+03, -8.1161728178138837e-01,
       9.4436362906258489e+02, -1.1265114035086152e+00,
       9.4706597690566855e+02, -6.0982547279843291e-01,
       1.0602943096780564e+03, -8.8912433756047160e-01,
       7.6740639158027511e+02, -8.9716502876090454e-01,
       7.2121748004254255e+02, -6.2442866942733843e-01,
       1.5474154083412584e+03, -5.9402013520053998e-01,
       8.7359337848341511e+02, -8.8874623815121379e-01,
       1.1114752394818515e+03, -6.9126816066650087e-01,
       1.3481273121441063e+03, -6.0393232067243874e-01,
       3.5417094819970231e+02, -1.1782449564173492e+00,
       5.3212519330936766e+02, -1.0477024687894638e+00,
       1.4710729805112564e+03, -7.5696094556564131e-01,
       1.4249500569088123e+03, -1.1897046192242913e+00,
       4.5376370119555656e+02, -1.0023016152985129e+00,
       1.2714545501557825e+03, -7.3504816205130885e-01,
       9.9034384297525060e+02, -7.8279042226845419e-01,
       4.7798771577289955e+02, -1.0408956435603216e+00,
       1.3961331993010313e+03, -1.2556412979152740e+00,
       1.4805658842494993e+03, -7.9206948025106294e-01,
       1.5232103085630708e+03, -7.9426924348649264e-01,
       1.4494060023980464e+03, -7.4634964988166030e-01,
       7.1714924452323612e+02, -1.1873586790388841e+00,
       4.7719650260296214e+02, -1.5580537067588733e+00,
       3.9218268388121868e+02, -9.6639312652276954e-01,
       3.3165525152405348e+02, -1.1653028509343863e+00,
       7.1230123211001865e+02, -1.1208845648551591e+00,
       1.3877756817189022e+03, -8.8434549474799762e-01,
       6.7633291424570791e+02, -1.4167966715044806e+00,
       1.1967609281632583e+03, -9.9986166563947620e-01,
       5.6418121976159853e+02, -7.4673703541492875e-01,
       9.6163442326309303e+02, -5.8989999187323883e-01,
       9.6351501593534636e+02, -7.8041586236579008e-01,
       1.8864911525681368e+03, -7.2632787877782612e-01,
       1.2981779058812838e+03, -1.2048359332885861e+00,
       1.4167939490540555e+03, -7.2814621474061814e-01,
       1.0222576513248835e+03, -9.8263002023213364e-01,
       1.4322316765682024e+03, -1.0534555962461880e+00,
       6.1367699874661696e+02, -9.6682503574984469e-01,
       2.5948712767383463e+03, -5.4387434762916487e-01,
       3.0944638542533011e+02, -7.6458946809672246e-01,
       7.5498093020951330e+02, -8.7850717770930886e-01,
       1.1515859686463398e+03, -8.0494460078647900e-01,
       1.1248891047911038e+03, -1.0500634308197649e+00,
       1.1660307476186772e+03, -1.2007899776442550e+00,
       1.1475902800142162e+03, -9.2979188044745853e-01,
       1.9822935000880996e+03, -7.5294120292125744e-01,
       8.8268498456969917e+02, -1.2881192782874231e+00,
       8.5166909798740983e+02, -9.6231534887427483e-01,
       8.1665497640478145e+02, -5.9297280868322355e-01,
       5.4123254646598264e+02, -1.0889615961757180e+00,
       1.1895076898643938e+03, -8.9079919666382867e-01,
       8.9762999777688617e+02, -9.1649100410782924e-01,
       7.6947440192119791e+02, -7.8230809020947456e-01,
       8.7923382734850463e+02, -9.2500534522166100e-01,
       5.4148889919395901e+02, -8.2140852015552879e-01,
       1.1433332147211954e+03, -8.3408086273849658e-01,
       6.5462515442248866e+02, -1.0438195375991115e+00,
       1.0033690032182629e+03, -1.0448626268234658e+00,
       3.4101507649967220e+02, -1.0194289677881359e+00,
       6.3249180611579561e+02, -1.1589689921365758e+00,
       9.1506821851236509e+02, -9.4471148946017380e-01,
       1.2620678941476351e+03, -8.7937772420474691e-01,
       8.4668818882460278e+02, -1.4654235903369028e+00,
       1.2305515063685220e+03, -8.3465482756188591e-01,
       4.1995728256031725e+02, -5.9726582242451975e-01,
       1.2842432643027153e+03, -1.0150938296863319e+00,
       8.6073054105482129e+02, -1.0097890390050135e+00,
       1.6854500407950809e+03, -8.9097576169070059e-01,
       7.2340237047024243e+02, -8.8182939190504828e-01,
       1.7415224782090747e+03, -9.1099200415235704e-01,
       1.4798539057921564e+03, -7.5459535371833231e-01,
       1.0075639652740311e+03, -8.4343214610854689e-01,
       1.2072966477652130e+03, -9.9870144656687099e-01,
       3.9830308734371687e+02, -9.3115353654202226e-01,
       1.2014977184831191e+03, -1.0650712389279924e+00,
       1.0310159109104586e+03, -1.5168588881589915e+00,
       5.9987834326157645e+02, -1.0688045178008803e+00,
       1.2524284132586022e+03, -8.4523969838798330e-01,
       7.6561997754296806e+02, -9.7379336816364426e-01,
       1.1563034778136373e+03, -9.3937823294976064e-01,
       7.9607694149725000e+02, -1.1200802524287452e+00,
       6.0083455207364216e+02, -1.1966544059100837e+00,
       6.4723503396683338e+02, -1.0265167916454168e+00,
       1.0701274701390380e+03, -7.8288741693936625e-01,
       5.8171764132751025e+02, -8.4811796891798064e-01,
       9.8752845002690879e+02, -8.1671090035963889e-01,
       9.9368698517742553e+02, -1.0909986273841730e+00,
       1.1357009934789207e+03, -1.0912616001121767e+00,
       2.7747995890623827e+02, -9.4026795655083317e-01,
       8.0414528215580935e+02, -6.3055870725980434e-01,
       6.4530590923949137e+02, -5.9968265956120670e-01,
       4.5519051451551383e+02, -8.6431477176340543e-01,
       8.7296833979206644e+02, -7.2774101128104907e-01,
       1.3500170407440964e+03, -8.3343919290350543e-01,
       7.5819607020826015e+02, -1.1295785624355392e+00,
       5.3737105332762610e+02, -9.0653749943828910e-01,
       7.7932038691012247e+02, -1.1648123678943061e+00,
       6.6599879857156157e+02, -1.1248475363623403e+00,
       6.8096628236012862e+02, -9.6743664476477464e-01,
       1.5633850269118204e+03, -7.2781530449130072e-01,
       1.8176452029874324e+03, -8.5515777964562689e-01,
       6.5353151348905499e+02, -7.7995694263996262e-01,
       6.3288778984567978e+02, -6.7116655740756914e-01,
       1.4693074899158328e+03, -5.1625810980631393e-01,
       1.2626315260311101e+03, -6.8931792206692766e-01,
       1.0710633914723262e+03, -9.2887888306146660e-01,
       8.1458980553755316e+02, -6.1642566633519147e-01,
       5.7068588681039023e+02, -6.3355819576439476e-01,
       4.7747806825253906e+02, -1.0711238826592417e+00,
       7.6115749244417691e+02, -8.2503621810550898e-01,
       9.7437563460460888e+02, -1.0142111569835455e+00,
       1.5633952590721126e+03, -6.7264421736362245e-01,
       1.4046554348149075e+03, -6.6197838503114070e-01,
       9.4602011219493670e+02, -8.4885376553158864e-01,
       2.9138394602113107e+02, -8.6722085280784678e-01,
       1.7044823481308924e+03, -5.7410673445262039e-01,
       1.2144338484302900e+03, -9.0152470761833581e-01,
       1.1877301242269330e+03, -4.3880460939573412e-01,
       1.5748091816561989e+03, -8.5557251466806450e-01,
       6.9295644321737097e+02, -9.1044485484919335e-01,
       1.5145523158347564e+03, -1.0243949970018860e+00,
       1.0715342152485939e+03, -1.1317417700484802e+00,
       9.3419195946587524e+02, -1.1708312929112890e+00,
       9.8649890945259574e+02, -1.1782583871131158e+00,
       4.4180816789217670e+02, -8.9778890927347743e-01,
       6.7135722515705049e+02, -6.0868151141392679e-01,
       9.1227892205499450e+02, -8.9056171917725913e-01,
       2.5000668883596978e+02, -7.3382886172267281e-01,
       1.6207519739521804e+03, -8.6741184082767198e-01,
       3.4034791349628671e+02, -8.7194863827124947e-01,
       1.1411406276666430e+03, -9.7235850477591601e-01,
       8.6361561151637682e+02, -8.7944592515002640e-01,
       1.1325812576520016e+03, -8.5340675273385924e-01,
       7.4890802320814714e+02, -8.5977593788603945e-01,
       5.9098332538428849e+02, -8.6283721135285196e-01,
       6.4856463977389228e+02, -7.8399365687039713e-01,
       7.9875038380711817e+02, -7.8603643305658055e-01,
       8.7035698625453165e+02, -6.7946114829378601e-01,
       6.2392042106544363e+02, -1.1233457298344598e+00,
       9.7884964460840285e+02, -6.0934521228656435e-01,
       9.8056805149113006e+02, -9.1054437057312620e-01,
       1.4528184340595587e+03, -8.9120432393544302e-01,
       7.4976746129945036e+02, -8.1169409707075346e-01,
       4.5209458757833522e+02, -9.7296782166306850e-01,
       1.8066297996097901e+03, -7.3486476207711771e-01,
       1.4344198598099324e+03, -9.6737979910014826e-01,
       6.8476268294493912e+02, -1.1592030149932022e+00,
       7.5647583498678603e+02, -1.0503550078741981e+00,
       1.4029169483228382e+03, -9.1957433450051107e-01,
       4.9215513464858623e+02, -7.2295529671454950e-01,
       9.5177521051572046e+02, -9.0855381848789796e-01,
       2.0303773255194838e+02, -7.9780068129625803e-01,
       1.0084437985974055e+03, -8.8634655057310641e-01,
       1.0559825577065722e+03, -1.1345099918509121e+00,
       1.1860759543148858e+03, -8.7368857337952988e-01,
       1.0713196663603962e+03, -1.0831000123519963e+00,
       1.0873040610325284e+03, -6.5645101293570207e-01,
       9.7029892195884736e+02, -1.0364536142767382e+00,
       1.5048994020716877e+03, -6.5215506685921953e-01,
       7.7593594343730354e+02, -7.8832456096894143e-01,
       4.4389110417925667e+02, -1.2569743976154595e+00,
       1.6626377664248662e+03, -6.7107515271343043e-01,
       8.6922957554290633e+02, -1.2860712595362640e+00,
       8.7929346654423091e+02, -3.4946272390745686e-01,
       6.0569708581244424e+02, -9.1477102139141642e-01,
       6.2746527285096067e+02, -9.3553458776540055e-01,
       5.7413238542981117e+02, -7.8002359288617751e-01,
       1.3621598286364119e+03, -1.1281058078187594e+00,
       7.1202299304832718e+02, -6.8967341593924303e-01,
       9.8180340829781721e+02, -7.5406127637947340e-01,
       8.1827202309246445e+02, -8.7144812791090598e-01,
       8.7355644586634651e+02, -1.0280669191320939e+00,
       1.1797435353334681e+03, -9.9703436860817840e-01,
       8.6787101961811049e+02, -1.3334848647525213e+00,
       1.6185580076509011e+03, -8.6936542160459351e-01,
       5.5562787129480455e+02, -1.0563553801945795e+00,
       1.0407155202464357e+03, -1.0358520170174872e+00,
       1.0782695813048833e+03, -1.3427760154827391e+00,
       1.1992061068449452e+03, -9.1299056666457901e-01,
       4.8468751364762625e+02, -1.1035711701834809e+00,
       1.0181997791047559e+03, -9.3894143227408433e-01,
       7.3095776866853635e+02, -7.9299840203291294e-01,
       7.5047635427998671e+02, -1.4751756472300706e+00,
       8.2429958563051173e+02, -1.0970097459602537e+00,
       7.6537069767156515e+02, -1.0805441455880340e+00,
       7.8963449942105740e+02, -7.6072062495584714e-01,
       9.6392292573231907e+02, -5.6058265119709694e-01,
       8.9103195378421844e+02, -8.9485557338424637e-01,
       7.3282232698123926e+02, -7.8902538029459546e-01,
       1.1802467237982039e+03, -6.6958779739072394e-01,
       1.9646465719984426e+03, -8.5129778367674025e-01,
       9.8007244227732076e+02, -8.1981839524759459e-01,
       1.4748413477764441e+03, -9.9392396053336785e-01,
       1.2095733643529936e+03, -7.6054817099993810e-01,
       9.9825078735298678e+02, -8.3349793440045394e-01,
       4.9024469250054312e+02, -7.7793920930611449e-01,
       1.0487381148420964e+03, -1.0000187797796771e+00,
       1.1323847740474771e+03, -7.6895998254913500e-01,
       5.7702222743899836e+02, -7.2910803454042394e-01,
       8.5188002152705440e+02, -9.4081005343429436e-01,
       1.0121802997046739e+03, -1.0958978971591935e+00,
       8.1291704127890034e+02, -7.9131370209777907e-01,
       1.1609812961585735e+03, -8.3870375160926325e-01,
       6.1346721123280327e+02, -7.1590313717953336e-01,
       9.3574845484762363e+02, -8.7041730594610545e-01,
       3.2883631366788489e+02, -8.2403250182930121e-01,
       1.7919390489070827e+03, -7.2899049445016928e-01,
       5.0670424101144880e+02, -9.1425190058061145e-01,
       8.6781103351480670e+02, -8.0339805063136072e-01,
       1.4879812854177496e+03, -7.5856441919158146e-01,
       9.6246970884576092e+02, -8.5293335219797894e-01,
       6.4371010580487382e+02, -1.1382692808467492e+00,
       1.0486549396368741e+03, -8.4460467430816877e-01,
       8.6888523018153001e+02, -6.9036453929939945e-01,
       1.0361801901214719e+03, -9.0672271393756432e-01,
       1.2336377198954015e+03, -1.0772846652060655e+00,
       9.3924024759528402e+02, -7.7721829936121134e-01,
       2.0294092244404103e+03, -5.8739425405604906e-01,
       1.4610630218302215e+03, -9.9742744090862068e-01,
       6.0044888406598113e+02, -8.7485077057049099e-01,
       1.4865266815243967e+03, -8.6255395301357995e-01,
       1.9450866385368588e+03, -3.6728337500738412e-01,
       1.3590532916440086e+03, -8.5793953292275171e-01,
       1.0001571318654665e+03, -8.4155262701227351e-01,
       9.1255913446985767e+02, -8.5742187199290443e-01,
       1.2416945731241626e+03, -7.9464874765370075e-01,
       2.1864776359498205e+03, -7.3662777450914230e-01,
       4.7589666010041987e+02, -1.0252181559320546e+00,
       2.2016988234528736e+02, -1.2257384217969116e+00,
       1.7379732533026840e+03, -1.0736856048428816e+00,
       9.4867491966015484e+02, -9.6880438426699400e-01,
       9.7918899863249089e+02, -6.9808685878475785e-01,
       6.2397879647211687e+02, -9.3624398323264646e-01,
       3.3190905030331038e+02, -1.0950928707906498e+00,
       9.3684596331340731e+02, -9.5560714613803255e-01,
       8.1108768622203263e+02, -1.0575680488745969e+00,
       9.7752044189466392e+02, -7.5364951792000623e-01,
       2.9844247959722469e+02, -9.4588446247462477e-01,
       6.6845205032750800e+02, -7.2987491761123213e-01,
       9.7778867371866693e+02, -5.5369558033029687e-01,
       8.5134591475372883e+02, -8.0880137647336692e-01,
       1.0063865103238534e+03, -1.0483089812533066e+00,
       9.5690014883517472e+02, -1.0526075990873756e+00,
       6.4965553493121342e+02, -7.8518602648804325e-01,
       2.3596760783397776e+03, -7.4456409155591663e-01,
       1.2684221354153196e+03, -1.0214762182963388e+00,
       4.8143473910108582e+02, -8.7552771462148860e-01,
       5.8651035608709412e+02, -4.1422716420788014e-01,
       1.3957992365219798e+03, -9.1657511739446884e-01,
       6.0020595816959599e+02, -8.2567728513504468e-01,
       1.3554496553379647e+03, -9.1614663450321399e-01,
       7.0961942357753264e+02, -1.0150998081467388e+00,
       1.0759231777565928e+03, -6.7710048307775839e-01,
       8.4142584856102667e+02, -1.0324025099671112e+00,
       6.2509441315406104e+02, -8.6286104202221547e-01,
       4.9938347973699433e+02, -9.7885858045559093e-01,
       4.6705844477019764e+02, -1.0593707100645691e+00,
       4.1954183894260075e+02, -8.4357749225006873e-01,
       9.8964645591696001e+02, -1.1599457794393613e+00,
       1.3769749600908983e+03, -8.4647936421904812e-01,
       2.0156282263473196e+02, -9.6827578138702863e-01,
       8.5889742856164901e+02, -9.3804213793893620e-01,
       1.1503162560066919e+03, -7.1317328939422919e-01,
       2.7051892432915832e+02, -9.0357048479812552e-01,
       1.0347156561987545e+03, -7.9868807874687542e-01,
       8.2462210882298302e+02, -9.3995018758566451e-01,
       7.6273181641217832e+02, -1.2000140653128206e+00,
       8.0282253274244249e+02, -9.1147169167998554e-01,
       1.1956484514573208e+03, -6.6495945414440949e-01,
       7.6803842348498677e+02, -7.0834074701047844e-01,
       6.1938727139347804e+02, -7.1245711564950387e-01,
       4.3282521589875091e+02, -5.9183699342854101e-01,
       1.2694226426362534e+03, -7.4223920906106422e-01,
       7.5823063146659672e+02, -1.1678935074871555e+00,
       9.0551304982464035e+02, -1.0378407314615803e+00,
       9.4090872829606008e+02, -7.9399189499900469e-01,
       1.0653875061856531e+03, -7.9555147756152489e-01,
       7.1962175832560115e+02, -1.1368811579004261e+00,
       7.5416069640994681e+02, -1.1736801070690686e+00,
       1.3128303805348703e+03, -7.0932094824923686e-01,
       8.7267674373355590e+02, -8.3776168952095387e-01,
       7.4699832958534432e+02, -8.9961290009444261e-01,
       5.8436378999498197e+02, -1.0433151073593776e+00,
       8.2662726769297478e+02, -9.7223521103228583e-01,
       1.0560814128597792e+03, -9.1803990593588225e-01,
       1.1026487940862942e+03, -1.0091431476805011e+00,
       1.9739250076401240e+03, -4.8383755711107440e-01,
       9.5525098025657519e+02, -5.2784841985954534e-01,
       9.3852862924361796e+02, -9.5135981951634629e-01,
       9.8413271225310268e+02, -9.1678995226474747e-01,
       1.3289146683500951e+03, -9.5097489196513019e-01,
       1.0616784817818407e+03, -1.0297015949932331e+00,
       8.8750327542276091e+02, -8.5427182944550151e-01,
       1.1967152750671705e+03, -5.7804362125000786e-01,
       7.6577292364314508e+02, -8.9009955561567444e-01,
       8.7373389079303831e+02, -1.1214075123399989e+00,
       1.3648563753718715e+03, -8.6839846681014765e-01,
       6.6266927642199767e+02, -1.2180076791220160e+00,
       1.5460381339115122e+03, -7.7457186580176340e-01,
       8.0826452301073607e+02, -8.8451917006740222e-01,
       5.5550225423872519e+02, -9.1664258766846451e-01,
       5.3924960924729362e+02, -1.0918365052493528e+00,
       5.7012819030514379e+02, -1.1956471493949881e+00,
       6.9521501612742236e+02, -8.5722271849353282e-01,
       1.5555426002338891e+03, -9.4479271631971473e-01,
       1.3759777408797418e+03, -8.6413070172153050e-01,
       1.1975600457105961e+03, -8.4263927140754258e-01,
       1.3315100726516332e+03, -1.0097899982225458e+00,
       1.9637024533522674e+03, -6.8297833769676741e-01,
       8.1003878038167250e+02, -9.3052536655846840e-01,
       7.3156983864379799e+02, -1.0619373314890821e+00,
       1.2424941573860563e+03, -6.8605729025799200e-01,
       5.5079994042262024e+02, -1.2257885703509368e+00,
       1.5767983398256520e+03, -8.8862404765035974e-01,
       7.8814068886479765e+02, -8.6981786851338283e-01,
       6.8997370733886942e+02, -7.5898036939852520e-01,
       7.7489529391542158e+02, -7.6389921609075806e-01,
       7.1613259817929122e+02, -1.3271880830532956e+00,
       3.1747823982992873e+02, -1.2631167019212211e+00,
       7.7825800466034150e+02, -7.0263081664582194e-01,
       8.4566196298171872e+02, -7.9455018886259776e-01,
       1.0080595667027825e+03, -8.5473086299138457e-01,
       7.7394026515830456e+02, -1.0076073684614983e+00,
       6.1104333182905066e+02, -8.1813805790267569e-01,
       8.1723276564326102e+02, -6.6549372960947750e-01,
       1.0321587381459051e+03, -7.6852949971167295e-01,
       3.5347836536804078e+02, -1.1172962116506828e+00,
       1.2609043114228557e+03, -8.8517742437831703e-01,
       1.4817361711233978e+03, -8.3177022641142695e-01,
       1.6460805217000109e+03, -7.9120906470363284e-01,
       5.1926089924113046e+02, -1.4487946736784858e+00,
       7.1858025299212750e+02, -7.4384132389170476e-01,
       5.2628057898569875e+02, -9.8568829066338826e-01,
       1.8427922781089489e+02, -8.5619953046482311e-01,
       3.9673128947274540e+02, -1.0503677386186829e+00,
       8.4197216352461669e+02, -1.0540172162101697e+00,
       1.0601194356170874e+03, -8.9116830253850821e-01,
       1.0290681101505083e+03, -7.4122594314413925e-01,
       1.3088366872033930e+03, -1.1220654042337037e+00,
       8.1324209914733603e+02, -8.9128460830682044e-01,
       1.3335411687080350e+03, -1.0719192041374499e+00,
       4.0160702562871717e+02, -8.3200847008605461e-01,
       8.0111205644960808e+02, -8.8002237222651702e-01,
       1.0014826610880302e+03, -9.1103659646143764e-01,
       1.5814987737822109e+03, -9.0301992508674056e-01,
       2.8114075345099343e+02, -9.1021915867455783e-01,
       1.3672379437512629e+03, -9.3147281016784211e-01,
       1.0357189735866293e+03, -8.0839614480158883e-01,
       1.0850358355657029e+03, -1.1610320306982271e+00,
       3.4224637053557865e+02, -9.6521768311418887e-01,
       7.6210059990686875e+02, -9.8137329481768387e-01,
       9.0160082018209209e+02, -9.3251685638654147e-01,
       1.2179766794888676e+03, -1.0149121411415829e+00,
       9.1095216309754983e+02, -8.5741117916340270e-01,
       7.8682470429416628e+02, -1.1631314126054138e+00,
       1.0475802370586589e+03, -7.1578374364710118e-01,
       1.0017411806843447e+03, -6.0983794426743709e-01,
       3.7024995876286800e+02, -1.0024049101689123e+00,
       1.9087225250290101e+03, -8.9963429511547943e-01,
       3.9046160564348156e+02, -7.7876953905995694e-01,
       3.8314797095406101e+02, -7.8167466252132733e-01,
       1.4369779827151378e+03, -8.8095923923059560e-01,
       1.0430503549928994e+03, -7.6723346685210470e-01,
       1.5840687085956167e+03, -8.5352468004284421e-01,
       1.1326388062696371e+03, -8.3869366276223822e-01,
       2.1363344413672876e+03, -7.2214475439849468e-01,
       1.0028012389095112e+03, -1.0008947465116695e+00,
       2.5375722887258576e+03, -4.5512086349150682e-01,
       1.3037921841671744e+03, -7.7149936486069537e-01,
       9.0421791390144790e+02, -1.4597660943266526e+00,
       3.9668145142358225e+02, -8.8726113190616862e-01,
       5.1801701118644462e+02, -9.0515316817549230e-01,
       1.2474171685259225e+03, -8.8229163445067915e-01,
       2.2471306428956305e+02, -8.1000728737988847e-01,
       1.0558636255751537e+03, -5.5372774679331671e-01,
       1.3799719692887659e+03, -8.1169003366906489e-01,
       1.1524489821693983e+03, -1.0073497820907316e+00,
       1.0690546957862130e+03, -8.6080307373270437e-01,
       6.6726961052094953e+02, -5.0062881087684774e-01,
       1.6045126787311360e+03, -1.0676040482752962e+00,
       1.0546270848475308e+02, -6.8367886059577154e-01,
       1.5367156521170236e+03, -6.7464489154878637e-01,
       1.4547156143934108e+03, -8.1033302626125592e-01,
       1.4179526582191127e+03, -6.6248021653876665e-01,
       7.6745930767308914e+02, -9.9067247975279094e-01,
       6.3387194516805221e+02, -1.0424963244219241e+00,
       2.3367616496576293e+03, -3.5900419237563791e-01,
       1.5892114163538170e+03, -9.5842078543098608e-01,
       3.4968276118873825e+02, -1.0107040031357732e+00,
       7.1847166224846501e+02, -1.0783633865262841e+00,
       7.4507904486852203e+02, -8.8072698111763059e-01,
       6.7083065158482009e+02, -4.8474076172916142e-01,
       1.4584242859501089e+03, -1.1063092217050787e+00,
       5.1088009377463851e+02, -9.4138564601137531e-01,
       6.6573522183538023e+02, -8.1790228532072073e-01,
       5.3644992999970179e+02, -9.8722677662068270e-01,
       8.5512074483590231e+02, -9.7930703320073187e-01,
       1.2499108374874475e+03, -7.4255490800991053e-01,
       1.7880620987532038e+03, -1.3869886711807695e+00,
       7.5378343168905940e+02, -8.2359110111151934e-01,
       3.0895795868560060e+02, -8.4709597609331877e-01,
       8.3931905109923139e+02, -5.9994155244475400e-01,
       3.9732597818652420e+02, -7.9461769746026134e-01,
       1.5402026255129767e+03, -7.0699876839718212e-01,
       2.3827333614202752e+02, -1.2705585314714758e+00,
       1.1156751069367706e+03, -9.5473464255747575e-01,
       1.6024846029233538e+03, -7.6738641960053255e-01,
       6.2456242500069925e+02, -6.2940066042323628e-01,
       7.2524249880128957e+02, -9.7626131991801313e-01,
       1.1654428206531531e+03, -8.9604828426497940e-01,
       1.0308893651181547e+03, -1.0360498459675609e+00,
       1.4820567955305751e+03, -8.1576541031545080e-01,
       8.6031153071095571e+02, -8.8308541619392900e-01,
       8.0310139263213364e+02, -7.9970481688591399e-01,
       7.0198904924889507e+02, -1.1600081447278126e+00,
       1.0102477167432095e+03, -8.0188328266013065e-01,
       1.1664070435418619e+03, -9.1711013841901812e-01,
       1.1548052558767379e+03, -8.3935214550008963e-01,
       4.9912299533357105e+02, -9.0871897025967918e-01,
       2.2564789870286083e+02, -9.1047657164597418e-01,
       6.8191873304764738e+02, -1.0688895993459375e+00,
       1.2083806881094445e+03, -1.2212440088383403e+00,
       5.9111747252648115e+02, -9.3955398364355169e-01,
       9.2210957229188966e+02, -9.2584108192061931e-01,
       1.2717764823414700e+03, -9.9385119082738849e-01,
       4.4768499479054844e+02, -1.3567235666602440e+00,
       1.2675523585497153e+03, -1.1235488959942166e+00,
       2.9072177020806471e+03, -2.7796805874895453e-01,
       1.6857173767179409e+03, -8.7447442313747847e-01,
       1.0805312588291811e+03, -8.1556601569053988e-01,
       8.1364119130691802e+02, -9.8378729327031011e-01,
       1.0560153956330753e+03, -8.8649291976498767e-01,
       1.4715673722707575e+03, -6.3862082786830754e-01,
       9.4135850728303444e+02, -1.0475114057906143e+00,
       8.5290199047872068e+02, -8.1969079045717785e-01,
       1.3899580796409605e+03, -8.4885041718647014e-01,
       6.4453123888537118e+02, -1.0327278465042966e+00,
       5.4319509263865473e+02, -7.3808836983057424e-01,
       1.0432185673325616e+03, -1.0650564795610515e+00,
       1.0598315970572121e+03, -1.0669319130799306e+00,
       4.7872419865417743e+02, -1.2581994275134567e+00,
       1.3317058284917528e+03, -6.2441409781638701e-01,
       7.7324291343164532e+02, -7.3517571644639956e-01,
       1.3156630793870436e+03, -1.0150895725855251e+00,
       9.2719346790670534e+02, -1.0508865546914083e+00,
       3.3884509580614343e+02, -9.9870370998390323e-01,
       1.1073873320353464e+03, -9.6623829912785164e-01,
       6.3553550342336132e+02, -1.2757187690289400e+00,
       7.6949685608039579e+02, -9.8996370033722736e-01,
       7.0116838048835132e+02, -1.1068628371805305e+00,
       7.0590391225664644e+02, -8.8971839805339958e-01,
       6.7320392921989026e+02, -1.1166232628904116e+00,
       4.0307098806796881e+02, -7.0110027665168984e-01,
       9.6118443646012281e+02, -4.7516010473543235e-01,
       4.0646690441692300e+02, -6.0202562793856285e-01,
       1.2552305532746827e+03, -9.0785064320310482e-01,
       4.9116753146213824e+02, -1.3673910642694000e+00,
       8.5330809870697817e+02, -9.8722729409438703e-01,
       8.2889452884003856e+02, -8.6084961533756055e-01,
       1.4619115279979437e+03, -5.8106236610838891e-01,
       1.2307808594188239e+03, -1.0963299079412050e+00,
       1.1925460438033961e+03, -9.8649759916484614e-01,
       7.5370142366633297e+02, -7.8067986170681025e-01,
       1.1070583459072514e+03, -9.3512243755948043e-01,
       5.4523716382550867e+02, -1.4628967518377494e+00,
       3.0371462617766684e+02, -8.1600251261778090e-01,
       1.1663099810749300e+03, -7.6045730535822798e-01,
       1.4557744277713148e+03, -7.1103818352416670e-01,
       1.2413800888788828e+03, -1.1236657187743435e+00,
       6.5130328758985263e+02, -5.2147986348848330e-01,
       1.2992376816064166e+03, -8.4822136009814542e-01,
       7.0175848552533466e+02, -8.0318292349364395e-01,
       1.1090592377128175e+03, -6.2125375454434695e-01,
       9.5621584044331826e+02, -8.7739181189004967e-01,
       9.8154239429237816e+02, -9.8338443307896739e-01,
       6.9580158499335027e+02, -9.8816052629500739e-01,
       5.9799462043794188e+02, -1.2174232292645915e+00,
       1.0845050947916006e+03, -6.1840535770079652e-01,
       1.2321919467182661e+03, -8.7653906749094046e-01,
       4.4809273505438085e+02, -8.8808372209078545e-01,
       5.6688686293513535e+02, -8.7264223490917503e-01,
       9.3903242137792722e+02, -7.3187767937225567e-01,
       1.5513804354286026e+03, -6.3579561113704119e-01,
       5.3201944053440934e+02, -7.3226381930577111e-01,
       9.5944513518880888e+02, -7.9648309956871244e-01,
       7.3877988273548010e+02, -9.1566874307120161e-01,
       1.0778164999981016e+03, -9.6774450837525572e-01,
       1.0068354775874312e+03, -8.6630932013872630e-01,
       1.0087208985175977e+03, -9.4503159162195050e-01,
       1.0031220178030684e+03, -7.0124082487767159e-01,
       7.8677181220035050e+02, -6.3711842117877837e-01,
       7.3885380573455961e+02, -1.0951424680868052e+00,
       1.1508641662382481e+03, -1.0637818439356153e+00,
       1.3511036198383540e+03, -9.8543183596153683e-01,
       1.0482825532297506e+03, -4.5644459716090685e-01,
       1.9312623901519291e+03, -7.6195978982549761e-01,
       6.5735555397241433e+02, -9.4069819496903517e-01,
       1.2734638081856999e+03, -7.9003996787179820e-01,
       5.7279829688482369e+02, -9.6505846867656597e-01,
       5.7804593842035320e+02, -7.4902102249164038e-01,
       9.4195428203557947e+02, -7.1849746932055891e-01,
       3.7171759571450752e+02, -6.1835654593839817e-01,
       1.0777170573337917e+03, -7.5477123252523648e-01,
       1.4543674105178775e+03, -8.6991595329460691e-01,
       1.1886014024999172e+03, -6.6801784558798627e-01,
       1.2022842339291067e+03, -7.2127745636793084e-01,
       1.3323922774113416e+03, -9.2417013989631358e-01,
       1.0452442812837692e+03, -8.4187852262115204e-01,
       6.3523131217548416e+02, -1.1275345705502302e+00,
       1.3670859161861372e+03, -5.7971327294192543e-01,
       8.6570112961305961e+02, -7.2897660687141841e-01,
       5.9083928247208883e+02, -9.7028907920788643e-01,
       1.0814153202637549e+03, -7.2053349988111426e-01,
       2.1899832029507957e+02, -8.2907213337414576e-01,
       1.2378533295165601e+03, -1.2007566427993059e+00,
       1.8446408726982190e+03, -9.3297271673695925e-01,
       1.0118751108340027e+03, -8.4913600917988996e-01,
       1.2221689420635319e+03, -9.9169737809325720e-01,
       1.0602977080322332e+03, -8.3631208647587041e-01,
       6.6546523200132356e+02, -1.0410734088850546e+00,
       5.2563222962106295e+02, -9.8720430561284411e-01,
       1.3189742887679656e+03, -9.0644608238153512e-01,
       9.2327195842709591e+02, -9.5956718490330883e-01,
       6.1945064168741237e+02, -7.7832858235672919e-01,
       2.9901871187052780e+02, -7.8194123360334233e-01,
       1.0402866935200257e+03, -5.7732524532882468e-01,
       1.0287187198859001e+03, -5.2914664445279258e-01,
       1.4026547642492480e+03, -9.0476526438192872e-01,
       1.1935348799728404e+03, -1.1045946948893721e+00 ]
   output_scale: [ 1.0526315789473684e+00, 0. ]
   inv_output_scale: [ 9.4999999999999996e-01, 0. ]
   weights:
      - [ 2.9415841874946870e-02, -1.7837651238145787e-02,
          4.2301466660514694e-02, 3.4263573692890625e-02,
          6.3396923605633197e-03, 3.3726948222833571e-02,
          -1.8080468594904742e-02, -3.2655930749467411e-02,
          -6.8566192078017814e-03, 2.0523044831186180e-02,
          -5.2306463920608885e-02, -2.0994831648000387e-03,
          2.7186205402259914e-02, 1.3789509042275459e-02,
          4.5959690109341625e-03, 1.1195179131163220e-02,
          -5.4298462034100114e-03, -1.3250141838005353e-02,
          -4.7075805656724241e-03, 4.3989070217953169e-03,
          1.7517496081432982e-02, -2.0938590715354751e-02,
          3.2686073986387523e-02, 2.5236109576151633e-02,
          5.4077701624520875e-03, 2.2360675970586410e-02,
          -1.7890751840597983e-02, -2.7959445095706293e-02,
          6.6434775792821666e-03, 2.1067087659626352e-02,
          1.5304369626472425e-01, -3.0304303814680141e-02,
          8.1159279957448011e-02, 6.3949290997185632e-02,
          -4.1840046068908725e-03, 5.7864152049667036e-02,
          -2.2409655511675241e-02, -6.6033112320203188e-02,
          -3.3366416821674190e-02, 2.5398311186050876e-02,
          7.6841362604883695e-02, 4.6781362111386400e-02,
          -9.8704426601452053e-02, -6.8975178231176659e-02,
          -2.5497551201637360e-02, -5.9901846459469270e-02,
          4.0648664973433911e-02, 6.8251814678890799e-02,
          -1.2162398587067528e-02, -4.3851714537569184e-02,
          1.3973028741693752e-01, -3.3406006027174605e-02,
          7.1416207791294400e-02, 5.8191698730963234e-02,
          -6.4308783659115815e-03, 5.5840555706519655e-02,
          -2.7191496501245103e-02, -5.7650192628305091e-02,
          -3.7183391610360703e-02, 3.1145570915282611e-02,
          -5.3458359312331526e-02, -3.7850357780106779e-02,
          7.5955507591818142e-02, 5.0061651537558115e-02,
          1.8069256146449098e-02, 4.1684537117970447e-02,
          -3.3582894679712566e-02, -5.1118355082354135e-02,
          1.4938760178261254e-03, 3.6478845417453998e-02,
          6.8671831241195830e-02, -2.0119589008663658e-03,
          2.9248451818033292e-02, 1.7354635804359801e-02,
          1.9773915062372854e-03, 1.5076119528596166e-02,
          -1.2785901675638518e-04, -1.7881543615068576e-02,
          -1.6525331234364234e-02, -1.0863999535707135e-03,
          -1.1808676717951816e-01, 9.0004441362742712e-03,
          7.1386892583983281e-03, -1.0258366178781311e-02,
          -5.0554136259131632e-03, -1.6237208462595847e-02,
          8.0499305521322014e-03, 7.1108630770690840e-03,
          1.7904162140906774e-02, -9.2004617966738363e-03,
          5.8985251781144540e-02, -1.2872875689034799e-02,
          -2.9710007596286524e-02, -4.2229055097023705e-03,
          1.3682333805961145e-02, 3.0480771558734599e-05,
          -9.4959459349387033e-03, 8.1116422346715136e-03,
          -8.8032568862874815e-03, 1.2989670111182528e-02,
          8.7575856762573505e-03, -2.8437991416210943e-02,
          9.8775554958053027e-02, 6.1964571166653812e-02,
          7.1489789560680731e-03, 4.9896570845291435e-02,
          -2.6495193004986508e-02, -6.0781413175299434e-02,
          -1.5312186924787554e-02, 2.9037687743978077e-02,
          -4.1947358221280102e-02, 3.4707803540178994e-02,
          -7.6437711510320361e-02, -5.8009349407981477e-02,
          -7.0856264142297159e-03, -5.0423042284475264e-02,
          3.1937978475535263e-02, 5.5447766865525161e-02,
          1.9326011898387323e-02, -3.3649438535254539e-02,
          6.4704343840847486e-02, 1.7546618297484589e-02,
          -6.5938252318611432e-02, -3.8538668915231361e-02,
          -5.9340475372895241e-03, -3.4389131183088714e-02,
          1.2011759312631378e-02, 4.3728391096223396e-02,
          -1.1871719441884761e-02, -1.5952479752224455e-02,
          -1.3659387401819517e-03, -3.2717447154801231e-02,
          7.2446289603459710e-02, 4.9272265600351507e-02,
          1.2661441530740824e-02, 4.7621359309141131e-02,
          -2.7247406885332445e-02, -5.2028233857991539e-02,
          -2.0656518789347572e-02, 3.0123866072692067e-02,
          9.4091371055886650e-02, 1.4838031941830700e-02,
          -1.6106131023580599e-02, -1.5948809664122748e-02,
          -1.2323819825530182e-03, -1.4127399233734008e-02,
          1.0215248963691038e-02, 1.4557226142699895e-02,
          -2.4723411815411956e-03, -1.4669463077083233e-02,
          5.2391348145026752e-02, 2.0068809369301038e-02,
          -3.8952229258271423e-02, -2.7384838414209092e-02,
          -1.0532112886919763e-02, -2.4902263795217063e-02,
          1.7136363035943094e-02, 2.5672604751664208e-02,
          -1.2813428200318448e-02, -1.8222000083540611e-02,
          -3.4552261537515137e-02, 3.7738538414372726e-02,
          -5.4713627805159558e-02, -3.9869866383016352e-02,
          -1.4143814068173249e-02, -4.2158668302616387e-02,
          3.3341352387094091e-02, 3.8992525508257360e-02,
          2.8114254460977074e-02, -3.3283617242532489e-02,
          -1.1652053245901262e-01, 4.2796657243454120e-02,
          -7.2457359081692235e-02, -5.7837373634601570e-02,
          -1.5037213038081799e-02, -5.5844192084058969e-02,
          3.7001559127379874e-02, 6.1360821126673203e-02,
          1.9626253334709735e-02, -4.0521017474379604e-02,
          1.1100657383810288e-01, 2.3350640612283962e-02,
          -6.2339989794070190e-02, -4.4430023611544828e-02,
          -1.3193071918518455e-02, -4.4400698101288161e-02,
          1.9157881719916829e-02, 4.5279201674550629e-02,
          -1.5352554385026817e-02, -2.2443096829408916e-02,
          1.5075136565395915e-02, 6.5702599751480559e-02,
          -1.4742995169568962e-01, -1.0607721522646249e-01,
          -3.6338834791021464e-02, -9.6976000279605096e-02,
          6.3384493726954858e-02, 1.0477723170756306e-01,
          2.3938431943193648e-02, -6.7170189362829646e-02,
          -1.9820119609304149e-01, -3.7932399693658150e-02,
          6.6805652894064024e-02, 3.9935083242276827e-02,
          2.4054329350526888e-02, 3.4729384444377218e-02,
          -3.8352792288034919e-02, -4.3412981452359049e-02,
          9.0729198937014987e-03, 4.0682957057579759e-02,
          -4.9903851681856647e-02, -7.0083445121505827e-02,
          1.5266350430982886e-01, 9.9644375085602463e-02,
          2.7682076287521919e-02, 8.8980530499390961e-02,
          -6.3481650418571622e-02, -1.0355667014172924e-01,
          -2.8299043026148153e-02, 6.4336244929657546e-02,
          7.8616014552568298e-03, -4.1344559660442350e-02,
          9.3923755563878747e-02, 6.8737655257409352e-02,
          1.5731388300768836e-02, 6.4447870563032403e-02,
          -3.4807362149402214e-02, -6.7824368271908866e-02,
          2.4838294148883931e-03, 3.6644711056967649e-02,
          -6.3818877175483707e-02, -6.8425930777309130e-03,
          3.2381844247755136e-02, 9.9656787808655584e-03,
          1.1994307817671443e-03, 9.3488585686428462e-03,
          -5.0670632431293596e-03, -1.3839323365805534e-02,
          8.0520153843563827e-03, 5.9571373571242724e-03,
          2.5418634064109935e-02, 3.4221750341987302e-02,
          -6.6153881046124630e-02, -5.0662630833949715e-02,
          -2.0066616913654720e-02, -4.3874932187315432e-02,
          2.9474110981419596e-02, 4.9499253511939657e-02,
          1.9601064195101461e-02, -3.3039065230635017e-02,
          -5.4206962097557890e-02, -1.1393080838638492e-02,
          5.3758067813733058e-03, 2.6248086009206658e-03,
          1.6380277426050267e-02, 5.3636311589000344e-03,
          -1.1586927901878050e-02, -4.3922128887418747e-03,
          2.9525748851248583e-03, 1.3658070379040174e-02,
          3.8732405588711882e-02, 1.1485760571826488e-02,
          -1.8394505203948357e-02, -1.0939325141415667e-02,
          3.4188739010133913e-03, -1.0805254465217563e-02,
          8.1089712966027055e-03, 1.2801634841737713e-02,
          5.3952096264021261e-03, -8.1609453475072341e-03,
          1.1431856669470214e-01, 7.1141689056716112e-02,
          -1.6439758243900549e-01, -1.1530487477186500e-01,
          -4.0193440307713976e-02, -1.0183895847394313e-01,
          6.4915274800355444e-02, 1.1647938205298645e-01,
          -1.3203207632304459e-02, -7.0101797553499545e-02,
          1.2728561064416991e-01, 6.2778624919379147e-02,
          -5.6815650276680674e-02, -5.4944250881491324e-02,
          -3.9886258664768102e-02, -5.7377702903386653e-02,
          6.0066394309703938e-02, 5.1078646024084774e-02,
          1.0125416671092579e-02, -6.2069073281897001e-02,
          4.1038787143821136e-02, 3.9615196099228304e-02,
          -3.9118186532543252e-02, -3.9775413924509326e-02,
          -1.7709036461009464e-02, -3.8962445007237764e-02,
          3.3947802142683746e-02, 3.8358674018511098e-02,
          1.9622869570028686e-03, -3.5580278381706541e-02,
          -2.4544232420730341e-01, -4.4815285776870988e-02,
          9.2264132192290738e-02, 5.5313668570585381e-02,
          3.3643834078491135e-02, 4.7053038550183876e-02,
          -4.1015453030576243e-02, -5.7600171467068639e-02,
          2.5073739307926501e-02, 4.6008221013157373e-02,
          -1.7687916487338157e-02, -2.6466636977915750e-02,
          4.3274656109017415e-02, 3.7315913368973580e-02,
          1.3829718235824299e-02, 3.7546466945683872e-02,
          -2.1455892358835282e-02, -3.7329518859923867e-02,
          -1.5339250437529203e-02, 2.2711681521490692e-02,
          1.3084624419941727e-02, 7.4267803668571003e-03,
          -1.3568913438525439e-03, -4.0652486571781891e-03,
          -1.6237022172624087e-03, -3.6602574874360218e-03,
          7.7102838903910223e-03, 3.4346734096210611e-05,
          1.1736926512633914e-03, -5.1655290899715357e-03,
          3.7606721888536733e-02, 2.3407631716017997e-02,
          -5.0290821630121912e-02, -2.9992492863067353e-02,
          -1.2769852784730843e-02, -2.8490252453342670e-02,
          2.5155221005705709e-02, 2.9635543385561933e-02,
          1.5528871626197815e-02, -2.3178958084188850e-02,
          -1.5208632644450532e-01, -4.9910651163014769e-02,
          8.7554593639198861e-02, 6.4395312198882074e-02,
          3.4200755457311161e-02, 5.5698018587204995e-02,
          -4.5297918221255160e-02, -6.3606518386649616e-02,
          1.9865457584526233e-02, 5.2656681152059091e-02,
          -2.6730694241712219e-02, -2.4945398361803988e-03,
          -3.4330980670243386e-03, -1.3799416152372381e-03,
          8.1526691184822930e-03, -1.5582644027736087e-03,
          -1.4674838274657154e-03, -9.2462939976115197e-04,
          2.6468951273342832e-02, 4.4516935358227755e-03,
          -4.2968059899188928e-02, -3.2248521702450059e-02,
          4.4420590684689745e-02, 3.6475911234105783e-02,
          2.8921804990213532e-02, 3.3738035819166949e-02,
          -2.8647549993943176e-02, -3.8193893744888574e-02,
          1.1944226883781984e-02, 3.1514402192149474e-02,
          -8.3061156080767556e-02, -3.8944245439459742e-02,
          8.3632292068553021e-02, 5.8586132067835049e-02,
          1.8286050463197395e-02, 5.1259596489858825e-02,
          -3.3968611384318934e-02, -6.0114864086434606e-02,
          2.0432531818848236e-02, 3.6273448943158905e-02,
          -1.9150678435977500e-01, -1.2037769997958870e-02,
          3.5623134024865791e-02, 3.9011736773854533e-03,
          1.8239684807746393e-02, 1.5252973092535545e-03,
          -9.1422660752004808e-03, -5.3218791197396061e-03,
          3.1260686275587909e-02, 1.1329476115482861e-02,
          -1.8029035363174317e-01, -8.9515322333475252e-03,
          4.4111491486231537e-02, 1.6758213477419300e-02,
          7.7941604927936944e-03, 1.2841039454055760e-02,
          -6.0564200962991699e-03, -1.8533769139418416e-02,
          1.4914878474284930e-02, 8.2295094465391540e-03,
          8.9902438436448656e-02, 5.1582482850592463e-02,
          -1.0036256036870707e-01, -7.1785520601326258e-02,
          -3.0742814395290585e-02, -6.3684866148926142e-02,
          4.7999170372818228e-02, 6.9706259925426159e-02,
          -8.9068437688697693e-03, -5.0280511113369827e-02,
          -2.0607520339663996e-02, -1.4973183017903917e-02,
          2.1611052114192328e-02, 2.1864423875776869e-02,
          1.2313661317981089e-02, 2.3950712402140563e-02,
          -1.3467252150182662e-02, -2.2568279266159848e-02,
          -2.5192460647124409e-03, 1.8224490098509728e-02,
          -1.3595092563975564e-01, 5.7836519014329318e-02,
          -1.0456849735595684e-01, -9.0308155312310984e-02,
          -1.5522600496031502e-02, -9.1101500343938088e-02,
          5.2172209014742038e-02, 9.8092113757175456e-02,
          2.3871095335082009e-02, -5.5427975718306585e-02,
          4.6512549926214355e-02, 3.1604071806534600e-02,
          -5.7465709523275468e-02, -4.0999503006164194e-02,
          -1.1091984360964350e-02, -3.5721660739983348e-02,
          2.5647756964563315e-02, 4.0540851963332597e-02,
          -1.2944745743262331e-02, -3.1471773676153204e-02,
          2.3108781467709935e-01, 1.5690198538527007e-02,
          4.5469916836467844e-03, 1.8469858273166746e-03,
          -2.9703774453780966e-02, 5.9524144010258864e-04,
          1.7876109195591922e-02, -3.2878433370831235e-03,
          -5.1909412998038945e-02, -1.6878319787553751e-02,
          1.0092562649194167e-01, 7.7621111442113644e-02,
          -1.5213418766065895e-01, -1.0937087116151351e-01,
          -4.2194491371151034e-02, -1.0268433061708145e-01,
          7.0233477648250567e-02, 1.0945936696628859e-01,
          7.7116889201036924e-03, -7.3946756172836400e-02,
          4.1579648125246706e-02, -2.6566895027493553e-02,
          7.4504882069213893e-02, 4.6990139815474008e-02,
          1.4409679838902578e-02, 4.4393397876822581e-02,
          -2.6290664482402248e-02, -4.8237064506845048e-02,
          -1.0721984202056918e-02, 2.6352228004487915e-02,
          4.2539889002430303e-02, -2.5405902251795370e-02,
          7.3985103613747910e-02, 5.0784254353440132e-02,
          9.1118886703372894e-03, 4.6405369140279366e-02,
          -2.2730363596034687e-02, -4.9662945090230615e-02,
          2.5611335286793912e-03, 2.2253194457694424e-02,
          -1.2267430597502040e-01, -2.6925097061125502e-02,
          5.9170929466262165e-02, 3.2958334751036933e-02,
          1.7975905299596105e-02, 2.9200868816795997e-02,
          -2.4417072580988727e-02, -3.5797271842347593e-02,
          1.7189033458057165e-03, 2.4782716247865537e-02,
          2.7402096653154013e-03, -1.7762829766159529e-02,
          2.3038596626506237e-02, 1.3356201900247036e-02,
          1.3133358904763552e-02, 9.7163991720119920e-03,
          -1.5321290720856140e-02, -9.9926872726696595e-03,
          7.3626527753867096e-03, 1.9131094389966311e-02,
          1.3343900056369029e-01, 1.3533375778750278e-02,
          1.3394985846602824e-02, 6.6355859548094497e-03,
          -2.5680164974610866e-02, 1.9346796320757035e-03,
          1.1816913685659864e-02, -8.0315779745386874e-03,
          -1.9629225328505223e-02, -1.1715625845787744e-02,
          -2.5416524164566584e-01, 2.2537996158843625e-03,
          -2.9064959334904394e-02, -2.4862709817067220e-02,
          1.0067452726350077e-02, -2.5985808034676958e-02,
          2.1465830791692593e-04, 2.9065019223922295e-02,
          2.1056177006475281e-02, 1.0724222468998430e-03,
          3.8258734094390671e-02, 1.2003810279563633e-02,
          2.4952716423325551e-03, -3.7000430532705768e-03,
          -6.9768546498756700e-03, -3.0377709116710806e-03,
          1.0797379780122606e-02, 4.9232621369368229e-04,
          4.1741813047264697e-03, -9.0335210279672735e-03,
          1.3134163624347647e-01, -4.1279760129705911e-02,
          9.0524230810363898e-02, 6.9007005471894922e-02,
          -4.4906896039848906e-07, 6.3711547284702560e-02,
          -3.5849350413843614e-02, -7.3047805580382874e-02,
          -2.7927255215658479e-02, 3.6963402696211504e-02,
          1.1854822714495372e-01, 4.0121093738764900e-02,
          -7.2932940861549805e-02, -4.9264429335369855e-02,
          -3.0732344341259266e-02, -4.1350242143687682e-02,
          3.7145741830046083e-02, 4.7135714804954452e-02,
          -1.5471870843634569e-02, -4.0142935833963479e-02,
          1.1653610190461595e-01, 4.4842046266158959e-02,
          -9.5469501389792433e-02, -6.7276922097809305e-02,
          -2.7849249248557098e-02, -6.3355130939760071e-02,
          4.4072495531701811e-02, 6.5753859680305504e-02,
          7.6416669396365741e-04, -4.4840401908414075e-02,
          4.3261189113718436e-02, -1.8864385464986755e-02,
          6.4760466786475054e-02, 4.6953252658602375e-02,
          1.0742176750765605e-02, 4.4391251939952095e-02,
          -1.7656222370276763e-02, -4.9633857819437278e-02,
          -9.0174645085587047e-04, 1.8460529223355206e-02,
          3.6660445665409193e-02, -1.6282897586215744e-02,
          6.3173691020205647e-02, 4.9118805715042416e-02,
          4.5287850307846071e-03, 4.1615691099801039e-02,
          -1.2643184309074006e-02, -5.1111922197218267e-02,
          1.7021581304110498e-02, 1.5621591595710856e-02,
          3.9109178428865958e-02, -6.2197691224658951e-03,
          6.0912932043469961e-03, 9.3203763422791634e-03,
          1.8747029994506021e-02, 9.4265892139543551e-03,
          -5.7095753795844200e-03, -8.7559086250573511e-03,
          1.2909719332539968e-02, 7.0671846162654230e-03,
          -1.6618483705257644e-02, -8.8214390992490972e-03,
          -5.3746800848297359e-03, 1.8701882300924959e-03,
          1.0801652697631739e-02, 5.9139977305782583e-03,
          -1.1305035279942720e-02, -1.3254649240861426e-03,
          3.2274260862828565e-02, 7.6837695063964821e-03,
          6.3611621598073737e-02, 2.1439504687104899e-02,
          -6.5979824473219595e-02, -3.9579117201549108e-02,
          -2.0817511633405145e-02, -3.4701740525532702e-02,
          2.1654323025140705e-02, 4.3047774047225158e-02,
          -6.5572891089543586e-03, -2.1667824574012472e-02,
          6.5011036859561264e-02, 1.2310446028639623e-02,
          2.0714276139429350e-02, 4.6502045644225718e-03,
          -1.5145260438759692e-02, -3.1027204332065159e-04,
          9.1249016526910413e-03, -5.9633124988960288e-03,
          -1.6802933762389158e-02, -1.1005016389235773e-02,
          -7.7604837381103825e-02, -2.3625998582969630e-02,
          3.1861404415522057e-02, 2.9704580677656883e-02,
          1.6686984261354391e-02, 2.8368727148570715e-02,
          -2.1009651133186778e-02, -2.6080269926008412e-02,
          1.4567904843335139e-02, 2.4180646493430394e-02,
          5.4765217180251262e-03, 2.6982071243020187e-02,
          -8.8147488164037766e-02, -5.9037494376093458e-02,
          -3.3320390997698644e-03, -5.1291291312501285e-02,
          2.5422655100004771e-02, 6.1411878115554201e-02,
          2.2002153357609032e-03, -2.4744707496028178e-02,
          9.0566288622960497e-02, -3.8055304503694785e-02,
          7.4076885881447743e-02, 6.1491826370950062e-02,
          3.9288955286348546e-03, 6.0915174201148004e-02,
          -3.3923884998969651e-02, -6.6713599773977825e-02,
          -4.8112063012544788e-02, 3.5067011386500146e-02,
          -1.7115421201949826e-01, 2.7473561032650810e-02,
          -5.4822721793094199e-02, -5.7029689999856199e-02,
          6.0511190357850509e-03, -5.5248286062054439e-02,
          2.4241585964317670e-02, 5.8180020621052389e-02,
          2.5564383145665524e-02, -2.5611016342978687e-02,
          2.9599135799755805e-02, -2.2845178371039884e-02,
          1.7451653232817114e-02, 1.9145155779764340e-02,
          9.4696575782810561e-03, 1.7841281018060991e-02,
          -2.0878264239504951e-02, -1.6045596744915538e-02,
          -2.2421448430526434e-02, 2.1247889098414578e-02,
          -1.3091303332256804e-01, -2.5248646378839508e-02,
          2.9895141379761556e-02, 1.6487470214215216e-02,
          1.9872575539467675e-02, 1.7051691435446343e-02,
          -2.2014155104810505e-02, -1.5802944413763297e-02,
          2.1166068861607969e-02, 2.5878175227241795e-02,
          1.5110084842041030e-01, 1.5356659660986090e-02,
          -2.5937571012950942e-02, -1.4336218004451985e-02,
          -2.0878414405368008e-02, -9.1191998048239763e-03,
          1.5643280694788538e-02, 1.2227194636662324e-02,
          -1.7412324640342276e-02, -1.7231843370239499e-02,
          1.2871184743884478e-01, -3.7193782413181255e-02,
          1.0235748279995281e-01, 7.9429814808287619e-02,
          3.5621339848945130e-03, 6.9289271682855383e-02,
          -3.3645432295178197e-02, -7.8492934321459124e-02,
          -2.6028081895835949e-02, 3.4412058397696364e-02,
          -2.6094645745316111e-02, 2.7309107510187371e-02,
          -4.2943793212275531e-02, -3.8477467369191054e-02,
          -9.0554947772987140e-03, -4.1823280692567383e-02,
          2.7133217025327408e-02, 4.2221650778989345e-02,
          2.0484260867168372e-02, -2.9315083204778613e-02,
          1.2105076930864553e-02, 4.2298583802776533e-02,
          -9.6799737097833849e-02, -6.7105030638523661e-02,
          -2.2309779490946209e-02, -6.3798955312930755e-02,
          3.8290315377346562e-02, 6.8801406235587656e-02,
          1.8081910030626251e-02, -4.3024069054492006e-02,
          -2.1003173933504687e-02, 3.8146811634581217e-02,
          -4.0656865568504764e-02, -4.9072122190738761e-02,
          -1.2673422257469211e-02, -4.9579376722155011e-02,
          3.6597667102272149e-02, 5.1410562826932897e-02,
          1.1203850939715413e-02, -3.8011980642984979e-02,
          -4.6904299580092984e-02, 3.7282521067280243e-02,
          -8.4153961806703259e-02, -5.6518351097356624e-02,
          -1.5796877241450600e-02, -4.8217978143429659e-02,
          3.0884417842836687e-02, 5.7913955350985043e-02,
          3.0953172876197886e-02, -3.3547481109068980e-02,
          -7.5219675562906277e-02, -4.1452031540247174e-02,
          8.4763528897165402e-02, 6.0958054273838186e-02,
          2.8373762082778115e-02, 5.5148047414733080e-02,
          -4.0413662483948634e-02, -6.1139051244747881e-02,
          1.0698624473989716e-02, 4.2354082528299135e-02,
          6.9939682635800277e-02, 3.7933284360825597e-03,
          -1.9120899193476027e-02, -1.0165365403902792e-02,
          -1.2220910499796346e-02, -6.9736142351207557e-03,
          4.9655654679645915e-03, 1.3059806248317332e-02,
          -3.6114064474260413e-03, -5.5113189170537041e-03,
          2.9333150789003826e-02, -6.7927925841615210e-03,
          1.1639614328054484e-02, 1.0335040722193250e-02,
          5.6869555320337439e-03, 1.1146024612943188e-02,
          -8.8336143101830390e-03, -1.0789326881183559e-02,
          -2.5221057615216071e-02, 9.9568914882995924e-03,
          7.7715961508927178e-02, 3.9052087958531531e-02,
          -1.0571950230569792e-01, -6.7421272455201381e-02,
          -2.5397284479160225e-02, -5.7428143413983654e-02,
          3.9058372028457161e-02, 6.7783398087815125e-02,
          -3.7143541321071720e-03, -4.0622219929880431e-02,
          -1.2668172458607049e-01, -2.5149541517624521e-02,
          6.3657304929369829e-02, 3.2634760148399111e-02,
          2.0519591208123553e-02, 2.5201367822457788e-02,
          -2.3065739061287140e-02, -3.6295184046724147e-02,
          9.6073501385186798e-03, 2.4861273537947540e-02,
          -5.8872816484278681e-03, -7.1171602452645795e-03,
          4.8242915406181107e-02, 2.2705827047792903e-02,
          7.6159930702924192e-03, 2.0584528739320120e-02,
          -6.7905571429335721e-03, -2.6596991842227802e-02,
          1.5581558878438782e-02, 9.6897045907741019e-03,
          4.8002980343902206e-02, 1.5680844624059963e-02,
          -5.6113702987557711e-02, -3.4578111692754106e-02,
          -9.7324045955705114e-03, -2.7490045931650352e-02,
          1.3918724240807760e-02, 3.5490597104983791e-02,
          -2.4779813072735453e-04, -1.2029911948264357e-02,
          -7.0249416586349367e-02, -2.6576875618476100e-02,
          2.6901700823345046e-02, 2.8712559710653902e-02,
          2.0548940241798833e-02, 2.8119260596200537e-02,
          -2.3112134348344700e-02, -2.6795895397803880e-02,
          1.3807933713529263e-02, 2.4958185694521587e-02,
          -8.2722686249458943e-02, 2.9395093207560674e-02,
          -7.7141012922856550e-02, -5.2826425247073511e-02,
          -2.0379469790006315e-02, -4.9718063906672549e-02,
          2.7569966890633169e-02, 5.5643138540617414e-02,
          1.6230183873799743e-02, -3.2926004378182078e-02,
          1.1502856584232622e-01, 3.1383779280302587e-02,
          -3.2939302618820353e-02, -2.0114201419847575e-02,
          -3.4176083275208574e-02, -1.9737250433616679e-02,
          3.3386753362609260e-02, 2.0375470923237413e-02,
          -2.3341532407763670e-03, -3.5286326058676834e-02,
          2.8518705389015422e-02, -1.6218178275806940e-02,
          5.8187937391954263e-02, 4.1931142315869072e-02,
          -2.8144785679768821e-03, 3.7385384857237414e-02,
          -1.3665461953366731e-02, -4.2539141687712292e-02,
          -1.2001269697565485e-02, 1.3342720268308812e-02,
          -8.7827152946188466e-02, 2.5085495800636588e-02,
          -5.5261826422097753e-02, -4.3762215059048995e-02,
          -1.4043207149769680e-02, -3.7862885715278918e-02,
          2.2067173291431052e-02, 4.2391100948700536e-02,
          1.2657398058471396e-02, -2.6226627737190887e-02,
          1.4829475698271966e-01, 1.2693097234147016e-02,
          -3.1670622569391751e-02, -1.8894808030870496e-02,
          -1.5557242162757362e-02, -1.7497950471864580e-02,
          1.6530630731424696e-02, 1.7190862138622660e-02,
          -2.1189051412014607e-02, -1.7412151576083640e-02,
          1.2683531758574459e-01, -2.2281289682159002e-02,
          7.8360407694782211e-02, 5.2959677209302086e-02,
          -1.4514654813290688e-02, 4.6327014305913093e-02,
          -1.9509387105843063e-02, -5.6693009383990911e-02,
          -3.7494150247757894e-02, 2.0533823511107222e-02,
          -9.0785329307900967e-02, 1.8210787175486211e-02,
          -1.7741644790970776e-02, -2.5788625772629060e-02,
          -2.1600998863221093e-04, -2.5389542429573680e-02,
          1.7104801241757304e-02, 2.4701962618807846e-02,
          2.1010700220952097e-02, -1.6539899334944680e-02,
          1.1035888274369617e-01, 1.3246100996911831e-02,
          -4.6096191597927418e-02, -3.2162121471491938e-02,
          -1.1125826858932241e-02, -2.4756754395957061e-02,
          1.1037366662576365e-02, 2.9113205113764008e-02,
          -1.4095687121450966e-02, -1.2850547460341177e-02,
          1.5723895266996378e-02, -2.3268586313007430e-02,
          5.0684425461466967e-02, 3.8181921525650260e-02,
          8.7846847371069806e-03, 3.4767329888480060e-02,
          -2.1145664917796327e-02, -3.6184723531991841e-02,
          -2.6482704588489934e-03, 2.1644994653982143e-02,
          6.5914877660275609e-02, 1.5292669112961755e-02,
          -1.3522242491524750e-02, -6.7991534456000625e-03,
          -5.2078512420583398e-03, -9.7166981939244453e-03,
          1.4466597876673561e-02, 6.0251458466511077e-03,
          1.2458209754677508e-03, -1.3333309038122023e-02,
          -3.6984129557677159e-02, 1.4524479155278228e-02,
          -4.5818156977402463e-02, -3.1377778353626061e-02,
          3.4307829753960767e-03, -3.1043940455381003e-02,
          1.1205757294813346e-02, 3.5775973256395636e-02,
          -7.7045174446645432e-03, -1.3909180539328107e-02,
          -1.9487061648530185e-01, -3.3089177592107936e-02,
          5.9913108357675500e-02, 3.4335828814076499e-02,
          2.4311149486742126e-02, 2.6476695783531134e-02,
          -3.0310203248909439e-02, -2.7987954520631578e-02,
          1.3167062057359003e-02, 3.3485371246139158e-02,
          -1.0899008333641863e-01, -3.6985093791092230e-02,
          5.7924659998010643e-02, 3.4522970414373057e-02,
          2.0788672383506214e-02, 3.0035192375062726e-02,
          -2.9368478697345587e-02, -3.2268083795562522e-02,
          2.6678220822119094e-03, 3.2903042296538426e-02,
          -7.0504689307272175e-02, -4.0166761795964290e-02,
          5.7394268992838740e-02, 4.9396344425667413e-02,
          2.0692171644252522e-02, 4.2988539470989288e-02,
          -3.4737983934777311e-02, -4.5909823836274365e-02,
          -1.0404848611685604e-02, 3.8154341690785867e-02,
          -4.2691918088252595e-02, -1.1155447577265986e-02,
          -1.6468350249691278e-03, 2.9353555268493491e-04,
          9.5547228232359446e-03, 4.4713190368199695e-03,
          -1.1317469381102471e-02, 1.4199576881011239e-03,
          2.7241007353629988e-02, 8.4909637883354479e-03,
          2.1773196577760136e-02, -1.4787808916712311e-03,
          1.8271088659445506e-02, 9.1429782525092890e-03,
          1.7078280145893493e-03, 7.3093471461540263e-03,
          -3.6726663470013939e-04, -1.3220018591521322e-02,
          -2.2334963154864555e-02, 5.0792798141661181e-03,
          -4.5028117156785848e-02, -1.9420405727292679e-02,
          3.8974986234024497e-02, 2.9962621255957902e-02,
          1.5300904588940496e-02, 2.8368110662671874e-02,
          -1.6891875582428648e-02, -3.0212427322401088e-02,
          -4.3774483822170461e-03, 1.5912460824207039e-02,
          -2.6785439968152597e-01, -4.1653484662463457e-02,
          2.7535619784148365e-02, 1.7116115575446327e-02,
          5.0848518417448828e-02, 2.0056556653872314e-02,
          -4.1010331258265163e-02, -1.4251503144678587e-02,
          5.5246297512741717e-02, 4.3214611725977944e-02,
          -2.7275479595765279e-02, 2.4534186902376545e-02,
          -2.9397585134248245e-02, -2.9462897129603444e-02,
          -1.1684942568790197e-02, -2.8809410416406618e-02,
          2.2425618364905892e-02, 2.9926700043959618e-02,
          8.2975849475103065e-03, -2.3424312366473316e-02,
          -1.3760892079245027e-01, -4.2444832124626790e-02,
          7.9231334379772506e-02, 5.2287105556922960e-02,
          3.6604932270546654e-02, 4.7396949061887135e-02,
          -4.0588084775895941e-02, -4.9904979003781311e-02,
          7.4089380795449595e-03, 3.8081091469594514e-02,
          4.0676693590450591e-02, 1.9815166157790130e-02,
          -3.7615684853353412e-02, -2.4974877909114561e-02,
          -1.8969570096151876e-02, -2.3553523289180745e-02,
          1.4860860109605904e-02, 2.8137108038555993e-02,
          6.4718417098074046e-03, -1.5737181428771389e-02,
          6.1224485358874231e-02, -3.9117395143805245e-02,
          1.0436148511142873e-01, 7.4878603646819225e-02,
          2.7318046494746078e-03, 6.4435087615423936e-02,
          -3.3182617765162584e-02, -7.4003426432967714e-02,
          -3.2770070796064414e-02, 3.5177441163556415e-02,
          -5.2056949940432647e-02, -2.6920221131759578e-03,
          -1.8426046614579177e-02, -4.1311357106870276e-03,
          1.0420895857591770e-02, -3.9651623573462979e-03,
          3.4679117038011967e-04, 7.4426190780730959e-03,
          1.6998606939117741e-02, -4.6785173272603992e-04,
          -2.0979585659532649e-02, 3.2194093208822321e-02,
          -9.1627081604368693e-02, -7.4080557869673769e-02,
          -6.1100754631113448e-03, -6.6013026173816894e-02,
          2.8781107192185403e-02, 7.4859156813503969e-02,
          1.3651231052089687e-02, -3.1326375515561243e-02,
          -2.3554025803097592e-01, -2.5625114257126949e-02,
          5.7402993149482225e-02, 2.8432711342637244e-02,
          3.1543187076820495e-02, 1.9476911137661736e-02,
          -2.3026341563318949e-02, -2.6340308061122218e-02,
          3.6589107991812461e-02, 2.2875269898119808e-02,
          2.3383185546683428e-02, -2.9317779455621487e-02,
          6.5978634645155534e-02, 5.0825176018875026e-02,
          1.6788416263848950e-02, 4.9280605287945409e-02,
          -2.8331295708206677e-02, -5.5570809050987692e-02,
          -1.2950950786908489e-02, 3.2246891587187687e-02,
          2.2334506928248540e-01, -2.7596929405739774e-02,
          9.3593426400754284e-02, 6.2435961542522081e-02,
          -2.8626204246488089e-03, 5.6904941364650956e-02,
          -2.2205763493940489e-02, -6.5768473854134174e-02,
          -5.0146108709594392e-02, 2.0746178029895326e-02,
          1.5298824971190764e-01, 1.8106758838936067e-02,
          -9.1201838578732573e-03, -5.3958664867866544e-03,
          -2.7198080330134985e-02, -6.2912837468265337e-03,
          1.3630509136362545e-02, 5.9553756126865399e-04,
          -1.8092435588416830e-02, -1.9050138712451876e-02,
          -1.0665625840170577e-01, -3.8305416060918800e-02,
          5.7632704336355034e-02, 4.7419678871487389e-02,
          3.2640790668197819e-02, 4.5293299070489838e-02,
          -3.7351055596727849e-02, -4.7977261228080846e-02,
          3.0918300357601951e-02, 3.9540479733142314e-02,
          3.7090096907786356e-02, 3.3130133253615160e-03,
          -9.7781216635006822e-03, -7.8203461859080708e-03,
          -8.1893390957508277e-03, -3.6567710296704016e-03,
          4.7566266381440607e-04, 9.4020864230986868e-03,
          -8.4570999081338884e-03, -3.9276847552876552e-03,
          -3.7168249776215072e-02, -3.0859744135723555e-02,
          3.1951974257077263e-02, 2.9901677848177610e-02,
          1.7231988356814970e-02, 3.2602247139313152e-02,
          -2.8197680233313465e-02, -2.9218226170012455e-02,
          -1.6086839176467617e-02, 3.1125719988742754e-02,
          -5.6089879393909997e-02, 3.4668838455619295e-03,
          -1.9680185159926002e-02, -1.7821574889557792e-02,
          -1.1791874002561712e-03, -1.7686042176787986e-02,
          5.3204342846318317e-03, 1.9216415057076611e-02,
          1.6651471667670482e-02, -3.8099560330149508e-03,
          1.4925849014582064e-02, 4.1208610811196943e-03,
          2.8131551385560064e-02, 1.4549044180965772e-02,
          -6.4744204534543017e-03, 1.3972932138100811e-02,
          3.5091068822874255e-03, -1.5971539719898530e-02,
          -1.2438784213045284e-02, -3.2055976811182331e-03,
          -5.9092761483727094e-02, 5.5182066644118108e-02,
          -1.4803998057283185e-01, -1.0411272146416321e-01,
          -2.2081560216244387e-02, -9.1642963916783005e-02,
          4.6406382581674586e-02, 1.0730067382239153e-01,
          1.5945873938381677e-02, -5.2214714722453037e-02,
          -1.5226284949654550e-01, -2.5897189162758714e-02,
          3.6765576071277027e-02, 2.6397611853284226e-02,
          2.1235080715758296e-02, 2.2325770287512314e-02,
          -2.3575336343967600e-02, -1.9820803880148539e-02,
          7.6901432353863102e-03, 2.6466871665652026e-02,
          -8.1361854040691142e-02, -1.9688898478278021e-02,
          1.2553910658380690e-02, 1.7201514329774636e-02,
          2.0037744103968861e-02, 1.6771509000336953e-02,
          -2.2958767757004766e-02, -1.4120567727826860e-02,
          3.5488118886454301e-03, 2.1860450997071974e-02,
          -3.6582511524745051e-02, -1.2942256414157013e-02,
          4.1823917075097160e-02, 1.9185752817460298e-02,
          1.5057860583252307e-02, 2.0142403832450771e-02,
          -1.4713192869400248e-02, -2.2727019035557423e-02,
          7.7186888378025873e-03, 1.2305982527980690e-02,
          -1.5054785320110617e-01, -1.4305635021594510e-02,
          4.3132596637074305e-02, 1.9345288630932770e-02,
          1.7632898872004366e-02, 1.6952938930524419e-02,
          -1.2495818871993768e-02, -1.7671261778236365e-02,
          4.5106529115377450e-03, 1.2486542815257419e-02,
          9.2875504181003390e-02, 4.1782105345592103e-02,
          -1.1102303052294851e-01, -6.6272295626636946e-02,
          -2.6863933038200526e-02, -6.1527016084486297e-02,
          3.6370316418889805e-02, 6.9430090767674660e-02,
          -3.8595808201572618e-04, -4.1810555805212181e-02,
          -1.5117570606849274e-02, 1.9834932790999855e-02,
          -5.6227000450336566e-02, -4.1159420399089909e-02,
          -7.1580532524389354e-03, -3.5812822064294612e-02,
          1.4353009636214898e-02, 4.3634233444980484e-02,
          3.7525545431018434e-03, -1.5762577387650221e-02,
          5.8116030149648806e-02, 5.1148637627177460e-02,
          -4.0615194741686067e-02, -4.4159026726989369e-02,
          -3.1149783434083995e-02, -4.2763239754786665e-02,
          4.2092602505922241e-02, 3.9307650036221012e-02,
          -6.0764924970068996e-04, -4.7350634169672785e-02,
          -8.6040207173205277e-02, -1.2643140058912211e-02,
          1.6357478734783327e-03, 2.6230824520919712e-03,
          1.5026070889490194e-02, 5.5593881342584665e-03,
          -1.4435301251568548e-02, -4.2905209401783639e-03,
          3.8413204105416744e-02, 1.5741549157784123e-02,
          -2.3188119742887005e-02, 5.5798170281568103e-02,
          -1.0810760371621436e-01, -8.1505377423643319e-02,
          -3.5181301160862939e-02, -7.2644820937657201e-02,
          5.0026539024359593e-02, 8.5167160886681928e-02,
          2.8526979333991071e-03, -5.3265824694185435e-02,
          1.0362902529044025e-01, 8.6283251473804976e-03,
          9.6263513888899968e-04, -1.7406973561384157e-03,
          -4.9750965188683710e-03, -2.8303392750121982e-03,
          7.5759648082980866e-03, -2.5515352534742431e-03,
          -1.4078833095122758e-02, -8.6308320627761850e-03,
          -3.1846644214060144e-01, 1.0898684537840410e-02,
          -5.4689662856336314e-02, -4.6231290660896658e-02,
          1.1012585521291857e-02, -4.8188052837572409e-02,
          1.2123793426129702e-02, 5.5375260270049902e-02,
          4.0126229774749993e-02, -6.8817478618997474e-03,
          2.9059178898986973e-02, -2.1835606978248639e-02,
          4.4880564231572981e-02, 3.8760390567429505e-02,
          5.1928755901123102e-03, 3.3486038383179692e-02,
          -1.8106074050547177e-02, -4.0613173281587589e-02,
          2.7698397224917592e-03, 1.8510398005951112e-02,
          7.1562020329883139e-02, 2.8697028150040185e-02,
          -2.7273677800354400e-02, -2.2888362403544135e-02,
          -2.3239650889920735e-02, -2.2697937998095694e-02,
          2.7028204010176776e-02, 2.1769473120016428e-02,
          8.9919303165469644e-03, -2.5533653434033091e-02,
          -2.5021784369778127e-01, -2.5555977642923798e-02,
          4.1474370379038908e-02, 2.2409854093005336e-02,
          3.4273025732695098e-02, 1.9723410033195082e-02,
          -2.4127272734330570e-02, -2.1178468636985959e-02,
          5.2070817261447112e-02, 2.7398814326868137e-02,
          7.8609504690103804e-02, 3.5062290899935677e-02,
          -5.8253681974201443e-02, -4.1378601325312292e-02,
          -1.7118745935168780e-02, -3.6794422989458633e-02,
          3.2136308164649866e-02, 4.1621813314460729e-02,
          7.5830145730539341e-03, -3.4033913753817036e-02,
          -1.9518270591303616e-01, -7.4358394316303639e-03,
          1.3500258171912737e-02, 1.3897649266640054e-03,
          1.5492099360858972e-02, -8.9958438047815076e-04,
          -3.7540601757003796e-03, 3.3498893092565752e-03,
          2.3528864835999360e-02, 6.9595530297187147e-03,
          9.2043077340525192e-02, -4.2108458110142029e-02,
          1.1223729515424725e-01, 8.1124012104040633e-02,
          1.8938988489223200e-03, 7.4399379022542053e-02,
          -3.9338216822062073e-02, -8.6379370713208531e-02,
          -3.4874874260444312e-02, 4.2205237187125377e-02,
          7.4835177501034411e-02, 1.3032888375290172e-02,
          -5.4736980224545720e-02, -2.6839814560776352e-02,
          -1.5367658359540496e-02, -2.1736164130717724e-02,
          9.2354598364938634e-03, 2.6708346396697117e-02,
          -4.8824290698916634e-03, -8.0623122632974536e-03,
          1.0429939964133125e-01, 2.7156534912326977e-02,
          -9.0809789528517065e-02, -5.4387584305208292e-02,
          -1.1422956404891962e-02, -4.5071187050913029e-02,
          2.3711704203118342e-02, 5.5445404183082046e-02,
          -6.4068414324435228e-03, -3.0281555251766772e-02,
          2.8805510814482124e-02, -1.9563393616529130e-03,
          -4.7198450000325604e-02, -1.6925825881845779e-02,
          1.1349092257101083e-03, -1.1927983633094821e-02,
          -4.2247055748116779e-03, 1.7428413994315443e-02,
          -4.1287179162006558e-03, 2.6451782755597423e-03,
          8.9320938545419573e-02, 2.8415589992376210e-02,
          -6.1987245168975608e-02, -3.8154594001571632e-02,
          -2.4012149468750636e-02, -3.0240184327118773e-02,
          2.5274060775122509e-02, 3.6427758279567020e-02,
          4.1071916601760074e-04, -3.0580926874771836e-02,
          -5.0491195173219885e-02, -2.4613932837896094e-04,
          -5.3255784242977437e-02, -3.4324038506946389e-02,
          1.3253324368386029e-02, -3.0091692674074921e-02,
          1.6702704847601573e-03, 3.3786233872979389e-02,
          7.3671088649798688e-03, 1.2858855480938651e-04,
          1.1905479789102257e-01, 1.0802263312788534e-02,
          5.9165008620949353e-03, -2.7190081699375139e-03,
          -2.0016704884210451e-02, -7.6977338721198408e-03,
          1.0514550457149691e-02, 2.3556593919403816e-03,
          -6.7517438738335074e-03, -1.0914272279012529e-02,
          1.0306565905758451e-01, 2.3816406610917617e-02,
          -5.8820614727338828e-02, -3.1843298330388729e-02,
          -1.8723712348564469e-02, -2.7022601464573571e-02,
          2.0552091502844750e-02, 2.9163974504218544e-02,
          -1.7892396031788035e-02, -2.3951935330035579e-02,
          6.5857703358676231e-02, 1.8545608430455766e-02,
          2.2891233333373007e-02, 9.5747807619355769e-03,
          -3.0118271392349346e-02, 6.2660174578347255e-03,
          1.8622824599610524e-02, -8.3631450017430074e-03,
          -1.3173162033206192e-02, -2.1527202930564784e-02,
          1.3200771762497657e-01, 1.9808343436687446e-02,
          -1.6411523280318661e-02, -1.6179340266590719e-02,
          -2.0797996879928712e-02, -1.7337524306421940e-02,
          2.3219675851224950e-02, 1.3847980557803749e-02,
          -2.1571532591367362e-02, -2.4719907913050416e-02,
          -9.5401738138856149e-02, -5.9575766837976175e-03,
          -8.5615632760103408e-03, -5.2160389864999183e-03,
          1.4013039334702720e-02, -5.3296026000759994e-03,
          -6.8954608809429149e-03, 1.1445013094220436e-02,
          9.1599235369440920e-03, 8.0648917631678148e-03,
          -6.2993306754964729e-02, -4.3330508222382803e-02,
          7.9270940278773502e-02, 5.9288912985500562e-02,
          1.9460049702890791e-02, 5.3956063793223985e-02,
          -4.1382127333988078e-02, -5.8058527344935086e-02,
          6.6938321450194845e-03, 4.0923363743582006e-02,
          1.3395982549317514e-01, -4.7676319773973741e-02,
          1.0059292007797462e-01, 7.3582500352158242e-02,
          1.8050773914050931e-02, 7.1705017572932822e-02,
          -4.0828367996678126e-02, -7.7730260553513550e-02,
          -3.3219754407383555e-02, 4.6889438855406237e-02,
          -1.1715825493119578e-01, -1.8721728563810828e-02,
          3.4260136580559680e-02, 2.0373590576417144e-02,
          2.1453044168742177e-02, 1.8468467244093869e-02,
          -1.9670486567196391e-02, -2.2129390590007163e-02,
          5.6081395158658464e-03, 2.2930954469388629e-02,
          4.7750543230209205e-02, 5.1240497121683749e-02,
          -9.5901427063048730e-02, -7.2898921124027100e-02,
          -2.7182035706232021e-02, -6.7466277774580682e-02,
          4.4905227858456374e-02, 7.0566222104367402e-02,
          4.2005928053972406e-03, -4.4434430485903557e-02,
          5.4041237009091553e-02, -9.1971821945213833e-03,
          2.2041213716584192e-03, 1.0033000390383474e-02,
          1.4962093463050672e-02, 1.1541438892061774e-02,
          -1.0881007249655593e-02, -5.9889746181966937e-03,
          2.5632927622009009e-03, 9.8646985656330993e-03,
          -9.6415671170103842e-02, 3.1704283686421433e-02,
          -8.9710074753084623e-02, -7.4167945564621834e-02,
          4.0529183595125712e-04, -6.3656363300074639e-02,
          2.5522613337607122e-02, 7.6432041795841010e-02,
          3.1081594191973792e-02, -3.0053579371431903e-02,
          -2.1099817472849522e-01, -3.2623919534192344e-02,
          5.6825839738914349e-02, 3.3524112648879230e-02,
          3.1407631119285476e-02, 2.8493811064217740e-02,
          -3.4142432264166092e-02, -2.8067684014858024e-02,
          1.3571501291543837e-02, 3.6627733103862033e-02,
          1.5002344171313912e-02, 1.1561375337332428e-02,
          -2.9716927222076001e-02, -2.4899846440090086e-02,
          -6.7914691320756127e-04, -2.3085309799430569e-02,
          1.0936929424907834e-02, 2.8158847448800955e-02,
          1.0914779607990470e-02, -1.3297413631617199e-02,
          4.5565426990114316e-02, -1.6504944326476680e-02,
          3.9293795438679086e-02, 2.9128254019910156e-02,
          2.3191869508919498e-03, 2.7856677834304538e-02,
          -1.7315462369055255e-02, -2.9037062838994657e-02,
          -2.6937226730323477e-02, 1.9209965011558749e-02,
          1.8515147667241558e-01, 2.3243737270704931e-02,
          -2.5269959926031229e-02, -1.9184466660884934e-02,
          -2.5281579337639092e-02, -1.7567690820365797e-02,
          2.4803321667703618e-02, 1.8334152816308180e-02,
          -2.5345243722911782e-02, -2.4382564745984853e-02,
          4.1964329256393991e-02, 5.3127549926821983e-02,
          -1.0685142917877678e-01, -7.8906931037401498e-02,
          -2.8253057297097078e-02, -7.1035447347720271e-02,
          4.9540170391427968e-02, 7.8156511813159274e-02,
          1.1627303065548029e-02, -5.1685829978395451e-02,
          2.6176639920489492e-02, -1.0562909288188274e-02,
          3.4503051852974094e-02, 2.3465605745150501e-02,
          -1.9206499998596009e-03, 2.1556795602863721e-02,
          -6.9158420049940401e-03, -2.5617560672592431e-02,
          3.7424013534918172e-03, 6.1401857499125924e-03,
          7.9868602715282427e-02, -4.4964270851342502e-03,
          4.5052183616708000e-02, 2.7658105655778826e-02,
          -2.7877745381635808e-03, 2.3080440082318025e-02,
          -2.5154029650524086e-03, -3.3775121447914051e-02,
          -1.3317670920532617e-02, 8.2073006272954908e-04,
          1.8185459945436787e-03, -2.0073016224037971e-02,
          9.4037823362559378e-02, 5.6725726429408319e-02,
          1.2228794387634100e-02, 4.7749663244227317e-02,
          -1.9537358457593395e-02, -6.0526164461108083e-02,
          -1.3201181491020569e-02, 2.3250012045097194e-02,
          1.0945822299100700e-02, 1.6828807682317960e-02,
          -3.4438260486264360e-02, -2.4083128134347005e-02,
          -5.8772014223705460e-03, -2.1393057138398404e-02,
          1.7531140212261372e-02, 2.2076047513542731e-02,
          -6.2456360311446456e-03, -1.5480915214531054e-02,
          -7.4905026700592320e-02, 2.3383237020278128e-02,
          -4.7782436234041645e-02, -4.6989168093414121e-02,
          -8.0014810360214041e-03, -4.3870384310041144e-02,
          2.2797015427111822e-02, 4.3057880492856297e-02,
          1.9902389009514954e-02, -2.0901497765791612e-02,
          -4.5534352393812219e-02, -9.6930219674998680e-03,
          3.9248708971890756e-02, 2.5482871145517668e-02,
          6.4069666271921871e-03, 1.8559138941933680e-02,
          -9.8366928958249968e-03, -2.6375546678658570e-02,
          1.6422427197933194e-02, 1.0644251648738135e-02,
          -1.2157070800847515e-01, 2.7671680302788174e-02,
          -5.9303768524901018e-02, -4.2954914455592873e-02,
          -8.3665941243524448e-03, -3.6548127192681315e-02,
          2.5536513828922410e-02, 4.1726024952545501e-02,
          1.5394290376585339e-02, -2.2906815673570811e-02,
          9.1379767595690942e-02, 1.1111352034751450e-02,
          -7.1526886710586825e-04, -2.5092931107741977e-03,
          -1.7058055567739924e-02, -1.2804968381666610e-03,
          1.1460898027371538e-02, 1.2240500733774209e-03,
          7.7978286639188120e-03, -8.2918621707605174e-03,
          1.0157394523273688e-01, 3.1115275511499323e-02,
          -8.0692889733300424e-02, -4.9720129836050099e-02,
          -1.8286705078985856e-02, -3.8722880026397344e-02,
          2.8284453476314256e-02, 4.9216751467324335e-02,
          -1.0363585050458403e-02, -3.3748406663002578e-02,
          9.2981561275936014e-02, -1.6349005244768948e-02,
          5.5818053476428377e-03, 2.0940486634646680e-02,
          1.4664312896411169e-03, 2.1136599424716618e-02,
          -1.5804994150997693e-02, -1.7586937617837677e-02,
          -2.5454806892417216e-02, 1.1326918742893795e-02,
          -2.2695566793049004e-03, -3.8992041756924119e-02,
          9.7963002717212658e-02, 7.2555019748663810e-02,
          2.0289413550273173e-02, 6.1901337353025859e-02,
          -3.1245384763219895e-02, -7.0822554386297254e-02,
          -9.1581326637155246e-03, 3.5019272383548058e-02,
          5.9675124681402257e-02, -4.8437210197229817e-02,
          8.7229436842260422e-02, 8.0877485628965823e-02,
          1.1118047041110029e-02, 7.7751894765199461e-02,
          -4.0924320844426640e-02, -8.2382873688914907e-02,
          -2.9181586622461692e-02, 4.7337608187702288e-02,
          9.2625486926021863e-02, -7.3783933506981420e-03,
          3.3017403955183364e-02, 2.9245649704734689e-02,
          -1.3676829334369700e-02, 2.5271879123299361e-02,
          -6.4400963590416057e-03, -2.6245030009446380e-02,
          -2.9124429833904921e-02, 7.7822831519505824e-03,
          -2.5970906641083774e-01, -2.8655039331512779e-02,
          4.5153821520031980e-02, 2.3928092024105306e-02,
          3.6026329688957227e-02, 2.1975200823127844e-02,
          -2.5591226545791969e-02, -2.3410801900612854e-02,
          3.2183786278260615e-02, 2.9821246817786029e-02,
          5.2376434627553821e-02, 2.4381924663202845e-03,
          7.1895941624862056e-03, 4.7155417548100740e-03,
          9.3236346386248311e-04, 4.8317236481960632e-03,
          2.4572828911129181e-03, -5.0395675228919650e-03,
          -4.2710009463599414e-03, -7.7832079587051423e-04,
          -2.9121624195438944e-01, -2.1146721875677538e-02,
          1.7167088981769250e-02, -3.9682551705870069e-06,
          3.4691288705431013e-02, -1.4846580196194593e-03,
          -2.0692731958158374e-02, 1.5266601895927447e-03,
          5.3968415727743670e-02, 2.2751952931711939e-02,
          1.2476950359865424e-01, 4.9452696666886682e-03,
          -2.8712993563089020e-03, 5.5880050257241277e-03,
          -1.5107491075313617e-02, 5.7308241955376258e-03,
          5.4688865621007011e-03, -3.7120200963061856e-03,
          -2.2387320810572802e-02, -5.9552094182813179e-03,
          7.6815823154638904e-02, 2.0837766294037535e-02,
          -6.1154159440516179e-02, -3.1774407789253271e-02,
          -1.5608451412040142e-02, -2.7594370308229768e-02,
          2.1900225423838120e-02, 3.5315722300735340e-02,
          -1.8359699744818106e-03, -2.1267528902784185e-02,
          -2.1645201528018476e-01, 7.0641318051583310e-04,
          -2.9539562383474650e-02, -2.8992191363518008e-02,
          2.1897068528747548e-02, -2.9518485006715504e-02,
          -3.4999318873432440e-03, 2.8365835966145038e-02,
          3.2855027483397463e-02, 2.3542995629928058e-03,
          6.8491091294201958e-02, -8.6891731500146115e-03,
          1.2367619815187428e-02, 1.4023087222543208e-02,
          -3.1010020070559819e-03, 1.2863177310184014e-02,
          -1.1107485008608926e-02, -1.4659114243418805e-02,
          -7.2796804172920509e-03, 1.1559351545330557e-02,
          6.7375490052279510e-02, 1.6059095989639921e-02,
          -3.2436211154212753e-02, -1.8208655811785573e-02,
          -1.2343219657647087e-02, -1.8480892661952381e-02,
          1.6696144257360140e-02, 2.0425557398659609e-02,
          9.7244778925681223e-03, -1.7245492665686306e-02,
          -1.6591994981210426e-01, -1.3801326158058364e-02,
          5.2629023616351869e-02, 2.1390982285041823e-02,
          1.0393192758961349e-02, 1.7262905317013705e-02,
          -1.4132456195847846e-02, -2.6564797840551390e-02,
          9.5084172651784694e-03, 1.5555039992225052e-02,
          1.2980674291789757e-01, 5.7336016857329281e-02,
          -7.9573226078639286e-02, -5.8669945190239950e-02,
          -3.6047088520590853e-02, -5.6463390758234200e-02,
          5.4262648304463083e-02, 5.7660071596387842e-02,
          -7.9529668144293405e-03, -5.4983009390428904e-02,
          1.0469254050646257e-02, 2.8245299366891925e-02,
          -1.2707499002790225e-02, -1.2017144678080998e-02,
          -1.4608273277640207e-02, -1.6811487622544669e-02,
          2.2819126827652834e-02, 1.5354330734198732e-02,
          2.1019693168193056e-03, -2.4935044526150592e-02,
          -1.3010857479751373e-02, 2.1098591683293276e-02,
          2.7622821143084737e-03, -1.1878428545990503e-02,
          -9.7904073301499830e-03, -1.4886262998820204e-02,
          1.8594478499501091e-02, 7.8388412126576632e-03,
          4.9612829841804160e-03, -1.9165122586306628e-02,
          -6.5196362271687847e-02, -5.0723486591816485e-03,
          3.8319560006345219e-02, 1.6858255712166811e-02,
          1.0123611540533073e-02, 1.1776371849200457e-02,
          -4.9068005687443721e-03, -1.5478279050840277e-02,
          1.2448564993670582e-02, 9.2428911545617901e-03,
          7.5485780014964809e-02, 8.0546662922204401e-02,
          -1.6070320806899521e-01, -1.1412630571700187e-01,
          -4.3292946618333029e-02, -1.0467579089445593e-01,
          7.3486277599735528e-02, 1.1111214628290396e-01,
          1.5131290408878353e-02, -7.8651673493660354e-02,
          7.3768129169555829e-02, 3.1949030078270643e-02,
          -7.0914989918758511e-02, -4.5031270996248707e-02,
          -1.9477153268460539e-02, -3.7712997873365926e-02,
          2.7389329142387984e-02, 4.3220959994502470e-02,
          -6.2405696466360204e-03, -2.8313986149419795e-02,
          -4.4497424298890330e-02, -1.7221646394632848e-03,
          4.3991673868121906e-03, 8.1984074656605132e-03,
          3.6934479667418926e-03, 3.9859514246235557e-03,
          -4.2896320567728166e-04, -7.8156698258629830e-03,
          1.3253934589357376e-02, 1.1920769192835256e-03,
          1.4105506902489265e-01, 4.5691479520378442e-02,
          -6.8205570254618902e-02, -5.0924336839707061e-02,
          -4.1858476786315844e-02, -4.5648789597783734e-02,
          4.6235969443142837e-02, 4.8515518683793973e-02,
          -1.3194911828311817e-02, -4.6448053548721023e-02,
          1.1322303034851017e-02, 2.2359410388547045e-02,
          -7.8023442686336597e-02, -4.6977672709079481e-02,
          -3.3053792328767857e-04, -4.0561911420305984e-02,
