%YAML:1.0
mlp: !!opencv-ml-ann-mlp
   layer_sizes: !!opencv-matrix
      rows: 1
      cols: 4
      dt: i
      data: [ 41, 32, 32, 3 ]
   activation_function: SIGMOID_SYM
   f_param1: 6.6666666666666663e-01
   f_param2: 1.7159000000000000e+00
   min_val: -9.4999999999999996e-01
   max_val: 9.4999999999999996e-01
   min_val1: -9.7999999999999998e-01
   max_val1: 9.7999999999999998e-01
   training_params:
      train_method: BACKPROP
      dw_scale: 1.0000000000000001e-01
      moment_scale: 1.0000000000000001e-01
      term_criteria: { epsilon:1.0000000000000000e-08, iterations:10000 }
   input_scale: [ 1.2446522509830196e-04, -3.0526590038059735e+00,
       1.0429064686008498e-04, -9.2597579534132246e-01,
       3.6921631253054787e-05, -1.1637267418598249e+00,
       1.2038952258453455e-04, -8.0972187047519173e-01,
       7.8331699428697040e-04, -6.4350796608998428e-01,
       6.3580644206241244e-04, -1.0285228877762960e+00,
       2.0393147898228933e-03, -8.1443434989560282e-01,
       2.6966689369585972e-03, -7.9259594505441444e-01,
       1.0265140494570928e-03, -8.1412829262442032e-01,
       2.6780069588993559e-03, -7.7019480137945484e-01,
       5.3298729923203165e-03, -7.6990015374066967e-01,
       1.4465374979011727e-03, -7.8057574282577114e-01,
       1.8445073368832908e-03, -7.8354671670802201e-01,
       4.1129258452585600e-04, -9.5227257582912317e-01,
       5.5957354118463915e-04, -8.5792882711860241e-01,
       1.1792130745621598e-03, -5.6918649753991180e-01,
       5.8047787074124433e-04, -9.7192312287560234e-01,
       2.7016427263987870e-04, -7.7050400283105669e-01,
       2.5716924328961254e-04, -7.6480847108114314e-01,
       1.9309376871679720e-04, -1.0764398324655293e+00,
       2.1104775632000414e-04, -8.1595283548440001e-01,
       1.5647452674525373e-04, -8.0938274495127860e-01,
       3.4945992303288585e-04, -8.0445674282170321e-01,
       1.2055466345612239e-03, -7.1010715264437951e-01,
       5.6200146266154895e-04, -8.5277165275159006e-01,
       1.5550451065492229e-03, -4.3966308645835034e-01,
       2.7059643138205238e-03, -3.5425582808433687e-01,
       1.2225047738433675e-03, -4.5780766272477713e-01,
       1.4393714888913159e-03, -3.7166970795655258e-01,
       3.4499688586736436e-04, -6.3694475058452371e-01,
       1.0929728864824326e-03, -6.6458216362564304e-01,
       3.5629058176252192e-03, -6.8336533582051706e-01,
       3.8711167888434886e-02, -1.2855333669617751e+01,
       3.8671780741484689e-02, -1.2911863059902712e+01,
       1.9597393607423153e+04, -2.9934839628976547e+01, 1.,
       -2.1157008988498260e-09, 1., -4.9274694608256193e-13, 1.,
       -1.1346132195308561e-11, 1., -2.2385053398968789e-23, 1.,
       -2.0170016069739445e-16, 1., -3.5787183012317414e-24 ]
   output_scale: [ 1.0526315789473684e+00, 0., 1.0526315789473684e+00,
       0., 1.0526315789473684e+00, 0. ]
   inv_output_scale: [ 9.4999999999999996e-01, 0.,
       9.4999999999999996e-01, 0., 9.4999999999999996e-01, 0. ]
   weights:
      - [ -1.2026772466053043e-01, 5.0704375809900275e-02,
          1.0363130655293167e-01, -2.4970222978141099e-01,
          -2.1103430670629764e-01, 2.1990737555124368e-01,
          1.1911552016236321e-01, -1.7100441053073664e-01,
          -8.9079044532663666e-03, 8.6754446563435769e-02,
          6.9176970153999109e-02, -1.1362964368872319e-01,
          1.2888631663961350e-01, -1.3716493445762437e-01,
          2.0938076254636478e-02, -2.8496187572507426e-02,
          -1.9970372067617898e-01, 3.6768458695623968e-01,
          -8.0223801962637620e-02, -1.0372756762659412e-01,
          -2.6043387636103900e-02, -1.0683394263041580e-01,
          -2.3904833724127836e-01, -8.4720875695520864e-02,
          -2.9523540931093639e-01, 1.3299068888696330e-01,
          -1.4245029725164440e-01, -4.3119992645059035e-01,
          1.5918372277492587e-01, 2.1480188995133065e-01,
          -1.2785620233241171e-01, -1.9334804834895017e-01,
          1.5000574181614748e-01, -5.1540348820118369e-02,
          3.3781620483772437e-02, 7.4449493951781867e-02,
          -9.3466655605672438e-02, -7.3500541993318916e-02,
          -1.9369810541176435e-01, 1.4395814715142605e-01,
          -8.9061214070138950e-02, 9.2342247305652519e-02,
          -2.6408003400771268e-01, 2.3494947164770777e-01,
          -4.5149831184883756e-02, 1.6039241023591211e-01,
          9.1257103312552407e-03, -7.4353875019250087e-02,
          5.6629213176360771e-02, -1.5905424681383888e-02,
          1.2334702621060090e-01, 3.1376092746242153e-02,
          -1.7264411761041050e-02, 3.6602870148803847e-02,
          2.6811073111090732e-02, -2.2970421277471818e-02,
          1.6434402319963504e-01, -7.7523571996211627e-02,
          9.1295912334798987e-02, 3.3227221026997400e-01,
          -1.1639684762253368e-01, -1.3446030499842981e-01,
          7.6411947312845868e-02, 2.0379771263451493e-01,
          1.0203604420596993e-01, 7.2591822614919033e-02,
          -1.4546639644022422e-01, 1.4150098299359026e-01,
          -4.2243300408126287e-02, -4.7864136873518393e-01,
          -8.1038562818552803e-02, 3.6872849155721815e-01,
          1.3671838840906378e-01, 9.7887759714730765e-02,
          -8.1222490552491455e-01, 4.3968410881863811e-02,
          6.0971095578717639e-02, 4.1540196181718247e-01,
          -5.4721160660228869e-02, -1.2583406182295553e-01,
          1.8084403953832956e-01, -2.2495936820321469e-01,
          4.0905063290084703e-01, 7.5773606651150460e-02,
          1.1049521496748803e-02, 1.5312528401533990e-01,
          2.2538132755856458e-01, 7.3384556083909730e-02,
          4.5868561575038724e-01, -1.0166427875748028e-01,
          2.5447343227410640e-02, 4.2428309254341429e-01,
          -3.3866979052017054e-01, -3.3707178874482419e-01,
          2.8059160020757823e-01, 2.1755693404167006e-01,
          1.2024445704154127e-01, 1.6389920537744118e-01,
          -3.4662963543855196e-01, 3.0011319115666722e-03,
          2.5286069651896587e-01, -2.1687295557520753e-01,
          1.1635241302246455e-01, 1.2373813303664821e-01,
          2.7504398282680736e-01, -6.6238649804464603e-03,
          -3.8312761784632537e-01, -1.0730905799620075e-01,
          7.4348946718275480e-02, 1.5497481318383910e-01,
          -7.0428575352227032e-02, -3.4605730542485585e-02,
          1.8401325805008938e-02, -3.2893439339650266e-01,
          2.3380936420927470e-01, 2.2988268161422937e-01,
          9.7862263932644800e-02, 4.1827391212530568e-02,
          2.4749345382694757e-01, 8.4005677504450843e-02,
          8.1619211571807210e-02, 5.8966535756862497e-02,
          -1.3133904765468593e-01, 9.0780875104566561e-02,
          -1.0177799309787819e-01, -3.3376520117565697e-03,
          7.1363105388845244e-02, -2.3476966473152856e-02,
          -1.6661020919317756e-02, 3.0720176786157355e-01,
          -4.3288768575767272e-01, -4.0694315587783865e-03,
          3.5934889918858642e-01, -3.1991494581871155e-01,
          1.2724692938955864e-01, 1.5181737466569409e-01,
          3.3274177687309275e-01, -1.0459072193375103e-01,
          -4.4463427283888901e-01, -2.2030748273841333e-01,
          1.0348566662565160e-01, 1.4855699316833598e-01,
          -1.6824920883711234e-01, -3.8431624542253962e-02,
          5.7224487365588970e-03, -3.7889901834358714e-01,
          2.2074600541072756e-01, 2.4420093211270191e-01,
          1.5266825702509362e-01, 1.1149927667282852e-01,
          3.0822438701330385e-01, 9.7622549524679803e-02,
          2.4244067714362272e-01, 4.8127416482640802e-02,
          -1.7197336704484104e-01, -1.2739846422231255e-01,
          -1.8145123946813446e-01, -7.2128140133727731e-02,
          1.8053342964286265e-01, -1.0574071425685934e-01,
          2.2192487395456878e-01, 3.0189234763488043e-03,
          -7.7135660973815925e-02, -1.8265826397266680e-01,
          -1.9789437117737180e-01, 3.1545872770386868e-01,
          7.9745453912510006e-02, -2.1225939367066810e-01,
          8.1740722588890355e-02, 4.7199108329726125e-02,
          2.7215371673678856e-01, -1.9110198633043557e-01,
          3.3297794309375427e-02, -1.8952358238450906e-01,
          -1.3752145409907190e-01, 1.0315599997326343e-01,
          -1.2977056183782584e-01, 2.1258904923881519e-01,
          -2.1383695264877015e-01, -8.5334140149753948e-02,
          -1.6897873818210529e-01, -2.1703133419852741e-01,
          -9.0204123856965246e-02, -2.2020259938576200e-02,
          -3.9267133201585347e-01, 1.8852083487613494e-01,
          -1.5375309894553454e-01, -5.4278063949768396e-01,
          2.7839382715105110e-01, 2.6975977549270547e-01,
          -1.6878146695190990e-01, -2.5246841077439686e-01,
          1.6940911295210559e-01, 2.1269405916290812e-01,
          -5.2473403037452382e-01, -6.7152801191917758e-02,
          2.1779358147750827e-01, -2.6933433180935634e-01,
          3.4319882019042602e-01, -4.8825819319093149e-03,
          3.4739194643564009e-01, -1.3325740303007658e-01,
          -3.7859980090707118e-01, -6.2290742241450425e-01,
          7.6886106254425060e-02, 5.1372689783684658e-02,
          -7.5700094028465961e-02, -3.6801689576698535e-02,
          -4.3441205086516908e-02, -4.4716440193955015e-01,
          1.9805349837026470e-01, 8.8818356158662640e-02,
          1.4393903882358403e-01, 2.1677840902679109e-02,
          2.8767592548492860e-01, 3.2099220269492530e-02,
          8.2068372952988480e-02, 7.4142908773588354e-02,
          -2.0751523404942562e-01, -2.2901457498301928e-01,
          -5.6842025805894217e-02, 2.1681743992583949e-01,
          -8.8394967448751888e-02, -1.7403885714767350e-01,
          1.2260007823675591e-01, 3.8700511532292238e-02,
          -1.9333008200745247e-01, -1.3123538122630217e-02,
          -3.9677292737568239e-02, -1.6218609337921056e-01,
          3.0197508134548567e-01, -2.4408333204974667e-02,
          2.5101478334093857e-01, 1.6178980493263821e-02,
          -1.8777581688784445e-01, -5.4897386752159161e-01,
          1.1075103773090281e-01, 4.6554794733348871e-02,
          3.0650267673382886e-02, 2.2522156375086165e-02,
          -3.1540682232429874e-02, -1.3919801358509276e-01,
          1.7935679432687035e-02, 1.0371126982768169e-02,
          -1.3022709941659667e-03, 3.0517363834639846e-02,
          8.9573717526610197e-02, 9.0101146882037908e-02,
          1.6229753733079158e-01, 6.7809460149769657e-02,
          -1.0227297669665945e-01, -6.9846463784615564e-02,
          -5.6474272018367827e-02, 3.0369423961064887e-02,
          -5.6505450045142354e-02, -1.0017143272324132e-01,
          -4.2996631260356528e-03, -1.8136848645596998e-01,
          8.3758497342164298e-02, -1.7032374403461703e-01,
          -2.3743665591385082e-01, 1.8387496670517242e-01,
          9.9526154011614909e-02, -8.3863411657676593e-02,
          -3.5516191481248962e-03, 8.0577969145990760e-02,
          2.4240872252424950e-01, -2.2975393731690949e-01,
          3.4534600139652989e-02, -1.8196686751375032e-01,
          1.3791274821917420e-02, 8.2702718306833498e-02,
          -7.3304930168825305e-02, 1.9873981502427449e-01,
          -1.9680491624367108e-01, -1.4672285925808753e-01,
          -2.1971835210627283e-01, -1.1879285534415074e-01,
          -1.8744365978667449e-01, 7.8855347846248480e-02,
          -5.9849350547595701e-02, 1.0714664648367551e-01,
          -6.2363437642477197e-02, -5.3772411367507676e-02,
          1.3227957245569336e-01, 1.5696178698894156e-01,
          -1.4243834267002403e-01, -1.5544400709389813e-01,
          2.3682497846628955e-01, -1.6926237524578915e-02,
          8.0169263880492350e-02, -6.7637080302935665e-02,
          -2.2490502008449612e-01, 1.7607012780485187e-01,
          1.2639181045840972e-01, -6.0224794611418407e-02,
          1.1382080187587484e-01, 1.7965839035352632e-01,
          2.1280626071651229e-01, -3.9977864477660413e-01,
          1.2377514952254004e-01, -3.1876582996139317e-02,
          6.6853878391347946e-02, -3.0297868387276480e-02,
          -3.3801912033308228e-02, 1.4478911136354300e-01,
          -1.8367140761304815e-01, -1.1541788401119443e-01,
          -8.2139308344271272e-02, 1.4720487030983670e-01,
          -6.9847614988284998e-02, 1.2793216719318695e-01,
          -6.6187720388835400e-02, 1.1856403234687234e-01,
          -1.4280273633210117e-01, -3.1813457668701950e-01,
          1.0658493011983873e-01, 1.8676371156297827e-01,
          -1.4295442252739021e-01, -1.6070225420839965e-01,
          -7.5315234850331550e-02, 1.9097715759485292e-02,
          -1.0504755985586678e-01, -9.9307062962668655e-02,
          1.2197102740386842e-02, -1.8469241518399859e-02,
          2.2930879531359288e-01, -4.2411153868047398e-02,
          1.5779830740949294e-01, 8.9474964931621964e-02,
          -2.0485325200473678e-02, -5.6280342535374883e-01,
          9.7500457694432427e-02, -2.2678222656834768e-02,
          4.5445812691042579e-02, 4.9440171647570537e-02,
          -1.5373210494531520e-02, -6.7717166140169052e-02,
          -9.3294989523590062e-03, -6.8776972197492403e-02,
          1.3970940767223848e-02, 6.4204835561280246e-02,
          6.6394031779863388e-02, 1.4502964786323938e-01,
          -2.9331232720353512e-02, 7.1128220273380185e-02,
          -1.4913598956612914e-01, -2.0963929644119114e-01,
          1.5299192554487031e-02, 1.4933990664814845e-01,
          -9.8872618319745212e-02, -9.9032438387496355e-02,
          -1.9118925830332342e-01, -8.4986873346140510e-02,
          -6.3544389520343719e-02, -1.1979455595169437e-01,
          -1.5919071204627998e-02, 1.1296022229790233e-02,
          2.1186308415710789e-01, -7.7155773937124236e-02,
          9.6014308160193351e-02, 5.9101566176288499e-02,
          6.5550243571909667e-02, -4.1038430215673477e-01,
          8.7843350274402626e-02, -1.0955178442793101e-01,
          4.1083195964016571e-02, 2.2978276077824728e-02,
          -7.3613348975712728e-02, 6.2168347460030936e-03,
          1.0222201895749256e-02, -7.8065094036087163e-02,
          3.3293664626496196e-02, 9.8119209448570346e-03,
          -8.2368263736338931e-02, 8.2596276144029077e-02,
          3.6060958764159760e-02, 3.1685840199340592e-02,
          -1.1581317691435378e-01, -4.2526241693935625e-03,
          8.0003369279562600e-02, 5.4561516013463512e-02,
          -3.3851461035308936e-02, -9.8060454587170692e-02,
          -2.8101172833405208e-01, 9.9899471379206781e-02,
          -1.7635671659528926e-01, -3.1971583339627428e-02,
          1.3189241207995817e-01, -6.4562731055750458e-02,
          1.8506854653161167e-01, -4.0081024248659454e-02,
          1.1168092916603142e-01, -9.7497609281063293e-03,
          -3.8056355161548268e-02, -4.5056639115516522e-01,
          7.3352490909427581e-02, -6.0496059845796209e-02,
          -1.1266986495107333e-01, 4.7529908140273559e-02,
          -3.5272948852858046e-02, -1.2300069468480379e-01,
          2.5858234452316182e-02, 3.5794628928190748e-02,
          8.8309314588504231e-02, 2.2113659066115485e-02,
          1.3072468415714913e-01, 8.2393191168719834e-02,
          -6.0126901003815368e-02, 9.2160323949790957e-02,
          -1.2669130960657290e-01, -3.8840578732346726e-01,
          5.3863457354699294e-02, 1.9408588115452785e-01,
          -7.7821156054767374e-02, -1.2120746775141550e-01,
          -2.4319749012720193e-01, -1.8457904448745260e-02,
          -6.4916074038389605e-03, -1.1512098793222743e-01,
          -8.7495964135447690e-02, 1.2478373991338017e-01,
          1.7799998666395342e-01, -1.9091034209766711e-01,
          3.3604535643292112e-02, -3.1019010085642791e-02,
          2.5548571928177016e-01, -2.7808207644135813e-01,
          6.0545872256754348e-02, -1.6556707603316201e-01,
          -1.2524166963567299e-02, 2.7626023807745627e-02,
          -1.2349704165644797e-01, 1.1874656438055801e-01,
          -1.1728639017865178e-01, -1.1117294178857466e-01,
          -3.1793639269642361e-04, -1.3816546437678925e-01,
          -1.4033180973150922e-01, 6.5319835863343625e-02,
          -2.4956384953772356e-01, 1.7933412222863815e-01,
          -6.9327294052767344e-02, -2.1670662478780375e-01,
          1.0421470126017893e-01, 1.7364039608721379e-01,
          -1.0973091606297354e-01, -1.8395121152920241e-01,
          -3.1668660519316411e-01, 7.5267457155451731e-02,
          -6.6454534279348831e-02, -9.3290604024092158e-02,
          1.5854927944768571e-01, -3.0035041286818491e-02,
          1.8361002054638020e-01, 1.0630900623170642e-04,
          1.0309097335184324e-01, 3.7685535275520675e-02,
          1.0597930980665184e-01, -1.4418945992346235e-01,
          7.4735903876083837e-02, -7.5457287522109825e-02,
          -2.1180082824970737e-02, -1.4972091442380833e-02,
          -8.0971135032068223e-02, 8.2163074721102094e-03,
          2.5201507250558253e-02, -1.1626545907776195e-02,
          7.6902209501365879e-02, -2.1137932142001332e-02,
          -1.9606539612888413e-02, 6.9049650073420080e-02,
          1.0380224383956984e-03, 6.1715881243508894e-02,
          -1.2974534435078379e-02, -6.8427542604928976e-02,
          4.1281913686741858e-04, 7.6619517363728639e-03,
          3.1992227932602826e-02, -1.1903369233186888e-01,
          -1.4027478838644220e-01, -5.3811458446626430e-02,
          3.4724789996381573e-02, 3.3842088550547211e-02,
          1.2344549220931571e-01, 1.2933652562468129e-01,
          -2.7836992885710527e-02, -1.7886875187425686e-02,
          -1.2736090325500654e-01, 5.6003624381197180e-02,
          2.8957419150771185e-01, 1.6089479418911179e-01,
          1.5321826004003239e-02, -8.5844748080574601e-02,
          -4.9632268474294174e-02, 2.4841714696311863e-02,
          -3.0109124225460922e-02, 9.9779793589586857e-02,
          -2.3356755508923058e-01, 4.0501644112302781e-02,
          1.9655143744273833e-02, -3.3822105419807597e-02,
          -5.5683599687131519e-02, -4.3861144718744728e-02,
          -7.2039929336498443e-02, 3.1035549171214784e-02,
          6.0523886294686757e-03, 1.0707895230408698e-02,
          8.7165061745212730e-03, -4.1131986454862893e-02,
          -4.1203903490396931e-02, 3.9265619758421029e-02,
          -2.5342262800808601e-01, -1.2264465909314315e-02,
          7.3895931646992652e-02, -4.5138011221080437e-02,
          9.5040202111496982e-02, 1.8168044003651360e-01,
          2.4979237468612126e-02, -4.4961559435705281e-03,
          -8.0330756471979653e-02, 3.8309032545560569e-02,
          2.7940381872177472e-01, 1.5018319831498159e-01,
          8.7462506299434695e-03, -1.0032269728218340e-01,
          1.6032515738184063e-02, -9.6612282504053603e-04,
          -2.7148750862530390e-02, 1.7878484404482428e-01,
          -1.7603587907027488e-01, -6.3811771572418241e-02,
          2.3812342767860092e-02, -5.1942360984815680e-02,
          -7.2027165975555293e-02, -5.3111670437736673e-02,
          -9.2143041736270179e-02, -6.2668186477494531e-02,
          1.0867676845905506e-01, -7.3396111010186997e-03,
          7.0210347092001579e-02, -1.7331183754716192e-02,
          -6.2867699926759946e-02, -2.2644016490657431e-02,
          -2.7315643601411388e-01, -8.3359287858451689e-02,
          1.4996136699501225e-01, -8.4418772002216782e-03,
          1.4442710289421765e-01, 2.0031239144073776e-01,
          -5.6087290030393984e-02, -1.0629659874880436e-01,
          -1.3786314233435934e-01, -1.2343190000504546e-02,
          3.2603778260350680e-01, 2.2703996434836349e-01,
          -7.9560458715809371e-02, -1.8378992571940014e-01,
          1.9019303400176094e-03, 2.1580397257898530e-02,
          -3.4866221517042065e-02, 1.4993842068050803e-01,
          -2.2650794572304578e-01, -1.0006449340875328e-03,
          6.0557605893007037e-02, -1.5453995233704701e-01,
          -1.0644148713413187e-01, -3.1668236476935653e-02,
          -1.5284949439086290e-01, 4.5353804182177368e-02,
          2.1298782560881156e-02, -2.5849549969154179e-01,
          1.6801749083863007e-01, 8.2269188261124879e-02,
          -9.8571674520746916e-02, -2.7778654606986353e-02,
          -2.4597953009570758e-01, -1.0854597748263220e-01,
          2.0642983780060817e-01, -9.8609911213725365e-03,
          1.8936576099946281e-01, 2.6249293358838144e-01,
          -2.9393305312933254e-02, -1.7383148483594368e-01,
          -1.1260905202218062e-01, -1.4580659344057056e-02,
          5.1020444929059594e-01, 2.2207767909864257e-01,
          -6.6698620437750683e-02, -2.7420879583374341e-01,
          -3.2900454116813270e-02, 5.9924844819059615e-03,
          -1.0406527153643730e-01, 2.9646809584713285e-01,
          -2.9629896793754723e-01, -3.1927840919055088e-02,
          5.3026695203186161e-02, -1.4786178697132743e-01,
          -2.2567470378661686e-01, -6.7780643289616138e-02,
          -2.7590502723065480e-01, 5.5628926137066256e-02,
          5.8302664461254421e-02, -3.9426032631414365e-01,
          2.2881486791023331e-01, 2.4086234903893716e-01,
          -1.7585752450770872e-01, -7.9777525270444877e-02,
          -8.6374917889033218e-02, -3.6240660705731918e-02,
          5.2749090081786403e-02, -1.1586047661035836e-01,
          2.4421450739637549e-01, 3.6256134532794110e-01,
          6.4945868422633057e-02, -2.8422905308819019e-01,
          -4.5785013339374438e-02, -6.3777258515871155e-02,
          4.3253203723789058e-01, 1.8889413546612624e-01,
          -2.4986614242544639e-04, -3.3433861919955193e-01,
          -5.1428221444719709e-02, 5.0692927130577901e-02,
          -1.6497103939176488e-01, 2.6346161791157063e-01,
          -2.7283885722188556e-01, -3.7679518589357003e-02,
          1.0436279947507629e-01, -8.1568788898069761e-02,
          -1.5891136699892991e-01, 6.7151558940357917e-02,
          -2.8553693038573885e-01, 1.8500589833332123e-01,
          -1.1404093904470985e-01, -3.0359211235891626e-01,
          2.6425108734663438e-01, 2.8510253532783308e-01,
          -2.8564421845574894e-01, -2.0936366283183375e-01,
          -1.8257028603041572e-01, -7.1877347176796435e-03,
          -1.1866124266674521e-01, 9.9960419448479002e-03,
          4.0713386263657531e-01, 4.6353357247256519e-02,
          1.3913493188873782e-01, -1.6932891563759145e-01,
          9.0836888411510771e-03, -1.3834760096578932e-01,
          1.2589410144851729e-01, 7.7735285645755797e-02,
          7.2709491219366332e-02, -1.5385467416804741e-01,
          4.0909767737080834e-02, 3.3566128357088880e-02,
          -5.1312729866161866e-02, 2.6591808440273437e-02,
          -8.3124973652119183e-02, -8.0537794631257119e-03,
          1.5791613839004398e-01, -1.3627167775746343e-01,
          -3.3506154306046129e-02, 5.1340435175318087e-03,
          -1.9209075731187861e-01, 6.8087097147997142e-02,
          1.1324039585172290e-02, -3.8768505009162113e-01,
          7.0081037015539485e-02, 1.2354928168738874e-01,
          -1.0655496693283364e-01, -1.0662568740612667e-01,
          -3.8229841078804899e-01, -1.1564384951433487e-01,
          2.3825833430026433e-01, -1.0991741963453583e-01,
          -7.4194929276373070e-02, 2.8978758357423146e-01,
          9.8785203941300082e-02, -1.9050057210341512e-01,
          -1.8490297007830289e-01, -5.0831675264890838e-02,
          5.3864183565030221e-01, -1.3264666054986943e-01,
          -6.5292399269553589e-02, -2.3990337671326675e-01,
          7.7415276679583339e-02, 2.9873338408000837e-02,
          -1.3997113140301648e-01, 3.2794440884636167e-01,
          -3.0841335753275489e-01, -1.6822963118461431e-01,
          -1.6514472741207264e-02, -4.6524985569396687e-02,
          -2.6976326362926178e-01, -1.0465514893963078e-02,
          -2.8271243166086207e-01, 4.8776129602895416e-02,
          -8.5070991462974383e-03, -3.2300150294133612e-01,
          2.1898013274519912e-01, 2.4104155731913390e-01,
          -2.3448067550321472e-01, -2.7940794311930456e-01,
          -3.3052221885689008e-02, 1.6041916327538486e-02,
          -3.4915873205701456e-02, -7.2010033646726965e-02,
          3.3932456088864305e-01, 1.4959404189326336e-01,
          1.5210146637812655e-01, -1.4691608645204046e-01,
          -5.7687635534658346e-02, -1.3778374825848436e-01,
          2.8137022965553959e-01, 5.1817694800041177e-02,
          -2.4012958234907695e-02, -1.2570879068613908e-01,
          2.8449704438371758e-02, 9.4877460201083119e-02,
          -3.2541859962192707e-02, 4.3819413751458598e-02,
          -2.0296673857394251e-01, -7.2645845541832454e-02,
          1.2339362819924367e-01, -1.4197400161893789e-01,
          -2.2029633617942038e-02, 4.7025351349847325e-02,
          -1.4401203039083174e-01, 5.8412949555235051e-02,
          -3.9882174492200752e-02, -3.4934590993618470e-01,
          1.0259400005366261e-01, 1.1624706427920083e-01,
          -5.7347735756617217e-02, -1.4095954651342960e-01,
          3.0522028015372193e-01, 8.2415502695665138e-02,
          -8.1378871786165832e-02, -4.1156197734921449e-02,
          1.8909006572898351e-01, 5.4936115672891287e-03,
          1.0403587094637612e-01, -2.2641472217218093e-02,
          8.0441711625380372e-02, -1.3246017887733863e-01,
          2.1101398422802733e-01, 9.9902465740476943e-03,
          5.5534182747613195e-02, -5.4559698304149473e-02,
          -1.3007308113368310e-01, 7.5857961823781281e-02,
          -7.9223460083446606e-02, -4.9559906770533423e-02,
          -4.4757128462556826e-02, 9.4494132113812773e-02,
          3.6041018322611362e-02, -7.7771016179271499e-02,
          1.1113662609660005e-01, 3.9209900289814536e-03,
          -1.6939790128206043e-02, 1.2277142514865906e-01,
          -5.3276461414236732e-02, -2.6270616467869018e-01,
          1.6469967344694462e-02, 3.9426932193639685e-02,
          -3.2775569885786948e-02, -1.2529494693655754e-01,
          3.3279998269871297e-01, 9.3300672715397409e-02,
          1.3635924191086016e-01, -1.4841147935541429e-01,
          -1.5599414161270808e-01, 1.0384767044607071e-01,
          1.2947605594026945e-01, -4.7585213514109340e-02,
          -4.2295925421768230e-02, 1.5749327140596424e-02,
          3.4304260301386758e-01, -1.6893888385721123e-01,
          5.3207317517089160e-02, -6.2257523516978205e-02,
          8.4130536649547283e-02, 2.1225703624218717e-02,
          -1.0304406825811681e-01, 1.4844042717168252e-01,
          -9.4108188489258351e-02, -1.1838532661247637e-01,
          -7.8615759264009405e-02, 1.4739687785279228e-02,
          -7.8395857566964031e-02, 8.5985522279498822e-02,
          -2.7290918095928360e-02, 1.1890835384816156e-01,
          -1.1005237492998107e-01, -2.7165978896066267e-02,
          5.1734799241596900e-02, -5.0139137610258145e-03,
          -6.9593217609095351e-03, -9.3129681182550231e-02,
          9.1738982596887608e-01, 5.5557670886036817e-02,
          -2.7534132327468347e-01, -8.6653304298779765e-02,
          -6.3057443727665793e-02, 6.5998774011735914e-02,
          2.6897000759384909e-01, -4.3381850118163354e-02,
          1.1691778279218118e-01, -2.7306602334279539e-01,
          1.0584609376278697e-01, -2.4397674772974740e-01,
          -1.8408007151313438e-01, -8.9048219746646368e-02,
          -1.8276485745005822e-01, 2.3969865110004951e-01,
          -5.1933453588970058e-02, -3.1268413530357525e-01,
          -1.1560107496993867e-01, 1.4678063531620661e-01,
          -5.3061667977627264e-02, -2.8820487376281284e-01,
          2.3451736979009277e-01, -1.7965282160434329e-01,
          -5.2219186518216880e-02, 7.8507436620783091e-02,
          -3.7029975254627766e-03, -3.2780106283268151e-01,
          1.1868521299978101e-02, 6.4816731697727559e-02,
          -3.3894017854366819e-02, -1.3872387367024819e-01,
          1.3778360386674766e+00, 8.9162366258912218e-02,
          -2.2581093609065570e-01, -1.1897728727156773e-01,
          -1.7870865550035342e-01, 2.4922820581490157e-01,
          1.7184342184225282e-01, -1.8146247642330285e-01,
          2.0166769152841671e-01, -2.3785843405873694e-01,
          2.8873033451165087e-01, -2.5773095519403566e-01,
          -2.1029575757018074e-01, -1.4181931952990343e-01,
          -2.1381207218815970e-01, 1.8232613968021635e-01,
          -1.7262956209125158e-01, -2.6463556097089225e-01,
          -1.9687396499016085e-01, 1.5752499493699576e-01,
          -1.6003998164039510e-01, -1.6535037111134765e-01,
          2.3779986997844088e-01, -1.7800429360168496e-01,
          -1.2557237777628588e-01, 1.5704684526777590e-01,
          -1.4093776083397469e-01, -8.1895692342804124e-02,
          1.5872206522180984e-01, 9.4587274956036124e-02,
          -1.5280362517316734e-01, -1.1845989651867003e-01,
          1.1385749435806722e+00, 1.8409319066563651e-01,
          -3.9289639283565025e-01, -1.3392987641536222e-01,
          -1.6158348598571744e-02, -3.8586796604992511e-03,
          2.7801372574492300e-01, -5.3742800243209612e-02,
          2.4929597033077008e-01, -2.3767915576641302e-01,
          3.0080245431034849e-02, -3.9194209523398754e-01,
          -1.8886055848043204e-01, -1.9638080330467760e-02,
          -2.1979885005310190e-01, 1.5673608342427087e-01,
          -6.5013938752597089e-02, -4.4320448677490537e-01,
          -4.5910201020198755e-03, 2.8030924203109814e-01,
          -5.6988822144438678e-02, -1.9423663847954151e-01,
          2.7869033914658908e-01, -1.3848413336329712e-01,
          -8.7641392918535635e-02, 1.0860496158376864e-01,
          -1.5969834879721201e-01, -1.6521564987729473e-01,
          5.4905261780957192e-02, 1.2884816559292991e-01,
          -5.8961491951645136e-02, -1.7752442753839950e-01,
          1.3386724645141848e+00, 1.5198231430627662e-01,
          -3.1673001911372545e-01, -1.5770853615758390e-01,
          -6.2856056684235370e-02, 2.0088930063207272e-01,
          2.0835206307380980e-01, -1.5914679425289979e-01,
          2.1280796788183814e-01, -1.7469093281138948e-01,
          1.8611786032179570e-01, -2.7453008784480110e-01,
          -1.3595272540480394e-01, -8.6086118434812051e-02,
          -1.8846268133311145e-01, 1.8743251783361486e-01,
          -1.8705059937735360e-01, -3.6994669445968675e-01,
          -7.2243675463548734e-02, 2.4989938380934490e-01,
          -1.4427679147208000e-01, -1.2201271770923808e-01,
          2.8466000821836634e-01, -1.6325891079681462e-01,
          -1.2522055257969944e-01, 1.8733502012171030e-01,
          -1.6722682219821189e-01, -1.2246124283608471e-01,
          1.4437248741499012e-01, 1.8739092182087302e-01,
          -1.6855300223140587e-01, -1.5457366162628505e-01,
          1.6064296762805763e-01, -2.9113841841509048e-02,
          1.0346778327451929e-01, -2.0063134183044842e-01,
          -2.2835786256921850e-01, 3.7162178550348079e-01,
          3.3030660601342465e-02, -2.3044686970515874e-01,
          -1.8564589500637413e-02, 2.3969077560299687e-02,
          5.1838890807427462e-01, -1.0056985434069740e-01,
          8.8852180629330660e-02, -2.3283592062513572e-01,
          8.5610681601245964e-02, 5.8654575183028093e-02,
          -2.0507949365544784e-01, 2.7620596241745110e-01,
          -2.0830960537807289e-01, -1.6504130519376239e-01,
          -5.8365354665654817e-02, -2.4421151916809956e-02,
          -2.3438296095093830e-01, -7.2439082746845315e-03,
          -3.7189855239415581e-01, 2.4101195009824278e-01,
          -5.6248128456520469e-02, -4.4598278316875423e-01,
          2.7005577190706703e-01, 2.2951676300240748e-01,
          -1.3306543701004578e-01, -1.5392700976762985e-01,
          7.9454213155707309e-01, 2.8202013429716877e-01,
          -5.2074345755805584e-01, -5.4919852553284694e-02,
          1.2688678403206480e-01, -1.8186355233170443e-01,
          3.0228526893606383e-01, 7.7103349851216960e-02,
          3.2942917415879069e-01, -2.7871572852210924e-01,
          -3.0045415009140869e-01, -6.0746794253576986e-01,
          -1.3261777252436246e-01, 4.7608036283923967e-02,
          -1.9606242699036999e-01, 1.7575312447923844e-01,
          -1.7797661601591488e-02, -6.0894660180940374e-01,
          1.6572658554044231e-01, 2.9525247952123346e-01,
          6.5512631633095522e-02, -1.1164065614804410e-01,
          4.2749481208228868e-01, -1.3282993067469132e-01,
          9.7356883577739459e-02, 1.7543847192505949e-01,
          -1.6917328755224348e-01, -3.5553594956011059e-01,
          -1.3119782049796087e-02, 4.1450696991052305e-02,
          7.4609924832961291e-02, -2.2476697231247916e-01,
          9.5299560415704387e-01, 1.6185602223272838e-01,
          -3.1916102393891749e-01, -9.5769030644668712e-02,
          -2.2108392194583746e-02, -1.5513857243175908e-01,
          1.7587839266844091e-01, 1.3202293750397295e-01,
          2.5968259099363133e-01, -1.5595348701029127e-01,
          -2.4789512098163924e-01, -2.5660818162962923e-01,
          -1.1683822418836028e-01, 1.1047954812162464e-01,
          -2.5662246283180684e-01, 1.3625945800466627e-01,
          -5.5931487624748477e-02, -4.2130484438312393e-01,
          1.9286131759557668e-01, 2.9060815432229031e-01,
          -1.4725106676960253e-01, -1.4006693094702358e-01,
          2.4731978986630265e-01, -1.5573204313188596e-01,
          1.4290095457397939e-01, 1.3467090999445078e-01,
          -1.2755311437966929e-01, 7.3202831360195578e-02,
          -1.2420773044338916e-02, -1.8806533400342502e-02,
          -1.5125593840401725e-02, -9.0957154763757278e-02,
          -9.1601067955372789e-02, 3.5654259882150807e-01,
          -4.1836046038822511e-01, -7.7859956751999623e-03,
          3.2996908119881824e-01, -3.3816081420643357e-01,
          1.1470800801334825e-01, 2.1410402646457971e-01,
          3.7087750638930239e-01, -4.3711313152421362e-02,
          -8.8437127471515575e-01, -1.1682284280158121e-01,
          1.9641639246692472e-01, 2.7290021038608447e-01,
          -1.2764734512113160e-01, -1.5186863746723006e-01,
          -5.7870835288028846e-02, -2.3809948964404093e-01,
          4.1785405309303036e-01, 1.0081547213140210e-01,
          1.0625303927378005e-01, 1.2227345389160348e-01,
          1.8232734943732223e-01, 3.0600990047914001e-02,
          2.3242167212428844e-01, 1.4659607347638368e-01,
          -2.0657480879791534e-01, -1.5867214983943392e-01,
          -1.3060947006452639e-01, -3.5960742140795449e-02,
          4.6575942850726561e-02, -5.2325753763947130e-02,
          6.4922928433797503e-02, 1.4251934241673406e-01,
          -1.5151140995088846e-01, -7.1412665520974972e-02,
          9.4669442372814869e-02, -2.7072038039289231e-01,
          2.7000449885020060e-02, 1.6976556962455089e-01,
          1.7190338135306221e-01, 3.3322991497296416e-02,
          -6.7857503467188829e-01, -1.6923455146985569e-01,
          1.2297780163914880e-01, 2.2749895808724138e-01,
          -8.6567253722314552e-02, -8.4077756654872604e-02,
          -5.3072492389008706e-02, -2.1672727750951810e-02,
          3.2907213690495679e-01, -7.8360322197351014e-03,
          -5.9688911560646603e-02, 7.9408553038934321e-02,
          6.2177220539945892e-02, 1.6408419506118561e-02,
          2.8596491828593712e-01, 5.1867488234341931e-02,
          -1.6810797672994360e-01, -3.3173901744254206e-03,
          -5.1125976929963547e-02, -7.7026668107694679e-02,
          4.1884898137080101e-02, 9.3122793728435873e-03,
          -8.1863303678426891e-01, 2.4785246263157476e-01,
          -5.0203007439019087e-01, -1.0146603388536490e-01,
          5.0637588405434619e-01, 6.8354248916777924e-02,
          3.3008084389191444e-01, -2.1165361653523365e-01,
          4.1193656834061382e-01, -1.1497615233764585e-01,
          8.6953232837834307e-02, -3.3641463849556091e-01,
          7.9246860519041479e-02, -1.4697157035388683e-01,
          -2.9807847722970347e-03, -2.3161479390455146e-02,
          -3.1756731159946379e-02, -3.7037222544984200e-01,
          -6.1962687974043702e-02, 1.2439049123555994e-02,
          3.2092279537884255e-01, 4.9986330861022554e-02,
          2.6030164067992834e-01, 9.2366764653813049e-02,
          -3.2181331827754756e-01, 1.0645877151625484e-01,
          -1.7954923799851571e-01, -6.4236664571586388e-01,
          2.2485243912842862e-02, 3.5468680098263605e-01,
          -1.1094647086928854e-01, -2.0717287580055704e-01,
          -1.7131702049166062e-02, 6.2905515159961329e-04,
          1.8251105607703405e-02, -1.9001865919667866e-02,
          -5.0439278743509085e-02, 9.5501795466335186e-03,
          3.0384387345028251e-02, 2.7474886008399809e-02,
          -8.7626855993899796e-03, 3.3975469202078667e-02,
          -2.1283483868107687e-03, 2.9844702152521710e-03,
          9.5446399215557177e-03, 2.3748712892816517e-02,
          -1.1645138229842858e-02, 2.0324519183556895e-02,
          -2.1298754764462979e-02, -1.3051407527298433e-02,
          1.9765834727709236e-02, -2.4009497792151058e-02,
          3.5153031681695063e-02, -1.2501551776975178e-02,
          2.4130956315389789e-02, 3.6377289186771640e-02,
          2.7531980552807971e-02, -2.2958003712167482e-02,
          -4.3107352591878791e-02, -4.8911917584765451e-02,
          -1.6170950078536202e-02, -3.7145243699689530e-02,
          1.0083608320686313e-02, -4.9871423070023450e-02,
          -3.2907666746675647e-02, 2.3602745934137245e-02,
          -1.4359145684186258e-02, 2.7323851604572649e-02,
          -4.3493022097870718e-02, -1.4548391491698787e-02,
          8.4680723105604455e-03, -3.2804398652550422e-02,
          2.9092601717679496e-03, -2.6086068237202571e-02,
          4.4349346612888078e-02, -5.1998618145301503e-02,
          4.9410216052822968e-02, 2.7309692328278290e-02,
          -4.3095480012293221e-02, -4.7065364697971408e-02,
          -3.8830812547462970e-02, -4.4135713757356303e-02,
          -1.9833586938738844e-02, -2.9803685718724573e-02,
          7.4949522266983216e-03, 3.3329171282832047e-02,
          3.0755862911266401e-02, -1.5321055896017613e-02,
          -3.5558483211926971e-02, -1.0627927002732674e-02,
          -7.4556761362215311e-03, -4.7664745916968551e-02,
          2.0287974083874845e-02, 5.0784130855217983e-02,
          -2.8151644901562339e-02, 4.0244551631135383e-02,
          -1.7980331347992918e-02, -3.5903438609294562e-02,
          3.2700661165538061e-02, 2.8114365349741462e-03,
          3.5338870234487743e-02, 2.6584938791158932e-02,
          -4.0660775462020328e-02, 1.6552806360130245e-02,
          5.0762119126096246e-02, -2.9104911162837976e-02,
          3.9782729387155928e-02, -1.5295652818610421e-02,
          4.3021269920623981e-02, 7.6028773411127935e-03,
          -1.3643034939806301e-02, 1.4328176248288766e-02,
          -1.6657194611558190e-02, 8.1281007791039542e-03,
          2.4434365320173648e-02, 1.8212355862251499e-02,
          3.4873950519707028e-02, 2.3843024139826738e-02,
          3.2336500910452377e-02, -2.4644615209681867e-02,
          -1.5364100804591595e-02, -3.0929811042073697e-02,
          3.7906120745673663e-02, 2.1291545138497161e-03,
          -2.7129800874728459e-02, 5.0125097775339444e-03,
          -2.8402452047146413e-02, -9.4389470116112029e-03,
          -1.2074675362825171e-02, -3.6463237745204109e-02,
          -2.4924121940038319e-03, -2.3138840613056266e-02,
          -3.2234458737508348e-04, 2.1765213798198371e-02,
          -3.1907791734178757e-02, 2.2832043555492388e-02,
          1.2569730380612926e-02, 4.0151581068860659e-02,
          -4.6663590868788483e-02, -9.9222168536305527e-03,
          -3.8303927296501825e-02, -1.4149200690055338e-02,
          -1.5921330213867012e-02, 1.8688129790769510e-02,
          3.5172634646265744e-02, 3.7904861544646631e-02,
          2.9892258901663048e-02, 2.4390362767909384e-02,
          -4.6904394860452593e-02, 9.5355314433855729e-03,
          1.3009732305232016e-02, 4.2042242899410831e-02,
          1.3011636810047612e-03, 5.0398499305125332e-03,
          -2.9019596750884266e-02, 4.9636346659504144e-02,
          -1.3308987765618287e-02, 6.1263770821658381e-03,
          2.3006875811506643e-04, -1.7563114617442671e-02,
          -1.6594612593713857e-02, -1.8558330439006631e-02,
          -2.3186682736718072e-02, -2.0813227056911344e-02,
          -3.8752254148893887e-04, -2.1815719396952642e-02,
          -1.2027823423656275e-02, -4.0992630383028267e-04,
          4.5757441873706790e-02, -3.2764810025418770e-02,
          3.4055881449621549e-03, -1.3475766229884677e-02,
          3.2725980880962506e-02, -4.6529928171973059e-02,
          -7.1768237875176645e-03, -3.2808910175563546e-02,
          -4.3841169574979383e-02, 5.0997288036312254e-02,
          3.0973533983218757e-02, -4.1229583258914980e-02,
          -3.0259858718084472e-03, 2.6664859584681594e-02,
          -1.2604456688862203e-02, 4.5267619285791615e-02,
          -1.7984466312532095e-02, -5.7568788446018811e-04,
          2.9575240651817420e-03, 2.5307354911564425e-02,
          -2.7842097930641154e-02, -1.8282028917231880e-02,
          -2.1545193560097962e-02, 3.6043472472985762e-02,
          -2.3939886333428952e-02, 6.0213306822363586e-03,
          -3.6899540826356769e-02, 4.4394532579797495e-02,
          -5.3208320130471554e-02, 2.4452926759072617e-02,
          -3.5026735767064082e-02, 3.7425740226244196e-02,
          5.1146501790950018e-02, -4.6412869693290143e-02,
          -1.2927916767046981e-02, -7.6443584174987513e-03,
          4.2318649394585524e-02, -1.6691670264570878e-02,
          -7.0380568027609159e-03, 2.0643031879683547e-02,
          2.4234398811399705e-02, -1.3818243696343751e-02,
          -2.3739198736989351e-02, -2.1504475775138022e-02,
          4.7359872808464881e-03, 2.3473920527586564e-02,
          -1.3824065288413567e-02, -3.6709003681550841e-02,
          1.0710999373753874e-03, 1.0323835191286034e-02,
          2.9482639432326155e-02, -2.5691805767223536e-02,
          4.7765420330483914e-02, 1.6533363197619132e-02,
          -9.5036631916013987e-03, 3.4393670998433358e-02,
          -3.8930872690413321e-01, 1.6768309606815607e-01,
          -2.1482367793150886e-01, -8.1504129105872763e-02,
          3.1220491610228429e-01, -3.6885455905021974e-01,
          3.5894102927876514e-01, -6.9505982304653297e-02,
          1.9267345251171705e-01, -2.0224676116556134e-01,
          -9.0891732129110980e-01, -6.6819976298694272e-01,
          1.2128046265088678e-01, 1.8978718194767194e-01,
          -3.6988328620512261e-02, 7.2245790882456626e-02,
          -5.1341235424116914e-02, -1.3839130038061254e-01,
          2.9713189994555850e-01, -7.4476290635253448e-02,
          1.6073572463025551e-01, -1.2611340587209547e-02,
          1.2392065563603781e-01, 7.6901565715452050e-02,
          1.5052756106043969e-01, 1.4679154206894179e-01,
          -1.6688704862066148e-01, -1.3782680205851161e+00,
          -7.1617003309462066e-02, 3.5064907605340168e-01,
          -3.3158085682519572e-02, -3.8088570257031773e-01 ]
      - [ -3.9495851369777302e-01, 2.4810673354130766e-01,
          -1.1525872594908729e-02, 3.3047736341814793e-02,
          1.0384643750078321e-01, 8.6181770323422752e-02,
          -3.6957677976832047e-02, -5.5718695427592291e-01,
          -1.3182207113468666e-01, -1.0512293607672905e-01,
          2.1701004175982912e-02, -1.3254748797449400e-01,
          -1.7658636217199219e-02, 9.8238284024900577e-02,
          -3.3092126275637485e-02, 3.5122965805827688e-02,
          -3.7801337348969670e-02, 1.6027457718768168e-02,
          -5.7423411278644358e-02, -2.1931359569152025e-02,
          2.9495840647613032e-02, 1.0264760206408607e-01,
          5.8523801355409757e-02, -8.5616090954244592e-02,
          -1.5567055210994327e-01, -7.9246211211403336e-02,
          1.2922011111701567e-01, -7.8204544337538012e-02,
          -1.4787368545016105e-01, -1.8077102876114348e-01,
          8.2322815320277826e-02, 7.5352627151042031e-02,
          1.1028951426841895e-01, 1.6588911165991125e-02,
          9.3570349774254862e-03, -1.1376692746868278e-02,
          -1.8308746971786280e-01, 1.2084851830397125e-01,
          -2.0441642367206277e-03, 1.9309472116837104e-01,
          -8.8558408464992258e-02, -9.6391472489980215e-02,
          1.3330595890844335e-01, -1.1282132297569400e-01,
          -7.6396156024491929e-02, 6.5313261202693915e-02,
          -4.5762626490160989e-02, 1.1760611336338114e-01,
          8.8722640203411501e-02, 5.5326417448632696e-02,
          -5.3266956490227585e-03, 1.9156872022012819e-01,
          -1.4954877741094380e-01, 6.4595082615134067e-02,
          2.0063166656058021e-02, -6.0608377361158795e-02,
          -1.0468740245114395e-04, -1.2156732965845961e-01,
          2.5372033969313791e-02, 7.7214562180598911e-02,
          -1.7688175391151459e-01, -2.2518900024964222e-03,
          7.9638904848489941e-02, 2.3073738065493538e-02,
          -1.7971380184329730e-01, 2.0367722225837162e-01,
          -3.3956496032368604e-02, -2.9025852089192622e-04,
          5.0427046745542192e-01, -6.1693162887872410e-02,
          -8.5536628436388623e-02, -3.1815825438217682e-01,
          3.7620780948342598e-02, 5.4906535115931965e-02,
          -2.1436108996080647e-01, 1.1972572440601537e-02,
          4.1082826901593969e-02, -3.3083871396009185e-02,
          1.2032261024889994e-01, -6.3761131209343999e-02,
          -4.4697549519671032e-02, 1.0064799509514092e-02,
          -6.2688444907983407e-02, -1.8861476242838543e-01,
          5.5888931345951985e-02, -2.6949513298387025e-02,
          -4.9646957891572377e-02, -2.1105100711541772e-02,
          -9.4079534507818280e-02, -2.6685731954226903e-02,
          -2.3132500247511519e-02, -1.3488413502172000e-01,
          -5.3582545859998795e-03, -9.0421687024454425e-02,
          -7.7178907555824489e-02, -1.4243541470609065e-03,
          2.2729078299021038e-01, -1.7940784398126794e-01,
          -1.4237427393564489e-01, 3.1228533248858829e-02,
          8.2836224239876036e-02, -5.7689979279600852e-02,
          3.5245008455704240e-02, -2.4594931537862491e-01,
          6.1367985340007224e-02, 4.5322955846577133e-02,
          -3.7958128030764114e-02, 3.1542682165677273e-02,
          6.1072516739764784e-02, -1.2383786295507994e-01,
          5.0943844704052346e-02, -1.3199005482754009e-01,
          1.0259670251630847e-01, 2.6284393266481056e-02,
          -6.1376865912951259e-02, 2.2264155915733019e-03,
          4.3682383494559829e-02, -7.1193711758975084e-02,
          -4.4769879314415437e-02, 9.1095378995799739e-02,
          -1.1098569128834779e-02, 8.6966233633521475e-02,
          4.8919925935584224e-02, 3.2946553342260974e-03,
          6.7372346266109329e-02, 1.4148207160110834e-01,
          2.5199566730714117e-02, -4.0877314661895365e-03,
          3.8393514146397351e-01, -2.4487858659513340e-01,
          -5.0630557414940075e-02, -2.8152446283857418e-02,
          -8.6772863171463474e-02, 4.1514036732711611e-02,
          7.0317934113340821e-02, 3.2602169693513577e-01,
          5.5986123654670844e-02, -3.8072495249088213e-02,
          8.4264183812013893e-02, 1.8099043691846010e-02,
          9.3912274129756938e-03, -4.4877483995295876e-02,
          1.5583995106562066e-03, -9.9618466021187138e-02,
          -1.4890678845084960e-02, -7.1611087736345586e-02,
          7.5149659631420030e-03, 1.1074880977774310e-01,
          -2.3278179338608988e-02, -3.3751884600072286e-02,
          1.0016051454766795e-02, 1.1585915454490367e-01,
          8.0732104853208642e-02, 3.4829894648692808e-02,
          -5.5937623260600547e-02, 5.9701232147100998e-02,
          1.0344710421258173e-01, 4.3782053529166164e-02,
          -6.1205920720114942e-03, -8.8296505023010494e-02,
          -2.7965297093938069e-01, 5.8558798111104482e-01,
          1.0925748872708174e-01, 4.4815352806784600e-02,
          1.4142817943821578e-01, 1.5932105589631731e-02,
          -2.1396258170858204e-01, 7.7726561378504685e-02,
          -9.6696865278754512e-02, 2.7308332193306001e-02,
          -1.0493692678279648e-01, -5.4873649157282586e-02,
          8.4095975592947389e-02, 1.2771859715921219e-01,
          -9.5603639975504473e-02, 7.7154859522638702e-02,
          -3.7768204377630447e-02, 1.0664157283495961e-01,
          4.1226172936307828e-02, -9.1515541196470318e-02,
          -5.0096433607993318e-02, 1.4988535492753285e-01,
          1.0682437670051879e-01, -1.3125385950341856e-01,
          -4.8235964019827611e-02, -1.7600237311315761e-01,
          5.3321122864295099e-02, -2.7271156710872109e-02,
          -1.4722026616912273e-01, -4.7237493684492865e-01,
          3.6832206766896150e-02, 9.8440276526464698e-02,
          -3.7520438800502702e-02, -6.8445117767288913e-02,
          8.5995892653404016e-02, -3.1934716399655630e-03,
          -2.1508748360680080e-01, 3.9260923428227977e-02,
          2.3597780904391605e-02, 4.9064297799636220e-01,
          -7.6340478452969790e-02, 3.6353266827752542e-02,
          1.3055970005937978e-01, 9.3200653014426330e-02,
          -1.6147545915156238e-02, 7.2004543473908222e-02,
          -1.4572900000714259e-01, 1.1991742969034126e-01,
          5.8916926530513678e-03, -4.5655867632774766e-02,
          2.0051976354885957e-02, 1.0490318015428071e-01,
          -6.3122444439590045e-02, 4.5596922241138843e-02,
          -2.1145857511616146e-02, 3.9297336301574629e-02,
          8.6565322012856757e-02, -3.1148775892731680e-02,
          -1.4688915240678798e-02, 4.4401917725178201e-02,
          2.6772196502024212e-02, 2.8093796625543583e-02,
          4.3912304607986924e-02, -6.1599128431720690e-02,
          2.1504277611511963e-01, -3.9826962350018530e-01,
          -3.6956673164618266e-02, 4.7516122470794578e-02,
          2.8949371135658333e-02, -1.1912800846457100e-02,
          4.6528800813631539e-02, -3.4820545915886564e-01,
          2.8039791796393838e-02, 3.6790935388038015e-02,
          -1.4566620698770214e-02, -8.4254669001683602e-02,
          -2.0441349307240758e-02, -4.7777163998580334e-02,
          1.1532016389665607e-01, -8.6607102402245242e-02,
          4.6670146151171640e-02, -5.1858112150722320e-03,
          -5.6820158696279988e-02, 4.0920142808532345e-02,
          3.0141128819915531e-02, -9.6215152603984881e-03,
          2.0488822421296703e-02, 3.9740862935172705e-02,
          -4.4698623582247250e-02, 1.3712823183299633e-01,
          -1.9598561282461791e-02, 3.3394926238660902e-02,
          4.5050396438621888e-02, 2.2170391036069972e-01,
          6.9083703006193008e-03, 2.1194151200033040e-02,
          1.0746265251097041e-01, -9.7051840431467366e-03,
          5.6128935325059345e-02, 4.7023413491150239e-02,
          -3.8360023010475830e-01, 7.8979812324769499e-02,
          -1.4616445619704960e-02, 2.8029668072500613e-01,
          -1.2445444736199307e-01, -7.8122686358040802e-02,
          1.6515039062369022e-01, -6.0373906454239581e-02,
          2.5678867678143764e-02, -8.1953411582708271e-03,
          -6.4130680054877723e-02, 1.6238528350751125e-01,
          9.1390046871644162e-02, -6.0249713846289500e-02,
          1.6675370152061459e-02, 1.9618210671435238e-01,
          -8.6638216354727668e-02, 2.5987071091945570e-02,
          1.1809821950599059e-01, -5.5293094031139467e-02,
          -7.5933551020651621e-02, -7.1833678353458608e-02,
          5.5669857887480509e-02, 1.5825990801444767e-01,
          -1.1472969727757298e-01, 1.7266500406825595e-02,
          -1.4610128455213539e-02, 5.3184958918547999e-02,
          3.8293042801899602e-02, 9.2588437082184491e-02,
          -8.0800906684156237e-02, 3.2972045909604531e-03,
          2.2673216340521646e-01, -2.3226329861429796e-02,
          -8.0342232684063208e-02, -3.7410097065981512e-01,
          -2.8172792691604324e-02, 2.4144541387509055e-02,
          -8.0997869871730327e-02, 7.3041660918021709e-02,
          4.5343595667443733e-02, -2.0662685924682455e-03,
          1.2440504626255079e-02, 1.5934357969681474e-02,
          -4.9973719357335772e-02, 5.0076185486110513e-05,
          -3.5117831712207795e-02, -8.9597744463942600e-02,
          3.0242804792889683e-02, -7.8287233997559380e-02,
          3.3803093093867954e-02, 3.3869550490992932e-02,
          -6.1934789603485113e-02, -8.9865550983495635e-02,
          5.9635948223477661e-02, -1.1086833100334381e-01,
          -1.0572453847863770e-02, -5.0625316720846220e-02,
          -1.9417568091330939e-02, -1.0589034651279756e-02,
          -2.3242891971175511e-01, 9.9710534635040571e-01,
          7.5930516126826664e-02, -3.4045569155105003e-02,
          5.8126386953338849e-01, 8.1300807159849678e-02,
          -3.2479988558445583e-01, -3.3322054410734608e-01,
          -1.3119526749022753e-01, -5.0096967685320723e-02,
          2.2697099726772512e-02, -5.1533887338033664e-02,
          7.5164668845937699e-02, 1.3285527584735055e-01,
          -6.7296804985281594e-02, 2.5528713666438807e-01,
          -8.5942052088037360e-02, 1.0029470472418285e-01,
          4.1143557336821228e-02, -6.5408280260191839e-02,
          3.0908801632539722e-03, 2.8087450930022390e-01,
          1.4747266988049207e-01, -2.5013627118899501e-01,
          -1.0400790839271339e-01, -3.7575010293590022e-01,
          1.1599916744961095e-01, -1.9382692778674784e-01,
          -2.8495303288394380e-01, -7.6970690720629020e-01,
          -2.9974439872427542e-02, 2.6539787847175502e-02,
          -8.7327100390906534e-02, 3.6488319098548927e-01,
          -1.6073135881334216e-02, -1.5890781641044569e-03,
          6.6646541133904902e-01, 2.8153227353840782e-03,
          -7.7713144747297444e-02, -7.1760894051632873e-01,
          -2.8075728157017893e-02, -3.7523877342389163e-02,
          -1.2726885440751315e-01, -9.4167522496820186e-02,
          9.1698028756477534e-02, -3.8280709326759373e-02,
          4.3564806722848530e-03, 4.9800489272016225e-02,
          1.5185285139395963e-04, 1.1681202873475723e-01,
          -9.2429357177617008e-02, -3.8648453627635353e-02,
          4.2152747448276497e-02, -3.7854220522187212e-03,
          2.3640169198309528e-02, 1.5506426985787849e-02,
          -1.7518027397370858e-01, -1.4473430877649418e-01,
          5.7266953738512233e-02, -2.4088802322390562e-01,
          -1.0769697385343394e-01, -2.5916722704493506e-01,
          -5.3310077280796446e-02, -3.9780648828178472e-02,
          2.0977772988893659e-01, -9.9888939904351895e-02,
          -6.8944878465224249e-02, 4.5565935259777500e-02,
          1.6639476218683780e-01, 3.3382481277708702e-02,
          -4.2052394367529236e-02, -1.2547863289946301e-01,
          -7.9088349522889623e-02, -4.2868977424108320e-02,
          5.2209233752922385e-02, -6.8153122242131745e-03,
          8.1564506732924411e-02, -1.4137457682608134e-02,
          2.4517995312459819e-02, 8.7177290167962496e-02,
          -4.5803904232732381e-02, 2.4554926225115133e-02,
          -1.5288383205943886e-02, 7.6380908269248995e-02,
          -4.3971580477600379e-02, 4.3995545444190862e-02,
          -4.1311991730499813e-02, 2.6264799019702145e-02,
          -9.8962772046938541e-02, -1.7461475327283094e-02,
          1.3140560190308982e-03, 5.2566726938801100e-02,
          -5.3953971744430271e-02, 8.9795844182339171e-02,
          -3.5199481130019736e-02, -1.6336263096378617e-02,
          2.6434049952057465e-01, -4.3283679618447174e-01,
          -1.2338723501203232e-01, 2.1049220347568044e-02,
          -2.1364358535354063e-02, -2.6143812477963581e-02,
          1.4573886934364383e-01, -2.3780033977332296e-01,
          8.1594212005308642e-02, -5.0131720582405323e-02,
          -7.9568273925536032e-02, -4.8224043404782431e-02,
          9.0705059732068705e-03, -1.1743527903496523e-01,
          5.3798110968463736e-02, -1.0866695748402057e-01,
          6.2577557862961208e-02, -4.2984991084312370e-02,
          -5.7976355736094227e-02, 7.9430060315455922e-02,
          -5.7885611233417060e-02, -6.8657422056761050e-02,
          -4.5760649259674928e-02, 4.3703816128912401e-02,
          -4.2092820358916880e-03, 1.3386969837613974e-01,
          4.4751545976414930e-03, 1.3527575499126834e-01,
          9.1726044622684865e-03, 3.1763293435646694e-01,
          -1.8959151276758776e-02, -2.3175475071263225e-02,
          1.3344939055672042e-01, 1.6082980738811307e-02,
          -2.4026667081647118e-04, -2.8622311718972268e-02,
          2.8312602360807670e-01, -7.2797122376028991e-02,
          3.5043259377636818e-02, -6.1741263725728059e-02,
          4.4179158465934024e-02, 2.5134982669974680e-02,
          2.2775192641397369e-02, 1.3865756495691536e-01,
          -2.2414655909123348e-02, 2.0133881820071798e-02,
          2.7807617286718034e-02, -1.1290096244155126e-02,
          -4.6925779444358544e-02, 1.7041124723621340e-03,
          -1.7787314010899242e-02, -3.2716868987294985e-02,
          2.6311313056788639e-02, -1.2531586132967230e-02,
          2.3024057320755440e-02, 3.3363098064822828e-02,
          -6.8037716995687919e-02, 1.0996465892751410e-02,
          -6.4406768065057921e-02, -1.1080901970621455e-01,
          7.1903576326673588e-02, 3.7944930813569408e-02,
          2.1292859733230484e-02, -2.1942253093817352e-02,
          -2.3068134036130103e-01, 4.9204960973002275e-02,
          7.3079645575825792e-03, 3.6025811102624339e-04,
          -1.5079672615664058e-01, -2.9735716671871061e-02,
          -2.1466007613983118e-03, 2.6604460213299791e-01,
          8.1837415138478857e-03, 2.2187115964988426e-02,
          1.9259211221584998e-03, -1.5787153993157433e-02,
          -1.4557052184539757e-03, 1.4799774528220030e-02,
          -3.9097796659054379e-03, -1.8348663595197136e-02,
          -6.8351950864486824e-02, -3.8668314232406548e-02,
          -3.3490615681606918e-02, -4.8626623732589353e-03,
          -3.1693932423105700e-03, -6.1651503927645977e-02,
          -6.6958805968234947e-02, -3.1456078359481221e-02,
          1.1470130161774124e-01, 7.3734454233647967e-02,
          -9.6660506739278770e-02, 2.1107963683299012e-02,
          6.8090952087288742e-02, 1.8297283067058818e-02,
          -4.6872287425082683e-02, -3.0620328773543232e-02,
          2.1288820754399732e-01, -2.7091866695900568e-01,
          -9.3619622080822626e-02, 4.2882001701378347e-02,
          4.9815439704940422e-02, -3.3458843869689269e-03,
          6.6552716424938832e-02, -1.9351526480664366e-01,
          4.9212670440136136e-02, -3.7605080095523775e-02,
          3.7712171711635684e-02, 5.7738671411649824e-02,
          3.2160270855518661e-02, -5.4662667747519732e-02,
          1.0917465470928285e-01, -9.3216718265557622e-02,
          2.1926074478093600e-02, -6.0406903528137004e-02,
          2.9459363458051935e-02, -6.1165493819791569e-02,
          1.0587912420130217e-02, -1.1965088182880813e-02,
          -4.6632695252096242e-02, 2.4143795595675862e-02,
          -2.2163359175057077e-02, 1.7413838429798174e-02,
          -3.5552116711906619e-02, 5.1537289154439336e-02,
          6.1105500263092534e-02, 1.8074052781398811e-01,
          -3.3325483080392190e-03, 4.0600972527183553e-02,
          -5.1938404496861226e-02, 3.8877982887026896e-01,
          -4.6601602434878646e-02, 3.1340205267752642e-02,
          4.6114812120755683e-01, -6.6335225600497219e-02,
          -1.1272350530831561e-01, -2.0220565404687726e-01,
          8.5168737943964578e-03, -1.7333493653317263e-02,
          -1.4716398308608133e-01, 9.3950375384355161e-02,
          8.4075074439797809e-02, 2.7686890395949782e-02,
          -4.3167405298008311e-02, 1.1529458484769697e-01,
          -7.2630575696418318e-03, 1.5645009118722832e-02,
          -1.1381628202927605e-02, -1.2566906246298989e-01,
          -5.0149680557646993e-02, 5.8016920267020503e-02,
          4.8661143427820373e-02, -9.1395577947329124e-02,
          -6.6520816978072592e-02, -1.3426471782284732e-01,
          1.0749364082594061e-01, -1.6530434265259991e-01,
          -1.3224341829210068e-01, -2.5145918814167639e-01,
          -2.3661487269161896e-02, 5.8735685850330205e-02,
          3.0460179050654507e-01, -5.5933248609095354e-01,
          1.8012947706011483e-02, 5.2789310942283174e-02,
          -1.6067140150700254e-01, 7.5409142291239600e-02,
          1.8073696017006358e-01, -7.4488419212191709e-02,
          -5.8444421335275838e-02, -5.1760228705579343e-02,
          8.7966465542564459e-02, -9.1266798707915556e-02,
          -8.1270752259711754e-02, 1.5434328613036119e-02,
          9.8189654684149655e-03, 1.4811124675410813e-02,
          -1.7030991121076491e-02, -9.4020890552951028e-02,
          -7.5962219212878782e-02, 1.6334493248108101e-01,
          -7.6875076873218373e-02, -3.3569333601956033e-02,
          2.5527911107190250e-02, 1.0756721855071825e-01,
          7.1566155653958449e-02, 9.4959253729212045e-02,
          -6.1329171175936371e-02, 1.0895370673724908e-01,
          -3.4572987277589187e-02, 3.8109328096189604e-01,
          9.0754084444554326e-03, 1.5599657196422742e-02,
          -1.1298451486005572e-01, -1.0554486260760836e-01,
          5.5178582792495427e-02, 7.6175634046291903e-03,
          -2.8041192859249903e-01, 4.8731023637224820e-02,
          -3.1312974995175255e-02, -8.6964510417092050e-02,
          -2.6376573534956333e-02, -1.2641440471829971e-02,
          1.9732251259785810e-02, -1.4706661718124797e-01,
          3.6558500489221518e-02, 7.4345001247288628e-02,
          -9.7641948427701995e-03, 4.4806314151277858e-02,
          2.4157252598376717e-02, 8.0311220466519603e-02,
          7.8174759725582785e-02, 1.1151935647888946e-02,
          -3.1250572251373475e-02, -4.9173065884096617e-02,
          -9.3610891487595580e-03, -2.6845344583235869e-02,
          -5.6760890961900769e-02, 1.9285690230420392e-02,
          -1.5507310256996355e-02, 1.0606553689115188e-01,
          -4.1803528997817491e-03, 2.6329642945469401e-02,
          8.6059847784407090e-02, -1.8511674603926881e-03,
          3.4348257866339649e-01, -1.4861437800204985e-01,
          2.2671776956364371e-02, 2.9751633701725688e-02,
          1.2105923248985476e-01, -2.8617684139751135e-02,
          4.9050012413013128e-02, 1.4718258006981091e-01,
          -3.3358516959101144e-02, -3.2663772022545168e-02,
          7.9926696852471002e-02, 2.3368484587008042e-03,
          -5.5159043301888082e-02, -7.9751345699698523e-02,
          2.4783149518253455e-02, 8.9009990878514717e-04,
          -1.1638764857221521e-02, -7.2780594337683358e-02,
          -5.9715517734707554e-02, 8.2336076373798181e-02,
          -3.4312044279678058e-02, 6.2386060637486182e-02,
          9.9143177864169721e-04, -1.0246359358192719e-02,
          -2.7489806172201276e-02, 6.3030701957357327e-02,
          -1.7971284351726451e-02, 6.5982403423720682e-03,
          2.2872301607821523e-03, 4.4731778597583245e-03,
          -3.1323480341605550e-02, 2.3520767132763604e-02,
          3.3585744850605426e-01, -1.0616320360770240e-01,
          -9.6094342705736149e-02, -7.6500963413440801e-02,
          3.2799676644349662e-01, -2.9194175191549297e-02,
          2.1143460290574921e-02, -2.8651150294111466e-01,
          -6.5219263349984638e-02, -3.7883717952173886e-02,
          -1.1428762525636554e-02, -6.2294103218648547e-02,
          -2.2530646815601737e-02, -6.2859686142700738e-02,
          -1.1176584437260139e-02, -3.3588320176126715e-02,
          8.2695133526208914e-02, 4.1720817541610812e-02,
          -3.7680749749560843e-02, 5.5590921042667343e-02,
          -4.4441267567966659e-02, 4.0162161261941699e-02,
          8.0641814775677764e-02, 2.1947859126796958e-02,
          -9.7507042634562099e-02, 1.9537933464821633e-02,
          1.1190973574670368e-02, -2.3119115046064242e-02,
          -9.9229880779671376e-02, 2.6633147443603362e-02,
          -6.5058784878933323e-02, 2.9544788250984218e-02,
          5.3929145815605074e-02, -2.3213334060881299e-01,
          9.7522972423401688e-03, -6.1598119305770242e-02,
          -3.4439556562078932e-01, 9.2933156991814123e-03,
          3.2873888911375528e-02, 1.6373629751991406e-01,
          -1.0858048911857326e-01, -9.7261363028006212e-02,
          9.0432236171919006e-02, -1.0010668743990216e-01,
          -8.0879926027047924e-02, -2.9431334629469137e-02,
          -1.6123885782895645e-02, -2.9986533477507338e-02,
          4.3041984965732236e-02, -1.4929592748169077e-02,
          -1.0773879746716305e-02, 1.3301848511797959e-01,
          -4.6110516011999822e-02, -8.7261715569813200e-02,
          -1.7825686114119822e-02, 8.8591009341814714e-02,
          3.5102972527579608e-02, 8.1383740323119555e-02,
          -4.4648866512330077e-02, 1.3906498054851638e-01,
          -4.5663257324553619e-02, 1.6808569218825486e-01,
          2.6077536023150587e-02, 3.6907664237423657e-02,
          9.1778933388871053e-02, 6.7568406911208117e-03,
          -5.8881989814888853e-02, -7.4478256078358285e-02,
          2.0630989020398469e-01, -2.1187087076700990e-02,
          7.3443481434195095e-03, -7.3855645426340238e-02,
          4.3872181977711762e-02, -6.8005716471480612e-02,
          -1.8589110315882049e-02, -2.8756256129892359e-03,
          6.1510392752307873e-02, -1.0788302098928300e-01,
          7.6603913109490884e-03, -7.0771667783529349e-02,
          4.4839155938200030e-02, 3.3787792504990317e-02,
          5.2625872274014093e-02, -4.4014679218375354e-02,
          -4.5705317902998213e-02, -7.6464496295460732e-02,
          -9.9322453430016880e-04, -3.7140764741667364e-03,
          -1.1785922647240571e-01, 4.6925519723830751e-02,
          9.7234645971126729e-03, 1.2150106808378643e-01,
          3.5675984669669980e-02, 8.3896958237596242e-02,
          -6.7437126400524863e-02, -1.7621169477892096e-04,
          1.9504433760164624e-01, -5.2916344605836374e-01,
          -8.5597894512324843e-02, -2.3889983343709880e-02,
          -7.2605554672222281e-02, -1.3148988829701161e-01,
          2.2080410540479797e-01, -2.7507139246315387e-01,
          3.4433626098250097e-02, 3.7683387243485161e-02,
          -1.2636062303512921e-02, 1.4766757508498107e-02,
          -4.1418853924755090e-02, -3.4174965110537629e-02,
          1.4045848338173766e-01, -1.9094948253708127e-01,
          -2.6887083455853535e-02, -5.1274042645318860e-02,
          -1.9929578675794358e-02, -2.2089423023908525e-02,
          1.8218007746255503e-02, -1.3429190179971603e-01,
          -9.8588541822320019e-02, 1.1471300115245731e-01,
          9.9605327659132298e-03, 1.7398047440598932e-01,
          -1.4554280701657832e-01, 4.6159713523346545e-03,
          1.0218262477804947e-01, 3.8578354866000775e-01,
          2.2367505399705959e-02, 1.0444387596670620e-02,
          -1.5123037830481356e-01, 1.2187023847102112e-01,
          3.4144472667072379e-02, -1.3130949238431271e-02,
          -8.8755589515026781e-02, 9.6715948255108083e-02,
          -8.7945339158374117e-02, 2.4884555862772700e-01,
          -1.0986406872466442e-01, -7.0825809035080997e-02,
          2.3954769190486756e-02, -5.5603155308795296e-02,
          -9.0370798394922274e-03, 4.1539270042879835e-02,
          -6.0664752823365177e-02, 1.0232218423352329e-01,
          2.6471085686393135e-02, 1.8616184950660562e-02,
          2.0359000217078229e-02, 1.8328113331930393e-02,
          -9.2043927932975819e-02, 7.3676503007289854e-02,
          8.5004649934621229e-02, -1.0773334583957853e-01,
          -6.0465068802809932e-04, -7.6572281332224559e-02,
          6.6599404408343291e-02, 7.6133982441567383e-02,
          -2.3464417038130753e-02, -9.5176181444786193e-02,
          1.7202896829521742e-02, -2.2382516296859754e-02,
          5.2720845945347539e-02, -1.0997463104812615e-01,
          -2.9699842959311475e-02, 2.4865377986888950e-03,
          1.2284409635943910e-01, -1.0758743560645001e-01,
          2.1008151281918584e-03, -1.9503025679384492e-01,
          1.2193787598208336e-01, 2.4861045449084584e-02,
          -2.4854751685075286e-02, 3.5307968479500060e-02,
          -8.1814143329306047e-02, 7.2017180515043262e-03,
          1.2621869250237966e-01, -1.5849226873044567e-01,
          -5.9576241240678639e-02, -6.4939368197607150e-02,
          -1.5763529763717907e-02, -4.3463131803310476e-02,
          1.2847722688116381e-01, -8.4691102202553520e-02,
          -5.5249624350658152e-02, 5.5363247867629597e-02,
          7.9188233103288569e-02, 5.0158868566471136e-02,
          -5.8266306606073071e-02, -1.0204896415641784e-01,
          1.0180151654162657e-01, 1.2257700201703477e-01,
          -3.1058724492204055e-02, -4.1473647349969375e-02,
          2.6708838454667083e-01, 1.3723488886800583e-01,
          1.0269820010065919e-01, 1.1396658667580066e-01,
          4.1476726029140748e-01, 8.6237896497078137e-02,
          1.0357666951055232e-01, -1.2670558741211981e+00,
          -8.7106438081442170e-03, 3.7162121008531675e-02,
          1.5107368038861718e-01, 2.0196236106898194e-01,
          -8.2981409736494219e-02, 1.5152232923274531e-01,
          -7.5938476707801059e-02, 1.9785666175355772e-02,
          -1.4057564874793629e-01, -2.9384037140777691e-01,
          -1.6040482624402749e-01, 1.8429516949923234e-02,
          1.0565832602595149e-01, -7.0541845463031619e-02,
          -7.4037203272788857e-02, 5.3343260726594108e-02,
          -1.2911285097824593e-01, -8.1200001507463534e-03,
          -3.6155951518967916e-02, -3.4492190355823171e-01,
          -3.1585093370320311e-02, -2.4529239898624430e-02,
          -2.2802086611231401e-02, -6.9924806184206337e-02,
          -3.2853827622784121e-01, 3.2937357459878158e-01,
          1.1520572582579411e-01, 1.7911215565534266e-02,
          2.6329896579473620e-04, 1.0413503814302209e-01,
          -9.0788223698167483e-02, 2.6872393532827960e-01,
          -9.5437589386540747e-02, 5.7338894268436115e-03,
          2.2510167462362479e-02, -3.7093732602190448e-02,
          3.8485375403959590e-02, 1.2024749442424712e-01,
          -7.7469001993943049e-02, 8.6282005141181090e-02,
          -1.0815420568569911e-02, 5.2558273073285589e-02,
          3.5631241234215925e-02, -1.0289487378603615e-01,
          2.8409731578519976e-02, 4.8554734155770427e-02,
          5.0811432018877507e-02, -1.4398694178072149e-01,
          6.3877762756542153e-02, -1.5230767438489426e-01,
          5.8812908870596065e-02, -3.6241070532525788e-02,
          -8.7480137703505059e-02, -2.7031832593997107e-01,
          -3.2799567748427440e-02, 7.0924305490626380e-02,
          -2.4172611873068325e-01, 2.7598629521006190e-01,
          5.1041608110399234e-02, -3.1226679024027294e-02,
          -1.5987479151590742e-01, 5.8602732291514921e-02,
          -6.3917492590633354e-02, 6.0374390824958213e-01,
          -1.5449774711256145e-02, -4.7798749552068483e-02,
          8.5888617307888354e-02, -1.9792517048456939e-02,
          7.4142301687813841e-02, 9.1079217896350484e-02,
          -1.9215383516653674e-02, 1.2212386377424143e-01,
          2.0217964925817882e-02, 1.1678982703282038e-01,
          1.0678420526952995e-01, -3.0347347870986939e-02,
          -9.7704750196525494e-03, 1.1241029112794433e-01,
          -2.5776330016234601e-02, -1.0580153946332135e-01,
          1.8484649798562389e-02, -1.2955247319319246e-01,
          1.1827910300472808e-01, -1.0880556984560865e-02,
          -6.3307055079507915e-02, -1.6818857272475388e-01,
          -7.4504422332115974e-02, 8.0073724155152765e-02,
          3.1040175080922472e-01, -2.9512512104451782e-01,
          5.7238371407196198e-03, -4.1234839193415203e-02,
          6.0660316208978229e-02, -4.9684401893469947e-02,
          1.4938147299781956e-01, -3.0902376339640969e-01,
          -1.0919717635334806e-02, 1.5911491517694287e-02,
          5.1240239209752588e-03, 2.4467926685526130e-02,
          -6.1047947652440711e-02, -1.0304451997829496e-01,
          2.5493118348929956e-02, -1.2756025444802419e-01,
          1.0152082275359642e-01, -9.4855072824593017e-02,
          -6.8723203588198029e-02, 7.4974903822870309e-02,
          4.9415157773209867e-03, -7.0039878399456551e-02,
          -4.0986384921236546e-02, 1.1770212401451270e-01,
          -1.4972944848379969e-02, 5.5364193285484059e-02,
          -6.2859753554431977e-02, 1.9735692079165923e-02,
          2.9919792028958964e-02, 1.7412289506864684e-01,
          -2.9905855521045532e-02, -7.5110813915332725e-02,
          2.0586741502845532e-01, -7.5709528860748151e-02,
          -9.4953466000485723e-02, 2.7690875168971148e-04,
          9.3518185190305581e-02, -8.4016562517512286e-02,
          3.5046103231448446e-02, -5.5509558144663274e-01,
          1.1420165008224992e-01, 2.0370782025042916e-02,
          -3.4650771722184510e-02, -9.3247925960229777e-03,
          5.3433572322693482e-02, -5.2002404676365389e-02,
          1.2528487708380628e-01, -5.1070089049406540e-02,
          1.9978119439085402e-03, -7.8435815401465117e-02,
          -1.3374987587146107e-02, -5.6146887755195156e-02,
          5.2229212474980496e-02, -6.4107992934895539e-02,
          -1.1851757685813468e-02, 3.6908965330090221e-02,
          -9.1833517949358734e-02, 7.6765278382808166e-02,
          -1.2237070475650026e-01, -4.3033683132577591e-02,
          5.1443836221293615e-02, 3.0221824189060220e-02,
          2.1635240129775277e-02, -2.1638996931955975e-02,
          1.6181908700660932e-01, -2.4684064155760393e-01,
          6.4441774598742868e-02, -1.5423261829798066e-01,
          1.1134160134173059e-01, 3.9324101756461982e-01,
          2.3205569098256832e-02, 1.0028259224524043e+00,
          -3.4749071358730704e-01, 8.2758187865030267e-02,
          3.8266114747720681e-01, 2.2129517409329258e-01,
          -4.1299513823443068e-01, -4.5424776778019614e-02,
          -5.3445574510548835e-02, -1.4055198742875724e-01,
          2.7974268901739885e-01, -9.7760315195352346e-02,
          1.1971757655767175e-01, -9.0653738037672502e-02,
          -5.1199246733214154e-01, -3.9724987683119123e-01,
          3.7208350318021199e-01, 2.4493268480183189e-01,
          2.9883283953295037e-01, -6.0888719904808500e-02,
          4.8069599261145768e-01, -2.6367870936295690e-01,
          -3.2728271030658290e-01, 1.8694484803211711e-01,
          1.7861418666364648e-01, -3.5874255931118280e-02 ]
      - [ 3.1134573070284682e-01, 5.3630779619943912e-02,
          -2.1735406660504034e-01, 3.2352303830360513e-01,
          6.9758345357845264e-01, -6.9312230054269730e-01,
          4.5379565565865537e-01, -3.0266104784951892e-01,
          1.2103737013990014e-02, 3.9222911527443588e-01,
          -5.1765173128767293e-02, 2.0112698788264144e-01,
          2.0760102900435332e-01, 2.9536498208625500e-01,
          -4.5995250601895549e-01, 1.2643817514813388e-01,
          -2.7835038301847387e-01, -3.8030822822860533e-01,
          4.0965863027181232e-01, -7.0048307225240608e-02,
          1.5525832194663233e-01, -8.5809994640291809e-01,
          -2.2038643922820467e-01, 1.2812871564331447e+00,
          1.7923903462525745e-01, 1.2152887188456123e-01,
          4.0053597536338253e-01, 2.1721791906726576e-01,
          -3.5064299925506104e-01, -3.3440063923084920e-02,
          4.5251798962431194e-01, -4.2363952073022348e-01,
          -4.8655515734347854e-01, 3.6213763355082690e-01,
          -6.0687604441678078e-01, -2.1726185472940074e-01,
          1.5487962019542627e-02, 4.4504221306641834e-01,
          5.5188860032166398e-01, 4.7296938982414061e-01,
          -1.1127966254779122e-01, 2.3556026536652847e-01,
          -4.6197759808170402e-01, 1.2259449252073885e-01,
          -3.3230050222742467e-02, 5.9703418329013491e-01,
          2.0077577479136210e-01, 1.6936383359204502e-01,
          -4.4462297416824692e-01, -6.4238975774817231e-04,
          -4.8453548370842542e-01, -6.6949243307380180e-01,
          4.5217438968307361e-01, 1.4220120112086743e-01,
          -2.9437204412839091e-01, -3.5340769174982016e-02,
          -1.2420602077832216e-01, 8.3572064432957183e-01,
          1.8550542714807405e-01, 1.0005533723581109e-01,
          6.1480903545738708e-01, 1.0136431881724745e-01,
          7.0500545705943052e-01, 7.1726119434579638e-01,
          4.8455223044002504e-01, 3.8525718569520456e-01,
          -4.1243496232009580e-01, -1.1799424786157860e-01,
          -4.7671054395624674e-01, -3.7024390954998376e-01,
          -2.8319593848090580e-01, -3.1835847920988986e-01,
          -3.3797391017319639e-01, -4.2584027655110712e-01,
          -4.8969480163560153e-01, 1.4034333432928314e-01,
          -9.9377327040761285e-02, 1.5285722427740855e-01,
          -6.2594527432541336e-01, -1.8610537395038132e-01,
          -5.4511678458896262e-01, -3.9423744379249126e-01,
          9.3840933164313101e-01, 3.0845552390541237e-01,
          1.3250688186483955e-01, 3.6415932042013571e-02,
          3.5797714855789009e-01, 2.9798949648830947e-01,
          -3.3128188439033190e-01, 6.2046302254137486e-01,
          -2.9039415002263685e-01, -7.5211409287341477e-02,
          -2.7539610655149177e-01, -1.0963650952111245e-01,
          1.3287317734726134e-01, 6.8209800462794609e-02,
          6.3646212184298090e-01, 7.1764474386025001e-01,
          -5.1633817027239881e-01 ]
